svm_type c_svc
kernel_type rbf
gamma 8
nr_class 2
total_sv 52
rho -3.74667
label 0 1
nr_sv 29 23
SV
17.60589970574917 1:-0.956577 2:-0.997603 3:-0.999994 4:-0.999999 5:-0.999888 6:-0.994893 7:0.925665 8:-0.884289 9:-0.847218 10:-0.855649 11:-0.933844 12:-0.901235 
128 1:-0.962984 2:-0.998058 3:-1 4:-1 5:-0.999888 6:-0.994893 7:0.925665 8:-0.884289 9:-0.895012 10:-0.866616 11:-0.947595 12:-0.950617 
13.44537180328676 1:-0.791236 2:-0.97284 3:-0.995665 4:-0.996313 5:-0.999881 6:-0.994385 7:0.925673 8:-0.942627 9:-0.995757 10:-0.993624 11:-0.968284 12:-0.975309 
41.13237322087851 1:-0.825655 2:-0.979856 3:-0.999558 4:-0.999949 5:-0.999888 6:-0.994899 7:0.925665 8:-0.987892 9:-1 10:-0.99745 11:-1 12:-1 
128 1:-0.974875 2:-0.998825 3:-0.999945 4:-0.999962 5:-0.999888 6:-0.994892 7:0.925665 8:-0.737371 9:-0.799115 10:-0.787554 11:-0.883017 12:-0.851852 
33.32636647893423 1:-0.976634 2:-0.998941 3:-0.999936 4:-0.999958 5:-0.999888 6:-0.994892 7:0.925665 8:-0.771589 9:-0.852137 10:-0.849273 11:-0.901081 12:-0.82716 
87.32955679928989 1:-0.976006 2:-0.998938 3:-0.999883 4:-0.999937 5:-0.999888 6:-0.994891 7:0.925665 8:-0.765886 9:-0.865393 10:-0.86075 11:-0.914832 12:-0.901235 
128 1:-0.977624 2:-0.998983 3:-0.999962 4:-0.999986 5:-0.999888 6:-0.994892 7:0.925665 8:-0.84573 9:-0.974088 10:-0.908442 11:-0.962756 12:-0.950617 
128 1:-0.967636 2:-0.998396 3:-0.999958 4:-0.999983 5:-0.999888 6:-0.994892 7:0.925665 8:-0.783855 9:-0.742112 10:-0.812038 11:-0.846554 12:-0.82716 
14.11892220483986 1:-0.695734 2:-0.945972 3:-0.998756 4:-0.999116 5:-0.999888 6:-0.994732 7:0.925662 8:-0.961483 9:-0.989536 10:-0.987503 11:-0.977385 12:-0.950617 
128 1:-0.95918 2:-0.997799 3:-0.999986 4:-0.999992 5:-0.999888 6:-0.994892 7:0.925665 8:-0.908383 9:-0.990856 10:-0.938536 11:-0.98544 12:-0.950617 
128 1:-0.979426 2:-0.999124 3:-0.999849 4:-0.999922 5:-0.999888 6:-0.994891 7:0.925665 8:-0.874778 9:-0.990445 10:-0.938281 11:-0.986417 12:-0.950617 
128 1:-0.979156 2:-0.999091 3:-0.99997 4:-0.999987 5:-0.999888 6:-0.994893 7:0.925665 8:-0.79996 9:-0.907298 10:-0.875032 11:-0.944761 12:-0.901235 
16.22623363563282 1:-0.968114 2:-0.9984 3:-0.999991 4:-0.999993 5:-0.999888 6:-0.994893 7:0.925665 8:-0.908681 9:-0.996233 10:-0.949758 11:-0.983821 12:-0.950617 
9.60955325627965 1:-0.958127 2:-0.99805 3:-0.999148 4:-0.999416 5:-0.999888 6:-0.99487 7:0.925666 8:-0.452469 9:-0.350167 10:-0.457791 11:-0.653307 12:-0.753086 
6.457376093664301 1:-0.996617 2:-0.999843 3:-0.999969 4:-0.999993 5:-0.999888 6:-0.994893 7:0.925665 8:-0.699223 9:-0.961923 10:-0.840857 11:-0.949717 12:-0.925926 
57.34544232391449 1:-0.982479 2:-0.999222 3:-0.999979 4:-0.999992 5:-0.999888 6:-0.994893 7:0.925665 8:-0.863726 9:-0.98104 10:-0.936751 11:-0.978935 12:-0.950617 
128 1:-0.985403 2:-0.999358 3:-0.999976 4:-0.999993 5:-0.999888 6:-0.994893 7:0.925665 8:-0.800105 9:-0.93167 10:-0.867891 11:-0.937614 12:-0.925926 
22.28621067488587 1:-0.969136 2:-0.998802 3:-0.999786 4:-0.999899 5:-0.999888 6:-0.99489 7:0.925665 8:-0.486476 9:-0.517676 10:-0.585055 11:-0.702475 12:-0.679012 
128 1:-0.981634 2:-0.999187 3:-0.999963 4:-0.999994 5:-0.999888 6:-0.994893 7:0.925665 8:-0.674717 9:-0.564606 10:-0.596021 11:-0.819793 12:-0.950617 
128 1:-0.959739 2:-0.997845 3:-0.999987 4:-0.999991 5:-0.999888 6:-0.994892 7:0.925665 8:-0.883176 9:-0.952446 10:-0.907932 11:-0.96404 12:-0.950617 
70.56008026748246 1:-0.953494 2:-0.997583 3:-0.999857 4:-0.999937 5:-0.999888 6:-0.99489 7:0.925665 8:-0.739103 9:-0.747008 10:-0.805917 11:-0.800318 12:-0.851852 
128 1:-0.969461 2:-0.998489 3:-0.99999 4:-0.999994 5:-0.999888 6:-0.994893 7:0.925665 8:-0.884289 9:-0.961923 10:-0.8962 11:-0.968995 12:-0.950617 
103.5746183851114 1:-0.948882 2:-0.997016 3:-0.999992 4:-0.999999 5:-0.999888 6:-0.994893 7:0.925665 8:-0.866001 9:-0.815187 10:-0.845958 11:-0.918307 12:-0.950617 
4.760034459449389 1:-0.954773 2:-0.99755 3:-0.999953 4:-0.999983 5:-0.999888 6:-0.994892 7:0.925665 8:-0.722163 9:-0.585477 10:-0.686815 11:-0.784237 12:-0.802469 
128 1:-0.971264 2:-0.998638 3:-0.999989 4:-0.999992 5:-0.999888 6:-0.994893 7:0.925665 8:-0.766103 9:-0.853882 10:-0.812038 11:-0.907893 12:-0.851852 
91.56812220122417 1:-0.956034 2:-0.997744 3:-0.999825 4:-0.999939 5:-0.999888 6:-0.994891 7:0.925665 8:-0.637535 9:-0.608251 10:-0.651109 11:-0.785284 12:-0.777778 
11.89363724359509 1:-0.919426 2:-0.994216 3:-0.999984 4:-0.999998 5:-0.999888 6:-0.994893 7:0.925665 8:-0.769789 9:-0.401569 10:-0.626881 11:-0.743321 12:-0.82716 
128 1:-0.993031 2:-0.999693 3:-0.999971 4:-0.99999 5:-0.999888 6:-0.994893 7:0.925665 8:-0.788537 9:-0.961806 10:-0.867126 11:-0.96404 12:-0.925926 
-128 1:-0.97475 2:-0.998811 3:-0.999992 4:-0.999993 5:-0.999888 6:-0.994893 7:0.925665 8:-0.889711 9:-0.977633 10:-0.939046 11:-0.97934 12:-0.950617 
-103.7769022392391 1:-0.992131 2:-0.999658 3:-0.999984 4:-0.99999 5:-0.999888 6:-0.994893 7:0.925665 8:-0.799803 9:-0.952469 10:-0.867636 11:-0.947357 12:-0.901235 
-128 1:-0.981082 2:-0.99913 3:-0.999995 4:-0.999997 5:-0.999888 6:-0.994893 7:0.925665 8:-0.884289 9:-0.98104 10:-0.914818 11:-0.984463 12:-0.950617 
-92.70487520277305 1:-0.985422 2:-0.999343 3:-0.999999 4:-1 5:-0.999888 6:-0.994893 7:0.925665 8:-0.863726 9:-0.961923 10:-0.891609 11:-0.972094 12:-0.950617 
-128 1:-0.981679 2:-0.99917 3:-0.999999 4:-1 5:-0.999888 6:-0.994893 7:0.925665 8:-0.844881 9:-0.94012 10:-0.880133 11:-0.966399 12:-0.950617 
-128 1:-0.970248 2:-0.998544 3:-0.99999 4:-0.999994 5:-0.999888 6:-0.994893 7:0.925665 8:-0.863881 9:-0.96389 10:-0.906656 11:-0.972499 12:-0.950617 
-40.21626639495677 1:-0.9777 2:-0.998963 3:-0.999999 4:-1 5:-0.999888 6:-0.994893 7:0.925665 8:-0.843163 9:-0.914129 10:-0.866106 11:-0.953458 12:-0.950617 
-128 1:-0.97771 2:-0.998963 3:-0.999995 4:-0.999999 5:-0.999888 6:-0.994893 7:0.925665 8:-0.863726 9:-0.961923 10:-0.896965 11:-0.974454 12:-0.925926 
-95.38694741549921 1:-0.965504 2:-0.998325 3:-0.999893 4:-0.999931 5:-0.999888 6:-0.99489 7:0.925665 8:-0.730361 9:-0.752964 10:-0.766896 11:-0.832231 12:-0.851852 
-11.85125899716554 1:-0.94988 2:-0.997101 3:-0.999998 4:-1 5:-0.999888 6:-0.994893 7:0.925665 8:-0.797382 9:-0.616231 10:-0.719969 11:-0.827177 12:-0.901235 
-57.01489159680262 1:-0.976278 2:-0.999015 3:-0.999965 4:-0.999976 5:-0.999888 6:-0.994892 7:0.925665 8:-0.734657 9:-0.877804 10:-0.826575 11:-0.836949 12:-0.876543 
-4.787864896212575 1:-0.830762 2:-0.99846 3:-0.99192 4:-0.994788 5:-0.999905 6:-0.994707 7:0.925823 8:0.250659 9:-0.436642 10:-0.675083 11:-0.326396 12:-0.358025 
-128 1:-0.832604 2:-0.981469 3:-0.997293 4:-0.998014 5:-0.999886 6:-0.994675 7:0.925653 8:-0.949602 9:-0.99655 10:-0.988268 11:-0.986417 12:-0.975309 
-58.71486584031564 1:-0.969705 2:-0.998547 3:-0.999995 4:-0.999999 5:-0.999888 6:-0.994893 7:0.925665 8:-0.676636 9:-0.662127 10:-0.65519 11:-0.821314 12:-0.851852 
-94.58190234545509 1:-0.962786 2:-0.998227 3:-0.999888 4:-0.999952 5:-0.999888 6:-0.994892 7:0.925665 8:-0.550385 9:-0.52824 10:-0.586075 11:-0.757517 12:-0.777778 
-93.00309658868962 1:-0.977212 2:-0.998933 3:-1 4:-1 5:-0.999888 6:-0.994893 7:0.925665 8:-0.724993 9:-0.528959 10:-0.588625 11:-0.801937 12:-0.950617 
-128 1:-0.968552 2:-0.998437 3:-0.999998 4:-1 5:-0.999888 6:-0.994893 7:0.925665 8:-0.844051 9:-0.8782 10:-0.848763 11:-0.935966 12:-0.950617 
-128 1:-0.962186 2:-0.99805 3:-0.999976 4:-0.999985 5:-0.999888 6:-0.994892 7:0.925665 8:-0.800013 9:-0.79746 10:-0.849528 11:-0.887233 12:-0.901235 
-128 1:-0.980737 2:-0.999125 3:-0.999985 4:-0.999993 5:-0.999888 6:-0.994893 7:0.925665 8:-0.845023 9:-0.981411 10:-0.901556 11:-0.975026 12:-0.950617 
-128 1:-0.968923 2:-0.998491 3:-0.999981 4:-0.999987 5:-0.999888 6:-0.994892 7:0.925665 8:-0.795807 9:-0.859447 10:-0.843917 11:-0.917497 12:-0.901235 
-128 1:-0.959583 2:-0.997906 3:-0.999941 4:-0.999935 5:-0.999888 6:-0.99489 7:0.925665 8:-0.76207 9:-0.737656 10:-0.79291 11:-0.859159 12:-0.802469 
-128 1:-0.978478 2:-0.999024 3:-0.999994 4:-0.999994 5:-0.999888 6:-0.994893 7:0.925665 8:-0.787092 9:-0.824639 10:-0.82683 11:-0.895692 12:-0.876543 
-77.20092723710877 1:-0.98396 2:-0.999322 3:-0.999995 4:-0.999997 5:-0.999888 6:-0.994893 7:0.925665 8:-0.740349 9:-0.90457 10:-0.817138 11:-0.915948 12:-0.82716 
