svm_type c_svc
kernel_type rbf
gamma 0.125
nr_class 3
total_sv 822
rho -1.05901 -0.710784 0.55474
label 0 2 1
nr_sv 350 122 350
SV
0 1.493197813117433 7:0.157532 8:0.103976 9:-0.696375 10:0.171819 11:0.319022 12:-0.906786 13:0.0824481 14:0.292803 15:-0.92145 16:-0.76779 17:-0.992593 18:-0.71956 19:-1 20:-0.295342 21:0.127612 22:-0.0204315 23:0.461265 24:0.0405627 25:0.0269936 26:0.156152 27:0.102664 28:-0.720463 29:0.162297 30:0.318947 31:-0.907994 32:0.0859355 33:0.290198 34:-0.917422 35:-0.75969 36:-0.98524 37:-0.690667 38:-0.980366 39:-0.425682 40:0.323788 41:-0.0928236 42:0.411834 43:0.0904391 44:0.210349 45:0.154089 46:0.098848 47:-0.716943 48:0.179333 49:0.314122 50:-0.910508 51:0.091907 52:0.28811 53:-0.91994 54:-0.750973 55:-0.992647 56:-0.660074 57:-1 58:-0.579613 59:0.348523 60:-0.116743 61:0.393548 62:0.110344 63:0.229853 64:0.154467 65:0.0995299 66:-0.687311 67:0.178897 68:0.326014 69:-0.936572 70:0.0944521 71:0.285009 72:-0.917422 73:-0.732794 74:-0.984906 75:-0.689889 76:-0.988868 77:-0.711406 78:0.396099 79:-0.0754674 80:0.545935 81:0.0844771 82:0.274182 83:0.182175 84:0.105739 85:-0.77118 86:0.17497 87:0.300471 88:-0.827795 89:0.100447 90:0.281175 91:-0.923293 92:-0.766129 93:-0.96139 94:-0.904782 95:-0.954033 96:-0.697803 97:0.41166 98:-0.103327 99:0.472641 100:0.0910675 101:0.305615 102:0.172763 103:0.150288 104:-0.762478 105:0.169568 106:0.299752 107:-0.830355 108:0.0965248 109:0.275761 110:-0.944715 111:-0.782258 112:-0.961089 113:-0.910488 114:-0.955518 115:-0.670925 116:0.42127 117:-0.149321 118:0.346844 119:0.124176 120:0.330115 121:0.167803 122:0.142421 123:-0.756355 124:0.177481 125:0.272644 126:-0.95569 127:0.105737 128:0.271707 129:-0.500664 130:-0.799127 131:-0.929961 132:-0.884144 133:-0.844312 134:-0.670285 135:0.432527 136:-0.17284 137:0.301032 138:0.137297 139:0.346468 140:0.16327 141:0.162133 142:-0.745967 143:0.184026 144:0.188036 145:-0.822256 146:0.144314 147:0.260695 148:-0.625099 149:-0.947598 150:-0.85214 151:-0.910515 152:-0.895604 153:-0.645246 154:0.441874 155:-0.19209 156:0.293722 157:0.16237 158:0.353617 159:0.16082 160:0.159394 161:0.262233 162:0.181804 163:0.18793 164:-0.81571 165:0.139683 166:0.25465 167:-0.947786 168:-0.956332 169:-0.898833 170:-0.94764 171:-0.872771 172:-0.645543 173:0.448972 174:-0.231859 175:0.276754 176:0.214802 177:0.359528 178:0.156081 179:0.162736 180:0.0865747 181:0.177588 182:0.184927 183:-0.822791 184:0.136317 185:0.251933 186:-0.901309 187:-0.947826 188:-0.851562 189:-0.913706 190:-0.864911 
0 0.3014571362928279 7:0.131445 8:0.104332 9:-0.700906 10:0.140569 11:0.296708 12:-0.846863 13:0.0460629 14:0.321017 15:-0.867069 16:-0.7603 17:-0.925926 18:-0.783028 19:-0.885731 20:-0.350191 21:-0.0121591 22:-0.316212 23:-0.399797 24:0.332929 25:-0.00970027 26:0.134929 27:0.102248 28:-0.668678 29:0.146651 30:0.285717 31:-0.942182 32:0.0578498 33:0.320333 34:-0.879154 35:-0.775194 36:-0.904059 37:-0.704146 38:-0.884986 39:-0.506776 40:0.19124 41:-0.365472 42:-0.327923 43:0.36208 44:0.179025 45:0.138329 46:0.0975755 47:-0.651584 48:0.167224 49:0.312871 50:-0.966817 51:0.0714908 52:0.316563 53:-0.87714 54:-0.719844 55:-0.963235 56:-0.638776 57:-0.771586 58:-0.655554 59:0.224277 60:-0.394904 61:-0.311726 62:0.388793 63:0.204766 64:0.163074 65:0.0982132 66:-0.715509 67:0.170219 68:0.325104 69:-0.91845 70:0.0805147 71:0.315019 72:-0.873112 73:-0.732794 74:-0.977358 75:-0.775474 76:-0.739007 77:-0.703521 78:0.324152 79:-0.316863 80:0.0254809 81:0.332717 82:0.263765 83:0.151635 84:0.106391 85:-0.691323 86:0.171551 87:0.320983 88:-0.908359 89:0.0922356 90:0.280165 91:-0.920225 92:-0.895161 93:-0.992278 94:-0.787461 95:-1 96:-0.688526 97:0.395189 98:-0.27662 99:0.326255 100:0.286311 101:0.30307 102:0.141637 103:0.151108 104:-0.715383 105:0.166803 106:0.287044 107:-0.917946 108:0.0818314 109:0.302406 110:-0.895572 111:-0.935484 112:-0.953307 113:-0.732736 114:-0.833344 115:-0.68288 116:0.434376 117:-0.270673 118:0.452427 119:0.275323 120:0.329191 121:0.13253 122:0.143947 123:-0.716587 124:0.162892 125:0.289109 126:-0.924975 127:0.0856464 128:0.272931 129:-0.577689 130:-0.90393 131:-0.961089 132:-0.699841 133:-0.898102 134:-0.710093 135:0.460251 136:-0.268698 137:0.508722 138:0.268513 139:0.34875 140:0.129879 141:0.1634 142:-0.681946 143:0.157892 144:0.283567 145:-0.942095 146:0.0837966 147:0.27337 148:-0.739476 149:-0.825328 150:-0.961089 151:-0.759212 152:-0.90883 153:-0.71351 154:0.479622 155:-0.279922 156:0.540405 157:0.291092 158:0.361286 159:0.159796 160:0.159561 161:0.121706 162:0.156236 163:0.280125 164:-0.942095 165:0.0825864 166:0.267708 167:-0.923215 168:-0.790393 169:-0.953307 170:-0.894182 171:-0.889392 172:-0.707276 173:0.481645 174:-0.339496 175:0.432737 176:0.366071 177:0.372406 178:0.153087 179:0.163231 180:0.164366 181:0.151213 182:0.282031 183:-0.918054 184:0.131811 185:0.251528 186:-0.862034 187:-0.93913 188:-0.96875 189:-0.917012 190:-0.963758 
0 0.1561404098170678 7:0.127129 8:0.105019 9:-0.792044 10:0.134785 11:0.296322 12:-0.852497 13:0.0457205 14:0.324286 15:-0.880665 16:-0.7603 17:-0.918519 18:-0.801234 19:-0.84581 20:-0.293507 21:-0.0469838 22:-0.336261 23:-0.611633 24:0.356939 25:-0.0198728 26:0.130325 27:0.10298 28:-0.764203 29:0.127889 30:0.284895 31:-0.890397 32:0.0439582 33:0.31756 34:-0.852971 35:-0.775194 36:-0.911439 37:-0.81366 38:-0.907913 39:-0.367206 40:0.138874 41:-0.395509 42:-0.599686 43:0.39063 44:0.163859 45:0.134182 46:0.0982356 47:-0.701357 48:0.142843 49:0.291142 50:-0.849673 51:0.0513037 52:0.316069 53:-0.867069 54:-0.750973 55:-0.926471 56:-0.780169 57:-0.885917 58:-0.502445 59:0.169961 60:-0.425716 61:-0.587811 62:0.423338 63:0.189319 64:0.135143 65:0.0988099 66:-0.668177 67:0.158217 68:0.291689 69:-0.942109 70:0.0615074 71:0.314838 72:-0.879154 73:-0.765182 74:-0.901887 75:-0.695301 76:-0.884986 77:-0.64258 78:0.236548 79:-0.439314 80:-0.50342 81:0.455461 82:0.240216 83:0.129607 84:0.106083 85:-0.645252 86:0.164149 87:0.320208 88:-0.966767 89:0.0753992 90:0.309269 91:-0.875224 92:-0.717742 93:-0.96139 94:-0.663361 95:-0.771312 96:-0.68369 97:0.288787 98:-0.465287 99:-0.380345 100:0.475381 101:0.275309 102:0.148217 103:0.150028 104:-0.710776 105:0.155896 106:0.294735 107:-0.904858 108:0.0834322 109:0.274138 110:-0.906322 111:-0.887097 112:-0.968872 113:-0.818655 114:-0.918037 115:-0.652664 116:0.353399 117:-0.436862 118:-0.100007 119:0.445784 120:0.309407 121:0.138815 122:0.142909 123:-0.696451 124:0.157716 125:0.288836 126:-0.928499 127:0.0819164 128:0.272466 129:-0.585657 130:-0.982533 131:-0.968872 132:-0.807348 133:-0.894836 134:-0.650798 135:0.405196 136:-0.412018 137:0.0999653 138:0.420996 139:0.337183 140:0.131798 141:0.163074 142:-0.715237 143:0.143567 144:0.315745 145:-0.954179 146:0.0793802 147:0.272813 148:-0.739476 149:-0.947598 150:-0.992218 151:-0.760177 152:-1 153:-0.647387 154:0.43747 155:-0.405647 156:0.208776 157:0.43238 158:0.352995 159:0.123591 160:0.161331 161:0.412798 162:0.162249 163:0.185841 164:-0.789527 165:0.133015 166:0.254054 167:-0.866394 168:-0.982533 169:-0.976654 170:-0.97612 171:-0.965224 172:-0.672267 173:0.458027 174:-0.429174 175:0.261898 176:0.482344 177:0.363927 178:0.120579 179:0.164412 180:0.558344 181:0.158793 182:0.169486 183:-0.806914 184:0.126805 185:0.251077 186:-0.859517 187:-0.991304 188:-0.945312 189:-1 190:-0.964406 
0 2.172923462237654 7:0.0460691 8:-0.0509696 9:-0.8857 10:0.0436133 11:0.308772 12:-0.90525 13:-0.145008 14:0.353648 15:-0.841893 16:-0.423221 17:-0.725926 18:-0.78606 19:-0.687441 20:-0.284366 21:0.0504073 22:-0.192031 23:0.010922 24:0.207906 25:0.00490463 26:0.0503752 27:-0.0507672 28:-0.884364 29:0.0366092 30:0.306045 31:-0.86727 32:-0.138755 33:0.351097 34:-0.844914 35:-0.403101 36:-0.719557 37:-0.76558 38:-0.680114 39:-0.322559 40:0.279026 41:-0.241122 42:0.147794 43:0.237069 44:0.202163 45:0.0586332 46:-0.0552556 47:-0.917044 48:0.0559263 49:0.31428 50:-0.925591 51:-0.13206 52:0.348976 53:-0.846928 54:-0.400778 55:-0.727941 56:-0.747232 57:-0.732574 58:-0.368182 59:0.324032 60:-0.256065 61:0.207735 62:0.24976 63:0.230843 64:0.0541921 65:-0.0447876 66:-0.884189 67:0.0551464 68:0.326177 69:-0.914926 70:-0.126873 71:0.3461 72:-0.848439 73:-0.441296 74:-0.728302 75:-0.77372 76:-0.738776 77:-0.429838 78:0.368906 79:-0.167627 80:0.319499 81:0.180399 82:0.273742 83:0.0298037 84:-0.0178643 85:-0.776299 86:0.0559579 87:0.322121 88:-0.929003 89:-0.119132 90:0.341875 91:-0.845052 92:-0.491935 93:-0.72973 94:-0.846081 95:-0.733108 96:-0.434164 97:0.403914 98:-0.123169 99:0.425908 100:0.123275 101:0.302731 102:0.0357369 103:0.0184904 104:-0.847965 105:0.0451844 106:0.301207 107:-0.815253 108:-0.118046 109:0.336419 110:-0.845918 111:-0.516129 112:-0.735409 113:-0.831325 114:-0.682852 115:-0.441142 116:0.421323 117:-0.1344 118:0.402816 119:0.125244 120:0.323991 121:0.0286783 122:0.0115322 123:-0.843443 124:0.0403137 125:0.299078 126:-0.811682 127:-0.116044 128:0.334432 129:-0.224436 130:-0.441048 131:-0.735409 132:-0.861278 133:-0.689196 134:-0.485682 135:0.432714 136:-0.164809 137:0.350052 138:0.144242 139:0.34116 140:0.0266392 141:0.0317896 142:-0.844302 143:0.0390692 144:0.293741 145:-0.815206 146:-0.113395 147:0.33504 148:-0.54726 149:-0.484716 150:-0.750973 151:-0.880448 152:-0.707766 153:-0.493131 154:0.441249 155:-0.202561 156:0.299523 157:0.185419 158:0.351837 159:0.0239191 160:0.0321467 161:-0.217064 162:0.0355967 163:0.294502 164:-0.809668 165:-0.109679 166:0.329179 167:-0.857691 168:-0.545852 169:-0.859922 170:-0.89438 171:-0.718692 172:-0.496057 173:0.445076 174:-0.266337 175:0.213095 176:0.260106 177:0.361032 178:0.0228587 179:0.0373004 180:-0.252196 181:0.0312906 182:0.285529 183:-0.848399 184:-0.105472 185:0.326808 186:-0.856999 187:-0.756522 188:-0.890625 189:-0.899982 190:-0.72512 
0 1.758703713703275 7:0.0440265 8:-0.0586212 9:-0.916918 10:0.0387259 11:0.308226 12:-0.910371 13:-0.150011 14:0.353548 15:-0.84139 16:-0.385768 17:-0.711111 18:-0.796113 19:-0.685372 20:-0.317576 21:-0.0230591 22:-0.227739 23:-0.376175 24:0.240041 25:-0.0222707 26:0.0467609 27:-0.053138 28:-0.885872 29:0.0295308 30:0.308434 31:-0.906988 32:-0.143788 33:0.35106 34:-0.841893 35:-0.403101 36:-0.726937 37:-0.78606 38:-0.687948 39:-0.384603 40:0.211755 41:-0.268553 42:-0.15866 43:0.262506 44:0.177173 45:0.0517661 46:-0.0559159 47:-0.884364 48:0.0513826 49:0.300901 50:-0.86727 51:-0.137229 52:0.348976 53:-0.844914 54:-0.400778 55:-0.720588 56:-0.762491 57:-0.680114 58:-0.427977 59:0.275179 60:-0.285818 61:-0.0106875 62:0.279407 63:0.213084 64:0.057218 65:-0.055097 66:-0.916918 67:0.053164 68:0.325909 69:-0.925497 70:-0.132762 71:0.345851 72:-0.846928 73:-0.465587 74:-0.720755 75:-0.74306 76:-0.732574 77:-0.4906 78:0.348457 79:-0.259808 80:0.20169 81:0.269084 82:0.266582 83:0.047315 84:-0.0394909 85:-0.882263 86:0.0544035 87:0.321911 88:-0.914904 89:-0.124087 90:0.342146 91:-0.846075 92:-0.58871 93:-0.814672 94:-0.773336 95:-0.738463 96:-0.480899 97:0.387162 98:-0.206106 99:0.318229 100:0.205483 101:0.296898 102:0.0230611 103:0.0208498 104:-0.776299 105:0.0464205 106:0.321205 107:-0.929021 108:-0.123861 109:0.336367 110:-0.844894 111:-0.612903 112:-0.836576 113:-0.85911 114:-0.733427 115:-0.456521 116:0.413446 117:-0.183113 118:0.35292 119:0.177183 120:0.320513 121:0.0308732 122:0.0103889 123:-0.850491 124:0.0407886 125:0.299121 126:-0.815206 127:-0.121615 128:0.33456 129:-0.200531 130:-0.537118 131:-0.836576 132:-0.831325 133:-0.683026 134:-0.47773 135:0.430524 136:-0.188619 137:0.335605 138:0.175171 139:0.339196 140:0.0246765 141:0.0284584 142:-0.840717 143:0.0387324 144:0.29371 145:-0.811682 146:-0.119562 147:0.334982 148:-0.53614 149:-0.510917 150:-0.844358 151:-0.861278 152:-0.702605 153:-0.492169 154:0.439575 155:-0.223233 156:0.287921 157:0.214604 158:0.349987 159:0.0225483 160:0.028494 161:-0.237139 162:0.0345904 163:0.294409 164:-0.815206 165:-0.115632 166:0.329293 167:-0.854108 168:-0.545852 169:-0.859922 170:-0.88 171:-0.71827 172:-0.516074 173:0.446457 174:-0.279446 175:0.236039 176:0.283159 177:0.358839 178:0.0195053 179:0.0346621 180:-0.217064 181:0.031374 182:0.292246 183:-0.806402 184:-0.112054 185:0.326737 186:-0.86002 187:-0.669565 188:-0.875 189:-0.891376 190:-0.734063 
0 0.579478422704223 7:0.0369538 8:-0.0589331 9:-0.887714 10:0.0382937 11:0.308177 12:-0.905762 13:-0.154621 14:0.353573 15:-0.836858 16:-0.393258 17:-0.703704 18:-0.792923 19:-0.682793 20:-0.32213 21:-0.0222327 22:-0.221819 23:-0.377445 24:0.241254 25:-0.022416 26:0.0447094 27:-0.0608127 28:-0.917044 29:0.0245522 30:0.307886 31:-0.912016 32:-0.1488 33:0.350959 34:-0.84139 35:-0.364341 36:-0.712177 37:-0.796113 38:-0.685883 39:-0.421266 40:0.168496 41:-0.28299 42:-0.358817 43:0.278661 44:0.160972 45:0.0481394 46:-0.0582982 47:-0.885872 48:0.0443215 49:0.303301 50:-0.906988 51:-0.142319 52:0.348938 53:-0.841893 54:-0.400778 55:-0.727941 56:-0.783241 57:-0.687948 58:-0.492787 59:0.222745 60:-0.303412 61:-0.244022 62:0.298277 63:0.193874 64:0.0503555 65:-0.0557607 66:-0.884189 67:0.0486279 68:0.312359 69:-0.867103 70:-0.137946 71:0.345851 72:-0.844914 73:-0.465587 74:-0.713208 75:-0.758571 76:-0.680114 77:-0.541581 78:0.31002 79:-0.285526 80:-0.00059685 81:0.29685 82:0.252598 83:0.0437219 84:-0.0206966 85:-0.850013 86:0.0538925 87:0.308663 88:-0.868077 89:-0.130012 90:0.341897 91:-0.844541 92:-0.862903 93:-0.714286 94:-0.761851 95:-0.687919 96:-0.532791 97:0.37041 98:-0.288245 99:0.210551 100:0.287691 101:0.290918 102:0.0125575 103:0.147353 104:-0.757359 105:0.0401384 106:0.31052 107:-0.92449 108:-0.128788 109:0.336639 110:-0.845918 111:-0.927419 112:-0.828794 113:-0.776889 114:-0.692675 115:-0.497521 116:0.399186 117:-0.258822 118:0.260419 119:0.25304 120:0.31544 121:0.0182555 122:0.012754 123:-0.780015 124:0.0358621 125:0.308508 126:-0.931521 127:-0.127406 128:0.334508 129:-0.195219 130:-0.90393 131:-0.859922 132:-0.878499 133:-0.693948 134:-0.493005 135:0.423766 136:-0.232692 137:0.291253 138:0.223508 139:0.336074 140:0.0268615 141:0.0272907 142:-0.847887 143:0.0301789 144:0.296177 145:-0.819235 146:-0.125109 147:0.335112 148:-0.521843 149:-0.860262 150:-0.867704 151:-0.865937 152:-0.67935 153:-0.486986 154:0.437774 155:-0.24443 156:0.274482 157:0.244319 158:0.348179 159:0.0205929 160:0.0251397 161:-0.219573 162:0.0295523 163:0.30385 164:-0.923968 165:-0.121775 166:0.329235 167:-0.850525 168:-0.799127 169:-0.875486 170:-0.879414 171:-0.720166 172:-0.516756 173:0.4451 174:-0.298017 175:0.224594 176:0.311983 177:0.357131 178:0.0191161 179:0.0435417 180:-0.224592 181:0.0184968 182:0.304134 183:-0.930346 184:-0.117984 185:0.326851 186:-0.856495 187:-0.843478 188:-0.890625 189:-0.914974 190:-0.752057 
0.3084129467936185 0 7:-0.0319435 8:-0.142503 9:-0.936052 10:-0.0768115 11:0.17489 12:-0.645583 13:-0.0736025 14:0.292368 15:-0.90282 16:-0.595506 17:-0.540741 18:-0.62356 19:-0.485836 20:-0.24405 21:-0.00137725 22:0.0588759 23:-0.293117 24:-0.0364397 25:-0.0112262 26:-0.0376831 27:-0.156976 28:-0.944193 29:-0.0900023 30:0.175572 31:-0.566114 32:-0.060597 33:0.28919 34:-0.862034 35:-0.550388 36:-0.557196 37:-0.664505 38:-0.536711 39:-0.326332 40:0.182508 41:-0.0541877 42:-0.38526 43:0.0514907 44:0.178121 45:-0.0413395 46:-0.157893 47:-0.922574 48:-0.0725668 49:0.169218 50:-0.577677 51:-0.0581793 52:0.286866 53:-0.87714 54:-0.533074 55:-0.558824 56:-0.677234 57:-0.580128 58:-0.406161 59:0.200395 60:-0.0845951 61:-0.467018 62:0.0778864 63:0.202786 64:-0.0396247 65:-0.149301 66:-0.929507 67:-0.0724446 68:0.178211 69:-0.627989 70:-0.0593562 71:0.28332 72:-0.888218 73:-0.530364 74:-0.54717 75:-0.707082 76:-0.615869 77:-0.464937 78:0.278459 79:-0.0545835 80:-0.252284 81:0.0619814 82:0.252288 83:-0.0487651 84:-0.155127 85:-0.934988 86:-0.0704031 87:0.174813 88:-0.548842 89:-0.0560936 90:0.279265 91:-0.904372 92:-0.508065 93:-0.544402 94:-0.71058 95:-0.646906 96:-0.455659 97:0.337602 98:-0.0667345 99:-0.0258747 100:0.0529775 101:0.285701 102:-0.060958 103:-0.129237 104:-0.92731 105:-0.0775848 106:0.172684 107:-0.576642 108:-0.053949 109:0.272307 110:-0.870489 111:-0.491935 112:-0.533074 113:-0.726019 114:-0.680251 115:-0.425079 116:0.379918 117:-0.108659 118:0.10544 119:0.0829122 120:0.314353 121:-0.0652356 122:-0.137856 123:-0.930531 124:-0.0465871 125:0.307127 126:-0.862538 127:-0.0909189 128:0.271617 129:-0.216467 130:0.0131004 131:-0.953307 132:-0.802982 133:-0.905732 134:-0.428858 135:0.418487 136:-0.163309 137:0.184316 138:0.12461 139:0.342555 140:-0.0688117 141:-0.124128 142:-0.95493 143:-0.0455351 144:0.302069 145:-0.865055 146:-0.0932605 147:0.271976 148:-0.517077 149:0.00436681 150:-0.961089 151:-0.815376 152:-0.895235 153:-0.409825 154:0.448443 155:-0.222303 156:0.237264 157:0.184744 158:0.361668 159:-0.0732156 160:-0.127728 161:-0.761606 162:-0.041815 163:0.188759 164:-0.810675 165:-0.0939718 166:0.266394 167:-0.837215 168:-0.344978 169:-0.634241 170:-0.744548 171:-0.699116 172:-0.433095 173:0.457657 174:-0.254899 175:0.18542 176:0.230765 177:0.372636 178:-0.0745783 179:-0.122552 180:-0.636136 181:-0.0497527 182:0.301106 183:-0.865813 184:-0.0953278 185:0.263936 186:-0.835851 187:0.00869565 188:-0.953125 189:-0.826298 190:-0.903143 
0.4005454097658606 2.593384721419398 7:-0.227685 8:-0.267521 9:-0.883182 10:-0.133249 11:-0.20857 12:-0.879129 13:-0.0946949 14:-0.197498 15:-0.913897 16:-0.88764 17:-0.903704 18:-0.980851 19:-0.939236 20:-0.317554 21:0.0295912 22:-0.780281 23:-0.77267 24:0.812041 25:0.0743688 26:-0.227836 27:-0.271407 28:-0.923077 29:-0.139749 30:-0.209276 31:-0.885872 32:-0.0768847 33:-0.199797 34:-0.924975 35:-0.875969 36:-0.896679 37:-0.986897 38:-0.949169 39:-0.412349 40:0.229406 41:-0.83036 42:-0.763451 43:0.829226 44:0.274721 45:-0.221866 46:-0.277861 47:-0.903972 48:-0.0929423 49:-0.208969 50:-0.844143 51:-0.0669542 52:-0.197264 53:-0.929507 54:-0.836576 55:-0.926471 56:-0.979375 57:-0.885712 58:-0.456692 59:0.259823 60:-0.738581 61:-0.613958 62:0.740293 63:0.281477 64:-0.217879 65:-0.278114 66:-0.879658 67:-0.0894975 68:-0.203783 69:-0.841933 70:-0.0578911 71:-0.207219 72:-0.914904 73:-0.82996 74:-0.932075 75:-0.974573 76:-0.900242 77:-0.475563 78:0.3165 79:-0.562853 80:-0.245673 81:0.5937 82:0.291966 83:-0.222994 84:-0.277992 85:-0.932941 86:-0.122608 87:-0.218815 88:-0.862034 89:-0.0570052 90:-0.226201 91:-0.834313 92:-0.870968 93:-0.899614 94:-0.976442 95:-0.967138 96:-0.444316 97:0.358826 98:-0.431286 99:0.0833089 100:0.470044 101:0.300313 102:-0.21815 103:-0.248559 104:-0.858203 105:-0.126622 106:-0.220984 107:-0.867606 108:-0.0621678 109:-0.233057 110:-0.842334 111:-0.887097 112:-0.906615 113:-0.992248 114:-0.957792 115:-0.408028 116:0.382311 117:-0.368267 118:0.128029 119:0.402952 120:0.319915 121:-0.226828 122:-0.258659 123:-0.896803 124:-0.077583 125:-0.202724 126:-0.902316 127:-0.0662354 128:-0.236149 129:-0.243028 130:-0.790393 131:-0.984436 132:-0.910434 133:-0.978665 134:-0.401332 135:0.402715 136:-0.312418 137:0.152456 138:0.345958 139:0.336946 140:-0.229728 141:-0.247347 142:-0.897055 143:-0.0942709 144:-0.223801 145:-0.846425 146:-0.0732703 147:-0.226419 148:-0.73471 149:-0.80786 150:-0.945525 151:-0.9619 152:-0.975163 153:-0.39111 154:0.415532 155:-0.291848 156:0.126816 157:0.339538 158:0.348334 159:-0.227684 160:-0.251932 161:-0.407779 162:-0.133995 163:-0.236606 164:-0.903323 165:-0.084528 166:-0.238561 167:-0.920143 168:-0.886463 169:-0.914397 170:-0.981978 171:-0.94453 172:-0.418169 173:0.422099 174:-0.321421 175:0.0411004 176:0.388579 177:0.358763 178:-0.210129 179:-0.24912 180:-0.267252 181:-0.142901 182:-0.243322 183:-0.906274 184:-0.0916814 185:-0.245222 186:-0.905841 187:-0.956522 188:-0.921875 189:-0.974333 190:-0.939078 
0.269000148854535 2.039652457371977 7:-0.232867 8:-0.268137 9:-0.913394 10:-0.128558 11:-0.20652 12:-0.896031 13:-0.0907513 14:-0.194506 15:-0.929507 16:-0.88015 17:-0.903704 18:-0.987101 19:-0.947003 20:-0.216178 21:-0.0285287 22:-0.109605 23:-0.327915 24:0.12666 25:-0.0324432 26:-0.228188 27:-0.270344 28:-0.883358 29:-0.150629 30:-0.210896 31:-0.881347 32:-0.0933774 33:-0.202295 34:-0.913897 35:-0.883721 36:-0.904059 37:-0.980851 38:-0.939334 39:-0.318381 40:0.196334 41:-0.502974 42:-0.537636 43:0.500308 44:0.212245 45:-0.2274 46:-0.277637 47:-0.923077 48:-0.124544 49:-0.216509 50:-0.885872 51:-0.0746527 52:-0.20372 53:-0.924975 54:-0.875486 55:-0.897059 56:-0.986724 57:-0.949169 58:-0.41955 59:0.234022 60:-0.679052 61:-0.683949 62:0.668988 63:0.263917 64:-0.223095 65:-0.278869 66:-0.903827 67:-0.0954558 68:-0.204018 69:-0.843947 70:-0.0674574 71:-0.203011 72:-0.929507 73:-0.82996 74:-0.924528 75:-0.979034 76:-0.885712 77:-0.484669 78:0.295918 79:-0.680818 80:-0.539782 81:0.685295 82:0.302487 83:-0.223515 84:-0.276483 85:-0.877655 86:-0.0910564 87:-0.210462 88:-0.841893 89:-0.0546867 90:-0.212163 91:-0.913577 92:-0.83871 93:-0.938224 94:-0.97453 95:-0.908711 96:-0.456187 97:0.342331 98:-0.537276 99:-0.180538 100:0.553123 101:0.308754 102:-0.223517 103:-0.248833 104:-0.869977 105:-0.132257 106:-0.221626 107:-0.862069 108:-0.0749381 109:-0.233149 110:-0.92475 111:-0.879032 112:-0.929961 113:-0.984632 114:-0.967676 115:-0.413883 116:0.373471 117:-0.444987 118:0.0734863 119:0.464565 120:0.31582 121:-0.22185 122:-0.257305 123:-0.860559 124:-0.13588 125:-0.227485 126:-0.862034 127:-0.0792553 128:-0.235797 129:-0.662683 130:-0.90393 131:-0.929961 132:-0.99292 133:-0.962182 134:-0.405012 135:0.395293 136:-0.384819 137:0.105012 138:0.403247 139:0.333349 140:-0.229672 141:-0.247516 142:-0.895006 143:-0.0990883 144:-0.225995 145:-0.841893 146:-0.079619 147:-0.235033 148:-0.677522 149:-0.868996 150:-0.953307 151:-0.978399 152:-0.978063 153:-0.380612 154:0.411854 155:-0.343089 156:0.118948 157:0.37903 158:0.344195 159:-0.232867 160:-0.252585 161:-0.495609 162:-0.0982113 163:-0.225307 164:-0.846425 165:-0.0756718 166:-0.233511 167:-0.914512 168:-0.834061 169:-0.945525 170:-0.966458 171:-0.975103 172:-0.390571 173:0.4225 174:-0.347209 175:0.0809904 176:0.407011 177:0.353866 178:-0.231077 179:-0.251349 180:-0.407779 181:-0.10727 182:-0.232149 183:-0.835595 184:-0.0869994 185:-0.24307 186:-0.92145 187:-0.869565 188:-0.953125 189:-0.965574 190:-0.975454 
0.838032321952796 0.6940433066552776 7:-0.232627 8:-0.268889 9:-0.884693 10:-0.0976546 11:-0.199095 12:-0.858131 13:-0.0709427 14:-0.196517 15:-0.882175 16:-0.835206 17:-0.925926 18:-0.983382 19:-0.939921 20:-0.202633 21:-0.015858 22:0.343899 23:-0.0934722 24:-0.307828 25:-0.0473388 26:-0.233367 27:-0.27104 28:-0.893414 29:-0.145973 30:-0.208602 31:-0.877828 32:-0.0820352 33:-0.201174 34:-0.907855 35:-0.875969 36:-0.896679 37:-0.989096 38:-0.95777 39:-0.212489 40:0.169669 41:0.0453682 42:-0.186281 43:-0.0447937 44:0.139386 45:-0.232975 46:-0.277189 47:-0.913524 48:-0.130631 49:-0.216068 50:-0.897939 51:-0.0873373 52:-0.203211 53:-0.929507 54:-0.875486 55:-0.904412 56:-0.986931 57:-0.947089 58:-0.224651 59:0.187254 60:-0.0431899 61:-0.245514 62:0.0352054 63:0.160403 64:-0.228978 65:-0.277569 66:-0.883182 67:-0.13784 68:-0.2133 69:-0.881198 70:-0.0919112 71:-0.212015 72:-0.913897 73:-0.878543 74:-0.901887 75:-0.980278 76:-0.939334 77:-0.376304 78:0.260443 79:-0.2602 80:-0.360635 81:0.256538 82:0.245748 83:-0.234212 84:-0.27702 85:-0.921679 86:-0.128775 87:-0.218368 88:-0.8857 89:-0.07208 90:-0.214446 91:-0.923805 92:-0.879032 93:-0.891892 94:-0.986482 95:-0.949108 96:-0.434728 97:0.313225 98:-0.474899 99:-0.42967 100:0.445134 101:0.301628 102:-0.233929 103:-0.250197 104:-0.902227 105:-0.106681 106:-0.213481 107:-0.843947 108:-0.0693441 109:-0.214878 110:-0.928334 111:-0.83871 112:-0.922179 113:-0.979334 114:-0.885712 115:-0.425684 116:0.349005 117:-0.539979 118:-0.314819 119:0.497557 120:0.326546 121:-0.232418 122:-0.258144 123:-0.879688 124:-0.141671 125:-0.227735 126:-0.860524 127:-0.0714645 128:-0.237803 129:-0.171315 130:-0.886463 131:-0.914397 132:-0.990792 133:-0.967934 134:-0.415047 135:0.379119 136:-0.455949 137:-0.0834989 138:0.418959 139:0.332652 140:-0.230034 141:-0.246414 142:-0.86991 143:-0.136332 144:-0.234656 145:-0.862034 146:-0.0823665 147:-0.240072 148:-0.766481 149:-0.886463 150:-0.961089 151:-0.984632 152:-0.983145 153:-0.385181 154:0.402064 155:-0.395345 156:0.0855206 157:0.381291 158:0.334718 159:-0.227875 160:-0.251364 161:-0.304893 162:-0.139963 163:-0.236478 164:-0.862034 165:-0.0852951 166:-0.246382 167:-0.934988 168:-0.921397 169:-0.961089 170:-0.992893 171:-0.980283 172:-0.381364 173:0.416723 174:-0.385229 175:0.0834663 176:0.394809 177:0.344444 178:-0.236185 179:-0.252179 180:-0.485571 181:-0.148767 182:-0.24328 183:-0.865301 184:-0.0844757 185:-0.246668 186:-0.897784 187:-0.93913 188:-0.945312 189:-0.993122 190:-0.967202 
1.148461183980249 1.547367565893681 7:-0.25415 8:-0.268254 9:-0.891239 10:-0.114405 11:-0.20058 12:-0.892446 13:-0.0866268 14:-0.191802 15:-0.920443 16:-0.835206 17:-0.918519 18:-0.98386 19:-0.899907 20:-0.198369 21:-0.0532405 22:0.0647317 23:-0.509017 24:-0.0456557 25:-0.0370936 26:-0.254818 27:-0.270895 28:-0.907994 29:-0.125648 30:-0.202615 31:-0.916038 32:-0.0834171 33:-0.199224 34:-0.906848 35:-0.813953 36:-0.926199 37:-0.980827 38:-0.929324 39:-0.178908 40:0.13601 41:-0.0340693 42:-0.467731 43:0.0335145 44:0.144297 45:-0.248905 46:-0.277939 47:-0.902464 48:-0.110302 49:-0.210131 50:-0.892408 51:-0.0771567 52:-0.200283 53:-0.931521 54:-0.821012 55:-0.926471 56:-0.985532 57:-0.895863 58:-0.206067 59:0.173726 60:-0.243307 61:-0.36581 62:0.234469 63:0.163176 64:-0.249997 65:-0.27937 66:-0.942095 67:-0.0951624 68:-0.204509 69:-0.924994 70:-0.0614458 71:-0.202609 72:-0.942095 73:-0.789474 74:-0.924528 75:-0.977856 76:-0.923369 77:-0.290496 78:0.237604 79:-0.350421 80:-0.225196 81:0.347151 82:0.209507 83:-0.245482 84:-0.275396 85:-0.939596 86:-0.0902665 87:-0.211755 88:-0.904834 89:-0.0498816 90:-0.210023 91:-0.947839 92:-0.798387 93:-0.915058 94:-0.975959 95:-0.938127 96:-0.331106 97:0.310635 98:-0.378102 99:-0.0918363 100:0.364706 101:0.265087 102:-0.244914 103:-0.24948 104:-0.947786 105:-0.044892 106:-0.183847 107:-0.936068 108:-0.0355191 109:-0.224828 110:-0.931917 111:-0.75 112:-0.992218 113:-0.85238 114:-1 115:-0.349286 116:0.374328 117:-0.376973 118:-0.0203017 119:0.359553 120:0.318574 121:-0.243436 122:-0.257285 123:-0.91845 124:-0.103444 125:-0.220635 126:-0.866566 127:-0.0479169 128:-0.225965 129:-0.521912 130:-0.842795 131:-0.945525 132:-0.985085 133:-0.963663 134:-0.37717 135:0.423925 136:-0.364433 137:0.0270969 138:0.344291 139:0.359143 140:-0.251302 141:-0.246848 142:-1 143:-0.104474 144:-0.227234 145:-0.874119 146:-0.0532429 147:-0.227428 148:-0.731533 149:-0.825328 150:-0.945525 151:-0.985744 152:-0.951256 153:-0.34555 154:0.434426 155:-0.144469 156:0.118029 157:0.152739 158:0.358094 159:-0.254362 160:-0.252084 161:-0.563363 162:-0.0976802 163:-0.226168 164:-0.95569 165:-0.058311 166:-0.231202 167:-0.947786 168:-0.799127 169:-0.929961 170:-0.97951 171:-0.955506 172:-0.338033 173:0.442331 174:0.0415618 175:0.181788 176:0.00370349 177:0.357169 178:-0.25258 179:-0.250786 180:-0.345044 181:-0.124749 182:-0.233132 183:-0.858131 184:-0.0820047 185:-0.241348 186:-0.882175 187:-0.826087 188:-0.921875 189:-0.980078 190:-0.939786 
0 0.1760650366943037 7:-0.0523186 8:-0.152144 9:-0.947633 10:-0.0232157 11:0.319711 12:-0.902689 13:-0.444556 14:0.354047 15:-0.813192 16:-0.146067 17:0.474074 18:-0.560182 19:-0.535448 20:-0.258701 21:-0.00991618 22:0.0334161 23:-0.187452 24:-0.0117019 25:-0.0306994 26:-0.0527373 27:-0.153912 28:-0.956762 29:-0.0496327 30:0.320201 31:-0.8728 32:-0.439503 33:0.351204 34:-0.818731 35:-0.0930233 36:0.431734 37:-0.607468 38:-0.530168 39:-0.265859 40:0.167134 41:-0.0247477 42:-0.271502 43:0.0232927 44:0.148563 45:-0.0490018 46:-0.144349 47:-0.929613 48:-0.0354162 49:0.314984 50:-0.880845 51:-0.436791 52:0.348184 53:-0.847432 54:-0.105058 55:0.397059 56:-0.621033 57:-0.530968 58:-0.259867 59:0.173339 60:-0.0293268 61:-0.38122 62:0.0240453 63:0.165355 64:-0.0546281 65:-0.146246 66:-0.942095 67:-0.0457562 68:0.312533 69:-0.858545 70:-0.433184 71:0.345937 72:-0.818228 73:-0.0526316 74:0.403774 75:-0.678297 76:-0.436237 77:-0.309743 78:0.220321 79:0.022049 80:-0.371011 81:-0.0103827 82:0.210515 83:-0.0529101 84:-0.144801 85:-0.926286 86:-0.0462574 87:0.308315 88:-0.855992 89:-0.427744 90:0.340801 91:-0.8517 92:-0.0806452 93:0.413127 94:-0.652261 95:-0.440428 96:-0.331217 97:0.270789 98:-0.134237 99:-0.215901 100:0.116776 101:0.241376 102:-0.0532907 103:-0.111717 104:-0.947786 105:-0.0510575 106:0.308001 107:-0.869117 108:-0.425494 109:0.335612 110:-0.83312 111:-0.0806452 112:0.385214 113:-0.625877 114:-0.447186 115:-0.323642 116:0.304425 117:-0.28829 118:-0.115805 119:0.249404 120:0.265148 121:-0.0439491 122:-0.10368 123:-0.895797 124:-0.038198 125:0.319306 126:-0.878651 127:-0.422622 128:0.334193 129:-0.0836653 130:-0.0480349 131:0.361868 132:-0.534388 133:-0.544704 134:-0.349596 135:0.352574 136:-0.344365 137:-0.0573168 138:0.294533 139:0.303325 140:-0.0243454 141:-0.0484079 142:-0.853009 143:-0.0358559 144:0.314588 145:-0.867069 146:-0.419672 147:0.335035 148:-0.428118 149:-0.554585 150:0.284047 151:-0.417769 152:-0.533205 153:-0.357538 154:0.400678 155:-0.36102 156:-0.0272816 157:0.32292 158:0.339817 159:-0.104966 160:0.0386028 161:-0.0138018 162:-0.0377477 163:0.315734 164:-0.862538 165:-0.414356 166:0.330113 167:-0.788585 168:-0.912664 169:0.128405 170:-0.608985 171:-0.528303 172:-0.378346 173:0.438397 174:-0.391602 175:-0.0205227 176:0.373277 177:0.367867 178:-0.105662 179:0.0426213 180:0.302384 181:-0.0407995 182:0.313768 183:-0.865813 184:-0.410453 185:0.327509 186:-0.787009 187:-0.878261 188:0.09375 189:-0.596461 190:-0.528792 
0 0.2158538807954153 7:0.00315536 8:-0.112374 9:-0.965257 10:0.0946155 11:0.314468 12:-0.859667 13:-0.529576 14:0.352873 15:-0.832326 16:-0.265918 17:0.881481 18:0.410528 19:-0.432426 20:-0.193098 21:-0.0351001 22:1 23:-0.408179 24:-1 25:-0.0318619 26:-0.0232589 27:-0.108626 28:-0.901458 29:0.0707075 30:0.316396 31:-0.839618 32:-0.525027 33:0.350946 34:-0.827291 35:-0.209302 36:0.837638 37:0.255352 38:-0.471268 39:-0.180651 40:0.149906 41:1 42:-0.372955 43:-1 44:0.144728 45:-0.0355076 46:-0.118278 47:-0.878331 48:0.0477813 49:0.313195 50:-0.841629 51:-0.523666 52:0.349286 53:-0.822759 54:-0.182879 55:0.801471 56:0.0614875 57:-0.49438 58:-0.170462 59:0.173542 60:1 61:-0.319382 62:-1 63:0.157565 64:-0.0543884 65:-0.129371 66:-0.930514 67:0.00477114 68:0.325213 69:-0.87113 70:-0.522728 71:0.345702 72:-0.825277 73:-0.0850202 74:0.826415 75:-0.1668 76:-0.505566 77:-0.244458 78:0.245241 79:1 80:-0.000505027 81:-1 82:0.191697 83:-0.0748951 84:-0.14605 85:-0.953929 86:-0.0536997 87:0.322393 88:-0.861027 89:-0.518364 90:0.342308 91:-0.814881 92:-0.0564516 93:0.822394 94:-0.483961 95:-0.494128 96:-0.255624 97:0.297231 98:0.926854 99:0.283284 100:-0.989724 101:0.215439 102:-0.0881252 103:-0.111334 104:-0.939596 105:-0.0652812 106:0.321119 107:-0.87264 108:-0.516345 109:0.336701 110:-0.814692 111:-0.0564516 112:0.821012 113:-0.533047 114:-0.508323 115:-0.256019 116:0.337561 117:0.654498 118:0.251269 119:-0.752114 120:0.257394 121:-0.08944 122:-0.11682 123:-0.928014 124:-0.0671486 125:0.319559 126:-0.866566 127:-0.513832 128:0.334692 129:-0.059761 130:0.0131004 131:0.81323 132:-0.534911 133:-0.512393 134:-0.274163 135:0.372062 136:0.360497 137:0.17132 138:-0.502084 139:0.296591 140:-0.0857636 141:-0.0918461 142:-0.942638 143:-0.0656035 144:0.314709 145:-0.853978 146:-0.509456 147:0.335241 148:-0.421763 149:-0.0131004 150:0.789883 151:-0.523873 152:-0.507756 153:-0.268405 154:0.396603 155:0.168965 156:0.116133 157:-0.338922 158:0.320889 159:-0.0839701 160:-0.0958981 161:-0.588457 162:-0.0584608 163:0.31487 164:-0.875126 165:-0.505651 166:0.328958 167:-0.824418 168:-0.0305677 169:0.782101 170:-0.470273 171:-0.499348 172:-0.269128 173:0.411478 174:0.181343 175:0.100688 176:-0.349219 177:0.332458 178:-0.0888004 179:-0.0932972 180:-1 181:-0.0622581 182:0.312756 183:-0.863252 184:-0.501442 185:0.3273 186:-0.815206 187:-0.0347826 188:0.757812 189:-0.480949 190:-0.497011 
0 0.09918470317492047 7:-0.0323281 8:-0.109264 9:-0.929003 10:0.0751718 11:0.319004 12:-0.830474 13:-0.533072 14:0.353722 15:-0.82427 16:-0.213483 17:0.874074 18:0.248471 19:-0.476653 20:-0.19302 21:-0.003148 22:-0.0382535 23:-0.672593 24:0.0562057 25:0.0298274 26:-0.00485098 27:-0.108079 28:-0.953746 29:0.0770332 30:0.31714 31:-0.849673 32:-0.532742 33:0.351252 34:-0.821249 35:-0.232558 36:0.874539 37:0.375409 38:-0.460425 39:-0.172031 40:0.191193 41:-0.10271 42:-0.661867 43:0.100132 44:0.222801 45:0.00489043 46:-0.12019 47:-0.965309 48:0.0961474 49:0.309043 50:-0.862242 51:-0.532022 52:0.348157 53:-0.832326 54:-0.237354 55:0.867647 56:0.429115 57:-0.433347 58:-0.16342 59:0.199528 60:0.254223 61:-0.638216 62:-0.255553 63:0.225628 64:-0.0234821 65:-0.114207 66:-0.901309 67:0.0825858 68:0.322885 69:-0.839416 70:-0.529816 71:0.345699 72:-0.827291 73:-0.174089 74:0.879245 75:0.292884 76:-0.471268 77:-0.238406 78:0.242177 79:0.689834 80:-0.578532 81:-0.651001 82:0.25707 83:-0.0433218 84:-0.11431 85:-0.87612 86:0.0442327 87:0.320537 88:-0.84139 89:-0.525197 90:0.342208 91:-0.819995 92:-0.153226 93:0.891892 94:0.0808362 95:-0.493773 96:-0.249679 97:0.280698 98:0.899195 99:-0.42641 100:-0.888272 101:0.27639 102:-0.0648972 103:-0.0821004 104:-0.891477 105:-0.005826 106:0.320023 107:-0.87113 108:-0.524836 109:0.336239 110:-0.82237 111:-0.104839 112:0.883268 113:-0.163491 114:-0.505566 115:-0.244315 116:0.317309 117:0.834054 118:-0.154264 119:-0.849921 120:0.285837 121:-0.0850381 122:-0.103234 123:-0.945633 124:-0.0673155 125:0.319528 126:-0.861027 127:-0.522775 128:0.334943 129:-0.0385126 130:0.00436681 131:0.836576 132:-0.485183 133:-0.494734 134:-0.25369 135:0.347595 136:0.776354 137:0.0375067 138:-0.816835 139:0.295324 140:-0.0958739 141:-0.105633 142:-0.939565 143:-0.0700754 144:0.313878 145:-0.872608 146:-0.520035 147:0.335396 148:-0.42494 149:0.0218341 150:0.821012 151:-0.533047 152:-0.507733 153:-0.251147 154:0.374589 155:0.540236 156:0.0197576 157:-0.617564 158:0.317852 159:-0.0965538 160:-0.106873 161:-0.641154 162:-0.072002 163:0.315026 164:-0.866566 165:-0.516221 166:0.329498 167:-0.818787 168:0.0131004 169:0.81323 170:-0.533169 171:-0.510633 172:-0.265765 173:0.397178 174:0.260064 175:-0.058597 176:-0.376694 177:0.340504 178:-0.0933917 179:-0.0943586 180:-0.718946 181:-0.0734799 182:0.313342 183:-0.851472 184:-0.510914 185:0.327054 186:-0.816717 187:-0.0173913 188:0.796875 189:-0.508498 190:-0.506439 
0.1236259397856074 0 7:-0.316696 8:-0.266444 9:-0.932024 10:-0.29313 11:-0.226412 12:-0.852497 13:-0.0277398 14:-0.18607 15:-0.902316 16:-0.977528 17:-0.622222 18:-0.950899 19:-0.91432 20:-0.178653 21:0.0474167 22:0.397365 23:-0.0797562 24:-0.367489 25:0.0108629 26:-0.31259 27:-0.268404 28:-0.890397 29:-0.308265 30:-0.228845 31:-0.849673 32:-0.0304095 33:-0.193821 34:-0.924975 35:-0.976744 36:-0.630996 37:-0.956333 38:-0.907647 39:-0.161024 40:0.243865 41:0.238391 42:-0.0149234 43:-0.238302 44:0.188892 45:-0.312437 46:-0.274673 47:-0.909502 48:-0.114145 49:-0.20335 50:-0.887883 51:-0.0690981 52:-0.194434 53:-0.956697 54:-0.719844 55:-0.904412 56:-0.93691 57:-0.935641 58:-0.146973 59:0.273536 60:0.221062 61:0.00909678 62:-0.224629 63:0.209189 64:-0.313485 65:-0.276497 66:-0.918429 67:-0.117209 68:-0.197278 69:-0.910395 70:-0.077814 71:-0.205875 72:-0.894763 73:-0.700405 74:-0.916981 75:-0.936862 76:-0.953767 77:-0.265286 78:0.321132 79:0.084287 80:0.060741 81:-0.0844771 82:0.25738 83:-0.31858 84:-0.275578 85:-0.930381 86:-0.119027 87:-0.203743 88:-0.898792 89:-0.0749073 90:-0.210575 91:-0.897213 92:-0.701613 93:-0.915058 94:-0.958053 95:-0.960758 96:-0.327264 97:0.356883 98:-0.106737 99:0.111984 100:0.067756 101:0.290006 102:-0.31824 103:-0.247977 104:-0.905298 105:-0.128203 106:-0.207347 107:-0.881198 108:-0.0739515 109:-0.217109 110:-0.881239 111:-0.717742 112:-0.906615 113:-0.945255 114:-0.956137 115:-0.328388 116:0.379082 117:-0.221118 118:0.0666238 119:0.162672 120:0.318158 121:-0.3166 122:-0.25541 123:-0.904858 124:-0.0629077 125:-0.187765 126:-0.951158 127:-0.0381647 128:-0.221601 129:-0.609562 130:-0.598253 131:-0.984436 132:-0.883165 133:-0.981475 134:-0.326118 135:0.396369 136:-0.22752 137:-0.0347308 138:0.162947 139:0.345422 140:-0.314087 141:-0.243521 142:-0.895006 143:-0.125959 144:-0.221157 145:-0.867573 146:-0.029892 147:-0.223371 148:-0.763304 149:-0.755459 150:-0.898833 151:-0.963952 152:-0.968747 153:-0.305389 154:0.409419 155:-0.244278 156:-0.128597 157:0.187973 158:0.363871 159:-0.311776 160:-0.249274 161:-0.452949 162:-0.242964 163:-0.242062 164:-0.867573 165:-0.0313946 166:-0.231738 167:-0.880215 168:-0.965066 169:-0.782101 170:-0.984458 171:-0.962947 172:-0.306104 173:0.413229 174:-0.0146484 175:-0.181128 176:-0.00798117 177:0.368339 178:-0.314849 179:-0.248555 180:-0.513174 181:-0.143973 182:-0.230031 183:-0.842254 184:-0.0421264 185:-0.234587 186:-0.900302 187:-0.808696 188:-0.898438 189:-0.966221 190:-0.979755 
0 0.09220380845198328 7:-0.0349192 8:-0.112223 9:-0.950655 10:0.104158 11:0.315534 12:-0.852497 13:-0.532787 14:0.353486 15:-0.821752 16:-0.243446 17:0.888889 18:0.235667 19:-0.418318 20:-0.193904 21:-0.0702003 22:-0.394883 23:-0.75616 24:0.418784 25:-0.026267 26:-0.0338926 27:-0.115174 28:-0.956762 29:0.098384 30:0.316013 31:-0.858723 32:-0.532409 33:0.350975 34:-0.821249 35:-0.209302 36:0.881919 37:0.24193 38:-0.427242 39:-0.177316 40:0.110754 41:-0.454169 42:-0.750491 43:0.451432 44:0.156103 45:-0.0203442 46:-0.115522 47:-0.944696 48:0.12684 49:0.308698 50:-0.863248 51:-0.535443 52:0.348913 53:-0.821752 54:-0.276265 55:0.882353 56:0.32797 57:-0.41202 58:-0.187415 59:0.134046 60:-0.390943 61:-0.787046 62:0.388921 63:0.181628 64:-0.0141403 65:-0.111547 66:-0.91994 67:0.133279 68:0.321232 69:-0.859552 70:-0.537449 71:0.345848 72:-0.821752 73:-0.319838 74:0.932075 75:0.386506 76:-0.422136 77:-0.284353 78:0.201498 79:-0.233022 80:-0.755108 81:0.256381 82:0.235692 83:-0.0146073 84:-0.10705 85:-0.947786 86:0.135388 87:0.317196 88:-0.862034 89:-0.536961 90:0.341733 91:-0.820506 92:-0.58871 93:0.976834 94:0.400367 95:-0.423162 96:-0.310287 97:0.250725 98:-0.127397 99:-0.693935 100:0.146078 101:0.271979 102:-0.0180866 103:-0.0694629 104:-0.936524 105:0.120939 106:0.315742 107:-0.869117 108:-0.539565 109:0.336385 110:-0.821858 111:-0.435484 112:0.992218 113:0.373191 114:-0.421853 115:-0.286354 116:0.300508 117:0.0108397 118:-0.541568 119:0.00435326 120:0.306128 121:-0.0274401 122:-0.07918 123:-0.925497 124:0.103205 125:0.312367 126:-0.872105 127:-0.541288 128:0.334446 129:-0.0544489 130:-0.248908 131:0.992218 132:0.291032 133:-0.410696 134:-0.283521 135:0.342035 136:0.137751 137:-0.436295 138:-0.120752 139:0.334363 140:-0.0330472 141:-0.0625737 142:-0.910371 143:0.0852804 144:0.30904 145:-0.846425 146:-0.542987 147:0.335017 148:-0.423352 149:-0.187773 150:0.984436 151:0.204312 152:-0.426531 153:-0.264252 154:0.371799 155:0.210055 156:-0.361036 157:-0.184538 158:0.350749 159:-0.0427337 160:-0.0724784 161:-0.603513 162:0.0589426 163:0.310805 164:-0.834844 165:-0.543565 166:0.329351 167:-0.816739 168:-0.144105 169:0.976654 170:0.0833386 171:-0.43888 172:-0.269356 173:0.393144 174:0.215539 175:-0.316699 176:-0.187098 177:0.360522 178:-0.0699773 179:-0.0771606 180:-0.480552 181:0.0410669 182:0.310428 183:-0.83201 184:-0.544131 185:0.326787 186:-0.823263 187:-0.0956522 188:0.976562 189:-0.0381318 190:-0.467773 
0 0.06303542523886901 7:-0.0768671 8:-0.104998 9:-0.943605 10:0.0468808 11:0.315417 12:-0.829449 13:-0.532787 14:0.353486 15:-0.819235 16:-0.183521 17:0.874074 18:-0.345136 19:-0.427254 20:-0.223584 21:0.0467871 22:-0.49424 23:-0.24384 24:0.50573 25:0.0301181 26:-0.0635298 27:-0.109429 28:-0.939165 29:0.045934 30:0.316739 31:-0.827049 32:-0.532148 33:0.350758 34:-0.818731 35:-0.162791 36:0.867159 37:-0.268387 38:-0.43652 39:-0.256094 40:0.270201 41:-0.471023 42:-0.187066 43:0.466823 44:0.237925 45:-0.0475606 46:-0.118102 47:-0.948718 48:0.0797619 49:0.310629 50:-0.841629 51:-0.535419 52:0.348893 53:-0.822759 54:-0.182879 55:0.860294 56:-0.154118 57:-0.424595 58:-0.299919 59:0.315745 60:-0.491854 61:-0.181588 62:0.485911 63:0.275272 64:-0.0441769 65:-0.112054 66:-0.907855 67:0.090233 68:0.323803 69:-0.848981 70:-0.53716 71:0.345609 72:-0.822256 73:-0.182186 74:0.909434 75:-0.0977549 76:-0.436203 77:-0.332697 78:0.376852 79:-0.388944 80:0.0356733 81:0.404491 82:0.314868 83:-0.0459929 84:-0.106678 85:-0.914001 86:0.102186 87:0.317368 88:-0.859013 89:-0.536985 90:0.341753 91:-0.818972 92:-0.177419 93:0.969112 94:-0.0500731 95:-0.414547 96:-0.316864 97:0.422462 98:-0.325038 99:0.235129 100:0.336311 101:0.341626 102:-0.0498404 103:-0.0634708 104:-0.855644 105:0.0950871 106:0.316706 107:-0.852001 108:-0.539348 109:0.336205 110:-0.820834 111:-0.201613 112:0.984436 113:-0.062842 114:-0.420351 115:-0.288964 116:0.435022 117:-0.310081 118:0.240689 119:0.315053 120:0.355985 121:-0.0620164 122:-0.0863221 123:0.965769 124:0.0872334 125:0.314351 126:-0.866566 127:-0.541216 128:0.334386 129:-0.062417 130:-0.126638 131:0.984436 132:-0.0989202 133:-0.413196 134:-0.290474 135:0.431188 136:-0.309135 137:0.154853 138:0.307282 139:0.363168 140:-0.0656071 141:-0.0714905 142:-0.911396 143:0.0825272 144:0.308723 145:-0.854985 146:-0.542915 147:0.334956 148:-0.439237 149:-0.135371 150:0.984436 151:-0.131032 152:-0.411078 153:-0.272031 154:0.427841 155:-0.322027 156:0.0761013 157:0.329849 158:0.366188 159:-0.0602969 160:-0.0729769 161:-0.668758 162:0.0818522 163:0.309915 164:-0.854985 165:-0.543303 166:0.329128 167:-0.818787 168:-0.161572 169:0.984436 170:-0.103583 171:-0.417166 172:-0.276582 173:0.422724 174:-0.44763 175:-0.0604677 176:0.466726 177:0.371118 178:-0.0632617 179:-0.0722537 180:-0.731493 181:0.0845147 182:0.308585 183:-0.856082 184:-0.544108 185:0.326767 186:-0.821249 187:-0.182609 188:0.992188 189:-0.0633343 190:-0.425021 
0 0.177852672453543 7:-0.0925754 8:-0.0998593 9:-0.864552 10:0.0347751 11:0.313882 12:-0.840717 13:-0.532882 14:0.353564 15:-0.820242 16:-0.168539 17:0.874074 18:-0.430341 19:-0.421309 20:-0.19297 21:0.00645339 22:-0.670549 23:-0.325375 24:0.675862 25:-0.000326975 26:-0.0767118 27:-0.107329 28:-0.94369 29:0.0328592 30:0.315105 31:-0.832579 32:-0.532314 33:0.350896 34:-0.819235 35:-0.155039 36:0.867159 37:-0.345136 38:-0.428183 39:-0.204775 40:0.226519 41:-0.627387 42:-0.263516 43:0.617917 44:0.205136 45:-0.0625298 46:-0.114865 47:-0.939165 48:0.0606845 49:0.311639 50:-0.827049 51:-0.535107 52:0.348636 53:-0.818731 54:-0.159533 55:0.860294 56:-0.258746 57:-0.43652 58:-0.245457 59:0.281048 60:-0.601561 61:-0.244619 62:0.599088 63:0.250417 64:-0.0489052 65:-0.118273 66:-0.94864 67:0.0769598 68:0.32221 69:-0.84143 70:-0.537353 71:0.345768 72:-0.822759 73:-0.149798 74:0.909434 75:-0.140159 76:-0.424595 77:-0.342791 78:0.351652 79:-0.615292 80:-0.138791 81:0.628505 82:0.30913 83:-0.0506052 84:-0.107814 85:-0.906322 86:0.0896881 87:0.319527 88:-0.848943 89:-0.536864 90:0.341653 91:-0.819484 92:-0.185484 93:0.953668 94:-0.0962236 95:-0.435527 96:-0.326784 97:0.401629 98:-0.525251 99:0.0772896 100:0.542883 101:0.336981 102:-0.0522896 103:-0.0719568 104:-0.914001 105:0.0926774 106:0.316435 107:-0.859049 108:-0.539396 109:0.336245 110:-0.818787 111:-0.177419 112:0.984436 113:-0.0500731 114:-0.415248 115:-0.296789 116:0.436049 117:-0.477488 118:0.204804 119:0.49282 120:0.359156 121:-0.0543116 122:-0.0717702 123:-0.858042 124:0.0905139 125:0.314724 126:-0.851964 127:-0.541168 128:0.334345 129:-0.0703851 130:-0.144105 131:0.984436 132:-0.062842 133:-0.420351 134:-0.292114 135:0.448148 136:-0.449013 137:0.205703 138:0.46174 139:0.371913 140:-0.0656071 141:-0.0714905 142:1 143:0.085314 144:0.309044 145:-0.866566 146:-0.542891 147:0.334936 148:-0.439237 149:-0.126638 150:0.984436 151:-0.0989202 152:-0.412492 153:-0.275628 154:0.442931 155:-0.448446 156:0.122107 157:0.475219 158:0.373829 159:-0.0693558 160:-0.075505 161:-0.565872 162:0.0778728 163:0.309454 164:-0.854985 165:-0.543398 166:0.329209 167:-0.819299 168:-0.135371 169:0.984436 170:-0.127776 171:-0.40966 172:-0.276272 173:0.43832 174:-0.477523 175:0.0332325 176:0.52759 177:0.375632 178:-0.0643692 179:-0.0711766 180:-0.668758 181:0.0774526 182:0.307758 183:-0.852497 184:-0.544013 185:0.326686 186:-0.821752 187:-0.165217 188:0.992188 189:-0.0780908 190:-0.417009 
0 0.2435664034857335 7:-0.418025 8:-0.269211 9:-0.854985 10:-0.211131 11:-0.189558 12:-0.830986 13:-0.186 14:-0.182877 15:-0.95569 16:-0.692884 17:-0.918519 18:-0.963958 19:-0.96844 20:-0.17629 21:-0.00794869 22:0.124562 23:-0.676911 24:-0.103498 25:0.0240872 26:-0.414222 27:-0.271765 28:-0.864253 29:-0.229565 30:-0.192933 31:-0.834087 32:-0.184367 33:-0.188625 34:-0.929507 35:-0.689922 36:-0.918819 37:-0.965044 38:-0.946874 39:-0.131006 40:0.105167 41:0.209924 42:-0.834533 43:-0.211808 44:0.161489 45:-0.414511 46:-0.279098 47:-0.879839 48:-0.189565 49:-0.196309 50:-0.839618 51:-0.172352 52:-0.193605 53:-0.942095 54:-0.649805 55:-0.941176 56:-0.967669 57:-0.950305 58:-0.09591 59:0.0820737 60:0.279738 61:-1 62:-0.280429 63:0.161724 64:-0.410448 65:-0.279638 66:-0.929507 67:-0.169171 68:-0.171445 69:-0.888749 70:-0.168874 71:-0.207711 72:-0.923968 73:-0.595142 74:-0.984906 75:-0.866067 76:-0.988686 77:-0.196306 78:0.14248 79:0.323548 80:-0.979707 81:-0.311362 82:0.206483 83:-0.399983 84:-0.279996 85:-0.911953 86:-0.226647 87:-0.208982 88:-0.900302 89:-0.157347 90:-0.20907 91:-0.957044 92:-0.725806 93:-0.868726 94:-0.969542 95:-0.939879 96:-0.25531 97:0.200995 98:0.236457 99:-0.844334 100:-0.26634 101:0.241016 102:-0.393991 103:-0.248651 104:-0.913489 105:-0.235885 106:-0.213226 107:-0.887742 108:-0.156332 109:-0.216139 110:-0.923727 111:-0.741935 112:-0.859922 113:-0.980784 114:-0.956772 115:-0.270636 116:0.240397 117:0.12929 118:-0.71592 119:-0.180352 120:0.267938 121:-0.391873 122:-0.257703 123:-0.907878 124:-0.233523 125:-0.220389 126:-0.879658 127:-0.146501 128:-0.223469 129:-0.460823 130:-0.720524 131:-0.85214 132:-0.973252 133:-0.95373 134:-0.27607 135:0.277105 136:-0.079982 137:-0.639128 138:0.00336451 139:0.294183 140:-0.388975 141:-0.246933 142:-0.884763 143:-0.233094 144:-0.227915 145:-0.863041 146:-0.142084 147:-0.221023 148:-0.577442 149:-0.746725 150:-0.844358 151:-0.978639 152:-0.934212 153:-0.262966 154:0.304649 155:-0.277655 156:-0.601114 157:0.186094 158:0.311652 159:-0.38656 160:-0.251519 161:-0.435383 162:-0.181928 163:-0.219709 164:-0.922457 165:-0.128529 166:-0.217128 167:-0.943179 168:-0.703057 169:-0.891051 170:-0.975898 171:-0.884514 172:-0.278459 173:0.335002 174:-0.436143 175:-0.598129 176:0.346865 177:0.331285 178:-0.389284 179:-0.252215 180:-0.568381 181:-0.179966 182:-0.225086 183:-0.911908 184:-0.108936 185:-0.228715 186:-0.913897 187:-0.730435 188:-0.890625 189:-0.979406 190:-0.957783 
0 0.2079577497080365 7:-0.14283 8:-0.139004 9:-0.95569 10:0.0809811 11:0.316339 12:-0.825864 13:-0.532573 14:0.353309 15:-0.819235 16:-0.0861423 17:0.881481 18:-0.515007 19:-0.410274 20:-0.17679 21:0.0192028 22:0.0558208 23:-0.547371 24:-0.0377736 25:0.0373115 26:-0.137436 27:-0.135915 28:-0.912519 29:0.0636037 30:0.315562 31:-0.836099 32:-0.532219 33:0.350817 34:-0.819235 35:-0.0620155 36:0.874539 37:-0.5411 38:-0.408844 39:-0.143011 40:0.214759 41:-0.00946283 42:-0.569577 43:0.0066089 44:0.234004 45:-0.143454 46:-0.15207 47:-0.925591 48:0.0769611 49:0.310297 50:-0.842634 51:-0.535083 52:0.348616 53:-0.820745 54:-0.0583658 55:0.867647 56:-0.56063 57:-0.406932 58:-0.119189 59:0.229537 60:0.00330459 61:-0.673411 62:-0.00832748 63:0.258735 64:-0.148829 65:-0.160542 66:-0.951662 67:0.0646434 68:0.324092 69:-0.84747 70:-0.537208 71:0.345648 72:-0.821752 73:-0.0121457 74:0.909434 75:-0.615973 76:-0.424378 77:-0.177406 78:0.227078 79:0.201729 80:-0.837381 81:-0.185865 82:0.272528 83:-0.151898 84:-0.154135 85:-0.96775 86:0.0527207 87:0.318386 88:-0.838369 89:-0.537009 90:0.341773 91:-0.820506 92:-0.00806452 93:0.953668 94:-0.674041 95:-0.415144 96:-0.183596 97:0.230344 98:0.328547 99:-0.939472 100:-0.332607 101:0.283156 102:-0.147363 103:-0.115043 104:-0.91912 105:0.0309928 106:0.315898 107:-0.840926 108:-0.539251 109:0.336125 110:-0.818275 111:-0.0322581 112:0.968872 113:-0.675025 114:-0.40871 115:-0.197055 116:0.251703 117:0.300103 118:-0.865895 119:-0.318789 120:0.299624 121:-0.144939 122:-0.118735 123:-0.900327 124:0.0171676 125:0.312687 126:-0.851964 127:-0.541 128:0.334205 129:-0.0677291 130:0.00436681 131:0.968872 132:-0.666454 133:-0.40718 134:-0.240445 135:0.281083 136:0.207664 137:-0.768714 138:-0.250857 139:0.317331 140:-0.143642 141:-0.104067 142:-0.91242 143:0.00604547 144:0.312317 145:-0.846425 146:-0.542867 147:0.334916 148:-0.440826 149:-0.00436681 150:0.953307 151:-0.68917 152:-0.452472 153:-0.250804 154:0.303499 155:0.104055 156:-0.716501 157:-0.160902 158:0.328799 159:-0.120875 160:-0.0661895 161:-0.242158 162:0.00326342 163:0.313293 164:-0.846928 165:-0.543208 166:0.329047 167:-0.818787 168:-0.0393013 169:0.953307 170:-0.595452 171:-0.460196 172:-0.257103 173:0.32489 174:-0.117254 175:-0.726327 176:0.0477722 177:0.341103 178:-0.120107 179:-0.0638878 180:-0.324969 181:0.00793625 182:0.306021 183:-0.840717 184:-0.544108 185:0.326767 186:-0.820242 187:-0.0608696 188:0.976562 189:-0.620542 190:-0.420007 
0.8332521159531883 0 7:-0.433479 8:-0.270324 9:-0.865055 10:-0.238266 11:-0.199407 12:-0.881178 13:-0.160005 14:-0.192709 15:-0.849446 16:-0.715356 17:-0.844444 18:-0.972637 19:-0.956438 20:-0.184357 21:0.0268367 22:0.0471008 23:-0.421387 24:-0.0306191 25:0.0306267 26:-0.429647 27:-0.2724 28:-0.860734 29:-0.258178 30:-0.199698 31:-0.895928 32:-0.166432 33:-0.19319 34:-0.903323 35:-0.713178 36:-0.852399 37:-0.978277 38:-0.929299 39:-0.155265 40:0.226824 41:-0.0188786 42:-0.40411 43:0.0163607 44:0.223792 45:-0.424722 46:-0.278323 47:-0.856712 48:-0.219289 49:-0.200078 50:-0.835093 51:-0.179211 52:-0.190413 53:-0.956697 54:-0.680934 55:-0.904412 56:-0.970021 57:-0.958184 58:-0.131605 59:0.251961 60:-0.0282675 61:-0.497042 62:0.0218303 63:0.256787 64:-0.425819 65:-0.27936 66:-0.851964 67:-0.226491 68:-0.195649 69:-0.836899 70:-0.187849 71:-0.201493 72:-0.952165 73:-0.676113 74:-0.909434 75:-0.964115 76:-0.963856 77:-0.196167 78:0.30313 79:0.0430636 80:-0.535834 81:-0.0329571 82:0.309544 83:-0.425387 84:-0.277668 85:-0.852572 86:-0.219125 87:-0.200527 88:-0.833837 89:-0.182283 90:-0.202142 91:-0.954999 92:-0.669355 93:-0.915058 94:-0.962817 95:-0.968453 96:-0.206167 97:0.334278 98:0.0832062 99:-0.559754 100:-0.0943718 101:0.33995 102:-0.424355 103:-0.250341 104:-0.861787 105:-0.228435 106:-0.204425 107:-0.833879 108:-0.186163 109:-0.21008 110:-0.928334 111:-0.677419 112:-0.914397 113:-0.963938 114:-0.946874 115:-0.190747 116:0.318621 117:0.190377 118:-0.665094 119:-0.206572 120:0.341256 121:-0.427193 122:-0.26027 123:-0.879688 124:-0.207258 125:-0.206005 126:-0.839376 127:-0.178448 128:-0.214578 129:-0.694555 130:-0.606987 131:-0.937743 132:-0.96708 133:-0.950305 134:-0.194669 135:0.309219 136:0.285431 137:-0.761017 138:-0.301849 139:0.344868 140:-0.424066 141:-0.248647 142:-0.928297 143:-0.184412 144:-0.193237 145:-0.888721 146:-0.177426 147:-0.226388 148:-0.760127 149:-0.580786 150:-0.984436 151:-0.86584 152:-0.988672 153:-0.200406 154:0.31793 155:0.255257 156:-0.764689 157:-0.277703 158:0.350071 159:-0.406457 160:-0.252408 161:-0.485571 162:-0.242672 163:-0.226193 164:-0.900302 165:-0.170568 166:-0.229839 167:-0.957 168:-0.71179 169:-0.867704 170:-0.978367 171:-0.939735 172:-0.23377 173:0.333336 174:0.149232 175:-0.769959 176:-0.183739 177:0.356799 178:-0.404158 179:-0.250872 180:-0.57591 181:-0.250417 182:-0.233476 183:-0.877593 184:-0.167268 185:-0.234456 186:-0.924975 187:-0.730435 188:-0.867188 189:-0.983875 190:-0.955868 
0 0.9941376824786898 7:-0.485599 8:-0.271384 9:-0.872105 10:-0.272832 11:-0.200162 12:-0.876569 13:-0.137308 14:-0.184782 15:-0.903827 16:-0.730337 17:-0.755556 18:-0.970383 19:-0.923435 20:-0.228315 21:0.0563885 22:-0.228439 23:-0.367285 24:0.240648 25:0.0508265 26:-0.482029 27:-0.274598 28:-0.865259 29:-0.23961 30:-0.193648 31:-0.910508 32:-0.128194 33:-0.184339 34:-0.900302 35:-0.643411 36:-0.822878 37:-0.982912 38:-0.943497 39:-0.180133 40:0.248466 41:0.0281374 42:-0.321639 43:-0.0338669 44:0.233272 45:-0.47714 46:-0.280685 47:-0.867773 48:-0.223923 49:-0.201535 50:-0.898944 51:-0.125307 52:-0.190175 53:-0.8857 54:-0.649805 55:-0.823529 56:-0.975503 57:-0.945138 58:-0.142194 59:0.27468 60:0.197964 61:-0.340061 62:-0.199029 63:0.257051 64:-0.472981 65:-0.281965 66:-0.873112 67:-0.269439 68:-0.20476 69:-0.867606 70:-0.123847 71:-0.199287 72:-0.92145 73:-0.676113 74:-0.788679 75:-0.973215 76:-0.912527 77:-0.209639 78:0.32295 79:0.383217 80:-0.261834 81:-0.359775 82:0.296877 83:-0.477313 84:-0.279688 85:-0.887382 86:-0.271902 87:-0.21193 88:-0.86858 89:-0.142327 90:-0.206357 91:-0.886985 92:-0.677419 93:-0.814672 94:-0.970641 95:-0.894379 96:-0.252273 97:0.351605 98:0.388193 99:-0.139155 100:-0.404975 101:0.313356 102:-0.476065 103:-0.253804 104:-0.900691 105:-0.276784 106:-0.21389 107:-0.875157 108:-0.173265 109:-0.204582 110:-0.899667 111:-0.677419 112:-0.85214 113:-0.977835 114:-0.86867 115:-0.264309 116:0.3702 117:0.37965 118:-0.0686968 119:-0.410791 120:0.327397 121:-0.473265 122:-0.261676 123:-0.895797 124:-0.279748 125:-0.220642 126:-0.874119 127:-0.172036 128:-0.206681 129:-0.763612 130:-0.668122 131:-0.844358 132:-0.965392 133:-0.874179 134:-0.277862 135:0.384089 136:0.169857 137:-0.0377591 138:-0.230515 139:0.338277 140:-0.475053 141:-0.250976 142:-0.93854 143:-0.188442 144:-0.207567 145:-0.836858 146:-0.16996 147:-0.210127 148:-0.837967 149:-0.58952 150:-0.945525 151:-0.953075 152:-0.954927 153:-0.267449 154:0.393678 155:-0.075601 156:-0.0291195 157:-0.0098068 158:0.343517 159:-0.47225 160:-0.256754 161:-0.65872 162:-0.229361 163:-0.219866 164:-0.905841 165:-0.139371 166:-0.226832 167:-0.921679 168:-0.668122 169:-0.883268 170:-0.978341 171:-0.912669 172:-0.273555 173:0.407166 174:-0.283749 175:-0.0514443 176:0.186266 177:0.353701 178:-0.469433 179:-0.255203 180:-0.70389 181:-0.222514 182:-0.224748 183:-0.882202 184:-0.1393 185:-0.235218 186:-0.850453 187:-0.704348 188:-0.921875 189:-0.982332 190:-0.941133 
0 0.1342615931139329 7:-0.0393644 8:0.114462 9:-0.674723 10:0.0758415 11:0.378073 12:-0.806914 13:-0.530699 14:0.351754 15:-0.81571 16:-0.700375 17:0.748148 18:0.307966 19:-0.960022 20:-0.168834 21:-0.0127494 22:-0.224365 23:-0.207518 24:0.238829 25:-0.0313533 26:-0.0368594 27:0.112336 28:-0.689794 29:0.0666067 30:0.379088 31:-0.824032 32:-0.53027 33:0.349197 34:-0.816213 35:-0.689922 36:0.741697 37:0.30941 38:-0.97418 39:-0.124998 40:0.185278 41:-0.293975 42:-0.21351 43:0.289764 44:0.158258 45:-0.0327766 46:0.107359 47:-0.698341 48:0.100017 49:0.371466 50:-0.802413 51:-0.533424 52:0.347248 53:-0.815206 54:-0.719844 55:0.75 56:0.379409 57:-0.950155 58:-0.0901364 59:0.209844 60:-0.33351 61:-0.241239 62:0.326262 63:0.18143 64:-0.0316732 65:0.107851 66:-0.749245 67:0.105978 68:0.385977 69:-0.820287 70:-0.535279 71:0.344055 72:-0.814703 73:-0.700405 74:0.781132 75:0.428679 76:-0.97043 77:-0.187429 78:0.287533 79:-0.259481 80:-0.0495386 81:0.2705 82:0.23714 83:-0.0357119 84:0.115019 85:-0.786025 86:0.123575 87:0.378324 88:-0.808661 89:-0.535238 90:0.340316 91:-0.81437 92:-0.733871 93:0.84556 94:0.409317 95:-0.93695 96:-0.229235 97:0.35334 98:-0.186862 99:0.185386 100:0.189651 101:0.277493 102:-0.0397354 103:0.15918 104:-0.826465 105:0.109715 106:0.380611 107:-0.822301 108:-0.537563 109:0.334724 110:-0.812644 111:-0.758065 112:0.85214 113:0.436154 114:-0.962125 115:-0.235331 116:0.396857 117:-0.13895 118:0.321324 119:0.13812 120:0.306273 121:-0.0424535 122:0.151008 123:-0.887742 124:0.107298 125:0.375535 126:-0.808661 127:-0.539414 128:0.332881 129:-0.0438247 130:-0.703057 131:0.867704 132:0.358824 133:-0.932849 134:-0.229329 135:0.423775 136:-0.0551834 137:0.417936 138:0.0512393 139:0.32229 140:-0.0432437 141:0.1731 142:-0.735723 143:0.0916202 144:0.371237 145:-0.793555 146:-0.541169 147:0.333481 148:-0.431295 149:-0.68559 150:0.85214 151:0.26785 152:-0.939903 153:-0.211578 154:0.444715 155:0.0144469 156:0.492734 157:-0.00525574 158:0.331681 159:-0.0444735 160:0.170194 161:-0.212045 162:0.0612103 163:0.37734 164:-0.846425 165:-0.541659 166:0.32773 167:-0.817251 168:-0.676856 169:0.836576 170:0.170399 171:-0.980056 172:-0.225185 173:0.462123 174:-0.0208389 175:0.521045 176:0.0373507 177:0.34299 178:-0.0466017 179:0.173186 180:-0.287327 181:0.0526484 182:0.374459 183:-0.824328 184:-0.542446 185:0.325344 186:-0.817221 187:-0.686957 188:0.84375 189:0.137343 190:-0.969705 
0 1.285062373401755 7:0.00949888 8:0.115443 9:-0.689325 10:0.116644 11:0.190027 12:-0.841741 13:0.14521 14:0.175956 15:-0.881168 16:-0.955056 17:-0.962963 18:-0.945052 19:-0.971444 20:-0.169568 21:-0.013497 22:-0.216091 23:-0.195326 24:0.233129 25:-0.0341871 26:0.0125704 27:0.113319 28:-0.700855 29:0.105673 30:0.188976 31:-0.840121 32:0.151256 33:0.172189 34:-0.886707 35:-0.953488 36:-0.9631 37:-0.944971 38:-0.967717 39:-0.12875 40:0.179927 41:-0.279601 42:-0.178034 43:0.274137 44:0.148649 45:0.0164466 46:0.108502 47:-0.763198 48:0.126452 49:0.182441 50:-0.844143 51:0.159055 52:0.169161 53:-0.861027 54:-0.953307 55:-0.963235 56:-0.939721 57:-0.966319 58:-0.0952574 59:0.20619 60:-0.321489 61:-0.214396 62:0.315188 63:0.174069 64:0.0172037 65:0.109129 66:-0.812185 67:0.138146 68:0.194145 69:-0.844953 70:0.180061 71:0.167094 72:-0.908359 73:-0.951417 74:-0.962264 75:-0.944938 76:-0.976407 77:-0.158135 78:0.261616 79:-0.330582 80:-0.147789 81:0.337476 82:0.223698 83:0.0130476 84:0.1193 85:-0.749168 86:0.141381 87:0.188777 88:-0.904834 89:0.193358 90:0.161945 91:-0.850678 92:-0.959677 93:-0.96139 94:-0.960642 95:-0.989051 96:-0.194996 97:0.322658 98:-0.288166 99:0.0415918 100:0.286565 101:0.26339 102:0.00823075 103:0.163839 104:-0.721014 105:0.0111978 106:0.189154 107:-0.836396 108:0.164042 109:0.150092 110:-0.786537 111:-0.991935 112:-0.976654 113:-1 114:-0.970927 115:-0.21235 116:0.372624 117:-0.241112 118:0.198013 119:0.236261 120:0.295964 121:0.00692662 122:0.158539 123:-0.821294 124:0.0548548 125:0.184545 126:-0.636455 127:0.0508711 128:0.143731 129:0.556441 130:-0.991266 131:-0.992218 132:-1 133:-1 134:-0.2355 135:0.411607 136:-0.191567 137:0.308476 138:0.185295 139:0.321086 140:0.00605772 141:0.178049 142:-0.793598 143:0.128492 144:0.178214 145:-0.884189 146:0.179299 147:0.152673 148:-0.621922 149:-0.973799 150:-0.961089 151:-0.976517 152:-0.979799 153:-0.213604 154:0.433961 155:-0.117588 156:0.390558 157:0.124464 158:0.330819 159:0.00371895 160:0.175458 161:0.626098 162:0.118895 163:0.179098 164:-0.84139 165:0.154217 166:0.144578 167:-0.857179 168:-0.956332 169:-0.968872 170:-0.953683 171:-0.971471 172:-0.214218 173:0.451887 174:-0.0671676 175:0.460138 176:0.095085 177:0.33854 178:0.00174327 179:0.178502 180:0.864492 181:0.0511546 182:0.174742 183:-0.632778 184:0.125613 185:0.140303 186:-0.83283 187:-0.982609 188:-0.953125 189:-0.975078 190:-0.96913 
1.142011304293507 3.309371923431201 7:0.00717758 8:0.113091 9:-0.909869 10:0.119484 11:0.189602 12:-0.847887 13:0.147705 14:0.175684 15:-0.863041 16:-0.947566 17:-0.962963 18:-0.926611 19:-0.968121 20:-0.188655 21:0.00550899 22:-0.132137 23:-0.112014 24:0.153944 25:-0.0257584 26:0.0100311 27:0.113777 28:-0.689794 29:0.103923 30:0.189233 31:-0.844646 32:0.14699 33:0.172656 34:-0.881168 35:-0.953488 36:-0.9631 37:-0.945052 38:-0.97149 39:-0.147983 40:0.190653 41:-0.235598 42:-0.128813 43:0.233015 44:0.151967 45:0.0138316 46:0.108974 47:-0.700855 48:0.120277 49:0.183358 50:-0.840121 51:0.156089 52:0.169483 53:-0.886707 54:-0.953307 55:-0.963235 56:-0.944246 57:-0.967717 58:-0.116973 59:0.210638 60:-0.282686 61:-0.154844 62:0.276042 63:0.17057 64:0.0150595 65:0.109518 66:-0.76284 67:0.123571 68:0.192388 69:-0.843947 70:0.159242 71:0.165173 72:-0.861027 73:-0.951417 74:-0.962264 75:-0.938727 76:-0.966319 77:-0.176553 78:0.265486 79:-0.293453 80:-0.0927873 81:0.301569 82:0.220933 83:0.0104954 84:0.116843 85:-0.809061 86:0.137872 87:0.189278 88:-0.844914 89:0.184709 90:0.162819 91:-0.906929 92:-0.951613 93:-0.96139 94:-0.944845 95:-0.976379 96:-0.182929 97:0.306566 98:-0.330761 99:-0.020357 100:0.324691 101:0.254843 102:0.00640358 103:0.164181 104:-0.749168 105:0.131897 106:0.187394 107:-0.904858 108:0.186896 109:0.155972 110:-0.850525 111:-0.959677 112:-0.968872 113:-0.960642 114:-0.989064 115:-0.193625 116:0.35071 117:-0.316091 118:0.098506 119:0.303511 120:0.286055 121:0.00349319 122:0.156088 123:-0.725648 124:0.052176 125:0.184995 126:-0.633938 127:0.0485326 128:0.144093 129:0.280212 130:-0.982533 131:-0.992218 132:-0.975702 133:-1 134:-0.223961 135:0.394226 136:-0.269775 137:0.220403 138:0.25595 139:0.313924 140:0.00302345 141:0.178612 142:-0.818182 143:0.0531687 144:0.178727 145:-0.636455 146:0.0466293 147:0.142939 148:-0.0691025 149:-0.991266 150:-0.992218 151:-1 152:-1 153:-0.226196 154:0.426581 155:-0.231573 156:0.309804 157:0.232809 158:0.331398 159:0.00204315 160:0.175772 161:0.0112923 162:0.123652 163:0.178396 164:-0.884189 165:0.175866 166:0.146489 167:-0.878167 168:-0.973799 169:-0.968872 170:-0.976429 171:-0.979751 172:-0.222508 173:0.445285 174:-0.18073 175:0.380413 176:0.203175 177:0.339241 178:-0.000612941 179:0.178948 180:0.626098 181:0.114354 182:0.176105 183:-0.838668 184:0.150829 185:0.141464 186:-0.859517 187:-0.956522 188:-0.96875 189:-0.952365 190:-0.971464 
0 4.106287072670123 7:-0.782238 8:-0.284202 9:-0.865055 10:-0.766671 11:-0.237481 12:-0.86274 13:-0.781312 14:-0.257234 15:-0.857503 16:-1 17:-0.992593 18:-1 19:-1 20:-0.188961 21:0.0248692 22:0.0396537 23:0.130048 24:-0.0231007 25:-0.0344777 26:-0.830691 27:-0.293487 28:-0.922574 29:-0.789022 30:-0.240854 31:-0.853193 32:-0.775373 33:-0.26414 34:-0.925982 35:-0.992248 36:-0.99262 37:-1 38:-1 39:-0.170806 40:0.22443 41:-0.0251871 42:0.165205 43:0.0225878 44:0.146366 45:-0.83134 46:-0.298786 47:-0.927602 48:-0.823322 49:-0.253033 50:-0.927602 51:-0.779939 52:-0.266791 53:-0.863041 54:-1 55:-0.992647 56:-1 57:-1 58:-0.160904 59:0.244357 60:-0.0728045 61:0.18119 62:0.0658744 63:0.1574 64:-0.825477 65:-0.301547 66:-0.955186 67:-0.817999 68:-0.250407 69:-0.955198 70:-0.781857 71:-0.271903 72:-0.850453 73:-1 74:-0.992453 75:-1 76:-1 77:-0.227705 78:0.290553 79:-0.0561078 80:0.330977 81:0.0628073 82:0.196169 83:-0.769762 84:-0.295319 85:-0.898643 86:-0.765119 87:-0.252028 88:-0.900302 89:-0.776054 90:-0.277576 91:-0.898747 92:-1 93:-1 94:-1 95:-1 96:-0.249192 97:0.326226 98:-0.0817505 99:0.463278 100:0.0668119 101:0.223095 102:-0.926318 103:-0.283612 104:-0.964679 105:-0.832629 106:-0.258918 107:-0.933048 108:-0.776699 109:-0.284113 110:-0.858203 111:-0.991935 112:-0.992218 113:-1 114:-1 115:-0.268298 116:0.352012 117:-0.144903 118:0.457645 119:0.116938 120:0.248752 121:-0.925748 122:-0.291443 123:-0.944123 124:-0.930514 125:-0.274661 126:-0.944109 127:-0.834062 128:-0.291045 129:-0.444887 130:-1 131:-0.992218 132:-1 133:-1 134:-0.297259 135:0.374186 136:-0.200921 137:0.448156 138:0.159614 139:0.270163 140:-0.923876 141:-0.279449 142:-0.941101 143:-0.923543 144:-0.280723 145:-0.942095 146:-0.833334 147:-0.293579 148:-0.714059 149:-1 150:-0.992218 151:-1 152:-1 153:-0.289708 154:0.38426 155:-0.227615 156:0.441158 157:0.191467 158:0.277046 159:-0.923338 160:-0.283794 161:-0.739021 162:-0.827716 163:-0.271099 164:-0.942095 165:-0.826605 166:-0.303073 167:-0.903251 168:-0.991266 169:-0.992218 170:-1 171:-1 172:-0.28981 173:0.387274 174:-0.249735 175:0.436864 176:0.228813 177:0.27791 178:-0.923428 179:-0.282933 180:-0.70389 181:-0.822145 182:-0.278695 183:-0.888348 184:-0.811933 185:-0.299889 186:-0.923968 187:-0.982609 188:-0.992188 189:-0.994618 190:-1 
0.2416556851303217 0 7:-0.789626 8:-0.283886 9:-0.871098 10:-0.767852 11:-0.238967 12:-0.864277 13:-0.783016 14:-0.259369 15:-0.884693 16:-0.992509 17:-0.992593 18:-1 19:-1 20:-0.242749 21:0.0233739 22:-0.100185 23:0.170688 24:0.115989 25:-0.0386194 26:-0.785161 27:-0.287075 28:-0.865259 29:-0.795861 30:-0.239918 31:-0.865259 32:-0.781318 33:-0.262269 34:-0.857503 35:-1 36:-0.99262 37:-1 38:-1 39:-0.219317 40:0.224453 41:-0.0943615 42:0.184579 43:0.0905566 44:0.144125 45:-0.832323 46:-0.299825 47:-0.922574 48:-0.772227 49:-0.248215 50:-0.853193 51:-0.781105 52:-0.268272 53:-0.925982 54:-0.992218 55:-0.992647 56:-1 57:-1 58:-0.209162 59:0.254416 60:-0.0853781 61:0.216484 62:0.0803995 63:0.162846 64:-0.832164 65:-0.299903 66:-0.927492 67:-0.824614 68:-0.248643 69:-0.927511 70:-0.782619 71:-0.272872 72:-0.863041 73:-1 74:-0.992453 75:-1 76:-1 77:-0.269446 78:0.302955 79:-0.0487037 80:0.374776 81:0.0591891 82:0.2032 83:-0.828341 84:-0.300284 85:-0.954441 86:-0.823668 87:-0.257298 88:-0.955186 89:-0.783046 90:-0.276963 91:-0.848121 92:-1 93:-0.992278 94:-1 95:-1 96:-0.272033 97:0.336832 98:-0.0710817 99:0.50859 100:0.0598765 101:0.228418 102:-0.771802 103:-0.269079 104:-0.898643 105:-0.77517 106:-0.254956 107:-0.900327 108:-0.777138 109:-0.284685 110:-0.898643 111:-1 112:-1 113:-1 114:-1 115:-0.265717 116:0.359274 117:-0.11493 118:0.538638 119:0.0913518 120:0.248354 121:-0.92677 122:-0.292443 123:-0.965266 124:-0.833902 125:-0.264759 126:-0.933031 127:-0.777533 128:-0.28771 129:-0.264276 130:-0.991266 131:-0.992218 132:-1 133:-1 134:-0.295834 135:0.381038 136:-0.172575 137:0.519763 138:0.136062 139:0.269799 140:-0.925424 141:-0.281003 142:-0.94315 143:-0.925098 144:-0.282286 145:-0.944109 146:-0.834467 147:-0.294897 148:-0.66799 149:-1 150:-0.992218 151:-1 152:-1 153:-0.30027 154:0.397508 155:-0.234737 156:0.50089 157:0.199395 158:0.283515 159:-0.92444 160:-0.284911 161:-0.711418 162:-0.924135 163:-0.282468 164:-0.942095 165:-0.832631 166:-0.300832 167:-0.907858 168:-1 169:-0.992218 170:-1 171:-1 172:-0.308862 173:0.404405 174:-0.283071 175:0.490124 176:0.259933 177:0.288455 178:-0.923911 179:-0.283428 180:-0.739021 181:-0.828638 182:-0.276967 183:-0.941101 184:-0.826227 185:-0.307817 186:-0.904834 187:-0.991304 188:-0.992188 189:-1 190:-1 
0 1.277198992666476 7:-0.624911 8:-0.332552 9:-0.922457 10:-0.369026 11:-0.24261 12:-0.76799 13:-0.351582 14:-0.275482 15:-0.863041 16:-0.737828 17:-0.948148 18:-0.851931 19:-0.856876 20:-0.195372 21:-0.0655176 22:-0.0798803 23:-0.350267 24:0.0979203 25:-0.0674659 26:-0.627111 27:-0.335495 28:-0.918552 29:-0.415823 30:-0.216964 31:-0.955254 32:-0.350737 33:-0.280898 34:-0.864048 35:-0.728682 36:-0.948339 37:-0.612036 38:-0.837815 39:-0.15595 40:0.112819 41:-0.144453 42:-0.360518 43:0.141137 44:0.106683 45:-0.621107 46:-0.341344 47:-0.935143 48:-0.395032 49:-0.226313 50:-0.882353 51:-0.351651 52:-0.284777 53:-0.867573 54:-0.727626 55:-0.955882 56:-0.616094 57:-0.79973 58:-0.139757 59:0.126719 60:-0.174498 61:-0.376448 62:0.168275 63:0.119704 64:-0.621977 65:-0.342481 66:-0.931521 67:-0.39694 68:-0.219115 69:-0.914926 70:-0.347512 71:-0.29138 72:-0.859517 73:-0.716599 74:-0.94717 75:-0.604631 76:-0.739028 77:-0.213405 78:0.203316 79:-0.179212 80:-0.178183 81:0.186927 82:0.170217 83:-0.625874 84:-0.342093 85:-0.921679 86:-0.3953 87:-0.228356 88:-0.876636 89:-0.362642 90:-0.295384 91:-0.861928 92:-0.701613 93:-0.938224 94:-0.619545 95:-0.807856 96:-0.228619 97:0.258497 98:-0.215399 99:0.0104084 100:0.205047 101:0.204326 102:-0.622217 103:-0.317833 104:-0.922703 105:-0.405078 106:-0.229855 107:-0.900327 108:-0.355117 109:-0.302264 110:-0.864346 111:-0.709677 112:-0.922179 113:-0.603898 114:-0.782778 115:-0.244349 116:0.30055 117:-0.252906 118:0.14347 119:0.232458 120:0.231378 121:-0.624131 122:-0.326909 123:-0.930531 124:-0.402903 125:-0.237246 126:-0.873112 127:-0.346654 128:-0.307542 129:-0.258964 130:-0.676856 131:-0.914397 132:-0.629873 133:-0.734578 134:-0.279036 135:0.337336 136:-0.278176 137:0.244062 138:0.249468 139:0.254494 140:-0.618404 141:-0.316269 142:-0.940589 143:-0.401259 144:-0.243156 145:-0.900302 146:-0.349215 147:-0.311054 148:-0.579031 149:-0.703057 150:-0.929961 151:-0.609676 152:-0.774956 153:-0.284439 154:0.365492 155:-0.305686 156:0.314973 157:0.28472 158:0.269545 159:-0.606689 160:-0.319792 161:-0.631117 162:-0.388819 163:-0.274691 164:-0.816717 165:-0.350561 166:-0.317578 167:-0.874584 168:-0.71179 169:-0.945525 170:-0.842318 171:-0.845742 172:-0.285954 173:0.38823 174:-0.320544 175:0.36033 176:0.318012 177:0.282347 178:-0.589357 179:-0.317582 180:-0.525721 181:-0.391417 182:-0.280791 183:-0.803329 184:-0.351953 185:-0.323005 186:-0.886707 187:-0.765217 188:-0.945312 189:-0.833791 190:-0.887378 
0.1772776201072682 0 7:-0.00442066 8:-0.13872 9:-0.928499 10:0.0122278 11:-0.0841847 12:-0.959027 13:0.213369 14:-0.0203904 15:-0.913897 16:-0.992509 17:-0.755556 18:-1 19:-0.944005 20:-0.178052 21:-0.0223901 22:0.0688689 23:-0.116586 24:-0.0491724 25:-0.0513351 26:-0.0027102 27:-0.142229 28:-0.914027 29:0.0163968 30:-0.0903793 31:-0.814982 32:0.217497 33:-0.0254161 34:-0.923968 35:-0.968992 36:-0.763838 37:-0.978041 38:-0.854808 39:-0.170579 40:0.16636 41:-0.0165246 42:-0.0966095 43:0.0154208 44:0.124865 45:-0.00902682 46:-0.152783 47:-0.939668 48:0.0293023 49:-0.0954591 50:-0.819507 51:0.22454 52:-0.0293792 53:-0.945116 54:-0.961089 55:-0.801471 56:-0.94274 57:-0.877899 58:-0.212194 59:0.182271 60:-0.0744626 61:-0.113983 62:0.0669819 63:0.137265 64:-0.00850204 65:-0.154851 66:-0.91138 67:0.0290718 68:-0.0850442 69:-0.797634 70:0.203431 71:-0.0416951 72:-0.882175 73:-0.94332 74:-0.803774 75:-0.950417 76:-0.912224 77:-0.311111 78:0.232151 79:-0.0461776 80:-0.0196042 81:0.0525819 82:0.180401 83:-0.014105 84:-0.152195 85:-0.908881 86:0.0293088 87:-0.0921604 88:-0.802115 89:0.209517 90:-0.0469225 91:-0.88852 92:-0.943548 93:-0.814672 94:-0.944639 95:-0.917851 96:-0.310645 97:0.261503 98:-0.0597948 99:0.0180997 100:0.0449165 101:0.207126 102:-0.0184015 103:-0.121645 104:-0.928334 105:-0.0133923 106:-0.0956376 107:-0.890259 108:0.203295 109:-0.0535843 110:-0.893013 111:-0.983871 112:-0.774319 113:-0.998529 114:-0.895065 115:-0.280511 116:0.277778 117:-0.0927642 118:-0.00428908 119:0.0665666 120:0.227211 121:-0.0198219 122:-0.126861 123:-0.882205 124:0.0157841 125:-0.0995614 126:-0.820242 127:0.208084 128:-0.0552599 129:-0.715803 130:-0.947598 131:-0.867704 132:-0.955992 133:-0.929751 134:-0.281152 135:0.295675 136:-0.128255 137:-0.0106306 138:0.0907183 139:0.244813 140:-0.0209124 141:-0.109147 142:-0.892446 143:0.0207447 144:-0.105818 145:-0.805639 146:0.197643 147:-0.0606319 148:-0.702939 149:-0.947598 150:-0.945525 151:-0.973463 152:-0.919952 153:-0.26658 154:0.323451 155:-0.195253 156:0.05956 157:0.158553 158:0.25898 159:-0.0233434 160:-0.114876 161:-0.475533 162:0.00964591 163:-0.107193 164:-0.833837 165:0.159537 166:-0.0788563 167:-0.856156 168:-0.956332 169:-0.976654 170:-0.97381 171:-0.967332 172:-0.270464 173:0.345762 174:-0.281035 175:0.101843 176:0.251866 177:0.270438 178:-0.0232546 179:-0.11116 180:-0.548306 181:0.00580507 182:-0.11227 183:-0.842254 184:0.164779 185:-0.081517 186:-0.958711 187:-0.965217 188:-0.976562 189:-0.984669 190:-0.970967 
0 4.095253691442034 7:0.00492312 8:-0.146838 9:-0.843907 10:0.0259381 11:-0.060911 12:-0.93854 13:0.242979 14:-0.00469112 15:-0.869587 16:-0.985019 17:-0.748148 18:-0.98527 19:-0.950301 20:-0.17614 21:-0.0452918 22:-0.0143212 23:-0.194818 24:0.0320742 25:-0.0654314 26:0.00713324 27:-0.150769 28:-0.853193 29:0.0127547 30:-0.0636611 31:-0.914027 32:0.246232 33:-0.00920183 34:-0.872105 35:-0.984496 36:-0.756458 37:-0.989539 38:-0.954216 39:-0.144177 40:0.140587 41:-0.0787942 42:-0.171227 43:0.0763989 44:0.109742 45:0.0089974 46:-0.156948 47:-0.888889 48:0.0283708 49:-0.0709409 50:-0.902464 51:0.261385 52:-0.0103356 53:-0.963243 54:-0.968872 55:-0.742647 56:-0.967486 57:-0.966523 58:-0.123684 59:0.170607 60:-0.121049 61:-0.147487 62:0.114476 63:0.130465 64:0.0127021 65:-0.155806 66:-0.838369 67:0.0262419 68:-0.064712 69:-0.896803 70:0.255257 71:-0.0183542 72:-0.881168 73:-0.975709 74:-0.743396 75:-0.979245 76:-0.966851 77:-0.194648 78:0.230919 79:-0.0939123 80:-0.0252973 81:0.101939 82:0.179316 83:0.00682374 84:-0.152962 85:-0.846941 86:0.0275508 87:-0.0725816 88:-0.89577 89:0.270195 90:-0.0209456 91:-0.958067 92:-0.975806 93:-0.737452 94:-0.976274 95:-0.955694 96:-0.219329 97:0.278621 98:-0.114156 99:0.132801 100:0.102542 101:0.21088 102:0.00212437 103:-0.12208 104:-0.866394 105:0.0234049 106:-0.073435 107:-0.881198 108:0.239323 109:-0.0351917 110:-0.881239 111:-0.967742 112:-0.836576 113:-0.982694 114:-0.970772 115:-0.234485 116:0.31444 117:-0.166021 118:0.260419 119:0.142223 120:0.232809 121:0.0182884 122:-0.100257 123:-0.879688 124:0.121084 125:-0.0397873 126:-0.848439 127:0.222788 128:-0.0446779 129:-0.628154 130:-0.956332 131:-0.929961 132:-0.990679 133:-0.979181 134:-0.262457 135:0.344225 136:-0.212359 137:0.350115 138:0.176343 139:0.251277 140:0.0155077 141:-0.086695 142:-0.880154 143:0.126338 144:-0.0451505 145:-0.847432 146:0.220132 147:-0.047777 148:-0.777601 149:-0.938865 150:-0.968872 151:-0.987745 152:-0.976862 153:-0.251945 154:0.370835 155:-0.251366 156:0.376429 157:0.220447 158:0.269333 159:0.0164669 160:-0.0890173 161:-0.345044 162:0.0936068 163:-0.0574154 164:-0.849446 165:0.216894 166:-0.0545946 167:-0.928334 168:-0.965066 169:-0.984436 170:-0.993981 171:-0.981137 172:-0.253678 173:0.392997 174:-0.308792 175:0.384924 176:0.290652 177:0.285382 178:0.012695 179:-0.0878344 180:-0.332497 181:0.0844701 182:-0.0646303 183:-0.841229 184:0.0854439 185:-0.0987014 186:-0.846425 187:-0.991304 188:-0.992188 189:-1 190:-1 
2.603716240875989 6.635331843558733 7:0.0486149 8:-0.104375 9:-1 10:0.138157 11:-0.00619775 12:-0.842254 13:0.285055 14:0.00831975 15:-0.900302 16:-0.902622 17:-0.866667 18:-0.937644 19:-0.966503 20:-0.176145 21:0.00893244 22:0.0227866 23:-0.0662941 24:-0.00466865 25:-0.0272116 26:0.0444377 27:-0.108492 28:-0.930618 29:0.133615 30:-0.00651764 31:-0.844143 32:0.285671 33:0.0048295 34:-0.904834 35:-0.875969 36:-0.874539 37:-0.951172 38:-0.972083 39:-0.143508 40:0.205488 41:-0.0442383 42:-0.0350831 43:0.0427376 44:0.154724 45:0.0476379 46:-0.11519 47:-0.806938 48:0.143022 49:-0.015544 50:-0.847662 51:0.293014 52:0.00125068 53:-0.904834 54:-0.883268 55:-0.875 56:-0.939383 57:-0.967117 58:-0.114284 59:0.232361 60:-0.0970765 61:0.0383258 62:0.0904522 63:0.165355 64:0.04623 65:-0.115346 66:-0.930514 67:0.147729 68:-0.00677997 69:-0.848477 70:0.293388 71:-0.0034696 72:-0.910373 73:-0.862348 74:-0.871698 75:-0.968767 76:-0.96552 77:-0.173389 78:0.28724 79:-0.0696748 80:0.216932 81:0.0776733 82:0.206664 83:0.0386202 84:-0.110611 85:-0.946762 86:0.169481 87:-0.00742647 88:-0.847432 89:0.299678 90:-0.00836662 91:-0.906418 92:-0.846774 93:-0.92278 94:-0.972463 95:-0.971444 96:-0.190045 97:0.329806 98:-0.0925588 99:0.354094 100:0.080029 101:0.238068 102:0.0264622 103:-0.077559 104:-0.955976 105:0.127566 106:-0.0199101 107:-0.844953 108:0.294651 109:-0.0154586 110:-0.899667 111:-0.862903 112:-0.906615 113:-0.951615 114:-0.966267 115:-0.184987 116:0.359412 117:-0.142806 118:0.377511 119:0.118039 120:0.265057 121:0.0214145 122:-0.085719 123:-0.956708 124:0.129398 125:-0.0222329 126:-0.842397 127:0.29003 128:-0.0185266 129:-0.431607 130:-0.851528 131:-0.937743 132:-0.944986 133:-0.967621 134:-0.19456 135:0.38452 136:-0.187278 137:0.388726 138:0.150292 139:0.287528 140:0.023188 141:-0.0696796 142:-0.911908 143:0.133852 144:-0.0269725 145:-0.846928 146:0.249088 147:-0.0308097 148:-0.702939 149:-0.895197 150:-0.968872 151:-0.958276 152:-0.966254 153:-0.210591 154:0.400492 155:-0.210884 156:0.374074 157:0.179664 158:0.300267 159:0.0195124 160:-0.0739954 161:-0.548306 162:0.113632 163:-0.0357332 164:-0.8429 165:0.23392 166:-0.0387485 167:-0.866394 168:-0.90393 169:-0.984436 170:-0.964487 171:-0.976566 172:-0.234307 173:0.413159 174:-0.256439 175:0.355873 176:0.237827 177:0.310705 178:0.0157179 179:-0.0726762 180:-0.480552 181:0.0275673 182:-0.0759824 183:-0.876569 184:0.229279 185:-0.0421605 186:-0.863041 187:-0.991304 188:-0.921875 189:-1 190:-0.967416 
0 0.1457191296072909 7:0.125471 8:-0.0800174 9:-0.823766 10:0.220439 11:0.018764 12:-0.847887 13:0.273105 14:0.00672781 15:-0.850453 16:-0.910112 17:-0.948148 18:-0.941702 19:-0.978633 20:-0.173232 21:0.035651 22:0.400293 23:-0.381763 24:-0.388347 25:0.0328065 26:0.0932813 27:-0.0939011 28:-0.956762 29:0.207934 30:0.0180132 31:-0.849673 32:0.273548 33:0.00329502 34:-0.848439 35:-0.891473 36:-0.948339 37:-0.960699 38:-0.988077 39:-0.127794 40:0.221379 41:0.411955 42:-0.295196 43:-0.414363 44:0.203757 45:0.0910272 46:-0.0970254 47:-0.884364 48:0.213166 49:0.0100763 50:-0.849673 51:0.291343 52:0.00180736 53:-0.851964 54:-0.867704 55:-0.933824 56:-0.963696 57:-0.995708 58:-0.108857 59:0.244043 60:0.441629 61:-0.301089 62:-0.443912 63:0.222657 64:0.0549651 65:-0.110943 66:-0.931521 67:0.178519 68:0.0102375 69:-0.849484 70:0.30447 71:-0.00135446 72:-0.859517 73:-0.838057 74:-0.916981 75:-0.957455 76:-0.974513 77:-0.233765 78:0.296724 79:0.441448 80:-0.245122 81:-0.439887 82:0.269632 83:0.0532861 84:-0.104985 85:1 86:0.157748 87:-0.00164993 88:-0.846425 89:0.310384 90:-0.00609603 91:-0.86653 92:-0.879032 93:-0.88417 94:-0.962317 95:-0.962671 96:-0.275862 97:0.336563 98:0.387794 99:-0.174184 100:-0.430102 101:0.301267 102:0.0464054 103:-0.0701879 104:-0.917072 105:0.148808 106:-0.00396397 107:-0.84747 108:0.303494 109:-0.0125763 110:-0.881239 111:-0.887097 112:-0.883268 113:-0.957058 114:-0.965892 115:-0.268808 116:0.36029 117:0.323243 118:-0.135249 119:-0.383237 120:0.322687 121:0.0429458 122:-0.0795398 123:-0.92147 124:0.118897 125:-0.0165635 126:-0.843907 127:0.299408 128:-0.0158186 129:-0.436919 130:-0.912664 131:-0.859922 132:-0.959493 133:-0.954148 134:-0.262682 135:0.379671 136:0.263421 137:-0.113214 138:-0.339939 139:0.33956 140:0.0502969 141:-0.0560004 142:-0.885787 143:0.157194 144:-0.0114378 145:-0.847432 146:0.295159 147:-0.0180888 148:-0.66799 149:-0.877729 150:-0.898833 151:-0.960522 152:-0.974308 153:-0.245109 154:0.393729 155:0.207721 156:-0.113204 157:-0.291415 158:0.349761 159:0.046828 160:-0.0604048 161:-0.503137 162:0.139772 163:-0.0168005 164:-0.845921 165:0.292162 166:-0.0249864 167:-0.896084 168:-0.886463 169:-0.883268 170:-0.95946 171:-0.953014 172:-0.267313 173:0.39916 174:0.184123 175:-0.182889 176:-0.271733 177:0.356914 178:0.0448349 179:-0.0603006 180:-0.590966 181:0.115988 182:-0.0273715 183:-0.845839 184:0.276546 185:-0.030636 186:-0.883182 187:-0.921739 188:-0.875 189:-0.969463 190:-0.962077 
0 0.5975023243394638 7:0.128428 8:-0.0866319 9:-0.901309 10:0.125408 11:-0.0149669 12:-0.942125 13:0.261297 14:0.00524789 15:-0.849446 16:-0.985019 17:-0.874074 18:-0.966103 19:-0.92889 20:-0.184157 21:0.0849565 22:0.0539749 23:-0.645923 24:-0.032438 25:0.109101 26:0.126509 27:-0.0822735 28:-0.824032 29:0.209653 30:0.0173121 31:-0.850679 32:0.275132 33:0.0027496 34:-0.850453 35:-0.906977 36:-0.948339 37:-0.941702 38:-0.978667 39:-0.147222 40:0.264591 41:0.156757 42:-0.500065 43:-0.15829 44:0.271963 45:0.0948194 46:-0.099261 47:-0.956762 48:0.222287 49:0.0117021 50:-0.849673 51:0.279776 52:3.68008e-05 53:-0.848439 54:-0.891051 55:-0.948529 56:-0.960181 57:-0.988077 58:-0.111868 59:0.276267 60:0.2872 61:-0.452801 62:-0.288608 63:0.274546 64:0.0895904 65:-0.0970855 66:-0.884189 67:0.210141 68:0.0178231 69:-0.849484 70:0.291934 71:-0.00298412 72:-0.851964 73:-0.862348 74:-0.932075 75:-0.963096 76:-0.995708 77:-0.184085 78:0.320047 79:0.484892 80:-0.365961 81:-0.459748 82:0.307553 83:0.0480845 84:-0.106686 85:-0.930381 86:0.178472 87:0.00453315 88:-0.849446 89:0.297865 90:-0.00776399 91:-0.852723 92:-0.846774 93:-0.92278 94:-0.957383 95:-0.975067 96:-0.24139 97:0.354403 98:0.425723 99:-0.284789 100:-0.448802 101:0.332421 102:0.0734336 103:-0.0559432 104:-0.86281 105:0.148275 106:-0.00370048 107:-0.846464 108:0.291329 109:-0.0143456 110:-0.864346 111:-0.887097 112:-0.891051 113:-0.967748 114:-0.964167 115:-0.258368 116:0.37725 117:0.36267 118:-0.236186 119:-0.406121 120:0.352471 121:0.0494051 122:-0.0731509 123:-0.943116 124:0.144044 125:-0.00809583 126:-0.847432 127:0.287415 128:-0.0176443 129:-0.335989 130:-0.886463 131:-0.891051 132:-0.964982 133:-0.964795 134:-0.270844 135:0.394825 136:0.301845 137:-0.206334 138:-0.364694 139:0.367113 140:0.0480275 141:-0.054426 142:-0.877593 143:0.149656 144:-0.0132059 145:-0.848439 146:0.282744 147:-0.0197747 148:-0.617156 149:-0.877729 150:-0.898833 151:-0.969024 152:-0.970784 153:-0.248153 154:0.407019 155:0.240556 156:-0.194877 157:-0.311938 158:0.374479 159:0.0461182 160:-0.059907 161:-0.440402 162:0.152238 163:-0.012052 164:-0.847432 165:0.279326 166:-0.026522 167:-0.869977 168:-0.877729 169:-0.898833 170:-0.960374 171:-0.975127 172:-0.249213 173:0.41606 174:0.171081 175:-0.217827 176:-0.247588 177:0.380375 178:0.0423213 179:-0.058519 180:-0.503137 181:0.135151 182:-0.0210444 183:-0.843278 184:0.275581 185:-0.0303022 186:-0.875126 187:-0.886957 188:-0.882812 189:-0.958307 190:-0.956497 
0.9396335745439656 0 7:0.0410711 8:-0.104299 9:-0.919436 10:0.212085 11:0.0168719 12:-0.842254 13:0.250833 14:0.00344413 15:-0.849446 16:-0.902622 17:-0.955556 18:-0.925147 19:-0.985244 20:-0.184997 21:0.0807854 22:0.0492648 23:-0.646685 24:-0.0326805 25:0.109391 26:0.12948 27:-0.088908 28:-0.901458 29:0.112851 30:-0.0165484 31:-0.943188 32:0.263301 33:0.00126375 34:-0.849446 35:-0.984496 36:-0.874539 37:-0.966103 38:-0.929005 39:-0.158617 40:0.291208 41:-0.0164933 42:-0.636863 43:0.0141284 44:0.317161 45:0.128161 46:-0.0875765 47:-0.824032 48:0.224003 49:0.0109982 50:-0.850679 51:0.281377 52:-0.000510403 53:-0.850453 54:-0.906615 55:-0.948529 56:-0.940934 57:-0.978667 58:-0.131568 59:0.307919 60:0.0980668 61:-0.608888 62:-0.102933 63:0.326699 64:0.0933801 65:-0.0993329 66:-0.956697 67:0.219247 68:0.0194697 69:-0.849484 70:0.280331 71:-0.00476317 72:-0.848439 73:-0.88664 74:-0.94717 75:-0.959524 76:-0.988077 77:-0.187086 78:0.343898 79:0.337137 80:-0.506451 81:-0.316317 82:0.348136 83:0.0825519 84:-0.0926104 85:-0.882263 86:0.210272 87:0.0121533 88:-0.849446 89:0.297261 90:-0.00756312 91:-0.849655 92:-0.862903 93:-0.930502 94:-0.963034 95:-0.995702 96:-0.201763 97:0.372804 98:0.46421 99:-0.395143 100:-0.467102 101:0.363618 102:0.0412344 103:-0.0719653 104:-0.930381 105:0.169011 106:0.00250427 107:-0.849484 108:0.290823 109:-0.014176 110:-0.852572 111:-0.846774 112:-0.922179 113:-0.957383 114:-0.975097 115:-0.230263 116:0.391775 117:0.397023 118:-0.331117 119:-0.423301 120:0.379157 121:0.068397 122:-0.0642244 123:-0.865089 124:0.143512 125:-0.00783058 126:-0.846425 127:0.28606 128:-0.0171872 129:-0.296149 130:-0.877729 131:-0.891051 132:-0.967748 133:-0.964167 134:-0.262198 135:0.408893 136:0.337711 137:-0.295795 138:-0.385869 139:0.393239 140:0.0453094 141:-0.0580374 142:-0.942125 143:0.141715 144:-0.0146722 145:-0.847432 146:0.282148 147:-0.0195713 148:-0.602859 149:-0.886463 150:-0.891051 151:-0.964982 152:-0.964753 153:-0.255569 154:0.419776 155:0.27598 156:-0.279938 157:-0.335457 158:0.399099 159:0.0438572 160:-0.0583217 161:-0.400251 162:0.144731 163:-0.0138275 164:-0.848439 165:0.278888 166:-0.0263718 167:-0.876632 168:-0.877729 169:-0.898833 170:-0.968908 171:-0.970714 172:-0.252227 173:0.427359 174:0.201884 175:-0.296341 176:-0.267627 177:0.40274 178:0.0416143 179:-0.0580179 180:-0.440402 181:0.147569 182:-0.0162656 183:-0.844814 184:0.275457 185:-0.0302591 186:-0.872105 187:-0.869565 188:-0.898438 189:-0.959247 190:-0.975121 
0.6445684170285271 0 7:0.0334604 8:-0.104071 9:-0.923968 10:0.199674 11:0.0168414 12:-0.846863 13:0.322437 14:0.0135843 15:-0.917925 16:-0.872659 17:-0.925926 18:-0.967998 19:-0.98969 20:-0.212892 21:0.0812576 22:-0.23735 23:-0.0556261 24:0.261141 25:0.0416712 26:0.0352184 27:-0.107188 28:-0.913524 29:0.190023 30:0.0147338 31:-0.846154 32:0.326543 33:0.0090169 34:-0.883182 35:-0.875969 36:-0.926199 37:-0.96939 38:-0.987352 39:-0.197806 40:0.294189 41:-0.365378 42:-0.0210761 43:0.363078 44:0.239174 45:0.0415561 46:-0.110981 47:-0.930618 48:0.2128 49:0.0102298 50:-0.847662 51:0.332706 52:0.00598359 53:-0.872105 54:-0.883268 55:-0.933824 56:-0.941361 57:-0.992869 58:-0.187399 59:0.335917 60:-0.403447 61:-0.052145 62:0.396758 63:0.27745 64:0.0416975 65:-0.11219 66:-0.919436 67:0.212485 68:0.0168253 69:-0.844953 70:0.333806 71:0.00109377 72:-0.863041 73:-0.902834 74:-0.939623 75:-0.951096 76:-0.989102 77:-0.24701 78:0.393299 79:-0.302142 80:-0.135485 81:0.316278 82:0.349894 83:0.115888 84:-0.0810108 85:-0.83568 86:0.221982 87:0.0127459 88:-0.847432 89:0.339002 90:-0.00335934 91:-0.8517 92:-0.919355 93:-0.938224 94:-0.951984 95:-0.984418 96:-0.251982 97:0.436697 98:-0.24246 99:-0.1843 100:0.249346 101:0.397741 102:0.112221 103:-0.0471756 104:-0.820834 105:0.211718 106:0.0110923 107:-0.850491 108:0.341892 109:-0.00686567 110:-0.925774 111:-0.927419 112:-0.929961 113:-0.939857 114:-0.978473 115:-0.232954 116:0.452712 117:-0.115117 118:-0.170348 119:0.12014 120:0.415517 121:0.107765 122:-0.0558703 123:-0.823811 124:0.205013 125:0.00778489 126:-0.849446 127:0.32343 128:-0.0116943 129:-0.211155 130:-0.895197 131:-0.937743 132:-0.945858 133:-0.990302 134:-0.231027 135:0.461355 136:0.0434284 137:-0.138576 138:-0.033429 139:0.423058 140:0.0707615 141:-0.0477126 142:-0.868374 143:0.19318 144:-0.000406552 145:-0.849446 146:0.279701 147:-0.0187364 148:-0.532963 149:-0.860262 150:-0.929961 151:-0.966001 152:-0.995702 153:-0.219383 154:0.467896 155:0.154213 156:-0.13032 157:-0.12743 158:0.426656 159:0.0574722 160:-0.0566197 161:-0.626098 162:0.156727 163:-0.00873531 164:-0.849446 165:0.288243 166:-0.0236741 167:-0.857179 168:-0.842795 169:-0.914397 170:-0.953653 171:-0.974421 172:-0.248518 173:0.472666 174:0.0971928 175:-0.161871 176:-0.0727492 177:0.43106 178:0.0554249 179:-0.0508395 180:-0.327478 181:0.152602 182:-0.0131987 183:-0.845839 184:0.28484 185:-0.0275693 186:-0.86858 187:-0.852174 188:-0.90625 189:-0.950077 190:-0.975581 
0 3.590953256708874 7:0.135949 8:-0.106441 9:-0.956697 10:0.183082 11:0.00835466 12:-0.848912 13:0.264818 14:0.004008 15:-0.873112 16:-0.925094 17:-0.918519 18:-0.838985 19:-0.945534 20:-0.222388 21:0.0760634 22:-0.207816 23:-0.192786 24:0.227915 25:0.053079 26:0.157255 27:-0.114709 28:-0.886878 29:0.172741 30:0.00634491 31:-0.875817 32:0.266922 33:-1.38619e-05 34:-0.870594 35:-0.922481 36:-0.918819 37:-0.910761 38:-0.92386 39:-0.220888 40:0.288204 41:-0.270876 42:-0.156696 43:0.267616 44:0.251454 45:0.154979 46:-0.11792 47:-0.944193 48:0.206251 49:-0.00322605 50:-0.886878 51:0.274294 52:-0.00371018 53:-0.863041 54:-0.914397 55:-0.926471 56:-0.856711 57:-0.940587 58:-0.227199 59:0.319602 60:-0.293694 61:-0.180693 62:0.28831 63:0.279761 64:0.167028 65:-0.114491 66:-0.919436 67:0.235025 68:0.0129003 69:-0.802165 70:0.275932 71:-0.00891341 72:-0.864048 73:-0.919028 74:-0.954717 75:-0.924758 76:-0.988427 77:-0.296154 78:0.363893 79:-0.270043 80:-0.123273 81:0.281079 82:0.321563 83:0.16393 84:-0.107032 85:-0.868441 86:0.243852 87:0.00937424 88:-0.810171 89:0.28233 90:-0.0139111 91:-0.863973 92:-0.927419 93:-0.969112 94:-0.903763 95:-0.977444 96:-0.305373 97:0.398427 98:-0.278514 99:-0.054132 100:0.276507 101:0.349769 102:0.159022 103:-0.0738207 104:-0.898643 105:0.23746 106:0.00612711 107:-0.802165 108:0.276442 109:-0.0207149 110:-0.86281 111:-0.959677 112:-0.968872 113:-0.948283 114:-0.99032 115:-0.31449 116:0.437414 117:-0.226266 118:-0.0100793 119:0.219782 120:0.385226 121:0.156092 122:-0.0835779 123:-0.930531 124:0.230811 125:0.00271004 126:-0.796576 127:0.271516 128:-0.0236741 129:-0.23506 130:-0.956332 131:-0.961089 132:-0.960782 133:-0.989492 134:-0.337628 135:0.470893 136:-0.174217 137:0.0144159 138:0.166281 139:0.414993 140:0.155378 141:-0.0649134 142:-0.866325 143:0.225869 144:-0.00299588 145:-0.807654 146:0.264419 147:-0.0249625 148:-0.518666 149:-0.930131 150:-0.961089 151:-0.966332 152:-0.988464 153:-0.33123 154:0.495819 155:-0.159051 156:0.0377922 157:0.161724 158:0.433154 159:0.136679 160:-0.0725739 161:-0.671267 162:0.197634 163:-0.0108763 164:-0.838369 165:0.259552 166:-0.0311803 167:-0.838751 168:-0.921397 169:-0.937743 170:-0.879682 171:-0.951 172:-0.333582 173:0.513292 174:-0.205277 175:0.0663549 176:0.219023 177:0.443861 178:0.150523 179:-0.0636798 180:-0.272271 181:0.163703 182:-0.0242246 183:-0.782843 184:0.254586 185:-0.0345075 186:-0.839376 187:-0.93913 188:-0.9375 189:-0.876119 190:-0.949569 
0.7158802613896881 2.56102609041141 7:0.338076 8:-0.0937331 9:-0.956697 10:0.332563 11:0.0161282 12:-0.846863 13:0.342707 14:0.00729661 15:-0.925982 16:-0.940075 17:-0.977778 18:-0.986592 19:-0.968952 20:-0.231123 21:0.037894 22:0.0283878 23:-0.531369 24:-0.0104893 25:0.0535876 26:0.346087 27:-0.0983854 28:-0.956762 29:0.26095 30:0.0195549 31:-0.927099 32:0.346788 33:0.00272364 34:-0.891239 35:-0.96124 36:-0.9631 37:-0.847467 38:-0.75567 39:-0.255559 40:0.240227 41:-0.036078 42:-0.520618 43:0.0345719 44:0.251583 45:0.343278 46:-0.0956061 47:-0.953243 48:0.278194 49:0.0121187 50:-0.912519 51:0.364012 52:0.00249344 53:-0.940584 54:-0.968872 55:-0.941176 56:-0.861992 57:-0.734248 58:-0.342093 59:0.269125 60:-0.119115 61:-0.419496 62:0.111324 63:0.26362 64:0.347762 65:-0.0979958 66:-0.937563 67:0.277391 68:0.0190057 69:-0.930531 70:0.36412 71:-0.00208274 72:-0.926989 73:-0.967611 74:-0.954717 75:-0.865546 76:-0.851993 77:-0.461661 78:0.323536 79:-0.127078 80:-0.264588 81:0.130806 82:0.299695 83:0.34535 84:-0.0895024 85:-0.891477 86:0.348692 87:-0.0135359 88:-0.869587 89:0.370787 90:-0.00693043 91:-0.920225 92:-0.975806 93:-0.992278 94:-0.992896 95:-1 96:-0.480662 97:0.367599 98:-0.147398 99:-0.127785 100:0.131191 101:0.32871 102:0.337335 103:-0.0542442 104:-0.913489 105:0.34066 106:-0.03597 107:-0.914926 108:0.366387 109:-0.0142597 110:-0.925774 111:-1 112:-0.992218 113:-1 114:-1 115:-0.449925 116:0.40468 117:-0.138463 118:-0.0832082 119:0.114336 120:0.361746 121:0.269904 122:-0.0139976 123:-0.942109 124:0.273596 125:0.00935657 126:-0.942095 127:0.363296 128:-0.0178581 129:-0.556441 130:-1 131:-0.992218 132:-1 133:-1 134:-0.445889 135:0.435578 136:-0.130832 137:-0.0604082 138:0.100287 139:0.388835 140:0.265273 141:0.00220634 142:-0.95493 143:0.270799 144:0.00267191 145:-0.95569 146:0.357128 147:-0.0196107 148:-0.706116 149:-1 150:-0.992218 151:-1 152:-1 153:-0.422735 154:0.454911 155:-0.111143 156:-0.0363563 157:0.088085 158:0.40191 159:0.265287 160:-0.00320805 161:-0.726474 162:0.342413 163:0.00566659 164:-0.925982 165:0.355818 166:-0.0270891 167:-0.872025 168:-0.991266 169:-0.984436 170:-1 171:-0.964031 172:-0.424007 173:0.469103 174:-0.106826 175:-0.0329023 176:0.0978124 177:0.411207 178:0.261245 179:-0.00145622 180:-0.771644 181:0.335511 182:0.00208056 183:-0.870935 184:0.358793 185:-0.0266473 186:-0.879658 187:-0.982609 188:-0.976562 189:-0.953794 190:-0.967603 
1.970569650558394 11.02139055450171 7:0.269049 8:-0.0189957 9:-0.887714 10:0.270819 11:0.0915222 12:-0.955954 13:0.491496 14:0.098905 15:-0.901309 16:-0.940075 17:-0.948148 18:-0.86178 19:-0.973368 20:-0.217423 21:0.0299453 22:-0.130673 23:-0.197612 24:0.149336 25:0.00802906 26:0.271858 27:-0.0214289 28:-0.896933 29:0.287715 30:0.0941273 31:-0.894922 32:0.35449 33:0.0772616 34:-0.849446 35:-0.953488 36:-0.9631 37:-0.647284 38:-0.955029 39:-0.216894 40:0.230228 41:-0.192223 42:-0.169394 43:0.188897 44:0.196217 45:0.275827 46:-0.0270086 47:-0.938663 48:0.306611 49:0.0869439 50:-0.920563 51:0.379083 52:0.0765234 53:-0.866566 54:-0.953307 55:-0.955882 56:-0.678841 57:-0.955308 58:-0.254378 59:0.265489 60:-0.180371 61:-0.180494 62:0.175005 63:0.226948 64:0.279716 65:-0.0231843 66:-0.86858 67:0.30069 68:0.0963644 69:-0.927007 70:0.396978 71:0.074709 72:-0.876636 73:-0.967611 74:-0.94717 75:-0.646825 76:-0.959383 77:-0.362147 78:0.328667 79:-0.0849838 80:-0.0935219 81:0.098714 82:0.282428 83:0.274262 84:-0.0183239 85:-0.874584 86:0.287276 87:0.0891856 88:-1 89:0.417306 90:0.0736339 91:-0.917157 92:-0.967742 93:-0.930502 94:-0.875418 95:-0.953857 96:-0.39932 97:0.375676 98:-0.0370415 99:-0.000125402 100:0.0357662 101:0.319612 102:0.269547 103:0.0248013 104:-0.87356 105:0.26762 106:0.0847555 107:-0.922477 108:0.414431 109:0.0665443 110:-0.874584 111:-0.951613 112:-0.922179 113:-0.886329 114:-0.98153 115:-0.372348 116:0.40504 117:-0.0644014 118:0.105726 119:0.0510216 120:0.339499 121:0.259118 122:0.0291893 123:-0.900327 124:0.260318 125:0.0817945 126:-0.881168 127:0.410409 128:0.0636038 129:-0.296149 130:-0.965066 131:-0.922179 132:-0.927237 133:-0.980865 134:-0.366194 135:0.429868 136:-0.090325 137:0.177565 138:0.065469 139:0.356513 140:0.249274 141:0.0699243 142:-0.854033 143:0.25699 144:0.0756164 145:-0.884189 146:0.447571 147:0.0672328 148:-0.75695 149:-0.991266 150:-0.914397 151:-1 152:-0.991057 153:-0.34976 154:0.448215 155:-0.134404 156:0.189593 157:0.111046 158:0.369747 159:0.24913 160:0.0710028 161:-0.367629 162:0.353999 163:0.0904091 164:-0.849446 165:0.447665 166:0.0600445 167:-0.873048 168:-0.938865 169:-0.968872 170:-0.987401 171:-0.99393 172:-0.354668 173:0.461236 174:-0.215224 175:0.129739 176:0.198467 177:0.384405 178:0.247855 179:0.0726439 180:-0.322459 181:0.45114 182:0.0987012 183:-0.86735 184:0.458749 185:0.06058 186:-0.892246 187:-0.913043 188:-0.992188 189:-0.976723 190:-1 
1.46647900893736 2.635990781077694 7:0.0826136 8:-0.0351989 9:-0.8429 10:0.171287 11:0.0821111 12:-0.835595 13:0.324213 14:0.0757337 15:-0.905841 16:-0.88764 17:-0.903704 18:-0.874028 19:-0.925858 20:-0.266068 21:0.0281352 22:-0.200433 23:-0.371095 24:0.214576 25:0.0251045 26:0.0735752 27:-0.0543808 28:-1 29:0.133734 30:0.0714791 31:-0.780794 32:0.327572 33:0.071757 34:-0.901309 35:-0.914729 36:-0.874539 37:-0.822993 38:-0.94242 39:-0.280897 40:0.238396 41:-0.30041 42:-0.337086 43:0.295168 44:0.22599 45:0.0750456 46:-0.0595472 47:-0.894419 48:0.185182 49:0.075895 50:-0.843137 51:0.335926 52:0.0683888 53:-0.919436 54:-0.875486 55:-0.911765 56:-0.858106 57:-0.909167 58:-0.279762 59:0.278519 60:-0.367108 61:-0.357658 62:0.359615 63:0.263257 64:0.0752159 65:-0.0602584 66:-0.883182 67:0.185252 68:0.0834824 69:-0.84747 70:0.317211 71:0.0627336 72:-0.897784 73:-0.878543 74:-0.916981 75:-0.838243 76:-0.890174 77:-0.328901 78:0.34142 79:-0.388029 80:-0.283596 81:0.392457 82:0.3166 83:0.0696334 84:-0.0559579 85:-0.888405 86:0.187607 87:0.0773379 88:-0.862034 89:0.322394 90:0.0583401 91:-0.926362 92:-0.91129 93:-0.915058 94:-0.834082 95:-0.872199 96:-0.32586 97:0.399283 98:-0.340074 99:-0.0833089 100:0.339361 101:0.35206 102:0.0622616 103:-0.0187316 104:-0.900691 105:0.179239 106:0.0752074 107:-0.881198 108:0.316333 109:0.0518419 110:-0.964679 111:-0.943548 112:-0.929961 113:-0.85329 114:-0.919321 115:-0.302109 116:0.439119 117:-0.325302 118:0.0421045 119:0.319156 120:0.379501 121:0.0597473 122:-0.0283398 123:-0.938585 124:0.183082 125:0.0736816 126:-0.880161 127:0.310993 128:0.0491782 129:-0.561753 130:-0.938865 131:-0.945525 132:-0.837854 133:-0.963478 134:-0.302591 135:0.47109 136:-0.295615 137:0.136999 138:0.285459 139:0.40105 140:0.0609893 141:-0.010426 142:-0.90781 143:0.182343 144:0.0668157 145:-0.855992 146:0.321155 147:0.0497784 148:-0.82367 149:-0.965066 150:-0.929961 151:-0.831438 152:-0.96499 153:-0.286263 154:0.495735 155:-0.26989 156:0.208948 157:0.27277 158:0.41441 159:0.0718581 160:0.0168628 161:-0.186951 162:0.174284 163:0.0675187 164:-0.853978 165:0.317143 166:0.0433479 167:-0.914512 168:-0.956332 169:-0.929961 170:-0.875819 171:-0.978017 172:-0.29086 173:0.515189 174:-0.273735 175:0.253205 176:0.296997 177:0.425615 178:0.0728409 179:0.0164555 180:-0.171895 181:0.131657 182:0.0574542 183:-0.892446 184:0.311021 185:0.0403488 186:-0.881168 187:-0.956522 188:-0.914062 189:-0.765137 190:-0.965871 
7.788936784952178 15.96107871365028 7:0.182312 8:0.00841783 9:-0.8429 10:0.263112 11:0.0674809 12:-0.844814 13:0.251297 14:0.0667833 15:-0.937563 16:-0.970037 17:-0.962963 18:-0.901653 19:-0.878715 20:-0.196612 21:0.0311258 22:0.1322 23:-0.149606 24:-0.107864 25:0.00337875 26:0.151208 27:-0.000399765 28:-0.926094 29:0.242263 30:0.0747353 31:-0.846154 32:0.268267 33:0.0643412 34:-1 35:-0.930233 36:-0.9631 37:-0.867598 38:-0.896304 39:-0.181882 40:0.20976 41:0.0269761 42:-0.226862 43:-0.0286973 44:0.183679 45:0.133432 46:-0.0198787 47:-0.959779 48:0.150956 49:0.0689769 50:-0.852187 51:0.274434 52:0.0612825 53:-0.887714 54:-0.961089 55:-0.911765 56:-0.893286 57:-0.870131 58:-0.179167 59:0.227636 60:0.00857811 61:-0.284685 62:-0.0139075 63:0.204601 64:0.131413 65:-0.0193174 66:-0.902316 67:0.14816 68:0.0774299 69:-0.84747 70:0.288856 71:0.0586172 72:-0.926989 73:-0.94332 74:-0.901887 75:-0.931824 76:-0.863058 77:-0.254455 78:0.300067 79:-0.0480722 80:-0.240072 81:0.0535651 82:0.271545 83:0.128196 84:-0.0152272 85:-0.922703 86:0.154746 87:0.0742498 88:-0.854985 89:0.294757 90:0.0540042 91:-0.92943 92:-0.951613 93:-0.907336 94:-0.934747 95:-0.907737 96:-0.273515 97:0.359339 98:-0.173442 99:-0.178698 100:0.151634 101:0.321818 102:0.146523 103:0.0369265 104:-0.950346 105:0.146029 106:0.0721963 107:-0.888749 108:0.271622 109:0.0464615 110:-0.877655 111:-0.975806 112:-0.914397 113:-0.979408 114:-0.884241 115:-0.271168 116:0.398815 117:-0.267416 118:-0.148545 119:0.228822 120:0.358395 121:0.178802 122:0.0443872 123:-0.863076 124:0.265048 125:0.0584386 126:-0.884189 127:0.2665 128:0.0437736 129:-0.537849 130:-0.973799 131:-0.961089 132:-0.933078 133:-0.883098 134:-0.314152 135:0.429035 136:-0.23871 137:-0.126463 138:0.197148 139:0.38611 140:0.180739 141:0.064803 142:-0.880154 143:0.251301 144:0.0663491 145:-0.903323 146:0.253571 147:0.039015 148:-0.621922 149:-0.982533 150:-0.984436 151:-0.97446 152:-0.986054 153:-0.323743 154:0.452391 155:-0.224976 156:-0.123141 157:0.195666 158:0.404777 159:0.172963 160:0.0577537 161:-0.335006 162:0.19374 163:0.071346 164:-0.929507 165:0.256976 166:0.0359811 167:-0.918096 168:-0.973799 169:-0.976654 170:-0.991267 171:-0.927945 172:-0.325811 173:0.466373 174:-0.167439 175:-0.135461 176:0.159308 177:0.415121 178:0.137077 179:0.0564986 180:-0.518193 181:0.245048 182:0.061123 183:-0.859667 184:0.266046 185:0.0345381 186:-0.903827 187:-0.93913 188:-0.96875 189:-0.909652 190:-0.946812 
