svm_type c_svc
kernel_type rbf
gamma 8
nr_class 3
total_sv 1433
rho 0.151628 0.77424 0.540465
label 1 2 -1
nr_sv 223 300 910
SV
0 12.38461342467176 1:-0.156463 2:0.437632 3:0.268788 4:-0.129855 5:0.363607 6:0.239817 7:-0.152089 8:0.504111 9:0.141409 10:-0.280268 11:0.867966 12:0.439215 13:-0.373511 14:0.915477 15:0.426816 16:0.430697 17:0.399739 18:-0.403044 19:0.519829 20:0.280708 21:-0.430203 22:0.552871 23:0.219043 24:-0.395247 25:0.553296 26:0.498486 27:-0.318951 28:0.0852149 29:0.179683 30:-0.14817 31:0.113487 32:0.124181 33:-0.183574 34:0.118594 35:0.0851255 36:-0.169869 37:0.0651451 38:-0.218357 39:-0.0156256 40:-0.195907 41:-0.128958 42:0.146294 43:-0.248287 44:-0.18118 45:0.191939 46:-0.332704 47:-0.184675 48:0.245832 
0.1446209520656609 0 1:-0.156463 2:0.437632 3:0.291887 4:-0.128712 5:0.363796 6:0.263962 7:-0.145104 8:0.50503 9:0.16421 10:-0.280384 11:0.868007 12:0.460203 13:-0.375992 14:0.915362 15:0.451379 16:0.443554 17:0.401865 18:-0.360163 19:0.518609 20:0.281261 21:-0.37607 22:0.558065 23:0.220758 24:-0.347311 25:0.556963 26:0.500519 27:-0.268705 28:0.0490805 29:0.172813 30:-0.0747652 31:0.0444412 32:0.10859 33:-0.0786499 34:0.0660134 35:0.0719351 36:-0.0794326 37:0.016726 38:-0.232536 39:0.0624396 40:-0.202943 41:-0.132167 42:0.182617 43:-0.253574 44:-0.183653 45:0.225187 46:-0.32846 47:-0.18397 48:0.269021 
0 3.649342402276704 1:-0.156463 2:0.437632 3:0.287106 4:-0.12785 5:0.364274 6:0.257811 7:-0.149356 8:0.505057 9:0.162235 10:-0.278307 11:0.868557 12:0.453832 13:-0.372707 14:0.916099 15:0.443832 16:0.432899 17:0.403123 18:-0.361649 19:0.50187 20:0.28211 21:-0.371903 22:0.538304 23:0.221952 24:-0.341101 25:0.498908 26:0.495722 27:-0.23294 28:0.00451925 29:0.166737 30:-0.0421676 31:0.00582364 32:0.10341 33:-0.0523791 34:0.0585302 35:0.0751876 36:-0.0817646 37:0.0410232 38:-0.219585 39:0.0347337 40:-0.181267 41:-0.119794 42:0.158642 43:-0.226615 44:-0.168824 45:0.197119 46:-0.30993 47:-0.171098 48:0.247804 
0 6.091302173993768 1:-0.156463 2:0.437632 3:0.291165 4:-0.12485 5:0.365007 6:0.259114 7:-0.146016 8:0.505704 9:0.164176 10:-0.284793 11:0.868055 12:0.463904 13:-0.37231 14:0.916266 15:0.447407 16:0.429153 17:0.403253 18:-0.348562 19:0.501192 20:0.282846 21:-0.361973 22:0.501514 23:0.216769 24:-0.300131 25:0.441939 26:0.485812 27:-0.177689 28:-0.0302441 29:0.158547 30:-0.00317633 31:0.00679336 32:0.104504 33:-0.0458266 34:0.0559029 35:0.0754733 36:-0.0717738 37:0.0494928 38:-0.215588 39:0.0347165 40:-0.177608 41:-0.117216 42:0.16104 43:-0.223888 44:-0.166296 45:0.199966 46:-0.302499 47:-0.166632 48:0.246223 
0 14.57456614888242 1:-0.156463 2:0.437632 3:0.299922 4:-0.124422 5:0.364861 6:0.268274 7:-0.14495 8:0.505476 9:0.174366 10:-0.279448 11:0.868322 12:0.46654 13:-0.370554 14:0.916089 15:0.454322 16:0.430366 17:0.401732 18:-0.328921 19:0.499708 20:0.280673 21:-0.340526 22:0.520626 23:0.217586 24:-0.296757 25:0.463277 26:0.486933 27:-0.174713 28:-0.00743192 29:0.161774 30:-0.00887715 31:0.0111524 32:0.102479 33:-0.0337443 34:0.0704278 35:0.0757581 36:-0.0682315 37:0.058841 38:-0.217284 39:0.0419002 40:-0.171806 41:-0.11949 42:0.167917 43:-0.226035 44:-0.171486 45:0.212689 46:-0.301704 47:-0.170982 48:0.255702 
0 5.035373712425173 1:-0.156463 2:0.437632 3:0.317188 4:-0.125615 5:0.364312 6:0.288471 7:-0.14583 8:0.504849 9:0.197376 10:-0.276762 11:0.868243 12:0.47949 13:-0.368555 14:0.915816 15:0.469257 16:0.440177 17:0.4009 18:-0.297057 19:0.510632 20:0.279668 21:-0.310772 22:0.541087 23:0.217551 24:-0.275238 25:0.499192 26:0.489268 27:-0.163886 28:0.0140207 29:0.163126 30:0.00148531 31:0.031597 32:0.103181 33:-0.0206712 34:0.071281 35:0.0705007 36:-0.03646 37:0.0608928 38:-0.223141 39:0.0693141 40:-0.16924 41:-0.124503 42:0.188699 43:-0.222708 44:-0.176429 45:0.231578 46:-0.307251 47:-0.179169 48:0.28041 
0.1835269683840053 0 1:-0.156463 2:0.437632 3:0.336558 4:-0.125462 5:0.364155 6:0.309565 7:-0.145438 8:0.504592 9:0.221841 10:-0.279229 11:0.867834 12:0.499429 13:-0.369581 14:0.915467 15:0.488918 16:0.434263 17:0.398538 18:-0.245662 19:0.50919 20:0.277806 21:-0.265 22:0.5441 23:0.215887 24:-0.233881 25:0.494408 26:0.485416 27:-0.115419 28:0.0112719 29:0.159585 30:0.0377375 31:0.026166 32:0.0982724 33:0.0197253 34:0.0661348 35:0.0650335 36:0.00462971 37:0.0533721 38:-0.230071 39:0.108016 40:-0.172349 41:-0.129648 42:0.216886 43:-0.22521 44:-0.181478 45:0.257877 46:-0.305324 47:-0.182743 48:0.301236 
0 0.1634756084255732 1:-0.156463 2:0.437632 3:0.340232 4:-0.128218 5:0.363385 6:0.316488 7:-0.150163 8:0.503548 9:0.231173 10:-0.281956 11:0.867349 12:0.505442 13:-0.373814 14:0.914787 15:0.496236 16:0.425893 17:0.395408 18:-0.229215 19:0.482973 20:0.272018 21:-0.232851 22:0.47427 23:0.202605 24:-0.165263 25:0.424679 26:0.46999 27:-0.0507748 28:-0.030987 29:0.147046 30:0.0829416 31:-0.00548142 32:0.0874365 33:0.0551558 34:0.0469996 35:0.0566175 36:0.0286238 37:0.036193 38:-0.239232 39:0.128097 40:-0.189064 41:-0.138794 42:0.235357 43:-0.23953 44:-0.190341 45:0.274206 46:-0.32075 47:-0.192535 48:0.318543 
0.05401830973694597 0 1:-0.156463 2:0.437632 3:0.342504 4:-0.127928 5:0.363328 6:0.318677 7:-0.151548 8:0.503193 9:0.235442 10:-0.281174 11:0.867288 12:0.506722 13:-0.374299 14:0.914586 15:0.498866 16:0.429575 17:0.394988 18:-0.227233 19:0.503293 20:0.273628 21:-0.246017 22:0.512051 23:0.206871 24:-0.192723 25:0.461524 26:0.474711 27:-0.0752305 28:-0.00353138 29:0.151941 30:0.0616842 31:0.0147472 32:0.0908577 33:0.0409682 34:0.0527099 35:0.0564682 36:0.0278096 37:0.0393763 38:-0.240288 39:0.129348 40:-0.188429 41:-0.140406 42:0.237849 43:-0.238368 44:-0.19195 45:0.276098 46:-0.321187 47:-0.19472 48:0.321547 
0.5948807629260928 0 1:-0.156463 2:0.437632 3:0.342975 4:-0.126356 5:0.363643 6:0.317543 7:-0.149758 8:0.503475 9:0.234296 10:-0.281532 11:0.867305 12:0.507502 13:-0.374869 14:0.914608 15:0.499828 16:0.431953 17:0.39564 18:-0.228314 19:0.497274 20:0.273248 21:-0.239491 22:0.485145 23:0.203468 24:-0.168427 25:0.432313 26:0.47038 27:-0.0506099 28:-0.0199845 29:0.148714 30:0.0776139 31:-0.00276144 32:0.0871675 33:0.0577105 34:0.0501721 35:0.0562942 36:0.0309606 37:0.0366014 38:-0.240462 39:0.132386 40:-0.188433 41:-0.139854 42:0.238477 43:-0.236419 44:-0.19074 45:0.275091 46:-0.323584 47:-0.19482 48:0.324121 
0 11.31407311420145 1:-0.156463 2:0.437632 3:0.204123 4:-0.125106 5:0.364967 6:0.163877 7:-0.146717 8:0.505692 9:0.0532044 10:-0.276952 11:0.868823 12:0.377507 13:-0.366585 14:0.91677 15:0.35807 16:0.457956 17:0.407789 18:-0.581561 19:0.541256 20:0.288487 21:-0.598036 22:0.58176 23:0.229629 24:-0.566934 25:0.596234 26:0.514455 27:-0.502481 28:0.118201 29:0.195487 30:-0.291059 31:0.193495 32:0.152765 33:-0.374553 34:0.267476 35:0.132127 36:-0.424547 37:0.259075 38:-0.154467 39:-0.281391 40:-0.00830307 41:-0.0648731 42:-0.0920588 43:-0.126843 44:-0.133836 45:0.011505 46:-0.269903 47:-0.152552 48:0.117743 
0.89325048831993 1.380382661605627 1:-0.156463 2:0.437632 3:0.19109 4:-0.123462 5:0.366041 6:0.147851 7:-0.140544 8:0.507731 9:0.0304485 10:-0.272796 11:0.869954 12:0.361626 13:-0.358491 14:0.918472 15:0.338261 16:0.480035 17:0.417178 18:-0.632875 19:0.57716 20:0.30085 21:-0.660437 22:0.613487 23:0.244082 24:-0.6239 25:0.624312 26:0.533061 27:-0.555122 28:0.118601 29:0.208704 30:-0.314119 31:0.0500625 32:0.131864 33:-0.268325 34:0.0595252 35:0.0949816 36:-0.263571 37:0.00426785 38:-0.208224 39:-0.0972135 40:0.674239 41:0.176422 42:-0.664874 43:0.452063 44:0.0773474 45:-0.479022 46:0.20052 47:0.0310777 48:-0.295304 
0 9.072839705312143 1:-0.156463 2:0.437632 3:0.200788 4:-0.125469 5:0.36506 6:0.1606 7:-0.145491 8:0.506083 9:0.0477265 10:-0.276436 11:0.869022 12:0.373983 13:-0.366382 14:0.917006 15:0.354661 16:0.465571 17:0.410038 18:-0.59651 19:0.539638 20:0.289761 21:-0.604229 22:0.583111 23:0.231756 24:-0.575669 25:0.600818 26:0.517979 27:-0.513856 28:0.131988 29:0.201195 30:-0.309527 31:0.194676 32:0.156555 33:-0.381733 34:0.270861 35:0.137071 36:-0.433852 37:0.261351 38:-0.149071 39:-0.288849 40:-0.0600457 41:-0.0752493 42:-0.0543618 43:-0.188329 44:-0.148085 45:0.0576956 46:-0.314602 47:-0.163361 48:0.151688 
0.4428769129598906 0.6643363198364398 1:-0.156463 2:0.437632 3:0.199131 4:-0.128399 5:0.364961 6:0.161858 7:-0.142454 8:0.507335 9:0.0426311 10:-0.274055 11:0.869761 12:0.370135 13:-0.359898 14:0.918249 15:0.347294 16:0.472991 17:0.41549 18:-0.607297 19:0.574326 20:0.299742 21:-0.639413 22:0.610793 23:0.242748 24:-0.603327 25:0.617379 26:0.53052 27:-0.531016 28:0.131042 29:0.210593 30:-0.311544 31:0.107627 32:0.145572 33:-0.305813 34:0.0734544 35:0.0970911 36:-0.260848 37:0.015062 38:-0.206939 39:-0.0924055 40:0.368452 41:0.0758662 42:-0.405328 43:0.491993 44:0.088878 45:-0.501664 46:0.224704 47:0.0379249 48:-0.306441 
0 0.08426299740028162 1:-0.156463 2:0.437632 3:0.221425 4:-0.125499 5:0.364926 6:0.183274 7:-0.14556 8:0.505861 9:0.0742672 10:-0.276503 11:0.868882 12:0.392698 13:-0.364742 14:0.916935 15:0.373178 16:0.453081 17:0.407409 18:-0.536033 19:0.539285 20:0.288649 21:-0.556534 22:0.582694 23:0.23034 24:-0.528476 25:0.591464 26:0.514605 27:-0.458789 28:0.122862 29:0.197492 30:-0.265212 31:0.188062 32:0.152973 33:-0.337944 34:0.270287 35:0.134597 36:-0.394454 37:0.260773 38:-0.151894 39:-0.253631 40:-0.0411787 41:-0.0724128 42:-0.0423826 43:-0.170392 44:-0.14575 45:0.0688378 46:-0.310162 47:-0.165167 48:0.171857 
0 9.962492896360708 1:-0.156463 2:0.437632 3:0.223858 4:-0.125313 5:0.364873 6:0.185748 7:-0.145088 8:0.505777 9:0.0769266 10:-0.276005 11:0.868829 12:0.394405 13:-0.367427 14:0.916629 15:0.37792 16:0.455446 17:0.407034 18:-0.532451 19:0.534186 20:0.287194 21:-0.546335 22:0.582147 23:0.229192 24:-0.522483 25:0.587097 26:0.512386 27:-0.449667 28:0.117569 29:0.19483 30:-0.256115 31:0.189129 32:0.151321 33:-0.334457 34:0.268791 35:0.131968 36:-0.388536 37:0.259844 38:-0.154768 39:-0.248783 40:-0.0129284 41:-0.0665667 42:-0.062154 43:-0.133075 44:-0.136654 45:0.0413153 46:-0.27708 47:-0.156345 48:0.146693 
0.500881133600213 0 1:-0.156463 2:0.437632 3:0.218466 4:-0.127558 5:0.364702 6:0.18219 7:-0.146487 8:0.506005 9:0.0713772 10:-0.27748 11:0.86897 12:0.390989 13:-0.366319 14:0.917058 15:0.371716 16:0.456496 17:0.409159 18:-0.546205 19:0.5336 20:0.289402 21:-0.558183 22:0.57977 23:0.231917 24:-0.532668 25:0.591405 26:0.517445 27:-0.465557 28:0.130463 29:0.20211 30:-0.277346 31:0.195057 32:0.158279 33:-0.349707 34:0.267029 35:0.138086 36:-0.397124 37:0.244383 38:-0.151481 39:-0.245355 40:-0.106054 41:-0.0877802 42:0.00650289 43:-0.213054 44:-0.155537 45:0.100079 46:-0.324761 47:-0.167124 48:0.180775 
0.4832538972449626 0.7723652097139048 1:-0.156463 2:0.437632 3:0.218056 4:-0.12713 5:0.365241 6:0.181291 7:-0.143536 8:0.507283 9:0.0679671 10:-0.275182 11:0.869723 12:0.38835 13:-0.361732 14:0.918205 15:0.367243 16:0.467554 17:0.41524 18:-0.5574 19:0.571237 20:0.300227 21:-0.593172 22:0.614257 23:0.244541 24:-0.563368 25:0.62813 26:0.534309 27:-0.496091 28:0.131597 29:0.21239 30:-0.279099 31:0.0999033 32:0.144225 33:-0.264151 34:0.0902632 35:0.10147 36:-0.240184 37:0.0197523 38:-0.206578 39:-0.064331 40:0.279112 41:0.0549754 42:-0.307542 43:0.453752 44:0.0886778 45:-0.446646 46:0.215881 47:0.0452236 48:-0.277036 
0.6548330619096865 1.014024717702956 1:-0.156463 2:0.437632 3:0.229695 4:-0.126164 5:0.365655 6:0.193047 7:-0.149316 8:0.506739 9:0.0885502 10:-0.277018 11:0.869783 12:0.40068 13:-0.364718 14:0.918295 15:0.381162 16:0.489202 17:0.42103 18:-0.549818 19:0.559975 20:0.301 21:-0.556263 22:0.600564 23:0.245481 24:-0.525134 25:0.594488 26:0.532075 27:-0.442177 28:0.0327336 29:0.189063 30:-0.168043 31:0.013419 32:0.122144 33:-0.164396 34:0.0157893 35:0.0813361 36:-0.151807 37:0.355816 38:-0.089016 39:-0.316589 40:0.512504 41:0.155146 42:-0.482092 43:0.322682 44:0.060328 45:-0.324709 46:0.159584 47:0.0407329 48:-0.215921 
0.3152476438733769 0.4793017171793539 1:-0.156463 2:0.437632 3:0.242195 4:-0.126046 5:0.365553 6:0.206639 7:-0.142979 8:0.507551 9:0.0983876 10:-0.276697 11:0.869679 12:0.411659 13:-0.364201 14:0.918155 15:0.392802 16:0.467865 17:0.416281 18:-0.500455 19:0.56557 20:0.300792 21:-0.532629 22:0.602849 23:0.244414 24:-0.498741 25:0.622006 26:0.53587 27:-0.43556 28:0.0967828 29:0.205209 30:-0.205097 31:0.0669292 32:0.135753 33:-0.190041 34:0.0655348 35:0.093983 36:-0.172637 37:0.0130511 38:-0.209717 39:-0.0182633 40:0.565638 41:0.171687 42:-0.508783 43:0.378193 44:0.0782995 45:-0.354531 46:0.173144 47:0.0432046 48:-0.2129 
0.1019623242159341 23.30061351980472 1:-0.156463 2:0.437632 3:0.245223 4:-0.128368 5:0.364638 6:0.2124 7:-0.148628 8:0.505957 9:0.107795 10:-0.279729 11:0.868936 12:0.417388 13:-0.371622 14:0.916882 15:0.402328 16:0.4457 17:0.408958 18:-0.472785 19:0.512883 20:0.288057 21:-0.478016 22:0.567587 23:0.232442 24:-0.461428 25:0.575251 26:0.518143 27:-0.390915 28:0.12011 29:0.203745 30:-0.221247 31:0.178865 32:0.159358 33:-0.286024 34:0.247963 35:0.139151 36:-0.329695 37:0.171098 38:-0.167256 39:-0.141016 40:-0.141015 41:-0.0959344 42:0.0704008 43:-0.242998 44:-0.163817 45:0.158106 46:-0.312529 47:-0.161294 48:0.201448 
0.1820199245178997 17.15710996344743 1:-0.156463 2:0.437632 3:0.25026 4:-0.126494 5:0.364917 6:0.215958 7:-0.150137 8:0.505545 9:0.115732 10:-0.279139 11:0.868863 12:0.421358 13:-0.368993 14:0.916919 15:0.404867 16:0.452472 17:0.409022 18:-0.467104 19:0.520129 20:0.288045 21:-0.473008 22:0.567888 23:0.230992 24:-0.450258 25:0.572124 26:0.515425 27:-0.376795 28:0.107545 29:0.198401 30:-0.200938 31:0.186788 32:0.158825 33:-0.283986 34:0.259815 35:0.13935 36:-0.330778 37:0.230107 38:-0.152355 39:-0.180269 40:-0.0999233 41:-0.0849525 42:0.043627 43:-0.204786 44:-0.1532 45:0.133111 46:-0.32494 47:-0.168293 48:0.217785 
0 53.8049496626933 1:-0.156463 2:0.437632 3:0.250592 4:-0.124648 5:0.365221 6:0.214384 7:-0.145541 8:0.506074 9:0.111664 10:-0.277227 11:0.868955 12:0.41977 13:-0.366531 14:0.917005 15:0.403 16:0.458734 17:0.409352 18:-0.472106 19:0.52288 20:0.287763 21:-0.474734 22:0.571307 23:0.230606 24:-0.452456 25:0.584973 26:0.516493 27:-0.386383 28:0.108034 29:0.197177 30:-0.200809 31:0.173144 32:0.153448 33:-0.271003 34:0.255387 35:0.136039 36:-0.326202 37:0.241053 38:-0.151377 39:-0.188565 40:-0.0318409 41:-0.064645 42:-0.0113483 43:-0.160774 44:-0.140004 45:0.0974735 46:-0.289697 47:-0.157014 48:0.188357 
0.006321465688010001 0 1:-0.156463 2:0.437632 3:0.243316 4:-0.12504 5:0.366057 6:0.206812 7:-0.14651 8:0.507403 9:0.103278 10:-0.27692 11:0.869932 12:0.412891 13:-0.365176 14:0.918459 15:0.394753 16:0.463807 17:0.41783 18:-0.494047 19:0.544788 20:0.299921 21:-0.511257 22:0.594782 23:0.246474 24:-0.489234 25:0.594899 26:0.535006 27:-0.411139 28:0.0993832 29:0.210517 30:-0.205534 31:0.0670521 32:0.140003 33:-0.188101 34:0.0540369 35:0.0942045 36:-0.160268 37:0.0262829 38:-0.200815 39:-0.02708 40:0.553161 41:0.186181 42:-0.497143 43:0.360841 44:0.0886417 45:-0.338916 46:0.138386 47:0.0440293 48:-0.182199 
0.2984394093002937 0.4180066959222651 1:-0.156463 2:0.437632 3:0.277399 4:-0.122845 5:0.3677 6:0.241905 7:-0.141043 8:0.510087 9:0.141654 10:-0.27143 11:0.871659 12:0.43827 13:-0.361401 14:0.920333 15:0.424387 16:0.465837 17:0.426554 18:-0.415115 19:0.539635 20:0.308513 21:-0.428351 22:0.591977 23:0.25912 24:-0.409465 25:0.595463 26:0.553641 27:-0.333094 28:0.112425 29:0.232454 30:-0.158164 31:0.107779 32:0.170801 33:-0.162628 34:0.0892599 35:0.120931 36:-0.127472 37:0.0187839 38:-0.189861 39:0.0363785 40:0.26134 41:0.128621 42:-0.214472 43:0.29971 44:0.130541 45:-0.246172 46:0.0641939 47:0.0679877 48:-0.0799264 
0.0850429652285605 0 1:-0.156463 2:0.437632 3:0.261502 4:-0.127522 5:0.366407 6:0.229373 7:-0.145254 8:0.509498 9:0.125379 10:-0.27452 11:0.871447 12:0.426955 13:-0.363768 14:0.920332 15:0.411104 16:0.45977 17:0.426718 18:-0.447196 19:0.533132 20:0.308818 21:-0.458963 22:0.577808 23:0.257941 24:-0.433309 25:0.579588 26:0.55238 27:-0.356916 28:0.101578 29:0.231515 30:-0.175883 31:0.0883101 32:0.166957 33:-0.17408 34:0.0738574 35:0.119101 36:-0.143684 37:0.00830683 38:-0.1894 39:0.0180851 40:0.185342 41:0.0969675 42:-0.173671 43:0.293174 44:0.132007 45:-0.260719 46:0.0970354 47:0.0899595 48:-0.126136 
0 0.1053029801468356 1:-0.156463 2:0.437632 3:0.263086 4:-0.126259 5:0.366913 6:0.229785 7:-0.142169 8:0.510363 9:0.124395 10:-0.273889 11:0.871658 12:0.427764 13:-0.36478 14:0.920381 15:0.413537 16:0.46366 17:0.428586 18:-0.447037 19:0.539597 20:0.311368 21:-0.461175 22:0.576767 23:0.259158 24:-0.428815 25:0.584987 26:0.555995 27:-0.357618 28:0.0973668 29:0.231966 30:-0.169257 31:0.0538155 32:0.155286 33:-0.139892 34:0.0513296 35:0.111733 36:-0.120599 37:-0.0061354 38:-0.194009 39:0.0324353 40:0.433516 41:0.22252 42:-0.373572 43:0.264261 44:0.124409 45:-0.235052 46:0.0468202 47:0.0693567 48:-0.081823 
0.02969723865986428 0 1:-0.156463 2:0.437632 3:0.283197 4:-0.123034 5:0.36771 6:0.248464 7:-0.137834 8:0.510906 9:0.145953 10:-0.271925 11:0.871666 12:0.443997 13:-0.360689 14:0.920518 15:0.429366 16:0.467004 17:0.427372 18:-0.402447 19:0.54697 20:0.310793 21:-0.421677 22:0.585098 23:0.25831 24:-0.390369 25:0.594814 26:0.554718 27:-0.319218 28:0.113972 29:0.234272 30:-0.149489 31:0.0969205 32:0.167608 33:-0.142163 34:0.0835109 35:0.119348 36:-0.111419 37:0.0232791 38:-0.187258 39:0.0425047 40:0.212275 41:0.109351 42:-0.166855 43:0.275656 44:0.124092 45:-0.21921 46:0.0898285 47:0.0862708 48:-0.094891 
0.4683449250365812 0.6065878841279095 1:-0.156463 2:0.437632 3:0.280466 4:-0.120389 5:0.36876 6:0.242691 7:-0.140435 8:0.510629 9:0.144994 10:-0.271466 11:0.871918 12:0.441076 13:-0.360484 14:0.920802 15:0.42654 16:0.470092 17:0.429532 18:-0.411778 19:0.549083 20:0.312915 21:-0.429858 22:0.586346 23:0.260769 24:-0.397645 25:0.587804 26:0.55574 27:-0.31986 28:0.0968277 29:0.230686 30:-0.138501 31:0.0440937 32:0.149381 33:-0.0992495 34:0.0546358 35:0.110445 36:-0.0908024 37:0.00735906 38:-0.191125 39:0.0507847 40:0.38644 41:0.202067 42:-0.312233 43:0.0873772 44:0.0364417 45:-0.0683998 46:0.0739898 47:0.0852219 48:-0.084658 
0.01478362119794544 0 1:-0.156463 2:0.437632 3:0.277451 4:-0.123108 5:0.367757 6:0.242238 7:-0.141697 8:0.510174 9:0.14236 10:-0.273389 11:0.87154 12:0.440251 13:-0.362494 14:0.920402 15:0.425409 16:0.469493 17:0.428525 18:-0.418372 19:0.542465 20:0.310417 21:-0.430792 22:0.580271 23:0.257946 24:-0.399242 25:0.589388 26:0.554339 27:-0.32808 28:0.107861 29:0.233098 30:-0.153882 31:0.0953339 32:0.168361 33:-0.151245 34:0.0790942 35:0.119147 36:-0.118304 37:0.0138084 38:-0.189671 39:0.0404914 40:0.237297 41:0.123162 42:-0.194832 43:0.0910487 44:0.0335832 45:-0.0751824 46:0.0943133 47:0.0904036 48:-0.105344 
0.2291066057032492 0 1:-0.156463 2:0.437632 3:0.259051 4:-0.126563 5:0.366991 6:0.225677 7:-0.144802 8:0.510094 9:0.121793 10:-0.277248 11:0.871392 12:0.427435 13:-0.366122 14:0.920492 15:0.410824 16:0.456211 17:0.428382 18:-0.449716 19:0.524736 20:0.309747 21:-0.456993 22:0.577635 23:0.261717 24:-0.438721 25:0.559316 26:0.551899 27:-0.346227 28:0.0348811 29:0.211206 30:-0.1189 31:0.00334109 32:0.138102 33:-0.1015 34:0.0119595 35:0.0986436 36:-0.0930765 37:0.416544 38:0.00487024 39:-0.316282 40:0.153038 41:0.0932064 42:-0.150624 43:0.0407251 44:0.0192232 45:-0.056994 46:0.0446431 47:0.075833 48:-0.084658 
0.04079759800980629 0 1:-0.156463 2:0.437632 3:0.260057 4:-0.126049 5:0.366892 6:0.22624 7:-0.14715 8:0.509117 9:0.125379 10:-0.277115 11:0.871116 12:0.428212 13:-0.366836 14:0.91999 15:0.412432 16:0.456064 17:0.426008 18:-0.447196 19:0.529464 20:0.308164 21:-0.458963 22:0.570556 23:0.256382 24:-0.430329 25:0.579152 26:0.552548 27:-0.359894 28:0.0867788 29:0.226316 30:-0.164809 31:0.0702413 32:0.160227 33:-0.160338 34:0.057826 35:0.112993 36:-0.132104 37:0.000273565 38:-0.192515 39:0.0221506 40:0.16371 41:0.0870724 42:-0.157978 43:0.0689848 44:0.0223855 45:-0.0788842 46:-0.0781919 47:-0.00163471 48:0.0204154 
0.4079970794232517 0.3921539127599291 1:-0.156463 2:0.437632 3:0.277451 4:-0.12459 5:0.367277 6:0.243795 7:-0.145372 8:0.509365 9:0.145953 10:-0.274654 11:0.871366 12:0.4415 13:-0.362494 14:0.920402 15:0.425409 16:0.462603 17:0.426913 18:-0.412002 19:0.53239 20:0.308146 21:-0.421677 22:0.580271 23:0.257946 24:-0.399242 25:0.571058 26:0.549132 27:-0.313311 28:0.0408918 29:0.207871 30:-0.0923818 31:0.0177279 32:0.137448 33:-0.0808563 34:0.0250687 35:0.0968209 36:-0.0701029 37:0.442 38:0.00454139 39:-0.305892 40:0.141818 41:0.0768557 42:-0.117119 43:0.0347846 44:0.00547431 45:-0.0290934 46:0.044881 47:0.0639799 48:-0.0635288 
0.03434892880777703 0 1:-0.156463 2:0.437632 3:0.278908 4:-0.127069 5:0.366226 6:0.247995 7:-0.142208 8:0.509585 9:0.144729 10:-0.274537 11:0.871082 12:0.442701 13:-0.361742 14:0.92007 15:0.426151 16:0.462294 17:0.42452 18:-0.408262 19:0.543779 20:0.308016 21:-0.428636 22:0.579751 23:0.254298 24:-0.395486 25:0.587034 26:0.548669 27:-0.322828 28:0.0929719 29:0.222784 30:-0.137672 31:0.074877 32:0.155342 33:-0.130023 34:0.0685228 35:0.109896 36:-0.106128 37:0.0115523 38:-0.195874 39:0.0447696 40:0.161485 41:0.0753776 42:-0.131197 43:0.0625847 44:0.00862494 45:-0.0500418 46:-0.0830272 47:-0.0145733 48:0.0463593 
0 1.553135345078191 1:-0.156463 2:0.437632 3:0.260009 4:-0.124302 5:0.367315 6:0.224353 7:-0.144668 8:0.509439 9:0.12289 10:-0.276452 11:0.871069 12:0.427514 13:-0.36577 14:0.919927 15:0.411438 16:0.46625 17:0.427241 18:-0.456729 19:0.536726 20:0.308528 21:-0.465643 22:0.568339 23:0.254231 24:-0.428524 25:0.562812 26:0.545743 27:-0.346839 28:0.0255258 29:0.201856 30:-0.108642 31:0.00870681 32:0.134314 33:-0.104614 34:0.0155153 35:0.0939274 36:-0.0944449 37:0.286638 38:-0.0693837 39:-0.209584 40:0.0995879 41:0.0517352 42:-0.105851 43:-0.000371745 44:-0.0162693 45:-0.0221315 46:-0.129425 47:-0.0329857 48:0.0636978 
0 0.6734311299102538 1:-0.156463 2:0.437632 3:0.252831 4:-0.127632 5:0.366477 6:0.219974 7:-0.147383 8:0.509213 9:0.116338 10:-0.276089 11:0.871347 12:0.420669 13:-0.364244 14:0.920429 15:0.403134 16:0.458353 17:0.427242 18:-0.466445 19:0.528047 20:0.308643 21:-0.474269 22:0.565371 23:0.256152 24:-0.442251 25:0.48828 26:0.528619 27:-0.303317 28:-0.0330421 29:0.183359 30:-0.0673544 31:-0.0377783 32:0.11966 33:-0.0755952 34:0.0243949 35:0.101429 36:-0.115892 37:0.392287 38:-0.0154614 39:-0.307134 40:0.0574796 41:0.0385213 42:-0.0810841 43:-0.0219715 44:-0.0201369 45:-0.0134237 46:0.011795 47:0.0477719 48:-0.0640831 
0.3623765005676956 4.588072548763473 1:-0.156463 2:0.437632 3:0.25607 4:-0.1236 5:0.36719 6:0.219295 7:-0.144823 8:0.508873 9:0.117989 10:-0.27463 11:0.870959 12:0.422155 13:-0.362838 14:0.919778 15:0.40502 16:0.460925 17:0.423316 18:-0.461142 19:0.53696 20:0.305449 21:-0.474895 22:0.570574 23:0.250697 24:-0.439391 25:0.578868 26:0.544298 27:-0.368847 28:0.0734204 29:0.214076 30:-0.159483 31:0.0485448 32:0.14463 33:-0.147959 34:0.0461464 35:0.101324 36:-0.129195 37:-0.00508855 38:-0.202218 39:0.0197746 40:0.0217525 41:0.00462106 42:-0.0477138 43:0.00625833 44:-0.0252277 45:-0.0324924 46:-0.12265 47:-0.0411533 48:0.0534014 
0.3724659376748704 0 1:-0.156463 2:0.437632 3:0.260009 4:-0.125803 5:0.366847 6:0.225929 7:-0.146529 8:0.509045 9:0.12471 10:-0.276452 11:0.871069 12:0.427514 13:-0.367275 14:0.91975 15:0.412775 16:0.452271 17:0.424085 18:-0.443804 19:0.526499 20:0.306304 21:-0.456391 22:0.540506 23:0.247574 24:-0.404497 25:0.447335 26:0.514063 27:-0.253795 28:-0.0498569 29:0.174434 30:-0.0394142 31:-0.0524142 32:0.110803 33:-0.0491764 34:0.0390838 35:0.103333 36:-0.115473 37:0.365245 38:-0.0349563 39:-0.273172 40:0.0450922 41:0.0262147 42:-0.0614942 43:-0.0380307 44:-0.0344328 45:0.00871675 46:-0.0017146 47:0.0329103 48:-0.0443341 
0 0.1008435509536339 1:-0.156463 2:0.437632 3:0.270304 4:-0.123923 5:0.36718 6:0.235253 7:-0.143721 8:0.509225 9:0.135171 10:-0.275456 11:0.870936 12:0.435834 13:-0.364169 14:0.919748 15:0.41998 16:0.453495 17:0.422349 18:-0.420526 19:0.525351 20:0.303784 21:-0.431717 22:0.547328 23:0.246292 24:-0.387021 25:0.451459 26:0.511542 27:-0.233405 28:-0.0443717 29:0.173199 30:-0.0265246 31:-0.0487038 32:0.108467 33:-0.0336891 34:0.0177558 35:0.0902029 36:-0.0770448 37:0.363974 38:-0.0437086 39:-0.254807 40:0.0409138 41:0.0172081 42:-0.0444554 43:-0.0356992 44:-0.0404361 45:0.0196961 46:-0.000627817 47:0.025024 48:-0.033318 
0 1.872120451143673 1:-0.156463 2:0.437632 3:0.274736 4:-0.128685 5:0.36512 6:0.245115 7:-0.14972 8:0.506878 9:0.146722 10:-0.280943 11:0.869518 12:0.445256 13:-0.370514 14:0.918002 15:0.429908 16:0.446182 17:0.414978 18:-0.403259 19:0.511604 20:0.294439 21:-0.409107 22:0.555346 23:0.239502 24:-0.383887 25:0.523495 26:0.519547 27:-0.281242 28:0.00568482 29:0.181916 30:-0.0647778 31:-0.00856209 32:0.114227 33:-0.0619836 34:0.00209819 35:0.0742494 36:-0.0547254 37:0.096396 38:-0.175542 39:-0.0308901 40:-0.0135755 41:-0.0289776 42:0.00576513 43:-0.0715665 44:-0.0793551 45:0.0546246 46:-0.186107 47:-0.0904295 48:0.128719 
0 0.1949207521697291 1:-0.156463 2:0.437632 3:0.272479 4:-0.128909 5:0.365167 6:0.242873 7:-0.150307 8:0.506965 9:0.144401 10:-0.281561 11:0.869572 12:0.443827 13:-0.366828 14:0.918572 15:0.424448 16:0.450438 17:0.416867 18:-0.412544 19:0.515118 20:0.296269 21:-0.417468 22:0.547258 23:0.239304 24:-0.382026 25:0.463579 26:0.506801 27:-0.238162 28:-0.0361671 29:0.169885 30:-0.0302735 31:-0.0392338 32:0.105356 33:-0.0382965 34:0.0115566 35:0.0794996 36:-0.0674163 37:0.120153 38:-0.163183 39:-0.0539086 40:0.0605877 41:0.00595579 42:-0.057589 43:-0.0946663 44:-0.0856005 45:0.0707214 46:-0.205161 47:-0.0955756 48:0.142221 
0.3095950355608514 0.5939159884164775 1:-0.156463 2:0.437632 3:0.25518 4:-0.126921 5:0.365632 6:0.221805 7:-0.151176 8:0.50667 9:0.12306 10:-0.280414 11:0.86961 12:0.427063 13:-0.366454 14:0.918437 15:0.407372 16:0.452528 17:0.416313 18:-0.45549 19:0.525569 20:0.297163 21:-0.466634 22:0.54813 23:0.23811 24:-0.422035 25:0.448423 26:0.502322 27:-0.265792 28:-0.0438114 29:0.167467 30:-0.0533742 31:-0.0473067 32:0.103197 33:-0.0626513 34:0.0350838 35:0.0878477 36:-0.121002 37:0.0976761 38:-0.173995 39:-0.0648549 40:0.316038 41:0.101911 42:-0.288424 43:-0.131917 44:-0.105357 45:0.0795793 46:-0.247715 47:-0.118498 48:0.158164 
0.3912982956371986 0.550743423432565 1:-0.156463 2:0.437632 3:0.257666 4:-0.128279 5:0.365167 6:0.225958 7:-0.148633 8:0.50693 9:0.123763 10:-0.281162 11:0.869404 12:0.430048 13:-0.370243 14:0.917884 15:0.413146 16:0.451813 17:0.415167 18:-0.448935 19:0.521907 20:0.295351 21:-0.457615 22:0.548744 23:0.236779 24:-0.416924 25:0.489261 26:0.510058 27:-0.292971 28:-0.0143418 29:0.175122 30:-0.0761085 31:-0.0243966 32:0.109136 33:-0.0788784 34:0.00840775 35:0.0769449 36:-0.0925176 37:0.0949715 38:-0.177855 39:-0.0584808 40:0.343547 41:0.106945 42:-0.307522 43:-0.116671 44:-0.102362 45:0.0702027 46:-0.24609 47:-0.12085 48:0.159671 
0 4.445055557811729 1:-0.156463 2:0.437632 3:0.276071 4:-0.12809 5:0.365019 6:0.245955 7:-0.150123 8:0.50634 9:0.14883 10:-0.280651 11:0.869252 12:0.446175 13:-0.371021 14:0.917521 15:0.431652 16:0.443088 17:0.411945 18:-0.397232 19:0.521224 20:0.29346 21:-0.414745 22:0.556103 23:0.235957 24:-0.381509 25:0.485824 26:0.506076 27:-0.247813 28:-0.0187463 29:0.17069 30:-0.0400162 31:-0.0230066 32:0.105803 33:-0.0464363 34:0.0103959 35:0.0731931 36:-0.0596129 37:0.0974693 38:-0.182041 39:-0.0295097 40:-0.154574 41:-0.0934456 42:0.122298 43:-0.0944233 44:-0.0979714 45:0.0750194 46:-0.239884 47:-0.122816 48:0.175757 
0 18.90381244933757 1:-0.156463 2:0.437632 3:0.280302 4:-0.126263 5:0.365356 6:0.248679 7:-0.147544 8:0.506572 9:0.151735 10:-0.280017 11:0.869183 12:0.449372 13:-0.371605 14:0.917271 15:0.436267 16:0.446156 17:0.411428 18:-0.390036 19:0.524957 20:0.292876 21:-0.408409 22:0.556906 23:0.234482 24:-0.372601 25:0.527359 26:0.513433 27:-0.271534 28:0.0033275 29:0.175626 30:-0.0529201 31:0.000417589 32:0.11138 33:-0.0599346 34:0.0149838 35:0.0725863 36:-0.0557334 37:0.0755161 38:-0.193161 39:-0.00462611 40:-0.134724 41:-0.0885716 42:0.111746 43:-0.14182 44:-0.120554 45:0.119141 46:-0.222332 47:-0.118741 48:0.165816 
0.02970835490045074 0.3698419692028408 1:-0.156463 2:0.437632 3:0.279139 4:-0.124884 5:0.36581 6:0.245955 7:-0.148071 8:0.506646 9:0.150758 10:-0.279204 11:0.869376 12:0.447518 13:-0.367681 14:0.9178 15:0.431652 16:0.447227 17:0.412459 18:-0.393785 19:0.518072 20:0.292594 21:-0.404851 22:0.552978 23:0.23495 24:-0.371851 25:0.462567 26:0.500204 27:-0.222009 28:-0.0286506 29:0.167156 30:-0.0255798 31:-0.0305707 32:0.102733 33:-0.0339588 34:0.0140372 35:0.0736761 36:-0.0570815 37:0.0955897 38:-0.183583 39:-0.022824 40:0.314869 41:0.0903874 42:-0.255736 43:-0.105416 44:-0.103194 45:0.0878639 46:-0.244323 47:-0.125516 48:0.183069 
0.8828149789089351 1.247341508499942 1:-0.156463 2:0.437632 3:0.273592 4:-0.127551 5:0.364947 6:0.242669 7:-0.150735 8:0.505881 9:0.146248 10:-0.281941 11:0.868884 12:0.445208 13:-0.370258 14:0.917255 15:0.428574 16:0.438858 17:0.40929 18:-0.399198 19:0.507684 20:0.288895 21:-0.408186 22:0.528749 23:0.22784 24:-0.363521 25:0.436618 26:0.492077 27:-0.213875 28:-0.0535472 29:0.158248 30:-0.0123741 31:-0.0536632 32:0.0940937 33:-0.0231697 34:0.0346667 35:0.0782805 36:-0.085938 37:0.0513685 38:-0.203339 39:0.00360909 40:0.32942 41:0.0825398 42:-0.274929 43:0.192566 44:0.00510536 45:-0.163171 46:-0.330336 47:-0.16619 48:0.249398 
0.5409296297966836 0.8225818714211447 1:-0.156463 2:0.437632 3:0.279704 4:-0.126949 5:0.364805 6:0.248743 7:-0.149212 8:0.505651 9:0.152598 10:-0.281739 11:0.868605 12:0.450532 13:-0.370923 14:0.916759 15:0.435081 16:0.442795 17:0.407555 18:-0.388347 19:0.505708 20:0.285874 21:-0.392368 22:0.528347 23:0.224352 24:-0.349304 25:0.444952 26:0.489987 27:-0.206514 28:-0.0451405 29:0.15762 30:-0.0094524 31:-0.055692 32:0.0903413 33:-0.0101387 34:-0.00964884 35:0.0603856 36:-0.0348835 37:0.1571 38:-0.174469 39:-0.0716308 40:-0.275241 41:-0.146674 42:0.225326 43:0.230821 44:0.00477598 45:-0.186857 46:0.0656573 47:-0.0175172 48:-0.0784922 
0.9778643293011062 1.513451331250212 1:-0.156463 2:0.437632 3:0.279831 4:-0.13169 5:0.36368 6:0.253861 7:-0.152842 8:0.504979 9:0.156311 10:-0.282681 11:0.868441 12:0.451577 13:-0.375142 14:0.91629 15:0.438954 16:0.433459 17:0.405405 18:-0.379414 19:0.500825 20:0.284423 21:-0.387659 22:0.531591 23:0.224066 24:-0.351816 25:0.448572 26:0.489805 27:-0.209138 28:-0.0454626 29:0.156886 30:-0.00893504 31:-0.0501948 32:0.0913077 33:-0.0148913 34:-0.0214795 35:0.0561422 36:-0.0240881 37:0.187758 38:-0.166545 39:-0.0962171 40:0.379571 41:0.0800922 42:-0.307483 43:-0.362079 44:-0.211829 45:0.298977 46:0.0718818 47:-0.0191697 48:-0.083611 
0.1581126399363981 0.2194264016068823 1:-0.156463 2:0.437632 3:0.263919 4:-0.12771 5:0.364411 6:0.232222 7:-0.151078 8:0.504989 9:0.134174 10:-0.282239 11:0.868316 12:0.436762 13:-0.375519 14:0.916025 15:0.423887 16:0.442545 17:0.405336 18:-0.425541 19:0.511678 20:0.284368 21:-0.434007 22:0.540783 23:0.223393 24:-0.395862 25:0.462935 26:0.490813 27:-0.257358 28:-0.0418647 29:0.157399 30:-0.0399459 31:-0.0521941 32:0.091142 33:-0.0422156 34:-0.0350775 35:0.0530969 36:-0.0419382 37:-0.0260695 38:-0.235964 39:0.0499632 40:0.464403 41:0.0879746 42:-0.397609 43:0.297322 44:0.00538819 45:-0.261093 46:0.108341 47:-0.0218473 48:-0.132899 
0.0771595491668102 0.120344121949687 1:-0.156463 2:0.437632 3:0.255416 4:-0.131279 5:0.363829 6:0.22664 7:-0.155823 8:0.504563 9:0.127907 10:-0.284302 11:0.868285 12:0.431115 13:-0.373135 14:0.916419 15:0.413539 16:0.431585 17:0.40487 18:-0.435567 19:0.500264 20:0.28403 21:-0.4432 22:0.496606 23:0.217959 24:-0.37702 25:0.380794 26:0.477624 27:-0.210756 28:-0.0847222 29:0.148552 30:-0.0153928 31:-0.0946284 32:0.0819696 33:-0.0192974 34:-0.0396366 35:0.0540971 36:-0.0538919 37:0.120338 38:-0.188977 39:-0.0827895 40:0.411877 41:0.0776919 42:-0.366118 43:0.248453 44:-0.00470033 45:-0.231704 46:0.085551 47:-0.0242004 48:-0.123477 
0.1881264611179985 0.1659357542890172 1:-0.156463 2:0.437632 3:0.27235 4:-0.126485 5:0.36477 6:0.240187 7:-0.150099 8:0.505298 9:0.144032 10:-0.281949 11:0.86845 12:0.444095 13:-0.367255 14:0.916851 15:0.424703 16:0.46047 17:0.409153 18:-0.422124 19:0.520373 20:0.286821 21:-0.422517 22:0.552426 23:0.226803 24:-0.38678 25:0.445642 26:0.488702 27:-0.224006 28:-0.05581 29:0.154187 30:-0.0124586 31:-0.0639733 32:0.087826 33:-0.0160928 34:-0.00228152 35:0.0620292 36:-0.0553123 37:0.424164 38:-0.0948427 39:-0.300052 40:0.263117 41:0.033479 42:-0.222606 43:0.184383 44:-0.0222982 45:-0.158023 46:0.0454592 47:-0.0350748 48:-0.0699306 
0.5924487800724099 0.9949052619044648 1:-0.156463 2:0.437632 3:0.28458 4:-0.128368 5:0.36437 6:0.255583 7:-0.150694 8:0.505226 9:0.160302 10:-0.279746 11:0.868671 12:0.452969 13:-0.363323 14:0.917229 15:0.433045 16:0.45726 17:0.408934 18:-0.390161 19:0.524258 20:0.287721 21:-0.397957 22:0.544074 23:0.225705 24:-0.351816 25:0.437066 26:0.48672 27:-0.188931 28:-0.0556405 29:0.153419 30:0.00868036 31:-0.0636665 32:0.0865776 33:0.00602197 34:-0.00549701 35:0.0598092 36:-0.0294005 37:0.365608 38:-0.110038 39:-0.232092 40:0.427498 41:0.0956664 42:-0.340205 43:0.269705 44:0.0132502 45:-0.212604 46:0.0619426 47:-0.0240776 48:-0.0696982 
0.3448399382531211 0.4108379067285096 1:-0.156463 2:0.437632 3:0.287986 4:-0.126524 5:0.364675 6:0.257385 7:-0.148136 8:0.505441 9:0.162171 10:-0.282034 11:0.868346 12:0.458308 13:-0.369091 14:0.916581 15:0.441469 16:0.463842 17:0.40909 18:-0.38817 19:0.535085 20:0.288407 21:-0.399931 22:0.571344 23:0.229141 24:-0.367628 25:0.516931 26:0.501156 27:-0.245435 28:-0.0169755 29:0.162528 30:-0.0208959 31:-0.0286245 32:0.0952228 33:-0.0195231 34:-0.0197219 35:0.0542439 36:-0.01029 37:-0.0387503 38:-0.242909 39:0.100748 40:0.107316 41:-0.0192931 42:-0.0750816 43:0.310691 44:0.0224251 45:-0.241914 46:0.11105 47:-0.0102561 48:-0.107288 
0.1197632769633206 0.009305055644157272 1:-0.156463 2:0.437632 3:0.276666 4:-0.126798 5:0.364798 6:0.245251 7:-0.148832 8:0.505641 9:0.14833 10:-0.281347 11:0.868602 12:0.447399 13:-0.363631 14:0.917318 15:0.425659 16:0.460214 17:0.410053 18:-0.411656 19:0.538324 20:0.290662 21:-0.428849 22:0.569924 23:0.231153 24:-0.392092 25:0.548202 26:0.510406 27:-0.296704 28:-0.0185825 29:0.164585 30:-0.039132 31:-0.0306453 32:0.0974638 33:-0.0384201 34:-0.0192334 35:0.057507 36:-0.0320572 37:0.256464 38:-0.143437 39:-0.157127 40:0.0260099 41:-0.0420058 42:-0.0238989 43:0.301036 44:0.0262915 45:-0.248178 46:0.120539 47:0.000204271 48:-0.128441 
0.03082639927157104 0.04199166567395635 1:-0.156463 2:0.437632 3:0.267095 4:-0.12543 5:0.365277 6:0.233313 7:-0.145441 8:0.506449 9:0.132736 10:-0.275032 11:0.869394 12:0.432514 13:-0.364809 14:0.917477 15:0.417442 16:0.460571 17:0.411553 18:-0.434677 19:0.530318 20:0.290998 21:-0.443578 22:0.568657 23:0.23303 24:-0.412717 25:0.566823 26:0.517083 27:-0.333751 28:0.0153842 29:0.176134 30:-0.0869898 31:-0.00667917 32:0.106947 33:-0.0776826 34:-0.00374339 35:0.0649864 36:-0.0639106 37:0.0416834 38:-0.20935 39:0.000502913 40:0.52039 41:0.137573 42:-0.438973 43:0.336785 44:0.04633 45:-0.289442 46:0.119114 47:0.00628389 48:-0.138329 
0.01402974395562082 0 1:-0.156463 2:0.437632 3:0.291965 4:-0.126879 5:0.363539 6:0.262123 7:-0.151116 8:0.503353 9:0.170189 10:-0.28295 11:0.867232 12:0.462808 13:-0.366261 14:0.915068 15:0.442805 16:0.438342 17:0.396227 18:-0.355161 19:0.514842 20:0.274931 21:-0.372484 22:0.525843 23:0.209206 24:-0.319318 25:0.376169 26:0.465969 27:-0.122855 28:-0.083128 29:0.141076 30:0.0467829 31:-0.0780839 32:0.0779299 33:0.0326224 34:0.00748836 35:0.0530534 36:-0.0270705 37:0.185855 38:-0.2031 39:-0.0742453 40:-0.0380779 41:-0.100975 42:0.0485301 43:0.0649855 44:-0.11497 45:-0.0356628 46:-0.00675889 47:-0.109677 48:-0.00302066 
0.04798357314000937 0 1:-0.156463 2:0.437632 3:0.286883 4:-0.128666 5:0.363356 6:0.258424 7:-0.153382 8:0.503224 9:0.165886 10:-0.281496 11:0.867362 12:0.456779 13:-0.36999 14:0.914938 15:0.4412 16:0.437988 17:0.39654 18:-0.366882 19:0.506101 20:0.274448 21:-0.376242 22:0.525307 23:0.209646 24:-0.330387 25:0.384715 26:0.467766 27:-0.141443 28:-0.0958005 29:0.139541 30:0.0495719 31:-0.0819259 32:0.078027 33:0.0268022 34:0.0233857 35:0.0570889 36:-0.0508295 37:0.240325 38:-0.190279 39:-0.126866 40:0.0418434 41:-0.0814655 42:-0.023252 43:0.0408112 44:-0.119823 45:-0.0222218 46:-0.0178856 47:-0.111593 48:0.000500381 
0.03252505357042983 0 1:-0.156463 2:0.437632 3:0.297269 4:-0.126588 5:0.363456 6:0.267637 7:-0.154813 8:0.502859 9:0.180609 10:-0.283725 11:0.867075 12:0.468366 13:-0.374067 14:0.914497 15:0.454878 16:0.446281 17:0.396035 18:-0.349924 19:0.506762 20:0.273057 21:-0.352998 22:0.539732 23:0.209355 24:-0.319271 25:0.530476 26:0.484002 27:-0.234968 28:-0.0180214 29:0.151207 30:-0.00377117 31:-0.0348182 32:0.0849439 33:0.00309363 34:-0.0171967 35:0.0472461 36:0.00494867 37:-1.94294e-06 38:-0.244735 39:0.0850345 40:-0.0413598 41:-0.104961 42:0.0582277 43:-0.0163622 44:-0.138673 45:0.0376137 46:-0.0653843 47:-0.129512 48:0.0527208 
0 1.816298289375333 1:-0.156463 2:0.437632 3:0.282358 4:-0.128171 5:0.363339 6:0.252938 7:-0.152135 8:0.5032 9:0.158861 10:-0.283239 11:0.867175 12:0.454412 13:-0.376935 14:0.914455 15:0.442994 16:0.431556 17:0.395108 18:-0.371664 19:0.4969 20:0.272668 21:-0.378309 22:0.530061 23:0.209004 24:-0.344761 25:0.534557 26:0.485345 27:-0.2726 28:-0.0217751 29:0.15211 30:-0.0262886 31:-0.0486978 32:0.0848164 33:-0.011623 34:-0.0214523 35:0.0492464 36:-0.0193519 37:0.029444 38:-0.236189 39:0.0361047 40:-0.0141864 41:-0.0985577 42:0.0163585 43:-0.0639981 44:-0.149428 45:0.0579671 46:-0.115369 47:-0.142164 48:0.0777167 
0.6112185964138733 0.7386045682408078 1:-0.156463 2:0.437632 3:0.313468 4:-0.12613 5:0.363264 6:0.284931 7:-0.151472 8:0.502765 9:0.198122 10:-0.280985 11:0.866977 12:0.480299 13:-0.368466 14:0.914412 15:0.465578 16:0.439305 17:0.393458 18:-0.305068 19:0.513744 20:0.271542 21:-0.322127 22:0.548257 23:0.207428 24:-0.289869 25:0.423749 26:0.468043 27:-0.111665 28:-0.0789758 29:0.139179 30:0.0804118 31:-0.0727419 32:0.0760519 33:0.0671538 34:0.00857057 35:0.0489318 36:0.0124813 37:0.245835 38:-0.201179 39:-0.0865569 40:0.0081934 41:-0.100694 42:0.039351 43:-0.0280521 44:-0.148587 45:0.0674689 46:-0.0889828 47:-0.143176 48:0.0914623 
0.3472177848386244 2.954122155208195 1:-0.156463 2:0.437632 3:0.312635 4:-0.127673 5:0.363053 6:0.285636 7:-0.153105 8:0.502576 9:0.198649 10:-0.283451 11:0.866812 12:0.481981 13:-0.374781 14:0.914061 15:0.470384 16:0.442356 17:0.393271 18:-0.309865 19:0.508929 20:0.270624 21:-0.319684 22:0.548351 23:0.206746 24:-0.291841 25:0.546676 26:0.481069 27:-0.212632 28:-0.0197923 29:0.148092 30:0.0246092 31:-0.0428481 32:0.0812072 33:0.0385137 34:-0.0178583 35:0.0447129 36:0.0344913 37:0.0583864 38:-0.237824 39:0.0636753 40:-0.0222009 41:-0.10895 42:0.0629865 43:-0.0532255 44:-0.156276 45:0.0870465 46:-0.112693 47:-0.151328 48:0.110553 
0.01117417143591944 0 1:-0.156463 2:0.437632 3:0.251871 4:-0.126833 5:0.364354 6:0.218082 7:-0.148865 8:0.504901 9:0.116555 10:-0.28139 11:0.868154 12:0.425037 13:-0.370067 14:0.916078 15:0.407381 16:0.441696 17:0.403196 18:-0.45332 19:0.513282 20:0.28227 21:-0.463115 22:0.544889 23:0.221018 24:-0.426746 25:0.454732 26:0.48685 27:-0.278496 28:-0.0386958 29:0.157096 30:-0.0638333 31:-0.0394558 32:0.0939445 33:-0.0758312 34:-0.024415 35:0.0560694 36:-0.074152 37:-0.0409349 38:-0.240696 39:0.0417022 40:0.339014 41:0.0275594 42:-0.311507 43:0.23857 44:-0.0335634 45:-0.228048 46:0.0920389 47:-0.0462057 48:-0.133075 
0 0.04520559958812077 1:-0.156463 2:0.437632 3:0.25283 4:-0.12667 5:0.36432 6:0.218962 7:-0.148452 8:0.504846 9:0.117381 10:-0.279477 11:0.868231 12:0.424014 13:-0.371116 14:0.915916 15:0.409241 16:0.447865 17:0.403469 18:-0.456752 19:0.511762 20:0.2815 21:-0.45954 22:0.556171 23:0.221811 24:-0.434311 25:0.498146 26:0.492969 27:-0.31127 28:-0.0130106 29:0.162007 30:-0.0857524 31:-0.0183886 32:0.0981782 33:-0.0931839 34:-0.00562987 35:0.0599958 36:-0.0891064 37:-0.0378398 38:-0.240528 39:0.0408117 40:0.354642 41:0.028094 42:-0.322959 43:0.248961 44:-0.0342478 45:-0.235359 46:0.101553 47:-0.0467683 48:-0.140012 
0 0.03913802736102048 1:-0.156463 2:0.437632 3:0.296203 4:-0.129129 5:0.363818 6:0.269136 7:-0.152509 8:0.504276 9:0.176988 10:-0.285869 11:0.867676 12:0.46952 13:-0.376094 14:0.91553 15:0.455646 16:0.43004 17:0.401006 18:-0.337437 19:0.496301 20:0.279401 21:-0.345982 22:0.521853 23:0.216816 24:-0.306256 25:0.499361 26:0.492522 27:-0.212353 28:-0.000390409 29:0.162723 30:-0.0218193 31:-0.00483092 32:0.097554 33:-0.0260578 34:0.0177518 35:0.060514 36:-0.0282423 37:-0.0216602 38:-0.242495 39:0.100759 40:0.419973 41:0.0669468 42:-0.318684 43:0.297433 44:-0.00162652 45:-0.220767 46:0.141223 47:-0.0174051 48:-0.123287 
0.07083544191632835 0.09264400386770506 1:-0.156463 2:0.437632 3:0.297229 4:-0.129273 5:0.363829 6:0.270412 7:-0.154957 8:0.504009 9:0.180698 10:-0.283378 11:0.867937 12:0.467987 13:-0.371643 14:0.915948 15:0.452683 16:0.432104 17:0.401715 18:-0.336914 19:0.490175 20:0.278948 21:-0.338086 22:0.52311 23:0.21759 24:-0.305013 25:0.461845 26:0.486275 27:-0.179764 28:-0.0222692 29:0.157817 30:5.87714e-05 31:-0.0220229 32:0.0934768 33:-0.00858603 34:-0.00321865 35:0.0551887 36:-0.00759959 37:-0.0333377 38:-0.245592 39:0.111933 40:0.401925 41:0.0654077 42:-0.302632 43:0.28684 44:-0.00113537 45:-0.210804 46:0.131568 47:-0.0170515 48:-0.113931 
0.5343291154668229 0.8544771770734945 1:-0.156463 2:0.437632 3:0.293757 4:-0.128794 5:0.36437 6:0.2661 7:-0.153807 8:0.504913 9:0.175119 10:-0.282323 11:0.868545 12:0.463808 13:-0.363705 14:0.917427 15:0.442268 16:0.458985 17:0.410482 18:-0.369997 19:0.513541 20:0.287288 21:-0.367193 22:0.539665 23:0.226532 24:-0.327183 25:0.428588 26:0.486044 27:-0.160963 28:-0.044857 29:0.156789 30:0.014757 31:-0.0438593 32:0.0923795 33:0.00486262 34:-0.0211022 35:0.0551614 36:0.00181498 37:-0.0526637 38:-0.245855 39:0.12172 40:0.420007 41:0.106246 42:-0.321948 43:0.299228 44:0.0361775 45:-0.225298 46:0.133077 47:0.0146347 48:-0.119232 
0.334471683450648 0.5651934554604623 1:-0.156463 2:0.437632 3:0.280865 4:-0.126412 5:0.367599 6:0.249453 7:-0.151639 8:0.509411 9:0.156461 10:-0.283112 11:0.871119 12:0.452938 13:-0.374546 14:0.920245 15:0.439425 16:0.43619 17:0.428285 18:-0.379488 19:0.523803 20:0.315371 21:-0.406072 22:0.571774 23:0.268333 24:-0.384159 25:0.552849 26:0.56088 27:-0.290776 28:0.0280736 29:0.216996 30:-0.0746658 31:0.00900342 32:0.148208 33:-0.0666912 34:0.00764172 35:0.103933 36:-0.0481217 37:-0.0307994 38:-0.193782 39:0.0823253 40:0.502475 41:0.314789 42:-0.406151 43:0.356972 44:0.226208 45:-0.28874 46:0.176495 47:0.191127 48:-0.170905 
0.1279920751725167 0.1356381822031632 1:-0.156463 2:0.437632 3:0.283159 4:-0.126658 5:0.367629 6:0.252228 7:-0.150498 8:0.509891 9:0.158288 10:-0.278968 11:0.871898 12:0.450918 13:-0.371378 14:0.920867 15:0.438829 16:0.442805 17:0.431088 18:-0.380165 19:0.523069 20:0.316434 21:-0.400143 22:0.579727 23:0.272321 24:-0.38582 25:0.570864 26:0.569098 27:-0.300009 28:0.0419341 29:0.224889 30:-0.083401 31:0.0234811 32:0.15672 33:-0.0756233 34:0.022428 35:0.112808 36:-0.0569928 37:-0.0191892 38:-0.18565 39:0.076795 40:0.532509 41:0.340982 42:-0.427557 43:0.382538 44:0.249861 45:-0.30681 46:0.195621 47:0.211412 48:-0.184425 
0.2947522417708462 0.465505840300343 1:-0.156463 2:0.437632 3:0.282238 4:-0.12922 5:0.36655 6:0.253907 7:-0.149839 8:0.50983 9:0.156461 10:-0.280655 11:0.871482 12:0.451751 13:-0.373052 14:0.920425 15:0.439425 16:0.436447 17:0.428203 18:-0.376472 19:0.514589 20:0.312854 21:-0.394587 22:0.568919 23:0.267313 24:-0.37858 25:0.570573 26:0.566262 27:-0.301896 28:0.0890792 29:0.242667 30:-0.1283 31:0.0633842 32:0.172321 33:-0.113502 34:0.0658596 35:0.130701 36:-0.0974784 37:-0.00240225 38:-0.179717 39:0.0616645 40:0.568663 41:0.350676 42:-0.458206 43:0.427592 44:0.265713 45:-0.34487 46:0.231267 47:0.223859 48:-0.215646 
0.1216142966086718 0.1868254453129367 1:-0.156463 2:0.437632 3:0.258596 4:-0.127905 5:0.367971 6:0.226587 7:-0.150221 8:0.511338 9:0.126508 10:-0.279995 11:0.872633 12:0.429736 13:-0.369917 14:0.922337 15:0.413757 16:0.439408 17:0.437171 18:-0.435262 19:0.528072 20:0.325934 21:-0.461057 22:0.580235 23:0.283505 24:-0.441999 25:0.5937 26:0.592323 27:-0.374981 28:0.0789836 29:0.255604 30:-0.160194 31:0.0427837 32:0.181612 33:-0.138109 34:0.0313538 35:0.134417 36:-0.111238 37:-0.0130981 38:-0.162696 39:0.0305072 40:0.586527 41:0.414754 42:-0.504061 43:0.439039 44:0.324898 45:-0.383843 46:0.246752 47:0.284105 48:-0.256153 
0.1549320048019881 0.2442167354197696 1:-0.156463 2:0.437632 3:0.259929 4:-0.127884 5:0.36796 6:0.228028 7:-0.150168 8:0.51132 9:0.128167 10:-0.279939 11:0.872622 12:0.430885 13:-0.369827 14:0.922322 15:0.414967 16:0.44598 17:0.43888 18:-0.438176 19:0.522266 20:0.324173 21:-0.452744 22:0.580625 23:0.283394 24:-0.439311 25:0.587548 26:0.589882 27:-0.366952 28:0.103106 29:0.266309 30:-0.180025 31:0.074751 32:0.196674 33:-0.164662 34:0.0572244 35:0.146944 36:-0.131807 37:-0.00365622 38:-0.158018 39:0.0251146 40:0.610764 41:0.428587 42:-0.522022 43:0.462867 44:0.338919 45:-0.401691 46:0.264914 47:0.295466 48:-0.26997 
0.2942934262403877 0.4505659198415713 1:-0.156463 2:0.437632 3:0.262394 4:-0.126079 5:0.369193 6:0.228836 7:-0.147454 8:0.512923 9:0.128674 10:-0.277812 11:0.873552 12:0.431012 13:-0.369768 14:0.923124 15:0.4173 16:0.44958 17:0.44445 18:-0.435662 19:0.522866 20:0.329568 21:-0.447629 22:0.583649 23:0.291651 24:-0.436328 25:0.596842 26:0.603699 27:-0.368765 28:0.111066 29:0.280325 30:-0.183044 31:0.100457 32:0.220313 33:-0.183464 34:0.0834557 35:0.171362 36:-0.150568 37:0.00993928 38:-0.138827 39:0.0182659 40:0.63356 41:0.481275 42:-0.537312 43:0.487662 44:0.392038 45:-0.418918 46:0.284779 47:0.344704 48:-0.283919 
0.6070279030797836 0.9366976017723727 1:-0.156463 2:0.437632 3:0.281226 4:-0.12437 5:0.372007 6:0.247705 7:-0.144959 8:0.517084 9:0.150392 10:-0.27609 11:0.876097 12:0.446329 13:-0.364206 14:0.927192 15:0.430583 16:0.4637 17:0.466939 18:-0.404067 19:0.537246 20:0.354673 21:-0.417406 22:0.595821 23:0.324696 24:-0.4041 25:0.616365 26:0.653463 27:-0.341123 28:0.13021 29:0.33196 30:-0.167834 31:0.104649 32:0.267031 33:-0.152782 34:0.0814786 35:0.214761 36:-0.113319 37:0.0172494 38:-0.0869147 39:0.0440634 40:0.687384 41:0.678046 42:-0.556177 43:0.511085 44:0.562699 45:-0.414529 46:0.292526 47:0.497648 48:-0.268639 
0.2604382571236842 0.2976395840968266 1:-0.156463 2:0.437632 3:0.249758 4:-0.123757 5:0.365744 6:0.212534 7:-0.14536 8:0.506619 9:0.110418 10:-0.277764 11:0.86923 12:0.419547 13:-0.366339 14:0.917479 15:0.402022 16:0.480331 17:0.415513 18:-0.49405 19:0.553517 20:0.29548 21:-0.504364 22:0.584724 23:0.236864 24:-0.465931 25:0.584147 26:0.521988 27:-0.387638 28:0.0263054 29:0.180805 30:-0.127206 31:0.00438167 32:0.112529 33:-0.119461 34:0.00134439 35:0.0695471 36:-0.101116 37:0.101992 38:-0.186692 39:-0.0774758 40:-0.0914805 41:-0.0767286 42:0.0360904 43:0.361246 44:0.0540489 45:-0.331183 46:0.134832 47:0.0119172 48:-0.171724 
0.1374197232105941 0 1:-0.156463 2:0.437632 3:0.251333 4:-0.125573 5:0.365405 6:0.216169 7:-0.145806 8:0.506658 9:0.112874 10:-0.272612 11:0.869799 12:0.415883 13:-0.358819 14:0.918229 15:0.396863 16:0.481827 17:0.416389 18:-0.491698 19:0.543156 20:0.294499 21:-0.491374 22:0.585216 23:0.237833 24:-0.46278 25:0.500993 26:0.506118 27:-0.317009 28:-0.0281183 29:0.166728 30:-0.0744837 31:-0.0413639 32:0.0999363 33:-0.0750848 34:0.0102934 35:0.0727385 36:-0.106133 37:0.273509 38:-0.128671 39:-0.213571 40:0.0245668 41:-0.0341595 42:-0.0562789 43:0.304486 44:0.0382352 45:-0.282715 46:0.081189 47:-0.0048071 48:-0.12452 
0.4408679154026024 0.3680857279766203 1:-0.156463 2:0.437632 3:0.246593 4:-0.127065 5:0.365042 6:0.212534 7:-0.147473 8:0.50635 9:0.108423 10:-0.27643 11:0.869391 12:0.415369 13:-0.363138 14:0.917798 15:0.396113 16:0.472213 17:0.414433 18:-0.49405 19:0.545484 20:0.294487 21:-0.504364 22:0.584179 23:0.237135 24:-0.472643 25:0.554199 26:0.516458 27:-0.370798 28:-0.00435785 29:0.173077 30:-0.104558 31:-0.022185 32:0.105583 33:-0.101162 34:-0.00236431 35:0.0691537 36:-0.103773 37:0.138842 38:-0.173923 39:-0.112616 40:0.254012 41:0.0439998 42:-0.249312 43:-0.0654579 44:-0.0979784 45:0.0143886 46:0.121358 47:0.00748904 48:-0.163995 
0.4495499012075456 0.6917882930436891 1:-0.156463 2:0.437632 3:0.23393 4:-0.123897 5:0.365872 6:0.195314 7:-0.143678 8:0.507139 9:0.0884691 10:-0.273915 11:0.869765 12:0.401443 13:-0.358645 14:0.918365 15:0.379863 16:0.47849 17:0.416479 18:-0.529874 19:0.551295 20:0.296541 21:-0.538689 22:0.578108 23:0.237537 24:-0.496137 25:0.463666 26:0.50024 27:-0.327015 28:-0.0475474 29:0.163467 30:-0.0869434 31:-0.0621601 32:0.096631 33:-0.0880905 34:0.0244813 35:0.0798876 36:-0.151583 37:0.329682 38:-0.10875 39:-0.288316 40:0.517045 41:0.138234 42:-0.480179 43:0.31224 44:0.0401545 45:-0.310855 46:0.120452 47:0.0100772 48:-0.177908 
0.3413081390198838 0.5688776043908497 1:-0.156463 2:0.437632 3:0.226003 4:-0.127061 5:0.365177 6:0.189938 7:-0.14336 8:0.507178 9:0.0779887 10:-0.277829 11:0.869392 12:0.398144 13:-0.3631 14:0.917976 15:0.37615 16:0.47625 17:0.416008 18:-0.546599 19:0.541814 20:0.294941 21:-0.548312 22:0.580416 23:0.23781 24:-0.516121 25:0.507912 26:0.509256 27:-0.380924 28:-0.0325083 29:0.167986 30:-0.114558 31:-0.0493592 32:0.101099 33:-0.114218 34:-0.00381278 35:0.0724509 36:-0.141276 37:0.208293 38:-0.148496 39:-0.203469 40:0.141375 41:0.00620254 42:-0.184905 43:0.363839 44:0.0552465 45:-0.363047 46:0.140246 47:0.0149355 48:-0.203842 
0.06020933959403061 0 1:-0.156463 2:0.437632 3:0.229266 4:-0.125196 5:0.36547 6:0.191559 7:-0.146914 8:0.506469 9:0.08565 10:-0.27725 11:0.86933 12:0.400521 13:-0.365504 14:0.917611 15:0.381445 16:0.475231 17:0.414872 18:-0.537921 19:0.545241 20:0.294397 21:-0.543921 22:0.584597 23:0.237123 24:-0.512325 25:0.571914 26:0.520015 27:-0.424978 28:0.00667553 29:0.17689 30:-0.144861 31:-0.016742 32:0.108779 33:-0.137827 34:-0.00885049 35:0.0695119 36:-0.130634 37:0.14375 38:-0.171823 39:-0.145763 40:0.0458387 41:-0.0297877 42:-0.102823 43:0.418469 44:0.0682785 45:-0.40371 46:0.175561 47:0.0227926 48:-0.229934 
0.4220982697454498 0.7439527828446406 1:-0.156463 2:0.437632 3:0.235649 4:-0.125142 5:0.365419 6:0.198506 7:-0.146776 8:0.506384 9:0.0937027 10:-0.278526 11:0.869146 12:0.407549 13:-0.363588 14:0.917676 15:0.38592 16:0.47203 17:0.413865 18:-0.519828 19:0.55377 20:0.29514 21:-0.536984 22:0.585654 23:0.236576 24:-0.498753 25:0.577476 26:0.520087 27:-0.414759 28:0.00214212 29:0.174746 30:-0.129584 31:-0.00677339 32:0.11032 33:-0.13518 34:-0.00441559 35:0.0693887 36:-0.122563 37:0.03673 38:-0.206914 39:-0.0484419 40:0.0132088 41:-0.0421354 42:-0.0678097 43:0.421929 44:0.0680364 45:-0.398556 46:0.178746 47:0.0225242 48:-0.225228 
0.3131406881707722 0 1:-0.156463 2:0.437632 3:0.254611 4:-0.125167 5:0.365303 6:0.219338 7:-0.144776 8:0.506494 9:0.116071 10:-0.278571 11:0.869022 12:0.424728 13:-0.363681 14:0.917514 15:0.404356 16:0.471721 17:0.413008 18:-0.474585 19:0.545751 20:0.293022 21:-0.486199 22:0.577432 23:0.234016 24:-0.448624 25:0.568666 26:0.516715 27:-0.363988 28:0.0162202 29:0.176402 30:-0.109495 31:-0.0148037 32:0.105355 33:-0.0931746 34:-0.00331918 35:0.0663197 36:-0.0878123 37:0.049199 38:-0.206438 39:-0.0265987 40:0.0350107 41:-0.0364912 42:-0.0604388 43:0.0451595 44:-0.0633471 45:-0.0661859 46:0.162882 47:0.0168995 48:-0.189826 
0.02289803468927573 0.3482635474332393 1:-0.156463 2:0.437632 3:0.252924 4:-0.125369 5:0.365354 6:0.2177 7:-0.145289 8:0.506577 9:0.114409 10:-0.277688 11:0.869203 12:0.422332 13:-0.364554 14:0.917585 15:0.4035 16:0.484575 17:0.415956 18:-0.490468 19:0.531196 20:0.291651 21:-0.476904 22:0.565831 23:0.233185 24:-0.442436 25:0.559756 26:0.516559 27:-0.360695 28:0.00490577 29:0.174576 30:-0.102042 31:-0.0151678 32:0.106373 33:-0.0959325 34:-0.00685598 35:0.0664242 36:-0.0878354 37:0.230211 38:-0.145889 39:-0.175868 40:0.000773163 41:-0.0453993 42:-0.0348058 43:0.376424 44:0.0587533 45:-0.339653 46:0.150136 47:0.0170461 48:-0.181 
0.05961526148556142 0 1:-0.156463 2:0.437632 3:0.246605 4:-0.123983 5:0.365814 6:0.209311 7:-0.147946 8:0.506405 9:0.108902 10:-0.278343 11:0.869291 12:0.417269 13:-0.365622 14:0.917707 15:0.398333 16:0.465846 17:0.414094 18:-0.488135 19:0.531156 20:0.292982 21:-0.491374 22:0.572786 23:0.236164 24:-0.46278 25:0.570589 26:0.52119 27:-0.383976 28:0.0228362 29:0.18139 30:-0.12951 31:-0.00794701 32:0.110515 33:-0.114053 34:-0.00560779 35:0.0690161 36:-0.100855 37:0.183126 38:-0.157315 39:-0.148418 40:-0.0363554 41:-0.0546215 42:-0.0129549 43:-0.0209587 44:-0.079255 45:-0.0220477 46:-0.0141648 47:-0.0408774 48:-0.0493409 
0 11.98844501770196 1:-0.156463 2:0.437632 3:0.243563 4:-0.127462 5:0.365128 6:0.209627 7:-0.148497 8:0.506501 9:0.105538 10:-0.27753 11:0.86949 12:0.413717 13:-0.366576 14:0.917792 15:0.396236 16:0.462959 17:0.414575 18:-0.492677 19:0.531488 20:0.294108 21:-0.498658 22:0.568585 23:0.236815 24:-0.466058 25:0.569476 26:0.522925 27:-0.390085 28:0.0193385 29:0.181958 30:-0.131595 31:-0.00596459 32:0.112619 33:-0.121421 34:0.0050795 35:0.0738434 36:-0.116122 37:0.148767 38:-0.165773 39:-0.125747 40:-0.0591903 41:-0.0598283 42:0.00160173 43:-0.0879778 44:-0.100526 45:0.0290428 46:-0.14667 47:-0.089095 48:0.0592204 
0 7.264075032860613 1:-0.156463 2:0.437632 3:0.248705 4:-0.126181 5:0.365538 6:0.213923 7:-0.145341 8:0.507203 9:0.109048 10:-0.275679 11:0.869807 12:0.416535 13:-0.363167 14:0.918286 15:0.398183 16:0.466062 17:0.416195 18:-0.483355 19:0.537299 20:0.29629 21:-0.492111 22:0.573498 23:0.239305 24:-0.45863 25:0.487904 26:0.507399 27:-0.312517 28:-0.0285703 29:0.169497 30:-0.0786458 31:-0.0505422 32:0.0999864 33:-0.071574 34:0.0835496 35:0.0995628 36:-0.176445 37:0.188279 38:-0.148947 39:-0.149051 40:-0.034415 41:-0.0472637 42:-0.0117531 43:-0.0582339 44:-0.0852409 45:0.0111151 46:-0.148277 47:-0.0853071 48:0.0665406 
0 14.69799643614702 1:-0.156463 2:0.437632 3:0.250008 4:-0.125972 5:0.36549 6:0.215133 7:-0.146814 8:0.506796 9:0.11216 10:-0.277887 11:0.869473 12:0.419893 13:-0.362241 14:0.918215 15:0.398621 16:0.472645 17:0.41647 18:-0.486352 19:0.548074 20:0.297127 21:-0.498867 22:0.592812 23:0.241618 24:-0.472347 25:0.590958 26:0.527949 27:-0.392551 28:0.0255179 29:0.183757 30:-0.126048 31:0.00918809 32:0.116888 33:-0.123363 34:0.0207481 35:0.0782299 36:-0.117958 37:0.134275 38:-0.170262 39:-0.103171 40:-0.103719 41:-0.0754163 42:0.0463826 43:-0.141823 44:-0.119879 45:0.0812183 46:-0.225133 47:-0.119523 48:0.133065 
0 7.75892144760716 1:-0.156463 2:0.437632 3:0.25157 4:-0.124339 5:0.365861 6:0.215133 7:-0.144765 8:0.507101 9:0.11216 10:-0.277847 11:0.86946 12:0.421265 13:-0.36545 14:0.917901 15:0.402986 16:0.472838 17:0.416375 18:-0.482826 19:0.552039 20:0.297651 21:-0.498867 22:0.59692 23:0.242194 24:-0.472347 25:0.595424 26:0.528642 27:-0.392551 28:0.03386 29:0.185871 30:-0.130989 31:0.0151696 32:0.118377 33:-0.125928 34:0.024048 35:0.0789009 36:-0.117958 37:0.134691 38:-0.170534 39:-0.100876 40:-0.101177 41:-0.0748505 42:0.0463826 43:-0.155616 44:-0.125459 45:0.094473 46:-0.239066 47:-0.125525 48:0.146662 
0 6.24591190915141 1:-0.156463 2:0.437632 3:0.250598 4:-0.129566 5:0.364768 6:0.219555 7:-0.147799 8:0.506906 9:0.113879 10:-0.278923 11:0.869541 12:0.42145 13:-0.363967 14:0.918322 15:0.400726 16:0.474985 17:0.418437 18:-0.487116 19:0.545512 20:0.298429 21:-0.495195 22:0.585134 23:0.242464 24:-0.464379 25:0.553046 26:0.522757 27:-0.360644 28:-0.0310055 29:0.169365 30:-0.0731128 31:-0.0419063 32:0.103105 33:-0.0759398 34:0.131794 35:0.116218 36:-0.215922 37:0.130398 38:-0.167452 39:-0.0990415 40:-0.116275 41:-0.07627 42:0.0573837 43:-0.166492 44:-0.125188 45:0.102165 46:-0.249548 47:-0.125188 48:0.154402 
0.04602451235106039 0.877638687438174 1:-0.156463 2:0.437632 3:0.26335 4:-0.124838 5:0.365895 6:0.228583 7:-0.145997 8:0.507137 9:0.128476 10:-0.276374 11:0.869766 12:0.430456 13:-0.354633 14:0.919162 15:0.404773 16:0.477684 17:0.418687 18:-0.459377 19:0.55162 20:0.299236 21:-0.471445 22:0.587401 23:0.242556 24:-0.437397 25:0.547402 26:0.52086 27:-0.326726 28:-0.0420038 29:0.16487 30:-0.0408078 31:-0.0393484 32:0.102222 33:-0.0549085 34:0.133497 35:0.115594 36:-0.193413 37:0.1235 38:-0.171184 39:-0.0719877 40:-0.115289 41:-0.0769454 42:0.0734731 43:-0.171679 44:-0.128236 45:0.122378 46:-0.257767 47:-0.129593 48:0.176138 
0 0.9563539135714029 1:-0.156463 2:0.437632 3:0.258727 4:-0.124885 5:0.365932 6:0.223559 7:-0.144133 8:0.507539 9:0.120723 10:-0.273763 11:0.870099 12:0.4237 13:-0.356447 14:0.919059 15:0.40191 16:0.480827 17:0.419661 18:-0.473245 19:0.55089 20:0.299545 21:-0.481398 22:0.586506 23:0.24295 24:-0.447116 25:0.578509 26:0.528667 27:-0.362439 28:-0.0454945 29:0.164593 30:-0.0456529 31:-0.0320583 32:0.105471 33:-0.0699866 34:0.11516 35:0.110658 36:-0.185764 37:0.111101 38:-0.174397 39:-0.0697421 40:-0.122813 41:-0.07873 42:0.0734731 43:-0.178745 44:-0.129901 45:0.122378 46:-0.264103 47:-0.131136 48:0.176138 
0.2081102779594336 11.88359713974958 1:-0.156463 2:0.437632 3:0.243862 4:-0.12366 5:0.366503 6:0.205962 7:-0.147023 8:0.507459 9:0.104481 10:-0.270659 11:0.870715 12:0.407203 13:-0.356447 14:0.919449 15:0.387523 16:0.483522 17:0.422317 18:-0.510979 19:0.552493 20:0.302227 21:-0.516973 22:0.583316 23:0.245411 24:-0.478095 25:0.585912 26:0.534644 27:-0.402639 28:-0.0745755 29:0.159082 30:-0.0448292 31:-0.0247512 32:0.111857 33:-0.103833 34:0.0445067 35:0.0923462 36:-0.150735 37:0.0524635 38:-0.189657 39:-0.0473382 40:-0.164574 41:-0.0894552 42:0.0877744 43:-0.210289 44:-0.136809 45:0.129609 46:-0.285753 47:-0.13454 48:0.17722 
0 1.597382929163074 1:-0.156463 2:0.437632 3:0.235339 4:-0.128708 5:0.365378 6:0.201911 7:-0.14386 8:0.508337 9:0.0904533 10:-0.268796 11:0.87114 12:0.39766 13:-0.356213 14:0.919771 15:0.379065 16:0.475768 17:0.42249 18:-0.524019 19:0.544053 20:0.302506 21:-0.528905 22:0.573789 23:0.245835 24:-0.489214 25:0.566684 26:0.533453 27:-0.406778 28:-0.0814315 29:0.159164 30:-0.0533742 31:-0.0381917 32:0.110316 33:-0.107251 34:0.0326063 35:0.0918245 36:-0.156179 37:0.0290356 38:-0.194109 39:-0.0427393 40:-0.179138 41:-0.0912959 42:0.0883384 43:-0.226393 44:-0.139246 45:0.13213 46:-0.302333 47:-0.137487 48:0.181364 
0 0.224306757212224 1:-0.156463 2:0.437632 3:0.231592 4:-0.13172 5:0.364562 6:0.200963 7:-0.149316 8:0.507275 9:0.090983 10:-0.275083 11:0.870369 12:0.400483 13:-0.358598 14:0.91943 15:0.377559 16:0.470698 17:0.42096 18:-0.528213 19:0.539583 20:0.301061 21:-0.533461 22:0.577168 23:0.24571 24:-0.500631 25:0.570856 26:0.533316 27:-0.418767 28:-0.013997 29:0.179604 30:-0.121825 31:-0.0192573 32:0.11615 33:-0.131284 34:0.029942 35:0.0904139 36:-0.16086 37:0.018658 38:-0.198682 39:-0.0406524 40:-0.193025 41:-0.0976243 42:0.094679 43:-0.240801 44:-0.146086 45:0.139242 46:-0.314669 47:-0.143963 48:0.187456 
0.546892964423343 1.321078582977765 1:-0.156463 2:0.437632 3:0.231774 4:-0.132551 5:0.367284 6:0.202035 7:-0.160249 8:0.510654 9:0.101907 10:-0.28772 11:0.872697 12:0.413126 13:-0.382719 14:0.922347 15:0.399175 16:0.40711 17:0.438702 18:-0.468993 19:0.478062 20:0.324624 21:-0.47739 22:0.50124 23:0.276 24:-0.434672 25:0.416164 26:0.551914 27:-0.293707 28:-0.0562496 29:0.212614 30:-0.0827063 31:-0.0202143 32:0.174962 33:-0.130084 34:0.0172539 35:0.155366 36:-0.149197 37:0.017486 38:-0.111506 39:-0.0393987 40:-0.182577 41:-0.00631844 42:0.0864158 43:-0.182944 44:-0.0160109 45:0.0920761 46:-0.272251 47:-0.0156642 48:0.151785 
0.3742403233542508 0.5801635349750275 1:-0.156463 2:0.437632 3:0.352156 4:-0.136869 5:0.388262 6:0.338655 7:-0.175692 8:0.544928 9:0.271433 10:-0.3057 11:0.896038 12:0.539664 13:-0.416422 14:0.954098 15:0.545648 16:0.303247 17:0.620127 18:-0.0875537 19:0.336828 20:0.52852 21:-0.0732694 22:0.262147 23:0.48348 24:0.0449196 25:0.0675222 26:0.734462 27:0.264463 28:-0.335456 29:0.32294 30:0.383311 31:-0.384489 32:0.270603 33:0.420753 34:-0.434935 35:0.201724 36:0.481074 37:-0.505985 38:-0.0903422 39:0.586768 40:-0.652314 41:0.0169613 42:0.628209 43:-0.788955 44:-0.251444 45:0.739195 46:-0.855474 47:-0.268619 48:0.784694 
0.001623326681126476 0.00498983765469292 1:-0.156463 2:0.437632 3:0.356477 4:-0.135451 5:0.391375 6:0.341908 7:-0.173209 8:0.549443 9:0.274548 10:-0.306737 11:0.897155 12:0.544592 13:-0.416219 14:0.956625 15:0.54965 16:0.296163 17:0.627608 18:-0.070758 19:0.285914 20:0.496441 21:-0.0172893 22:0.209196 23:0.446658 24:0.100439 25:0.00631525 26:0.68068 27:0.323733 28:-0.368391 29:0.286988 30:0.421082 31:-0.416781 32:0.235351 33:0.457956 34:-0.4667 35:0.165871 36:0.517557 37:-0.524428 38:-0.094537 39:0.608965 40:-0.739825 41:-0.208678 42:0.705162 43:-0.807232 44:-0.278204 45:0.759574 46:-0.871154 47:-0.292518 48:0.802972 
0.6487839249001791 0.9978638856853871 1:-0.156463 2:0.437632 3:0.35031 4:-0.137663 5:0.385908 6:0.337463 7:-0.172714 8:0.544824 9:0.266153 10:-0.305063 11:0.894638 12:0.537366 13:-0.413594 14:0.952923 15:0.541347 16:0.307019 17:0.608925 18:-0.0954181 19:0.342141 20:0.515915 21:-0.082313 22:0.284407 23:0.484385 24:0.0215134 25:0.160441 26:0.820342 27:0.185343 28:-0.291973 29:0.371137 30:0.340164 31:-0.359965 32:0.284739 33:0.395128 34:-0.388307 35:0.260339 36:0.435992 37:-0.483319 38:-0.0819696 39:0.565325 40:-0.641471 41:0.000438677 42:0.61694 43:-0.703982 44:-0.0279547 45:0.667277 46:-0.835332 47:-0.238636 48:0.765521 
0.09301601829063595 0.1384260098830673 1:-0.156463 2:0.437632 3:0.361505 4:-0.135838 5:0.390569 6:0.347831 7:-0.172605 8:0.549379 9:0.280408 10:-0.306599 11:0.896847 12:0.548999 13:-0.416327 14:0.956022 15:0.554613 16:0.2979 17:0.626125 18:-0.0604432 19:0.286003 20:0.492799 21:-0.00582847 22:0.226873 23:0.461056 24:0.0965878 25:0.0184308 26:0.689108 27:0.325551 28:-0.361624 29:0.2916 30:0.423622 31:-0.407306 32:0.2445 33:0.458568 34:-0.458653 35:0.171089 36:0.519852 37:-0.52367 38:-0.108929 39:0.616817 40:-0.666905 41:0.00179085 42:0.652468 43:-0.799223 44:-0.268356 45:0.759311 46:-0.864011 47:-0.283395 48:0.802759 
0.9370892485581919 1.44307079545934 1:-0.156463 2:0.437632 3:0.370517 4:-0.136763 5:0.390583 6:0.358691 7:-0.174242 8:0.550034 9:0.293569 10:-0.308624 11:0.897123 12:0.559143 13:-0.41984 14:0.956302 15:0.566458 16:0.28939 17:0.629736 18:-0.0312083 19:0.267213 20:0.487066 21:0.031859 22:0.159105 23:0.400298 24:0.175543 25:-0.0168279 26:0.659986 27:0.374719 28:-0.376978 29:0.279224 30:0.453414 31:-0.431547 32:0.214165 33:0.497058 34:-0.476875 35:0.152042 36:0.553089 37:-0.531667 38:-0.10006 39:0.638461 40:-0.743392 41:-0.218509 42:0.72666 43:-0.810099 44:-0.287589 45:0.779504 46:-0.873326 47:-0.30139 48:0.821084 
1.105239998426831 1.704797442647039 1:-0.156463 2:0.437632 3:0.352491 4:-0.142529 5:0.376606 6:0.344967 7:-0.184461 8:0.528764 9:0.28044 10:-0.314205 11:0.885388 12:0.548365 13:-0.419225 14:0.943366 15:0.548465 16:0.302004 17:0.563225 18:-0.0856077 19:0.344831 20:0.469057 21:-0.0797371 22:0.346712 23:0.479003 24:-0.027322 25:0.280789 26:0.864182 27:0.0934 28:-0.152524 29:0.503555 30:0.215902 31:-0.187678 32:0.477972 33:0.242859 34:-0.262187 35:0.374589 36:0.327581 37:-0.362643 38:0.0385026 39:0.471377 40:-0.552787 41:0.0835866 42:0.547645 43:-0.64705 44:-0.0244677 45:0.623374 46:-0.725178 47:-0.0317816 48:0.674866 
0.4437397046949423 0.6847311360290553 1:-0.156463 2:0.437632 3:0.382243 4:-0.135476 5:0.389637 6:0.370206 7:-0.17386 8:0.545938 9:0.308238 10:-0.305969 11:0.895611 12:0.567117 13:-0.417193 14:0.953331 15:0.575455 16:0.3015 17:0.616543 18:-0.0146029 19:0.335175 20:0.524997 21:-0.00270203 22:0.266891 23:0.484135 24:0.109103 25:0.086731 26:0.748065 27:0.318282 28:-0.316081 29:0.342977 30:0.417907 31:-0.372191 32:0.274103 33:0.464696 34:-0.411 35:0.225352 36:0.51641 37:-0.493065 38:-0.0949121 39:0.62698 40:-0.641894 41:0.0130344 42:0.659581 43:-0.711676 44:-0.0349589 45:0.713559 46:-0.83534 47:-0.249114 48:0.802545 
0.7133306211019695 1.015420977811171 1:-0.156463 2:0.437632 3:0.282302 4:-0.138272 5:0.362487 6:0.263483 7:-0.175491 8:0.50207 9:0.181629 10:-0.309591 11:0.866168 12:0.480383 13:-0.412368 14:0.913674 15:0.474433 16:0.322579 17:0.390462 18:-0.271043 19:0.368809 20:0.267128 21:-0.26256 22:0.379425 23:0.202525 24:-0.214846 25:0.341892 26:0.475845 27:-0.117491 28:-0.0750278 29:0.156262 30:0.0225192 31:-0.0400712 32:0.104044 33:-0.0195493 34:0.00780691 35:0.0770233 36:-0.0455614 37:0.162996 38:-0.146309 39:-0.0720251 40:0.224061 41:0.0772495 42:-0.177635 43:0.129944 44:0.0141382 45:-0.10097 46:-0.00248748 47:0.000608501 48:-0.0178359 
1.090896438277912 1.681985689847567 1:-0.156463 2:0.437632 3:0.306531 4:-0.138733 5:0.362258 6:0.290551 7:-0.174833 8:0.502111 9:0.212066 10:-0.304368 11:0.866777 12:0.49712 13:-0.411417 14:0.913739 15:0.497039 16:0.326934 17:0.391286 18:-0.217626 19:0.375248 20:0.268367 21:-0.212764 22:0.387956 23:0.204527 24:-0.167228 25:0.356811 26:0.480077 27:-0.0737087 28:0.488214 29:0.361291 30:-0.452544 31:0.138284 32:0.173263 33:-0.136953 34:0.611326 35:0.318933 36:-0.53837 37:0.57112 38:0.0404263 39:-0.361376 40:0.210329 41:0.090441 42:-0.134365 43:0.124526 44:0.0305047 45:-0.0662006 46:-0.0057555 47:0.0172175 48:0.0130164 
0.8381749044005428 1.245681343233071 1:-0.156463 2:0.437632 3:0.279269 4:-0.141136 5:0.361672 6:0.263161 7:-0.176757 8:0.501763 9:0.178975 10:-0.308911 11:0.86621 12:0.47697 13:-0.417512 14:0.913063 15:0.476069 16:0.307701 17:0.387034 18:-0.26448 19:0.365708 20:0.266003 21:-0.266719 22:0.373431 23:0.200505 24:-0.216556 25:0.32854 26:0.471485 27:-0.113719 28:-0.0755166 29:0.155015 30:0.0176857 31:-0.0505611 32:0.0989731 33:-0.0155899 34:-0.00497148 35:0.0706239 36:-0.039877 37:-0.0179671 38:-0.221172 39:0.0692556 40:0.223578 41:0.068142 42:-0.18126 43:-0.173596 44:-0.124083 45:0.143877 46:0.0020257 47:-0.00575246 48:-0.0251702 
0 1.564883889709219 1:-0.156463 2:0.437632 3:0.268762 4:-0.127672 5:0.364372 6:0.237496 7:-0.15098 8:0.504924 9:0.14029 10:-0.283577 11:0.868152 12:0.442459 13:-0.377051 14:0.915839 15:0.429937 16:0.419228 17:0.401508 18:-0.392502 19:0.481153 20:0.279568 21:-0.395276 22:0.497623 23:0.216001 24:-0.347612 25:0.459591 26:0.489457 27:-0.24351 28:0.00115353 29:0.167167 30:-0.071019 31:0.0318125 32:0.111997 33:-0.109543 34:0.0733993 35:0.0812756 36:-0.129597 37:0.0468038 38:-0.215558 39:-0.000832734 40:-0.190329 41:-0.120799 42:0.141719 43:-0.24749 44:-0.173961 45:0.191253 46:-0.337635 47:-0.179196 48:0.249973 
1.09933552877394 1.694263822493448 1:-0.156463 2:0.437632 3:0.314174 4:-0.138489 5:0.362203 6:0.298682 7:-0.176067 8:0.501622 9:0.223077 10:-0.30755 11:0.866209 12:0.507168 13:-0.410327 14:0.913653 15:0.503468 16:0.326674 17:0.390033 18:-0.199265 19:0.379142 20:0.267852 21:-0.198741 22:0.389235 23:0.203036 24:-0.150988 25:0.351605 26:0.476112 27:-0.0519114 28:0.487411 29:0.355033 30:-0.438498 31:0.558618 32:0.327908 33:-0.504203 34:0.622854 35:0.315637 36:-0.534254 37:0.153387 38:-0.148086 39:-0.0105836 40:0.224276 41:0.0893717 42:-0.135594 43:0.127307 44:0.0243152 45:-0.0589109 46:-0.00738901 47:0.00896475 48:0.0232588 
0.1783024437139517 0.2712132933732124 1:-0.156463 2:0.437632 3:0.314651 4:-0.136817 5:0.362662 6:0.297449 7:-0.173788 8:0.502008 9:0.22146 10:-0.307133 11:0.866209 12:0.507188 13:-0.414207 14:0.913128 15:0.507378 16:0.328734 17:0.390002 18:-0.200039 19:0.378165 20:0.267086 21:-0.196763 22:0.388736 23:0.202168 24:-0.149475 25:0.351622 26:0.475038 27:-0.0508266 28:0.489715 29:0.351345 30:-0.439783 31:0.556571 32:0.321906 33:-0.501473 34:0.624068 35:0.310318 36:-0.53444 37:0.587639 38:0.032415 39:-0.361066 40:-0.110771 41:-0.0675737 42:0.137747 43:0.138729 44:0.0243234 45:-0.0676693 46:0.00150149 47:0.00822851 48:0.0162908 
0.8461283315009319 1.30747829328415 1:-0.156463 2:0.437632 3:0.322948 4:-0.138382 5:0.362132 6:0.308196 7:-0.173921 8:0.501896 9:0.232234 10:-0.307261 11:0.866136 12:0.514811 13:-0.411378 14:0.91338 15:0.512894 16:0.331577 17:0.390282 18:-0.182995 19:0.384238 20:0.268003 21:-0.18321 22:0.398278 23:0.203942 24:-0.138883 25:0.369176 26:0.479146 27:-0.045862 28:0.494242 29:0.355823 30:-0.429493 31:0.558354 32:0.325782 33:-0.487898 34:0.628176 35:0.315352 36:-0.522469 37:0.591245 38:0.0376226 39:-0.350014 40:-0.113075 41:-0.0683164 42:0.150612 43:0.140717 44:0.0281688 45:-0.0589109 46:0.00463495 47:0.0125349 48:0.0232588 
0.9319482772564873 1.436242878883712 1:-0.156463 2:0.437632 3:0.314423 4:-0.136513 5:0.362665 6:0.29688 7:-0.174932 8:0.501639 9:0.222287 10:-0.305036 11:0.86638 12:0.504912 13:-0.412961 14:0.913141 15:0.50605 16:0.325418 17:0.3885 18:-0.197513 19:0.372258 20:0.264968 21:-0.191941 22:0.390798 23:0.201377 24:-0.15177 25:0.354864 26:0.474063 27:-0.0539632 28:0.498635 29:0.345854 30:-0.448371 31:0.559315 32:0.31305 33:-0.504378 34:0.630893 35:0.301978 36:-0.540954 37:0.603427 38:0.0268801 39:-0.374221 40:0.239372 41:0.0803987 42:-0.147551 43:0.148187 44:0.0185133 45:-0.0757023 46:-0.276173 47:-0.135069 48:0.250916 
0.321014126933078 0.4936444585386472 1:-0.156463 2:0.437632 3:0.315197 4:-0.136353 5:0.362659 6:0.297561 7:-0.170705 8:0.502377 9:0.219146 10:-0.304617 11:0.866375 12:0.505196 13:-0.412304 14:0.913138 15:0.506215 16:0.32379 17:0.387721 18:-0.194174 19:0.378144 20:0.265641 21:-0.195491 22:0.393742 23:0.201313 24:-0.152557 25:0.358562 26:0.473971 27:-0.0551611 28:0.505643 29:0.343855 30:-0.453459 31:0.56726 32:0.310882 33:-0.510169 34:0.631563 35:0.296702 36:-0.540097 37:0.610107 38:0.023411 39:-0.378322 40:0.247061 41:0.0784721 42:-0.152784 43:0.155796 44:0.0167255 45:-0.0809669 46:0.0243964 47:0.00439856 48:-0.00244262 
0 4.174085323981454 1:-0.156463 2:0.437632 3:0.270999 4:-0.129748 5:0.363221 6:0.24213 7:-0.156077 8:0.502984 9:0.148145 10:-0.284245 11:0.867171 12:0.44514 13:-0.376075 14:0.914551 15:0.431235 16:0.425525 17:0.394861 18:-0.393019 19:0.483004 20:0.271794 21:-0.391813 22:0.498863 23:0.206405 24:-0.343605 25:0.459108 26:0.477383 27:-0.237968 28:-0.00344466 29:0.155952 30:-0.0629 31:0.0230809 32:0.0981733 33:-0.0975264 34:0.0600646 35:0.0652307 36:-0.113483 37:0.0400012 38:-0.232427 39:0.00843843 40:-0.200755 41:-0.136777 42:0.153168 43:-0.263771 44:-0.192088 45:0.207391 46:-0.350003 47:-0.196595 48:0.263029 
0.6258713680480137 0.9651857723523216 1:-0.156463 2:0.437632 3:0.327135 4:-0.138506 5:0.361657 6:0.31292 7:-0.175815 8:0.500572 9:0.239456 10:-0.310068 11:0.865277 12:0.521366 13:-0.419229 14:0.911774 15:0.523925 16:0.307426 17:0.38027 18:-0.15074 19:0.358539 20:0.256665 21:-0.15035 22:0.370648 23:0.188844 24:-0.105529 25:0.343401 26:0.458207 27:-0.015451 28:0.612218 29:0.293784 30:-0.530546 31:0.678192 32:0.253353 33:-0.588925 34:0.747984 35:0.234078 36:-0.621475 37:0.713048 38:-0.0502579 39:-0.441495 40:0.32668 41:0.0158273 42:-0.201775 43:0.230017 44:-0.0448088 45:-0.126819 46:0.089038 47:-0.0562338 48:-0.0432853 
0.3367185623444833 0.5186945711638267 1:-0.156463 2:0.437632 3:0.335941 4:-0.136853 5:0.361878 6:0.320847 7:-0.182247 8:0.499622 9:0.257043 10:-0.313083 11:0.864948 12:0.532301 13:-0.41937 14:0.911645 15:0.532574 16:0.307002 17:0.379585 18:-0.12947 19:0.361985 20:0.256455 21:-0.133252 22:0.382186 23:0.18973 24:-0.0955062 25:0.360044 26:0.459981 27:-0.00857946 28:0.608172 29:0.294925 30:-0.511497 31:0.679757 32:0.255914 33:-0.574218 34:0.755633 35:0.238231 36:-0.611704 37:0.714167 38:-0.0476826 39:-0.42757 40:0.327364 41:0.0178113 42:-0.190669 43:0.232667 44:-0.0423693 45:-0.117966 46:0.0912382 47:-0.0540423 48:-0.0349371 
0.6634206873138637 0.9391939001402348 1:-0.156463 2:0.437632 3:0.270667 4:-0.128092 5:0.36342 6:0.240028 7:-0.154168 8:0.503167 9:0.145852 10:-0.289225 11:0.866958 12:0.449759 13:-0.391273 14:0.913918 15:0.444422 16:0.355277 17:0.388935 18:-0.32886 19:0.396688 20:0.264568 21:-0.314491 22:0.3836 23:0.195482 24:-0.244853 25:0.32488 26:0.462454 27:-0.13058 28:-0.0889764 29:0.143094 30:0.0150695 31:-0.0708398 32:0.0829924 33:-0.0129472 34:-0.0376697 35:0.0485959 36:-0.0269105 37:-0.0658072 38:-0.252429 39:0.093472 40:-0.280402 41:-0.153041 42:0.217556 43:-0.335707 44:-0.207337 45:0.265902 46:0.110295 47:-0.0887824 48:-0.126729 
0.04515033343220348 0.1306857585188976 1:-0.156463 2:0.437632 3:0.250416 4:-0.128045 5:0.363571 6:0.217758 7:-0.154061 8:0.503421 9:0.11977 10:-0.28293 11:0.867417 12:0.425242 13:-0.381969 14:0.914547 15:0.416551 16:0.389942 17:0.393199 18:-0.408923 19:0.418073 20:0.267847 21:-0.380327 22:0.401168 23:0.19911 24:-0.305977 25:0.329617 26:0.465738 27:-0.181039 28:-0.0952413 29:0.144814 30:-0.01444 31:-0.0808438 32:0.0846174 33:-0.040957 34:-0.0584052 35:0.048839 36:-0.0465693 37:-0.079543 38:-0.250722 39:0.0704827 40:-0.293739 41:-0.152 42:0.201588 43:-0.350631 44:-0.206726 45:0.252774 46:0.133558 47:-0.0823233 48:-0.169885 
0.5385188753856441 0.8232154535302521 1:-0.156463 2:0.437632 3:0.268344 4:-0.123184 5:0.364113 6:0.232325 7:-0.148532 8:0.503799 9:0.137361 10:-0.281037 11:0.867483 12:0.439573 13:-0.372876 14:0.914914 15:0.425821 16:0.410371 17:0.394552 18:-0.385305 19:0.450085 20:0.269891 21:-0.36813 22:0.429265 23:0.200501 24:-0.289549 25:0.354842 26:0.466279 27:-0.160073 28:-0.0851084 29:0.143846 30:0.00747109 31:-0.0770448 32:0.082012 33:-0.0115734 34:-0.0480771 35:0.0467892 36:-0.0220038 37:-0.0700557 38:-0.253115 39:0.0929967 40:-0.284224 41:-0.153652 42:0.21759 43:0.273083 44:-0.0664163 45:-0.235697 46:0.134592 47:-0.0743692 48:-0.149976 
0 0.1036155921747704 1:-0.156463 2:0.437632 3:0.264941 4:-0.12674 5:0.363718 6:0.232325 7:-0.14194 8:0.5044 9:0.126549 10:-0.271874 11:0.868006 12:0.42745 13:-0.363869 14:0.915397 15:0.414521 16:0.452668 17:0.398844 18:-0.432479 19:0.508357 20:0.275646 21:-0.428657 22:0.506392 23:0.208979 24:-0.363854 25:0.438066 26:0.476982 27:-0.234968 28:-0.0334091 29:0.152847 30:-0.0459316 31:-0.0256983 32:0.0916543 33:-0.0643772 34:0.0017962 35:0.0566924 36:-0.0729128 37:-0.0410504 38:-0.246417 39:0.0638019 40:-0.26942 41:-0.149728 42:0.201032 43:-0.323699 44:-0.203582 45:0.248896 46:0.140438 47:-0.0722769 48:-0.158866 
0.6189097091243464 0.8739938830132391 1:-0.156463 2:0.437632 3:0.27347 4:-0.129001 5:0.363491 6:0.244058 7:-0.149855 8:0.503859 9:0.145231 10:-0.270271 11:0.868244 12:0.433575 13:-0.362508 14:0.915638 15:0.421567 16:0.454581 17:0.399883 18:-0.414024 19:0.509078 20:0.27651 21:-0.409729 22:0.518964 23:0.211104 24:-0.355351 25:0.446447 26:0.478368 27:-0.222076 28:-0.0252452 29:0.154083 30:-0.0385772 31:-0.0111641 32:0.0938154 33:-0.0619414 34:0.00971862 35:0.0573139 36:-0.0639087 37:-0.0337721 38:-0.246181 39:0.0722774 40:-0.26671 41:-0.150399 42:0.210125 43:-0.321796 44:-0.20429 45:0.258015 46:0.169892 47:-0.0540585 48:-0.173892 
0.2257452376046724 0.348258611768227 1:-0.156463 2:0.437632 3:0.277078 4:-0.124636 5:0.364377 6:0.243433 7:-0.136919 8:0.505686 9:0.137209 10:-0.271194 11:0.868531 12:0.437746 13:-0.364484 14:0.915945 15:0.426816 16:0.439633 17:0.400251 18:-0.391649 19:0.488436 20:0.276248 21:-0.382772 22:0.45451 23:0.204982 24:-0.29152 25:0.371546 26:0.469078 27:-0.153415 28:-0.0634674 29:0.147695 30:0.00280678 31:-0.0555642 32:0.0854547 33:-0.0150627 34:-0.0370921 35:0.0476274 36:-0.0153461 37:-0.0615277 38:-0.252421 39:0.100806 40:-0.117072 41:-0.109098 42:0.0931076 43:0.301573 44:-0.0277847 45:-0.248099 46:0.142881 47:-0.0424727 48:-0.146861 
0.03305083569447977 0.5579394021405425 1:-0.156463 2:0.437632 3:0.274934 4:-0.129676 5:0.363544 6:0.246372 7:-0.149467 8:0.504233 9:0.146729 10:-0.272299 11:0.868409 12:0.436899 13:-0.363887 14:0.915929 15:0.42421 16:0.445448 17:0.400711 18:-0.402111 19:0.498474 20:0.277211 21:-0.396776 22:0.494043 23:0.21006 24:-0.330516 25:0.418741 26:0.476278 27:-0.196381 28:-0.0529444 29:0.149907 30:-0.0105913 31:-0.0381257 32:0.0893901 33:-0.0348063 34:-0.0157065 35:0.0527278 36:-0.0384672 37:-0.0561854 38:-0.250811 39:0.0928727 40:-0.262778 41:-0.148713 42:0.208863 43:-0.183462 44:-0.165187 45:0.146532 46:0.157955 47:-0.0409798 48:-0.162099 
0.2784639364354422 0 1:-0.156463 2:0.437632 3:0.275972 4:-0.126516 5:0.364133 6:0.244194 7:-0.143777 8:0.505031 9:0.142497 10:-0.27016 11:0.868686 12:0.435726 13:-0.363427 14:0.916114 15:0.424807 16:0.449923 17:0.402049 18:-0.403786 19:0.498191 20:0.277951 21:-0.394136 22:0.472616 23:0.207929 24:-0.309661 25:0.390895 26:0.472604 27:-0.171553 28:-0.0597138 29:0.148883 30:-0.00256724 31:-0.054864 32:0.086019 33:-0.0177232 34:-0.0301486 35:0.0496502 36:-0.0236256 37:-0.0612518 38:-0.251867 39:0.0987199 40:-0.137205 41:-0.113395 42:0.10803 43:-0.207334 44:-0.170134 45:0.167386 46:0.149113 47:-0.0368458 48:-0.153415 
0 0.05144389724778279 1:-0.156463 2:0.437632 3:0.273294 4:-0.130109 5:0.363596 6:0.245027 7:-0.142092 8:0.505371 9:0.137413 10:-0.273604 11:0.868527 12:0.436706 13:-0.367674 14:0.915953 15:0.425988 16:0.435496 17:0.400822 18:-0.396798 19:0.48365 20:0.27678 21:-0.387131 22:0.445123 23:0.204774 24:-0.292006 25:0.369913 26:0.46998 27:-0.160815 28:-0.0765955 29:0.145885 30:0.00827252 31:-0.0789899 32:0.0811766 33:-0.000745899 34:-0.0458377 35:0.0466558 36:-0.0146745 37:-0.0675423 38:-0.252648 39:0.0992986 40:-0.150276 41:-0.115546 42:0.115121 43:-0.219717 44:-0.172222 45:0.174177 46:0.141082 47:-0.03523 48:-0.149728 
0.2991268555718752 0.7930789684604969 1:-0.156463 2:0.437632 3:0.274319 4:-0.12996 5:0.363575 6:0.245996 7:-0.154507 8:0.503822 9:0.150869 10:-0.274638 11:0.868376 12:0.438654 13:-0.365228 14:0.916018 15:0.424807 16:0.449776 17:0.40215 18:-0.407569 19:0.50203 20:0.278559 21:-0.401403 22:0.509525 23:0.213165 24:-0.345276 25:0.417294 26:0.477031 27:-0.19663 28:-0.0453161 29:0.152163 30:-0.018667 31:-0.0427942 32:0.0890204 33:-0.0316972 34:-0.0240669 35:0.0514072 36:-0.0321661 37:-0.0615806 38:-0.251575 39:0.0962019 40:-0.274679 41:-0.151309 42:0.217736 43:0.319795 44:-0.018277 45:-0.266481 46:-0.310665 47:-0.178244 48:0.233601 
0.7586519298784924 0.9410618829974929 1:-0.156463 2:0.437632 3:0.273294 4:-0.130109 5:0.363596 6:0.245027 7:-0.152757 8:0.504113 9:0.147841 10:-0.275081 11:0.868417 12:0.438165 13:-0.365929 14:0.91607 15:0.424438 16:0.443648 17:0.401882 18:-0.404335 19:0.49165 20:0.277791 21:-0.394367 22:0.490303 23:0.211109 24:-0.331009 25:0.405319 26:0.475716 27:-0.189344 28:-0.0562394 29:0.150287 30:-0.0104212 31:-0.0575278 32:0.0861124 33:-0.0202123 34:-0.0363142 35:0.0489393 36:-0.0231717 37:-0.0644468 38:-0.25183 39:0.0967944 40:-0.279519 41:-0.152199 42:0.220317 43:0.309082 44:-0.0173238 45:-0.258988 46:-0.321542 47:-0.180526 48:0.241613 
0.3054252439509279 0.5248666125767032 1:-0.156463 2:0.437632 3:0.275972 4:-0.128233 5:0.363847 6:0.245996 7:-0.150198 8:0.504292 9:0.148776 10:-0.280539 11:0.86793 12:0.445974 13:-0.363427 14:0.916114 15:0.424807 16:0.458107 17:0.403089 18:-0.411352 19:0.514258 20:0.279938 21:-0.40867 22:0.522121 23:0.214721 24:-0.352398 25:0.466481 26:0.484592 27:-0.232455 28:-0.0188054 29:0.157547 30:-0.0401346 31:-0.0178874 32:0.0943522 33:-0.051261 34:-0.00142955 35:0.0564011 36:-0.0492482 37:-0.0363531 38:-0.245413 39:0.0785784 40:-0.262362 41:-0.148215 42:0.2099 43:0.331261 44:-0.0153184 45:-0.273803 46:0.17486 47:-0.0289089 48:-0.175195 
0.1409453937192582 0 1:-0.156463 2:0.437632 3:0.235539 4:-0.126979 5:0.3651 6:0.200315 7:-0.155447 8:0.505221 9:0.102041 10:-0.284688 11:0.86865 12:0.413535 13:-0.381109 14:0.916334 15:0.401387 16:0.376078 17:0.399126 18:-0.431377 19:0.371475 20:0.267565 21:-0.372326 22:0.327923 23:0.1933 24:-0.276506 25:0.240897 26:0.454904 27:-0.143818 28:-0.149496 29:0.135735 30:0.0094809 31:-0.10841 32:0.0828349 33:-0.0431961 34:-0.0435972 35:0.0588244 36:-0.0878123 37:-0.112941 38:-0.253291 39:0.0724487 40:-0.335597 41:-0.158668 42:0.215952 43:-0.377632 44:-0.207683 45:0.256267 46:-0.343753 47:-0.169411 48:0.216634 
0.2879801267144673 0 1:-0.156463 2:0.437632 3:0.226115 4:-0.129067 5:0.364868 6:0.192167 7:-0.152482 8:0.506046 9:0.0870532 10:-0.285865 11:0.868777 12:0.406181 13:-0.40778 14:0.914342 15:0.415972 16:0.286096 17:0.385637 18:-0.370528 19:0.290465 20:0.255843 21:-0.320674 22:0.263762 23:0.183336 24:-0.242503 25:0.221128 26:0.452706 27:-0.149593 28:-0.138576 29:0.14052 30:-0.0169556 31:-0.10087 32:0.0875583 33:-0.0672915 34:-0.0459225 35:0.0614829 36:-0.103494 37:-0.0292365 38:-0.222195 39:-0.0111313 40:-0.222729 41:-0.115839 42:0.111601 43:-0.239098 44:-0.153968 45:0.13099 46:-0.403181 47:-0.187752 48:0.25598 
0 0.4946713044204495 1:-0.156463 2:0.437632 3:0.224728 4:-0.128572 5:0.364262 6:0.190126 7:-0.15107 8:0.504974 9:0.0838928 10:-0.279989 11:0.868465 12:0.399126 13:-0.373698 14:0.916119 15:0.384336 16:0.433091 17:0.403633 18:-0.509719 19:0.504715 20:0.282899 21:-0.517677 22:0.531805 23:0.221405 24:-0.477048 25:0.528975 26:0.501932 27:-0.400832 28:0.0593538 29:0.181259 30:-0.201138 31:0.0666206 32:0.122119 33:-0.221746 34:0.0722362 35:0.0838635 36:-0.211529 37:0.00637322 38:-0.222669 39:-0.0422733 40:-0.247073 41:-0.133657 42:0.129579 43:-0.303528 44:-0.187317 45:0.182031 46:-0.372685 47:-0.187208 48:0.228575 
0 1.120436171185566 1:-0.156463 2:0.437632 3:0.213571 4:-0.129287 5:0.36443 6:0.178634 7:-0.152907 8:0.505266 9:0.0713772 10:-0.28342 11:0.868543 12:0.392431 13:-0.375096 14:0.916494 15:0.37478 16:0.427845 17:0.405542 18:-0.531322 19:0.497495 20:0.284937 21:-0.536759 22:0.498034 23:0.220232 24:-0.473214 25:0.41163 26:0.487188 27:-0.331979 28:-0.0678975 29:0.157237 30:-0.103705 31:-0.0804662 32:0.0918862 33:-0.108768 34:-0.0462844 35:0.0594348 36:-0.126808 37:-0.0549781 38:-0.234132 39:-0.0114309 40:-0.250429 41:-0.130091 42:0.117531 43:-0.312172 44:-0.185204 45:0.175144 46:-0.437721 47:-0.203575 48:0.270656 
0.01398771124627986 0 1:-0.156463 2:0.437632 3:0.210308 4:-0.127618 5:0.364768 6:0.173301 7:-0.152969 8:0.505309 9:0.0672513 10:-0.283485 11:0.86857 12:0.389547 13:-0.375202 14:0.916531 15:0.371716 16:0.423501 17:0.405183 18:-0.535043 19:0.501056 20:0.28569 21:-0.547472 22:0.497559 23:0.220513 24:-0.480208 25:0.39794 26:0.485317 27:-0.328464 28:-0.0740845 29:0.156286 30:-0.103705 31:-0.090073 32:0.0901155 33:-0.10603 34:-0.0500522 35:0.0591456 36:-0.129594 37:-0.0587264 38:-0.234411 39:-0.0138938 40:-0.258091 41:-0.13171 42:0.119446 43:-0.299704 44:-0.18065 45:0.160846 46:-0.442193 47:-0.204365 48:0.270656 
0.3864816765093733 10.22256956968417 1:-0.156463 2:0.437632 3:0.205088 4:-0.126659 5:0.364654 6:0.166567 7:-0.152748 8:0.504926 9:0.0603388 10:-0.282464 11:0.868371 12:0.383822 13:-0.374668 14:0.916168 15:0.366189 16:0.431296 17:0.404 18:-0.554625 19:0.503452 20:0.283365 21:-0.561622 22:0.530956 23:0.222099 24:-0.520885 25:0.524136 26:0.502263 27:-0.442166 28:0.0594127 29:0.182331 30:-0.23539 31:0.075992 32:0.125774 33:-0.26621 34:0.0688666 35:0.085431 36:-0.245529 37:-0.000282114 38:-0.221237 39:-0.0699613 40:-0.247481 41:-0.13081 42:0.103896 43:-0.308289 44:-0.1857 45:0.161344 46:-0.372639 47:-0.184452 48:0.205767 
0.1532162774973947 0 1:-0.156463 2:0.437632 3:0.212617 4:-0.124581 5:0.365452 6:0.172646 7:-0.149585 8:0.505907 9:0.0669041 10:-0.281438 11:0.86884 12:0.389611 13:-0.36803 14:0.917212 15:0.367576 16:0.435433 17:0.407684 18:-0.5406 19:0.441389 20:0.278232 21:-0.488194 22:0.403648 23:0.206912 24:-0.393898 25:0.296727 26:0.467995 27:-0.241594 28:-0.126458 29:0.144205 30:-0.0515888 31:-0.106511 32:0.0861189 33:-0.0868927 34:-0.045999 35:0.0605122 36:-0.128861 37:-0.0525078 38:-0.232006 39:-0.0150366 40:-0.251612 41:-0.128914 42:0.11723 43:-0.294347 44:-0.177889 45:0.159349 46:-0.25215 47:-0.138595 48:0.112572 
0.9687785197691603 1.605880676424649 1:-0.156463 2:0.437632 3:0.200008 4:-0.160422 5:0.357849 6:0.196445 7:-0.226489 8:0.494754 9:0.125932 10:-0.361164 11:0.861563 12:0.456946 13:-0.495258 14:0.906923 15:0.468456 16:0.142297 17:0.363038 18:-0.299478 19:0.215922 20:0.245812 21:-0.313173 22:0.235899 23:0.181338 24:-0.277695 25:0.209888 26:0.454956 27:-0.200663 28:-0.125771 29:0.148905 30:-0.0741725 31:-0.0549985 32:0.107434 33:-0.156702 34:0.072746 35:0.105894 36:-0.258562 37:-0.128664 38:-0.247102 39:0.0253385 40:-0.318441 41:-0.142387 42:0.154925 43:-0.438705 44:-0.220017 45:0.261814 46:-0.525829 47:-0.22895 48:0.329465 
0.4951712861253917 3.629204545798332 1:-0.156463 2:0.437632 3:0.207045 4:-0.131028 5:0.36417 6:0.173301 7:-0.15514 8:0.505085 9:0.0651882 10:-0.285011 11:0.86848 12:0.388105 13:-0.378756 14:0.91632 15:0.371716 16:0.435256 17:0.407061 18:-0.553647 19:0.484881 20:0.283779 21:-0.540329 22:0.432264 23:0.211109 24:-0.431246 25:0.327535 26:0.473669 27:-0.279251 28:-0.11465 29:0.147436 30:-0.0721342 31:-0.108736 32:0.0861345 33:-0.0950775 34:-0.0506968 35:0.0596505 36:-0.135167 37:-0.0594313 38:-0.233839 39:-0.0188179 40:-0.284568 41:-0.138977 42:0.136675 43:-0.367965 44:-0.201103 45:0.212677 46:-0.44087 47:-0.203231 48:0.265753 
0.3115169457583126 0.9468507976210661 1:-0.156463 2:0.437632 3:0.21065 4:-0.129805 5:0.36451 6:0.175974 7:-0.152155 8:0.505695 9:0.0668948 10:-0.281946 11:0.868883 12:0.388336 13:-0.372273 14:0.917017 15:0.369443 16:0.385353 17:0.400941 18:-0.498962 19:0.376499 20:0.269493 21:-0.434007 22:0.324903 23:0.194986 24:-0.33038 25:0.237628 26:0.457749 27:-0.198505 28:-0.140045 29:0.141362 30:-0.0425354 31:-0.100354 32:0.0883197 33:-0.0960776 34:-0.046256 35:0.061313 36:-0.132336 37:-0.110042 38:-0.247901 39:0.0281941 40:-0.338 41:-0.155177 42:0.18494 43:-0.383388 44:-0.205742 45:0.229825 46:-0.339629 47:-0.167149 48:0.184292 
0.07984261198995558 2.433826071689574 1:-0.156463 2:0.437632 3:0.267465 4:-0.129444 5:0.363578 6:0.237934 7:-0.15535 8:0.503586 9:0.142901 10:-0.285118 11:0.867511 12:0.442809 13:-0.378776 14:0.914981 15:0.430215 16:0.419507 17:0.397447 18:-0.395834 19:0.485765 20:0.275558 21:-0.402424 22:0.49394 23:0.209954 24:-0.347375 25:0.418792 26:0.476528 27:-0.213623 28:-0.0558291 29:0.149881 30:-0.0209467 31:-0.0629158 32:0.0849972 33:-0.0259978 34:-0.0347164 35:0.0496238 36:-0.0355793 37:-0.0459629 38:-0.247093 39:0.0720276 40:-0.252043 41:-0.14498 42:0.190233 43:-0.299692 44:-0.196626 45:0.232391 46:-0.404018 47:-0.206901 48:0.304625 
0 10.07469363753354 1:-0.156463 2:0.437632 3:0.262448 4:-0.127736 5:0.363878 6:0.230635 7:-0.151089 8:0.504101 9:0.132298 10:-0.2852 11:0.867553 12:0.438357 13:-0.37891 14:0.915038 15:0.425477 16:0.419104 17:0.397755 18:-0.407358 19:0.485275 20:0.275898 21:-0.413499 22:0.480751 23:0.20881 24:-0.347375 25:0.399926 26:0.474493 27:-0.209978 28:-0.0712936 29:0.147554 30:-0.0154818 31:-0.0699047 32:0.0843761 33:-0.0288456 34:-0.0355482 35:0.0504062 36:-0.0442904 37:-0.0405215 38:-0.244684 39:0.0591775 40:-0.247914 41:-0.142942 42:0.180226 43:-0.289079 44:-0.192811 45:0.217417 46:-0.408867 47:-0.207294 48:0.30291 
0.2911572794191253 0 1:-0.156463 2:0.437632 3:0.28589 4:-0.1316 5:0.363195 6:0.260415 7:-0.158591 8:0.503176 9:0.169706 10:-0.287771 11:0.867307 12:0.462078 13:-0.384149 14:0.914625 15:0.452825 16:0.377146 17:0.392081 18:-0.312986 19:0.37073 20:0.26139 21:-0.256061 22:0.366674 23:0.192357 24:-0.195695 25:0.276967 26:0.453097 27:-0.0569137 28:-0.125646 29:0.133532 30:0.0752514 31:-0.0903048 32:0.0763437 33:0.032584 34:-0.0315395 35:0.0473596 36:-0.00369596 37:-0.0406066 38:-0.248775 39:0.0987199 40:-0.248628 41:-0.146388 42:0.211859 43:-0.292744 44:-0.196711 45:0.249766 46:-0.358185 47:-0.195264 48:0.287214 
0.5240942473551854 1.31566231991715 1:-0.156463 2:0.437632 3:0.265074 4:-0.124829 5:0.363901 6:0.230465 7:-0.141578 8:0.504349 9:0.126367 10:-0.289954 11:0.867012 12:0.445424 13:-0.421548 14:0.912592 15:0.465918 16:0.262513 17:0.380764 18:-0.256357 19:0.283885 20:0.254697 21:-0.225284 22:0.314465 23:0.188878 24:-0.197863 25:0.314914 26:0.461874 27:-0.13543 28:-0.0744643 29:0.146018 30:-0.00799647 31:-0.0267329 32:0.0913257 33:-0.0631935 34:0.0447098 35:0.0643772 36:-0.110948 37:0.0471865 38:-0.228689 39:-0.00735079 40:-0.172788 41:-0.12873 42:0.122557 43:-0.228816 44:-0.182213 45:0.17134 46:-0.344848 47:-0.193341 48:0.2518 
1.11081181152657 2.144502048825445 1:-0.156463 2:0.437632 3:0.332609 4:-0.128987 5:0.363543 6:0.308932 7:-0.156301 8:0.50325 9:0.227397 10:-0.285469 11:0.867391 12:0.502023 13:-0.373768 14:0.915283 15:0.488816 16:0.424032 17:0.397757 18:-0.245568 19:0.487002 20:0.275435 21:-0.253995 22:0.512844 23:0.211979 24:-0.215862 25:0.464676 26:0.48132 27:-0.100559 28:-0.151482 29:0.120413 30:0.180325 31:-0.16611 32:0.0490277 33:0.186887 34:-0.12994 35:0.0129048 36:0.172125 37:-0.164743 38:-0.29391 39:0.277807 40:-0.39388 41:-0.19942 42:0.391968 43:-0.443661 44:-0.252372 45:0.431876 46:-0.532767 47:-0.261919 48:0.489054 
0.4919623024987495 0 1:-0.156463 2:0.437632 3:0.277745 4:-0.125378 5:0.36341 6:0.244944 7:-0.147388 8:0.503219 9:0.148301 10:-0.279056 11:0.867169 12:0.446113 13:-0.370915 14:0.914438 15:0.433178 16:0.439648 17:0.394222 18:-0.390083 19:0.520309 20:0.272689 21:-0.410075 22:0.565816 23:0.209655 24:-0.386097 25:0.566924 26:0.485014 27:-0.309304 28:0.100447 29:0.167164 30:-0.146562 31:0.127694 32:0.110331 33:-0.180059 34:0.117935 35:0.0713437 36:-0.152405 37:0.0573496 38:-0.232358 39:0.00576283 40:-0.202097 41:-0.13932 42:0.163197 43:-0.244233 44:-0.190796 45:0.199832 46:-0.320637 47:-0.193087 48:0.246008 
0 0.2894444638718036 1:-0.156463 2:0.437632 3:0.27483 4:-0.127819 5:0.36336 6:0.244309 7:-0.15125 8:0.503237 9:0.14834 10:-0.282313 11:0.867199 12:0.446695 13:-0.366264 14:0.914875 15:0.426223 16:0.453204 17:0.396675 18:-0.409527 19:0.527584 20:0.274931 21:-0.423348 22:0.567004 23:0.21205 24:-0.393736 25:0.485864 26:0.479468 27:-0.250703 28:-0.0198415 29:0.152851 30:-0.041172 31:-0.0236458 32:0.0900104 33:-0.0481294 34:0.0186342 35:0.0574603 36:-0.0693011 37:0.019863 38:-0.237208 39:0.0311797 40:-0.200581 41:-0.137673 42:0.158101 43:-0.25372 44:-0.190944 45:0.203954 46:-0.338713 47:-0.195016 48:0.25792 
0 128 1:-0.156463 2:0.437632 3:0.27443 4:-0.127948 5:0.363377 6:0.244005 7:-0.151576 8:0.503263 9:0.148145 10:-0.282655 11:0.867216 12:0.446671 13:-0.364996 14:0.914988 15:0.424708 16:0.460126 17:0.397582 18:-0.416875 19:0.534033 20:0.275839 21:-0.4301 22:0.564543 23:0.212301 24:-0.39252 25:0.492465 26:0.48063 27:-0.256944 28:-0.0124605 29:0.154167 30:-0.0486467 31:-0.0093837 32:0.0924204 33:-0.0617981 34:0.0195831 35:0.0577606 36:-0.0709017 37:0.0204649 38:-0.236808 39:0.0300189 40:-0.202931 41:-0.137839 42:0.159484 43:-0.260937 44:-0.192114 45:0.209365 46:-0.34316 47:-0.195657 48:0.261218 
0 128 1:-0.156463 2:0.437632 3:0.272106 4:-0.129994 5:0.363225 6:0.243603 7:-0.150029 8:0.503511 9:0.143651 10:-0.278738 11:0.867494 12:0.440702 13:-0.369838 14:0.914908 15:0.426762 16:0.452312 17:0.397678 18:-0.41516 19:0.525584 20:0.275993 21:-0.427792 22:0.542098 23:0.211197 24:-0.378417 25:0.444418 26:0.476169 27:-0.223582 28:-0.0381305 29:0.150846 30:-0.0291195 31:-0.0400648 32:0.0878722 33:-0.0382253 34:0.021179 35:0.0586731 36:-0.0767046 37:0.0213369 38:-0.235663 39:0.0253997 40:-0.210417 41:-0.138482 42:0.162499 43:-0.265924 44:-0.192213 45:0.21054 46:-0.347978 47:-0.195744 48:0.262599 
0 123.1863508929373 1:-0.156463 2:0.437632 3:0.268955 4:-0.129881 5:0.363244 6:0.240028 7:-0.154187 8:0.503189 9:0.143675 10:-0.286153 11:0.867123 12:0.445177 13:-0.371165 14:0.914836 15:0.424892 16:0.449532 17:0.397336 18:-0.420061 19:0.523168 20:0.275665 21:-0.432839 22:0.552914 23:0.212145 24:-0.394905 25:0.484316 26:0.480842 27:-0.262987 28:-0.0179772 29:0.154222 30:-0.0531133 31:-0.0252332 32:0.0907822 33:-0.0574482 34:0.00286658 35:0.0559372 36:-0.0663033 37:0.0136693 38:-0.236757 39:0.026297 40:-0.20849 41:-0.137752 42:0.156757 43:-0.266371 44:-0.192009 45:0.206961 46:-0.348234 47:-0.195532 48:0.259163 
0 4.849098122456035 1:-0.156463 2:0.437632 3:0.271895 4:-0.130121 5:0.363233 6:0.243505 7:-0.152582 8:0.503361 9:0.145876 10:-0.279097 11:0.867516 12:0.440866 13:-0.366768 14:0.91511 15:0.42383 16:0.45912 17:0.398645 18:-0.421956 19:0.52352 20:0.276183 21:-0.426409 22:0.526697 23:0.210054 24:-0.365601 25:0.427685 26:0.474495 27:-0.210587 28:-0.046173 29:0.149711 30:-0.0221016 31:-0.048677 32:0.0864571 33:-0.030801 34:0.0119343 35:0.0571768 36:-0.068854 37:0.00537455 38:-0.238547 39:0.0379579 40:-0.217875 41:-0.1398 42:0.16829 43:-0.268313 44:-0.192412 45:0.212233 46:-0.350284 47:-0.195935 48:0.264306 
0 1.925983435048938 1:-0.156463 2:0.437632 3:0.186773 4:-0.121961 5:0.365026 6:0.141538 7:-0.143291 8:0.50549 9:0.0275974 10:-0.273326 11:0.868691 12:0.358248 13:-0.364403 14:0.91641 15:0.339338 16:0.462584 17:0.405501 18:-0.626975 19:0.545706 20:0.285537 21:-0.641891 22:0.581787 23:0.225157 24:-0.606329 25:0.494548 26:0.495031 27:-0.460508 28:-0.0187821 29:0.16571 30:-0.195471 31:-0.0245006 32:0.104411 33:-0.2086 34:-0.015188 35:0.0679625 36:-0.205045 37:-0.0199812 38:-0.22539 39:-0.0848659 40:-0.229046 41:-0.125959 42:0.0646316 43:-0.275645 44:-0.17742 45:0.111675 46:-0.349919 47:-0.179054 48:0.165316 
0.09708542647835194 0 1:-0.156463 2:0.437632 3:0.18017 4:-0.12392 5:0.364895 6:0.136351 7:-0.143777 8:0.505626 9:0.0196023 10:-0.276894 11:0.868603 12:0.355805 13:-0.363417 14:0.916616 15:0.33207 16:0.468588 17:0.406972 18:-0.648181 19:0.546887 20:0.286644 21:-0.658118 22:0.49696 23:0.216999 24:-0.548084 25:0.398056 26:0.484039 27:-0.397968 28:-0.0703228 29:0.157958 30:-0.159636 31:-0.0759711 32:0.0961555 33:-0.174007 34:-0.0222348 35:0.0679761 36:-0.2112 37:-0.0305927 38:-0.225968 39:-0.0874005 40:-0.232608 41:-0.12519 42:0.0587847 43:-0.281669 44:-0.177171 45:0.108344 46:-0.347282 47:-0.176598 48:0.155431 
0.2819726859411815 0 1:-0.156463 2:0.437632 3:0.173191 4:-0.123793 5:0.364918 6:0.128559 7:-0.143463 8:0.505671 9:0.0103424 10:-0.275041 11:0.86872 12:0.347669 13:-0.359273 14:0.916838 15:0.321632 16:0.482862 17:0.408431 18:-0.677925 19:0.55709 20:0.287671 21:-0.683369 22:0.520349 23:0.219826 24:-0.584114 25:0.409415 26:0.486128 27:-0.423194 28:-0.0628292 29:0.160009 30:-0.17867 31:-0.0712506 32:0.0980769 33:-0.191068 34:-0.0204733 35:0.0694561 36:-0.225922 37:-0.0188523 38:-0.222282 39:-0.108649 40:-0.220773 41:-0.12155 42:0.0399074 43:-0.265783 44:-0.172532 45:0.0865941 46:-0.341341 47:-0.174313 48:0.142314 
0.8171801389834635 1.042395132395511 1:-0.156463 2:0.437632 3:0.140552 4:-0.123294 5:0.365047 6:0.0922218 7:-0.140002 8:0.506077 9:-0.0349115 10:-0.272214 11:0.868953 12:0.315382 13:-0.362682 14:0.916784 15:0.29307 16:0.484805 17:0.409031 18:-0.757107 19:0.551813 20:0.287686 21:-0.753525 22:0.593422 23:0.228393 24:-0.721266 25:0.506981 26:0.500443 27:-0.576981 28:-0.0170435 29:0.170721 30:-0.27755 31:-0.0326093 32:0.109445 33:-0.285884 34:-0.0237756 35:0.0743773 36:-0.284476 37:-0.0177779 38:-0.216362 39:-0.16448 40:-0.226842 41:-0.118279 42:0.00161351 43:-0.275529 44:-0.170395 45:0.0537159 46:-0.347273 47:-0.171717 48:0.109495 
0.9856772963639775 0.560174195422632 1:-0.156463 2:0.437632 3:0.148873 4:-0.128818 5:0.364146 6:0.107153 7:-0.14924 8:0.504724 9:-0.0152023 10:-0.28183 11:0.868091 12:0.332398 13:-0.372255 14:0.915774 15:0.309634 16:0.44099 17:0.401811 18:-0.696867 19:0.526078 20:0.28122 21:-0.711139 22:0.562861 23:0.219864 24:-0.675998 25:0.573273 26:0.499883 27:-0.611228 28:0.101355 29:0.180909 30:-0.37179 31:0.168753 32:0.132272 33:-0.453283 34:0.236885 35:0.107505 36:-0.501357 37:0.238387 38:-0.181584 39:-0.35769 40:-0.0515674 41:-0.0935915 42:-0.130027 43:-0.166713 44:-0.156185 45:-0.0250023 46:-0.296605 47:-0.167324 48:0.0762814 
0.07487005784258001 0 1:-0.156463 2:0.437632 3:0.140538 4:-0.121678 5:0.365278 6:0.0905114 7:-0.140414 8:0.506132 9:-0.0345251 10:-0.272644 11:0.868984 12:0.315795 13:-0.35971 14:0.916991 15:0.290416 16:0.474178 17:0.408506 18:-0.747312 19:0.549359 20:0.287935 21:-0.751335 22:0.551448 23:0.224801 24:-0.68506 25:0.442713 26:0.4935 27:-0.525227 28:-0.0502112 29:0.165792 30:-0.247112 31:-0.0677848 32:0.10367 33:-0.254004 34:-0.0266157 35:0.0739503 36:-0.281967 37:-0.0275679 38:-0.218036 39:-0.156582 40:-0.234719 41:-0.11964 42:0.00800748 43:-0.275963 44:-0.170102 45:0.0540549 46:-0.34792 47:-0.171399 48:0.110027 
0 68.35703470979794 1:-0.156463 2:0.437632 3:0.271895 4:-0.130121 5:0.363233 6:0.243505 7:-0.152582 8:0.503361 9:0.145876 10:-0.279097 11:0.867516 12:0.440866 13:-0.368589 14:0.915023 15:0.425448 16:0.454855 17:0.398247 18:-0.418012 19:0.527715 20:0.276568 21:-0.430204 22:0.531015 23:0.210498 24:-0.369329 25:0.437013 26:0.475614 27:-0.218102 28:-0.043101 29:0.150207 30:-0.0249217 31:-0.0421833 32:0.0875817 33:-0.0366904 34:0.0220444 35:0.0590155 36:-0.0778745 37:0.0119638 38:-0.237218 39:0.0326273 40:-0.210213 41:-0.138132 42:0.162054 43:-0.268313 44:-0.192412 45:0.212233 46:-0.350284 47:-0.195935 48:0.264306 
0 128 1:-0.156463 2:0.437632 3:0.271895 4:-0.128347 5:0.363437 6:0.241642 7:-0.150365 8:0.50354 9:0.143709 10:-0.279097 11:0.867516 12:0.440866 13:-0.368589 14:0.915023 15:0.425448 16:0.454855 17:0.398247 18:-0.418012 19:0.53191 20:0.276953 21:-0.433999 22:0.531015 23:0.210498 24:-0.369329 25:0.437013 26:0.475614 27:-0.218102 28:-0.043101 29:0.150207 30:-0.0249217 31:-0.0421833 32:0.0875817 33:-0.0366904 34:0.0186744 35:0.0584026 36:-0.074867 37:0.0119638 38:-0.237218 39:0.0326273 40:-0.207659 41:-0.137576 42:0.159975 43:-0.263559 44:-0.191337 45:0.208338 46:-0.350284 47:-0.195935 48:0.264306 
0 128 1:-0.156463 2:0.437632 3:0.272106 4:-0.128216 5:0.363422 6:0.241736 7:-0.150029 8:0.503511 9:0.143651 10:-0.281823 11:0.867338 12:0.443749 13:-0.368011 14:0.914992 15:0.425139 16:0.452312 17:0.397678 18:-0.41516 19:0.525584 20:0.275993 21:-0.427792 22:0.563756 23:0.213366 24:-0.397115 25:0.481855 26:0.480547 27:-0.253747 28:-0.0196337 29:0.153761 30:-0.0461062 31:-0.0237702 32:0.0906272 33:-0.0530047 34:0.00764567 35:0.0562687 36:-0.0646305 37:0.0213369 38:-0.235663 39:0.0253997 40:-0.207853 41:-0.137935 42:0.160412 43:-0.25876 44:-0.190628 45:0.204672 46:-0.347978 47:-0.195744 48:0.262599 
0 81.77857933849958 1:-0.156463 2:0.437632 3:0.271895 4:-0.130121 5:0.363233 6:0.243505 7:-0.150365 8:0.50354 9:0.143709 10:-0.279097 11:0.867516 12:0.440866 13:-0.366768 14:0.91511 15:0.42383 16:0.450591 17:0.397849 18:-0.41407 19:0.527715 20:0.276568 21:-0.430204 22:0.535333 23:0.210942 24:-0.373056 25:0.437013 26:0.475614 27:-0.218102 28:-0.0400291 29:0.150704 30:-0.0277428 31:-0.0421833 32:0.0875817 33:-0.0366904 34:0.0186744 35:0.0584026 36:-0.074867 37:0.0152587 38:-0.236553 39:0.0299621 40:-0.205105 41:-0.13702 42:0.157896 43:-0.263559 44:-0.191337 45:0.208338 46:-0.350284 47:-0.195935 48:0.264306 
0 128 1:-0.156463 2:0.437632 3:0.272106 4:-0.126438 5:0.36362 6:0.239869 7:-0.150029 8:0.503511 9:0.143651 10:-0.281823 11:0.867338 12:0.443749 13:-0.368011 14:0.914992 15:0.425139 16:0.456589 17:0.398065 18:-0.419115 19:0.525584 20:0.275993 21:-0.427792 22:0.559424 23:0.212932 24:-0.393376 25:0.481855 26:0.480547 27:-0.253747 28:-0.0196337 29:0.153761 30:-0.0461062 31:-0.0237702 32:0.0906272 33:-0.0530047 34:0.00764567 35:0.0562687 36:-0.0646305 37:0.0213369 38:-0.235663 39:0.0253997 40:-0.210417 41:-0.138482 42:0.162499 43:-0.261148 44:-0.191156 45:0.206628 46:-0.345856 47:-0.195238 48:0.260804 
0 128 1:-0.156463 2:0.437632 3:0.272106 4:-0.128216 5:0.363422 6:0.241736 7:-0.150029 8:0.503511 9:0.143651 10:-0.281823 11:0.867338 12:0.443749 13:-0.366185 14:0.915076 15:0.423516 16:0.456589 17:0.398065 18:-0.419115 19:0.525584 20:0.275993 21:-0.427792 22:0.568088 23:0.2138 24:-0.400855 25:0.486534 26:0.481094 27:-0.257517 28:-0.0196337 29:0.153761 30:-0.0461062 31:-0.0205112 32:0.0911784 33:-0.0559611 34:0.0110291 35:0.0568697 36:-0.0676485 37:0.0213369 38:-0.235663 39:0.0253997 40:-0.205288 41:-0.137389 42:0.158324 43:-0.25876 44:-0.190628 45:0.204672 46:-0.345856 47:-0.195238 48:0.260804 
0 33.55175269756613 1:-0.156463 2:0.437632 3:0.271895 4:-0.126573 5:0.363642 6:0.239779 7:-0.150365 8:0.50354 9:0.143709 10:-0.279097 11:0.867516 12:0.440866 13:-0.366768 14:0.91511 15:0.42383 16:0.454855 17:0.398247 18:-0.418012 19:0.53191 20:0.276953 21:-0.433999 22:0.535333 23:0.210942 24:-0.373056 25:0.437013 26:0.475614 27:-0.218102 28:-0.0400291 29:0.150704 30:-0.0277428 31:-0.0421833 32:0.0875817 33:-0.0366904 34:0.0220444 35:0.0590155 36:-0.0778745 37:0.0152587 38:-0.236553 39:0.0299621 40:-0.205105 41:-0.13702 42:0.157896 43:-0.263559 44:-0.191337 45:0.208338 46:-0.350284 47:-0.195935 48:0.264306 
