svm_type c_svc
kernel_type rbf
gamma 2
nr_class 3
total_sv 1321
rho 0.143104 1.59873 0.638356
label 1 2 -1
nr_sv 475 165 681
SV
0 32 1:-0.156463 2:0.437632 3:0.246195 4:-0.126969 5:0.36389 6:0.211996 7:-0.151363 8:0.503935 9:0.111716 10:-0.278637 11:0.867855 12:0.417188 13:-0.370322 14:0.915371 15:0.402113 16:0.563443 17:0.399329 18:-0.683878 19:0.586297 20:0.277871 21:-0.693077 22:0.577048 23:0.215352 24:-0.586855 25:0.556673 26:0.589561 27:-0.453862 28:0.108449 29:0.538206 30:-0.13661 31:0.0808315 32:0.481146 33:-0.0930067 34:0.0788893 35:0.544011 36:-0.0158835 37:0.104926 38:0.471333 39:-0.0735522 40:-0.126439 41:-0.346249 42:0.146213 43:-0.0667325 44:-0.49212 45:0.0568577 46:-0.0113134 47:-0.473448 48:-0.0480473 
0 15.81777118418052 1:-0.156463 2:0.437632 3:0.246231 4:-0.128872 5:0.363685 6:0.214034 7:-0.151713 8:0.503961 9:0.112105 10:-0.279016 11:0.867876 12:0.417595 13:-0.370925 14:0.915399 15:0.402684 16:0.56151 17:0.399472 18:-0.681888 19:0.588411 20:0.278445 21:-0.695075 22:0.543862 23:0.212221 24:-0.55583 25:0.523943 26:0.585758 27:-0.426025 28:0.0844679 29:0.534552 30:-0.109427 31:0.056999 32:0.476779 33:-0.0666799 34:0.0839083 35:0.545425 36:-0.0213349 37:0.109513 38:0.473408 39:-0.0784747 40:-0.126359 41:-0.34566 42:0.146205 43:-0.0669987 44:-0.491372 45:0.0571775 46:-0.00536758 47:-0.470317 48:-0.0535764 
0 32 1:-0.156463 2:0.437632 3:0.244497 4:-0.130509 5:0.363468 6:0.21385 7:-0.15359 8:0.503767 9:0.111716 10:-0.280191 11:0.867784 12:0.417188 13:-0.37217 14:0.915299 15:0.402113 16:0.563319 17:0.399434 18:-0.688379 19:0.58178 20:0.277582 21:-0.693077 22:0.572492 23:0.215034 24:-0.586855 25:0.556436 26:0.589778 27:-0.458059 28:0.108213 29:0.538462 30:-0.141404 31:0.0763737 32:0.480668 33:-0.0930067 34:0.0744799 35:0.543472 36:-0.0158835 37:0.100522 38:0.47059 39:-0.0735522 40:-0.126724 41:-0.345812 42:0.143252 43:-0.0702663 44:-0.492702 45:0.0568577 46:-0.0116839 47:-0.472887 48:-0.0511602 
0 32 1:-0.156463 2:0.437632 3:0.26163 4:-0.128032 5:0.363924 6:0.230049 7:-0.151836 8:0.504175 9:0.131979 10:-0.284473 11:0.867692 12:0.436899 13:-0.373081 14:0.915529 15:0.419505 16:0.575819 17:0.402528 18:-0.653965 19:0.599256 20:0.281458 21:-0.665258 22:0.591281 23:0.219947 24:-0.561516 25:0.672815 26:0.609108 27:-0.512327 28:0.223502 29:0.561054 30:-0.220503 31:0.181096 32:0.503016 33:-0.158731 34:0.151586 35:0.562242 36:-0.0519814 37:0.127003 38:0.479319 39:-0.0538756 40:-0.117981 41:-0.342373 42:0.167548 43:-0.0667433 44:-0.489833 45:0.087032 46:-0.00757619 47:-0.468421 48:-0.0200826 
0 32 1:-0.156463 2:0.437632 3:0.267707 4:-0.126571 5:0.3642 6:0.235183 7:-0.152479 8:0.504156 9:0.140404 10:-0.282172 11:0.867891 12:0.440118 13:-0.367174 14:0.915978 15:0.420137 16:0.585466 17:0.404116 18:-0.646859 19:0.607638 20:0.282979 21:-0.657552 22:0.590487 23:0.220528 24:-0.545575 25:0.580644 26:0.595535 27:-0.418454 28:0.123958 29:0.541807 30:-0.0899977 31:0.0989767 32:0.484277 33:-0.0508185 34:0.090617 35:0.545459 36:0.032992 37:0.116979 38:0.475043 39:-0.0256215 40:-0.123187 41:-0.344354 42:0.184073 43:-0.0635149 44:-0.488316 45:0.0958782 46:-0.00181869 47:-0.465499 48:-0.0131118 
0 32 1:-0.156463 2:0.437632 3:0.271013 4:-0.129982 5:0.363601 6:0.242392 7:-0.152423 8:0.504112 9:0.14459 10:-0.282111 11:0.867863 12:0.443046 13:-0.367077 14:0.91594 15:0.42325 16:0.576906 17:0.402873 18:-0.62948 19:0.603801 20:0.282259 21:-0.645047 22:0.582514 23:0.219111 24:-0.529874 25:0.571733 26:0.593604 27:-0.402336 28:0.12048 29:0.540489 30:-0.0762166 31:0.0956346 32:0.482732 33:-0.0375901 34:0.0835058 35:0.54253 36:0.0503711 37:0.113919 38:0.472373 39:-0.0128743 40:-0.131366 41:-0.348525 42:0.198151 43:-0.0688087 44:-0.49189 45:0.10731 46:-0.0103032 47:-0.470516 48:0.00162795 
0 32 1:-0.156463 2:0.437632 3:0.272666 4:-0.131688 5:0.363302 6:0.245996 7:-0.154535 8:0.503844 9:0.148776 10:-0.280599 11:0.867957 12:0.443046 13:-0.368779 14:0.915807 15:0.426363 16:0.563748 17:0.401212 18:-0.612101 19:0.591355 20:0.280658 21:-0.628375 22:0.570106 23:0.21727 24:-0.514172 25:0.562524 26:0.591881 27:-0.390248 28:0.10857 29:0.537772 30:-0.0578433 31:0.0919597 32:0.481489 33:-0.0287706 34:0.0721011 35:0.538882 36:0.0677502 37:0.102692 38:0.46716 39:0.00412091 40:-0.139893 41:-0.352276 42:0.209414 43:-0.0775439 44:-0.49624 45:0.118741 46:-0.0192379 47:-0.474992 48:0.0134206 
0 32 1:-0.156463 2:0.437632 3:0.267707 4:-0.126571 5:0.3642 6:0.235183 7:-0.150339 8:0.504402 9:0.138311 10:-0.277724 11:0.868215 12:0.435726 13:-0.368925 14:0.915863 15:0.421694 16:0.572148 17:0.402556 18:-0.633825 19:0.599216 20:0.281986 21:-0.649216 22:0.56101 23:0.216566 24:-0.518097 25:0.547368 26:0.590241 27:-0.390248 28:0.0995463 29:0.536867 30:-0.0624362 31:0.0749306 32:0.478638 33:-0.0243617 34:0.0709942 35:0.540003 36:0.0547166 37:0.101464 38:0.468841 39:-0.00862623 40:-0.140938 41:-0.351015 42:0.200967 43:-0.0817788 44:-0.496002 45:0.113025 46:-0.0205874 47:-0.473376 48:0.0045761 
0 32 1:-0.156463 2:0.437632 3:0.265472 4:-0.128155 5:0.363913 6:0.234393 7:-0.152144 8:0.504155 9:0.137209 10:-0.283303 11:0.867783 12:0.439215 13:-0.370091 14:0.915739 15:0.420566 16:0.569604 17:0.401983 18:-0.637421 19:0.597221 20:0.28142 21:-0.653127 22:0.580429 23:0.218773 24:-0.54179 25:0.574156 26:0.594155 27:-0.418745 28:0.118468 29:0.540529 30:-0.0904614 31:0.0936925 32:0.482998 33:-0.0514627 34:0.0737992 35:0.540881 36:0.0451844 37:0.100725 38:0.468512 39:-0.0141678 40:-0.14422 41:-0.352327 42:0.199835 43:-0.0848169 44:-0.497563 45:0.11151 46:-0.0264762 47:-0.476327 48:0.00556717 
0 32 1:-0.156463 2:0.437632 3:0.266054 4:-0.130015 5:0.363642 6:0.236985 7:-0.150367 8:0.504424 9:0.136218 10:-0.276271 11:0.868337 12:0.432798 13:-0.368974 14:0.915882 15:0.420137 16:0.576428 17:0.403177 18:-0.642515 19:0.594818 20:0.2816 21:-0.649216 22:0.552363 23:0.215576 24:-0.514172 25:0.537563 26:0.588938 27:-0.386219 28:0.0911134 29:0.535468 30:-0.0578433 31:0.0705895 32:0.478001 33:-0.0243617 34:0.062776 35:0.538193 36:0.0590606 37:0.0932976 38:0.466299 39:-0.0043767 40:-0.147202 41:-0.352814 42:0.203782 43:-0.0852198 44:-0.496777 45:0.113025 46:-0.0272933 47:-0.475462 48:0.00752426 
0 32 1:-0.156463 2:0.437632 3:0.272666 4:-0.128255 5:0.363874 6:0.242392 7:-0.150254 8:0.504336 9:0.14459 10:-0.276151 11:0.868281 12:0.438654 13:-0.367028 14:0.915922 15:0.424807 16:0.577066 17:0.402772 18:-0.625136 19:0.603988 20:0.282148 21:-0.64088 22:0.570106 23:0.21727 24:-0.514172 25:0.55777 26:0.591125 27:-0.386219 28:0.104501 29:0.536948 30:-0.0532488 31:0.0839441 32:0.47961 33:-0.0199512 34:0.0681766 35:0.53779 36:0.0720957 37:0.0988141 38:0.46561 39:0.00837045 40:-0.14581 41:-0.354496 42:0.215045 43:-0.0866755 44:-0.500083 45:0.127314 46:-0.025494 47:-0.477618 48:0.0193169 
0 32 1:-0.156463 2:0.437632 3:0.277625 4:-0.129938 5:0.363548 6:0.249601 7:-0.15017 8:0.504271 9:0.150869 10:-0.277543 11:0.868132 12:0.44451 13:-0.368632 14:0.915751 15:0.431033 16:0.577544 17:0.402467 18:-0.612101 19:0.596126 20:0.28082 21:-0.620039 22:0.57499 23:0.217408 24:-0.506321 25:0.568172 26:0.592009 27:-0.382189 28:0.117594 29:0.538676 30:-0.0532488 31:0.0929582 32:0.480581 33:-0.0155422 34:0.0771322 35:0.538853 36:0.0764397 37:0.10392 38:0.465481 39:0.0168681 40:-0.141807 41:-0.354647 42:0.220677 43:-0.082441 44:-0.500321 45:0.13303 46:-0.0210165 47:-0.477924 48:0.0252132 
0 32 1:-0.156463 2:0.437632 3:0.279278 4:-0.126495 5:0.364106 6:0.247798 7:-0.148002 8:0.504495 9:0.150869 10:-0.274548 11:0.868334 12:0.443046 13:-0.366832 14:0.915847 15:0.431033 16:0.577703 17:0.402366 18:-0.607756 19:0.604735 20:0.281701 21:-0.624207 22:0.592058 23:0.21953 24:-0.518097 25:0.577977 26:0.593312 27:-0.386219 28:0.121957 29:0.539252 30:-0.0532488 31:0.101307 32:0.482158 33:-0.0199512 34:0.0775016 35:0.538479 36:0.0807852 37:0.108208 38:0.466471 39:0.0168681 40:-0.138501 41:-0.353958 42:0.220677 43:-0.0820438 44:-0.500827 45:0.135887 46:-0.0143103 47:-0.475835 48:0.022265 
0 32 1:-0.156463 2:0.437632 3:0.274319 4:-0.126527 5:0.364146 6:0.242392 7:-0.150226 8:0.504314 9:0.146683 10:-0.277603 11:0.86816 12:0.441582 13:-0.365228 14:0.916018 15:0.424807 16:0.577225 17:0.40267 18:-0.620791 19:0.595752 20:0.281043 21:-0.628375 22:0.578752 23:0.218259 24:-0.518097 25:0.567575 26:0.592428 27:-0.390248 28:0.117003 29:0.539171 30:-0.0624362 31:0.0922925 32:0.481186 33:-0.0243617 34:0.0724701 35:0.538508 36:0.0720957 37:0.0992233 38:0.46505 39:0.01262 40:-0.145462 41:-0.354916 42:0.217861 43:-0.0832349 44:-0.499308 45:0.127314 46:-0.0250442 47:-0.478158 48:0.022265 
0 32 1:-0.156463 2:0.437632 3:0.272666 4:-0.126538 5:0.36416 6:0.240589 7:-0.150254 8:0.504336 9:0.14459 10:-0.277634 11:0.868173 12:0.440118 13:-0.367028 14:0.915922 15:0.424807 16:0.577066 17:0.402772 18:-0.625136 19:0.599777 20:0.281651 21:-0.636711 22:0.578528 23:0.218402 24:-0.522023 25:0.562524 26:0.591881 27:-0.390248 28:0.112639 29:0.538595 30:-0.0624362 31:0.0919597 32:0.481489 33:-0.0287706 34:0.0721011 35:0.538882 36:0.0677502 37:0.0988141 38:0.46561 39:0.00837045 40:-0.14581 41:-0.354496 42:0.215045 43:-0.0866755 44:-0.500083 45:0.127314 46:-0.025494 47:-0.477618 48:0.0193169 
0 10.14357041630412 1:-0.156463 2:0.437632 3:0.279885 4:-0.126643 5:0.364127 6:0.24862 7:-0.148376 8:0.504529 9:0.152013 10:-0.274958 11:0.868362 12:0.443999 13:-0.367474 14:0.915879 15:0.432191 16:0.575632 17:0.402538 18:-0.604077 19:0.602318 20:0.281898 21:-0.620217 22:0.568267 23:0.216876 24:-0.494402 25:0.55575 26:0.590323 27:-0.365806 28:0.110941 29:0.537469 30:-0.039002 31:0.0783148 32:0.477115 33:0.0070981 34:0.0704608 35:0.536881 36:0.0903247 37:0.0969638 38:0.462704 39:0.0309116 40:-0.141466 41:-0.354417 42:0.224653 43:-0.0794002 44:-0.498713 45:0.134592 46:-0.0182705 47:-0.47622 48:0.0272349 
0 32 1:-0.156463 2:0.437632 3:0.279885 4:-0.126643 5:0.364127 6:0.24862 7:-0.148376 8:0.504529 9:0.152013 10:-0.277912 11:0.868141 12:0.446917 13:-0.36573 14:0.915996 15:0.43064 16:0.580053 17:0.403068 18:-0.608405 19:0.602318 20:0.281898 21:-0.620217 22:0.576652 23:0.218028 24:-0.502218 25:0.565213 26:0.59186 27:-0.373828 28:0.11499 29:0.538305 30:-0.0435736 31:0.0902784 32:0.479978 33:-0.00606382 34:0.0704608 35:0.536881 36:0.0903247 37:0.104679 38:0.465849 39:0.0224605 40:-0.138524 41:-0.353292 42:0.221854 43:-0.0794002 44:-0.498713 45:0.134592 46:-0.0151613 47:-0.474892 48:0.0243045 
0 32 1:-0.156463 2:0.437632 3:0.276589 4:-0.126665 5:0.364154 6:0.245027 7:-0.150566 8:0.504321 9:0.149927 10:-0.277974 11:0.868169 12:0.443999 13:-0.367574 14:0.915916 15:0.429089 16:0.570885 17:0.40221 18:-0.608405 19:0.597743 20:0.281614 21:-0.624368 22:0.572001 23:0.217736 24:-0.506126 25:0.564605 26:0.592278 27:-0.38185 28:0.114387 29:0.538798 30:-0.0527168 31:0.0856123 32:0.479627 33:-0.0104521 34:0.0736134 35:0.538733 36:0.0773573 37:0.0999879 38:0.465392 39:0.0182342 40:-0.136291 41:-0.351329 42:0.213453 43:-0.0771821 44:-0.496407 45:0.126069 46:-0.0160761 47:-0.473819 48:0.0184437 
0 32 1:-0.156463 2:0.437632 3:0.274941 4:-0.128387 5:0.363875 6:0.245027 7:-0.152728 8:0.504091 9:0.149927 10:-0.278005 11:0.868182 12:0.442541 13:-0.367624 14:0.915934 15:0.427539 16:0.570721 17:0.402311 18:-0.612732 19:0.597552 20:0.281725 21:-0.628518 22:0.575965 23:0.218454 24:-0.513943 25:0.564301 26:0.592487 27:-0.385861 28:0.118135 29:0.53988 30:-0.06186 31:0.0892607 32:0.480882 33:-0.0192272 34:0.0732372 35:0.539105 36:0.0730354 37:0.107286 38:0.469095 39:0.00555535 40:-0.133703 41:-0.349785 42:0.207854 43:-0.0745599 44:-0.494605 45:0.120386 46:-0.0103153 47:-0.470623 48:0.00965348 
0 32 1:-0.156463 2:0.437632 3:0.273294 4:-0.13182 5:0.363303 6:0.246823 7:-0.157022 8:0.503609 9:0.152013 10:-0.28099 11:0.867976 12:0.443999 13:-0.369418 14:0.915836 15:0.427539 16:0.570559 17:0.402412 18:-0.617059 19:0.597362 20:0.281837 21:-0.632669 22:0.584121 23:0.219748 24:-0.525667 25:0.578193 26:0.595002 27:-0.401905 28:0.125933 29:0.5418 30:-0.0755748 31:0.0968969 32:0.483092 33:-0.0323906 34:0.0806698 35:0.541692 36:0.060068 37:0.110727 38:0.471225 39:-0.00289721 40:-0.134058 41:-0.349367 42:0.205054 43:-0.0719373 44:-0.492803 45:0.114704 46:-0.013882 47:-0.471416 48:0.00965348 
0 32 1:-0.156463 2:0.437632 3:0.273987 4:-0.130247 5:0.363603 6:0.245933 7:-0.15312 8:0.504135 9:0.149086 10:-0.275496 11:0.868443 12:0.439201 13:-0.368323 14:0.915983 15:0.427236 16:0.577289 17:0.403647 18:-0.621758 19:0.603286 20:0.283046 21:-0.636707 22:0.568759 23:0.218197 24:-0.509613 25:0.54658 26:0.590399 27:-0.373312 28:0.102801 29:0.537453 30:-0.0473921 31:0.0779482 32:0.478929 33:-0.00953899 34:0.0852339 35:0.54346 36:0.0570092 37:0.107126 38:0.470615 39:0.00301784 40:-0.128322 41:-0.346385 42:0.200915 43:-0.0664391 44:-0.489287 45:0.110896 46:-0.0148235 47:-0.470454 48:0.0119538 
0 32 1:-0.156463 2:0.437632 3:0.2822 4:-0.12678 5:0.364135 6:0.251304 7:-0.152972 8:0.504025 9:0.159477 10:-0.278282 11:0.86815 12:0.449373 13:-0.364592 14:0.916129 15:0.43187 16:0.582524 17:0.403684 18:-0.60452 19:0.608435 20:0.283007 21:-0.620176 22:0.590796 23:0.220418 24:-0.509613 25:0.590517 26:0.596393 27:-0.389281 28:0.136571 29:0.543023 30:-0.0610399 31:0.107449 32:0.484207 33:-0.0182698 34:0.0987982 35:0.544978 36:0.0656076 37:0.124593 38:0.474217 39:0.00722086 40:-0.120669 41:-0.346188 42:0.209267 43:-0.0583684 44:-0.489167 45:0.119369 46:-0.000136977 47:-0.467742 48:0.0148665 
0 32 1:-0.156463 2:0.437632 3:0.275629 4:-0.130236 5:0.36359 6:0.247723 7:-0.155215 8:0.503856 9:0.153242 10:-0.278408 11:0.868205 12:0.44356 13:-0.363059 14:0.916323 15:0.424147 16:0.581859 17:0.404086 18:-0.621758 19:0.603481 20:0.282935 21:-0.632575 22:0.589862 23:0.220984 24:-0.525176 25:0.579858 26:0.595662 27:-0.397265 28:0.127284 29:0.542305 30:-0.0701389 31:0.0981312 32:0.483471 33:-0.0270006 34:0.0933837 35:0.545336 36:0.0527093 37:0.115223 38:0.473249 39:-0.00118519 40:-0.125036 41:-0.345661 42:0.200915 43:-0.0630198 44:-0.488474 45:0.110896 46:-0.00508756 47:-0.466952 48:0.00612947 
0 32 1:-0.156463 2:0.437632 3:0.272344 4:-0.126849 5:0.364214 6:0.240562 7:-0.148898 8:0.504671 9:0.142851 10:-0.275527 11:0.868457 12:0.437747 13:-0.364898 14:0.916241 15:0.422603 16:0.58593 17:0.404828 18:-0.634687 19:0.607267 20:0.283672 21:-0.644973 22:0.585221 23:0.220681 24:-0.529067 25:0.579239 26:0.596078 27:-0.40525 28:0.12667 29:0.542796 30:-0.0792379 31:0.0934729 32:0.483103 33:-0.0313652 34:0.100386 35:0.548324 36:0.0355126 37:0.114375 38:0.474359 39:-0.00959124 40:-0.116982 41:-0.341407 42:0.186995 43:-0.0608328 44:-0.486155 45:0.102423 46:-0.00601812 47:-0.465883 48:0.000305143 
0 32 1:-0.156463 2:0.437632 3:0.269059 4:-0.126872 5:0.364241 6:0.236982 7:-0.153208 8:0.5042 9:0.142851 10:-0.282948 11:0.867922 12:0.442107 13:-0.365 14:0.916278 15:0.419514 16:0.576791 17:0.403949 18:-0.634687 19:0.602702 20:0.283378 21:-0.649105 22:0.584753 23:0.220965 24:-0.536848 25:0.583328 26:0.597275 27:-0.417227 28:0.126056 29:0.543286 30:-0.0883369 31:0.0967493 32:0.484672 33:-0.0444621 34:0.0918529 35:0.546818 36:0.0355126 37:0.117363 38:0.477064 39:-0.0222003 40:-0.126478 41:-0.343994 42:0.189779 43:-0.0676713 44:-0.487782 45:0.102423 46:-0.00694827 47:-0.464815 48:-0.00551918 
0.6317777022080205 0 1:-0.156463 2:0.437632 3:0.342975 4:-0.126356 5:0.363643 6:0.317543 7:-0.149758 8:0.503475 9:0.234296 10:-0.281532 11:0.867305 12:0.507502 13:-0.374869 14:0.914608 15:0.499828 16:0.55345 17:0.39564 18:-0.410591 19:0.569712 20:0.273248 21:-0.421807 22:0.515967 23:0.203468 24:-0.287845 25:0.531344 26:0.576976 27:-0.181686 28:0.119725 29:0.527997 30:0.139134 31:0.112299 32:0.471161 33:0.151981 34:0.132378 35:0.536888 36:0.20319 37:0.155639 38:0.460051 39:0.145919 40:-0.0927037 41:-0.355907 42:0.298352 43:-0.0311338 44:-0.502475 45:0.212573 46:0.0139846 47:-0.488854 48:0.125532 
0.5634554691118788 32 1:-0.156463 2:0.437632 3:0.204123 4:-0.125106 5:0.364967 6:0.163877 7:-0.146717 8:0.505692 9:0.0532044 10:-0.276952 11:0.868823 12:0.377507 13:-0.366585 14:0.91677 15:0.35807 16:0.58166 17:0.407789 18:-0.816257 19:0.615822 20:0.288487 21:-0.833091 22:0.614587 23:0.229629 24:-0.727081 25:0.706598 26:0.624246 27:-0.689933 28:0.312134 29:0.590214 30:-0.491986 31:0.367555 32:0.559929 33:-0.530033 34:0.399633 35:0.647224 36:-0.491951 37:0.432879 38:0.625359 39:-0.552394 40:0.128704 41:-0.231605 42:-0.176714 43:0.118114 44:-0.389 45:-0.198904 46:0.0987688 47:-0.397974 48:-0.237614 
0.7115820726418944 1.630490687994255 1:-0.156463 2:0.437632 3:0.19109 4:-0.123462 5:0.366041 6:0.147851 7:-0.140544 8:0.507731 9:0.0304485 10:-0.272796 11:0.869954 12:0.361626 13:-0.358491 14:0.918472 15:0.338261 16:0.605612 17:0.417178 18:-0.875187 19:0.653463 20:0.30085 21:-0.90467 22:0.646972 23:0.244082 24:-0.78987 25:0.736618 26:0.644201 27:-0.749142 28:0.31269 29:0.607794 30:-0.531461 31:0.181003 32:0.531645 33:-0.362429 34:0.143881 35:0.593177 36:-0.246288 37:0.115346 38:0.522022 39:-0.241565 40:0.967651 41:0.168412 42:-1 43:0.906617 44:0.0321337 45:-0.964654 46:0.841753 47:-0.00315781 48:-0.964421 
0.4244184976575928 8.654634406064236 1:-0.156463 2:0.437632 3:0.200788 4:-0.125469 5:0.36506 6:0.1606 7:-0.145491 8:0.506083 9:0.0477265 10:-0.276436 11:0.869022 12:0.373983 13:-0.366382 14:0.917006 15:0.354661 16:0.589921 17:0.410038 18:-0.833425 19:0.614125 20:0.289761 21:-0.840195 22:0.615966 23:0.231756 24:-0.73671 25:0.711499 26:0.628025 27:-0.702728 28:0.331331 29:0.597807 30:-0.5236 31:0.369091 32:0.565057 33:-0.541361 34:0.403796 35:0.654416 36:-0.506151 37:0.435715 38:0.635732 39:-0.564981 40:0.0651041 41:-0.248806 42:-0.122534 43:0.0343669 44:-0.417413 45:-0.126797 46:0.0281709 47:-0.421215 48:-0.177884 
0.3990400750587685 0.6862060327401657 1:-0.156463 2:0.437632 3:0.199131 4:-0.128399 5:0.364961 6:0.161858 7:-0.142454 8:0.507335 9:0.0426311 10:-0.274055 11:0.869761 12:0.370135 13:-0.359898 14:0.918249 15:0.347294 16:0.59797 17:0.41549 18:-0.845813 19:0.650492 20:0.299742 21:-0.880554 22:0.644222 23:0.242748 24:-0.767194 25:0.729205 26:0.641476 27:-0.722029 28:0.330014 29:0.610308 30:-0.527053 31:0.255873 32:0.550194 33:-0.421577 34:0.161012 35:0.596246 36:-0.242133 37:0.128798 38:0.524493 39:-0.233451 40:0.591793 41:0.00171169 42:-0.626965 43:0.961005 44:0.0551275 45:-1 46:0.879949 47:0.011564 48:-0.984018 
0.09244246787997 0.5812406119688198 1:-0.156463 2:0.437632 3:0.218056 4:-0.12713 5:0.365241 6:0.181291 7:-0.143536 8:0.507283 9:0.0679671 10:-0.275182 11:0.869723 12:0.38835 13:-0.361732 14:0.918205 15:0.367243 16:0.592073 17:0.41524 18:-0.788511 19:0.647254 20:0.300227 21:-0.827511 22:0.647759 23:0.244541 24:-0.723152 25:0.740699 26:0.64554 27:-0.682746 28:0.330786 29:0.612697 30:-0.471512 31:0.245827 32:0.548372 33:-0.355843 34:0.181684 35:0.602618 36:-0.210598 37:0.134642 38:0.525186 39:-0.186071 40:0.48198 41:-0.0329208 42:-0.486421 43:0.908917 44:0.0547283 45:-0.914112 46:0.866013 47:0.0272569 48:-0.932276 
0 21.80008646528016 1:-0.156463 2:0.437632 3:0.229312 4:-0.125958 5:0.364959 6:0.19241 7:-0.14672 8:0.505913 9:0.0855186 10:-0.279178 11:0.868793 12:0.402466 13:-0.366709 14:0.91698 15:0.382561 16:0.570125 17:0.407599 18:-0.736386 19:0.60221 20:0.288405 21:-0.753287 22:0.60256 23:0.230119 24:-0.652867 25:0.689817 26:0.624994 27:-0.610458 28:0.314899 29:0.595461 30:-0.420026 31:0.359081 32:0.56428 33:-0.447937 34:0.392336 35:0.653352 36:-0.411442 37:0.42279 38:0.633895 39:-0.46976 40:0.0468082 41:-0.255169 42:-0.0508168 43:0.0372903 44:-0.417543 45:-0.0737976 46:0.0285859 47:-0.424351 48:-0.120089 
0 32 1:-0.156463 2:0.437632 3:0.234189 4:-0.127608 5:0.364601 6:0.199495 7:-0.146626 8:0.505848 9:0.0916837 10:-0.277623 11:0.868871 12:0.405338 13:-0.368263 14:0.916799 15:0.388663 16:0.579348 17:0.408439 18:-0.732132 19:0.59871 20:0.287535 21:-0.736978 22:0.599187 23:0.229085 24:-0.637521 25:0.686159 26:0.623558 27:-0.594721 28:0.303966 29:0.592069 30:-0.393144 31:0.360173 32:0.563391 33:-0.435047 34:0.389726 35:0.651083 36:-0.394526 37:0.420358 38:0.630592 39:-0.453234 40:0.0709319 41:-0.246922 42:-0.0644903 43:0.0563034 44:-0.410843 45:-0.0821154 46:0.0452066 47:-0.418958 48:-0.125803 
0.4129941620134688 0.8541562166748986 1:-0.156463 2:0.437632 3:0.229695 4:-0.126164 5:0.365655 6:0.193047 7:-0.149316 8:0.506739 9:0.0885502 10:-0.277018 11:0.869783 12:0.40068 13:-0.364718 14:0.918295 15:0.381162 16:0.615556 17:0.42103 18:-0.779804 19:0.635446 20:0.301 21:-0.785173 22:0.633781 23:0.245481 24:-0.681009 25:0.704731 26:0.643144 27:-0.622106 28:0.19313 29:0.581668 30:-0.281398 31:0.133343 32:0.518492 33:-0.198453 34:0.0900914 35:0.573323 36:-0.075728 37:0.553435 38:0.751175 39:-0.611796 40:0.768854 41:0.133141 42:-0.737295 43:0.730393 44:-0.00180571 45:-0.723759 46:0.777099 47:0.0176015 48:-0.824737 
0 32 1:-0.156463 2:0.437632 3:0.245223 4:-0.128368 5:0.364638 6:0.2124 7:-0.148628 8:0.505957 9:0.107795 10:-0.279729 11:0.868936 12:0.417388 13:-0.371622 14:0.916882 15:0.402328 16:0.568364 17:0.408958 18:-0.69134 19:0.586076 20:0.288057 21:-0.695417 22:0.600119 23:0.232442 24:-0.610793 25:0.684164 26:0.628202 27:-0.564449 28:0.314791 29:0.601198 30:-0.372477 31:0.348527 32:0.56885 33:-0.390354 34:0.375634 35:0.657442 36:-0.347199 37:0.323244 38:0.600774 39:-0.315488 40:-0.0344189 41:-0.283098 42:0.0567829 43:-0.0400955 44:-0.448786 45:0.0299505 46:0.031445 47:-0.41677 48:-0.0903262 
0.1687845100895298 32 1:-0.156463 2:0.437632 3:0.25026 4:-0.126494 5:0.364917 6:0.215958 7:-0.150137 8:0.505545 9:0.115732 10:-0.279139 11:0.868863 12:0.421358 13:-0.368993 14:0.916919 15:0.404867 16:0.575711 17:0.409022 18:-0.684816 19:0.593673 20:0.288045 21:-0.689673 22:0.600427 23:0.230992 24:-0.59848 25:0.680821 26:0.625287 27:-0.548566 28:0.297297 29:0.59409 30:-0.337711 31:0.358832 32:0.568129 33:-0.38714 34:0.39021 35:0.657732 36:-0.348852 37:0.39678 38:0.629419 39:-0.381735 40:0.0160885 41:-0.264892 42:0.018302 43:0.0119512 44:-0.427614 45:-0.0090689 46:0.0118439 47:-0.431818 48:-0.0615779 
0 32 1:-0.156463 2:0.437632 3:0.250592 4:-0.124648 5:0.365221 6:0.214384 7:-0.145541 8:0.506074 9:0.111664 10:-0.277227 11:0.868955 12:0.41977 13:-0.366531 14:0.917005 15:0.403 16:0.582503 17:0.409352 18:-0.69056 19:0.596557 20:0.287763 21:-0.691653 22:0.603916 23:0.230606 24:-0.600903 25:0.694558 26:0.626432 27:-0.559351 28:0.297977 29:0.592461 30:-0.33749 31:0.341085 32:0.560852 33:-0.366654 34:0.384765 35:0.652916 36:-0.341869 37:0.41042 38:0.631298 39:-0.395735 40:0.099772 41:-0.231226 42:-0.060712 43:0.0718983 44:-0.401299 45:-0.064701 46:0.0675068 47:-0.407569 48:-0.11336 
0.1132130223120734 0 1:-0.156463 2:0.437632 3:0.280466 4:-0.120389 5:0.36876 6:0.242691 7:-0.140435 8:0.510629 9:0.144994 10:-0.271466 11:0.871918 12:0.441076 13:-0.360484 14:0.920802 15:0.42654 16:0.594826 17:0.429532 18:-0.62128 19:0.624027 20:0.312915 21:-0.640175 22:0.619268 23:0.260769 24:-0.54049 25:0.697585 26:0.668524 27:-0.484528 28:0.282374 29:0.637034 30:-0.230826 31:0.17324 32:0.555349 33:-0.0956662 34:0.137867 35:0.615676 36:0.0173703 37:0.119198 38:0.554891 39:0.00820477 40:0.613903 41:0.210926 42:-0.493163 43:0.409895 44:-0.0494388 45:-0.323642 46:0.641911 47:0.113256 48:-0.593764 
0.2341132658261108 0 1:-0.156463 2:0.437632 3:0.277451 4:-0.123108 5:0.367757 6:0.242238 7:-0.141697 8:0.510174 9:0.14236 10:-0.273389 11:0.87154 12:0.440251 13:-0.362494 14:0.920402 15:0.425409 16:0.594176 17:0.428525 18:-0.628852 19:0.617089 20:0.310417 21:-0.641247 22:0.613067 23:0.257946 24:-0.54225 25:0.699278 26:0.667022 27:-0.493773 28:0.297736 29:0.640244 30:-0.257157 31:0.239884 32:0.581033 33:-0.177704 34:0.167948 35:0.628337 36:-0.0245995 37:0.127235 38:0.557687 39:-0.00916687 40:0.430584 41:0.0801187 42:-0.324426 43:0.414896 44:-0.0551391 45:-0.33423 46:0.67401 47:0.124397 48:-0.630164 
0.1055568361342343 0 1:-0.156463 2:0.437632 3:0.259051 4:-0.126563 5:0.366991 6:0.225677 7:-0.144802 8:0.510094 9:0.121793 10:-0.277248 11:0.871392 12:0.427435 13:-0.366122 14:0.920492 15:0.410824 16:0.579766 17:0.428382 18:-0.664848 19:0.598503 20:0.309747 21:-0.671302 22:0.610376 23:0.261717 24:-0.585765 25:0.667127 26:0.664405 27:-0.514185 28:0.19612 29:0.611122 30:-0.197272 31:0.120236 32:0.540087 33:-0.0992168 34:0.0853813 35:0.598505 36:0.0138997 37:0.629112 38:0.931651 39:-0.611278 40:0.327017 41:0.0304581 42:-0.260888 43:0.346352 44:-0.0837751 45:-0.305836 46:0.595561 47:0.0930692 48:-0.593764 
0.3771817743511049 1.018621311886244 1:-0.156463 2:0.437632 3:0.277451 4:-0.12459 5:0.367277 6:0.243795 7:-0.145372 8:0.509365 9:0.145953 10:-0.274654 11:0.871366 12:0.4415 13:-0.362494 14:0.920402 15:0.425409 16:0.586701 17:0.426913 18:-0.621537 19:0.606527 20:0.308146 21:-0.630791 22:0.613067 23:0.257946 24:-0.54225 25:0.679681 26:0.661437 27:-0.477162 28:0.204489 29:0.606687 30:-0.151876 31:0.138948 32:0.539201 33:-0.0666459 34:0.101504 35:0.595853 36:0.0489594 37:0.660834 38:0.931019 39:-0.593742 40:0.313225 41:0.0033521 42:-0.212733 43:0.338261 44:-0.111193 45:-0.262281 46:0.595937 47:0.0675842 48:-0.556585 
0.2155807189179045 0 1:-0.156463 2:0.437632 3:0.252831 4:-0.127632 5:0.366477 6:0.219974 7:-0.147383 8:0.509213 9:0.116338 10:-0.276089 11:0.871347 12:0.420669 13:-0.364244 14:0.920429 15:0.403134 16:0.58209 17:0.427242 18:-0.68406 19:0.601973 20:0.308643 21:-0.691119 22:0.597858 23:0.256152 24:-0.589655 25:0.59118 26:0.639437 27:-0.465921 28:0.101544 29:0.574081 30:-0.109033 31:0.0667547 32:0.515131 33:-0.0583451 34:0.100675 35:0.602558 36:-0.0209187 37:0.598883 38:0.892568 39:-0.595839 40:0.20956 41:-0.0601983 42:-0.160941 43:0.260956 44:-0.162265 45:-0.23782 46:0.543681 47:0.0327358 48:-0.55756 
0 13.85591944826912 1:-0.156463 2:0.437632 3:0.25607 4:-0.1236 5:0.36719 6:0.219295 7:-0.144823 8:0.508873 9:0.117989 10:-0.27463 11:0.870959 12:0.422155 13:-0.362838 14:0.919778 15:0.40502 16:0.584881 17:0.423316 18:-0.67797 19:0.611319 20:0.305449 21:-0.691837 22:0.603169 23:0.250697 24:-0.586503 25:0.688032 26:0.656253 27:-0.539627 28:0.249782 29:0.61494 30:-0.266744 31:0.179029 32:0.54892 33:-0.172518 34:0.127427 35:0.602405 36:-0.0412198 37:0.103687 38:0.533568 39:-0.0441296 40:0.165646 41:-0.116398 42:-0.112979 43:0.299406 44:-0.172417 45:-0.267588 46:0.33134 47:-0.15846 48:-0.350832 
0 1.401780731579964 1:-0.156463 2:0.437632 3:0.270304 4:-0.123923 5:0.36718 6:0.235253 7:-0.143721 8:0.509225 9:0.135171 10:-0.275456 11:0.870936 12:0.435834 13:-0.364169 14:0.919748 15:0.41998 16:0.57682 17:0.422349 18:-0.631325 19:0.599148 20:0.303784 21:-0.642308 22:0.57944 23:0.246292 24:-0.528781 25:0.551814 26:0.621122 27:-0.387287 28:0.0857685 29:0.560567 30:-0.0391376 31:0.0525447 32:0.499984 33:0.00777333 34:0.0925099 35:0.586224 36:0.0383654 37:0.563601 38:0.838268 39:-0.507529 40:0.189199 41:-0.0955311 42:-0.108296 43:0.242258 44:-0.202745 45:-0.186117 46:0.52406 47:-0.0161738 48:-0.503425 
0 3.258643243436304 1:-0.156463 2:0.437632 3:0.25518 4:-0.126921 5:0.365632 6:0.221805 7:-0.151176 8:0.50667 9:0.12306 10:-0.280414 11:0.86961 12:0.427063 13:-0.366454 14:0.918437 15:0.407372 16:0.575771 17:0.416313 18:-0.671478 19:0.599376 20:0.297163 21:-0.682361 22:0.580258 23:0.23811 24:-0.567373 25:0.548567 26:0.611234 27:-0.423715 28:0.0865487 29:0.552942 30:-0.0851007 31:0.0543618 32:0.492852 33:-0.0379225 34:0.113821 35:0.582797 36:-0.0287171 37:0.231749 38:0.587819 39:-0.186955 40:0.527368 41:0.0448892 42:-0.458942 43:0.111203 44:-0.332208 45:-0.0926353 46:0.133812 47:-0.324756 48:-0.166489 
0.2704827051164859 0 1:-0.156463 2:0.437632 3:0.257666 4:-0.128279 5:0.365167 6:0.225958 7:-0.148633 8:0.50693 9:0.123763 10:-0.281162 11:0.869404 12:0.430048 13:-0.370243 14:0.917884 15:0.413146 16:0.574996 17:0.415167 18:-0.663951 19:0.595537 20:0.295351 21:-0.672015 22:0.580885 23:0.236779 24:-0.561739 25:0.592229 26:0.619531 27:-0.454285 28:0.127582 29:0.563124 30:-0.124019 31:0.0841593 32:0.500889 33:-0.0635253 34:0.0810131 35:0.566934 36:0.0147527 37:0.228378 38:0.5804 39:-0.176198 40:0.561181 41:0.0532338 42:-0.486391 43:0.131969 44:-0.326234 45:-0.107273 46:0.136378 47:-0.329814 48:-0.163837 
0 0.009720123624294929 1:-0.156463 2:0.437632 3:0.279139 4:-0.124884 5:0.36581 6:0.245955 7:-0.148071 8:0.506646 9:0.150758 10:-0.279204 11:0.869376 12:0.447518 13:-0.367681 14:0.9178 15:0.431652 16:0.57002 17:0.412459 18:-0.600617 19:0.591516 20:0.292594 21:-0.611491 22:0.585207 23:0.23495 24:-0.51206 25:0.563689 26:0.608962 27:-0.374469 28:0.107658 29:0.552528 30:-0.0375203 31:0.0761291 32:0.492224 33:0.0073478 34:0.0879366 35:0.562178 36:0.068831 37:0.229149 38:0.569389 39:-0.116021 40:0.525931 41:0.0257848 42:-0.411962 43:0.1473 44:-0.327894 45:-0.0797023 46:0.139169 47:-0.339844 48:-0.122665 
0.730783582821915 1.296198202622543 1:-0.156463 2:0.437632 3:0.273592 4:-0.127551 5:0.364947 6:0.242669 7:-0.150735 8:0.505881 9:0.146248 10:-0.281941 11:0.868884 12:0.445208 13:-0.370258 14:0.917255 15:0.428574 16:0.560941 17:0.40929 18:-0.606833 19:0.580625 20:0.288895 21:-0.615316 22:0.560475 23:0.22784 24:-0.502878 25:0.535946 26:0.600246 27:-0.36532 28:0.0729926 29:0.54068 30:-0.0149137 31:0.0460943 32:0.480534 33:0.0243705 34:0.113308 35:0.568877 36:0.0247936 37:0.174042 38:0.531413 39:-0.0714115 40:0.543817 41:0.0127752 42:-0.439546 43:0.553167 44:-0.111928 45:-0.471587 46:0.0033214 47:-0.427297 48:-0.00595107 
0.20734682803846 0.7544727207211659 1:-0.156463 2:0.437632 3:0.279704 4:-0.126949 5:0.364805 6:0.248743 7:-0.149212 8:0.505651 9:0.152598 10:-0.281739 11:0.868605 12:0.450532 13:-0.370923 14:0.916759 15:0.435081 16:0.565212 17:0.407555 18:-0.594372 19:0.578554 20:0.285874 21:-0.597171 22:0.560066 23:0.224352 24:-0.487209 25:0.544857 26:0.598004 27:-0.357041 28:0.084698 29:0.539844 30:-0.00991226 31:0.0434556 32:0.475456 33:0.0449305 34:0.0588059 35:0.542841 36:0.102707 37:0.305801 38:0.586908 39:-0.198391 40:-0.199404 41:-0.367214 42:0.279451 43:0.605274 44:-0.112585 45:-0.508562 46:0.628751 47:-0.10764 48:-0.582915 
0.7826691542848505 2.055472678409619 1:-0.156463 2:0.437632 3:0.279831 4:-0.13169 5:0.36368 6:0.253861 7:-0.152842 8:0.504979 9:0.156311 10:-0.282681 11:0.868441 12:0.451577 13:-0.375142 14:0.91629 15:0.438954 16:0.555084 17:0.405405 18:-0.584113 19:0.573435 20:0.284423 21:-0.59177 22:0.563377 23:0.224066 24:-0.489978 25:0.548727 26:0.597809 27:-0.359992 28:0.0842496 29:0.538868 30:-0.0090266 31:0.0506055 32:0.476764 33:0.037432 34:0.0442558 35:0.536666 36:0.119182 37:0.344006 38:0.602142 39:-0.239884 40:0.60546 41:0.00871752 42:-0.486336 43:-0.202291 44:-0.54453 45:0.249861 46:0.638582 47:-0.111193 48:-0.591922 
0.308608097179827 0.02375599682088374 1:-0.156463 2:0.437632 3:0.28458 4:-0.128368 5:0.36437 6:0.255583 7:-0.150694 8:0.505226 9:0.160302 10:-0.279746 11:0.868671 12:0.452969 13:-0.363323 14:0.917229 15:0.433045 16:0.580905 17:0.408934 18:-0.596455 19:0.598002 20:0.287721 21:-0.603582 22:0.576118 23:0.225705 24:-0.489978 25:0.536425 26:0.5945 27:-0.337264 28:0.0700779 29:0.534255 30:0.0211286 31:0.0330837 32:0.470363 33:0.0704284 34:0.0639121 35:0.542002 36:0.111074 37:0.565637 38:0.710765 39:-0.469193 40:0.66437 41:0.0345364 42:-0.533365 43:0.658235 44:-0.0956863 45:-0.548756 46:0.622884 47:-0.121746 48:-0.567441 
0 13.22027067964797 1:-0.156463 2:0.437632 3:0.282358 4:-0.128171 5:0.363339 6:0.252938 7:-0.152135 8:0.5032 9:0.158861 10:-0.283239 11:0.867175 12:0.454412 13:-0.376935 14:0.914455 15:0.442994 16:0.55302 17:0.395108 18:-0.575213 19:0.56932 20:0.272668 21:-0.581044 22:0.561815 23:0.209004 24:-0.482202 25:0.640657 26:0.593026 27:-0.431372 28:0.117232 29:0.532515 30:-0.0387337 31:0.0525525 32:0.46798 33:0.0425886 34:0.0442893 35:0.526633 36:0.126409 37:0.14672 38:0.468266 39:-0.0165701 40:0.121472 41:-0.287447 42:-0.0208901 43:0.203713 44:-0.420092 45:-0.126374 46:0.342838 47:-0.375641 48:-0.308046 
0 2.284411870637199 1:-0.156463 2:0.437632 3:0.308736 4:-0.129595 5:0.362915 6:0.283376 7:-0.153447 8:0.502644 9:0.193982 10:-0.282263 11:0.866928 12:0.477284 13:-0.375365 14:0.914123 15:0.467129 16:0.562817 17:0.393631 18:-0.512982 19:0.579718 20:0.271011 21:-0.521873 22:0.582287 23:0.207664 24:-0.435307 25:0.614884 26:0.585257 27:-0.341193 28:0.0954292 29:0.524494 30:0.0645078 31:0.0272603 32:0.458325 33:0.146627 34:0.0455029 35:0.520236 36:0.200915 37:0.328409 38:0.509593 39:-0.140656 40:0.113873 41:-0.301192 42:0.0365598 43:0.236546 44:-0.424344 45:-0.105648 46:0.354933 47:-0.388423 48:-0.265636 
0.3735840034576017 1.130683695510606 1:-0.156463 2:0.437632 3:0.313468 4:-0.12613 5:0.363264 6:0.284931 7:-0.151472 8:0.502765 9:0.198122 10:-0.280985 11:0.866977 12:0.480299 13:-0.368466 14:0.914412 15:0.465578 16:0.561426 17:0.393458 18:-0.498735 19:0.586979 20:0.271542 21:-0.516598 22:0.580388 23:0.207428 24:-0.421699 25:0.522187 26:0.57447 27:-0.250358 28:0.037586 29:0.515314 30:0.143923 31:0.02128 32:0.45612 33:0.166881 34:0.0812133 35:0.526176 36:0.174989 37:0.41638 38:0.535565 39:-0.223581 40:0.14898 41:-0.290988 42:0.0121563 43:0.252674 44:-0.418416 45:-0.111541 46:0.384513 47:-0.377815 48:-0.283859 
0 0.1040674026437235 1:-0.156463 2:0.437632 3:0.312635 4:-0.127673 5:0.363053 6:0.285636 7:-0.153105 8:0.502576 9:0.198649 10:-0.283451 11:0.866812 12:0.481981 13:-0.374781 14:0.914061 15:0.470384 16:0.564737 17:0.393271 18:-0.504244 19:0.581931 20:0.270624 21:-0.513796 22:0.580484 23:0.206746 24:-0.423873 25:0.653614 26:0.58844 27:-0.363922 28:0.119993 29:0.52717 30:0.0483967 31:0.0601607 32:0.463096 33:0.121693 34:0.0487094 35:0.520037 36:0.208578 37:0.182787 38:0.465122 39:0.0299596 40:0.111621 41:-0.304675 42:0.0461266 43:0.218386 44:-0.433748 45:-0.0809785 46:0.347064 47:-0.395343 48:-0.250266 
0.5164683821717182 0.7674978271976091 1:-0.156463 2:0.437632 3:0.293757 4:-0.128794 5:0.36437 6:0.2661 7:-0.153807 8:0.504913 9:0.175119 10:-0.282323 11:0.868545 12:0.463808 13:-0.363705 14:0.917427 15:0.442268 16:0.582776 17:0.410482 18:-0.573298 19:0.586766 20:0.287288 21:-0.568293 22:0.571618 23:0.226532 24:-0.462827 25:0.527361 26:0.593776 27:-0.305807 28:0.0850928 29:0.538739 30:0.031531 31:0.0588456 32:0.478214 33:0.0685992 34:0.0447199 35:0.535239 36:0.158712 37:0.0443999 38:0.449685 39:0.12792 40:0.655161 41:0.0520747 42:-0.507125 43:0.698447 44:-0.0499656 45:-0.568572 46:0.735234 47:-0.0385114 48:-0.654602 
0 0.5553713262173535 1:-0.156463 2:0.437632 3:0.280865 4:-0.126412 5:0.367599 6:0.249453 7:-0.151639 8:0.509411 9:0.156461 10:-0.283112 11:0.871119 12:0.452938 13:-0.374546 14:0.920245 15:0.439425 16:0.558047 17:0.428285 18:-0.584198 19:0.597524 20:0.315371 21:-0.612891 22:0.604393 23:0.268333 24:-0.525626 25:0.660213 26:0.674037 27:-0.451815 28:0.186641 29:0.618824 30:-0.121549 31:0.1276 32:0.553761 33:-0.0442966 34:0.080071 35:0.606201 36:0.0825043 37:0.0716465 38:0.549784 39:0.0614344 40:0.756528 41:0.397796 42:-0.628147 43:0.777099 44:0.328985 45:-0.667609 46:0.803807 47:0.340959 48:-0.745526 
0.5622647720032954 0.9298773529427774 1:-0.156463 2:0.437632 3:0.283159 4:-0.126658 5:0.367629 6:0.252228 7:-0.150498 8:0.509891 9:0.158288 10:-0.278968 11:0.871898 12:0.450918 13:-0.371378 14:0.920867 15:0.438829 16:0.565223 17:0.431088 18:-0.584976 19:0.596755 20:0.316434 21:-0.60609 22:0.612512 23:0.272321 24:-0.527456 25:0.679474 26:0.682851 27:-0.462201 28:0.20594 29:0.629324 30:-0.136503 31:0.14643 32:0.56528 33:-0.0583894 34:0.0982562 35:0.619114 36:0.0689663 37:0.0861148 38:0.565415 39:0.0521011 40:0.793443 41:0.441217 42:-0.658913 43:0.811921 44:0.376154 45:-0.695818 46:0.834015 47:0.384573 48:-0.769316 
0.1825653236042809 0.3114290329510838 1:-0.156463 2:0.437632 3:0.259929 4:-0.127884 5:0.36796 6:0.228028 7:-0.150168 8:0.51132 9:0.128167 10:-0.279939 11:0.872622 12:0.430885 13:-0.369827 14:0.922322 15:0.414967 16:0.568668 17:0.43888 18:-0.651595 19:0.595913 20:0.324173 21:-0.666427 22:0.613428 23:0.283394 24:-0.586414 25:0.697311 26:0.705142 27:-0.537496 28:0.291115 29:0.68442 30:-0.30191 31:0.213113 32:0.619347 33:-0.198872 34:0.141051 35:0.668781 36:-0.0452065 37:0.105471 38:0.618533 39:-0.0351175 40:0.889631 41:0.586449 42:-0.794685 43:0.921333 44:0.553749 45:-0.843934 46:0.943455 47:0.565295 48:-0.919844 
0.2846079071998903 0.7419635566921741 1:-0.156463 2:0.437632 3:0.262394 4:-0.126079 5:0.369193 6:0.228836 7:-0.147454 8:0.512923 9:0.128674 10:-0.277812 11:0.873552 12:0.431012 13:-0.369768 14:0.923124 15:0.4173 16:0.572574 17:0.44445 18:-0.648708 19:0.596543 20:0.329568 21:-0.660561 22:0.616515 23:0.291651 24:-0.583127 25:0.707248 26:0.71996 27:-0.539535 28:0.302199 29:0.703063 30:-0.307078 31:0.246547 32:0.651334 33:-0.228538 34:0.173312 35:0.704309 36:-0.0738365 37:0.122414 38:0.655424 39:-0.0466758 40:0.917651 41:0.673794 42:-0.81666 43:0.955106 44:0.659675 45:-0.870827 46:0.974831 47:0.671161 48:-0.944388 
0.9279948228793282 2.096786827892578 1:-0.156463 2:0.437632 3:0.281226 4:-0.12437 5:0.372007 6:0.247705 7:-0.144959 8:0.517084 9:0.150392 10:-0.27609 11:0.876097 12:0.446329 13:-0.364206 14:0.927192 15:0.430583 16:0.587891 17:0.466939 18:-0.612424 19:0.611618 20:0.354673 21:-0.625892 22:0.62894 23:0.324696 24:-0.547605 25:0.728121 26:0.773332 27:-0.508444 28:0.328855 29:0.771747 30:-0.281041 31:0.251999 32:0.714553 33:-0.180129 34:0.17088 35:0.767454 36:-0.0169923 37:0.131523 38:0.755214 39:-0.00313846 40:0.983809 41:1 42:-0.843774 43:0.987009 44:1 45:-0.863975 46:0.987066 47:1 48:-0.917502 
0.02837442004739643 0 1:-0.156463 2:0.437632 3:0.249758 4:-0.123757 5:0.365744 6:0.212534 7:-0.14536 8:0.506619 9:0.110418 10:-0.277764 11:0.86923 12:0.419547 13:-0.366339 14:0.917479 15:0.402022 16:0.605933 17:0.415513 18:-0.715761 19:0.628677 20:0.29548 21:-0.725641 22:0.617613 23:0.236864 24:-0.615755 25:0.693675 26:0.632325 27:-0.560762 28:0.184179 29:0.570684 30:-0.211491 31:0.121589 32:0.505481 33:-0.127556 34:0.0723261 35:0.55617 36:0.00163085 37:0.237127 38:0.563412 39:-0.208255 40:0.026466 41:-0.251258 42:0.00746983 43:0.78292 44:-0.0143273 45:-0.733866 46:0.738005 47:-0.0443542 48:-0.746968 
0.2214172205543902 0.7887542916179349 1:-0.156463 2:0.437632 3:0.23393 4:-0.123897 5:0.365872 6:0.195314 7:-0.143678 8:0.507139 9:0.0884691 10:-0.273915 11:0.869765 12:0.401443 13:-0.358645 14:0.918365 15:0.379863 16:0.603936 17:0.416479 18:-0.756901 19:0.626346 20:0.296541 21:-0.765014 22:0.610859 23:0.237537 24:-0.649049 25:0.564864 26:0.609001 27:-0.492576 28:0.0813467 29:0.547621 30:-0.142567 31:0.035043 32:0.483967 33:-0.0780599 34:0.100781 35:0.571216 36:-0.0753852 37:0.520867 38:0.71324 39:-0.564081 40:0.774437 41:0.105105 42:-0.734545 43:0.716171 44:-0.0420349 45:-0.702132 46:0.715293 47:-0.0483105 48:-0.757849 
0.2060942275063357 0.5587445612834253 1:-0.156463 2:0.437632 3:0.229266 4:-0.125196 5:0.36547 6:0.191559 7:-0.146914 8:0.506469 9:0.08565 10:-0.27725 11:0.86933 12:0.400521 13:-0.365504 14:0.917611 15:0.381445 16:0.600401 17:0.414872 18:-0.766142 19:0.62 20:0.294397 21:-0.771016 22:0.617482 23:0.237123 24:-0.666891 25:0.680596 26:0.63021 27:-0.602761 28:0.156846 29:0.565477 30:-0.241714 31:0.0941151 32:0.500406 33:-0.156532 34:0.0597878 35:0.556119 36:-0.0434153 37:0.289165 38:0.591995 39:-0.3235 40:0.195252 41:-0.17344 42:-0.192186 43:0.86086 44:0.0140488 45:-0.847085 46:0.802332 47:-0.0209714 48:-0.849395 
0.354859872778656 0 1:-0.156463 2:0.437632 3:0.235649 4:-0.125142 5:0.365419 6:0.198506 7:-0.146776 8:0.506384 9:0.0937027 10:-0.278526 11:0.869146 12:0.407549 13:-0.363588 14:0.917676 15:0.38592 16:0.596927 17:0.413865 18:-0.745364 19:0.628941 20:0.29514 21:-0.763058 22:0.618561 23:0.236576 24:-0.651932 25:0.686543 26:0.630287 27:-0.591267 28:0.150534 29:0.562625 30:-0.215561 31:0.107081 32:0.502491 33:-0.152357 34:0.0652421 35:0.55594 36:-0.0310994 37:0.1558 38:0.524541 39:-0.159256 40:0.155145 41:-0.19391 42:-0.141862 43:0.865574 44:0.013566 45:-0.83904 46:0.807363 47:-0.0215485 48:-0.841114 
0.0303633013211863 0 1:-0.156463 2:0.437632 3:0.254611 4:-0.125167 5:0.365303 6:0.219338 7:-0.144776 8:0.506494 9:0.116071 10:-0.278571 11:0.869022 12:0.424728 13:-0.363681 14:0.917514 15:0.404356 16:0.596593 17:0.413008 18:-0.693407 19:0.620535 20:0.293022 21:-0.704804 22:0.610169 23:0.234016 24:-0.59668 25:0.677123 26:0.62667 27:-0.534162 28:0.170136 29:0.564827 30:-0.181172 31:0.0966361 32:0.495773 33:-0.0860814 34:0.0665905 35:0.551475 36:0.0219334 37:0.171338 38:0.525456 39:-0.122392 40:0.181943 41:-0.184553 42:-0.131268 43:0.352392 44:-0.248433 45:-0.320186 46:0.782307 47:-0.033642 48:-0.77882 
0.03505690541215813 0 1:-0.156463 2:0.437632 3:0.252924 4:-0.125369 5:0.365354 6:0.2177 7:-0.145289 8:0.506577 9:0.114409 10:-0.277688 11:0.869203 12:0.422332 13:-0.364554 14:0.917585 15:0.4035 16:0.610537 17:0.415956 18:-0.711647 19:0.605275 20:0.291651 21:-0.694142 22:0.598327 23:0.233185 24:-0.58986 25:0.667598 26:0.626503 27:-0.530457 28:0.154382 29:0.562398 30:-0.168413 31:0.0961626 32:0.497151 33:-0.0904328 34:0.0622407 35:0.551627 36:0.0218981 37:0.39691 38:0.641849 39:-0.374307 40:0.13986 41:-0.199321 42:-0.0944266 43:0.803593 44:-0.00494597 45:-0.747088 46:0.762176 47:-0.0333268 48:-0.763289 
0 2.057064152604118 1:-0.156463 2:0.437632 3:0.260826 4:-0.125677 5:0.365366 6:0.226694 7:-0.148089 8:0.506272 9:0.127284 10:-0.278493 11:0.869207 12:0.430268 13:-0.364231 14:0.917744 15:0.410861 16:0.597676 17:0.414833 18:-0.677545 19:0.608227 20:0.292952 21:-0.676255 22:0.604298 23:0.23534 24:-0.575661 25:0.677747 26:0.630237 27:-0.51859 28:0.174825 29:0.568663 30:-0.16794 31:0.12385 32:0.505887 33:-0.0980672 34:0.082009 35:0.558576 36:0.0227349 37:0.219157 38:0.555375 39:-0.157117 40:0.0763266 41:-0.224927 42:-0.0189147 43:0.223641 44:-0.302138 45:-0.187163 46:0.418894 47:-0.202555 48:-0.423647 
0 28.43369353008675 1:-0.156463 2:0.437632 3:0.243563 4:-0.127462 5:0.365128 6:0.209627 7:-0.148497 8:0.506501 9:0.105538 10:-0.27753 11:0.86949 12:0.413717 13:-0.366576 14:0.917792 15:0.396236 16:0.587087 17:0.414575 18:-0.714184 19:0.605582 20:0.294108 21:-0.719096 22:0.601139 23:0.236815 24:-0.615895 25:0.677989 26:0.633331 27:-0.563515 28:0.174478 29:0.572218 30:-0.219005 31:0.108132 32:0.505602 33:-0.130649 34:0.0769198 35:0.562421 36:-0.0212702 37:0.295416 38:0.603626 39:-0.289719 40:0.0661556 41:-0.223241 42:-0.0420994 43:0.171051 44:-0.322574 45:-0.171526 46:0.293402 47:-0.261538 48:-0.340592 
0 14.77857701333638 1:-0.156463 2:0.437632 3:0.248705 4:-0.126181 5:0.365538 6:0.213923 7:-0.145341 8:0.507203 9:0.109048 10:-0.275679 11:0.869807 12:0.416535 13:-0.363167 14:0.918286 15:0.398183 16:0.590453 17:0.416195 18:-0.703479 19:0.611674 20:0.29629 21:-0.711585 22:0.606154 23:0.239305 24:-0.607709 25:0.590778 26:0.616679 27:-0.476269 28:0.10777 29:0.555642 30:-0.128362 31:0.0501536 32:0.488508 33:-0.0520005 34:0.173427 35:0.599843 36:-0.113327 37:0.344655 38:0.635969 39:-0.32905 40:0.0966081 41:-0.202412 42:-0.0612937 43:0.211564 44:-0.292093 45:-0.199513 46:0.290864 47:-0.253393 48:-0.327712 
0 9.104476482221708 1:-0.156463 2:0.437632 3:0.253133 4:-0.12756 5:0.365082 6:0.22023 7:-0.148751 8:0.506428 9:0.118062 10:-0.276417 11:0.869588 12:0.421265 13:-0.367022 14:0.917735 15:0.405896 16:0.593876 17:0.415615 18:-0.694772 19:0.619545 20:0.29629 21:-0.707716 22:0.61865 23:0.239933 24:-0.608282 25:0.684168 26:0.634569 27:-0.543961 28:0.187587 29:0.575164 30:-0.20528 31:0.121336 32:0.508518 33:-0.117528 34:0.0899498 35:0.565461 36:-0.00817778 37:0.288998 38:0.599557 39:-0.255493 40:0.0257345 41:-0.243224 42:0.0145902 43:0.126256 44:-0.346877 45:-0.110768 46:0.201628 47:-0.310899 48:-0.234579 
0 32 1:-0.156463 2:0.437632 3:0.250008 4:-0.125972 5:0.36549 6:0.215133 7:-0.146814 8:0.506796 9:0.11216 10:-0.277887 11:0.869473 12:0.419893 13:-0.362241 14:0.918215 15:0.398621 16:0.597595 17:0.41647 18:-0.70692 19:0.62297 20:0.297127 21:-0.719335 22:0.625869 23:0.241618 24:-0.622827 25:0.700957 26:0.638719 27:-0.566288 28:0.183082 29:0.574611 30:-0.209509 31:0.12784 32:0.511379 33:-0.133713 34:0.0961901 35:0.568804 36:-0.0240716 37:0.277357 38:0.594996 39:-0.25162 40:0.0114225 41:-0.249083 42:0.0222626 43:0.0977111 44:-0.361167 45:-0.0900767 46:0.169478 47:-0.326961 48:-0.210653 
0 21.25212822136821 1:-0.156463 2:0.437632 3:0.25157 4:-0.124339 5:0.365861 6:0.215133 7:-0.144765 8:0.507101 9:0.11216 10:-0.277847 11:0.86946 12:0.421265 13:-0.36545 14:0.917901 15:0.402986 16:0.597804 17:0.416375 18:-0.702871 19:0.627127 20:0.297651 21:-0.719335 22:0.630061 23:0.242194 24:-0.622827 25:0.705732 26:0.639462 27:-0.566288 28:0.194698 29:0.577423 30:-0.217966 31:0.13562 32:0.513394 33:-0.137759 34:0.100248 35:0.56978 36:-0.0240716 37:0.277875 38:0.594473 39:-0.247747 40:0.0145477 41:-0.248145 42:0.0222626 43:0.078924 44:-0.372294 45:-0.069385 46:0.147473 47:-0.339865 48:-0.186728 
0 13.39265865407287 1:-0.156463 2:0.437632 3:0.250598 4:-0.129566 5:0.364768 6:0.219555 7:-0.147799 8:0.506906 9:0.113879 10:-0.278923 11:0.869541 12:0.42145 13:-0.363967 14:0.918322 15:0.400726 16:0.600133 17:0.418437 18:-0.707798 19:0.620284 20:0.298429 21:-0.715123 22:0.618031 23:0.242464 24:-0.614045 25:0.660424 26:0.63315 27:-0.530401 28:0.10438 29:0.555466 30:-0.11889 31:0.0613857 32:0.492728 33:-0.0588888 34:0.232762 35:0.624075 36:-0.173572 37:0.272526 38:0.600397 39:-0.24465 40:-0.00401007 41:-0.250498 42:0.0380739 43:0.0641103 44:-0.371753 45:-0.0573777 46:0.130917 47:-0.33914 48:-0.173109 
0 12.07064891179774 1:-0.156463 2:0.437632 3:0.258727 4:-0.124885 5:0.365932 6:0.223559 7:-0.144133 8:0.507539 9:0.120723 10:-0.273763 11:0.870099 12:0.4237 13:-0.356447 14:0.919059 15:0.40191 16:0.606471 17:0.419661 18:-0.691868 19:0.625922 20:0.299545 21:-0.699296 22:0.619431 23:0.24295 24:-0.595018 25:0.687648 26:0.639488 27:-0.53242 28:0.0842052 29:0.549119 30:-0.0718828 31:0.0741943 32:0.49593 33:-0.0494961 34:0.212305 35:0.615985 36:-0.127549 37:0.248478 38:0.587048 39:-0.195203 40:-0.0120467 41:-0.254576 42:0.0611986 43:0.0474209 44:-0.381153 45:-0.0258227 46:0.107929 47:-0.351929 48:-0.134862 
0 32 1:-0.156463 2:0.437632 3:0.243862 4:-0.12366 5:0.366503 6:0.205962 7:-0.147023 8:0.507459 9:0.104481 10:-0.270659 11:0.870715 12:0.407203 13:-0.356447 14:0.919449 15:0.387523 16:0.609395 17:0.422317 18:-0.735201 19:0.627603 20:0.302227 21:-0.740104 22:0.616175 23:0.245411 24:-0.629162 25:0.695563 26:0.645899 27:-0.577635 28:0.043713 29:0.541788 30:-0.0704727 31:0.0836981 32:0.504572 33:-0.102899 34:0.12541 35:0.589343 36:-0.0740921 37:0.175406 38:0.557714 39:-0.157393 40:-0.063377 41:-0.272357 42:0.0817534 43:0.0044564 44:-0.394928 45:-0.0145355 46:0.0737359 47:-0.359248 48:-0.132958 
0 30.11896881881006 1:-0.156463 2:0.437632 3:0.235339 4:-0.128708 5:0.365378 6:0.201911 7:-0.14386 8:0.508337 9:0.0904533 10:-0.268796 11:0.87114 12:0.39766 13:-0.356213 14:0.919771 15:0.379065 16:0.600983 17:0.42249 18:-0.750177 19:0.618754 20:0.302506 21:-0.753791 22:0.606451 23:0.245835 24:-0.641418 25:0.675005 26:0.644621 27:-0.58229 28:0.0341666 29:0.541898 30:-0.0851007 31:0.066217 32:0.502486 33:-0.108291 34:0.110774 35:0.588584 36:-0.0823989 37:0.146211 38:0.549155 39:-0.149632 40:-0.0812784 41:-0.275408 42:0.082564 43:-0.0174786 44:-0.399788 45:-0.0105998 46:0.0475494 47:-0.365584 48:-0.125667 
0.2595655512837127 2.965432873804909 1:-0.156463 2:0.437632 3:0.231774 4:-0.132551 5:0.367284 6:0.202035 7:-0.160249 8:0.510654 9:0.101907 10:-0.28772 11:0.872697 12:0.413126 13:-0.382719 14:0.922347 15:0.399175 16:0.526499 17:0.438702 18:-0.686985 19:0.54957 20:0.324624 21:-0.694699 22:0.532396 23:0.276 24:-0.581302 25:0.514078 26:0.664421 27:-0.455113 28:0.0692298 29:0.612996 30:-0.135313 31:0.089599 32:0.589966 33:-0.144316 34:0.0918927 35:0.681036 36:-0.0717448 37:0.131818 38:0.707942 39:-0.143994 40:-0.0855054 41:-0.134533 42:0.0798007 43:0.0417016 44:-0.154038 45:-0.0731268 46:0.0950599 47:-0.103656 48:-0.177714 
0.2565224353346073 0.5833016615632374 1:-0.156463 2:0.437632 3:0.352156 4:-0.136869 5:0.388262 6:0.338655 7:-0.175692 8:0.544928 9:0.271433 10:-0.3057 11:0.896038 12:0.539664 13:-0.416422 14:0.954098 15:0.545648 16:0.413825 17:0.620127 18:-0.248942 19:0.401504 20:0.52852 21:-0.231136 22:0.288341 23:0.48348 24:-0.0526938 25:0.141331 26:0.860203 27:0.172696 28:-0.319535 29:0.759749 30:0.662446 31:-0.384187 32:0.719387 33:0.72478 34:-0.464239 35:0.748486 36:0.890099 37:-0.520515 38:0.748625 39:0.91276 40:-0.662883 41:-0.0959402 42:0.858499 43:-0.78372 44:-0.623527 45:0.937075 46:-0.826079 47:-0.647527 48:0.935967 
0.389893251429958 0.8913237798935639 1:-0.156463 2:0.437632 3:0.35031 4:-0.137663 5:0.385908 6:0.337463 7:-0.172714 8:0.544824 9:0.266153 10:-0.305063 11:0.894638 12:0.537366 13:-0.413594 14:0.952923 15:0.541347 16:0.417916 17:0.608925 18:-0.257973 19:0.407074 20:0.515915 21:-0.24151 22:0.311063 23:0.484385 24:-0.0784922 25:0.240675 26:0.952308 27:0.0837049 28:-0.258991 29:0.82386 30:0.588586 31:-0.352291 32:0.738516 33:0.68435 34:-0.406893 35:0.833769 36:0.8213 37:-0.492269 38:0.76472 39:0.876572 40:-0.649556 41:-0.123331 42:0.842303 43:-0.667981 44:-0.177855 45:0.824805 46:-0.794267 47:-0.58306 48:0.902229 
0.8427313792278723 1.916262352104154 1:-0.156463 2:0.437632 3:0.370517 4:-0.136763 5:0.390583 6:0.358691 7:-0.174242 8:0.550034 9:0.293569 10:-0.308624 11:0.897123 12:0.559143 13:-0.41984 14:0.956302 15:0.566458 16:0.398792 17:0.629736 18:-0.184235 19:0.328521 20:0.487066 21:-0.110545 22:0.18316 23:0.400298 24:0.0912802 25:0.0511489 26:0.780327 27:0.296708 28:-0.377351 29:0.701598 30:0.782455 31:-0.445392 32:0.643016 33:0.845173 34:-0.51582 35:0.6762 36:1 37:-0.552519 38:0.729946 39:1 40:-0.774832 41:-0.486301 42:1 43:-0.812519 44:-0.695607 45:1 46:-0.854275 47:-0.717988 48:1 
1.025692792862315 2.334331948179153 1:-0.156463 2:0.437632 3:0.352491 4:-0.142529 5:0.376606 6:0.344967 7:-0.184461 8:0.528764 9:0.28044 10:-0.314205 11:0.885388 12:0.548365 13:-0.419225 14:0.943366 15:0.548465 16:0.412476 17:0.563225 18:-0.246707 19:0.409894 20:0.469057 21:-0.238555 22:0.374661 23:0.479003 24:-0.132319 25:0.369343 26:0.999327 27:-0.0197091 28:-0.0648223 29:1 30:0.375865 31:-0.128209 32:1 33:0.444104 34:-0.251783 35:1 36:0.655857 37:-0.341887 38:0.996302 39:0.718019 40:-0.54055 41:0.0145106 42:0.742708 43:-0.590437 44:-0.170902 45:0.756269 46:-0.62029 47:-0.13831 48:0.742712 
0.3678023104909912 0.8329691349764652 1:-0.156463 2:0.437632 3:0.382243 4:-0.135476 5:0.389637 6:0.370206 7:-0.17386 8:0.545938 9:0.308238 10:-0.305969 11:0.895611 12:0.567117 13:-0.417193 14:0.953331 15:0.575455 16:0.411929 17:0.616543 18:-0.165165 19:0.399771 20:0.524997 21:-0.150189 22:0.293183 23:0.484135 24:0.0180498 25:0.161868 26:0.874792 27:0.23323 28:-0.292557 29:0.786402 30:0.721672 31:-0.368192 32:0.724124 33:0.794112 34:-0.434803 35:0.782864 36:0.944025 37:-0.504414 38:0.73984 39:0.980624 40:-0.650075 41:-0.10245 42:0.903589 43:-0.678462 44:-0.191823 45:0.897055 46:-0.794279 47:-0.605589 48:0.967378 
0.0617397566089751 0 1:-0.156463 2:0.437632 3:0.282302 4:-0.138272 5:0.362487 6:0.263483 7:-0.175491 8:0.50207 9:0.181629 10:-0.309591 11:0.866168 12:0.480383 13:-0.412368 14:0.913674 15:0.474433 16:0.434796 17:0.390462 18:-0.459661 19:0.435032 20:0.267128 21:-0.44827 22:0.408052 23:0.202525 24:-0.339008 25:0.434671 26:0.582837 27:-0.256911 28:0.0430831 29:0.538037 30:0.044819 31:0.0637724 32:0.493999 33:0.0300827 34:0.0802741 35:0.567048 36:0.0864116 37:0.313149 38:0.641041 39:-0.199056 40:0.414314 41:0.00400495 42:-0.29971 43:0.467873 44:-0.0939154 45:-0.374487 46:0.521123 47:-0.0686688 48:-0.476182 
0.8740369562319441 2.077493599716332 1:-0.156463 2:0.437632 3:0.306531 4:-0.138733 5:0.362258 6:0.290551 7:-0.174833 8:0.502111 9:0.212066 10:-0.304368 11:0.866777 12:0.49712 13:-0.411417 14:0.913739 15:0.497039 16:0.43952 17:0.391286 18:-0.398316 19:0.441782 20:0.268367 21:-0.391149 22:0.416761 23:0.204527 24:-0.286524 25:0.450621 26:0.587376 27:-0.207667 28:0.827338 29:0.810763 30:-0.768427 31:0.295746 32:0.587666 33:-0.155153 34:0.822522 35:0.919022 36:-0.665653 37:0.82174 38:1 39:-0.68738 40:0.397436 41:0.0258736 42:-0.23752 43:0.460493 44:-0.061278 45:-0.320209 46:0.515962 47:-0.0329583 48:-0.421894 
0.375406194309518 0.03541072761365009 1:-0.156463 2:0.437632 3:0.279269 4:-0.141136 5:0.361672 6:0.263161 7:-0.176757 8:0.501763 9:0.178975 10:-0.308911 11:0.86621 12:0.47697 13:-0.417512 14:0.913063 15:0.476069 16:0.418656 17:0.387034 18:-0.452123 19:0.43178 20:0.266003 21:-0.45304 22:0.401935 23:0.200505 24:-0.340894 25:0.420396 26:0.578161 27:-0.252669 28:0.0424025 29:0.536379 30:0.0365447 31:0.050129 32:0.487137 33:0.0363297 34:0.0645584 35:0.557737 36:0.0950864 37:0.0876377 38:0.497133 39:0.0393772 40:0.41372 41:-0.0110934 42:-0.304919 43:0.0544342 44:-0.36955 45:0.00773784 46:0.528251 47:-0.0823453 48:-0.489088 
0.9102189630929622 2.110329475113079 1:-0.156463 2:0.437632 3:0.314174 4:-0.138489 5:0.362203 6:0.298682 7:-0.176067 8:0.501622 9:0.223077 10:-0.30755 11:0.866209 12:0.507168 13:-0.410327 14:0.913653 15:0.503468 16:0.439239 17:0.390033 18:-0.377231 19:0.445864 20:0.267852 21:-0.375064 22:0.418066 23:0.203036 24:-0.268624 25:0.445056 26:0.583124 27:-0.18315 28:0.82622 29:0.802438 30:-0.744382 31:0.842444 32:0.796932 33:-0.734591 34:0.8367 35:0.914227 36:-0.659371 37:0.301173 38:0.637626 39:-0.0953638 40:0.414579 41:0.024101 42:-0.239285 43:0.464282 44:-0.0736209 45:-0.308829 46:0.513382 47:-0.0507023 48:-0.403871 
0.7020250180460679 1.62592126177624 1:-0.156463 2:0.437632 3:0.322948 4:-0.138382 5:0.362132 6:0.308196 7:-0.173921 8:0.501896 9:0.232234 10:-0.307261 11:0.866136 12:0.514811 13:-0.411378 14:0.91338 15:0.512894 16:0.444558 17:0.390282 18:-0.358547 19:0.451207 20:0.268003 21:-0.357248 22:0.427297 23:0.203942 24:-0.255282 25:0.463841 26:0.586378 27:-0.176346 28:0.835731 29:0.803489 30:-0.728967 31:0.842101 32:0.794056 33:-0.708866 34:0.843245 35:0.913812 36:-0.641388 37:0.846819 38:0.99461 39:-0.668205 40:-7.66242e-05 41:-0.237313 42:0.172068 43:0.482546 44:-0.0659362 45:-0.308829 46:0.532372 47:-0.0430262 48:-0.403871 
0.7280095445107391 1.658491936976261 1:-0.156463 2:0.437632 3:0.314423 4:-0.136513 5:0.362665 6:0.29688 7:-0.174932 8:0.501639 9:0.222287 10:-0.305036 11:0.86638 12:0.504912 13:-0.412961 14:0.913141 15:0.50605 16:0.437877 17:0.3885 18:-0.375219 19:0.438648 20:0.264968 21:-0.367264 22:0.419662 23:0.201377 24:-0.269486 25:0.44854 26:0.580926 27:-0.185458 28:0.841848 29:0.790228 30:-0.761282 31:0.843351 32:0.776826 33:-0.734867 34:0.846586 35:0.894353 36:-0.669596 37:0.862 38:0.97396 39:-0.709058 40:0.433134 41:0.00922575 42:-0.25647 43:0.492722 44:-0.0851909 45:-0.335041 46:0.0888656 47:-0.360386 48:-0.00328042 
0 32 1:-0.156463 2:0.437632 3:0.270999 4:-0.129748 5:0.363221 6:0.24213 7:-0.156077 8:0.502984 9:0.148145 10:-0.284245 11:0.867171 12:0.44514 13:-0.376075 14:0.914551 15:0.431235 16:0.546477 17:0.394861 18:-0.599737 19:0.554752 20:0.271794 21:-0.596534 22:0.529969 23:0.206405 24:-0.480927 25:0.559991 26:0.584487 27:-0.392419 28:0.142755 29:0.537625 30:-0.101408 31:0.14591 32:0.486054 33:-0.0929476 34:0.144544 35:0.54989 36:-0.0172423 37:0.159876 38:0.475497 39:-0.0632612 40:-0.107849 41:-0.350807 42:0.175742 43:-0.0683894 44:-0.505162 45:0.106889 46:-0.027741 47:-0.49267 48:0.0180337 
0.8031781887496211 1.815494033291138 1:-0.156463 2:0.437632 3:0.327135 4:-0.138506 5:0.361657 6:0.31292 7:-0.175815 8:0.500572 9:0.239456 10:-0.310068 11:0.865277 12:0.521366 13:-0.419229 14:0.911774 15:0.523925 16:0.418358 17:0.38027 18:-0.321505 19:0.424266 20:0.256665 21:-0.319555 22:0.399093 23:0.188844 24:-0.218519 25:0.436284 26:0.563921 27:-0.142141 28:1 29:0.720967 30:-0.901955 31:0.997966 32:0.696045 33:-0.868264 34:0.990593 35:0.795559 36:-0.792477 37:0.998605 38:0.825679 39:-0.822594 40:0.540449 41:-0.0978203 42:-0.334406 43:0.604178 44:-0.211465 45:-0.414838 46:0.665678 47:-0.190884 48:-0.520964 
0.454608873412624 0 1:-0.156463 2:0.437632 3:0.270667 4:-0.128092 5:0.36342 6:0.240028 7:-0.154168 8:0.503167 9:0.145852 10:-0.289225 11:0.866958 12:0.449759 13:-0.391273 14:0.913918 15:0.444422 16:0.470269 17:0.388935 18:-0.526057 19:0.46426 20:0.264568 21:-0.507839 22:0.412314 23:0.195482 24:-0.372083 25:0.416483 26:0.568475 27:-0.271633 28:0.0236613 29:0.520521 30:0.032066 31:0.023754 32:0.465512 33:0.0404993 34:0.024344 35:0.525687 36:0.114874 37:0.0280208 38:0.437047 39:0.0802463 40:-0.205747 41:-0.377768 42:0.268284 43:-0.166371 44:-0.535571 45:0.198229 46:0.699252 47:-0.260865 48:-0.667794 
0.06482364735239307 1.101249398614738 1:-0.156463 2:0.437632 3:0.250416 4:-0.128045 5:0.363571 6:0.217758 7:-0.154061 8:0.503421 9:0.11977 10:-0.28293 11:0.867417 12:0.425242 13:-0.381969 14:0.914547 15:0.416551 16:0.507875 17:0.393199 18:-0.618001 19:0.486679 20:0.267847 21:-0.583359 22:0.430247 23:0.19911 24:-0.439454 25:0.421547 26:0.571998 27:-0.328388 28:0.014938 29:0.522809 30:-0.0184503 31:0.0107425 32:0.467711 33:-0.00369385 34:-0.00115788 35:0.52604 36:0.0848734 37:0.0109037 38:0.440329 39:0.0414482 40:-0.222141 41:-0.376043 42:0.245333 43:-0.186697 44:-0.534354 45:0.177734 46:0.735993 47:-0.246978 48:-0.743731 
0.4707369331112045 0.2188986442151937 1:-0.156463 2:0.437632 3:0.268344 4:-0.123184 5:0.364113 6:0.232325 7:-0.148532 8:0.503799 9:0.137361 10:-0.281037 11:0.867483 12:0.439573 13:-0.372876 14:0.914914 15:0.425821 16:0.530037 17:0.394552 18:-0.590878 19:0.52024 20:0.269891 21:-0.569368 22:0.458927 23:0.200501 24:-0.421347 25:0.448516 26:0.572578 27:-0.304806 28:0.029047 29:0.521522 30:0.0190585 31:0.0156836 32:0.464185 33:0.0426669 34:0.0115443 35:0.523058 36:0.122362 37:0.0227266 38:0.435728 39:0.079444 40:-0.210445 41:-0.378781 42:0.268332 43:0.662836 44:-0.254554 45:-0.584805 46:0.737626 47:-0.229876 48:-0.708699 
0.5313319927660711 0.9846322852338117 1:-0.156463 2:0.437632 3:0.27347 4:-0.129001 5:0.363491 6:0.244058 7:-0.149855 8:0.503859 9:0.145231 10:-0.270271 11:0.868244 12:0.433575 13:-0.362508 14:0.915638 15:0.421567 16:0.577999 17:0.399883 18:-0.623859 19:0.582087 20:0.27651 21:-0.617086 22:0.550488 23:0.211104 24:-0.493874 25:0.546454 26:0.585543 27:-0.374544 28:0.1124 29:0.535139 30:-0.0597701 31:0.10137 32:0.480157 33:-0.0368025 34:0.0826253 35:0.538371 36:0.0584121 37:0.067942 38:0.449058 39:0.044477 40:-0.188918 41:-0.373389 42:0.257604 43:-0.147422 44:-0.529496 45:0.185917 46:0.793378 47:-0.186207 48:-0.750783 
0 0.1294075503629391 1:-0.156463 2:0.437632 3:0.274934 4:-0.127949 5:0.363816 6:0.244559 7:-0.136539 8:0.505645 9:0.134086 10:-0.273792 11:0.868305 12:0.438374 13:-0.365651 14:0.915818 15:0.425778 16:0.563617 17:0.400211 18:-0.605799 19:0.566725 20:0.276732 21:-0.598025 22:0.491073 23:0.205691 24:-0.434828 25:0.473669 26:0.576724 27:-0.309055 28:0.0656187 29:0.527991 30:-0.00258916 31:0.0460693 32:0.469616 33:0.0282727 34:0.0315347 35:0.526404 36:0.119182 37:0.0282528 38:0.435639 39:0.0921171 40:-0.205021 41:-0.378149 42:0.275716 43:0.702908 44:-0.183402 45:-0.609549 46:0.75237 47:-0.167042 48:-0.709149 
0 0.2680118246696996 1:-0.156463 2:0.437632 3:0.274934 4:-0.129676 5:0.363544 6:0.246372 7:-0.149467 8:0.504233 9:0.146729 10:-0.272299 11:0.868409 12:0.436899 13:-0.363887 14:0.915929 15:0.42421 16:0.568091 17:0.400711 18:-0.610178 19:0.57097 20:0.277211 21:-0.602227 22:0.525049 23:0.21006 24:-0.4665 25:0.516833 26:0.583301 27:-0.345644 28:0.0738319 29:0.529584 30:-0.0118619 31:0.0663028 32:0.474169 33:0.00601063 34:0.0513558 35:0.531699 36:0.0972378 37:0.0400112 38:0.440158 39:0.0792348 40:-0.184085 41:-0.370593 42:0.25579 43:0.0409963 44:-0.451517 45:0.0118823 46:0.774525 47:-0.158086 48:-0.73003 
0 2.637055234162153 1:-0.156463 2:0.437632 3:0.274319 4:-0.12996 5:0.363575 6:0.245996 7:-0.154507 8:0.503822 9:0.150869 10:-0.274638 11:0.868376 12:0.438654 13:-0.365228 14:0.916018 15:0.424807 16:0.572786 17:0.40215 18:-0.616446 19:0.574698 20:0.278559 21:-0.607535 22:0.540852 23:0.213165 24:-0.482769 25:0.515286 26:0.584109 27:-0.345924 28:0.0844536 29:0.532585 30:-0.0256865 31:0.0602308 32:0.473669 33:0.0109161 34:0.0410736 35:0.529777 36:0.106854 37:0.033288 38:0.438688 39:0.0848533 40:-0.198713 41:-0.374898 42:0.268542 43:0.726461 44:-0.158556 45:-0.632861 46:0.0343898 47:-0.453215 48:-0.0337488 
0.8621911730178197 0.385875466518417 1:-0.156463 2:0.437632 3:0.273294 4:-0.130109 5:0.363596 6:0.245027 7:-0.152757 8:0.504113 9:0.147841 10:-0.275081 11:0.868417 12:0.438165 13:-0.365929 14:0.91607 15:0.424438 16:0.566137 17:0.401882 18:-0.612732 19:0.563816 20:0.277791 21:-0.599464 22:0.521232 23:0.211109 24:-0.467044 25:0.502483 26:0.582699 27:-0.337729 28:0.0692441 29:0.53009 30:-0.0115708 31:0.0410679 32:0.469734 33:0.0290366 34:0.026011 35:0.526186 36:0.12058 37:0.0297162 38:0.438198 39:0.0858532 40:-0.204662 41:-0.376372 42:0.272252 43:0.711869 44:-0.156656 45:-0.621164 46:0.0172103 47:-0.458122 48:-0.0196497 
0.2968630441352086 0.8484527596045676 1:-0.156463 2:0.437632 3:0.275972 4:-0.128233 5:0.363847 6:0.245996 7:-0.150198 8:0.504292 9:0.148776 10:-0.280539 11:0.86793 12:0.445974 13:-0.363427 14:0.916114 15:0.424807 16:0.581824 17:0.403089 18:-0.620791 19:0.587518 20:0.279938 21:-0.615871 22:0.55371 23:0.214721 24:-0.490619 25:0.567873 26:0.592219 27:-0.386219 28:0.121367 29:0.539747 30:-0.0624362 31:0.0926254 32:0.480884 33:-0.0199512 34:0.0689145 35:0.537043 36:0.0807852 37:0.0647257 38:0.450534 39:0.055111 40:-0.183573 41:-0.369768 42:0.257279 43:0.742079 44:-0.152657 45:-0.644292 46:0.801225 47:-0.132133 48:-0.753075 
0.3472319455040304 17.40749181554812 1:-0.156463 2:0.437632 3:0.205088 4:-0.126659 5:0.364654 6:0.166567 7:-0.152748 8:0.504926 9:0.0603388 10:-0.282464 11:0.868371 12:0.383822 13:-0.374668 14:0.916168 15:0.366189 16:0.552738 17:0.404 18:-0.785324 19:0.576189 20:0.283365 21:-0.791321 22:0.562729 23:0.222099 24:-0.676326 25:0.629515 26:0.61117 27:-0.622094 28:0.230277 29:0.572714 30:-0.396688 31:0.214727 32:0.523404 33:-0.359093 34:0.155369 35:0.579281 36:-0.218755 37:0.109676 38:0.497008 39:-0.195573 40:-0.165282 41:-0.340913 42:0.104924 43:-0.129025 44:-0.492425 45:0.0350057 46:-0.0634913 47:-0.466563 48:-0.0827253 
0.8368789620962578 2.390389302145365 1:-0.156463 2:0.437632 3:0.200008 4:-0.160422 5:0.357849 6:0.196445 7:-0.226489 8:0.494754 9:0.125932 10:-0.361164 11:0.861563 12:0.456946 13:-0.495258 14:0.906923 15:0.468456 16:0.239218 17:0.363038 18:-0.492315 19:0.274748 20:0.245812 21:-0.506327 22:0.261548 23:0.181338 24:-0.408281 25:0.29354 26:0.560433 27:-0.35046 28:-0.0275719 29:0.528251 30:-0.120704 31:0.0443576 32:0.498585 33:-0.186314 34:0.160141 35:0.609055 36:-0.238644 37:-0.0503087 38:0.447287 39:-0.0347396 40:-0.252503 41:-0.360106 42:0.178266 43:-0.306659 44:-0.560858 45:0.191847 46:-0.305439 47:-0.562236 48:0.134935 
0.1069557304653934 0 1:-0.156463 2:0.437632 3:0.207045 4:-0.131028 5:0.36417 6:0.173301 7:-0.15514 8:0.505085 9:0.0651882 10:-0.285011 11:0.86848 12:0.388105 13:-0.378756 14:0.91632 15:0.371716 16:0.557034 17:0.407061 18:-0.784202 19:0.556719 20:0.283779 21:-0.766896 22:0.461988 23:0.211109 24:-0.577526 25:0.419321 26:0.580503 27:-0.438852 28:-0.0120864 29:0.526297 30:-0.117215 31:-0.0255344 32:0.469764 33:-0.0890838 34:0.00832236 35:0.541771 36:-0.0503343 37:0.0359663 38:0.472783 39:-0.109261 40:-0.210868 41:-0.354453 42:0.152036 43:-0.210307 44:-0.52314 45:0.11514 46:-0.171255 47:-0.506939 48:0.0228273 
0.05005584193546619 0 1:-0.156463 2:0.437632 3:0.21065 4:-0.129805 5:0.36451 6:0.175974 7:-0.152155 8:0.505695 9:0.0668948 10:-0.281946 11:0.868883 12:0.388336 13:-0.372273 14:0.917017 15:0.369443 16:0.502897 17:0.400941 18:-0.721401 19:0.443094 20:0.269493 21:-0.644934 22:0.352399 23:0.194986 24:-0.466351 25:0.323198 26:0.56343 27:-0.348033 28:-0.0474462 29:0.518217 30:-0.0665459 31:-0.0146336 32:0.47272 33:-0.0906618 34:0.013784 35:0.54419 36:-0.0460138 37:-0.0271027 38:0.445751 39:-0.0299204 40:-0.276544 41:-0.381309 42:0.221406 43:-0.231314 44:-0.532392 45:0.141909 46:-0.0113558 47:-0.429359 48:-0.120514 
0.2626059141826635 0 1:-0.156463 2:0.437632 3:0.192548 4:-0.130658 5:0.364249 6:0.157007 7:-0.154167 8:0.505186 9:0.045641 10:-0.282499 11:0.868649 12:0.372524 13:-0.377099 14:0.916397 15:0.356212 16:0.549313 17:0.405774 18:-0.816115 19:0.558659 20:0.283743 21:-0.80699 22:0.518392 23:0.219221 24:-0.666362 25:0.48285 26:0.592159 27:-0.530256 28:0.0342361 29:0.537979 30:-0.212726 31:-0.00745575 32:0.476873 33:-0.150858 34:-0.00411997 35:0.541094 36:-0.0782447 37:0.0208618 38:0.470241 39:-0.133909 40:-0.192607 41:-0.344608 42:0.107058 43:-0.137124 44:-0.487571 45:0.0181029 46:-0.0798304 47:-0.46373 48:-0.0929061 
0 32 1:-0.156463 2:0.437632 3:0.228034 4:-0.126834 5:0.364521 6:0.191928 7:-0.151014 8:0.50493 9:0.0880787 10:-0.282894 11:0.868222 12:0.404982 13:-0.378854 14:0.915738 15:0.392119 16:0.550564 17:0.40291 18:-0.72072 19:0.565254 20:0.281186 21:-0.720072 22:0.530356 23:0.216591 24:-0.588755 25:0.525952 26:0.593002 27:-0.474866 28:0.068043 29:0.537864 30:-0.145121 31:0.0308725 32:0.477446 33:-0.0905052 34:0.0111196 35:0.534781 36:0.0069234 37:0.0489746 38:0.465223 39:-0.0638644 40:-0.170002 41:-0.348695 42:0.1531 43:-0.127835 44:-0.499224 45:0.0787316 46:-0.147123 47:-0.509009 48:0.042901 
0 32 1:-0.156463 2:0.437632 3:0.227153 4:-0.127001 5:0.364554 6:0.191137 7:-0.153562 8:0.504726 9:0.089441 10:-0.283329 11:0.86825 12:0.404615 13:-0.379539 14:0.915772 15:0.391875 16:0.54389 17:0.402592 18:-0.716587 19:0.554279 20:0.280398 21:-0.711528 22:0.506433 23:0.213935 24:-0.568657 25:0.475041 26:0.585468 27:-0.433992 28:0.0243665 29:0.529459 30:-0.0984335 31:0.00365533 32:0.471496 33:-0.0631042 34:0.00767797 35:0.534389 36:0.00820131 37:0.0450469 38:0.464821 39:-0.0620637 40:-0.173398 41:-0.348898 42:0.154656 43:-0.167983 44:-0.51503 45:0.114704 46:-0.172827 47:-0.518869 48:0.0653283 
0 5.988448791875477 1:-0.156463 2:0.437632 3:0.226381 4:-0.128561 5:0.364249 6:0.191928 7:-0.151042 8:0.504952 9:0.0859856 10:-0.282924 11:0.868236 12:0.403518 13:-0.377152 14:0.915871 15:0.389006 16:0.545965 17:0.402491 18:-0.72072 19:0.556646 20:0.280305 21:-0.715904 22:0.530131 23:0.216734 24:-0.59268 25:0.50664 26:0.590186 27:-0.462778 28:0.0555421 29:0.535641 30:-0.135934 31:0.0225241 32:0.475869 33:-0.0860962 34:0.0225238 35:0.538428 36:-0.0104557 37:0.0408078 38:0.462682 39:-0.0596148 40:-0.17035 41:-0.348275 42:0.150285 43:-0.116056 44:-0.493593 45:0.0644425 46:-0.150701 47:-0.509782 48:0.042901 
0 26.56795895537768 1:-0.156463 2:0.437632 3:0.242 4:-0.12771 5:0.364024 6:0.208171 7:-0.153204 8:0.504123 9:0.108135 10:-0.283645 11:0.867806 12:0.418343 13:-0.377059 14:0.915352 15:0.404041 16:0.544224 17:0.399369 18:-0.67649 19:0.553022 20:0.276708 21:-0.671188 22:0.537313 23:0.213602 24:-0.560309 25:0.545002 26:0.590988 27:-0.454836 28:0.0892933 29:0.537376 30:-0.127487 31:0.0445938 32:0.475949 33:-0.0652555 34:0.0258685 35:0.53357 36:0.0307538 37:0.0464439 38:0.455341 39:-0.0214039 40:-0.178929 41:-0.359435 42:0.188184 43:-0.119546 44:-0.505813 45:0.0982419 46:-0.0643406 47:-0.48604 48:-0.00662917 
0 32 1:-0.156463 2:0.437632 3:0.242378 4:-0.126117 5:0.364299 6:0.206914 7:-0.151395 8:0.504368 9:0.106852 10:-0.284025 11:0.867819 12:0.419061 13:-0.37589 14:0.915476 15:0.403368 16:0.542272 17:0.399468 18:-0.673549 19:0.555081 20:0.277255 21:-0.672228 22:0.513293 23:0.211071 24:-0.53697 25:0.503103 26:0.585349 27:-0.418339 28:0.0491603 29:0.530236 30:-0.0810458 31:-0.003222 32:0.465785 33:-0.0115499 34:0.0228589 35:0.532874 36:0.0351743 37:0.0470623 38:0.45584 39:-0.0210057 40:-0.175735 41:-0.357996 42:0.185865 43:-0.119737 44:-0.505279 45:0.0991624 46:-0.0617118 47:-0.484188 48:-0.0083338 
0 32 1:-0.156463 2:0.437632 3:0.252413 4:-0.127795 5:0.363959 6:0.219687 7:-0.15341 8:0.50401 9:0.121696 10:-0.282358 11:0.867834 12:0.426482 13:-0.3774 14:0.915257 15:0.414423 16:0.538638 17:0.398372 18:-0.64267 19:0.556107 20:0.276576 21:-0.64682 22:0.527373 23:0.211782 24:-0.524996 25:0.504747 26:0.584073 27:-0.393738 28:0.0590797 29:0.530269 30:-0.0623341 31:0.0272118 32:0.470109 33:-0.0160431 34:0.024906 35:0.530597 36:0.0617621 37:0.0532965 38:0.453888 39:0.000682338 40:-0.170775 41:-0.359511 42:0.200248 43:-0.117524 44:-0.508367 45:0.116695 46:-0.0591989 47:-0.487477 48:0.00976823 
0 17.56662391956688 1:-0.156463 2:0.437632 3:0.272104 4:-0.128112 5:0.363859 6:0.241625 7:-0.152034 8:0.504067 9:0.14561 10:-0.284673 11:0.867621 12:0.446562 13:-0.378689 14:0.915102 15:0.434628 16:0.53903 17:0.398006 18:-0.58944 19:0.513387 20:0.271221 21:-0.552682 22:0.441744 23:0.19985 24:-0.395923 25:0.422524 26:0.569519 27:-0.273032 28:0.00108326 29:0.516046 30:0.0618402 31:-0.0016583 32:0.459578 33:0.0726122 34:0.0318576 35:0.527553 36:0.110688 37:0.0633417 38:0.450978 39:0.0456353 40:-0.187473 41:-0.370438 42:0.253628 43:-0.156731 44:-0.529935 45:0.191987 46:-0.10023 47:-0.509598 48:0.0886047 
0 32 1:-0.156463 2:0.437632 3:0.267465 4:-0.129444 5:0.363578 6:0.237934 7:-0.15535 8:0.503586 9:0.142901 10:-0.285118 11:0.867511 12:0.442809 13:-0.378776 14:0.914981 15:0.430215 16:0.539948 17:0.397447 18:-0.60297 19:0.557646 20:0.275558 21:-0.608706 22:0.524944 23:0.209954 24:-0.485083 25:0.516887 26:0.58357 27:-0.365037 28:0.0698153 29:0.52955 30:-0.0295889 31:0.0340602 32:0.468224 33:0.0199084 34:0.0279762 35:0.527182 36:0.101645 37:0.0527503 38:0.447305 39:0.0440555 40:-0.17089 41:-0.364406 42:0.229014 43:-0.117316 44:-0.514213 45:0.145916 46:-0.113052 47:-0.514828 48:0.0912263 
0 32 1:-0.156463 2:0.437632 3:0.263801 4:-0.13107 5:0.363343 6:0.23562 7:-0.155057 8:0.503614 9:0.137913 10:-0.284807 11:0.867527 12:0.43919 13:-0.380061 14:0.914899 15:0.42781 16:0.537023 17:0.39709 18:-0.610085 19:0.555193 20:0.275233 21:-0.615928 22:0.53563 23:0.2112 24:-0.50421 25:0.548485 26:0.588214 27:-0.401314 28:0.0885935 29:0.533345 30:-0.0617137 31:0.0608112 32:0.474538 33:-0.0201123 34:0.0422766 35:0.531647 36:0.0752765 37:0.0472957 38:0.446477 39:0.039617 40:-0.165699 41:-0.361912 42:0.217097 43:-0.114841 44:-0.512531 45:0.136431 46:-0.0911878 47:-0.505478 48:0.0631448 
0 32 1:-0.156463 2:0.437632 3:0.262448 4:-0.127736 5:0.363878 6:0.230635 7:-0.151089 8:0.504101 9:0.132298 10:-0.2852 11:0.867553 12:0.438357 13:-0.37891 14:0.915038 15:0.425477 16:0.539512 17:0.397755 18:-0.616203 19:0.557133 20:0.275898 21:-0.62141 22:0.511481 23:0.20881 24:-0.485083 25:0.496717 26:0.581387 27:-0.360937 28:0.0482826 29:0.526453 30:-0.0202338 31:0.0249702 32:0.467384 33:0.0154152 34:0.0269531 35:0.528321 36:0.0883513 37:0.0595312 38:0.451935 39:0.0223689 40:-0.165814 41:-0.361026 42:0.21463 43:-0.10286 44:-0.506605 45:0.122539 46:-0.120711 47:-0.515673 48:0.0882093 
0 32 1:-0.156463 2:0.437632 3:0.25877 4:-0.127614 5:0.363888 6:0.226471 7:-0.152956 8:0.5039 9:0.129405 10:-0.284887 11:0.867569 12:0.434723 13:-0.378408 14:0.915059 15:0.421472 16:0.545644 17:0.398338 18:-0.63222 19:0.558986 20:0.276024 21:-0.632931 22:0.530728 23:0.211119 24:-0.512224 25:0.523396 26:0.585393 27:-0.39308 28:0.0794725 29:0.532588 30:-0.0664118 31:0.0393954 32:0.471132 33:-0.0110845 34:0.0292097 35:0.529761 36:0.0752765 37:0.0541381 38:0.451068 39:0.0178229 40:-0.169687 41:-0.361658 42:0.211313 43:-0.10654 44:-0.507395 45:0.118806 46:-0.050575 47:-0.48786 48:0.0146067 
0 27.44046964922567 1:-0.156463 2:0.437632 3:0.275156 4:-0.128992 5:0.363477 6:0.245898 7:-0.154208 8:0.503422 9:0.151649 10:-0.285419 11:0.867311 12:0.450056 13:-0.378617 14:0.914734 15:0.437517 16:0.541697 17:0.396184 18:-0.583742 19:0.556292 20:0.273803 21:-0.587114 22:0.542016 23:0.209967 24:-0.481761 25:0.595668 26:0.591991 27:-0.411894 28:0.154613 29:0.542177 30:-0.102407 31:0.126489 32:0.484866 33:-0.0595699 34:0.09512 35:0.540916 36:0.0494255 37:0.0682974 38:0.448483 39:0.0488776 40:-0.170207 41:-0.367811 42:0.243004 43:-0.112301 44:-0.517252 45:0.156237 46:-0.0619021 47:-0.5007 48:0.058708 
0 32 1:-0.156463 2:0.437632 3:0.275814 4:-0.127563 5:0.363325 6:0.245119 7:-0.150604 8:0.503181 9:0.14897 10:-0.281634 11:0.867165 12:0.446913 13:-0.370684 14:0.91459 15:0.431104 16:0.566016 17:0.395308 18:-0.60575 19:0.592263 20:0.273543 21:-0.620984 22:0.54168 23:0.20619 24:-0.479801 25:0.518362 26:0.57865 27:-0.344659 28:0.0729216 29:0.526768 30:-0.00820953 31:0.0605372 32:0.470924 33:0.014898 34:0.103879 35:0.540138 36:0.0416213 37:0.137381 38:0.465984 39:-0.0249355 40:-0.1083 41:-0.353435 42:0.185337 43:-0.0415314 44:-0.500417 45:0.0910828 46:0.0179174 47:-0.482698 48:-0.0151742 
0 32 1:-0.156463 2:0.437632 3:0.278124 4:-0.125631 5:0.363448 6:0.245626 7:-0.148018 8:0.503269 9:0.149404 10:-0.278152 11:0.86726 12:0.445563 13:-0.371963 14:0.914473 15:0.434477 16:0.57258 17:0.39537 18:-0.605883 19:0.594419 20:0.273245 21:-0.617034 22:0.580115 23:0.208885 24:-0.509849 25:0.551888 26:0.581518 27:-0.367093 28:0.106262 29:0.530684 30:-0.0389669 31:0.0807516 32:0.473604 33:-0.000669325 34:0.0943961 35:0.537774 36:0.0587636 37:0.15368 38:0.469122 39:-0.0362249 40:-0.105219 41:-0.353622 42:0.186804 43:-0.0446576 44:-0.502643 45:0.0985327 46:0.0219301 47:-0.48312 48:-0.0142437 
0 32 1:-0.156463 2:0.437632 3:0.278771 4:-0.127303 5:0.363274 6:0.248091 7:-0.147695 8:0.503233 9:0.149918 10:-0.280944 11:0.867115 12:0.448904 13:-0.371425 14:0.914446 15:0.434624 16:0.56489 17:0.394572 18:-0.596599 19:0.591953 20:0.272751 21:-0.612893 22:0.587008 23:0.209033 24:-0.514659 25:0.605836 26:0.586405 27:-0.411149 28:0.139596 29:0.534654 30:-0.074677 31:0.100861 32:0.476468 33:-0.0209279 34:0.093118 35:0.537404 36:0.062037 37:0.140166 38:0.465076 39:-0.0195843 40:-0.0958912 41:-0.351797 42:0.179156 43:-0.0380655 44:-0.501498 45:0.0936064 46:0.0221754 47:-0.483952 48:-0.0131566 
0 32 1:-0.156463 2:0.437632 3:0.278124 4:-0.12743 5:0.363293 6:0.247514 7:-0.148018 8:0.503269 9:0.149404 10:-0.279716 11:0.867197 12:0.447107 13:-0.37011 14:0.914542 15:0.43283 16:0.57258 17:0.39537 18:-0.605883 19:0.598903 20:0.273563 21:-0.621473 22:0.575615 23:0.208514 24:-0.505655 25:0.546791 26:0.581011 27:-0.362772 28:0.106262 29:0.530684 30:-0.0389669 31:0.0807516 32:0.473604 33:-0.000669325 34:0.0943961 35:0.537774 36:0.0587636 37:0.149462 38:0.46801 39:-0.0316048 40:-0.0987608 41:-0.352008 42:0.180657 43:-0.0379882 44:-0.500755 45:0.0922712 46:0.0219301 47:-0.48312 48:-0.0142437 
0 32 1:-0.156463 2:0.437632 3:0.277041 4:-0.127309 5:0.363288 6:0.246199 7:-0.149964 8:0.503122 9:0.149918 10:-0.28096 11:0.867129 12:0.447357 13:-0.371452 14:0.914466 15:0.432973 16:0.564802 17:0.394678 18:-0.601221 19:0.587352 20:0.272561 21:-0.612893 22:0.586879 23:0.209184 24:-0.518865 25:0.585218 26:0.584657 27:-0.398152 28:0.13064 29:0.533822 30:-0.0697197 31:0.0963194 32:0.476153 33:-0.0209279 34:0.0886261 35:0.53705 36:0.062037 37:0.148377 38:0.46785 39:-0.0334941 40:-0.0993504 41:-0.352138 42:0.179156 43:-0.0416654 44:-0.501881 45:0.0936064 46:0.028794 47:-0.481451 48:-0.0229222 
0 32 1:-0.156463 2:0.437632 3:0.27467 4:-0.127441 5:0.363321 6:0.243737 7:-0.150298 8:0.503175 9:0.147204 10:-0.281313 11:0.867162 12:0.445563 13:-0.373872 14:0.914442 15:0.43283 16:0.56297 17:0.394934 18:-0.605883 19:0.594199 20:0.27348 21:-0.625912 22:0.557347 23:0.207331 24:-0.497266 25:0.536235 26:0.580443 27:-0.362772 28:0.0883889 29:0.528962 30:-0.0290828 31:0.0673547 32:0.472288 33:0.00409278 34:0.0981815 35:0.539339 36:0.0446403 37:0.14472 38:0.468091 39:-0.0362249 40:-0.10567 41:-0.352726 42:0.180657 43:-0.0385085 44:-0.499673 45:0.0860096 46:0.0282141 47:-0.480007 48:-0.0272109 
0 32 1:-0.156463 2:0.437632 3:0.273582 4:-0.12732 5:0.363316 6:0.242415 7:-0.149993 8:0.503168 9:0.145509 10:-0.279426 11:0.867219 12:0.442715 13:-0.373362 14:0.914438 15:0.431323 16:0.564625 17:0.394893 18:-0.610466 19:0.587141 20:0.272796 21:-0.621793 22:0.586621 23:0.209485 24:-0.527276 25:0.564424 26:0.583132 27:-0.389487 28:0.112726 29:0.532157 30:-0.0598051 31:0.0872362 32:0.475523 33:-0.0209279 34:0.0839078 35:0.537093 36:0.0573136 37:0.152101 38:0.470133 39:-0.047404 40:-0.0997885 41:-0.351239 42:0.172987 43:-0.0421706 44:-0.500796 45:0.0873209 46:0.0282145 47:-0.480292 48:-0.029432 
0 32 1:-0.156463 2:0.437632 3:0.271216 4:-0.129252 5:0.363193 6:0.241848 7:-0.150329 8:0.503221 9:0.142803 10:-0.28291 11:0.867128 12:0.444019 13:-0.373927 14:0.914482 15:0.429536 16:0.567499 17:0.395473 18:-0.61972 19:0.593979 20:0.273715 21:-0.63479 22:0.548079 23:0.206891 24:-0.497266 25:0.520584 26:0.579368 27:-0.358452 28:0.0792704 29:0.528363 30:-0.0290828 31:0.0582853 32:0.471625 33:0.00409278 34:0.101967 35:0.540904 36:0.0305185 37:0.148413 38:0.470396 39:-0.0500868 40:-0.102892 41:-0.351021 42:0.171438 43:-0.0256896 44:-0.494815 45:0.067225 46:0.0276181 47:-0.478853 48:-0.0336956 
0 32 1:-0.156463 2:0.437632 3:0.271852 4:-0.125524 5:0.363479 6:0.238631 7:-0.147753 8:0.503325 9:0.1411 10:-0.277875 11:0.867295 12:0.439621 13:-0.373388 14:0.914458 15:0.429673 16:0.56926 17:0.395313 18:-0.619711 19:0.591531 20:0.273223 21:-0.630692 22:0.58198 23:0.209276 24:-0.527276 25:0.559139 26:0.582861 27:-0.389487 28:0.10816 29:0.531872 30:-0.0598051 31:0.078354 32:0.474571 33:-0.0161525 34:0.0879478 35:0.538244 36:0.0478667 37:0.164544 38:0.473994 39:-0.0659513 40:-0.093526 41:-0.349208 42:0.163734 43:-0.0290334 44:-0.496552 45:0.0716065 46:0.0279248 47:-0.479715 48:-0.0326868 
0 32 1:-0.156463 2:0.437632 3:0.272549 4:-0.12359 5:0.363594 6:0.237365 7:-0.147429 8:0.503288 9:0.141677 10:-0.277533 11:0.867271 12:0.439913 13:-0.370991 14:0.914497 15:0.428216 16:0.566278 17:0.394847 18:-0.614897 19:0.593557 20:0.273043 21:-0.630864 22:0.588893 23:0.209409 24:-0.531978 25:0.608133 26:0.587114 27:-0.429213 28:0.141604 29:0.535735 30:-0.0954896 31:0.107238 32:0.478623 33:-0.0459204 34:0.0909384 35:0.538653 36:0.0465594 37:0.15103 38:0.469982 39:-0.0491668 40:-0.0841167 41:-0.347478 42:0.156105 43:-0.0290727 44:-0.497328 45:0.0730048 46:0.0351325 47:-0.478675 48:-0.0380594 
0 32 1:-0.156463 2:0.437632 3:0.268393 4:-0.127337 5:0.363358 6:0.236739 7:-0.150037 8:0.503237 9:0.138896 10:-0.281041 11:0.867202 12:0.439621 13:-0.373441 14:0.914497 15:0.426372 16:0.564359 17:0.395213 18:-0.624334 19:0.586824 20:0.27315 21:-0.635143 22:0.572698 23:0.208857 24:-0.527276 25:0.543456 26:0.581828 27:-0.385154 28:0.0990279 29:0.531303 30:-0.0598051 31:0.0692709 32:0.473941 33:-0.0161525 34:0.0917622 35:0.539794 36:0.0336979 37:0.151338 38:0.471927 39:-0.0613138 40:-0.0907231 41:-0.347518 42:0.154482 43:-0.0328863 44:-0.496393 45:0.0684643 46:0.0273454 47:-0.478556 48:-0.0391976 
0 32 1:-0.156463 2:0.437632 3:0.270817 4:-0.1254 5:0.363467 6:0.237365 7:-0.145185 8:0.50344 9:0.13726 10:-0.277548 11:0.867286 12:0.438363 13:-0.371017 14:0.914517 15:0.426562 16:0.570927 17:0.395257 18:-0.624163 19:0.597962 20:0.27346 21:-0.639785 22:0.593291 23:0.20991 24:-0.540411 25:0.597715 26:0.586378 27:-0.424869 28:0.137032 29:0.535465 30:-0.0954896 31:0.0983356 32:0.477703 33:-0.0411288 34:0.0907198 35:0.539052 36:0.0418198 37:0.150784 38:0.470581 39:-0.0538189 40:-0.0908333 41:-0.348575 42:0.1592 43:-0.032678 44:-0.497691 45:0.0730048 46:0.0313836 47:-0.479036 48:-0.0380594 
0 32 1:-0.156463 2:0.437632 3:0.268393 4:-0.125535 5:0.363507 6:0.234848 7:-0.150037 8:0.503237 9:0.138896 10:-0.281041 11:0.867202 12:0.439621 13:-0.371585 14:0.914564 15:0.424721 16:0.564359 17:0.395213 18:-0.624334 19:0.586824 20:0.27315 21:-0.635143 22:0.568186 23:0.208497 24:-0.52307 25:0.538345 26:0.581335 27:-0.380822 28:0.0946377 29:0.530756 30:-0.0548479 31:0.0692709 32:0.473941 33:-0.0161525 34:0.0960286 35:0.540547 36:0.0289744 37:0.147106 38:0.470839 39:-0.0566776 40:-0.0972044 41:-0.3491 42:0.16065 43:-0.0362337 44:-0.497318 45:0.0716065 46:0.0238915 47:-0.479518 48:-0.0359427 
0 32 1:-0.156463 2:0.437632 3:0.270817 4:-0.1254 5:0.363467 6:0.237365 7:-0.147443 8:0.503312 9:0.139469 10:-0.279118 11:0.867227 12:0.439913 13:-0.372877 14:0.914452 15:0.428216 16:0.566193 17:0.394954 18:-0.61953 19:0.588949 20:0.272863 21:-0.630864 22:0.593291 23:0.20991 24:-0.540411 25:0.597715 26:0.586378 27:-0.424869 28:0.132629 29:0.534932 30:-0.0905184 31:0.0983356 32:0.477703 33:-0.0411288 34:0.0864398 35:0.538317 36:0.0465594 37:0.14229 38:0.468454 39:-0.0445147 40:-0.0908333 41:-0.348575 42:0.1592 43:-0.032678 44:-0.497691 45:0.0730048 46:0.0279159 47:-0.479979 48:-0.034791 
0 32 1:-0.156463 2:0.437632 3:0.268393 4:-0.129139 5:0.363209 6:0.238631 7:-0.150037 8:0.503237 9:0.138896 10:-0.281041 11:0.867202 12:0.439621 13:-0.373441 14:0.914497 15:0.426372 16:0.559636 17:0.3949 18:-0.619711 19:0.586824 20:0.27315 21:-0.635143 22:0.559163 23:0.207777 24:-0.514659 25:0.538345 26:0.581335 27:-0.380822 28:0.0946377 29:0.530756 30:-0.0548479 31:0.0692709 32:0.473941 33:-0.0161525 34:0.0917622 35:0.539794 36:0.0336979 37:0.142874 38:0.469752 39:-0.0520415 40:-0.100445 41:-0.34989 42:0.163734 43:-0.0395814 44:-0.498244 45:0.0747498 46:0.0238915 47:-0.479518 48:-0.0359427 
0 32 1:-0.156463 2:0.437632 3:0.270817 4:-0.127204 5:0.363325 6:0.239259 7:-0.149701 8:0.503183 9:0.141677 10:-0.280687 11:0.867168 12:0.441463 13:-0.371017 14:0.914517 15:0.426562 16:0.561459 17:0.394651 18:-0.614897 19:0.584443 20:0.272564 21:-0.626404 22:0.584245 23:0.20921 24:-0.531978 25:0.58234 26:0.584942 27:-0.411836 28:0.128226 29:0.534399 30:-0.0855471 31:0.0939822 32:0.477081 33:-0.0363386 34:0.0864398 35:0.538317 36:0.0465594 37:0.146537 38:0.469517 39:-0.0491668 40:-0.0973385 41:-0.350123 42:0.165391 43:-0.0393984 44:-0.499505 45:0.0793143 46:0.0244483 47:-0.480923 48:-0.0315236 
0 32 1:-0.156463 2:0.437632 3:0.271852 4:-0.127326 5:0.36333 6:0.240523 7:-0.147753 8:0.503325 9:0.1411 10:-0.279442 11:0.867234 12:0.441168 13:-0.371531 14:0.914525 15:0.428022 16:0.559813 17:0.394685 18:-0.610466 19:0.591531 20:0.273223 21:-0.630692 22:0.568445 23:0.208195 24:-0.514659 25:0.538694 26:0.580891 27:-0.372157 28:0.094989 29:0.53023 30:-0.0449348 31:0.0696728 32:0.473297 33:-0.00660017 34:0.0964805 35:0.53975 36:0.0384199 37:0.143382 38:0.468556 39:-0.0427678 40:-0.0967668 41:-0.349999 42:0.166818 43:-0.0390758 44:-0.499329 45:0.0810353 46:0.0279248 47:-0.479715 48:-0.0326868 
0 32 1:-0.156463 2:0.437632 3:0.274281 4:-0.127193 5:0.363297 6:0.243049 7:-0.149674 8:0.503137 9:0.146093 10:-0.279087 11:0.867198 12:0.443013 13:-0.372827 14:0.914413 15:0.431524 16:0.566363 17:0.39474 18:-0.610264 19:0.589152 20:0.272627 21:-0.621943 22:0.589017 23:0.209258 24:-0.527762 25:0.587801 26:0.584975 27:-0.407492 28:0.132968 29:0.534405 30:-0.0805763 31:0.0987243 32:0.477057 33:-0.0315484 34:0.0868772 35:0.537519 36:0.0560357 37:0.147029 38:0.468319 39:-0.0398626 40:-0.0969139 41:-0.351024 42:0.171582 43:-0.0355478 44:-0.499686 45:0.0824686 46:0.0284788 47:-0.481141 48:-0.0282552 
0 32 1:-0.156463 2:0.437632 3:0.273582 4:-0.12732 5:0.363316 6:0.242415 7:-0.149993 8:0.503168 9:0.145509 10:-0.280992 11:0.867158 12:0.444263 13:-0.373362 14:0.914438 15:0.431323 16:0.564625 17:0.394893 18:-0.610466 19:0.587141 20:0.272796 21:-0.621793 22:0.564062 23:0.207684 24:-0.506248 25:0.538869 26:0.580669 27:-0.367824 28:0.095165 29:0.529967 30:-0.0399776 31:0.0655332 32:0.472338 33:0.00295212 34:0.0967065 35:0.539352 36:0.0431433 37:0.143636 38:0.467958 39:-0.0381303 40:-0.096548 41:-0.350448 42:0.169903 43:-0.0421706 44:-0.500796 45:0.0873209 46:0.0247606 47:-0.481254 48:-0.0261771 
0 32 1:-0.156463 2:0.437632 3:0.276013 4:-0.127188 5:0.363283 6:0.244944 7:-0.14966 8:0.503114 9:0.148301 10:-0.280641 11:0.867125 12:0.446113 13:-0.372801 14:0.914393 15:0.433178 16:0.566448 17:0.394632 18:-0.605631 19:0.589254 20:0.272508 21:-0.617483 22:0.589141 23:0.209106 24:-0.523545 25:0.593094 26:0.585232 27:-0.407492 28:0.133137 29:0.534142 30:-0.0756053 31:0.0945646 32:0.476113 33:-0.0219681 34:0.0913758 35:0.537855 36:0.0560357 37:0.151522 38:0.468783 39:-0.0398626 40:-0.090197 41:-0.349927 42:0.168486 43:-0.0420229 44:-0.502043 45:0.0919323 46:0.02876 47:-0.48172 48:-0.0249878 
0 32 1:-0.156463 2:0.437632 3:0.273112 4:-0.127826 5:0.363374 6:0.24243 7:-0.149031 8:0.503417 9:0.143965 10:-0.277671 11:0.867426 12:0.440558 13:-0.368136 14:0.914818 15:0.426223 16:0.548335 17:0.394644 18:-0.595804 19:0.48568 20:0.266028 21:-0.522604 22:0.411959 23:0.195294 24:-0.365638 25:0.391379 26:0.56562 27:-0.244022 28:0.0373317 29:0.52228 30:0.0239167 31:0.0891916 32:0.476027 33:-0.0244385 34:0.122791 35:0.544739 36:0.012913 37:0.142837 38:0.469264 39:-0.0385924 40:-0.0919214 41:-0.347562 42:0.164604 43:-0.0286242 44:-0.494351 45:0.0736834 46:0.0237359 47:-0.478362 48:-0.0261708 
0 32 1:-0.156463 2:0.437632 3:0.276013 4:-0.127188 5:0.363283 6:0.244944 7:-0.14966 8:0.503114 9:0.148301 10:-0.279072 11:0.867183 12:0.444563 13:-0.37094 14:0.914458 15:0.431524 16:0.566448 17:0.394632 18:-0.605631 19:0.589254 20:0.272508 21:-0.617483 22:0.584618 23:0.208757 24:-0.519329 25:0.58797 26:0.584753 27:-0.403148 28:0.128735 29:0.533609 30:-0.0706343 31:0.0902107 32:0.475492 33:-0.0171779 34:0.0913758 35:0.537855 36:0.0560357 37:0.160015 38:0.47091 39:-0.0491668 40:-0.0934494 41:-0.350701 42:0.171582 43:-0.0386628 44:-0.501136 45:0.0887781 46:0.0218255 47:-0.483604 48:-0.018452 
0 32 1:-0.156463 2:0.437632 3:0.275311 4:-0.125513 5:0.363451 6:0.242415 7:-0.149978 8:0.503145 9:0.147713 10:-0.27941 11:0.867205 12:0.444263 13:-0.371478 14:0.914485 15:0.431323 16:0.569437 17:0.395099 18:-0.610466 19:0.591742 20:0.272987 21:-0.621793 22:0.564191 23:0.207533 24:-0.502042 25:0.533932 26:0.579954 27:-0.359159 28:0.0953404 29:0.529705 30:-0.0350203 31:0.0657342 32:0.472016 33:0.00772753 34:0.101199 35:0.539707 36:0.0431433 37:0.152355 38:0.469535 39:-0.0427678 40:-0.0930883 41:-0.350107 42:0.169903 43:-0.0318752 44:-0.498562 45:0.0810353 46:0.0250503 47:-0.481834 48:-0.0229222 
0 32 1:-0.156463 2:0.437632 3:0.276013 4:-0.123579 5:0.363566 6:0.241154 7:-0.147401 8:0.503242 9:0.146093 10:-0.277502 11:0.867242 12:0.443013 13:-0.37094 14:0.914458 15:0.431524 16:0.571182 17:0.394936 18:-0.610264 19:0.59376 20:0.272807 21:-0.621943 22:0.589141 23:0.209106 24:-0.523545 25:0.57772 26:0.583795 27:-0.394459 28:0.124332 29:0.533076 30:-0.0656618 31:0.0902107 32:0.475492 33:-0.0171779 34:0.0956558 35:0.538591 36:0.0512975 37:0.160015 38:0.47091 39:-0.0491668 40:-0.0869446 41:-0.349153 42:0.165391 43:-0.0319424 44:-0.499323 45:0.0824686 46:0.0322277 47:-0.480777 48:-0.0282552 
0 27.66438636404195 1:-0.156463 2:0.437632 3:0.275185 4:-0.126579 5:0.363221 6:0.243396 7:-0.150399 8:0.502918 9:0.147962 10:-0.28061 11:0.86702 12:0.445334 13:-0.372108 14:0.914265 15:0.43176 16:0.560441 17:0.393381 18:-0.602007 19:0.585226 20:0.271199 21:-0.615676 22:0.573158 23:0.206559 24:-0.510717 25:0.648732 26:0.588362 27:-0.456798 28:0.262005 29:0.547078 30:-0.22357 31:0.262525 32:0.497277 33:-0.209164 34:0.20996 35:0.556423 36:-0.0776281 37:0.172154 38:0.472909 39:-0.0648192 40:-0.112716 41:-0.355482 42:0.188343 43:-0.0436022 44:-0.50364 45:0.0917974 46:0.0252923 47:-0.484809 48:-0.0234084 
0 32 1:-0.156463 2:0.437632 3:0.270817 4:-0.127204 5:0.363325 6:0.239259 7:-0.147443 8:0.503312 9:0.139469 10:-0.280687 11:0.867168 12:0.441463 13:-0.372877 14:0.914452 15:0.428216 16:0.561459 17:0.394651 18:-0.614897 19:0.584443 20:0.272564 21:-0.626404 22:0.575199 23:0.208511 24:-0.523545 25:0.556715 26:0.582547 27:-0.390115 28:0.110614 29:0.532266 30:-0.0656618 31:0.0765668 32:0.474596 33:-0.0171779 34:0.0907198 35:0.539052 36:0.0418198 37:0.146537 38:0.469517 39:-0.0491668 40:-0.0940861 41:-0.349349 42:0.162296 43:-0.0293179 44:-0.496784 45:0.0698505 46:0.0244483 47:-0.480923 48:-0.0315236 
0 32 1:-0.156463 2:0.437632 3:0.269837 4:-0.12889 5:0.363185 6:0.239954 7:-0.149396 8:0.503175 9:0.140121 10:-0.280366 11:0.867164 12:0.44026 13:-0.374231 14:0.914384 15:0.428471 16:0.558361 17:0.394319 18:-0.614533 19:0.577311 20:0.271941 21:-0.621925 22:0.57744 23:0.208461 24:-0.528086 25:0.600515 26:0.586441 27:-0.429781 28:0.135153 29:0.535246 30:-0.0962894 31:0.100967 32:0.478277 33:-0.0468572 34:0.0849192 35:0.538413 36:0.0454241 37:0.141183 38:0.468382 39:-0.0460872 40:-0.0979233 41:-0.350227 42:0.164082 43:-0.0296182 44:-0.496996 45:0.0682174 46:0.0313707 47:-0.479303 48:-0.0400468 
0 32 1:-0.156463 2:0.437632 3:0.270817 4:-0.1254 5:0.363467 6:0.237365 7:-0.149701 8:0.503183 9:0.141677 10:-0.279118 11:0.867227 12:0.439913 13:-0.372877 14:0.914452 15:0.428216 16:0.561459 17:0.394651 18:-0.614897 19:0.588949 20:0.272863 21:-0.630864 22:0.575199 23:0.208511 24:-0.523545 25:0.556715 26:0.582547 27:-0.390115 28:0.106211 29:0.531733 30:-0.0606908 31:0.072213 32:0.473975 33:-0.0123877 34:0.0907198 35:0.539052 36:0.0418198 37:0.146537 38:0.469517 39:-0.0491668 40:-0.0908333 41:-0.348575 42:0.1592 43:-0.0259577 44:-0.495878 45:0.0666953 46:0.0313836 47:-0.479036 48:-0.0380594 
0 32 1:-0.156463 2:0.437632 3:0.271571 4:-0.127078 5:0.363305 6:0.239954 7:-0.149383 8:0.503152 9:0.142332 10:-0.280352 11:0.867149 12:0.441813 13:-0.372343 14:0.914427 15:0.428471 16:0.563186 17:0.394505 18:-0.614533 19:0.581925 20:0.272111 21:-0.621925 22:0.586628 23:0.208988 24:-0.532313 25:0.600677 26:0.586217 27:-0.425426 28:0.135316 29:0.534982 30:-0.0913043 31:0.101155 32:0.477954 33:-0.0420522 34:0.0894242 35:0.538731 36:0.0454241 37:0.145682 38:0.468821 39:-0.0460872 40:-0.0944539 41:-0.349922 42:0.164082 43:-0.0260082 44:-0.496653 45:0.0682174 46:0.0351248 47:-0.47896 48:-0.0400468 
0 32 1:-0.156463 2:0.437632 3:0.272549 4:-0.125394 5:0.363453 6:0.239259 7:-0.147429 8:0.503288 9:0.141677 10:-0.280672 11:0.867154 12:0.443013 13:-0.372852 14:0.914433 15:0.42987 16:0.561545 17:0.394544 18:-0.610264 19:0.589051 20:0.272745 21:-0.626404 22:0.5708 23:0.20801 24:-0.515113 25:0.546633 26:0.581367 27:-0.377082 28:0.101977 29:0.530936 30:-0.0507488 31:0.0767609 32:0.474273 33:-0.0123877 34:0.0909384 35:0.538653 36:0.0465594 37:0.146783 38:0.468918 39:-0.0445147 40:-0.0906212 41:-0.349026 42:0.162296 43:-0.0257125 44:-0.496421 45:0.0698505 46:0.0420674 47:-0.476788 48:-0.0445952 
0 32 1:-0.156463 2:0.437632 3:0.27504 4:-0.127068 5:0.363277 6:0.24375 7:-0.149356 8:0.503106 9:0.146756 10:-0.280323 11:0.86712 12:0.444919 13:-0.372294 14:0.914387 15:0.431785 16:0.563348 17:0.39429 18:-0.605247 19:0.582119 20:0.271874 21:-0.612983 22:0.586867 23:0.208685 24:-0.523859 25:0.601001 26:0.585771 27:-0.416714 28:0.135643 29:0.534455 30:-0.0813339 31:0.10153 32:0.477307 33:-0.0324423 34:0.0898465 35:0.537931 36:0.0549298 37:0.146158 38:0.46762 39:-0.0367511 40:-0.0973064 41:-0.351582 42:0.173401 43:-0.0255326 44:-0.497744 45:0.0745489 46:0.0391517 47:-0.479198 48:-0.0367658 
0 32 1:-0.156463 2:0.437632 3:0.277745 4:-0.127183 5:0.363269 6:0.246839 7:-0.149646 8:0.503091 9:0.15051 10:-0.279056 11:0.867169 12:0.446113 13:-0.370915 14:0.914438 15:0.433178 16:0.571266 17:0.394829 18:-0.605631 19:0.589355 20:0.27239 21:-0.613022 22:0.580219 23:0.208256 24:-0.510896 25:0.557388 26:0.581657 27:-0.372738 28:0.111292 29:0.531213 30:-0.0457778 31:0.0816971 32:0.473926 33:-0.00280585 34:0.0958745 35:0.538191 36:0.0560357 37:0.151768 38:0.468184 39:-0.0352091 40:-0.0899849 41:-0.350378 42:0.171582 43:-0.0216167 44:-0.497146 45:0.076159 46:0.0429115 47:-0.478529 48:-0.034791 
0 32 1:-0.156463 2:0.437632 3:0.276774 4:-0.12887 5:0.363128 6:0.247545 7:-0.151605 8:0.50296 9:0.15118 10:-0.281881 11:0.867049 12:0.448024 13:-0.374134 14:0.914305 15:0.435099 16:0.558685 17:0.39389 18:-0.595962 19:0.586734 20:0.272045 21:-0.612983 22:0.586986 23:0.208533 24:-0.519632 25:0.601163 26:0.585548 27:-0.412359 28:0.135807 29:0.534191 30:-0.0763492 31:0.101717 32:0.476983 33:-0.0276388 34:0.0900579 35:0.537531 36:0.0596842 37:0.133614 38:0.463901 39:-0.0180801 40:-0.097101 41:-0.352034 42:0.176507 43:-0.0286674 44:-0.499177 45:0.0808814 46:0.0359443 47:-0.480705 48:-0.030205 
0 32 1:-0.156463 2:0.437632 3:0.279477 4:-0.125373 5:0.363396 6:0.246839 7:-0.147374 8:0.503196 9:0.15051 10:-0.279041 11:0.867154 12:0.447663 13:-0.369029 14:0.914483 15:0.433178 16:0.566618 17:0.394418 18:-0.596366 19:0.593963 20:0.272571 21:-0.613022 22:0.580344 23:0.208105 24:-0.50668 25:0.557556 26:0.581434 27:-0.368394 28:0.111462 29:0.53095 30:-0.0408053 31:0.0818917 32:0.473604 33:0.00198434 34:0.0960931 35:0.537792 36:0.0607738 37:0.147768 38:0.466521 39:-0.0259049 40:-0.0897724 41:-0.350829 42:0.174677 43:-0.0247317 44:-0.498596 45:0.0824686 46:0.0397255 47:-0.480051 48:-0.0282552 
0 32 1:-0.156463 2:0.437632 3:0.278508 4:-0.12525 5:0.363384 6:0.245648 7:-0.149329 8:0.503059 9:0.15118 10:-0.278721 11:0.867147 12:0.446471 13:-0.370381 14:0.91441 15:0.433442 16:0.572998 17:0.394661 18:-0.605247 19:0.591348 20:0.272216 21:-0.612983 22:0.59164 23:0.208721 24:-0.519632 25:0.606463 26:0.58579 27:-0.412359 28:0.13597 29:0.533927 30:-0.0713645 31:0.101905 32:0.47666 33:-0.0228339 34:0.0902693 35:0.537131 36:0.064437 37:0.138113 38:0.464339 39:-0.0180801 40:-0.0936316 41:-0.351729 42:0.176507 43:-0.0284295 44:-0.499722 45:0.0840477 46:0.039698 47:-0.480362 48:-0.030205 
0 32 1:-0.156463 2:0.437632 3:0.277745 4:-0.127183 5:0.363269 6:0.246839 7:-0.147388 8:0.503219 9:0.148301 10:-0.277487 11:0.867228 12:0.444563 13:-0.369054 14:0.914503 15:0.431524 16:0.576 17:0.395132 18:-0.610264 19:0.598368 20:0.272987 21:-0.621943 22:0.580219 23:0.208256 24:-0.510896 25:0.547138 26:0.580699 27:-0.36405 28:0.106889 29:0.53068 30:-0.0408053 31:0.0729894 32:0.472684 33:0.00677452 34:0.0958745 35:0.538191 36:0.0560357 37:0.143275 38:0.466057 39:-0.0259049 40:-0.0932369 41:-0.351152 42:0.174677 43:-0.0182565 44:-0.496239 45:0.0730048 46:0.0429115 47:-0.478529 48:-0.034791 
0 32 1:-0.156463 2:0.437632 3:0.276774 4:-0.127063 5:0.363263 6:0.245648 7:-0.149343 8:0.503082 9:0.148968 10:-0.280308 11:0.867105 12:0.446471 13:-0.368541 14:0.914492 15:0.430128 16:0.572917 17:0.394768 18:-0.60989 19:0.59125 20:0.272334 21:-0.617454 22:0.591521 23:0.208872 24:-0.523859 25:0.601163 26:0.585548 27:-0.412359 28:0.135807 29:0.534191 30:-0.0763492 31:0.101717 32:0.476983 33:-0.0276388 34:0.0900579 35:0.537531 36:0.0596842 37:0.133614 38:0.463901 39:-0.0180801 40:-0.0938374 41:-0.351277 42:0.173401 43:-0.0354122 44:-0.500953 45:0.0872139 46:0.0429059 47:-0.478855 48:-0.0367658 
0 32 1:-0.156463 2:0.437632 3:0.276013 4:-0.125384 5:0.363424 6:0.243049 7:-0.147401 8:0.503242 9:0.146093 10:-0.277502 11:0.867242 12:0.443013 13:-0.367219 14:0.914587 15:0.428216 16:0.571182 17:0.394936 18:-0.610264 19:0.602773 20:0.273404 21:-0.630864 22:0.575572 23:0.208057 24:-0.510896 25:0.541845 26:0.580443 27:-0.36405 28:0.0979136 29:0.529877 30:-0.0358343 31:0.0727958 32:0.473007 33:0.00198434 34:0.0913758 35:0.537855 36:0.0560357 37:0.143029 38:0.466656 39:-0.030557 40:-0.0934494 41:-0.350701 42:0.171582 43:-0.0218619 44:-0.496602 45:0.0730048 46:0.0391626 47:-0.478892 48:-0.034791 
0 32 1:-0.156463 2:0.437632 3:0.27504 4:-0.127068 5:0.363277 6:0.24375 7:-0.147094 8:0.503228 9:0.144544 10:-0.27875 11:0.867176 12:0.443366 13:-0.368565 14:0.914512 15:0.428471 16:0.568092 17:0.394583 18:-0.60989 19:0.59567 20:0.272741 21:-0.626396 22:0.591401 23:0.209024 24:-0.528086 25:0.590724 26:0.584841 27:-0.408003 28:0.131228 29:0.533936 30:-0.0763492 31:0.097163 32:0.476701 33:-0.0276388 34:0.0898465 35:0.537931 36:0.0549298 37:0.133376 38:0.464502 39:-0.0227482 40:-0.0907791 41:-0.350068 42:0.167188 43:-0.03565 44:-0.500408 45:0.0840477 46:0.0356711 47:-0.480123 48:-0.0334859 
0 32 1:-0.156463 2:0.437632 3:0.272549 4:-0.127199 5:0.363311 6:0.241154 7:-0.149688 8:0.50316 9:0.143885 10:-0.279102 11:0.867213 12:0.441463 13:-0.369131 14:0.914562 15:0.426562 16:0.566278 17:0.394847 18:-0.614897 19:0.598064 20:0.273342 21:-0.635325 22:0.5708 23:0.20801 24:-0.515113 25:0.531258 26:0.57993 27:-0.36405 28:0.0931715 29:0.52987 30:-0.0408053 31:0.0680532 32:0.473031 33:-0.00280585 34:0.0866585 35:0.537918 36:0.0512975 37:0.142537 38:0.467855 39:-0.0398626 40:-0.097126 41:-0.350573 42:0.168486 43:-0.0324328 44:-0.498235 45:0.076159 46:0.0316648 47:-0.479618 48:-0.034791 
0 32 1:-0.156463 2:0.437632 3:0.271571 4:-0.127078 5:0.363305 6:0.239954 7:-0.151644 8:0.503029 9:0.144544 10:-0.278779 11:0.867205 12:0.44026 13:-0.370478 14:0.914489 15:0.426814 16:0.563186 17:0.394505 18:-0.614533 19:0.586441 20:0.2724 21:-0.626396 22:0.586628 23:0.208988 24:-0.532313 25:0.585262 26:0.584822 27:-0.412359 28:0.12207 29:0.533426 30:-0.0763492 31:0.0924219 32:0.476742 33:-0.0324423 34:0.0808371 35:0.537295 36:0.0549298 37:0.13716 38:0.466742 39:-0.0367511 40:-0.100981 41:-0.351436 42:0.170294 43:-0.0361253 44:-0.499318 45:0.0777152 46:0.0281632 47:-0.480807 48:-0.0334859 
0 32 1:-0.156463 2:0.437632 3:0.270817 4:-0.127204 5:0.363325 6:0.239259 7:-0.15196 8:0.503055 9:0.143885 10:-0.279118 11:0.867227 12:0.439913 13:-0.371017 14:0.914517 15:0.426562 16:0.566193 17:0.394954 18:-0.61953 19:0.588949 20:0.272863 21:-0.630864 22:0.566153 23:0.207812 24:-0.515113 25:0.536215 26:0.580632 27:-0.372738 28:0.0930014 29:0.530134 30:-0.0457778 31:0.0635053 32:0.472732 33:-0.00280585 34:0.0821598 35:0.537581 36:0.0512975 37:0.138044 38:0.46739 39:-0.0398626 40:-0.0940861 41:-0.349349 42:0.162296 43:-0.0293179 44:-0.496784 45:0.0698505 46:0.0313836 47:-0.479036 48:-0.0380594 
0 32 1:-0.156463 2:0.437632 3:0.269837 4:-0.127083 5:0.363319 6:0.238057 7:-0.151658 8:0.503053 9:0.142332 10:-0.280366 11:0.867164 12:0.44026 13:-0.372367 14:0.914447 15:0.426814 16:0.567848 17:0.394905 18:-0.623818 19:0.590861 20:0.272807 21:-0.635337 22:0.586509 23:0.209139 24:-0.536539 25:0.5851 26:0.585045 27:-0.416714 28:0.126322 29:0.534208 30:-0.0863192 31:0.0878676 32:0.47646 33:-0.0324423 34:0.0763326 35:0.536978 36:0.0549298 37:0.1284 38:0.465264 39:-0.032083 40:-0.101187 41:-0.350984 42:0.167188 43:-0.0329909 44:-0.497884 45:0.0713827 46:0.0313707 47:-0.479303 48:-0.0400468 
0 32 1:-0.156463 2:0.437632 3:0.270817 4:-0.1254 5:0.363467 6:0.237365 7:-0.149701 8:0.503183 9:0.141677 10:-0.279118 11:0.867227 12:0.439913 13:-0.369156 14:0.914582 15:0.424909 16:0.566193 17:0.394954 18:-0.61953 19:0.593456 20:0.273161 21:-0.635325 22:0.575199 23:0.208511 24:-0.523545 25:0.54134 26:0.581111 27:-0.377082 28:0.0930014 29:0.530134 30:-0.0457778 31:0.0635053 32:0.472732 33:-0.00280585 34:0.0821598 35:0.537581 36:0.0512975 37:0.138044 38:0.46739 39:-0.0398626 40:-0.0940861 41:-0.349349 42:0.162296 43:-0.032678 44:-0.497691 45:0.0730048 46:0.0279159 47:-0.479979 48:-0.034791 
0 32 1:-0.156463 2:0.437632 3:0.269837 4:-0.12889 5:0.363185 6:0.239954 7:-0.149396 8:0.503175 9:0.140121 10:-0.281939 11:0.867107 12:0.441813 13:-0.372367 14:0.914447 15:0.426814 16:0.558361 17:0.394319 18:-0.614533 19:0.586344 20:0.272518 21:-0.630867 22:0.591043 23:0.209478 24:-0.540766 25:0.590238 26:0.58551 27:-0.42107 28:0.126322 29:0.534208 30:-0.0863192 31:0.0922342 32:0.477066 33:-0.0372473 34:0.0720391 35:0.53626 36:0.0596842 37:0.1284 38:0.465264 39:-0.032083 40:-0.107714 41:-0.352499 42:0.173401 43:-0.0329909 44:-0.497884 45:0.0713827 46:0.0383323 47:-0.477453 48:-0.0466076 
0 32 1:-0.156463 2:0.437632 3:0.270817 4:-0.1254 5:0.363467 6:0.237365 7:-0.149701 8:0.503183 9:0.141677 10:-0.279118 11:0.867227 12:0.439913 13:-0.369156 14:0.914582 15:0.424909 16:0.566193 17:0.394954 18:-0.61953 19:0.593456 20:0.273161 21:-0.635325 22:0.575199 23:0.208511 24:-0.523545 25:0.546465 26:0.58159 27:-0.381427 28:0.101807 29:0.5312 30:-0.0557198 31:0.0678591 32:0.473354 33:-0.00759603 34:0.0778798 35:0.536846 36:0.0560357 37:0.138044 38:0.46739 39:-0.0398626 40:-0.0973385 41:-0.350123 42:0.165391 43:-0.0293179 44:-0.496784 45:0.0698505 46:0.0417858 47:-0.476209 48:-0.0478626 
0 32 1:-0.156463 2:0.437632 3:0.269837 4:-0.127083 5:0.363319 6:0.238057 7:-0.151658 8:0.503053 9:0.142332 10:-0.280366 11:0.867164 12:0.44026 13:-0.372367 14:0.914447 15:0.426814 16:0.563104 17:0.394612 18:-0.619175 19:0.590861 20:0.272807 21:-0.635337 22:0.586509 23:0.209139 24:-0.536539 25:0.600515 26:0.586441 27:-0.429781 28:0.130737 29:0.534727 30:-0.0913043 31:0.0966013 32:0.477671 33:-0.0420522 34:0.0763326 35:0.536978 36:0.0549298 37:0.1284 38:0.465264 39:-0.032083 40:-0.104451 41:-0.351741 42:0.170294 43:-0.0329909 44:-0.497884 45:0.0713827 46:0.0383323 47:-0.477453 48:-0.0466076 
0 32 1:-0.156463 2:0.437632 3:0.269085 4:-0.127209 5:0.363339 6:0.237365 7:-0.149715 8:0.503207 9:0.139469 10:-0.279133 11:0.867242 12:0.438363 13:-0.371042 14:0.914537 15:0.424909 16:0.570842 17:0.395365 18:-0.628796 19:0.59786 20:0.273578 21:-0.644245 22:0.570551 23:0.208313 24:-0.523545 25:0.546297 26:0.581812 27:-0.385771 28:0.101638 29:0.531463 30:-0.0606908 31:0.067665 32:0.473676 33:-0.0123877 34:0.0776612 35:0.537245 36:0.0512975 37:0.142044 38:0.469053 39:-0.0491668 40:-0.100803 41:-0.350446 42:0.165391 43:-0.0262029 44:-0.495334 45:0.063541 46:0.0380369 47:-0.47657 48:-0.0478626 
