svm_type c_svc
kernel_type rbf
gamma 0.5
nr_class 5
total_sv 99
rho 0.107537 -0.680544 -2.05458 -2.72771 -1.96276 -3.17694 -2.99863 0 0.0552247 0.117007
label 4 6 2 3 1
nr_sv 41 38 2 6 12
SV
8 4.531064356824359 4.58832605251999 1.605601774741231 1:-0.835709 2:-0.980021 3:-0.985724 4:-0.992035 5:-0.999611 6:-0.989364 7:0.215291 8:0.148348 9:0.357946 10:0.0443001 11:-0.0171162 12:-0.349398 
8 0 4.984027411064962 5.25324487632168 1:-0.784482 2:-0.968204 3:-0.954826 4:-0.95878 5:-0.998764 6:-0.984556 7:0.214649 8:-0.12876 9:0.351213 10:-0.0935617 11:0.193234 12:-0.566265 
8 0 0 0 1:-0.761334 2:-0.962154 3:-0.945917 4:-0.94968 5:-0.998341 6:-0.9827 7:0.214538 8:-0.133649 9:0.389367 10:-0.0861193 11:0.264181 12:-0.638554 
8 0 0 0 1:-0.722208 2:-0.951206 3:-0.883021 4:-0.892078 5:-0.993591 6:-0.972244 7:0.199581 8:0.00510507 9:0.507176 10:-0.124158 11:0.303007 12:-0.590361 
0.1804094519651047 0.2355388994655871 0 0 1:0.112739 2:-0.357965 3:0.360527 4:0.320914 5:-0.114416 6:-0.194322 7:-0.312775 8:-0.683474 9:0.94331 10:-0.618783 11:-0.138189 12:-0.855422 
1.469692392315764 0 0 0 1:-0.427077 2:-0.815965 3:-0.938918 4:-0.939685 5:-0.997823 6:-0.97045 7:0.217466 8:-0.741062 9:0.924362 10:-0.293798 11:-0.152477 12:-0.903614 
0 0 0 3.54306340468334 1:-0.45048 2:-0.82959 3:-0.938435 4:-0.938981 5:-0.997783 6:-0.970946 7:0.217611 8:-0.742727 9:0.881788 10:-0.295452 11:-0.192598 12:-0.951807 
0 0 0 2.333867728327621 1:-0.442174 2:-0.824805 3:-0.954029 4:-0.954422 5:-0.99861 6:-0.975582 7:0.21768 8:-0.741173 9:0.881599 10:-0.29876 11:-0.197184 12:-0.951807 
4.932139787241299 0 0 0 1:-0.354576 2:-0.772908 3:-0.973296 4:-0.979898 5:-0.999421 6:-0.983063 7:0.213622 8:0.042494 9:0.888281 10:-0.234141 11:0.504912 12:1 
5.637259865752487 0 0 0 1:-0.255108 2:-0.700285 3:-0.918289 4:-0.931405 5:-0.997087 6:-0.962957 7:0.239302 8:-0.635997 9:0.927109 10:-0.436858 11:-0.152616 12:-0.831325 
8 0 0 0 1:-0.253083 2:-0.698276 3:-0.83597 4:-0.836563 5:-0.986275 6:-0.921952 7:0.217653 8:-0.955177 9:-0.677748 10:-0.947076 11:-0.857656 12:-0.951807 
3.764705336528971 0 0 8 1:-0.499679 2:-0.856698 3:-0.960049 4:-0.962912 5:-0.998939 6:-0.979559 7:0.219302 8:-0.760065 9:-0.0275097 10:-0.738925 11:-0.580714 12:-0.879518 
0.1957798999008379 0 0 0 1:0.208611 2:-0.249779 3:-0.713945 4:-0.836016 5:-0.982138 6:-0.903096 7:-0.68697 8:-0.597555 9:0.877401 10:-0.654341 11:-0.199083 12:-0.807229 
0.5556818056626203 0.07836380132507878 0 0 1:0.841454 2:0.702534 3:1 4:1 5:1 6:0.985254 7:0.216528 8:-0.841379 9:0.517989 10:-0.832723 11:-0.351293 12:-0.759036 
2.798643690101791 0 0 0 1:-0.543657 2:-0.878765 3:-0.897916 4:-0.89889 5:-0.994518 6:-0.963315 7:0.217938 8:-0.894214 9:-0.624222 10:-0.913408 11:-0.821899 12:-0.951807 
8 0 0 2.937182120927718 1:-0.364629 2:-0.778171 3:-0.936022 4:-0.962229 5:-0.998735 6:-0.978684 7:0.261198 8:-0.651372 9:0.167014 10:-0.737153 11:-0.496683 12:-0.855422 
0.3975557042097059 0 0 0 1:0.831645 2:0.684776 3:0.554684 4:0.527231 5:0.176795 6:0.504319 7:-0.122887 8:-0.808374 9:0.721594 10:-0.803898 11:-0.261588 12:-0.686747 
2.896052502005547 0 0 0 1:-0.606743 2:-0.90733 3:-0.994666 4:-0.994828 5:-0.999639 6:-0.988873 7:0.217714 8:-0.910702 9:-0.788408 10:-0.920024 11:-0.908674 12:-0.951807 
8 0 0 0 1:-0.628535 2:-0.916306 3:-0.97306 4:-0.973436 5:-0.999298 6:-0.984218 7:0.217742 8:-0.902285 9:-0.744691 10:-0.922623 11:-0.875153 12:-0.951807 
0.4612633943135979 0.2939322864094985 0 0 1:1 2:1 3:0.892831 4:0.865318 5:0.752531 6:1 7:-0.163802 8:-0.80222 9:0.87772 10:-0.792676 11:-0.184042 12:-0.638554 
8 0 0 0 1:-0.456277 2:-0.833581 3:-0.97183 4:-0.975071 5:-0.999323 6:-0.982588 7:0.219195 8:-0.873359 9:-0.789608 10:-0.954873 11:-0.873114 12:-0.831325 
8 0 0 0 1:-0.653944 2:-0.926223 3:-0.989951 4:-0.990352 5:-0.999606 6:-0.98808 7:0.217759 8:-0.797968 9:-0.417796 10:-0.780626 11:-0.727609 12:-0.927711 
8 0 0 0 1:-0.63007 2:-0.916948 3:-0.966423 4:-0.967094 5:-0.999106 6:-0.982859 7:0.217851 8:-0.917913 9:-0.883236 10:-0.94306 11:-0.948229 12:-0.951807 
8 0 0 0 1:-0.41511 2:-0.809591 3:-0.994946 4:-0.998823 5:-0.999652 6:-0.989996 7:0.218068 8:-0.891262 9:-0.842938 10:-0.960662 11:-0.89816 12:-0.807229 
8 0 0.6006587669023499 8 1:-0.587496 2:-0.899016 3:-0.976196 4:-0.976812 5:-0.999381 6:-0.984483 7:0.217839 8:-0.799735 9:-0.251433 10:-0.754755 11:-0.65789 12:-0.855422 
8 0 0 0 1:-0.676074 2:-0.934334 3:-0.997539 4:-0.99759 5:-0.99965 6:-0.989596 7:0.217721 8:-0.916464 9:-0.91504 10:-0.93987 11:-0.962877 12:-0.927711 
8 0 0 0 1:-0.496338 2:-0.854842 3:-0.985877 4:-0.98645 5:-0.999559 6:-0.986176 7:0.217806 8:-0.820712 9:-0.057381 10:-0.749675 11:-0.56125 12:-0.759036 
0.3411075272155836 0.05490427944780787 0 0 1:-0.134636 2:-0.605582 3:-0.129233 4:-0.215153 5:-0.67532 6:-0.62885 7:-1 8:-0.372343 9:0.885685 10:-0.548848 11:-0.167044 12:-0.831325 
0 0 4.365963284068217 8 1:-0.525582 2:-0.86985 3:-0.981018 4:-0.981256 5:-0.999476 6:-0.984929 7:0.217735 8:-0.806692 9:0.031303 10:-0.657649 11:-0.545686 12:-0.927711 
8 0.130459040315455 0 0 1:-0.699686 2:-0.942482 3:-0.998714 4:-0.998744 5:-0.999652 6:-0.989837 7:0.217721 8:-0.933412 9:-0.982655 10:-0.953574 11:-0.985966 12:-0.951807 
8 0 0 0 1:-0.625443 2:-0.915059 3:-0.994382 4:-0.994616 5:-0.999638 6:-0.98888 7:0.217707 8:-0.910896 9:-0.775329 10:-0.914708 11:-0.90395 12:-0.951807 
0 0 1.084468882225406 3.208323434311512 1:-0.406809 2:-0.80381 3:-0.96914 4:-0.970875 5:-0.999217 6:-0.980381 7:0.218385 8:-0.743647 9:0.288635 10:-0.639693 11:-0.445108 12:-0.879518 
8 0 0 0 1:-0.668516 2:-0.931613 3:-0.999018 4:-0.99904 5:-0.999653 6:-0.989876 7:0.217721 8:-0.935296 9:-0.964553 10:-0.952392 11:-0.985213 12:-0.951807 
1.500068456678887 0 0 0 1:-0.54418 2:-0.879053 3:-0.999495 4:-0.999912 5:-0.999653 6:-0.99007 7:0.217718 8:-0.891561 9:-0.719863 10:-0.92782 11:-0.871157 12:-0.903614 
0.7633291235272524 0 0 0 1:0.18953 2:-0.271462 3:-0.867515 4:-0.923505 5:-0.995853 6:-0.948367 7:0.40917 8:-0.735991 9:0.0652034 10:-0.853633 11:-0.545547 12:-0.855422 
1.285474951843914 0 0 0 1:-0.331469 2:-0.754939 3:-0.999353 4:-0.99939 5:-0.999653 6:-0.989838 7:0.217721 8:-0.964125 9:-0.868103 10:-0.969876 11:-0.93548 12:-0.903614 
8 0 0 0 1:-0.59381 2:-0.901926 3:-0.890073 4:-0.891095 5:-0.993696 6:-0.96414 7:0.217018 8:-0.858024 9:-0.658641 10:-0.895097 11:-0.838562 12:-0.855422 
0 0.2174731470293068 0 0 1:-0.328732 2:-0.75374 3:0.142219 4:0.132928 5:-0.355375 6:-0.563686 7:0.162903 8:-0.908663 9:-0.741937 10:-0.961016 11:-0.887148 12:-0.927711 
3.474576211516848 0 0 0 1:-0.198134 2:-0.655631 3:-0.101674 4:-0.109825 5:-0.601706 6:-0.593871 7:0.237077 8:-0.88816 9:-0.572322 10:-0.941051 11:-0.808177 12:-0.879518 
8 0 0 0 1:-0.723737 2:-0.950254 3:-0.996804 4:-0.996893 5:-0.999648 6:-0.989538 7:0.217722 8:-0.914018 9:-0.950835 10:-0.938807 11:-0.978196 12:-0.927711 
8 0 0 0 1:-0.705719 2:-0.944493 3:-0.994674 4:-0.994794 5:-0.999639 6:-0.989131 7:0.217719 8:-0.87935 9:-0.787676 10:-0.892026 11:-0.906242 12:-0.927711 
-8 0 0 0 1:-0.0501566 2:-0.524607 3:-0.902454 4:-0.902646 5:-0.99491 6:-0.939164 7:0.217721 8:-1 9:-0.941713 10:-1 11:-0.969582 12:-1 
-8 0 0 0 1:-0.122301 2:-0.590854 3:-0.745207 4:-0.746077 5:-0.967365 6:-0.866873 7:0.217849 8:-0.992679 9:-0.968958 10:-0.995157 11:-0.980791 12:-1 
-8 0 0 0 1:-0.372908 2:-0.782474 3:-0.845574 4:-0.846623 5:-0.987853 6:-0.935776 7:0.21813 8:-0.98481 9:-0.990444 10:-0.992439 11:-0.99105 12:-0.975904 
-0.394673765388394 0.1799934737677288 0 0 1:-0.89037 2:-0.989568 3:-0.990419 4:-0.991794 5:-0.999617 6:-0.989413 7:0.217802 8:0.559066 9:0.725179 10:0.566332 11:1 12:0.518072 
-8 0 0 0 1:-0.703215 2:-0.943756 3:-0.922163 4:-0.922824 5:-0.996663 6:-0.976105 7:0.217624 8:-0.848731 9:-0.685381 10:-0.907856 11:-0.853396 12:-0.855422 
-8 0 0 0 1:-0.82059 2:-0.97602 3:-0.990921 4:-0.99159 5:-0.999616 6:-0.989073 7:0.217781 8:-0.845905 9:-0.952734 10:-0.931128 11:-0.973045 12:-0.951807 
-8 0 0 0 1:-0.761637 2:-0.961379 3:-0.999412 4:-0.99981 5:-0.999653 6:-0.990052 7:0.217726 8:-0.775724 9:-0.425638 10:-0.742469 11:-0.755159 12:-0.951807 
-5.231426153078532 1.544670857728014 0 0 1:-0.875853 2:-0.987603 3:-0.974731 4:-0.975284 5:-0.999344 6:-0.987926 7:0.216957 8:0.291517 9:0.509529 10:0.114353 11:0.439333 12:0.445783 
-0 0 2.117610915258177 0 1:-0.868172 2:-0.985791 3:-0.999189 4:-0.999503 5:-0.999653 6:-0.990026 7:0.217723 8:-0.279177 9:-0.226765 10:-0.512345 11:-0.497311 12:-0.542169 
-0.6169816123601111 2.722091535309802 0 0 1:-0.918634 2:-0.995709 3:-0.98829 4:-0.997147 5:-0.999648 6:-0.99 7:0.219672 8:1 9:-0.211251 10:-0.0764324 11:-0.500308 12:-0.686747 
-1.485453445644148 2.82088286248148 0 0 1:-0.932462 2:-0.994768 3:-0.997242 4:-0.998131 5:-0.999651 6:-0.989966 7:0.217756 8:0.861098 9:1 10:1 11:0.222804 12:-0.73494 
-0.394542607294364 2.154318055521486 0 0 1:-0.674084 2:-0.937244 3:-0.991797 4:-0.998107 5:-0.99965 6:-0.989988 7:0.216992 8:0.270063 9:0.977103 10:-0.0766686 11:0.228583 12:-0.686747 
-8 0 0.3352553677796268 0 1:-0.578527 2:-0.897577 3:-0.96484 4:-0.970296 5:-0.999173 6:-0.982838 7:0.215394 8:0.00567609 9:0.972653 10:-0.204489 11:0.079697 12:-0.783133 
-8 0 0 0 1:-0.869 2:-0.9855 3:-0.999505 4:-0.999876 5:-0.999653 6:-0.990064 7:0.217724 8:-0.799939 9:-0.925894 10:-0.903603 11:-0.966455 12:-0.951807 
-8 0 0 0 1:-0.854143 2:-0.982785 3:-0.999588 4:-0.999624 5:-0.999653 6:-0.990028 7:0.217721 8:-0.847953 9:-0.976213 10:-0.939988 11:-0.989069 12:-0.951807 
-8 0 0 0 1:-0.868038 2:-0.985256 3:-0.999836 4:-0.999864 5:-0.999653 6:-0.990054 7:0.217721 8:-0.833286 9:-0.912085 10:-0.905257 11:-0.963016 12:-0.951807 
-0 0 0 7.703279895929422 1:-0.850933 2:-0.982173 3:-0.999561 4:-0.99959 5:-0.999653 6:-0.990024 7:0.217721 8:-0.598427 9:-0.314332 10:-0.490727 11:-0.609952 12:-0.73494 
-0 0 8 8 1:-0.705772 2:-0.944753 3:-0.98603 4:-0.987374 5:-0.999569 6:-0.987851 7:0.217488 8:-0.578259 9:0.0682512 10:-0.559835 11:-0.396685 12:-0.445783 
-0 0 5.043251854967052 0 1:-0.943734 2:-0.995895 3:-0.996843 4:-0.997448 5:-0.999649 6:-0.989932 7:0.21772 8:-0.170169 9:-0.354391 10:-0.326757 11:-0.615093 12:-0.73494 
-8 0 0 0 1:-0.657414 2:-0.928027 3:-0.993695 4:-0.993688 5:-0.999633 6:-0.988787 7:0.217709 8:-0.723727 9:-0.590026 10:-0.845481 11:-0.746368 12:-0.614458 
-2.123311160408214 0 0 0 1:-0.830965 2:-0.978685 3:-0.984975 4:-0.985639 5:-0.999548 6:-0.988483 7:0.217744 8:-0.732588 9:-0.767294 10:-0.892026 11:-0.793136 12:-0.783133 
-8 0 0 0 1:-0.740976 2:-0.956624 3:-0.995111 4:-0.995568 5:-0.999643 6:-0.989361 7:0.217692 8:-0.158297 9:0.459233 10:-0.0487891 11:0.219101 12:-0.373494 
-0 0 8 3.933121554719098 1:-0.742569 2:-0.957276 3:-0.99501 4:-0.995566 5:-0.999643 6:-0.989371 7:0.217721 8:-0.350193 9:0.160052 10:-0.379563 11:-0.127536 12:-0.590361 
-0 0 4.370122295916953 0 1:-0.830928 2:-0.978228 3:-0.999955 4:-0.999954 5:-0.999653 6:-0.990061 7:0.217721 8:-0.234768 9:0.289987 10:0.0965151 11:-0.260849 12:-0.228916 
-8 0 0 0 1:-0.669425 2:-0.932071 3:-0.999802 4:-0.999886 5:-0.999653 6:-0.990048 7:0.217721 8:-0.906668 9:-0.951725 10:-0.957354 11:-0.962009 12:-0.855422 
-0.3139414022391207 0 0 0 1:-0.899162 2:-0.990381 3:-0.989714 4:-0.99079 5:-0.999608 6:-0.989356 7:0.217707 8:-0.725968 9:-0.993223 10:-0.905139 11:-0.986359 12:-0.975904 
-8 0.2781813890413327 0 0 1:-0.837502 2:-0.980414 3:-0.999483 4:-0.999671 5:-0.999653 6:-0.990031 7:0.217722 8:-0.217223 9:0.11821 10:-0.147785 11:0.250195 12:-0.73494 
-7.587136435124774 0 7.549402859766167 0 1:-0.71722 2:-0.94952 3:-0.979914 4:-0.983003 5:-0.999496 6:-0.98716 7:0.217299 8:-0.179246 9:0.253549 10:-0.2671 11:-0.000660404 12:-0.662651 
-6.797596039329136 0 0 1.352790145780447 1:-0.407028 2:-0.804299 3:-0.97323 4:-0.973296 5:-0.999296 6:-0.981099 7:0.217856 8:-0.569154 9:0.757015 10:-0.475015 11:-0.145877 12:-0.349398 
-0 0 8 2.786239552900011 1:-0.740372 2:-0.95665 3:-0.986971 4:-0.989454 5:-0.999591 6:-0.988394 7:0.217482 8:-0.242972 9:-0.0237273 10:-0.434495 11:-0.18432 12:-0.710843 
-1.946825963361975 0 0 0 1:-0.351643 2:-0.76876 3:-0.954158 4:-0.954112 5:-0.998601 6:-0.973318 7:0.217554 8:-0.613103 9:0.907593 10:-0.410396 11:-0.0603068 12:-0.277108 
-8 0 0 0 1:-0.439576 2:-0.823526 3:-0.920996 4:-0.921892 5:-0.996586 6:-0.965164 7:0.217459 8:-0.806567 9:-0.300582 10:-0.831187 11:-0.692697 12:-0.855422 
-8 0 0 0 1:-0.42917 2:-0.817416 3:-0.946892 4:-0.947596 5:-0.998271 6:-0.973083 7:0.217507 8:-0.818419 9:-0.335599 10:-0.846899 11:-0.704578 12:-0.879518 
-8 0 0 8 1:-0.41618 2:-0.809661 3:-0.957853 4:-0.95851 5:-0.998786 6:-0.976345 7:0.217551 8:-0.809266 9:-0.24609 10:-0.823863 11:-0.671229 12:-0.831325 
-8 0 0 4.99826317077871 1:-0.427913 2:-0.816688 3:-0.957733 4:-0.958307 5:-0.998778 6:-0.976527 7:0.217603 8:-0.795706 9:-0.280944 10:-0.830597 11:-0.686352 12:-0.855422 
-8 0 0 0 1:-0.498341 2:-0.856188 3:-0.9516 4:-0.951297 5:-0.998471 6:-0.976039 7:0.217805 8:-0.778175 9:-0.571751 10:-0.873243 11:-0.801103 12:-0.879518 
-8 0 0 0 1:-0.638135 2:-0.920572 3:-0.929172 4:-0.931496 5:-0.997268 6:-0.975392 7:0.218673 8:-0.896421 9:-1 10:-0.966804 11:-1 12:-0.903614 
-3.761851516551441 0 4.584356706312023 8 1:-0.692398 2:-0.940262 3:-0.987626 4:-0.9876 5:-0.999576 6:-0.987755 7:0.21773 8:-0.583612 9:-0.246662 10:-0.627643 11:-0.641957 12:-0.783133 
-0.782797595682732 -4.879236687292435 0 0.2132415475705752 1:-0.85284 2:-0.985694 3:-0.939646 4:-0.953712 5:-0.99843 6:-0.985771 7:0.213456 8:0.90439 9:0.662887 10:0.473715 11:0.417696 12:-0.39759 
-4.758938215134361 -4.820901486557408 2.446749716345775 1.473392442300891 1:-0.911371 2:-0.994361 3:-0.976753 4:-0.983897 5:-0.999497 6:-0.989094 7:0.216871 8:0.726224 9:0.177251 10:0.0512699 11:0.117712 12:-0.590361 
-0 -8 -0 8 1:-0.800817 2:-0.971841 3:-0.989417 4:-0.991032 5:-0.999609 6:-0.988942 7:0.217927 8:-0.330011 9:0.243385 10:-0.336562 11:-0.335801 12:-0.686747 
-0 -8 -0 8 1:-0.804358 2:-0.972727 3:-0.989639 4:-0.991329 5:-0.999612 6:-0.988999 7:0.217936 8:-0.352131 9:0.0925623 10:-0.420437 11:-0.400124 12:-0.710843 
-0 -8 -0 2.846396244637603 1:-0.792701 2:-0.970008 3:-0.988523 4:-0.990442 5:-0.999603 6:-0.988835 7:0.217987 8:-0.378798 9:0.046365 10:-0.476196 11:-0.384665 12:-0.614458 
-5.938316747653169 -8 -0 0 1:-0.768113 2:-0.963725 3:-0.981435 4:-0.98356 5:-0.999509 6:-0.987705 7:0.218011 8:-0.340935 9:0.121803 10:-0.418547 11:-0.34181 12:-0.590361 
-1.685127649127756 -8 -0 8 1:-0.775324 2:-0.96571 3:-0.978056 4:-0.980497 5:-0.999451 6:-0.987331 7:0.218019 8:-0.384823 9:-0.081972 10:-0.503957 11:-0.443789 12:-0.590361 
-8 -8 -2.446749716345775 0 1:-0.832404 2:-0.978853 3:-0.997192 4:-0.998013 5:-0.999651 6:-0.98986 7:0.217761 8:-0.190842 9:0.326155 10:-0.102658 11:-0.271756 12:-0.662651 
-0 -0 -0 -7.3516136654154 1:-0.664208 2:-0.93032 3:-0.983891 4:-0.98457 5:-0.999531 6:-0.986963 7:0.217721 8:-0.527106 9:0.08438 10:-0.39114 11:-0.510774 12:-0.807229 
-3.543172872092909 -0 -0 -0 1:-0.624546 2:-0.914842 3:-0.98314 4:-0.983313 5:-0.999513 6:-0.986361 7:0.217723 8:-0.555515 9:0.416471 10:-0.373302 11:-0.38361 12:-0.807229 
-5.894580712675943 -0 -0 -0 1:-0.620465 2:-0.913188 3:-0.96941 4:-0.969762 5:-0.999193 6:-0.983287 7:0.217712 8:-0.498697 9:0.518132 10:-0.264028 11:-0.333935 12:-0.783133 
-8 -0 -0 -0 1:-0.599851 2:-0.904544 3:-0.982819 4:-0.982985 5:-0.999508 6:-0.986069 7:0.21772 8:-0.502013 9:0.64064 10:-0.319315 11:-0.289656 12:-0.807229 
-8 -8 -0 -0 1:-0.570789 2:-0.891723 3:-0.986712 4:-0.987254 5:-0.99957 6:-0.986906 7:0.217796 8:-0.663494 9:0.00481228 10:-0.65316 11:-0.553595 12:-0.807229 
-8 -8 -0 -0 1:-0.573607 2:-0.893017 3:-0.989528 4:-0.990004 5:-0.999602 6:-0.987606 7:0.217778 8:-0.666795 9:-0.150837 10:-0.690963 11:-0.619065 12:-0.807229 
-8 -8 -0.3498517734606851 -0 1:-0.595694 2:-0.902833 3:-0.986459 4:-0.986534 5:-0.999562 6:-0.98688 7:0.217729 8:-0.661358 9:-0.237181 10:-0.694389 11:-0.654231 12:-0.783133 
-0 -8 -0 -8 1:-0.727196 2:-0.951445 3:-0.991547 4:-0.991717 5:-0.999618 6:-0.988673 7:0.21772 8:-0.522609 9:0.0442979 10:-0.440756 11:-0.533863 12:-0.783133 
-0 -4.773694320107688 -0 -0 1:-0.713287 2:-0.947087 3:-0.992598 4:-0.992737 5:-0.999626 6:-0.988791 7:0.217722 8:-0.552373 9:0.057829 10:-0.486237 11:-0.532578 12:-0.831325 
-1.44352975454425 -0 -0 -0 1:-0.707642 2:-0.945285 3:-0.983805 4:-0.984101 5:-0.999526 6:-0.987229 7:0.21772 8:-0.527106 9:0.0504931 10:-0.529356 11:-0.538449 12:-0.879518 
-0 -8 -0 -8 1:-0.656116 2:-0.92719 3:-0.99956 4:-0.999754 5:-0.999653 6:-0.990025 7:0.217723 8:-0.557424 9:0.114677 10:-0.49746 11:-0.495954 12:-0.686747 
-0 -0 -1.336782216410781 -3.494782579222204 1:-0.655705 2:-0.927035 3:-0.976699 4:-0.976939 5:-0.999386 6:-0.985322 7:0.217721 8:-0.470289 9:0.524909 10:-0.277968 11:-0.336228 12:-0.855422 
