svm_type c_svc
kernel_type rbf
gamma 2
nr_class 2
total_sv 3529
rho -0.794436
label 0 2
nr_sv 2386 1143
SV
0.393662476573628 1:0.996258 2:0.549307 3:-0.503443 4:-0.0839901 5:0.299701 6:0.0460404 7:-0.338959 8:0.0460404 9:-0.338959 10:0.0460404 11:-0.338959 12:-1 13:-1 14:-1 15:-1 16:0.0493662 17:-0.33952 18:0.0493662 19:-0.33952 20:0.0493662 21:-0.33952 22:-1 23:-1 24:-1 25:-1 26:0.0488408 27:-0.339588 28:0.0488408 29:-0.339588 30:0.0488408 31:-0.339588 32:-1 33:-1 34:-1 35:-1 36:-0.22201 37:0.0647372 38:-0.22201 39:0.0647372 40:-0.22201 41:0.0647372 42:-1 43:-1 44:-1 45:-1 46:-0.222358 47:0.0629811 48:-0.222358 49:0.0629811 50:-0.222358 51:0.0629811 52:-1 53:-1 54:-1 55:-1 56:0.0548672 57:-0.34061 58:0.0548672 59:-0.34061 60:0.0548672 61:-0.34061 62:-1 63:-1 64:-1 65:-1 66:-0.853582 67:-1 68:-1 69:-1 70:-0.769357 71:-0.855392 72:0.964703 73:-0.943302 74:-0.943302 75:-0.943302 
5.44900783830837 1:0.996258 2:0.549307 3:-0.503443 4:-0.0304481 5:-0.0926142 6:-0.060718 7:-0.0216539 8:-0.0598316 9:-0.01858 10:-0.0609882 11:-0.016275 12:-0.904762 13:-0.972603 14:-0.983149 15:-1 16:-0.0574862 17:-0.0217431 18:-0.0558976 19:-0.0190302 20:-0.0574369 21:-0.016532 22:-0.921569 23:-0.972603 24:-0.993961 25:-1 26:-0.05751 27:-0.0226101 28:-0.0563907 29:-0.0196582 30:-0.0575628 31:-0.0173437 32:-0.913043 33:-0.972973 34:-0.987613 35:-1 36:-0.0536123 37:-0.0230878 38:-0.0525632 39:-0.0201082 40:-0.0534526 41:-0.0179342 42:-0.902439 43:-0.973333 44:-0.990326 45:-1 46:-0.0539067 47:-0.024769 48:-0.052964 49:-0.0217384 50:-0.0539394 51:-0.0195254 52:-0.913043 53:-0.973333 54:-0.999266 55:-1 56:-0.0504507 57:-0.0247895 58:-0.0494506 59:-0.0217946 60:-0.0504873 61:-0.0195509 62:-0.911111 63:-0.972222 64:-0.958378 65:-1 66:-0.859558 67:-1 68:-1 69:-1 70:-0.769357 71:-0.855392 72:0.964703 73:-0.818866 74:-0.793276 75:-0.818866 
0.1075640603097801 1:0.996258 2:0.549307 3:-0.503443 4:-0.0304481 5:0.0363931 6:-0.432412 7:0.526421 8:-0.432412 9:0.526421 10:-0.432412 11:0.526421 12:-1 13:-1 14:-1 15:-1 16:-0.226242 17:0.0661352 18:-0.226242 19:0.0661352 20:-0.226242 21:0.0661352 22:-1 23:-1 24:-1 25:-1 26:-0.22668 27:0.0653577 28:-0.22668 29:0.0653577 30:-0.22668 31:0.0653577 32:-1 33:-1 34:-1 35:-1 36:-0.421823 37:0.52295 38:-0.421823 39:0.52295 40:-0.421823 41:0.52295 42:-1 43:-1 44:-1 45:-1 46:-0.222358 47:0.0629811 48:-0.222358 49:0.0629811 50:-0.222358 51:0.0629811 52:-1 53:-1 54:-1 55:-1 56:-0.416914 57:0.520681 58:-0.416914 59:0.520681 60:-0.416914 61:0.520681 62:-1 63:-1 64:-1 65:-1 66:-1 67:-1 68:-1 69:-1 70:-0.769357 71:-0.855392 72:0.964703 73:-0.968891 74:-0.968891 75:-0.968891 
0.1579828551458624 1:0.996258 2:0.549307 3:-0.503443 4:0.0759027 5:0.123554 6:-0.60011 7:0.454887 8:-0.60011 9:0.454887 10:-0.60011 11:0.454887 12:-1 13:-1 14:-1 15:-1 16:-0.226242 17:0.0661352 18:-0.226242 19:0.0661352 20:-0.226242 21:0.0661352 22:-1 23:-1 24:-1 25:-1 26:-0.22668 27:0.0653577 28:-0.22668 29:0.0653577 30:-0.22668 31:0.0653577 32:-1 33:-1 34:-1 35:-1 36:-0.588314 37:0.452159 38:-0.588314 39:0.452159 40:-0.588314 41:0.452159 42:-1 43:-1 44:-1 45:-1 46:-0.588609 47:0.449896 48:-0.588609 49:0.449896 50:-0.588609 51:0.449896 52:-1 53:-1 54:-1 55:-1 56:-0.582334 57:0.449541 58:-0.582334 59:0.449541 60:-0.582334 61:0.449541 62:-1 63:-1 64:-1 65:-1 66:-0.853582 67:-1 68:-1 69:-1 70:-0.769357 71:-0.855392 72:0.964703 73:-0.955344 74:-0.955344 75:-0.955344 
0.7894996107595333 1:0.988773 2:0.543741 3:-0.505145 4:0.0118448 5:-0.414744 6:-0.263141 7:-0.128976 8:-0.25957 9:-0.13104 10:-0.257509 11:-0.130224 12:-0.904762 13:-0.972603 14:-0.984886 15:-1 16:-0.258648 17:-0.129441 18:-0.256923 19:-0.130765 20:-0.253003 21:-0.130448 22:-0.960784 23:-0.945205 24:-1 25:-0.943512 26:-0.259048 27:-0.129708 28:-0.255466 29:-0.131571 30:-0.253437 31:-0.13091 32:-0.913043 33:-0.972973 34:-0.991856 35:-1 36:-0.25429 37:-0.130367 38:-0.250688 39:-0.132032 40:-0.248703 41:-0.131635 42:-0.902439 43:-0.973333 44:-0.958795 45:-1 46:-0.254608 47:-0.131725 48:-0.251097 49:-0.133979 50:-0.249035 51:-0.133056 52:-0.913043 53:-0.973333 54:-0.986264 55:-1 56:-0.250074 57:-0.132119 58:-0.246551 59:-0.134221 60:-0.244459 61:-0.133012 62:-0.911111 63:-0.972222 64:-0.92335 65:-1 66:-0.849171 67:-0.999391 68:-0.997748 69:-1 70:-0.769357 71:-0.855392 72:0.964703 73:-0.864526 74:-0.882589 75:-0.852484 
0.1915896431504162 1:0.988773 2:0.543741 3:-0.505145 4:-0.0851585 5:0.29961 6:0.04595 7:-0.338827 8:0.04595 9:-0.338827 10:0.04595 11:-0.338827 12:-1 13:-1 14:-1 15:-1 16:0.049122 17:-0.33916 18:0.049122 19:-0.33916 20:0.049122 21:-0.33916 22:-1 23:-1 24:-1 25:-1 26:0.0485452 27:-0.339153 28:0.0485452 29:-0.339153 30:0.0485452 31:-0.339153 32:-1 33:-1 34:-1 35:-1 36:0.0523045 37:-0.339626 38:0.0523045 39:-0.339626 40:0.0523045 41:-0.339626 42:-1 43:-1 44:-1 45:-1 46:0.0515372 47:-0.340292 48:0.0515372 49:-0.340292 50:0.0515372 51:-0.340292 52:-1 53:-1 54:-1 55:-1 56:0.0548162 57:-0.340534 58:0.0548162 59:-0.340534 60:0.0548162 61:-0.340534 62:-1 63:-1 64:-1 65:-1 66:-0.853582 67:-1 68:-1 69:-1 70:-0.769357 71:-0.855392 72:0.964703 73:0.960361 74:0.960361 75:0.960361 
2.505138126951982 1:0.991892 2:0.557894 3:-0.502669 4:-0.0899468 5:0.015949 6:-0.284313 7:-0.101715 8:-0.282657 9:-0.102065 10:-0.277974 11:-0.117759 12:-0.952381 13:-0.863014 14:-1 15:-0.957752 16:-0.279709 17:-0.102045 18:-0.278021 19:-0.102267 20:-0.273452 21:-0.118307 22:-0.960784 23:-0.863014 24:-1 25:-0.955251 26:-0.280204 27:-0.102761 28:-0.277512 29:-0.105504 30:-0.273921 31:-0.118938 32:-0.913043 33:-0.891892 34:-0.898559 35:-0.948769 36:-0.275256 37:-0.103001 38:-0.273732 39:-0.103735 40:-0.269079 41:-0.119427 42:-0.95122 43:-0.866667 44:-1 45:-0.955141 46:-0.275674 47:-0.104785 48:-0.273984 49:-0.104985 50:-0.269361 51:-0.120716 52:-0.956522 53:-0.866667 54:-1 55:-0.966385 56:-0.27098 57:-0.104846 58:-0.269337 59:-0.105174 60:-0.264821 61:-0.121254 62:-0.955556 63:-0.861111 64:-1 65:-0.938251 66:-0.772174 67:-0.985459 68:-0.99316 69:-0.996955 70:-0.769357 71:-0.855479 72:0.964703 73:-0.818364 74:-0.804817 75:-0.853487 
3.188551009733919 1:0.991892 2:0.557894 3:-0.502669 4:0.0137005 5:0.0756839 6:-0.257475 7:-0.129982 8:-0.257475 9:-0.129982 10:-0.257475 11:-0.129982 12:-1 13:-1 14:-1 15:-1 16:-0.252898 17:-0.129677 18:-0.252898 19:-0.129677 20:-0.252898 21:-0.129677 22:-1 23:-1 24:-1 25:-1 26:-0.255469 27:-0.131593 28:-0.255469 29:-0.131593 30:-0.255469 31:-0.131593 32:-1 33:-1 34:-1 35:-1 36:-0.22201 37:0.0647372 38:-0.22201 39:0.0647372 40:-0.22201 41:0.0647372 42:-1 43:-1 44:-1 45:-1 46:-0.222358 47:0.0629811 48:-0.222358 49:0.0629811 50:-0.222358 51:0.0629811 52:-1 53:-1 54:-1 55:-1 56:-0.244441 57:-0.13288 58:-0.244441 59:-0.13288 60:-0.244441 61:-0.13288 62:-1 63:-1 64:-1 65:-1 66:-0.853582 67:-0.999312 68:-1 69:-1 70:-0.769357 71:-0.855392 72:0.964703 73:-0.854491 74:-0.854491 75:-0.854491 
8 1:0.991892 2:0.557894 3:-0.502669 4:-0.0304481 5:-0.0783307 6:-0.0607608 7:-0.0216318 8:-0.0595938 9:-0.0186983 10:-0.0611185 11:-0.0162115 12:-0.904762 13:-0.972603 14:-0.959035 15:-1 16:-0.0573797 17:-0.0217985 18:-0.0560913 19:-0.0189334 20:-0.0572207 21:-0.0166379 22:-0.921569 23:-0.972603 24:-0.978478 25:-1 26:-0.0577444 27:-0.0224882 28:-0.0565629 29:-0.0195723 30:-0.0574547 31:-0.0173966 32:-0.913043 33:-0.972973 34:-0.982049 35:-1 36:-0.0534637 37:-0.0231654 38:-0.052413 39:-0.0201834 40:-0.0535173 41:-0.0179024 42:-0.902439 43:-0.973333 44:-0.985698 45:-1 46:-0.0539067 47:-0.024769 48:-0.0529212 49:-0.0217599 50:-0.0539394 51:-0.0195254 52:-0.913043 53:-0.973333 54:-0.994988 55:-1 56:-0.0500278 57:-0.0250107 58:-0.0491731 59:-0.021934 60:-0.0501225 61:-0.0197304 62:-0.911111 63:-0.972222 64:-0.94547 65:-1 66:-0.850245 67:-0.999118 68:-0.999068 69:-0.999879 70:-0.769357 71:-0.855392 72:0.964703 73:-0.81987 74:-0.79428 75:-0.820371 
0.5267461824536387 1:0.994823 2:0.552871 3:-0.519072 4:-0.0900614 5:0.0163826 6:-0.284306 7:-0.101694 8:-0.282663 9:-0.102087 10:-0.278091 11:-0.118213 12:-0.952381 13:-0.863014 14:-1 15:-0.954459 16:-0.27975 17:-0.102173 18:-0.278073 19:-0.102438 20:-0.273469 21:-0.118371 22:-0.960784 23:-0.863014 24:-1 25:-0.939817 26:-0.280096 27:-0.10242 28:-0.278521 29:-0.103005 30:-0.273821 31:-0.118549 32:-0.956522 33:-0.864865 34:-1 35:-0.957664 36:-0.275405 37:-0.10347 38:-0.273667 39:-0.103521 40:-0.26909 41:-0.11947 42:-0.95122 43:-0.866667 44:-1 45:-0.946746 46:-0.275607 47:-0.104572 48:-0.272935 49:-0.10733 50:-0.2694 51:-0.120867 52:-0.913043 53:-0.893333 54:-0.911736 55:-0.978435 56:-0.270986 57:-0.104867 58:-0.269291 59:-0.105025 60:-0.264694 61:-0.120759 62:-0.955556 63:-0.861111 64:-1 65:-0.969485 66:-0.778847 67:-0.986517 68:-0.996531 69:-0.998316 70:-0.769357 71:-0.855348 72:0.964703 73:-0.817863 74:-0.804817 75:-0.856498 
0.4030381327538654 1:0.994823 2:0.552871 3:-0.519072 4:-0.085571 5:0.298515 6:0.0454593 7:-0.338108 8:0.0454593 9:-0.338108 10:0.0454593 11:-0.338108 12:-1 13:-1 14:-1 15:-1 16:0.0487877 17:-0.338668 18:0.0487877 19:-0.338668 20:0.0487877 21:-0.338668 22:-1 23:-1 24:-1 25:-1 26:-0.22668 27:0.0653577 28:-0.22668 29:0.0653577 30:-0.22668 31:0.0653577 32:-1 33:-1 34:-1 35:-1 36:-0.22201 37:0.0647372 38:-0.22201 39:0.0647372 40:-0.22201 41:0.0647372 42:-1 43:-1 44:-1 45:-1 46:0.05155 47:-0.340311 48:0.05155 49:-0.340311 50:0.05155 51:-0.340311 52:-1 53:-1 54:-1 55:-1 56:0.0551479 57:-0.341025 58:0.0551479 59:-0.341025 60:0.0551479 61:-0.341025 62:-1 63:-1 64:-1 65:-1 66:-0.853582 67:-1 68:-1 69:-1 70:-0.769357 71:-0.855392 72:0.964703 73:-0.956849 74:-0.956849 75:-0.956849 
1.062033554309747 1:0.993014 2:0.554839 3:-0.535835 4:-0.0547333 5:0.0401579 6:-0.112543 7:-0.0692774 8:-0.112543 9:-0.0692774 10:-0.112543 11:-0.0692774 12:-1 13:-1 14:-1 15:-1 16:-0.108621 17:-0.0696523 18:-0.108621 19:-0.0696523 20:-0.108621 21:-0.0696523 22:-1 23:-1 24:-1 25:-1 26:-0.108931 27:-0.0703826 28:-0.108931 29:-0.0703826 30:-0.108931 31:-0.0703826 32:-1 33:-1 34:-1 35:-1 36:-0.104892 37:-0.0706744 38:-0.104892 39:-0.0706744 40:-0.104892 41:-0.0706744 42:-1 43:-1 44:-1 45:-1 46:-0.104975 47:-0.0725783 48:-0.104975 49:-0.0725783 50:-0.104975 51:-0.0725783 52:-1 53:-1 54:-1 55:-1 56:-0.101302 57:-0.0724434 58:-0.101302 59:-0.0724434 60:-0.101302 61:-0.0724434 62:-1 63:-1 64:-1 65:-1 66:-0.853582 67:-1 68:-1 69:-1 70:-0.769357 71:-0.855392 72:0.964703 73:-0.667336 74:-0.667336 75:-0.667336 
0.06291928779490559 1:0.993014 2:0.554839 3:-0.535835 4:-0.0304481 5:0.0337234 6:-0.432131 7:0.525781 8:-0.432131 9:0.525781 10:-0.432131 11:0.525781 12:-1 13:-1 14:-1 15:-1 16:-0.426697 17:0.525126 18:-0.426697 19:0.525126 20:-0.426697 21:0.525126 22:-1 23:-1 24:-1 25:-1 26:-0.427336 27:0.524149 28:-0.427336 29:0.524149 30:-0.427336 31:0.524149 32:-1 33:-1 34:-1 35:-1 36:-0.22201 37:0.0647372 38:-0.22201 39:0.0647372 40:-0.22201 41:0.0647372 42:-1 43:-1 44:-1 45:-1 46:-0.422322 47:0.521008 48:-0.422322 49:0.521008 50:-0.422322 51:0.521008 52:-1 53:-1 54:-1 55:-1 56:-0.417272 57:0.521505 58:-0.417272 59:0.521505 60:-0.417272 61:0.521505 62:-1 63:-1 64:-1 65:-1 66:-0.853582 67:-0.999312 68:-1 69:-1 70:-0.769357 71:-0.855392 72:0.964703 73:-0.955344 74:-0.955344 75:-0.955344 
0.3875686755510302 1:0.994262 2:0.5657 3:-0.549142 4:-0.277493 5:0.0262395 6:-0.342842 7:-0.0648987 8:-0.327751 9:-0.067878 10:-0.325715 11:-0.0845009 12:-0.571429 13:-0.808219 14:-0.655355 15:-0.825917 16:-0.338036 17:-0.0652736 18:-0.323894 19:-0.0669354 20:-0.32107 21:-0.0850393 22:-0.686275 23:-0.780822 24:-0.724427 25:-0.779485 26:-0.338421 27:-0.0657999 28:-0.324405 29:-0.0676221 30:-0.32155 31:-0.0856665 32:-0.652174 33:-0.783784 34:-0.715825 35:-0.750793 36:-0.333427 37:-0.0664254 38:-0.318285 39:-0.0691799 40:-0.316578 41:-0.0862513 42:-0.560976 43:-0.813333 44:-0.658848 45:-0.819136 46:-0.333694 47:-0.0679343 48:-0.319499 49:-0.0694396 50:-0.316835 51:-0.0876872 52:-0.652174 53:-0.786667 54:-0.73306 55:-0.803137 56:-0.328738 57:-0.0680416 58:-0.31577 59:-0.0686273 60:-0.311865 61:-0.0876397 62:-0.688889 63:-0.75 64:-0.706257 65:-0.766909 66:-0.739527 67:-0.983718 68:-0.980892 69:-0.990258 70:-0.769418 71:-0.856048 72:0.964577 73:-0.826894 74:-0.774711 75:-0.82288 
0.5077819283352382 1:0.994262 2:0.5657 3:-0.549142 4:-0.0848836 5:0.299222 6:0.0459112 7:-0.33877 8:0.0459112 9:-0.33877 10:0.0459112 11:-0.33877 12:-1 13:-1 14:-1 15:-1 16:0.0488006 17:-0.338687 18:0.0488006 19:-0.338687 20:0.0488006 21:-0.338687 22:-1 23:-1 24:-1 25:-1 26:0.0487251 27:-0.339418 28:0.0487251 29:-0.339418 30:0.0487251 31:-0.339418 32:-1 33:-1 34:-1 35:-1 36:0.0524325 37:-0.339815 38:0.0524325 39:-0.339815 40:0.0524325 41:-0.339815 42:-1 43:-1 44:-1 45:-1 46:0.0519984 47:-0.340971 48:0.0519984 49:-0.340971 50:0.0519984 51:-0.340971 52:-1 53:-1 54:-1 55:-1 56:0.055352 57:-0.341327 58:0.055352 59:-0.341327 60:0.055352 61:-0.341327 62:-1 63:-1 64:-1 65:-1 66:-0.853582 67:-1 68:-1 69:-1 70:-0.769357 71:-0.855392 72:0.964703 73:-0.953337 74:-0.953337 75:-0.953337 
8 1:0.994262 2:0.5657 3:-0.549142 4:-0.053794 5:0.0407967 6:-0.111935 7:-0.0699768 8:-0.111935 9:-0.0699768 10:-0.111935 11:-0.0699768 12:-1 13:-1 14:-1 15:-1 16:-0.108515 17:-0.0697748 18:-0.108515 19:-0.0697748 20:-0.108515 21:-0.0697748 22:-1 23:-1 24:-1 25:-1 26:-0.10881 27:-0.0705223 28:-0.10881 29:-0.0705223 30:-0.10881 31:-0.0705223 32:-1 33:-1 34:-1 35:-1 36:-0.104258 37:-0.0714076 38:-0.104258 39:-0.0714076 40:-0.104258 41:-0.0714076 42:-1 43:-1 44:-1 45:-1 46:-0.104628 47:-0.0729792 48:-0.104628 49:-0.0729792 50:-0.104628 51:-0.0729792 52:-1 53:-1 54:-1 55:-1 56:-0.101136 57:-0.0726352 58:-0.101136 59:-0.0726352 60:-0.101136 61:-0.0726352 62:-1 63:-1 64:-1 65:-1 66:-0.853582 67:-1 68:-1 69:-1 70:-0.769357 71:-0.855392 72:0.964703 73:-0.670848 74:-0.670848 75:-0.670848 
0.1533343820136671 1:0.994262 2:0.5657 3:-0.549142 4:-0.0304481 5:0.274602 6:0.188277 7:0.132749 8:0.188277 9:0.132749 10:0.188277 11:0.132749 12:-1 13:-1 14:-1 15:-1 16:0.19083 17:0.132466 18:0.19083 19:0.132466 20:0.19083 21:0.132466 22:-1 23:-1 24:-1 25:-1 26:0.190754 27:0.131651 28:0.190754 29:0.131651 30:0.190754 31:0.131651 32:-1 33:-1 34:-1 35:-1 36:0.19356 37:0.130929 38:0.19356 39:0.130929 40:0.19356 41:0.130929 42:-1 43:-1 44:-1 45:-1 46:0.193709 47:0.129175 48:0.193709 49:0.129175 50:0.193709 51:0.129175 52:-1 53:-1 54:-1 55:-1 56:0.195976 57:0.128988 58:0.195976 59:0.128988 60:0.194987 61:0.132203 62:-1 63:-0.972222 64:-1 65:-1 66:-0.853582 67:-0.999312 68:-1 69:-1 70:-0.769357 71:-0.855392 72:0.964703 73:-0.870045 74:-0.870045 75:-0.870045 
2.410336550005775 1:0.994262 2:0.5657 3:-0.549142 4:-0.0304481 5:0.0262395 6:-0.0237881 7:0.124983 8:-0.0204491 9:0.131406 10:-0.0207392 11:0.133162 12:-0.857143 13:-0.972603 14:-0.918446 15:-1 16:-0.0205939 17:0.124618 18:-0.0167553 19:0.131195 20:-0.0173695 21:0.132849 22:-0.882353 23:-0.972603 24:-0.927811 25:-1 26:-0.0205981 27:0.12388 28:-0.0170653 29:0.130364 30:-0.0179119 31:0.131942 32:-0.869565 33:-0.972973 34:-0.899474 35:-1 36:-0.0165867 37:0.123245 38:-0.0170432 39:0.124896 40:-0.0140252 41:0.131268 42:-0.95122 43:-0.92 44:-1 45:-0.8775 46:-0.0169289 47:0.121422 48:-0.0174553 49:0.123051 50:-0.0142997 51:0.129458 52:-0.956522 53:-0.92 54:-1 55:-0.877657 56:-0.0133287 57:0.121309 58:-0.00996286 59:0.127743 60:-0.0104806 61:0.129422 62:-0.866667 63:-0.972222 64:-0.857621 65:-1 66:-0.83578 67:-0.997153 68:-0.998009 69:-0.999555 70:-0.769357 71:-0.855398 72:0.964703 73:-0.827898 74:-0.814852 75:-0.892624 
0.7600548764179776 1:0.99501 2:0.577308 3:-0.553217 4:-0.0897865 5:0.0154699 6:-0.284299 7:-0.101673 8:-0.28267 9:-0.102108 10:-0.27793 11:-0.117586 12:-0.952381 13:-0.863014 14:-1 15:-0.969322 16:-0.27975 17:-0.102173 18:-0.278021 19:-0.102267 20:-0.273414 21:-0.118155 22:-0.960784 23:-0.863014 24:-1 25:-0.950416 26:-0.280143 27:-0.10257 28:-0.278455 29:-0.102791 30:-0.273871 31:-0.118744 32:-0.956522 33:-0.864865 34:-1 35:-0.96291 36:-0.275351 37:-0.103299 38:-0.272718 39:-0.106212 40:-0.26915 41:-0.119707 42:-0.902439 43:-0.893333 44:-0.912252 45:-0.940186 46:-0.27562 47:-0.104615 48:-0.274017 49:-0.105092 50:-0.269433 51:-0.120996 52:-0.956522 53:-0.866667 54:-1 55:-0.951441 56:-0.271027 57:-0.104995 58:-0.267402 59:-0.110546 60:-0.264749 61:-0.120974 62:-0.866667 63:-0.916667 64:-0.871636 65:-0.97079 66:-0.772174 67:-0.985459 68:-0.99316 69:-0.996955 70:-0.769357 71:-0.855479 72:0.964703 73:-0.822378 74:-0.803312 75:-0.855494 
1.443783547059476 1:0.99501 2:0.577308 3:-0.553217 4:-0.558926 5:-0.41536 6:-0.263192 7:-0.129283 8:-0.259509 9:-0.130622 10:-0.257466 11:-0.129916 12:-0.904762 13:-0.972603 14:-0.987302 15:-1 16:-0.258641 17:-0.129397 18:-0.25694 19:-0.130875 20:-0.252991 21:-0.130359 22:-0.960784 23:-0.945205 24:-1 25:-0.963339 26:-0.259125 27:-0.130168 28:-0.255485 29:-0.131703 30:-0.253449 31:-0.130998 32:-0.913043 33:-0.972973 34:-0.98002 35:-1 36:-0.254311 37:-0.130499 38:-0.252608 39:-0.131931 40:-0.248661 41:-0.131328 42:-0.95122 43:-0.946667 44:-1 45:-0.983798 46:-0.254677 47:-0.13214 48:-0.251036 49:-0.133562 50:-0.248984 51:-0.132683 52:-0.913043 53:-0.973333 54:-0.949228 55:-1 56:-0.250089 57:-0.132206 58:-0.248315 59:-0.133132 60:-0.24448 61:-0.133166 62:-0.955556 63:-0.944444 64:-1 65:-0.970715 66:-0.837313 67:-0.996601 68:-1 69:-1 70:-0.769357 71:-0.855392 72:0.964703 73:-0.861515 74:-0.886101 75:-0.852484 
8 1:0.99501 2:0.577308 3:-0.553217 4:-0.0543897 5:0.0399753 6:-0.112224 7:-0.0696446 8:-0.112224 9:-0.0696446 10:-0.112224 11:-0.0696446 12:-1 13:-1 14:-1 15:-1 16:-0.108196 17:-0.070142 18:-0.108196 19:-0.070142 20:-0.108196 21:-0.070142 22:-1 23:-1 24:-1 25:-1 26:-0.108264 27:-0.071151 28:-0.108264 29:-0.071151 30:-0.108264 31:-0.071151 32:-1 33:-1 34:-1 35:-1 36:-0.104183 37:-0.0714949 38:-0.104183 39:-0.0714949 40:-0.104183 41:-0.0714949 42:-1 43:-1 44:-1 45:-1 46:-0.104597 47:-0.0730141 48:-0.104597 49:-0.0730141 50:-0.104597 51:-0.0730141 52:-1 53:-1 54:-1 55:-1 56:-0.101106 57:-0.0726701 58:-0.101106 59:-0.0726701 60:-0.101106 61:-0.0726701 62:-1 63:-1 64:-1 65:-1 66:-0.853582 67:-1 68:-1 69:-1 70:-0.769357 71:-0.855392 72:0.964703 73:-0.669844 74:-0.669844 75:-0.669844 
2.754049505583788 1:0.99501 2:0.577308 3:-0.553217 4:-0.0304481 5:0.0262395 6:-0.0240474 7:0.124909 8:-0.0244356 9:0.126581 10:-0.0205529 11:0.133221 12:-0.952381 13:-0.917808 14:-1 15:-0.893746 16:-0.0205235 17:0.124638 18:-0.0166855 19:0.131217 20:-0.0172072 21:0.132901 22:-0.882353 23:-0.972603 24:-0.888754 25:-1 26:-0.020692 27:0.123854 28:-0.0210794 29:0.125525 30:-0.0174016 31:0.132105 32:-0.956522 33:-0.918919 34:-1 35:-0.877222 36:-0.0170545 37:0.123112 38:-0.0131817 39:0.129691 40:-0.0136785 41:0.131379 42:-0.853659 43:-0.973333 44:-0.911425 45:-1 46:-0.0170458 47:0.121389 48:-0.0133633 49:0.127911 50:-0.0144152 51:0.129421 52:-0.869565 53:-0.973333 54:-0.918507 55:-1 56:-0.0137013 57:0.121203 58:-0.00998593 59:0.127735 60:-0.0106647 61:0.129363 62:-0.866667 63:-0.972222 64:-0.878697 65:-1 66:-0.83578 67:-0.997153 68:-0.998009 69:-0.999555 70:-0.769357 71:-0.855398 72:0.964703 73:-0.830908 74:-0.81987 75:-0.88008 
5.794778663065724 1:0.990083 2:0.609211 3:-0.525416 4:-0.0997067 5:0.0262395 6:-0.0606538 7:-0.0216872 8:-0.0592481 9:-0.0188704 10:-0.0611837 11:-0.0161797 12:-0.904762 13:-0.972603 14:-0.981854 15:-1 16:-0.0570601 17:-0.021965 18:-0.0559406 19:-0.0190087 20:-0.0570477 21:-0.0167226 22:-0.921569 23:-0.972603 24:-0.99487 25:-1 26:-0.0577231 27:-0.0224993 28:-0.0564122 29:-0.0196475 30:-0.0577142 31:-0.0172697 32:-0.913043 33:-0.972973 34:-0.991587 35:-1 36:-0.0535061 37:-0.0231432 38:-0.0522629 39:-0.0202585 40:-0.0533879 41:-0.0179659 42:-0.902439 43:-0.973333 44:-0.987551 45:-1 46:-0.0540341 47:-0.0247026 48:-0.0524709 49:-0.0219851 50:-0.0539178 51:-0.019536 52:-0.913043 53:-0.973333 54:-0.997368 55:-1 56:-0.0498587 57:-0.0250993 58:-0.0492371 59:-0.0219018 60:-0.0504444 61:-0.019572 62:-0.911111 63:-0.972222 64:-0.981346 65:-1 66:-0.859558 67:-1 68:-1 69:-1 70:-0.769357 71:-0.855392 72:0.964703 73:-0.818866 74:-0.793778 75:-0.818364 
0.1014775585095187 1:0.989272 2:0.58973 3:-0.504475 4:-0.0304481 5:0.0790836 6:0.000663428 7:-0.378935 8:0.0661003 9:-0.385887 10:0.0718975 11:-0.385656 12:-0.47619 13:-0.972603 14:-0.905488 15:-1 16:0.00416787 17:-0.379534 18:0.0619303 19:-0.384056 20:0.0755014 21:-0.386812 22:-0.607843 23:-0.945205 24:-0.930751 25:-0.97493 26:0.00365954 27:-0.379537 28:0.0144241 29:-0.379872 30:0.0745861 31:-0.386225 32:-0.913043 33:-0.72973 34:-0.987545 35:-0.936433 36:0.00762948 37:-0.380116 38:0.0652616 39:-0.384728 40:0.0781835 41:-0.386568 42:-0.512195 43:-0.946667 44:-0.942028 45:-0.943536 46:0.00733384 47:-0.381453 48:0.0178837 49:-0.381446 50:0.0779305 51:-0.387939 52:-0.913043 53:-0.733333 54:-0.982621 55:-0.927659 56:0.0107787 57:-0.381666 58:0.0158068 59:-0.381279 60:0.081062 61:-0.388138 62:-0.955556 63:-0.694444 64:-1 65:-0.93862 66:-0.458501 67:-0.862156 68:-0.999748 69:-0.999865 70:-0.769357 71:-0.855392 72:0.964703 73:-0.901656 74:-0.916207 75:-0.918214 
8 1:0.989272 2:0.58973 3:-0.504475 4:-0.0931772 5:0.0262395 6:-0.0606966 7:-0.021665 8:-0.059529 9:-0.0187306 10:-0.0607059 11:-0.0164126 12:-0.904762 13:-0.972603 14:-0.992709 15:-1 16:-0.056847 17:-0.0220759 18:-0.0562204 19:-0.0188688 20:-0.0573288 21:-0.016585 22:-0.921569 23:-0.972603 24:-0.987607 25:-1 26:-0.0576165 27:-0.0225547 28:-0.0564768 29:-0.0196152 30:-0.0575196 31:-0.0173649 32:-0.913043 33:-0.972973 34:-0.980716 35:-1 36:-0.0535274 37:-0.0231321 38:-0.0519197 39:-0.0204304 40:-0.0534526 41:-0.0179342 42:-0.902439 43:-0.973333 44:-0.983882 45:-1 46:-0.0539492 47:-0.0247469 48:-0.0529426 49:-0.0217492 50:-0.0540902 51:-0.0194515 52:-0.913043 53:-0.973333 54:-0.950879 55:-1 56:-0.0502604 57:-0.024889 58:-0.0491303 59:-0.0219555 60:-0.0502727 61:-0.0196565 62:-0.911111 63:-0.972222 64:-0.969405 65:-1 66:-0.859558 67:-1 68:-1 69:-1 70:-0.769357 71:-0.855392 72:0.964703 73:-0.818364 74:-0.793276 75:-0.817863 
2.850525198908637 1:0.990831 2:0.585521 3:-0.5004 4:-0.0899927 5:0.0157437 6:-0.284374 7:-0.101907 8:-0.282676 9:-0.10213 10:-0.277952 11:-0.117672 12:-0.952381 13:-0.863014 14:-1 15:-0.948011 16:-0.279689 17:-0.101981 18:-0.278053 19:-0.102374 20:-0.27338 21:-0.118025 22:-0.960784 23:-0.863014 24:-1 25:-0.95166 26:-0.280089 27:-0.102399 28:-0.278514 29:-0.102983 30:-0.273794 31:-0.118442 32:-0.956522 33:-0.864865 34:-1 35:-0.959547 36:-0.275223 37:-0.102895 38:-0.27366 39:-0.1035 40:-0.268974 41:-0.119017 42:-0.95122 43:-0.866667 44:-1 45:-0.963938 46:-0.275688 47:-0.104827 48:-0.272973 49:-0.107458 50:-0.269295 51:-0.120457 52:-0.913043 53:-0.893333 54:-0.924913 55:-0.971261 56:-0.27106 57:-0.105101 58:-0.26933 59:-0.105153 60:-0.264672 61:-0.120672 62:-0.955556 63:-0.861111 64:-1 65:-0.961025 66:-0.796387 67:-0.990576 68:-0.994369 69:-0.997359 70:-0.769357 71:-0.855385 72:0.964703 73:-0.820371 74:-0.803813 75:-0.858003 
0.2475194129199118 1:0.994823 2:0.59387 3:-0.479458 4:-0.0304481 5:0.0254865 6:0.683041 7:-0.232176 8:0.683041 9:-0.232176 10:0.683041 11:-0.232176 12:-1 13:-1 14:-1 15:-1 16:0.684201 17:-0.232749 18:0.684201 19:-0.232749 20:0.684201 21:-0.232749 22:-1 23:-1 24:-1 25:-1 26:0.683445 27:-0.232994 28:0.683445 29:-0.232994 30:0.683445 31:-0.232994 32:-1 33:-1 34:-1 35:-1 36:-0.22201 37:0.0647372 38:-0.22201 39:0.0647372 40:-0.22201 41:0.0647372 42:-1 43:-1 44:-1 45:-1 46:-0.222358 47:0.0629811 48:-0.222358 49:0.0629811 50:-0.222358 51:0.0629811 52:-1 53:-1 54:-1 55:-1 56:0.685194 57:-0.235071 58:0.685194 59:-0.235071 60:0.685194 61:-0.235071 62:-1 63:-1 64:-1 65:-1 66:-0.853582 67:-1 68:-1 69:-1 70:-0.769357 71:-0.855392 72:0.964703 73:-0.940291 74:-0.940291 75:-0.940291 
5.278556240313853 1:0.994823 2:0.59387 3:-0.479458 4:-0.0304481 5:0.0262395 6:-0.0237645 7:0.12499 8:-0.0202622 9:0.131464 10:-0.0209955 11:0.13308 12:-0.857143 13:-0.972603 14:-0.904796 15:-1 16:-0.0202655 17:0.124712 18:-0.0166622 19:0.131224 20:-0.0173927 21:0.132841 22:-0.882353 23:-0.972603 24:-0.902611 25:-1 26:-0.0207624 27:0.123834 28:-0.0172979 29:0.130292 30:-0.0179814 31:0.13192 32:-0.869565 33:-0.972973 34:-0.906856 35:-1 36:-0.016844 37:0.123172 38:-0.0169965 39:0.12491 40:-0.0134935 41:0.131438 42:-0.95122 43:-0.92 44:-1 45:-0.897436 46:-0.0172796 47:0.121322 48:-0.0171755 49:0.123133 50:-0.013456 51:0.127882 52:-0.956522 53:-0.946667 54:-1 55:-0.996423 56:-0.0134917 57:0.121263 58:-0.0101706 59:0.127678 60:-0.0110559 61:0.129237 62:-0.866667 63:-0.972222 64:-0.889913 65:-1 66:-0.83578 67:-0.997153 68:-0.998009 69:-0.999555 70:-0.769357 71:-0.855398 72:0.964703 73:-0.829403 74:-0.81435 75:-0.890115 
0.1862237977035325 1:0.999252 2:0.585351 3:-0.476312 4:-0.0304481 5:0.0525018 6:-0.186351 7:-0.257301 8:-0.186351 9:-0.257301 10:-0.186351 11:-0.257301 12:-1 13:-1 14:-1 15:-1 16:-0.226242 17:0.0661352 18:-0.226242 19:0.0661352 20:-0.226242 21:0.0661352 22:-1 23:-1 24:-1 25:-1 26:-0.22668 27:0.0653577 28:-0.22668 29:0.0653577 30:-0.22668 31:0.0653577 32:-1 33:-1 34:-1 35:-1 36:-0.22201 37:0.0647372 38:-0.22201 39:0.0647372 40:-0.22201 41:0.0647372 42:-1 43:-1 44:-1 45:-1 46:-0.178781 47:-0.257235 48:-0.178781 49:-0.257235 50:-0.178781 51:-0.257235 52:-1 53:-1 54:-1 55:-1 56:-0.174762 57:-0.255757 58:-0.174762 59:-0.255757 60:-0.174762 61:-0.255757 62:-1 63:-1 64:-1 65:-1 66:-0.853582 67:-1 68:-1 69:-1 70:-0.769357 71:-0.855392 72:0.964703 73:0.960361 74:0.960361 75:0.960361 
0.8287404137646427 1:0.992827 2:0.581414 3:-0.443662 4:-0.305008 5:0.0513838 6:-0.106988 7:-0.11123 8:-0.105474 9:-0.0970751 10:-0.0978155 11:-0.0889808 12:-0.761905 13:-0.835616 14:-0.913707 15:-0.913056 16:-0.103111 17:-0.111596 18:-0.100728 19:-0.0955417 20:-0.0940173 21:-0.0892878 22:-0.764706 23:-0.863014 24:-0.885706 25:-0.931447 26:-0.103529 27:-0.112147 28:-0.101836 29:-0.0982459 30:-0.0944031 31:-0.0899041 32:-0.782609 33:-0.837838 34:-0.898299 35:-0.898336 36:-0.0993445 37:-0.11259 38:-0.0985062 39:-0.100663 40:-0.0900964 41:-0.090556 42:-0.804878 43:-0.813333 44:-0.936396 45:-0.850479 46:-0.0997306 47:-0.114084 48:-0.0981192 49:-0.10012 50:-0.0906048 51:-0.0919414 52:-0.782609 53:-0.84 54:-0.90834 55:-0.909458 56:-0.0957312 57:-0.114388 58:-0.094906 59:-0.102454 60:-0.0867507 61:-0.0920911 62:-0.822222 63:-0.805556 64:-0.916873 65:-0.848258 66:-0.754187 67:-0.980764 68:-0.995415 69:-0.9981 70:-0.769357 71:-0.855479 72:0.964703 73:-0.82288 74:-0.793778 75:-0.786754 
0.07054045428096177 1:0.992827 2:0.581414 3:-0.443662 4:0.107977 5:0.180688 6:0.0307473 7:0.351125 8:-0.0456393 9:0.34286 10:-0.0540675 11:0.341008 12:-0.190476 13:-0.945205 14:-0.934806 15:-0.994206 16:0.0339855 17:0.350865 18:0.00513606 19:0.348166 20:-0.0504722 21:0.340728 22:-0.764706 23:-0.643836 24:-0.959512 25:-0.93712 26:0.0339533 27:0.350123 28:0.0177709 29:0.347159 30:-0.0507774 31:0.339764 32:-0.869565 33:-0.567568 34:-0.968827 35:-0.856599 36:0.0377609 37:0.349399 38:-0.0343928 39:0.341302 40:-0.0467632 41:0.338929 42:-0.219512 43:-0.92 44:-0.921542 45:-0.966254 46:0.0375029 47:0.347408 48:0.0316409 49:0.345988 50:-0.0472272 51:0.33667 52:-0.956522 53:-0.52 54:-1 55:-0.907112 56:0.0400145 57:0.346436 58:-0.0103312 59:0.341782 60:-0.0436584 61:0.336406 62:-0.511111 63:-0.777778 64:-0.913054 65:-0.904305 66:-0.393605 67:-0.82307 68:-0.997879 69:-0.995473 70:-0.769357 71:-0.854154 72:0.964703 73:-0.946814 74:-0.879579 75:-0.881586 
0.1682213298970168 1:1 2:0.583417 3:-0.451244 4:-0.0304481 5:0.0531863 6:-0.186291 7:-0.257742 8:-0.186291 9:-0.257742 10:-0.186291 11:-0.257742 12:-1 13:-1 14:-1 15:-1 16:-0.182258 17:-0.256965 18:-0.182258 19:-0.256965 20:-0.182258 21:-0.256965 22:-1 23:-1 24:-1 25:-1 26:-0.182867 27:-0.256022 28:-0.182867 29:-0.256022 30:-0.182867 31:-0.256022 32:-1 33:-1 34:-1 35:-1 36:-0.178414 37:-0.255998 38:-0.178414 39:-0.255998 40:-0.178414 41:-0.255998 42:-1 43:-1 44:-1 45:-1 46:-0.222358 47:0.0629811 48:-0.222358 49:0.0629811 50:-0.222358 51:0.0629811 52:-1 53:-1 54:-1 55:-1 56:-0.174185 57:-0.260018 58:-0.174185 59:-0.260018 60:-0.174185 61:-0.260018 62:-1 63:-1 64:-1 65:-1 66:-0.853582 67:-0.999312 68:-1 69:-1 70:-0.769357 71:-0.855392 72:0.964703 73:0.95986 74:0.95986 75:0.95986 
1.899639175647803 1:1 2:0.583417 3:-0.451244 4:-0.0304481 5:0.0262395 6:-0.0607394 7:-0.0216428 8:-0.0598748 9:-0.0185585 10:-0.0605973 11:-0.0164656 12:-0.904762 13:-0.972603 14:-0.992151 15:-1 16:-0.0569749 17:-0.0220094 18:-0.0561128 19:-0.0189226 20:-0.0571991 21:-0.0166485 22:-0.921569 23:-0.972603 24:-0.992797 25:-1 26:-0.0574887 27:-0.0226212 28:-0.0567135 29:-0.0194971 30:-0.0579304 31:-0.017164 32:-0.913043 33:-0.972973 34:-0.980118 35:-1 36:-0.0530601 37:-0.0233758 38:-0.0525632 39:-0.0201082 40:-0.0536897 41:-0.0178179 42:-0.902439 43:-0.973333 44:-0.991422 45:-1 46:-0.0536732 47:-0.0248906 48:-0.0528783 49:-0.0217813 50:-0.0538101 51:-0.0195888 52:-0.913043 53:-0.973333 54:-0.972235 55:-1 56:-0.0499644 57:-0.0250439 58:-0.0493225 59:-0.0218589 60:-0.0503371 61:-0.0196248 62:-0.911111 63:-0.972222 64:-0.985401 65:-1 66:-0.859558 67:-1 68:-1 69:-1 70:-0.769357 71:-0.855392 72:0.964703 73:-0.819368 74:-0.792273 75:-0.818866 
0.09578108768080462 1:1 2:0.583417 3:-0.451244 4:-0.0304481 5:0.0262395 6:-0.0240002 7:0.124923 8:-0.0202155 9:0.131479 10:-0.0208091 11:0.13314 12:-0.857143 13:-0.972603 14:-0.935562 15:-1 16:-0.0199839 17:0.124792 18:-0.0204656 19:0.12644 20:-0.0170216 21:0.13296 22:-0.960784 23:-0.917808 24:-1 25:-0.900602 26:-0.020692 27:0.123854 28:-0.0207752 29:0.125614 30:-0.0170188 31:0.130378 32:-0.956522 33:-0.945946 34:-1 35:-0.998603 36:-0.0166569 37:0.123225 38:-0.013089 39:0.12972 40:-0.0136323 41:0.131394 42:-0.853659 43:-0.973333 44:-0.914252 45:-1 46:-0.0172328 47:0.121336 48:-0.0171055 49:0.123154 50:-0.0139196 51:0.127738 52:-0.956522 53:-0.946667 54:-1 55:-0.984292 56:-0.0137013 57:0.121203 58:-0.010009 59:0.127728 60:-0.0105266 61:0.129407 62:-0.866667 63:-0.972222 64:-0.899375 65:-1 66:-0.83578 67:-0.997153 68:-0.998009 69:-0.999555 70:-0.769357 71:-0.855398 72:0.964703 73:-0.828901 74:-0.814852 75:-0.89714 
0.9762622266865673 1:0.989023 2:0.575237 3:-0.448407 4:-0.304229 5:0.0500604 6:-0.106818 7:-0.111474 8:-0.105418 9:-0.0971483 10:-0.0976199 11:-0.0892096 12:-0.761905 13:-0.835616 14:-0.910274 15:-0.870265 16:-0.10315 17:-0.111539 18:-0.101559 19:-0.0974927 20:-0.0939724 21:-0.0893406 22:-0.803922 23:-0.835616 24:-0.922957 25:-0.90865 26:-0.103607 27:-0.112034 28:-0.102725 29:-0.100158 30:-0.0944331 31:-0.0898689 32:-0.826087 33:-0.810811 34:-0.937938 35:-0.837649 36:-0.0992666 37:-0.112703 38:-0.0977187 39:-0.0986243 40:-0.0901412 41:-0.0905032 42:-0.756098 43:-0.84 44:-0.886687 45:-0.886739 46:-0.0996266 47:-0.114234 48:-0.0988514 49:-0.102229 50:-0.0904705 51:-0.0920993 52:-0.826087 53:-0.813333 54:-0.915904 55:-0.860217 56:-0.0956665 57:-0.114482 58:-0.0933661 59:-0.09838 60:-0.0866319 61:-0.0922316 62:-0.733333 63:-0.861111 64:-0.846062 65:-0.93288 66:-0.754187 67:-0.980764 68:-0.995415 69:-0.9981 70:-0.769357 71:-0.855479 72:0.964703 73:-0.821877 74:-0.793778 75:-0.787255 
0.9817932000172203 1:0.994199 2:0.576323 3:-0.448665 4:0.0144566 5:0.0262395 6:-0.158155 7:-0.122543 8:-0.154427 9:-0.116556 10:-0.152953 11:-0.115248 12:-0.857143 13:-0.972603 14:-0.990613 15:-1 16:-0.15407 17:-0.122917 18:-0.150452 19:-0.1167 20:-0.148774 21:-0.115889 22:-0.882353 23:-0.972603 24:-0.98589 25:-1 26:-0.156055 27:-0.124751 28:-0.15448 29:-0.123497 30:-0.149393 31:-0.115982 32:-0.956522 33:-0.891892 34:-1 35:-0.936871 36:-0.15151 37:-0.125596 38:-0.147704 39:-0.11968 40:-0.1449 41:-0.116722 42:-0.853659 43:-0.946667 44:-0.980837 45:-0.976925 46:-0.151809 47:-0.127259 48:-0.1481 49:-0.1211 50:-0.14535 51:-0.118023 52:-0.869565 53:-0.946667 54:-0.98231 55:-0.97203 56:-0.148978 57:-0.129476 58:-0.143985 59:-0.121273 60:-0.141125 61:-0.118485 62:-0.822222 63:-0.944444 64:-0.975231 65:-0.977744 66:-0.826467 67:-0.995466 68:-1 69:-1 70:-0.769357 71:-0.855392 72:0.964703 73:-0.838435 74:-0.835424 75:-0.846463 
8 1:0.994199 2:0.576323 3:-0.448665 4:-0.0304481 5:0.0262395 6:-0.0238588 7:0.124963 8:-0.0199818 9:0.131551 10:-0.0205761 11:0.133214 12:-0.857143 13:-0.972603 14:-0.93253 15:-1 16:-0.0205001 17:0.124645 18:-0.0205124 19:0.126427 20:-0.0167786 21:0.131188 22:-0.960784 23:-0.945205 24:-1 25:-0.963077 26:-0.0209032 27:0.123794 28:-0.0172049 29:0.130321 30:-0.0179119 31:0.131942 32:-0.869565 33:-0.972973 34:-0.941443 35:-1 36:-0.0169376 37:0.123145 38:-0.0128571 39:0.129792 40:-0.0136554 41:0.131386 42:-0.853659 43:-0.973333 44:-0.918071 45:-1 46:-0.0170925 47:0.121376 48:-0.0173853 49:0.123072 50:-0.013745 51:0.129635 52:-0.956522 53:-0.92 54:-1 55:-0.887855 56:-0.0134451 57:0.121276 58:-0.0135047 59:0.123042 60:-0.0100203 61:0.129569 62:-0.955556 63:-0.916667 64:-1 65:-0.914059 66:-0.83578 67:-0.997153 68:-0.998009 69:-0.999555 70:-0.769357 71:-0.855398 72:0.964703 73:-0.829905 74:-0.81435 75:-0.891621 
0.5544788418055324 1:0.994199 2:0.576323 3:-0.448665 4:-0.0193136 5:0.0262395 6:-0.121087 7:0.360368 8:-0.121087 9:0.360368 10:-0.121087 11:0.360368 12:-1 13:-1 14:-1 15:-1 16:-0.226242 17:0.0661352 18:-0.226242 19:0.0661352 20:-0.226242 21:0.0661352 22:-1 23:-1 24:-1 25:-1 26:-0.22668 27:0.0653577 28:-0.22668 29:0.0653577 30:-0.22668 31:0.0653577 32:-1 33:-1 34:-1 35:-1 36:-0.22201 37:0.0647372 38:-0.22201 39:0.0647372 40:-0.22201 41:0.0647372 42:-1 43:-1 44:-1 45:-1 46:-0.222358 47:0.0629811 48:-0.222358 49:0.0629811 50:-0.222358 51:0.0629811 52:-1 53:-1 54:-1 55:-1 56:-0.110107 57:0.35489 58:-0.110107 59:0.35489 60:-0.110107 61:0.35489 62:-1 63:-1 64:-1 65:-1 66:-1 67:-1 68:-1 69:-1 70:-0.769357 71:-0.855392 72:0.964703 73:-0.955344 74:-0.955344 75:-0.955344 
2.643036981752303 1:0.991642 2:0.559149 3:-0.458104 4:-0.0304481 5:0.0262395 6:-0.0236467 7:0.125023 8:-0.0242946 9:0.126622 10:-0.0204597 11:0.133251 12:-0.952381 13:-0.917808 14:-1 15:-0.862287 16:-0.0204297 17:0.124665 18:-0.0204656 19:0.12644 20:-0.0166855 21:0.131217 22:-0.960784 23:-0.945205 24:-1 25:-0.994374 26:-0.0206216 27:0.123874 28:-0.0169955 29:0.130386 30:-0.0175407 31:0.132061 32:-0.869565 33:-0.972973 34:-0.891961 35:-1 36:-0.0167972 37:0.123185 38:-0.0168099 39:0.124965 40:-0.0129267 41:0.12977 42:-0.95122 43:-0.946667 44:-1 45:-0.999712 46:-0.0170925 47:0.121376 48:-0.0136183 49:0.127831 50:-0.0141841 51:0.129495 52:-0.869565 53:-0.973333 54:-0.899325 55:-1 56:-0.0140272 57:0.12111 58:-0.0134351 59:0.123062 60:-0.00991672 61:0.127757 62:-0.955556 63:-0.944444 64:-1 65:-0.988693 66:-0.83578 67:-0.997153 68:-0.998009 69:-0.999555 70:-0.769357 71:-0.855398 72:0.964703 73:-0.830908 74:-0.822378 75:-0.886101 
0.3273124556364867 1:0.993763 2:0.556604 3:-0.447943 4:0.0759485 5:0.123805 6:-0.599901 7:0.454668 8:-0.599901 9:0.454668 10:-0.599901 11:0.454668 12:-1 13:-1 14:-1 15:-1 16:-0.594411 17:0.454942 18:-0.594411 19:0.454942 20:-0.594411 21:0.454942 22:-1 23:-1 24:-1 25:-1 26:-0.22668 27:0.0653577 28:-0.22668 29:0.0653577 30:-0.22668 31:0.0653577 32:-1 33:-1 34:-1 35:-1 36:-0.22201 37:0.0647372 38:-0.22201 39:0.0647372 40:-0.22201 41:0.0647372 42:-1 43:-1 44:-1 45:-1 46:-0.222358 47:0.0629811 48:-0.222358 49:0.0629811 50:-0.222358 51:0.0629811 52:-1 53:-1 54:-1 55:-1 56:-0.582825 57:0.450062 58:-0.582825 59:0.450062 60:-0.582825 61:0.450062 62:-1 63:-1 64:-1 65:-1 66:-0.853582 67:-0.999312 68:-1 69:-1 70:-0.769357 71:-0.855392 72:0.964703 73:-0.960863 74:-0.960863 75:-0.960863 
2.087744989817391 1:0.993763 2:0.56217 3:-0.44196 4:-0.304206 5:0.0498323 6:-0.106831 7:-0.111456 8:-0.105222 9:-0.0974043 10:-0.09765 11:-0.0891744 12:-0.761905 13:-0.835616 14:-0.882885 15:-0.870894 16:-0.103202 17:-0.111464 18:-0.101517 19:-0.0975476 20:-0.0941072 21:-0.0891822 22:-0.803922 23:-0.835616 24:-0.91665 25:-0.921829 26:-0.103646 27:-0.111978 28:-0.101089 29:-0.0961874 30:-0.0944481 31:-0.0898513 32:-0.73913 33:-0.864865 34:-0.892614 35:-0.929795 36:-0.0992795 37:-0.112684 38:-0.0977465 39:-0.0985878 40:-0.0902158 41:-0.0904154 42:-0.756098 43:-0.84 44:-0.906671 45:-0.904132 46:-0.0996786 47:-0.114159 48:-0.0988651 49:-0.102211 50:-0.0904257 51:-0.0921519 52:-0.826087 53:-0.813333 54:-0.944959 55:-0.84328 56:-0.0957829 57:-0.114313 58:-0.0950152 59:-0.102307 60:-0.0867507 61:-0.0920911 62:-0.822222 63:-0.805556 64:-0.932893 65:-0.860071 66:-0.754187 67:-0.980764 68:-0.995415 69:-0.9981 70:-0.769357 71:-0.855479 72:0.964703 73:-0.823382 74:-0.792775 75:-0.788259 
3.609221814009771 1:0.993763 2:0.56217 3:-0.44196 4:0.288352 5:0.0262395 6:0.207876 7:-0.18927 8:0.207876 9:-0.18927 10:0.207876 11:-0.18927 12:-1 13:-1 14:-1 15:-1 16:0.210611 17:-0.189745 18:0.210611 19:-0.189745 20:0.210611 21:-0.189745 22:-1 23:-1 24:-1 25:-1 26:0.209867 27:-0.189977 28:0.209867 29:-0.189977 30:0.209867 31:-0.189977 32:-1 33:-1 34:-1 35:-1 36:0.213792 37:-0.190915 38:0.213792 39:-0.190915 40:0.213792 41:-0.190915 42:-1 43:-1 44:-1 45:-1 46:0.212628 47:-0.191894 48:0.212628 49:-0.191894 50:0.212628 51:-0.191894 52:-1 53:-1 54:-1 55:-1 56:0.215167 57:-0.192061 58:0.215167 59:-0.192061 60:0.215167 61:-0.192061 62:-1 63:-1 64:-1 65:-1 66:-0.853582 67:-1 68:-1 69:-1 70:-0.769357 71:-0.855392 72:0.964703 73:-0.876066 74:-0.876066 75:-0.876066 
0.7571557925393776 1:0.993763 2:0.56217 3:-0.44196 4:-0.0304481 5:0.0262395 6:-0.0237645 7:0.12499 8:-0.0235895 9:0.126828 10:-0.0199818 11:0.131551 12:-0.952381 13:-0.945205 14:-1 15:-0.989776 16:-0.0201246 17:0.124752 18:-0.020489 19:0.126434 20:-0.0170448 21:0.132952 22:-0.960784 23:-0.917808 24:-1 25:-0.894939 26:-0.0209266 27:0.123787 28:-0.0206113 29:0.125662 30:-0.0170188 31:0.130378 32:-0.956522 33:-0.945946 34:-1 35:-0.994353 36:-0.0168206 37:0.123179 38:-0.0130426 39:0.129734 40:-0.0135629 41:0.131416 42:-0.853659 43:-0.973333 44:-0.904467 45:-1 46:-0.0171393 47:0.121362 48:-0.0133401 49:0.127918 50:-0.0138606 51:0.129598 52:-0.869565 53:-0.973333 54:-0.927685 55:-1 56:-0.0138642 57:0.121156 58:-0.0100552 59:0.127714 60:-0.0103195 61:0.129473 62:-0.866667 63:-0.972222 64:-0.927339 65:-1 66:-0.83578 67:-0.997153 68:-0.998009 69:-0.999555 70:-0.769357 71:-0.855398 72:0.964703 73:-0.829905 74:-0.820371 75:-0.813347 
0.06755734503256508 1:0.993389 2:0.564037 3:-0.469761 4:0.107771 5:0.180916 6:0.0308416 7:0.351228 8:0.0113091 9:0.349531 10:-0.0539934 11:0.341124 12:-0.809524 13:-0.589041 14:-0.931152 15:-0.92904 16:0.0333752 17:0.350197 18:0.00979565 19:0.348656 20:-0.0505706 21:0.340574 22:-0.803922 23:-0.616438 24:-0.953634 25:-0.892184 26:0.0333586 27:0.349473 28:0.0288306 29:0.349543 30:-0.0505068 31:0.340186 32:-0.956522 33:-0.513514 34:-1 35:-0.928976 36:0.0374021 37:0.349005 38:-0.0136879 39:0.343728 40:-0.0465179 41:0.339312 42:-0.463415 43:-0.786667 44:-0.945691 45:-0.93273 46:0.0373469 47:0.347237 48:-0.0309664 49:0.339336 50:-0.0472762 51:0.336593 52:-0.347826 53:-0.893333 54:-0.92957 55:-0.994022 56:0.0397349 57:0.346128 58:-0.0350347 59:0.338709 60:-0.0433654 61:0.336865 62:-0.244444 63:-0.944444 64:-0.925605 65:-0.948454 66:-0.366447 67:-0.806028 68:-0.999743 69:-0.999838 70:-0.769357 71:-0.855392 72:0.964703 73:-0.937782 74:-0.91721 75:-0.883091 
3.680948640017141 1:0.988586 2:0.570621 3:-0.461921 4:-0.0304481 5:0.0262395 6:-0.0236939 7:0.12501 8:-0.0199351 9:0.131565 10:-0.0205761 11:0.133214 12:-0.857143 13:-0.972603 14:-0.899848 15:-1 16:-0.020242 17:0.124718 18:-0.0200211 19:0.126571 20:-0.0163365 21:0.131325 22:-0.960784 23:-0.945205 24:-1 25:-0.994601 26:-0.0203869 27:0.12394 28:-0.0207284 29:0.125628 30:-0.0172392 31:0.132157 32:-0.956522 33:-0.918919 34:-1 35:-0.887985 36:-0.016844 37:0.123172 38:-0.0130426 39:0.129734 40:-0.0131699 41:0.131542 42:-0.853659 43:-0.973333 44:-0.909112 45:-1 46:-0.0171393 47:0.121362 48:-0.0133633 49:0.127911 50:-0.0138606 51:0.129598 52:-0.869565 53:-0.973333 54:-0.895576 55:-1 56:-0.013515 57:0.121256 58:-0.0138066 59:0.122953 60:-0.0102735 61:0.129488 62:-0.955556 63:-0.916667 64:-1 65:-0.895715 66:-0.83578 67:-0.997153 68:-0.998009 69:-0.999555 70:-0.769357 71:-0.855398 72:0.964703 73:-0.829905 74:-0.813347 75:-0.890115 
1.583170533424227 1:0.99027 2:0.557283 3:-0.453411 4:-0.0304481 5:0.0262395 6:-0.0237174 7:0.125003 8:-0.0237305 9:0.126786 10:-0.0199472 11:0.133414 12:-0.952381 13:-0.917808 14:-1 15:-0.9246 16:-0.0204297 17:0.124665 18:-0.0164528 19:0.131289 20:-0.0171144 21:0.13293 22:-0.882353 23:-0.972603 24:-0.897936 25:-1 26:-0.0204573 27:0.12392 28:-0.017042 29:0.130371 30:-0.017332 31:0.132127 32:-0.869565 33:-0.972973 34:-0.912256 35:-1 36:-0.0167037 37:0.123212 38:-0.0168566 39:0.124951 40:-0.0128803 41:0.129785 42:-0.95122 43:-0.946667 44:-1 45:-0.990573 46:-0.016999 47:0.121402 48:-0.0132706 49:0.127939 50:-0.0140455 51:0.129539 52:-0.869565 53:-0.973333 54:-0.900762 55:-1 56:-0.0133054 57:0.121316 58:-0.0133654 59:0.123083 60:-0.0097551 61:0.127807 62:-0.955556 63:-0.944444 64:-1 65:-0.988902 66:-0.83578 67:-0.997153 68:-0.998009 69:-0.999555 70:-0.769357 71:-0.855398 72:0.964703 73:-0.828901 74:-0.819368 75:-0.886603 
2.308240692806647 1:0.99052 2:0.551377 3:-0.470277 4:-0.0304481 5:0.0262395 6:-0.230618 7:-0.131612 8:-0.224895 9:-0.129836 10:-0.217267 11:-0.129582 12:-0.952381 13:-0.945205 14:-1 15:-0.893686 16:-0.226242 17:-0.132279 18:-0.220538 19:-0.130325 20:-0.212959 21:-0.129738 22:-0.921569 23:-0.945205 24:-0.942016 25:-0.901505 26:-0.222859 27:-0.131778 28:-0.22098 29:-0.130677 30:-0.213416 31:-0.129958 32:-0.956522 33:-0.945946 34:-1 35:-0.887431 36:-0.218197 37:-0.132593 38:-0.21633 39:-0.131226 40:-0.20877 41:-0.130817 42:-0.95122 43:-0.973333 44:-1 45:-1 46:-0.216681 47:-0.132625 48:-0.216681 49:-0.132625 50:-0.209106 51:-0.132504 52:-1 53:-0.973333 54:-1 55:-1 56:-0.217925 57:-0.134749 58:-0.212278 59:-0.132602 60:-0.20475 61:-0.132392 62:-0.866667 63:-0.972222 64:-0.896997 65:-1 66:-0.829229 67:-0.995951 68:-0.997533 69:-0.998962 70:-0.769357 71:-0.855348 72:0.964703 73:-0.896136 74:-0.84295 75:-0.875063 
0.9768644202105916 1:0.990831 2:0.560405 3:-0.47234 4:-0.0304481 5:0.0262395 6:-0.224892 7:-0.129947 8:-0.222964 9:-0.130405 10:-0.217267 11:-0.129582 12:-0.952381 13:-0.972603 14:-1 15:-1 16:-0.226242 17:-0.132146 18:-0.220537 19:-0.13037 20:-0.212959 21:-0.129738 22:-0.921569 23:-0.972603 24:-0.91238 25:-1 26:-0.22668 27:-0.132739 28:-0.220983 29:-0.130589 30:-0.213397 31:-0.130246 32:-0.913043 33:-0.945946 34:-0.959618 35:-0.885162 36:-0.218204 37:-0.13226 38:-0.21633 39:-0.131204 40:-0.208735 41:-0.131326 42:-0.95122 43:-0.946667 44:-1 45:-0.885643 46:-0.222358 47:-0.134241 48:-0.216681 49:-0.132603 50:-0.209109 51:-0.13246 52:-0.913043 53:-0.946667 54:-0.92795 55:-0.8787 56:-0.217925 57:-0.134903 58:-0.212265 59:-0.133044 60:-0.204727 61:-0.132724 62:-0.911111 63:-0.972222 64:-0.926983 65:-1 66:-0.829229 67:-0.995951 68:-0.997533 69:-0.998962 70:-0.769357 71:-0.855348 72:0.964703 73:-0.84295 74:-0.889614 75:-0.876568 
0.2634280440697282 1:0.990831 2:0.560405 3:-0.47234 4:-0.00758339 5:0.0512697 6:-0.106707 7:-0.101676 8:-0.10342 9:-0.0936981 10:-0.0979359 11:-0.0888399 12:-0.809524 13:-0.890411 14:-0.96985 15:-0.976791 16:-0.103657 17:-0.104121 18:-0.100644 19:-0.0956508 20:-0.0939125 21:-0.089411 22:-0.843137 23:-0.863014 24:-0.991839 25:-0.94814 26:-0.10374 27:-0.105148 28:-0.0999284 29:-0.094689 30:-0.0943432 31:-0.0899744 32:-0.782609 33:-0.891892 34:-0.933361 35:-0.9304 36:-0.0995301 37:-0.105632 38:-0.0957635 39:-0.095143 40:-0.0902457 41:-0.0903802 42:-0.756098 43:-0.893333 44:-0.928287 45:-0.960328 46:-0.100064 47:-0.11022 48:-0.0972214 49:-0.0982657 50:-0.0906197 51:-0.0919238 52:-0.782609 53:-0.866667 54:-0.949627 55:-0.935728 56:-0.0960364 57:-0.110559 58:-0.0942456 59:-0.100253 60:-0.0869925 61:-0.0890426 62:-0.822222 63:-0.805556 64:-0.925671 65:-0.779916 66:-0.761804 67:-0.981836 68:-0.998673 69:-0.999582 70:-0.769357 71:-0.855429 72:0.964703 73:-0.796789 74:-0.787757 75:-0.786252 
1.635312667634817 1:0.990831 2:0.560405 3:-0.47234 4:-0.0304481 5:0.0262395 6:-0.0608036 7:-0.0216096 8:-0.0594858 9:-0.0187521 10:-0.060923 11:-0.0163068 12:-0.904762 13:-0.972603 14:-0.977493 15:-1 16:-0.0568896 17:-0.0220537 18:-0.0562204 19:-0.0188688 20:-0.057372 21:-0.0165638 22:-0.921569 23:-0.972603 24:-0.976405 25:-1 26:-0.0574248 27:-0.0226544 28:-0.0562401 29:-0.0197334 30:-0.0576277 31:-0.017312 32:-0.913043 33:-0.972973 34:-0.944812 35:-1 36:-0.0532938 37:-0.023254 38:-0.0524989 39:-0.0201404 40:-0.0536897 41:-0.0178179 42:-0.902439 43:-0.973333 44:-0.979251 45:-1 46:-0.0537156 47:-0.0248685 48:-0.0529855 49:-0.0217277 50:-0.0538963 51:-0.0195465 52:-0.913043 53:-0.973333 54:-0.992345 55:-1 56:-0.0497318 57:-0.0251656 58:-0.0491731 59:-0.021934 60:-0.0502942 61:-0.0196459 62:-0.911111 63:-0.972222 64:-0.971435 65:-1 66:-0.850245 67:-0.999118 68:-0.999068 69:-0.999879 70:-0.769357 71:-0.855392 72:0.964703 73:-0.818364 74:-0.792775 75:-0.820873 
0.3003027182905961 1:0.993825 2:0.563596 3:-0.466099 4:-0.0304481 5:0.0262395 6:-0.230618 7:-0.132322 8:-0.224888 9:-0.130058 10:-0.217222 11:-0.130246 12:-0.904762 13:-0.945205 14:-0.963233 15:-0.920057 16:-0.226242 17:-0.132323 18:-0.220542 19:-0.130192 20:-0.212931 21:-0.130159 22:-0.921569 23:-0.972603 24:-0.948153 25:-1 26:-0.22286 27:-0.131756 28:-0.220975 29:-0.130854 30:-0.213371 31:-0.130622 32:-0.956522 33:-0.945946 34:-1 35:-0.888523 36:-0.218203 37:-0.132283 38:-0.216318 39:-0.131625 40:-0.208756 41:-0.131016 42:-0.95122 43:-0.946667 44:-1 45:-0.916711 46:-0.218547 47:-0.133968 48:-0.21667 49:-0.133001 50:-0.209112 51:-0.132416 52:-0.956522 53:-0.946667 54:-1 55:-0.921508 56:-0.216027 57:-0.134232 58:-0.212264 59:-0.133088 60:-0.204715 61:-0.1329 62:-0.911111 63:-0.972222 64:-0.999744 65:-1 66:-0.829229 67:-0.995951 68:-0.997533 69:-0.998962 70:-0.769357 71:-0.855348 72:0.964703 73:-0.894129 74:-0.84847 75:-0.878575 
8 1:0.993825 2:0.563596 3:-0.466099 4:-0.00879765 5:0.0513838 6:-0.105348 7:-0.0972397 8:-0.10229 9:-0.0921747 10:-0.0975748 11:-0.0892624 12:-0.857143 13:-0.917808 14:-0.995325 15:-0.954587 16:-0.101503 17:-0.0975659 18:-0.0983999 19:-0.0925719 20:-0.0940024 21:-0.0893054 22:-0.882353 23:-0.917808 24:-0.985791 25:-0.98771 26:-0.10192 27:-0.0981363 28:-0.0988887 29:-0.0930592 30:-0.094478 31:-0.0898162 32:-0.869565 33:-0.918919 34:-0.981518 35:-0.981117 36:-0.0977187 37:-0.0986243 38:-0.0945985 39:-0.0936758 40:-0.0902308 41:-0.0903978 42:-0.853659 43:-0.92 44:-0.996475 45:-0.970078 46:-0.0979942 47:-0.100284 48:-0.0936944 49:-0.0939035 50:-0.0906644 51:-0.0918712 52:-0.826087 53:-0.946667 54:-0.970315 55:-0.982761 56:-0.0951518 57:-0.102123 58:-0.0922722 59:-0.0968123 60:-0.0867805 61:-0.092056 62:-0.866667 63:-0.888889 64:-0.978864 65:-0.972569 66:-0.826467 67:-0.995466 68:-1 69:-1 70:-0.769357 71:-0.855392 72:0.964703 73:-0.791269 74:-0.786252 75:-0.787757 
1.901209182689996 1:0.993825 2:0.563596 3:-0.466099 4:-0.0304481 5:0.0262395 6:-0.0238117 7:0.124976 8:-0.024036 9:0.126697 10:-0.0200753 11:0.131522 12:-0.952381 13:-0.945205 14:-1 15:-0.981575 16:-0.0200543 17:0.124772 18:-0.0205124 19:0.126427 20:-0.0170448 21:0.132952 22:-0.960784 23:-0.917808 24:-1 25:-0.871907 26:-0.0208093 27:0.12382 28:-0.0208219 29:0.125601 30:-0.0171118 31:0.13035 32:-0.956522 33:-0.945946 34:-1 35:-0.990239 36:-0.0165633 37:0.123252 38:-0.0129963 39:0.129749 40:-0.0132161 41:0.131527 42:-0.853659 43:-0.973333 44:-0.899019 45:-1 46:-0.0174432 47:0.121276 48:-0.0167791 49:0.123249 50:-0.0134329 51:0.127889 52:-0.956522 53:-0.946667 54:-1 55:-0.99126 56:-0.0133986 57:0.121289 58:-0.0140387 59:0.122884 60:-0.00982436 61:0.127786 62:-0.955556 63:-0.944444 64:-1 65:-0.996043 66:-0.81291 67:-0.99344 68:-0.996954 69:-0.998518 70:-0.769357 71:-0.855342 72:0.964703 73:-0.828901 74:-0.818866 75:-0.813848 
0.1859169310972273 1:0.993825 2:0.563596 3:-0.466099 4:-0.185369 5:-0.0650056 6:-0.138965 7:0.211887 8:-0.142599 9:0.215069 10:-0.139345 11:0.250505 12:-0.857143 13:-0.780822 14:-0.796597 15:-0.873303 16:-0.135085 17:0.211457 18:-0.138641 19:0.214736 20:-0.135296 21:0.250376 22:-0.882353 23:-0.780822 24:-0.830275 25:-0.871147 26:-0.135445 27:0.210596 28:-0.139039 29:0.213812 30:-0.135819 31:0.249162 32:-0.869565 33:-0.783784 34:-0.828688 35:-0.881374 36:-0.131186 37:0.209749 38:-0.134775 39:0.212942 40:-0.13124 41:0.2489 42:-0.853659 43:-0.786667 44:-0.825573 45:-0.875153 46:-0.131634 47:0.207662 48:-0.135161 49:0.210947 50:-0.131586 51:0.246931 52:-0.869565 53:-0.786667 54:-0.852834 55:-0.875983 56:-0.127448 57:0.207781 58:-0.13092 59:0.211148 60:-0.127522 61:0.24687 62:-0.866667 63:-0.777778 64:-0.774535 65:-0.892519 66:-0.62488 67:-0.941423 68:-0.987679 69:-0.98026 70:-0.769175 71:-0.852622 72:0.964829 73:-0.817863 74:-0.785248 75:-0.883091 
2.145623196464467 1:0.922722 2:0.577104 3:-0.326576 4:-0.0426365 5:0.0674013 6:-0.120536 7:-0.057841 8:-0.118897 9:-0.0469634 10:-0.114061 11:-0.0419529 12:-0.714286 13:-0.917808 14:-0.806593 15:-0.891046 16:-0.116746 17:-0.0580232 18:-0.11486 19:-0.0474156 20:-0.110244 21:-0.0422071 22:-0.764706 23:-0.890411 24:-0.77556 25:-0.932981 26:-0.116765 27:-0.059098 28:-0.114444 29:-0.04691 30:-0.107372 31:-0.0439902 32:-0.695652 33:-0.918919 34:-0.839764 35:-0.953516 36:-0.112443 37:-0.0596906 38:-0.111137 39:-0.0484667 40:-0.103131 41:-0.0445393 42:-0.707317 43:-0.893333 44:-0.78868 45:-0.953601 46:-0.112795 47:-0.0612967 48:-0.111503 49:-0.0500715 50:-0.101339 51:-0.0462102 52:-0.73913 53:-0.866667 54:-0.815181 55:-0.905318 56:-0.109092 57:-0.0611605 58:-0.107403 59:-0.0503761 60:-0.0972204 61:-0.0465532 62:-0.733333 63:-0.833333 64:-0.767408 65:-0.769134 66:-0.807061 67:-0.99211 68:-0.996918 69:-0.99845 70:-0.769357 71:-0.855292 72:0.964703 73:-0.795785 74:-0.795283 75:-0.792775 
0.1063131296726558 1:0.736543 2:0.585487 3:-0.0483559 4:-0.299876 5:0.0262395 6:-0.342391 7:-0.0643706 8:-0.329052 9:-0.0671118 10:-0.326883 11:-0.0863549 12:-0.619048 13:-0.780822 14:-0.737125 15:-0.759216 16:-0.337497 17:-0.0646398 18:-0.323326 19:-0.068704 20:-0.321785 21:-0.0861788 22:-0.647059 23:-0.808219 24:-0.662285 25:-0.820878 26:-0.337837 27:-0.0651142 28:-0.324677 29:-0.0679917 30:-0.322095 31:-0.0865344 32:-0.652174 33:-0.783784 34:-0.730618 35:-0.74657 36:-0.333053 37:-0.065986 38:-0.318632 39:-0.069663 40:-0.316917 41:-0.0867912 42:-0.560976 43:-0.813333 44:-0.660539 45:-0.842375 46:-0.33341 47:-0.0676009 48:-0.319878 49:-0.0699561 50:-0.317318 51:-0.0884573 52:-0.652174 53:-0.786667 54:-0.721962 55:-0.779571 56:-0.328575 57:-0.0678486 58:-0.315039 59:-0.0701342 60:-0.312442 61:-0.0885641 62:-0.644444 63:-0.777778 64:-0.655325 65:-0.761769 66:-0.732239 67:-0.98128 68:-0.978669 69:-0.989018 70:-0.769418 71:-0.856004 72:0.964452 73:-0.807827 74:-0.772704 75:-0.848971 
0.6027846419290834 1:0.736543 2:0.585487 3:-0.0483559 4:-0.560209 5:-0.414607 6:-0.263119 7:-0.128844 8:-0.261526 9:-0.131047 10:-0.2575 11:-0.130158 12:-0.952381 13:-0.945205 14:-1 15:-0.936309 16:-0.258663 17:-0.129529 18:-0.257022 19:-0.131403 20:-0.253018 21:-0.130558 22:-0.960784 23:-0.945205 24:-1 25:-0.928043 26:-0.259146 27:-0.1303 28:-0.257428 29:-0.131689 30:-0.253479 31:-0.131218 32:-0.956522 33:-0.945946 34:-1 35:-0.941021 36:-0.254373 37:-0.130871 38:-0.25266 39:-0.13226 40:-0.248723 41:-0.131789 42:-0.95122 43:-0.946667 44:-1 45:-0.990777 46:-0.254677 47:-0.13214 48:-0.252939 49:-0.133351 50:-0.249056 51:-0.13321 52:-0.956522 53:-0.946667 54:-1 55:-0.984795 56:-0.250053 57:-0.131987 58:-0.248427 59:-0.133855 60:-0.244492 61:-0.133254 62:-0.955556 63:-0.944444 64:-1 65:-0.960523 66:-0.849171 67:-0.999391 68:-0.997748 69:-1 70:-0.769357 71:-0.855392 72:0.964703 73:-0.865028 74:-0.889614 75:-0.868038 
0.1472074522983633 1:0.736543 2:0.585487 3:-0.0483559 4:-0.0304481 5:0.351906 6:0.000924529 7:-0.379437 8:0.066627 9:-0.38669 10:0.0721393 11:-0.386017 12:-0.47619 13:-0.972603 14:-0.843295 15:-1 16:0.00419907 17:-0.379594 18:0.0691346 19:-0.386149 20:0.0749945 21:-0.386051 22:-0.568627 23:-0.972603 24:-0.948558 25:-1 26:0.00394031 27:-0.380079 28:0.0378018 29:-0.382647 30:0.0748649 31:-0.386643 32:-0.73913 33:-0.837838 34:-0.96296 35:-0.937152 36:0.00775384 37:-0.380357 38:0.0185005 39:-0.380709 40:0.0784487 41:-0.386966 42:-0.902439 43:-0.733333 44:-0.97944 45:-0.924307 46:0.00737527 47:-0.381533 48:0.0411314 49:-0.384138 50:0.0780568 51:-0.388128 52:-0.73913 53:-0.84 54:-0.972654 55:-0.935894 56:0.0107993 57:-0.381706 58:0.033575 59:-0.384512 60:0.0810746 61:-0.388157 62:-0.822222 63:-0.777778 64:-0.86362 65:-0.876951 66:-0.473254 67:-0.87012 68:-0.999206 69:-0.999299 70:-0.769357 71:-0.855354 72:0.964703 73:-0.890617 74:-0.911691 75:-0.955344 
1.74482967366754 1:0.736543 2:0.585487 3:-0.0483559 4:-0.0401622 5:0.0695233 6:-0.122013 7:-0.0561739 8:-0.117603 9:-0.0523921 10:-0.119126 11:-0.0467308 12:-0.809524 13:-0.945205 14:-0.773858 15:-0.918695 16:-0.117481 17:-0.0571895 18:-0.113479 19:-0.0529484 20:-0.114029 21:-0.0462708 22:-0.843137 23:-0.917808 24:-0.735801 25:-0.819076 26:-0.117975 27:-0.0577279 28:-0.113943 29:-0.0535282 30:-0.11456 31:-0.0467947 32:-0.826087 33:-0.918919 34:-0.754949 35:-0.846735 36:-0.113283 37:-0.058737 38:-0.109487 39:-0.0542739 40:-0.110097 41:-0.047539 42:-0.804878 43:-0.92 44:-0.715513 45:-0.845014 46:-0.113619 47:-0.0603619 48:-0.109774 49:-0.0559545 50:-0.110578 51:-0.04903 52:-0.826087 53:-0.92 54:-0.696749 55:-0.867771 56:-0.109761 57:-0.0603986 58:-0.106016 59:-0.0559096 60:-0.106496 61:-0.0493168 62:-0.822222 63:-0.916667 64:-0.604689 65:-0.883064 66:-0.83894 67:-0.996982 68:-1 69:-1 70:-0.769357 71:-0.855392 72:0.964703 73:-0.789764 74:-0.790266 75:-0.794782 
5.613064425354415 1:0.736543 2:0.585487 3:-0.0483559 4:-0.0304481 5:0.0262395 6:-0.0618572 7:-0.0228355 8:-0.0605997 9:-0.0199478 10:-0.0614008 11:-0.0160738 12:-0.904762 13:-0.945205 14:-0.995988 15:-0.971241 16:-0.0579401 17:-0.023282 18:-0.0570279 19:-0.0202147 20:-0.0578477 21:-0.0163308 22:-0.921569 23:-0.945205 24:-0.987349 25:-0.966012 26:-0.0585596 27:-0.0238351 28:-0.0569287 29:-0.0193896 30:-0.0580602 31:-0.0171005 32:-0.869565 33:-0.972973 34:-0.975262 35:-1 36:-0.0543615 37:-0.0244682 38:-0.0529922 39:-0.0198934 40:-0.0539052 41:-0.0177122 42:-0.853659 43:-0.973333 44:-0.994682 45:-1 46:-0.0542126 47:-0.0263839 48:-0.0533715 49:-0.0215347 50:-0.0542841 51:-0.0193566 52:-0.869565 53:-0.973333 54:-0.991554 55:-1 56:-0.0508381 57:-0.0263578 58:-0.0496855 59:-0.0216766 60:-0.0504658 61:-0.0195614 62:-0.866667 63:-0.972222 64:-0.966931 65:-1 66:-0.853582 67:-0.999312 68:-1 69:-1 70:-0.769357 71:-0.855392 72:0.964703 73:-0.851982 74:-0.808329 75:-0.827396 
0.06011046237804563 1:0.736543 2:0.585487 3:-0.0483559 4:-0.0304481 5:0.0262395 6:-0.37542 7:0.491709 8:-0.395594 9:0.496647 10:-0.403052 11:0.491827 12:-0.809524 13:-0.945205 14:-0.778677 15:-0.849042 16:-0.370154 17:0.490699 18:-0.390459 19:0.496297 20:-0.397815 21:0.491311 22:-0.843137 23:-0.945205 24:-0.699583 25:-0.737629 26:-0.370608 27:0.489358 28:-0.390827 29:0.494717 30:-0.398204 31:0.489802 32:-0.826087 33:-0.945946 34:-0.69667 35:-0.76897 36:-0.365663 37:0.489177 38:-0.385838 39:0.494527 40:-0.393286 41:0.489818 42:-0.804878 43:-0.946667 44:-0.753363 45:-0.787359 46:-0.365821 47:0.486368 48:-0.385973 49:0.491715 50:-0.393327 51:0.486808 52:-0.826087 53:-0.946667 54:-0.728378 55:-0.799444 56:-0.36092 57:0.486741 58:-0.380788 59:0.491521 60:-0.388266 61:0.487008 62:-0.822222 63:-0.944444 64:-0.667278 65:-0.795149 66:-0.709298 67:-0.972297 68:-0.972822 69:-0.989894 70:-0.769479 71:-0.856629 72:0.964703 73:-0.884596 74:-0.867035 75:-0.889614 
2.271162882201382 1:0.666937 2:0.589288 3:-0.00312057 4:-0.559797 5:0.0262395 6:-0.265073 7:-0.128911 8:-0.261423 9:-0.130388 10:-0.259441 11:-0.13016 12:-0.952381 13:-0.972603 14:-1 15:-1 16:-0.260589 17:-0.129463 18:-0.258928 19:-0.131131 20:-0.254946 21:-0.130515 22:-0.960784 23:-0.945205 24:-1 25:-0.980864 26:-0.261022 27:-0.129928 28:-0.2574 29:-0.131513 30:-0.255392 31:-0.131066 32:-0.913043 33:-0.972973 34:-0.972638 35:-1 36:-0.256239 37:-0.130477 38:-0.252704 39:-0.132545 40:-0.250583 41:-0.131308 42:-0.902439 43:-0.973333 44:-0.999969 45:-1 46:-0.256521 47:-0.131638 48:-0.252953 49:-0.133439 50:-0.250946 51:-0.132948 52:-0.913043 53:-0.973333 54:-0.993936 55:-1 56:-0.252042 57:-0.132381 58:-0.248488 59:-0.13425 60:-0.246372 61:-0.132992 62:-0.911111 63:-0.972222 64:-0.904958 65:-1 66:-0.850245 67:-0.999118 68:-0.999068 69:-0.999879 70:-0.769357 71:-0.855392 72:0.964703 73:-0.865529 74:-0.873557 75:-0.862519 
1.274075387627098 1:0.666937 2:0.589288 3:-0.00312057 4:-0.0304481 5:0.0262395 6:-0.159985 7:-0.245313 8:-0.154134 9:-0.243358 10:-0.150065 11:-0.246876 12:-0.952381 13:-0.972603 14:-1 15:-1 16:-0.155877 17:-0.245811 18:-0.150043 19:-0.243876 20:-0.1462 21:-0.246573 22:-0.960784 23:-0.972603 24:-1 25:-1 26:-0.156281 27:-0.246289 28:-0.150487 29:-0.244183 30:-0.143548 31:-0.246516 32:-0.956522 33:-0.945946 34:-1 35:-0.801599 36:-0.151752 37:-0.247209 38:-0.146139 39:-0.24441 40:-0.138941 41:-0.24782 42:-0.95122 43:-0.946667 44:-1 45:-0.878823 46:-0.152175 47:-0.248264 48:-0.146632 49:-0.245211 50:-0.139412 51:-0.248746 52:-0.956522 53:-0.946667 54:-1 55:-0.835405 56:-0.148001 57:-0.248648 58:-0.142489 59:-0.245551 60:-0.135319 61:-0.249001 62:-0.955556 63:-0.944444 64:-1 65:-0.845179 66:-0.829229 67:-0.995951 68:-0.997533 69:-0.998962 70:-0.769357 71:-0.855348 72:0.964703 73:-0.892122 74:-0.850477 75:-0.865028 
0.05135870494899664 1:0.666937 2:0.589288 3:-0.00312057 4:-0.0304481 5:0.0262395 6:-0.00416548 7:-0.379761 8:0.00647227 9:-0.379909 10:0.0666521 11:-0.386728 12:-0.904762 13:-0.726027 14:-0.97648 15:-0.949192 16:0.00445901 17:-0.380097 18:0.0265887 19:-0.381421 20:0.0699088 21:-0.387334 22:-0.843137 23:-0.808219 24:-0.977928 25:-0.934135 26:0.00397149 27:-0.380139 28:0.0623081 29:-0.385461 30:0.0693375 31:-0.387259 32:-0.565217 33:-0.972973 34:-0.957432 35:-1 36:0.00797149 37:-0.380779 38:0.0359806 39:-0.382945 40:0.0727044 41:-0.387218 42:-0.756098 43:-0.84 44:-0.980406 45:-0.944415 46:0.00756179 47:-0.381894 48:0.0239997 49:-0.382844 50:0.0721892 51:-0.388189 52:-0.869565 53:-0.786667 54:-0.98991 55:-0.964065 56:0.0108612 57:-0.381827 58:0.0686091 59:-0.386955 60:0.0758286 61:-0.389132 62:-0.555556 63:-0.972222 64:-0.935723 65:-1 66:-0.459967 67:-0.863124 68:-0.99364 69:-0.997709 70:-0.769357 71:-0.856017 72:0.964703 73:-0.944305 74:-0.885098 75:-0.908179 
0.1800249523224887 1:0.666937 2:0.589288 3:-0.00312057 4:-0.0304481 5:0.0821411 6:-0.109145 7:-0.111567 8:-0.106261 9:-0.0817575 10:-0.124089 11:-0.0538296 12:-0.47619 13:-0.917808 14:-0.457652 15:-0.892773 16:-0.105079 17:-0.112199 18:-0.10173 19:-0.0828967 20:-0.119327 21:-0.0529486 22:-0.568627 23:-0.890411 24:-0.338718 25:-0.774941 26:-0.105356 27:-0.112957 28:-0.100177 29:-0.0858406 30:-0.117703 31:-0.053709 32:-0.521739 33:-0.864865 34:-0.0831558 35:-0.607465 36:-0.100896 37:-0.113796 38:-0.0936088 39:-0.0891838 40:-0.113503 41:-0.0541666 42:-0.463415 43:-0.866667 44:0.353203 45:-0.62686 46:-0.101025 47:-0.115665 48:-0.0927426 49:-0.0922132 50:-0.111322 51:-0.0564127 52:-0.521739 53:-0.84 54:0.473528 55:-0.501454 56:-0.0968556 57:-0.116215 58:-0.088703 59:-0.0925749 60:-0.10719 61:-0.0546645 62:-0.511111 63:-0.805556 64:1 65:-0.407581 66:-0.600653 67:-0.934354 68:-0.973995 69:-0.981608 70:-0.769175 71:-0.854229 72:0.96508 73:-0.821877 74:-0.773708 75:-0.792775 
2.147729229909437 1:0.666937 2:0.589288 3:-0.00312057 4:-0.0304481 5:0.0262395 6:0.204735 7:-0.192317 8:0.204735 9:-0.192317 10:0.206322 11:-0.188364 12:-1 13:-0.972603 14:-1 15:-1 16:0.207359 17:-0.19272 18:0.207359 19:-0.19272 20:0.209022 21:-0.188814 22:-1 23:-0.972603 24:-1 25:-1 26:0.207151 27:-0.193264 28:0.207151 29:-0.193264 30:0.208588 31:-0.189229 32:-1 33:-0.972973 34:-1 35:-1 36:0.210099 37:-0.193619 38:0.210099 39:-0.193619 40:0.212435 41:-0.190118 42:-1 43:-0.973333 44:-1 45:-1 46:0.210576 47:-0.195566 48:0.210576 49:-0.195566 50:0.212217 51:-0.191653 52:-1 53:-0.973333 54:-1 55:-1 56:0.212717 57:-0.195489 58:0.212717 59:-0.195489 60:0.214983 61:-0.191953 62:-1 63:-0.972222 64:-1 65:-1 66:-0.859558 67:-1 68:-1 69:-1 70:-0.769357 71:-0.855392 72:0.964703 73:-0.880582 74:-0.880582 75:-0.892624 
0.08690958963157475 1:0.666937 2:0.589288 3:-0.00312057 4:-0.0304481 5:0.0262395 6:0.91221 7:-0.105298 8:0.91221 9:-0.105298 10:0.91221 11:-0.105298 12:-1 13:-1 14:-1 15:-1 16:0.910711 17:-0.105471 18:0.910711 19:-0.105471 20:0.910711 21:-0.105471 22:-1 23:-1 24:-1 25:-1 26:0.911089 27:-0.106126 28:0.911089 29:-0.106126 30:0.911089 31:-0.106126 32:-1 33:-1 34:-1 35:-1 36:0.912068 37:-0.106695 38:0.912068 39:-0.106695 40:0.912068 41:-0.106695 42:-1 43:-1 44:-1 45:-1 46:0.911241 47:-0.108178 48:0.911241 49:-0.108178 50:0.911241 51:-0.108178 52:-1 53:-1 54:-1 55:-1 56:0.911698 57:-0.108481 58:0.911698 59:-0.108481 60:0.911698 61:-0.108481 62:-1 63:-1 64:-1 65:-1 66:-0.853582 67:-1 68:-1 69:-1 70:-0.769357 71:-0.855392 72:0.964703 73:-0.928249 74:-0.928249 75:-0.928249 
0.9380884065592925 1:0.666937 2:0.589288 3:-0.00312057 4:-0.0304481 5:0.0262395 6:-0.0255085 7:0.124496 8:-0.0220146 9:0.130922 10:-0.0229056 11:0.132473 12:-0.857143 13:-0.972603 14:-0.892702 15:-1 16:-0.0217203 17:0.124298 18:-0.0182907 19:0.130718 20:-0.0185523 21:0.132471 22:-0.882353 23:-0.972603 24:-0.903856 25:-1 26:-0.0222173 27:0.12342 28:-0.0186706 29:0.129866 30:-0.0189788 31:0.131602 32:-0.869565 33:-0.972973 34:-0.899863 35:-1 36:-0.0181772 37:0.122792 38:-0.0182793 39:0.124534 40:-0.0144339 41:0.129301 42:-0.95122 43:-0.946667 44:-1 45:-0.981321 46:-0.0185656 47:0.120957 48:-0.018831 49:0.122648 50:-0.0149698 51:0.129243 52:-0.956522 53:-0.92 54:-1 55:-0.912368 56:-0.0148189 57:0.120884 58:-0.0110017 59:0.127418 60:-0.0114472 61:0.129112 62:-0.866667 63:-0.972222 64:-0.905493 65:-1 66:-0.83578 67:-0.997153 68:-0.998009 69:-0.999555 70:-0.769357 71:-0.855398 72:0.964703 73:-0.832413 74:-0.812343 75:-0.884094 
0.8542656764414419 1:0.666937 2:0.589288 3:-0.00312057 4:-0.0304481 5:0.0262395 6:0.135027 7:0.309373 8:0.135027 9:0.309373 10:0.135928 11:0.314445 12:-1 13:-0.972603 14:-1 15:-1 16:0.13787 17:0.309147 18:0.13787 19:0.309147 20:0.138413 21:0.31398 22:-1 23:-0.972603 24:-1 25:-1 26:0.138362 27:0.308642 28:0.138362 29:0.308642 30:0.138055 31:0.312902 32:-1 33:-0.972973 34:-1 35:-1 36:0.141627 37:0.307801 38:0.141627 39:0.307801 40:0.141929 41:0.312471 42:-1 43:-0.973333 44:-1 45:-1 46:0.141717 47:0.306053 48:0.141717 49:0.306053 50:0.141956 51:0.31068 52:-1 53:-0.973333 54:-1 55:-1 56:0.14428 57:0.305753 58:0.14428 59:0.305753 60:0.14452 61:0.310379 62:-1 63:-0.972222 64:-1 65:-1 66:-0.853582 67:-0.999312 68:-1 69:-1 70:-0.769357 71:-0.855392 72:0.964703 73:-0.898144 74:-0.898144 75:-0.835424 
0.09252800949830324 1:0.687707 2:0.576086 3:-0.227234 4:-0.090176 5:0.0159262 6:-0.287883 7:-0.101761 8:-0.286253 9:-0.102224 10:-0.281732 11:-0.117656 12:-0.952381 13:-0.863014 14:-1 15:-0.970705 16:-0.283214 17:-0.101942 18:-0.281579 19:-0.102362 20:-0.276943 21:-0.117277 22:-0.960784 23:-0.863014 24:-1 25:-0.972392 26:-0.283763 27:-0.102806 28:-0.281113 29:-0.105616 30:-0.277348 31:-0.117673 32:-0.913043 33:-0.891892 34:-0.918256 35:-0.975781 36:-0.278934 37:-0.10345 38:-0.277174 39:-0.103488 40:-0.272351 41:-0.117646 42:-0.95122 43:-0.866667 44:-1 45:-0.968808 46:-0.279256 47:-0.104935 48:-0.276303 49:-0.106762 50:-0.272729 51:-0.119304 52:-0.913043 53:-0.893333 54:-0.911642 55:-0.984777 56:-0.274579 57:-0.105103 58:-0.272766 59:-0.104951 60:-0.267939 61:-0.11896 62:-0.955556 63:-0.861111 64:-1 65:-0.949173 66:-0.800944 67:-0.991194 68:-1 69:-1 70:-0.769357 71:-0.855392 72:0.964703 73:-0.814852 74:-0.810838 75:-0.859508 
0.08559429638628702 1:0.687707 2:0.576086 3:-0.227234 4:-0.357977 5:0.122664 6:-0.110689 7:-0.112798 8:-0.104697 9:-0.0920904 10:-0.106442 11:-0.0842602 12:-0.714286 13:-0.945205 14:-0.742202 15:-0.925545 16:-0.106581 17:-0.113488 18:-0.100974 19:-0.0893762 20:-0.102987 21:-0.084103 22:-0.72549 23:-0.972603 24:-0.774841 25:-1 26:-0.106873 27:-0.114227 28:-0.103606 29:-0.0959264 30:-0.103959 31:-0.0840145 32:-0.695652 33:-0.972973 34:-0.825277 35:-1 36:-0.102587 37:-0.114801 38:-0.102749 39:-0.104368 40:-0.0982834 41:-0.09488 42:-0.853659 43:-0.866667 44:-0.966783 45:-0.943978 46:-0.102757 47:-0.116613 48:-0.102844 49:-0.106283 50:-0.0980014 51:-0.0943209 52:-0.869565 53:-0.84 54:-0.957868 55:-0.95406 56:-0.0988357 57:-0.116787 58:-0.0946264 59:-0.0967488 60:-0.0973056 61:-0.0848933 62:-0.644444 63:-0.916667 64:-0.738713 65:-0.927815 66:-0.659831 67:-0.953728 68:-0.99465 69:-0.993169 70:-0.769357 71:-0.85441 72:0.964703 73:-0.831912 74:-0.78575 75:-0.79428 
2.902653875964072 1:0.687707 2:0.576086 3:-0.227234 4:-0.0279051 5:0.0262395 6:0.528154 7:-0.0908704 8:0.528154 9:-0.0908704 10:0.528154 11:-0.0908704 12:-1 13:-1 14:-1 15:-1 16:0.529394 17:-0.0912126 18:0.529394 19:-0.0912126 20:0.534995 21:-0.0860804 22:-1 23:-0.972603 24:-1 25:-1 26:0.52895 27:-0.0917635 28:0.52895 29:-0.0917635 30:0.533999 31:-0.0865284 32:-1 33:-0.972973 34:-1 35:-1 36:0.531408 37:-0.0923866 38:0.531408 39:-0.0923866 40:0.53644 41:-0.0871512 42:-1 43:-0.973333 44:-1 45:-1 46:0.5302 47:-0.0937803 48:0.5302 49:-0.0937803 50:0.534416 51:-0.0883948 52:-1 53:-0.973333 54:-1 55:-1 56:0.531784 57:-0.0940255 58:0.531784 59:-0.0940255 60:0.537366 61:-0.0889138 62:-1 63:-0.972222 64:-1 65:-1 66:-0.839453 67:-0.997443 68:-0.999039 69:-0.999717 70:-0.769357 71:-0.855385 72:0.964703 73:-0.866533 74:-0.866533 75:-0.866533 
0.2068393360043329 1:0.687707 2:0.576086 3:-0.227234 4:-0.0304481 5:0.0336322 6:-0.432974 7:0.527701 8:-0.432974 9:0.527701 10:-0.432974 11:0.527701 12:-1 13:-1 14:-1 15:-1 16:-0.226242 17:0.0661352 18:-0.226242 19:0.0661352 20:-0.226242 21:0.0661352 22:-1 23:-1 24:-1 25:-1 26:-0.22668 27:0.0653577 28:-0.22668 29:0.0653577 30:-0.22668 31:0.0653577 32:-1 33:-1 34:-1 35:-1 36:-0.22201 37:0.0647372 38:-0.22201 39:0.0647372 40:-0.22201 41:0.0647372 42:-1 43:-1 44:-1 45:-1 46:-0.423275 47:0.52319 48:-0.423275 49:0.52319 50:-0.423275 51:0.52319 52:-1 53:-1 54:-1 55:-1 56:-0.417746 57:0.522596 58:-0.417746 59:0.522596 60:-0.417746 61:0.522596 62:-1 63:-1 64:-1 65:-1 66:-0.853582 67:-1 68:-1 69:-1 70:-0.769357 71:-0.855392 72:0.964703 73:-0.940793 74:-0.940793 75:-0.940793 
1.867918710471229 1:0.766606 2:0.576764 3:-0.347724 4:-0.0304481 5:0.0262395 6:-0.478959 7:-0.335863 8:-0.478959 9:-0.335863 10:-0.474544 11:-0.336975 12:-1 13:-0.972603 14:-1 15:-1 16:-0.473715 17:-0.336546 18:-0.473715 19:-0.336546 20:-0.469129 21:-0.337347 22:-1 23:-0.972603 24:-1 25:-1 26:-0.473953 27:-0.33642 28:-0.473953 29:-0.33642 30:-0.469522 31:-0.337472 32:-1 33:-0.972973 34:-1 35:-1 36:-0.46862 37:-0.337146 38:-0.46862 39:-0.337146 40:-0.464014 41:-0.337887 42:-1 43:-0.973333 44:-1 45:-1 46:-0.468651 47:-0.337919 48:-0.468651 49:-0.337919 50:-0.464694 51:-0.339726 52:-1 53:-0.973333 54:-1 55:-1 56:-0.463442 57:-0.338586 58:-0.463442 59:-0.338586 60:-0.458845 61:-0.339307 62:-1 63:-0.972222 64:-1 65:-1 66:-0.853582 67:-0.999312 68:-1 69:-1 70:-0.769357 71:-0.855392 72:0.964703 73:-0.882589 74:-0.882589 75:-0.913698 
0.2094337181766575 1:0.766606 2:0.576764 3:-0.347724 4:-0.0304481 5:0.0222009 6:-0.00364286 7:-0.38079 8:0.00150937 9:-0.380563 10:0.054319 11:-0.385794 12:-0.952381 13:-0.753425 14:-1 15:-0.903288 16:-0.000591562 17:-0.380462 18:0.0338745 19:-0.384552 20:0.0573092 21:-0.385901 22:-0.764706 23:-0.890411 24:-0.962796 25:-0.922705 26:-0.00100676 27:-0.380645 28:0.0268686 29:-0.382827 30:0.0571052 31:-0.386403 32:-0.782609 33:-0.864865 34:-0.936821 35:-0.910875 36:0.00293675 37:-0.381143 38:0.0425637 39:-0.384748 40:0.0608724 41:-0.386917 42:-0.658537 43:-0.92 44:-0.945854 45:-0.985084 46:0.0024776 47:-0.382158 48:0.0426046 49:-0.386638 50:0.0600734 51:-0.387426 52:-0.695652 53:-0.92 54:-0.950804 55:-0.957981 56:0.00601415 57:-0.382512 58:0.0571461 59:-0.386909 60:0.0636541 61:-0.388221 62:-0.6 63:-0.972222 64:-0.943494 65:-1 66:-0.563334 67:-0.913768 68:-0.994059 69:-0.991538 70:-0.769296 71:-0.854073 72:0.964703 73:-0.886101 74:-0.884596 75:-0.909684 
3.021131207094196 1:0.766606 2:0.576764 3:-0.347724 4:0.0451109 5:0.0262395 6:-0.122256 7:-0.0537317 8:-0.122738 9:-0.0469928 10:-0.109072 11:-0.0427144 12:-0.857143 13:-0.753425 14:-0.924188 15:-0.759334 16:-0.118351 17:-0.0519142 18:-0.114575 19:-0.0437798 20:-0.105642 21:-0.04264 22:-0.764706 23:-0.863014 24:-0.753803 25:-0.784079 26:-0.120049 27:-0.0490962 28:-0.114724 29:-0.0446838 30:-0.105586 31:-0.0437065 32:-0.782609 33:-0.864865 34:-0.96058 35:-0.859412 36:-0.115953 37:-0.0494375 38:-0.110673 39:-0.0450193 40:-0.101404 41:-0.044209 42:-0.756098 43:-0.866667 44:-0.854813 45:-0.837323 46:-0.114964 47:-0.0504711 48:-0.110973 49:-0.0466941 50:-0.102049 51:-0.0455689 52:-0.826087 53:-0.866667 54:-0.920853 55:-0.837011 56:-0.110243 57:-0.0494257 58:-0.107153 59:-0.0467183 60:-0.098308 61:-0.0455675 62:-0.866667 63:-0.861111 64:-0.885513 65:-0.837827 66:-0.823191 67:-0.996061 68:-0.992883 69:-0.998289 70:-0.769357 71:-0.855404 72:0.964703 73:-0.787757 74:-0.793778 75:-0.853487 
0.8064397435441986 1:0.766606 2:0.576764 3:-0.347724 4:-0.640304 5:0.0262395 6:-0.0655695 7:-0.0226231 8:-0.0643989 9:-0.0197457 10:-0.0652454 11:-0.0175877 12:-0.904762 13:-0.972603 14:-0.980694 15:-1 16:-0.0616376 17:-0.0230717 18:-0.0603201 19:-0.0202673 20:-0.0612893 21:-0.0180402 22:-0.921569 23:-0.972603 24:-0.998469 25:-1 26:-0.0620876 27:-0.023715 28:-0.0609194 29:-0.0208372 30:-0.0619751 31:-0.0185708 32:-0.913043 33:-0.972973 34:-0.958863 35:-1 36:-0.0579834 37:-0.0242917 38:-0.0568618 39:-0.0213931 40:-0.0573892 41:-0.0176917 42:-0.902439 43:-0.946667 44:-0.965592 45:-0.968501 46:-0.0580884 47:-0.0260752 48:-0.0571339 49:-0.0230879 50:-0.0577028 51:-0.0193684 52:-0.913043 53:-0.946667 54:-0.972596 55:-0.974315 56:-0.0542355 57:-0.0262969 58:-0.0533413 59:-0.0250214 60:-0.0538066 61:-0.0196062 62:-0.955556 63:-0.916667 64:-1 65:-0.989955 66:-0.859558 67:-1 68:-1 69:-1 70:-0.769357 71:-0.855392 72:0.964703 73:-0.818866 74:-0.790768 75:-0.810838 
1.109365842110473 1:0.81114 2:0.590476 3:-0.465119 4:-0.0304481 5:0.0262395 6:-0.479079 7:-0.336057 8:-0.479079 9:-0.336057 10:-0.479079 11:-0.336057 12:-1 13:-1 14:-1 15:-1 16:-0.473691 17:-0.336507 18:-0.473691 19:-0.336507 20:-0.473691 21:-0.336507 22:-1 23:-1 24:-1 25:-1 26:-0.474144 27:-0.33673 28:-0.474144 29:-0.33673 30:-0.469628 31:-0.337647 32:-1 33:-0.972973 34:-1 35:-1 36:-0.468763 37:-0.337379 38:-0.468763 39:-0.337379 40:-0.464529 41:-0.338744 42:-1 43:-0.973333 44:-1 45:-1 46:-0.468901 47:-0.338325 48:-0.468901 49:-0.338325 50:-0.464425 51:-0.339279 52:-1 53:-0.973333 54:-1 55:-1 56:-0.46356 57:-0.338779 58:-0.46356 59:-0.338779 60:-0.459322 61:-0.340104 62:-1 63:-0.972222 64:-1 65:-1 66:-0.853582 67:-0.999312 68:-1 69:-1 70:-0.769357 71:-0.855392 72:0.964703 73:-0.872554 74:-0.872554 75:-0.872554 
0.1190301444445875 1:0.81114 2:0.590476 3:-0.465119 4:-0.0304481 5:0.178201 6:0.0241293 7:0.348903 8:-0.0540552 9:0.341028 10:-0.0620669 11:0.339464 12:-0.142857 13:-0.945205 14:-0.901991 15:-0.972403 16:0.0268854 17:0.348073 18:-0.0265923 19:0.343426 20:-0.0584722 21:0.339124 22:-0.529412 23:-0.780822 24:-0.934976 25:-0.967449 26:0.0268177 27:0.347304 28:-0.0431552 29:0.340452 30:-0.0591037 31:0.337642 32:-0.304348 33:-0.891892 34:-0.940747 35:-0.99294 36:0.030479 37:0.346391 38:0.0124332 39:0.345776 40:-0.0547624 41:0.33729 42:-0.804878 43:-0.573333 44:-0.941086 45:-0.902594 46:0.0301907 47:0.344372 48:0.0211321 49:0.344175 50:-0.0549725 51:0.335439 52:-0.913043 53:-0.52 54:-0.981415 55:-0.885226 56:0.0339861 57:0.344785 58:-0.00273702 59:0.341374 60:-0.0517698 61:0.334514 62:-0.644444 63:-0.666667 64:-0.873839 65:-0.925904 66:-0.304857 67:-0.764708 68:-0.999894 69:-0.99996 70:-0.769357 71:-0.855404 72:0.964703 73:-0.930758 74:-0.88008 75:-0.881586 
0.1027566448870856 1:0.81114 2:0.590476 3:-0.465119 4:-0.183032 5:-0.0663062 6:-0.143257 7:0.210903 8:-0.146601 9:0.214488 10:-0.142497 11:0.248405 12:-0.857143 13:-0.808219 14:-0.824165 15:-0.906327 16:-0.13919 17:0.210744 18:-0.142468 19:0.214431 20:-0.138563 21:0.248011 22:-0.882353 23:-0.808219 24:-0.821972 25:-0.898287 26:-0.139647 27:0.209729 28:-0.142778 29:0.213666 30:-0.138869 31:0.247248 32:-0.869565 33:-0.810811 34:-0.81474 35:-0.906768 36:-0.135382 37:0.208861 38:-0.138384 39:0.209851 40:-0.134411 41:0.246724 42:-0.902439 43:-0.786667 44:-0.965495 45:-0.923002 46:-0.135581 47:0.207183 48:-0.138712 49:0.207958 50:-0.134874 51:0.244515 52:-0.913043 53:-0.786667 54:-0.971655 55:-0.930603 56:-0.131627 57:0.206895 58:-0.134594 59:0.207924 60:-0.13066 61:0.244738 62:-0.911111 63:-0.777778 64:-0.97799 65:-0.922949 66:-0.633462 67:-0.945331 68:-0.989951 69:-0.993088 70:-0.769357 71:-0.855029 72:0.964703 73:-0.81134 74:-0.783743 75:-0.836427 
8 1:0.866775 2:0.599267 3:-0.535938 4:-0.0614461 5:0.0353435 6:-0.123257 7:-0.0638548 8:-0.123257 9:-0.0638548 10:-0.123257 11:-0.0638548 12:-1 13:-1 14:-1 15:-1 16:-0.118909 17:-0.0646944 18:-0.118909 19:-0.0646944 20:-0.118909 21:-0.0646944 22:-1 23:-1 24:-1 25:-1 26:-0.119268 27:-0.0653808 28:-0.119268 29:-0.0653808 30:-0.119268 31:-0.0653808 32:-1 33:-1 34:-1 35:-1 36:-0.114837 37:-0.0660962 38:-0.114837 39:-0.0660962 40:-0.114837 41:-0.0660962 42:-1 43:-1 44:-1 45:-1 46:-0.114971 47:-0.0679606 48:-0.114971 49:-0.0679606 50:-0.114971 51:-0.0679606 52:-1 53:-1 54:-1 55:-1 56:-0.110564 57:-0.0686539 58:-0.110564 59:-0.0686539 60:-0.110564 61:-0.0686539 62:-1 63:-1 64:-1 65:-1 66:-0.853582 67:-0.999312 68:-1 69:-1 70:-0.769357 71:-0.855392 72:0.964703 73:-0.653287 74:-0.653287 75:-0.653287 
2.476648257922883 1:0.866775 2:0.599267 3:-0.535938 4:-0.639709 5:0.0262395 6:-0.0670101 7:-0.0236 8:-0.0659879 9:-0.0206507 10:-0.0665573 11:-0.0169212 12:-0.904762 13:-0.945205 14:-0.970115 15:-0.982089 16:-0.063472 17:-0.0238305 18:-0.062286 19:-0.0209731 20:-0.062724 21:-0.017308 22:-0.921569 23:-0.945205 24:-0.962989 25:-0.99273 26:-0.063859 27:-0.0245073 28:-0.0624605 29:-0.0217656 30:-0.0631315 31:-0.0179815 32:-0.913043 33:-0.945946 34:-0.960656 35:-0.993324 36:-0.0597698 37:-0.025072 38:-0.0585453 39:-0.022242 40:-0.0588748 41:-0.0186372 42:-0.902439 43:-0.946667 44:-0.958421 45:-0.986794 46:-0.059813 47:-0.0268914 48:-0.058712 49:-0.0239926 50:-0.0593804 51:-0.0202152 52:-0.913043 53:-0.946667 54:-0.993921 55:-0.962564 56:-0.0559534 57:-0.0271142 58:-0.0549119 59:-0.0224551 60:-0.0555842 61:-0.0203999 62:-0.866667 63:-0.972222 64:-0.982634 65:-1 66:-0.853582 67:-0.999312 68:-1 69:-1 70:-0.769357 71:-0.855392 72:0.964703 73:-0.826894 74:-0.798796 75:-0.834922 
8 1:0.922223 2:0.615219 3:-0.589426 4:-0.0443319 5:0.0335866 6:-0.124551 7:-0.0622852 8:-0.124551 9:-0.0622852 10:-0.124551 11:-0.0622852 12:-1 13:-1 14:-1 15:-1 16:-0.1203 17:-0.0629997 18:-0.1203 19:-0.0629997 20:-0.1203 21:-0.0629997 22:-1 23:-1 24:-1 25:-1 26:-0.120937 27:-0.06335 28:-0.120937 29:-0.06335 30:-0.120937 31:-0.06335 32:-1 33:-1 34:-1 35:-1 36:-0.116442 37:-0.0641374 38:-0.116442 39:-0.0641374 40:-0.116442 41:-0.0641374 42:-1 43:-1 44:-1 45:-1 46:-0.116516 47:-0.0660757 48:-0.116516 49:-0.0660757 50:-0.116516 51:-0.0660757 52:-1 53:-1 54:-1 55:-1 56:-0.112321 57:-0.0665017 58:-0.112321 59:-0.0665017 60:-0.112321 61:-0.0665017 62:-1 63:-1 64:-1 65:-1 66:-0.853582 67:-0.999312 68:-1 69:-1 70:-0.769357 71:-0.855392 72:0.964703 73:-0.659809 74:-0.659809 75:-0.659809 
1.426599372323554 1:0.922223 2:0.615219 3:-0.589426 4:-0.639136 5:0.0262395 6:-0.0673262 7:-0.0234261 8:-0.0663073 9:-0.0204818 10:-0.0668369 11:-0.0167791 12:-0.904762 13:-0.945205 14:-0.98957 15:-0.98463 16:-0.0634091 17:-0.0238653 18:-0.0626464 19:-0.0207816 20:-0.0630452 21:-0.0171441 22:-0.921569 23:-0.945205 24:-0.999711 25:-0.99444 26:-0.0639639 27:-0.0244494 28:-0.0629481 29:-0.0215069 30:-0.0638382 31:-0.0176214 32:-0.913043 33:-0.945946 34:-0.982358 35:-0.990417 36:-0.0596861 37:-0.0251183 38:-0.0589891 39:-0.0220059 40:-0.0593017 41:-0.018419 42:-0.902439 43:-0.946667 44:-0.996387 45:-0.985976 46:-0.0603565 47:-0.0265909 48:-0.0590922 49:-0.0237905 50:-0.0596151 51:-0.0200953 52:-0.913043 53:-0.946667 54:-0.989511 55:-0.977279 56:-0.056349 57:-0.0268945 58:-0.0554028 59:-0.0239208 60:-0.0557754 61:-0.0203018 62:-0.911111 63:-0.944444 64:-0.965686 65:-0.981898 66:-0.853582 67:-0.999312 68:-1 69:-1 70:-0.769357 71:-0.855392 72:0.964703 73:-0.819368 74:-0.793276 75:-0.864526 
0.08617617532768211 1:0.922223 2:0.615219 3:-0.589426 4:-0.182276 5:-0.0669451 6:-0.143162 7:0.211059 8:-0.147622 9:0.212689 10:-0.143246 11:0.246858 12:-0.857143 13:-0.808219 14:-0.907495 15:-0.911872 16:-0.139085 17:0.21092 18:-0.143495 19:0.212612 20:-0.13922 21:0.246648 22:-0.882353 23:-0.808219 24:-0.882225 25:-0.912929 26:-0.1396 27:0.209807 28:-0.144063 29:0.211396 30:-0.139556 31:0.245825 32:-0.869565 33:-0.810811 34:-0.904025 35:-0.896915 36:-0.135265 37:0.209056 38:-0.139644 39:0.210762 40:-0.135194 41:0.245098 42:-0.853659 43:-0.813333 44:-0.90218 45:-0.902915 46:-0.135476 47:0.207358 48:-0.139773 49:0.209223 50:-0.13551 51:0.243196 52:-0.869565 53:-0.813333 54:-0.863916 55:-0.921802 56:-0.131464 57:0.207167 58:-0.135773 59:0.208972 60:-0.131303 61:0.243398 62:-0.866667 63:-0.805556 64:-0.836933 65:-0.918681 66:-0.662365 67:-0.955072 68:-0.990989 69:-0.996618 70:-0.769357 71:-0.85586 72:0.964703 73:-0.839438 74:-0.790768 75:-0.829403 
3.142417867238267 1:0.946174 2:0.616203 3:-0.625119 4:-0.0304481 5:0.0729002 6:-0.348063 7:-0.0638024 8:-0.342958 9:-0.0626855 10:-0.335416 11:-0.0654994 12:-0.904762 13:-0.945205 14:-0.978487 15:-0.949095 16:-0.343283 17:-0.0642275 18:-0.337925 19:-0.0627974 20:-0.332232 21:-0.0654444 22:-0.921569 23:-0.972603 24:-0.974883 25:-1 26:-0.343759 27:-0.0648599 28:-0.340425 29:-0.0634338 30:-0.331924 31:-0.0651085 32:-0.956522 33:-0.945946 34:-1 35:-0.969357 36:-0.338717 37:-0.0654503 38:-0.335562 39:-0.0642155 40:-0.333512 41:-0.0641805 42:-0.95122 43:-0.973333 44:-1 45:-1 46:-0.338781 47:-0.0667382 48:-0.335919 49:-0.0658323 50:-0.333959 51:-0.0659023 52:-0.956522 53:-0.973333 54:-1 55:-1 56:-0.334201 57:-0.0672937 58:-0.334201 59:-0.0672937 60:-0.331044 61:-0.0660438 62:-1 63:-0.972222 64:-1 65:-1 66:-0.829229 67:-0.995951 68:-0.997533 69:-0.998962 70:-0.769357 71:-0.855348 72:0.964703 73:-0.812343 74:-0.783241 75:-0.776719 
0.1959014249443139 1:0.946174 2:0.616203 3:-0.625119 4:0.497549 5:0.552947 6:-0.361218 7:-0.634348 8:-0.361218 9:-0.634348 10:-0.361218 11:-0.634348 12:-1 13:-1 14:-1 15:-1 16:-0.356273 17:-0.634713 18:-0.356273 19:-0.634713 20:-0.356273 21:-0.634713 22:-1 23:-1 24:-1 25:-1 26:-0.356718 27:-0.634526 28:-0.356718 29:-0.634526 30:-0.356718 31:-0.634526 32:-1 33:-1 34:-1 35:-1 36:-0.351615 37:-0.63487 38:-0.351615 39:-0.63487 40:-0.351615 41:-0.63487 42:-1 43:-1 44:-1 45:-1 46:-0.351892 47:-0.635435 48:-0.351892 49:-0.635435 50:-0.351892 51:-0.635435 52:-1 53:-1 54:-1 55:-1 56:-0.34692 57:-0.635787 58:-0.34692 59:-0.635787 60:-0.34692 61:-0.635787 62:-1 63:-1 64:-1 65:-1 66:-0.853582 67:-1 68:-1 69:-1 70:-0.769357 71:-0.855392 72:0.964703 73:1 74:1 75:1 
0.7965330776846585 1:0.946174 2:0.616203 3:-0.625119 4:-0.0304481 5:0.164921 6:-0.172791 7:-0.141834 8:-0.171048 9:-0.140406 10:-0.168567 11:-0.127887 12:-0.952381 13:-0.917808 14:-1 15:-0.897242 16:-0.168761 17:-0.141802 18:-0.165915 19:-0.130067 20:-0.163127 21:-0.126044 22:-0.882353 23:-0.945205 24:-0.874731 25:-0.991338 26:-0.166311 27:-0.130702 28:-0.163583 29:-0.126494 30:-0.162201 31:-0.124592 32:-0.913043 33:-0.972973 34:-0.999958 35:-1 36:-0.164575 37:-0.143354 38:-0.162861 39:-0.141864 40:-0.156488 41:-0.122981 42:-0.95122 43:-0.92 44:-1 45:-0.869669 46:-0.164928 47:-0.144845 48:-0.162142 49:-0.13293 50:-0.155667 51:-0.122211 52:-0.869565 53:-0.973333 54:-0.880883 55:-1 56:-0.160794 57:-0.144831 58:-0.158169 59:-0.132445 60:-0.153969 61:-0.12675 62:-0.866667 63:-0.916667 64:-0.827025 65:-0.97531 66:-0.766794 67:-0.984343 68:-0.994414 69:-0.995594 70:-0.769357 71:-0.855192 72:0.964703 73:-0.835926 74:-0.840943 75:-0.846463 
8 1:0.946174 2:0.616203 3:-0.625119 4:-0.0529234 5:0.0423483 6:-0.118384 7:-0.0722846 8:-0.118384 9:-0.0722846 10:-0.118384 11:-0.0722846 12:-1 13:-1 14:-1 15:-1 16:-0.114814 17:-0.0721949 18:-0.114814 19:-0.0721949 20:-0.114814 21:-0.0721949 22:-1 23:-1 24:-1 25:-1 26:-0.114494 27:-0.0737142 28:-0.114494 29:-0.0737142 30:-0.114494 31:-0.0737142 32:-1 33:-1 34:-1 35:-1 36:-0.110311 37:-0.0741407 38:-0.110311 39:-0.0741407 40:-0.110311 41:-0.0741407 42:-1 43:-1 44:-1 45:-1 46:-0.110837 47:-0.0755119 48:-0.110837 49:-0.0755119 50:-0.110837 51:-0.0755119 52:-1 53:-1 54:-1 55:-1 56:-0.106525 57:-0.0761214 58:-0.106525 59:-0.0761214 60:-0.106525 61:-0.0761214 62:-1 63:-1 64:-1 65:-1 66:-0.853582 67:-1 68:-1 69:-1 70:-0.769357 71:-0.855392 72:0.964703 73:-0.672353 74:-0.672353 75:-0.672353 
0.1264518920149097 1:0.946174 2:0.616203 3:-0.625119 4:-0.0304481 5:0.17763 6:0.0196206 7:0.348909 8:-0.00970008 9:0.344529 10:-0.0622826 11:0.339114 12:-0.714286 13:-0.643836 14:-0.936481 15:-0.890366 16:0.0223865 17:0.348058 18:-0.0390278 19:0.341687 20:-0.0589493 21:0.338348 22:-0.45098 23:-0.863014 24:-0.956664 25:-0.957985 26:0.0219624 27:0.346892 28:0.00824541 29:0.346145 30:-0.0587577 31:0.338204 32:-0.869565 33:-0.567568 34:-0.90503 35:-0.870881 36:0.0297073 37:0.34553 38:0.025886 39:0.346256 40:-0.0546079 41:0.337542 42:-0.95122 43:-0.493333 44:-1 45:-0.924534 46:0.0303141 47:0.34451 48:-0.0474723 49:0.336287 50:-0.0555073 51:0.334569 52:-0.217391 53:-0.946667 54:-0.913202 55:-0.998107 56:0.0336942 57:0.344458 58:-0.0279909 59:0.338327 60:-0.0515567 61:0.334863 62:-0.377778 63:-0.833333 64:-0.896402 65:-0.94303 66:-0.324686 67:-0.778744 68:-0.995599 69:-0.989787 70:-0.769296 71:-0.85196 72:0.964703 73:-0.927245 74:-0.899649 75:-0.882087 
0.2350808070392231 1:0.946174 2:0.616203 3:-0.625119 4:-0.18246 5:-0.0636366 6:-0.143174 7:0.211039 8:-0.147768 9:0.212432 10:-0.143854 11:0.249967 12:-0.857143 13:-0.780822 14:-0.908229 15:-0.886401 16:-0.13939 17:0.210413 18:-0.143808 19:0.212058 20:-0.139884 21:0.249634 22:-0.882353 23:-0.780822 24:-0.932131 25:-0.868527 26:-0.139776 27:0.209515 28:-0.144141 29:0.211258 30:-0.139732 31:0.245459 32:-0.869565 33:-0.810811 34:-0.925123 35:-0.927339 36:-0.1353 37:0.208997 38:-0.139711 39:0.210643 40:-0.135409 41:0.244651 42:-0.853659 43:-0.813333 44:-0.902296 45:-0.922345 46:-0.135593 47:0.207164 48:-0.140106 49:0.208631 50:-0.135647 51:0.242912 52:-0.869565 53:-0.813333 54:-0.913903 55:-0.93376 56:-0.131452 57:0.207187 58:-0.135972 59:0.208617 60:-0.131459 61:0.243074 62:-0.866667 63:-0.805556 64:-0.863163 65:-0.932482 66:-0.633975 67:-0.946032 68:-0.981254 69:-0.988736 70:-0.769357 71:-0.855435 72:0.964452 73:-0.844957 74:-0.793778 75:-0.893628 
2.794642188538891 1:0.893844 2:0.61213 3:-0.477602 4:-0.0304481 5:0.0262395 6:-0.238369 7:-0.132866 8:-0.226748 9:-0.132669 10:-0.22487 11:-0.130679 12:-0.761905 13:-0.972603 14:-0.821146 15:-1 16:-0.23397 17:-0.133466 18:-0.228148 19:-0.130895 20:-0.220517 21:-0.131035 22:-0.882353 23:-0.917808 24:-0.910875 25:-0.790375 26:-0.2344 27:-0.133748 28:-0.222823 29:-0.133661 30:-0.220964 31:-0.131253 32:-0.782609 33:-0.972973 34:-0.784655 35:-1 36:-0.22776 37:-0.133596 38:-0.218168 39:-0.134121 40:-0.216305 41:-0.13209 42:-0.804878 43:-0.973333 44:-0.809102 45:-1 46:-0.230053 47:-0.135845 48:-0.218505 49:-0.136157 50:-0.216655 51:-0.13351 52:-0.782609 53:-0.973333 54:-0.768846 55:-1 56:-0.225575 57:-0.13569 58:-0.214098 59:-0.135891 60:-0.212237 61:-0.134017 62:-0.777778 63:-0.972222 64:-0.759619 65:-1 66:-0.829229 67:-0.995951 68:-0.997533 69:-0.998962 70:-0.769357 71:-0.855348 72:0.964703 73:-0.890617 74:-0.874059 75:-0.874561 
0.1426340612647731 1:0.893844 2:0.61213 3:-0.477602 4:-0.0304481 5:0.0503798 6:-0.191361 7:-0.381475 8:-0.191361 9:-0.381475 10:-0.191361 11:-0.381475 12:-1 13:-1 14:-1 15:-1 16:-0.187111 17:-0.382322 18:-0.187111 19:-0.382322 20:-0.187111 21:-0.382322 22:-1 23:-1 24:-1 25:-1 26:-0.22668 27:0.0653577 28:-0.22668 29:0.0653577 30:-0.22668 31:0.0653577 32:-1 33:-1 34:-1 35:-1 36:-0.22201 37:0.0647372 38:-0.22201 39:0.0647372 40:-0.22201 41:0.0647372 42:-1 43:-1 44:-1 45:-1 46:-0.183451 47:-0.383061 48:-0.183451 49:-0.383061 50:-0.183451 51:-0.383061 52:-1 53:-1 54:-1 55:-1 56:-0.179219 57:-0.382894 58:-0.179219 59:-0.382894 60:-0.179219 61:-0.382894 62:-1 63:-1 64:-1 65:-1 66:-0.853582 67:-1 68:-1 69:-1 70:-0.769357 71:-0.855392 72:0.964703 73:0.959358 74:0.959358 75:0.959358 
0.8822718004190866 1:0.893844 2:0.61213 3:-0.477602 4:-0.0304481 5:0.0262395 6:-0.0290673 7:0.123488 8:-0.0295825 9:0.125079 10:-0.0259338 11:0.13151 12:-0.952381 13:-0.917808 14:-1 15:-0.871052 16:-0.0257563 17:0.12315 18:-0.0219895 19:0.129569 20:-0.0226574 21:0.13116 22:-0.882353 23:-0.972603 24:-0.879079 25:-1 26:-0.0262535 27:0.122274 28:-0.0224162 29:0.128705 30:-0.0231769 31:0.130263 32:-0.869565 33:-0.972973 34:-0.916188 35:-1 36:-0.0221766 37:0.121653 38:-0.0182599 39:0.128111 40:-0.0188336 41:0.12973 42:-0.853659 43:-0.973333 44:-0.894748 45:-1 46:-0.0225872 47:0.119813 48:-0.0189961 49:0.126161 50:-0.0199616 51:0.127649 52:-0.869565 53:-0.973333 54:-0.907575 55:-1 56:-0.0190566 57:0.119673 58:-0.0151106 59:0.126136 60:-0.0157737 61:0.127723 62:-0.866667 63:-0.972222 64:-0.859669 65:-1 66:-0.849171 67:-0.999391 68:-0.997748 69:-1 70:-0.769357 71:-0.855392 72:0.964703 73:-0.826894 74:-0.816859 75:-0.878575 
2.242346159712965 1:0.869394 2:0.614947 3:-0.53501 4:-0.0304481 5:0.0262395 6:-0.0688133 7:-0.0243612 8:-0.0667331 9:-0.0202565 10:-0.067716 11:-0.018026 12:-0.857143 13:-0.972603 14:-0.941251 15:-1 16:-0.0649537 17:-0.0247672 18:-0.0629643 19:-0.0206126 20:-0.0641342 21:-0.0182812 22:-0.882353 23:-0.972603 24:-0.966878 25:-1 26:-0.0649028 27:-0.0256897 28:-0.0635629 29:-0.0211807 30:-0.0646058 31:-0.0189203 32:-0.869565 33:-0.972973 34:-0.960896 35:-1 36:-0.0610179 37:-0.0261362 38:-0.0595596 39:-0.0217023 40:-0.0602386 41:-0.019632 42:-0.853659 43:-0.973333 44:-0.951186 45:-1 46:-0.0604819 47:-0.0265215 48:-0.0598526 49:-0.0233863 50:-0.0609556 51:-0.0210971 52:-0.913043 53:-0.973333 54:-0.981188 55:-1 56:-0.0568277 57:-0.0266286 58:-0.0559077 59:-0.0236513 60:-0.0568993 61:-0.0214151 62:-0.911111 63:-0.972222 64:-0.97457 65:-1 66:-0.837313 67:-0.996601 68:-1 69:-1 70:-0.769357 71:-0.855392 72:0.964703 73:-0.864024 74:-0.791269 75:-0.816859 
0.3617998042195074 1:0.869394 2:0.614947 3:-0.53501 4:-0.0304481 5:0.0262395 6:0.182594 7:0.128516 8:0.181585 9:0.13169 10:0.177731 11:0.137699 12:-0.952381 13:-0.945205 14:-1 15:-0.96732 16:0.185898 17:0.128342 18:0.18214 19:0.134403 20:0.180715 21:0.137484 22:-0.921569 23:-0.972603 24:-0.988807 25:-1 26:0.184828 27:0.12738 28:0.184139 29:0.1306 30:0.18001 31:0.136557 32:-0.956522 33:-0.945946 34:-1 35:-0.946794 36:0.188403 37:0.126777 38:0.18745 39:0.129956 40:0.183335 41:0.135911 42:-0.95122 43:-0.946667 44:-1 45:-0.957735 46:0.18795 47:0.124932 48:0.18649 49:0.128026 50:0.183196 51:0.134108 52:-0.956522 53:-0.946667 54:-1 55:-0.982427 56:0.190553 57:0.124796 58:0.189869 59:0.128013 60:0.185676 61:0.133946 62:-0.955556 63:-0.944444 64:-1 65:-0.979561 66:-0.81291 67:-0.99344 68:-0.996954 69:-0.998518 70:-0.769357 71:-0.855342 72:0.964703 73:-0.884596 74:-0.861014 75:-0.867035 
8 1:0.868272 2:0.612945 3:-0.547492 4:-0.0629124 5:0.0336778 6:-0.125225 7:-0.0638294 8:-0.125225 9:-0.0638294 10:-0.125225 11:-0.0638294 12:-1 13:-1 14:-1 15:-1 16:-0.121235 17:-0.0642236 18:-0.121235 19:-0.0642236 20:-0.121235 21:-0.0642236 22:-1 23:-1 24:-1 25:-1 26:-0.121291 27:-0.0652878 28:-0.121291 29:-0.0652878 30:-0.121291 31:-0.0652878 32:-1 33:-1 34:-1 35:-1 36:-0.116826 37:-0.06604 38:-0.116826 39:-0.06604 40:-0.116826 41:-0.06604 42:-1 43:-1 44:-1 45:-1 46:-0.117005 47:-0.0678526 48:-0.117005 49:-0.0678526 50:-0.117005 51:-0.0678526 52:-1 53:-1 54:-1 55:-1 56:-0.113212 57:-0.0677796 58:-0.113212 59:-0.0677796 60:-0.113212 61:-0.0677796 62:-1 63:-1 64:-1 65:-1 66:-0.853582 67:-0.999312 68:-1 69:-1 70:-0.769357 71:-0.855392 72:0.964703 73:-0.649272 74:-0.649272 75:-0.649272 
0.2090543837884751 1:0.868272 2:0.612945 3:-0.547492 4:-0.0304481 5:0.633582 6:0.485034 7:-0.342959 8:0.485034 9:-0.342959 10:0.485034 11:-0.342959 12:-1 13:-1 14:-1 15:-1 16:0.48702 17:-0.343711 18:0.48702 19:-0.343711 20:0.48702 21:-0.343711 22:-1 23:-1 24:-1 25:-1 26:-0.22668 27:0.0653577 28:-0.22668 29:0.0653577 30:-0.22668 31:0.0653577 32:-1 33:-1 34:-1 35:-1 36:0.488478 37:-0.344133 38:0.488478 39:-0.344133 40:0.488478 41:-0.344133 42:-1 43:-1 44:-1 45:-1 46:0.487161 47:-0.344855 48:0.487161 49:-0.344855 50:0.487161 51:-0.344855 52:-1 53:-1 54:-1 55:-1 56:0.489956 57:-0.345879 58:0.489956 59:-0.345879 60:0.489956 61:-0.345879 62:-1 63:-1 64:-1 65:-1 66:-0.853582 67:-1 68:-1 69:-1 70:-0.769357 71:-0.855392 72:0.964703 73:-0.943803 74:-0.943803 75:-0.943803 
1.104675186158245 1:0.868272 2:0.612945 3:-0.547492 4:-0.640281 5:0.0262395 6:-0.0688343 7:-0.0243494 8:-0.0672654 9:-0.019975 10:-0.0681226 11:-0.0178152 12:-0.857143 13:-0.972603 14:-0.990578 15:-1 16:-0.0651832 17:-0.0246379 18:-0.0637275 19:-0.0202072 20:-0.064539 21:-0.0180704 22:-0.882353 23:-0.972603 24:-0.960358 25:-1 26:-0.0654245 27:-0.0253961 28:-0.0640929 29:-0.0208995 30:-0.0648189 31:-0.0188095 32:-0.869565 33:-0.972973 34:-0.986456 35:-1 36:-0.0614963 37:-0.0258662 38:-0.0600033 39:-0.0214662 40:-0.061067 41:-0.0192 42:-0.853659 43:-0.973333 44:-0.954929 45:-1 46:-0.0618735 47:-0.0274996 48:-0.0602751 49:-0.0231618 50:-0.0610617 51:-0.0210418 52:-0.869565 53:-0.973333 54:-0.952823 55:-1 56:-0.0580266 57:-0.0277117 58:-0.0564336 59:-0.0233705 60:-0.0574068 61:-0.0211496 62:-0.866667 63:-0.972222 64:-0.972056 65:-1 66:-0.853582 67:-0.999312 68:-1 69:-1 70:-0.769357 71:-0.855392 72:0.964703 73:-0.833417 74:-0.794782 75:-0.825891 
0.09563060338034285 1:0.868272 2:0.612945 3:-0.547492 4:0.107405 5:0.176444 6:0.0241915 7:0.348972 8:-0.0132617 9:0.345159 10:-0.0662362 11:0.338278 12:-0.619048 13:-0.643836 14:-0.914265 15:-0.940645 16:0.0271176 17:0.348332 18:0.00837419 19:0.346955 20:-0.062329 21:0.338426 22:-0.843137 23:-0.534247 24:-0.926891 25:-0.854231 26:0.0266938 27:0.347166 28:-0.0511096 29:0.339246 30:-0.0627227 31:0.337332 32:-0.217391 33:-0.918919 34:-0.929878 35:-0.941023 36:0.0297845 37:0.345617 38:-0.0472169 39:0.338219 40:-0.0595549 41:0.335016 42:-0.121951 43:-0.92 44:-0.880702 45:-0.894784 46:0.0293576 47:0.343444 48:0.00210964 49:0.341739 50:-0.0594623 51:0.333675 52:-0.73913 53:-0.6 54:-0.958933 55:-0.925279 56:0.0329106 57:0.343581 58:-0.0321814 59:0.337554 60:-0.0557083 61:0.333621 62:-0.333333 63:-0.833333 64:-0.889954 65:-0.939391 66:-0.314549 67:-0.771387 68:-0.998905 69:-0.999232 70:-0.769357 71:-0.855373 72:0.964703 73:-0.955344 74:-0.889112 75:-0.883593 
1.033166296228594 1:0.886484 2:0.603815 3:-0.555848 4:-0.0304481 5:0.0833048 6:-0.350267 7:-0.0639044 8:-0.34003 9:-0.0639478 10:-0.334699 11:-0.0721301 12:-0.761905 13:-0.835616 14:-0.847609 15:-0.89964 16:-0.34526 17:-0.064089 18:-0.335147 19:-0.0642168 20:-0.329924 21:-0.0725089 22:-0.803922 23:-0.835616 24:-0.882596 25:-0.893692 26:-0.345892 27:-0.0648924 28:-0.334223 29:-0.0655411 30:-0.330038 31:-0.0726546 32:-0.73913 33:-0.864865 34:-0.839988 35:-0.961235 36:-0.340563 37:-0.0651749 38:-0.332008 39:-0.0647558 40:-0.325744 41:-0.0716043 42:-0.804878 43:-0.84 44:-0.900752 45:-0.884357 46:-0.34106 47:-0.0669431 48:-0.332246 49:-0.0662321 50:-0.326031 51:-0.0731217 52:-0.826087 53:-0.84 54:-0.914957 55:-0.884356 56:-0.336288 57:-0.0672911 58:-0.328957 59:-0.0659571 60:-0.321647 61:-0.0714097 62:-0.866667 63:-0.833333 64:-0.909272 65:-0.894476 66:-0.803553 67:-0.991869 68:-0.99581 69:-0.998801 70:-0.769357 71:-0.855473 72:0.964703 73:-0.817863 74:-0.773206 75:-0.783241 
8 1:0.886484 2:0.603815 3:-0.555848 4:-0.0561309 5:0.0394962 6:-0.122548 7:-0.0696181 8:-0.122548 9:-0.0696181 10:-0.122548 11:-0.0696181 12:-1 13:-1 14:-1 15:-1 16:-0.1172 17:-0.0717478 18:-0.1172 19:-0.0717478 20:-0.1172 21:-0.0717478 22:-1 23:-1 24:-1 25:-1 26:-0.117689 27:-0.0722633 28:-0.117689 29:-0.0722633 30:-0.117689 31:-0.0722633 32:-1 33:-1 34:-1 35:-1 36:-0.112895 37:-0.0734469 38:-0.112895 39:-0.0734469 40:-0.112895 41:-0.0734469 42:-1 43:-1 44:-1 45:-1 46:-0.11369 47:-0.0744758 48:-0.11369 49:-0.0744758 50:-0.11369 51:-0.0744758 52:-1 53:-1 54:-1 55:-1 56:-0.109724 57:-0.0746374 58:-0.109724 59:-0.0746374 60:-0.109724 61:-0.0746374 62:-1 63:-1 64:-1 65:-1 66:-0.853582 67:-1 68:-1 69:-1 70:-0.769357 71:-0.855392 72:0.964703 73:-0.658806 74:-0.658806 75:-0.658806 
8 1:0.886484 2:0.603815 3:-0.555848 4:-0.0304481 5:0.0291145 6:0.518428 7:-0.113794 8:0.518428 9:-0.113794 10:0.518428 11:-0.113794 12:-1 13:-1 14:-1 15:-1 16:0.518948 17:-0.11396 18:0.518948 19:-0.11396 20:0.518948 21:-0.11396 22:-1 23:-1 24:-1 25:-1 26:0.519027 27:-0.114605 28:0.519027 29:-0.114605 30:0.519027 31:-0.114605 32:-1 33:-1 34:-1 35:-1 36:0.520567 37:-0.114999 38:0.520567 39:-0.114999 40:0.520567 41:-0.114999 42:-1 43:-1 44:-1 45:-1 46:0.520245 47:-0.116552 48:0.520245 49:-0.116552 50:0.520245 51:-0.116552 52:-1 53:-1 54:-1 55:-1 56:0.521867 57:-0.116813 58:0.521867 59:-0.116813 60:0.521867 61:-0.116813 62:-1 63:-1 64:-1 65:-1 66:-0.853582 67:-0.999312 68:-1 69:-1 70:-0.769357 71:-0.855392 72:0.964703 73:-0.927747 74:-0.927747 75:-0.927747 
0.2104611943402188 1:0.863282 2:0.609958 3:-0.570135 4:-0.0271032 5:0.0262395 6:0.731686 7:-0.197751 8:0.731686 9:-0.197751 10:0.731686 11:-0.197751 12:-1 13:-1 14:-1 15:-1 16:0.731966 17:-0.198095 18:0.731966 19:-0.198095 20:0.731966 21:-0.198095 22:-1 23:-1 24:-1 25:-1 26:-0.22668 27:0.0653577 28:-0.22668 29:0.0653577 30:-0.22668 31:0.0653577 32:-1 33:-1 34:-1 35:-1 36:0.731535 37:-0.198606 38:0.731535 39:-0.198606 40:0.731535 41:-0.198606 42:-1 43:-1 44:-1 45:-1 46:0.73194 47:-0.200263 48:0.73194 49:-0.200263 50:0.73194 51:-0.200263 52:-1 53:-1 54:-1 55:-1 56:0.732141 57:-0.200409 58:0.732141 59:-0.200409 60:0.732141 61:-0.200409 62:-1 63:-1 64:-1 65:-1 66:-0.859558 67:-1 68:-1 69:-1 70:-0.769357 71:-0.855392 72:0.964703 73:-0.948319 74:-0.948319 75:-0.948319 
8 1:0.863282 2:0.609958 3:-0.570135 4:-0.0304481 5:0.0290004 6:0.517712 7:-0.113622 8:0.517712 9:-0.113622 10:0.517712 11:-0.113622 12:-1 13:-1 14:-1 15:-1 16:0.517664 17:-0.11365 18:0.517664 19:-0.11365 20:0.517664 21:-0.11365 22:-1 23:-1 24:-1 25:-1 26:0.517696 27:-0.114284 28:0.517696 29:-0.114284 30:0.517696 31:-0.114284 32:-1 33:-1 34:-1 35:-1 36:0.520141 37:-0.114896 38:0.520141 39:-0.114896 40:0.520141 41:-0.114896 42:-1 43:-1 44:-1 45:-1 46:0.520411 47:-0.116592 48:0.520411 49:-0.116592 50:0.520411 51:-0.116592 52:-1 53:-1 54:-1 55:-1 56:0.521679 57:-0.116767 58:0.521679 59:-0.116767 60:0.521679 61:-0.116767 62:-1 63:-1 64:-1 65:-1 66:-0.853582 67:-1 68:-1 69:-1 70:-0.769357 71:-0.855392 72:0.964703 73:-0.910687 74:-0.910687 75:-0.910687 
8 1:0.888293 2:0.59163 3:-0.577511 4:-0.0434613 5:0.0344536 6:-0.127298 7:-0.0636387 8:-0.127298 9:-0.0636387 10:-0.127298 11:-0.0636387 12:-1 13:-1 14:-1 15:-1 16:-0.1232 17:-0.0641599 18:-0.1232 19:-0.0641599 20:-0.1232 21:-0.0641599 22:-1 23:-1 24:-1 25:-1 26:-0.123347 27:-0.0651188 28:-0.123347 29:-0.0651188 30:-0.123347 31:-0.0651188 32:-1 33:-1 34:-1 35:-1 36:-0.118563 37:-0.066269 38:-0.118563 39:-0.066269 40:-0.118563 41:-0.066269 42:-1 43:-1 44:-1 45:-1 46:-0.118744 47:-0.0680829 48:-0.118744 49:-0.0680829 50:-0.118744 51:-0.0680829 52:-1 53:-1 54:-1 55:-1 56:-0.114601 57:-0.0684406 58:-0.114601 59:-0.0684406 60:-0.114601 61:-0.0684406 62:-1 63:-1 64:-1 65:-1 66:-0.853582 67:-0.999312 68:-1 69:-1 70:-0.769357 71:-0.855392 72:0.964703 73:-0.657301 74:-0.657301 75:-0.657301 
0.6556139399983002 1:0.925903 2:0.587931 3:-0.653488 4:-0.0412161 5:-0.0649372 6:-0.132981 7:-0.0564852 8:-0.124937 9:-0.0446812 10:-0.113826 11:-0.046035 12:-0.52381 13:-0.863014 14:-0.762778 15:-0.94076 16:-0.129187 17:-0.0565901 18:-0.121165 19:-0.0448317 20:-0.109874 21:-0.0464186 22:-0.607843 23:-0.863014 24:-0.728999 25:-0.957691 26:-0.129234 27:-0.0576857 28:-0.121341 29:-0.0457261 30:-0.110339 31:-0.0470088 32:-0.565217 33:-0.864865 34:-0.795471 35:-0.934515 36:-0.124488 37:-0.0587664 38:-0.117084 39:-0.0462388 40:-0.106021 41:-0.0476208 42:-0.512195 43:-0.866667 44:-0.774851 45:-0.924127 46:-0.124709 47:-0.0605375 48:-0.117544 49:-0.0477462 50:-0.106171 51:-0.0494367 52:-0.565217 53:-0.866667 54:-0.784336 55:-0.926221 56:-0.120244 57:-0.0612712 58:-0.113278 59:-0.0482036 60:-0.102372 61:-0.049463 62:-0.555556 63:-0.861111 64:-0.702268 65:-0.913337 66:-0.802298 67:-0.992063 68:-0.992089 69:-0.997548 70:-0.769357 71:-0.855485 72:0.964703 73:-0.787255 74:-0.794782 75:-0.838435 
0.1506668487905356 1:0.925903 2:0.587931 3:-0.653488 4:-0.0304481 5:0.174824 6:0.0182054 7:0.347311 8:-0.0223604 9:0.343666 10:-0.0702534 11:0.337244 12:-0.571429 13:-0.671233 14:-0.920824 15:-0.950758 16:0.0214523 17:0.346998 18:-0.0230751 19:0.342991 20:-0.0666446 21:0.336864 22:-0.607843 23:-0.69863 24:-0.893955 25:-0.946687 26:0.0211353 27:0.345956 28:-0.0439155 29:0.339313 30:-0.0670506 31:0.335753 32:-0.347826 33:-0.837838 34:-0.92027 35:-0.941102 36:0.0253059 37:0.345597 38:-0.0510248 39:0.337735 40:-0.0630702 41:0.334761 42:-0.121951 43:-0.92 44:-0.867727 45:-0.99065 46:0.0245445 47:0.343043 48:-0.0553766 49:0.334782 50:-0.0633526 51:0.332799 52:-0.173913 53:-0.946667 54:-0.949561 55:-0.999138 56:0.0282071 57:0.343286 58:-0.0479941 59:0.335058 60:-0.059869 61:0.332256 62:-0.2 63:-0.916667 64:-0.917615 65:-0.956488 66:-0.351054 67:-0.796031 68:-0.997724 69:-0.993613 70:-0.769357 71:-0.853379 72:0.964703 73:-0.927747 74:-0.886603 75:-0.885098 
0.4321047692172058 1:0.925903 2:0.587931 3:-0.653488 4:-0.179642 5:-0.0632715 6:-0.147196 7:0.210321 8:-0.150248 9:0.21117 10:-0.146227 11:0.249369 12:-0.904762 13:-0.780822 14:-0.952407 15:-0.920322 16:-0.143126 17:0.210144 18:-0.146189 19:0.210954 20:-0.142209 21:0.249118 22:-0.921569 23:-0.780822 24:-0.965441 25:-0.915282 26:-0.143605 27:0.20909 28:-0.146623 29:0.209977 30:-0.142689 31:0.247986 32:-0.913043 33:-0.783784 34:-0.961154 35:-0.910991 36:-0.139335 37:0.208201 38:-0.142207 39:0.209324 40:-0.138335 41:0.247217 42:-0.902439 43:-0.786667 44:-0.972319 45:-0.916274 46:-0.139629 47:0.206369 48:-0.142579 49:0.207353 50:-0.138774 51:0.245048 52:-0.913043 53:-0.786667 54:-0.973291 55:-0.910466 56:-0.135383 57:0.20655 58:-0.138436 59:0.207339 60:-0.13469 61:0.244966 62:-0.911111 63:-0.777778 64:-0.928892 65:-0.915298 66:-0.63903 67:-0.946172 68:-0.997276 69:-0.997588 70:-0.769357 71:-0.854979 72:0.964703 73:-0.801806 74:-0.78274 75:-0.874561 
0.2936984191309414 1:0.92871 2:0.584707 3:-0.688769 4:0.0624542 5:0.0262395 6:-0.340081 7:-0.0664055 8:-0.336716 9:-0.0748158 10:-0.337196 11:-0.0837925 12:-0.761905 13:-0.917808 14:-0.93065 15:-0.966168 16:-0.336243 17:-0.0655283 18:-0.331781 19:-0.0749926 20:-0.332422 21:-0.0841926 22:-0.764706 23:-0.917808 24:-0.913159 25:-0.956667 26:-0.336761 27:-0.066213 28:-0.333049 29:-0.0714628 30:-0.332826 31:-0.084707 32:-0.826087 33:-0.864865 34:-0.946814 35:-0.897976 36:-0.33268 37:-0.0655466 38:-0.328042 39:-0.0720516 40:-0.327819 41:-0.0852916 42:-0.756098 43:-0.866667 44:-0.938818 45:-0.894073 46:-0.334578 47:-0.066617 48:-0.328313 49:-0.0735505 50:-0.328106 51:-0.0867879 52:-0.73913 53:-0.866667 54:-0.899905 55:-0.891661 56:-0.329603 57:-0.0667069 58:-0.323496 59:-0.0738022 60:-0.323194 61:-0.0869152 62:-0.733333 63:-0.861111 64:-0.870264 65:-0.901875 66:-0.748904 67:-0.98312 68:-0.994161 69:-0.992939 70:-0.769357 71:-0.855142 72:0.964703 73:-0.775213 74:-0.789262 75:-0.813848 
0.7646025357054831 1:0.92871 2:0.584707 3:-0.688769 4:-0.0304481 5:0.0262395 6:-0.244212 7:-0.133148 8:-0.236405 9:-0.13201 10:-0.230618 11:-0.132389 12:-0.809524 13:-0.945205 14:-0.902095 15:-0.947546 16:-0.239804 17:-0.133858 18:-0.232007 19:-0.132433 20:-0.226242 21:-0.133033 22:-0.843137 23:-0.945205 24:-0.902775 25:-0.93232 26:-0.240232 27:-0.134205 28:-0.232439 29:-0.132737 30:-0.22668 31:-0.133515 32:-0.826087 33:-0.945946 34:-0.919821 35:-0.949002 36:-0.235498 37:-0.134466 38:-0.225863 39:-0.134653 40:-0.22201 41:-0.133642 42:-0.756098 43:-0.973333 44:-0.853148 45:-1 46:-0.233926 47:-0.13618 48:-0.228095 49:-0.134704 50:-0.222358 51:-0.135303 52:-0.869565 53:-0.946667 54:-0.92126 55:-0.933217 56:-0.231376 57:-0.136478 58:-0.223638 59:-0.134902 60:-0.217925 61:-0.135412 62:-0.822222 63:-0.944444 64:-0.872228 65:-0.932957 66:-0.812401 67:-0.99216 68:-1 69:-1 70:-0.769357 71:-0.855392 72:0.964703 73:-0.894631 74:-0.845961 75:-0.857501 
