svm_type c_svc
kernel_type rbf
gamma 0.5
nr_class 2
total_sv 356
rho 1.56711
label 1 0
nr_sv 132 224
SV
8 1:0.196423 2:0.575849 3:-0.226401 4:-0.313003 5:-0.0514431 6:-0.925793 7:-0.869587 8:-0.931521 9:-0.779073 10:-0.989595 11:-0.989494 12:-0.991535 13:-0.926841 14:-0.778138 15:0.280909 16:-0.859764 17:0.093607 18:-0.29381 19:0.0974302 20:-0.266218 21:0.142424 22:-0.267363 23:-0.959184 24:-0.95122 25:-0.999684 26:-0.999811 27:0.0832985 28:-0.292944 29:0.0831467 30:-0.264833 31:0.129415 32:-0.265993 33:-0.959016 34:-0.95082 35:-0.999985 36:-0.999604 37:0.0920858 38:-0.287896 39:0.0911238 40:-0.264882 41:0.133347 42:-0.264603 43:-0.967213 44:-0.951613 45:-0.999759 46:-0.999641 47:0.115995 48:-0.288461 49:0.118641 50:-0.264944 51:0.165877 52:-0.264395 53:-0.967347 54:-0.951807 55:-0.999463 56:-0.999604 57:0.123744 58:-0.287481 59:0.123377 60:-0.264224 61:0.167849 62:-0.263779 63:-0.967611 64:-0.951807 65:-0.998733 66:-0.99702 67:0.130927 68:-0.286667 69:0.129893 70:-0.263394 71:0.173423 72:-0.262775 73:-0.966245 74:-0.951613 75:-0.998908 76:-0.999359 
8 1:0.201972 2:0.507324 3:-0.263401 4:-0.105221 5:-0.0514431 6:-0.939611 7:-0.900302 8:-0.951158 9:-0.779841 10:-0.9853 11:-0.995165 12:-0.997376 13:-0.926889 14:-0.778581 15:0.280943 16:-0.89384 17:0.0312774 18:-0.288371 19:0.0379722 20:-0.274154 21:0.0860857 22:-0.279859 23:-1 24:-0.943089 25:-1 26:-0.999794 27:0.0202809 28:-0.288679 29:0.0218092 30:-0.272872 31:0.0701525 32:-0.277685 33:-1 34:-0.942623 35:-1 36:-0.999553 37:0.0295138 38:-0.29005 39:0.0340737 40:-0.272332 41:0.0751168 42:-0.277632 43:-0.983607 44:-0.951613 45:-0.998282 46:-0.999716 47:0.055326 48:-0.286628 49:0.0619785 50:-0.272114 51:0.107847 52:-0.276752 53:-1 54:-0.951807 55:-1 56:-0.99979 57:0.0635232 58:-0.286676 59:0.0659907 60:-0.271547 61:0.108261 62:-0.275721 63:-1 64:-0.951807 65:-1 66:-0.999174 67:0.0717955 68:-0.287392 69:0.0724993 70:-0.271145 71:0.113107 72:-0.274737 73:-0.991561 74:-0.951613 75:-1 76:-0.999382 
8 1:0.201972 2:0.507324 3:-0.263401 4:-0.105221 5:-0.406381 6:-0.958035 7:-0.958711 8:-0.880161 9:-0.861451 10:-0.994476 11:-1 12:-1 13:-0.926893 14:-0.778693 15:0.28095 16:-0.973788 17:0.146413 18:-0.288394 19:0.146413 20:-0.288623 21:0.149161 22:-0.287692 23:-1 24:-1 25:-1 26:-1 27:0.142478 28:-0.285573 29:0.139005 30:-0.285573 31:0.135962 32:-0.286018 33:-1 34:-1 35:-1 36:-1 37:0.150463 38:-0.2848 39:0.14667 40:-0.284923 41:0.140732 42:-0.285098 43:-1 44:-1 45:-1 46:-1 47:0.173184 48:-0.284712 49:0.173184 50:-0.28465 51:0.173004 52:-0.284801 53:-1 54:-1 55:-1 56:-1 57:0.18002 58:-0.282572 59:0.176904 60:-0.282572 61:0.177661 62:-0.280661 63:-1 64:-1 65:-1 66:-1 67:0.186879 68:-0.281104 69:0.183441 70:-0.281328 71:0.182614 72:-0.27915 73:-1 74:-1 75:-1 76:-1 
8 1:0.287544 2:0.573695 3:-0.224595 4:-0.105221 5:-0.0514431 6:-0.900716 7:-0.878651 8:-0.929507 9:-0.793033 10:-0.989669 11:-0.994143 12:-0.994135 13:-0.926869 14:-0.778213 15:0.280938 16:-0.870249 17:-0.034447 18:-0.296241 19:-0.0221771 20:-0.277287 21:0.0208892 22:-0.286863 23:-0.959184 24:-0.943089 25:-0.996187 26:-0.999911 27:-0.0445777 28:-0.294166 29:-0.0398849 30:-0.276354 31:0.00359685 32:-0.28514 33:-0.967213 34:-0.942623 35:-0.999256 36:-0.999784 37:-0.0358713 38:-0.295666 39:-0.0322134 40:-0.277187 41:0.0147856 42:-0.286752 43:-0.97541 44:-0.935484 45:-0.998551 46:-0.999522 47:-0.00797622 48:-0.293847 49:0.00127032 50:-0.276829 51:0.0483648 52:-0.285268 53:-0.983673 54:-0.943775 55:-0.996431 56:-0.999934 57:0.000470984 58:-0.295002 59:0.00462622 60:-0.276388 61:0.0488664 62:-0.285049 63:-0.991903 64:-0.943775 65:-1 66:-0.999555 67:0.0101411 68:-0.29237 69:0.0152714 70:-0.275766 71:0.0538849 72:-0.284734 73:-0.983122 74:-0.951613 75:-0.994716 76:-0.999956 
8 1:0.287544 2:0.573695 3:-0.224595 4:-0.105221 5:-0.0514431 6:-0.946776 7:-0.947633 8:-0.883182 9:-0.890816 10:-0.998381 11:-0.999854 12:-0.999949 13:-0.926893 14:-0.778691 15:0.28095 16:-0.972477 17:0.0828267 18:-0.300561 19:0.0828267 20:-0.300792 21:0.0848918 22:-0.300226 23:-1 24:-1 25:-1 26:-1 27:0.0775796 28:-0.298935 29:0.073844 30:-0.298935 31:0.0705824 32:-0.299384 33:-1 34:-1 35:-1 36:-1 37:0.0859 38:-0.298889 39:0.0818187 40:-0.299014 41:0.0754343 42:-0.299191 43:-1 44:-1 45:-1 46:-1 47:0.108974 48:-0.298674 49:0.108974 50:-0.298612 51:0.112756 52:-0.296725 53:-1 54:-1 55:-1 56:-1 57:0.116356 58:-0.297432 59:0.112998 60:-0.297432 61:0.114583 62:-0.296739 63:-1 64:-1 65:-1 66:-1 67:0.127979 68:-0.294969 69:0.124292 70:-0.295195 71:0.119944 72:-0.296068 73:-1 74:-1 75:-1 76:-1 
8 1:0.283164 2:0.584365 3:-0.228724 4:-0.105221 5:-0.0514431 6:-0.932958 7:-0.871098 8:-0.956697 9:-0.682993 10:-0.961847 11:-0.981564 12:-0.970878 13:-0.92639 14:-0.773516 15:0.280859 16:-0.826999 17:-0.0974792 18:-0.295559 19:-0.0844763 20:-0.277217 21:-0.0139548 22:-0.297983 23:-0.97551 24:-0.894309 25:-0.998309 26:-0.999903 27:-0.109295 28:-0.293696 29:-0.099578 30:-0.276954 31:-0.0313175 32:-0.297213 33:-0.983607 34:-0.901639 35:-0.998707 36:-0.999856 37:-0.100309 38:-0.296524 39:-0.0927479 40:-0.277047 41:-0.0280229 42:-0.296482 43:-0.97541 44:-0.903226 45:-0.999413 46:-0.999855 47:-0.0711197 48:-0.29561 49:-0.0577055 50:-0.278255 51:0.0138932 52:-0.297655 53:-0.967347 54:-0.903614 55:-0.995201 56:-0.999953 57:-0.0634681 58:-0.296522 59:-0.0551798 60:-0.27745 61:0.000694088 62:-0.293168 63:-0.967611 64:-0.919679 65:-0.988118 66:-0.998704 67:-0.0532768 68:-0.295365 69:-0.0447145 70:-0.277822 71:0.000109783 72:-0.2923 73:-0.957806 74:-0.935484 75:-0.99688 76:-0.999855 
8 1:0.283164 2:0.584365 3:-0.228724 4:-0.105221 5:-0.0514431 6:-0.868987 7:-0.871098 8:-0.871098 9:-0.89119 10:-0.998514 11:-0.999873 12:-0.999985 13:-0.926893 14:-0.778692 15:0.28095 16:-0.976409 17:0.0227697 18:-0.307622 19:0.0227697 20:-0.307855 21:0.0192916 22:-0.307974 23:-1 24:-1 25:-1 26:-1 27:0.0106808 28:-0.306979 29:0.00667436 30:-0.306979 31:0.00318777 32:-0.307431 33:-1 34:-1 35:-1 36:-1 37:0.0191475 38:-0.307594 39:0.0186892 40:-0.306086 41:0.0175639 42:-0.306444 43:-1 44:-1 45:-1 46:-1 47:0.0479482 48:-0.30693 49:0.0479482 50:-0.306867 51:0.0477869 52:-0.307021 53:-1 54:-1 55:-1 56:-1 57:0.0552032 58:-0.306033 59:0.0516129 60:-0.306033 61:0.0486551 62:-0.307077 63:-1 64:-1 65:-1 66:-1 67:0.0626643 68:-0.305971 69:0.0587009 70:-0.306199 71:0.0577518 72:-0.305158 73:-1 74:-1 75:-1 76:-1 
5.127802507483101 1:0.214445 2:0.605073 3:-0.308707 4:-0.105221 5:-0.338871 6:-0.880246 7:-0.871098 8:-0.85851 9:-0.506405 10:-0.89253 11:-0.965947 12:-0.944697 13:-0.925105 14:-0.762434 15:0.280629 16:-0.781127 17:-0.159338 18:-0.288291 19:-0.144103 20:-0.27359 21:-0.0461067 22:-0.31112 23:-0.97551 24:-0.837398 25:-0.995717 26:-0.999892 27:-0.174818 28:-0.290676 29:-0.165077 30:-0.272923 31:-0.0598136 32:-0.310078 33:-0.97541 34:-0.827869 35:-0.998742 36:-0.999247 37:-0.163597 38:-0.291312 39:-0.154477 40:-0.273824 41:-0.0555877 42:-0.31072 43:-0.97541 44:-0.83871 45:-0.997316 46:-0.999778 47:-0.132908 48:-0.292191 49:-0.118768 50:-0.275332 51:-0.0146694 52:-0.309907 53:-0.967347 54:-0.839357 55:-0.996272 56:-0.998977 57:-0.123062 58:-0.290728 59:-0.116426 60:-0.27496 61:-0.0138226 62:-0.310997 63:-0.983806 64:-0.839357 65:-0.999393 66:-0.999578 67:-0.115419 68:-0.293076 69:-0.106473 70:-0.275873 71:-0.00476731 72:-0.310182 73:-0.966245 74:-0.83871 75:-0.997138 76:-0.998507 
5.228069872994422 1:0.330315 2:0.643108 3:-0.166724 4:-0.105221 5:-0.443335 6:-0.862334 7:-0.852971 8:-0.868077 9:-0.430594 10:-0.841892 11:-0.999988 12:-0.999995 13:-0.926893 14:-0.778694 15:0.28095 16:-0.840105 17:-0.371909 18:-0.21935 19:-0.346036 20:-0.23359 21:-0.282078 22:-0.276811 23:-0.918367 24:-0.796748 25:-0.999669 26:-0.999813 27:-0.390172 28:-0.220711 29:-0.38121 30:-0.227597 31:-0.305946 32:-0.277666 33:-0.959016 34:-0.762295 35:-0.999809 36:-0.999902 37:-0.379928 38:-0.222832 39:-0.371489 40:-0.229838 41:-0.29991 42:-0.279288 43:-0.959016 44:-0.766129 45:-0.999748 46:-0.999726 47:-0.3466 48:-0.225459 49:-0.329908 50:-0.233578 51:-0.25282 52:-0.281557 53:-0.95102 54:-0.7751 55:-0.999684 56:-0.9996 57:-0.337402 58:-0.226289 59:-0.33053 60:-0.232018 61:-0.254453 62:-0.282993 63:-0.967611 64:-0.767068 65:-0.999804 66:-0.999645 67:-0.328258 68:-0.228346 69:-0.319516 70:-0.235715 71:-0.24706 72:-0.284855 73:-0.957806 74:-0.774194 75:-0.999946 76:-0.99952 
0.8300985637957079 1:0.319387 2:0.604133 3:-0.182901 4:-0.407176 5:-0.415906 6:-0.883828 7:-0.862034 8:-0.910373 9:-0.393083 10:-0.820018 11:-0.999796 12:-0.999464 13:-0.926893 14:-0.778486 15:0.28095 16:-0.833552 17:-0.42074 18:-0.200572 19:-0.340867 20:-0.254046 21:-0.332221 22:-0.26096 23:-0.722449 24:-0.96748 25:-0.999551 26:-0.99992 27:-0.440011 28:-0.202318 29:-0.429269 30:-0.210344 31:-0.35732 32:-0.261743 33:-0.95082 34:-0.745902 35:-0.999596 36:-0.999745 37:-0.429632 38:-0.20472 39:-0.41499 40:-0.215535 41:-0.351723 42:-0.263963 43:-0.934426 44:-0.766129 45:-0.999418 46:-0.999712 47:-0.395268 48:-0.207443 49:-0.385702 50:-0.211294 51:-0.303262 52:-0.265749 53:-0.97551 54:-0.726908 55:-0.998959 56:-0.99946 57:-0.385985 58:-0.208609 59:-0.379571 60:-0.213936 61:-0.302464 62:-0.268521 63:-0.967611 64:-0.73494 65:-0.999197 66:-0.999055 67:-0.37656 68:-0.210448 69:-0.294971 70:-0.267916 71:-0.28662 72:-0.272955 73:-0.696203 74:-0.991935 75:-0.999247 76:-1 
8 1:0.320764 2:0.382853 3:-0.153532 4:-0.378365 5:-0.258306 6:-0.930399 7:-0.892246 8:-0.893253 9:-0.620146 10:-0.933684 11:-0.993457 12:-0.985534 13:-0.926787 14:-0.775156 15:0.280949 16:-0.875491 17:-0.38463 18:-0.311198 19:-0.369813 20:-0.312434 21:-0.321363 22:-0.344564 23:-0.97551 24:-0.910569 25:-0.998485 26:-0.998496 27:-0.404754 28:-0.312302 29:-0.395234 30:-0.313003 31:-0.345409 32:-0.34618 33:-0.97541 34:-0.918033 35:-0.997863 36:-0.99722 37:-0.392942 38:-0.316053 39:-0.387371 40:-0.315432 41:-0.342 42:-0.348848 43:-0.983607 44:-0.91129 45:-0.998593 46:-0.996558 47:-0.360703 48:-0.317686 49:-0.349299 50:-0.316997 51:-0.299604 52:-0.348906 53:-0.983673 54:-0.935743 55:-0.998486 56:-0.996284 57:-0.353545 58:-0.319722 59:-0.347036 60:-0.318283 61:-0.300737 62:-0.350668 63:-0.983806 64:-0.951807 65:-0.999633 66:-0.985291 67:-0.345754 68:-0.321029 69:-0.339886 70:-0.31986 71:-0.295929 72:-0.353698 73:-0.983122 74:-0.959677 75:-0.999343 76:-0.990778 
8 1:0.324479 2:0.307006 3:-0.137138 4:-0.105221 5:-0.0514431 6:-0.881269 7:-0.884693 8:-0.896777 9:-0.605294 10:-0.927291 11:-0.995938 12:-0.991106 13:-0.926853 14:-0.776429 15:0.280949 16:-0.887287 17:-0.414244 18:-0.299426 19:-0.402731 20:-0.299842 21:-0.353584 22:-0.331281 23:-0.983673 24:-0.902439 25:-0.999997 26:-0.997905 27:-0.434778 28:-0.300241 29:-0.428954 30:-0.300584 31:-0.37847 32:-0.332845 33:-0.983607 34:-0.92623 35:-0.998853 36:-0.997344 37:-0.425934 38:-0.301813 39:-0.420818 40:-0.30242 41:-0.375036 42:-0.334452 43:-0.983607 44:-0.927419 45:-0.999498 46:-0.997038 47:-0.393308 48:-0.304131 49:-0.381898 50:-0.303953 51:-0.328225 52:-0.336987 53:-0.983673 54:-0.943775 55:-0.999321 56:-0.99638 57:-0.385617 58:-0.304754 59:-0.379557 60:-0.304738 61:-0.329545 62:-0.33861 63:-0.983806 64:-0.943775 65:-0.999322 66:-0.98998 67:-0.377796 68:-0.306153 69:-0.372665 70:-0.307109 71:-0.328209 72:-0.338922 73:-0.983122 74:-0.943548 75:-0.999635 76:-0.995176 
8 1:0.211958 2:0.2946 3:-0.0894253 4:-0.356097 5:-0.0514431 6:-0.902252 7:-0.8857 8:-0.906848 9:-0.617798 10:-0.93165 11:-0.998474 12:-0.996597 13:-0.926887 14:-0.777845 15:0.28095 16:-0.878113 17:-0.450702 18:-0.286216 19:-0.438967 20:-0.287066 21:-0.388406 22:-0.318579 23:-0.983673 24:-0.902439 25:-0.998115 26:-0.998555 27:-0.471583 28:-0.286688 29:-0.466097 30:-0.288079 31:-0.413873 32:-0.319398 33:-0.983607 34:-0.901639 35:-0.998432 36:-0.998083 37:-0.462753 38:-0.288628 39:-0.457724 40:-0.289797 41:-0.410476 42:-0.320891 43:-0.983607 44:-0.903226 45:-0.998683 46:-0.998843 47:-0.429177 48:-0.290652 49:-0.41377 50:-0.291045 51:-0.362633 52:-0.32328 53:-0.97551 54:-0.903614 55:-0.996972 56:-0.996698 57:-0.420961 58:-0.290642 59:-0.411374 60:-0.291691 61:-0.363973 62:-0.324358 63:-0.975709 64:-0.903614 65:-0.994279 66:-0.991699 67:-0.413379 68:-0.29274 69:-0.404313 70:-0.29374 71:-0.359291 72:-0.326464 73:-0.974684 74:-0.903226 75:-0.997613 76:-0.995853 
8 1:0.301196 2:0.283787 3:-0.110622 4:-0.338493 5:-0.0514431 6:-0.897134 7:-0.878651 8:-0.898792 9:-0.569026 10:-0.911577 11:-0.996434 12:-0.991355 13:-0.926857 14:-0.77625 15:0.28095 16:-0.879423 17:-0.492644 18:-0.273627 19:-0.477725 20:-0.277098 21:-0.42331 22:-0.307822 23:-0.97551 24:-0.853659 25:-0.999266 26:-0.999539 27:-0.513532 28:-0.273525 29:-0.505327 30:-0.277778 31:-0.44916 32:-0.308006 33:-0.97541 34:-0.852459 35:-0.999456 36:-0.999834 37:-0.504223 38:-0.275231 39:-0.49612 40:-0.278772 41:-0.445731 42:-0.309459 43:-0.97541 44:-0.854839 45:-0.999474 46:-0.999107 47:-0.469279 48:-0.276798 49:-0.451646 50:-0.281365 51:-0.396415 52:-0.310937 53:-0.967347 54:-0.863454 55:-0.996551 56:-0.998589 57:-0.457805 58:-0.278617 59:-0.448279 60:-0.280745 61:-0.398136 62:-0.312737 63:-0.975709 64:-0.879518 65:-0.995819 66:-0.990274 67:-0.44978 68:-0.280303 69:-0.440546 70:-0.282006 71:-0.393451 72:-0.314754 73:-0.974684 74:-0.895161 75:-0.99889 76:-0.997408 
8 1:0.307844 2:0.215751 3:-0.108515 4:-0.105221 5:-0.346302 6:-0.891505 7:-0.912387 8:-0.92145 9:-0.568556 10:-0.911691 11:-0.997175 12:-0.993356 13:-0.926872 14:-0.776837 15:0.28095 16:-0.866317 17:-0.53406 18:-0.262646 19:-0.518483 20:-0.266723 21:-0.466374 22:-0.296288 23:-0.97551 24:-0.861789 25:-0.999341 26:-0.999535 27:-0.555514 28:-0.262882 29:-0.545794 30:-0.266423 31:-0.492638 32:-0.296101 33:-0.97541 34:-0.868852 35:-0.999017 36:-0.998574 37:-0.541984 38:-0.265725 39:-0.536325 40:-0.267713 41:-0.489056 42:-0.297515 43:-0.983607 44:-0.887097 45:-0.999998 46:-0.998377 47:-0.506525 48:-0.26796 49:-0.493693 50:-0.268945 51:-0.437839 52:-0.298395 53:-0.983673 54:-0.88755 55:-0.998243 56:-0.998458 57:-0.49765 58:-0.268188 59:-0.491303 60:-0.270022 61:-0.439605 62:-0.300136 63:-0.983806 64:-0.895582 65:-0.998001 66:-0.99841 67:-0.488636 68:-0.269129 69:-0.479498 70:-0.272215 71:-0.431275 72:-0.302995 73:-0.974684 74:-0.879032 75:-0.997334 76:-0.996976 
8 1:0.246169 2:-0.199496 3:0.0358508 4:-0.105221 5:-0.0514431 6:-0.911464 7:-0.91289 8:-0.91289 9:-0.90783 10:-0.999812 11:-1 12:-1 13:-0.926893 14:-0.778693 15:0.28095 16:-0.952818 17:0.0417383 18:-0.0884074 19:0.0417383 20:-0.0886006 21:0.0383302 22:-0.0887004 23:-1 24:-1 25:-1 26:-1 27:0.0288633 28:-0.0865575 29:0.0249304 30:-0.0865575 31:0.021408 32:-0.0818224 33:-1 34:-1 35:-1 36:-1 37:0.0383306 38:-0.0865513 39:0.0343134 40:-0.0815882 41:0.0353464 42:-0.0815131 43:-1 44:-1 45:-1 46:-1 47:0.0619867 48:-0.0835855 49:0.0619867 50:-0.0835334 51:0.064971 52:-0.0820515 53:-1 54:-1 55:-1 56:-1 57:0.0718865 58:-0.0880435 59:0.0683596 60:-0.0880435 61:0.0653845 62:-0.083812 63:-1 64:-1 65:-1 66:-1 67:0.0797686 68:-0.0817961 69:0.0758775 70:-0.0819848 71:0.0713105 72:-0.0829787 73:-1 74:-1 75:-1 76:-1 
8 1:0.246169 2:-0.199496 3:0.0358508 4:-0.105221 5:-0.0514431 6:-0.840839 7:-0.92145 8:-0.893253 9:-0.774397 10:-0.97927 11:-0.999937 12:-0.99989 13:-0.926893 14:-0.778678 15:0.28095 16:-0.918742 17:0.086274 18:-0.0867877 19:0.122454 20:-0.0885969 21:0.119808 22:-0.0857925 23:-0.983673 24:-1 25:-0.998763 26:-1 27:0.0769443 28:-0.0853012 29:0.0806482 30:-0.0845362 31:0.10601 32:-0.0866492 33:-1 34:-0.991803 35:-1 36:-1 37:0.0845978 38:-0.0871303 39:0.115772 40:-0.087956 41:0.111442 42:-0.0854694 43:-0.983607 44:-1 45:-0.998496 46:-1 47:0.109731 48:-0.0870179 49:0.116695 50:-0.0859938 51:0.144582 52:-0.0876045 53:-1 54:-0.991968 55:-1 56:-1 57:0.117105 58:-0.087887 59:0.115264 60:-0.0853501 61:0.14802 62:-0.0866955 63:-1 64:-0.983936 65:-1 66:-0.998284 67:0.125918 68:-0.0868431 69:0.128713 70:-0.0858016 71:0.153191 72:-0.0880953 73:-1 74:-0.991935 75:-1 76:-1 
1.249945905957694 1:0.128398 2:0.161674 3:0.651615 4:-0.818319 5:-0.219659 6:-0.873593 7:-0.737664 8:-0.86858 9:-0.564231 10:-0.923118 11:-0.974361 12:-0.965809 13:-0.926157 14:-0.770161 15:0.28121 16:-0.799476 17:-0.364062 18:-0.119313 19:-0.264672 20:-0.0943781 21:-0.257422 22:-0.121929 23:-0.518367 24:-0.934959 25:-0.999871 26:-0.992643 27:-0.382042 28:-0.11728 29:-0.28667 30:-0.0925474 31:-0.280844 32:-0.102873 33:-0.5 34:-0.942623 35:-0.99997 36:-0.988372 37:-0.374461 38:-0.117058 39:-0.277881 40:-0.0922366 41:-0.277989 42:-0.0966633 43:-0.47541 44:-0.951613 45:-0.999881 46:-0.986706 47:-0.341858 48:-0.11708 49:-0.235854 50:-0.102709 51:-0.234867 52:-0.0925151 53:-0.428571 54:-0.991968 55:-0.962674 56:-1 57:-0.335289 58:-0.115532 59:-0.234359 60:-0.0938008 61:-0.236224 62:-0.0922327 63:-0.417004 64:-0.991968 65:-0.997482 66:-1 67:-0.327038 68:-0.114984 69:-0.226683 70:-0.0925732 71:-0.23063 72:-0.0918657 73:-0.375527 74:-0.991935 75:-0.999145 76:-1 
8 1:0.128398 2:0.161674 3:0.651615 4:-0.105221 5:-0.0514431 6:-0.838792 7:-0.84139 8:-0.828298 9:-0.896245 10:-0.999591 11:-0.999725 12:-0.999956 13:-0.926893 14:-0.778692 15:0.28095 16:-0.903014 17:0.747811 18:-0.0487381 19:0.747811 20:-0.0489243 21:0.747071 22:-0.0417747 23:-1 24:-1 25:-1 26:-1 27:0.748289 28:-0.0484445 29:0.747051 30:-0.0411297 31:0.746873 32:-0.034236 33:-1 34:-1 35:-1 36:-1 37:0.752918 38:-0.0491748 39:0.752069 40:-0.0419433 41:0.751319 42:-0.0347946 43:-1 44:-1 45:-1 46:-1 47:0.762596 48:-0.0503184 49:0.762063 50:-0.0428395 51:0.762953 52:-0.0356363 53:-1 54:-1 55:-1 56:-1 57:0.767868 58:-0.0500154 59:0.766356 60:-0.0425265 61:0.766219 62:-0.0362643 63:-1 64:-1 65:-1 66:-1 67:0.774779 68:-0.0505166 69:0.771064 70:-0.0430155 71:0.774003 72:-0.0292533 73:-1 74:-0.991935 75:-1 76:-1 
5.034027275823503 1:0.0739851 2:0.149728 3:0.684631 4:-0.105221 5:-0.914214 6:-0.877687 7:-0.84139 8:-0.892749 9:-0.862653 10:-0.997829 11:-0.998623 12:-0.99945 13:-0.926893 14:-0.778698 15:0.280951 16:-0.846658 17:-0.429549 18:-0.123841 19:-0.413456 20:-0.11766 21:-0.399716 22:-0.146292 23:-0.983673 24:-0.861789 25:-0.999334 26:-0.999972 27:-0.45764 28:-0.126431 29:-0.438675 30:-0.115325 31:-0.4247 32:-0.14379 33:-0.97541 34:-0.860656 35:-0.999953 36:-0.999932 37:-0.454612 38:-0.128899 39:-0.430115 40:-0.114897 41:-0.419716 42:-0.143936 43:-0.967213 44:-0.854839 45:-0.999998 46:-0.999669 47:-0.420394 48:-0.128738 49:-0.388522 50:-0.11471 51:-0.370581 52:-0.142107 53:-0.959184 54:-0.863454 55:-0.999841 56:-0.999744 57:-0.411821 58:-0.127112 59:-0.385953 60:-0.113088 61:-0.366763 62:-0.139826 63:-0.959514 64:-0.84739 65:-0.999992 66:-0.99177 67:-0.403166 68:-0.126161 69:-0.376436 70:-0.112419 71:-0.364355 72:-0.141696 73:-0.949367 74:-0.854839 75:-0.999986 76:-0.999306 
0.2926141640283508 1:0.0739851 2:0.149728 3:0.684631 4:-0.414818 5:-0.0514431 6:-0.966223 7:-0.818228 8:-0.921954 9:-0.903598 10:-0.999783 11:-1 12:-1 13:-0.926893 14:-0.778693 15:0.28095 16:-0.900393 17:0.552233 18:-0.0654438 19:0.551793 20:-0.0597022 21:0.553084 22:-0.0424064 23:-1 24:-0.98374 25:-1 26:-0.99996 27:0.549676 28:-0.0594576 29:0.548391 30:-0.0476496 31:0.548228 32:-0.0422027 33:-0.991803 34:-1 35:-1 36:-1 37:0.556679 38:-0.0604746 39:0.554807 40:-0.0486289 41:0.5533 42:-0.0429217 43:-0.991803 44:-1 45:-1 46:-1 47:0.570372 48:-0.0617807 49:0.570917 50:-0.0497224 51:0.572143 52:-0.0439383 53:-0.991837 54:-1 55:-1 56:-1 57:0.577705 58:-0.0617878 59:0.574822 60:-0.0555824 61:0.575202 62:-0.0447152 63:-1 64:-0.991968 65:-1 66:-1 67:0.582746 68:-0.0561334 69:0.581056 70:-0.0501941 71:0.580251 72:-0.0451974 73:-1 74:-1 75:-1 76:-1 
6.304874801565223 1:0.203151 2:0.155293 3:0.688736 4:-0.105221 5:-0.0514431 6:-0.881269 7:-0.796576 8:-0.939577 9:-0.899718 10:-0.999617 11:-0.999919 12:-0.999994 13:-0.926893 14:-0.778693 15:0.28095 16:-0.882045 17:0.485421 18:-0.0641279 19:0.485229 20:-0.0534783 21:0.486704 22:-0.0430549 23:-0.991837 24:-0.99187 25:-1 26:-1 27:0.48182 28:-0.0641268 29:0.4798 30:-0.0532097 31:0.481534 32:-0.0429694 33:-0.991803 34:-0.991803 35:-1 36:-1 37:0.489648 38:-0.0652947 39:0.4861 40:-0.0597465 41:0.485767 42:-0.0436632 43:-1 44:-0.983871 45:-1 46:-0.999774 47:0.505364 48:-0.066752 49:0.504411 50:-0.0554704 51:0.506625 52:-0.044708 53:-0.991837 54:-0.991968 55:-1 56:-1 57:0.512218 58:-0.0667892 59:0.508772 60:-0.0553858 61:0.509501 62:-0.0455263 63:-0.991903 64:-0.991968 65:-1 66:-1 67:0.517138 68:-0.0616352 69:0.516632 70:-0.0449863 71:0.518439 72:-0.0406805 73:-0.983122 74:-1 75:-0.999898 76:-1 
8 1:0.184792 2:0.099296 3:0.721523 4:-0.250864 5:-0.122913 6:-0.944217 7:-0.882175 8:-0.381672 9:-0.906386 10:-1 11:-1 12:-1 13:-0.926893 14:-0.778693 15:0.28095 16:-0.994758 17:0.285077 18:-0.0704786 19:0.277621 20:-0.0262985 21:0.338926 22:-0.0227583 23:-0.934694 24:-1 25:-0.991006 26:-1 27:0.278715 28:-0.0708634 29:0.26289 30:-0.0254975 31:0.325731 32:-0.0222175 33:-0.934426 34:-1 35:-0.978435 36:-1 37:0.284701 38:-0.0678213 39:0.266697 40:-0.0261485 41:0.303491 42:-0.0211305 43:-0.942623 44:-1 45:-0.959259 46:-1 47:0.305946 48:-0.069726 49:0.28617 50:-0.0268871 51:0.330806 52:-0.0263485 53:-0.942857 54:-1 55:-0.933237 56:-1 57:0.314477 58:-0.0701833 59:0.310271 60:-0.0448046 61:0.33342 62:-0.0271178 63:-0.959514 64:-0.991968 65:-0.999014 66:-1 67:0.32118 68:-0.0710527 69:0.317641 70:-0.045673 71:0.326208 72:-0.0266332 73:-0.957806 74:-0.983871 75:-0.999361 76:-0.998541 
5.313601042648306 1:0.00215491 2:0.0454947 3:0.792081 4:-0.105221 5:-0.0514431 6:-0.891505 7:-0.769386 8:-0.873112 9:-0.897755 10:-0.999192 11:-0.999977 12:-0.999997 13:-0.926893 14:-0.778693 15:0.28095 16:-0.845347 17:0.215428 18:-0.0664427 19:0.212973 20:-0.0591667 21:0.214902 22:-0.0389583 23:-0.991837 24:-0.95935 25:-1 26:-0.999546 27:0.208116 28:-0.0669431 29:0.20358 30:-0.0453668 31:0.206011 32:-0.035746 33:-0.959016 34:-0.983607 35:-0.999502 36:-0.999983 37:0.219372 38:-0.0689337 39:0.211514 40:-0.0538122 41:0.211061 42:-0.036643 43:-0.97541 44:-0.967742 45:-0.999202 46:-0.99967 47:0.240557 48:-0.0707433 49:0.236668 50:-0.0553312 51:0.241139 52:-0.0378722 53:-0.97551 54:-0.967871 55:-0.999866 56:-0.999647 57:0.247046 58:-0.0671937 59:0.241477 60:-0.059295 61:0.243196 62:-0.0388347 63:-0.991903 64:-0.959839 65:-1 66:-0.998823 67:0.25624 68:-0.0685154 69:0.249062 70:-0.0604652 71:0.249508 72:-0.0395773 73:-0.991561 74:-0.959677 75:-1 76:-0.999233 
8 1:0.0792559 2:0.060178 3:0.786857 4:-0.105221 5:-0.0514431 6:-0.904299 7:-0.756294 8:-0.848439 9:-0.896197 10:-0.998994 11:-0.999975 12:-0.999994 13:-0.926893 14:-0.778693 15:0.28095 16:-0.845347 17:0.148762 18:-0.0671125 19:0.144978 20:-0.0573711 21:0.146425 22:-0.0370672 23:-0.983673 24:-0.95122 25:-0.999885 26:-0.999534 27:0.140742 28:-0.0678828 29:0.132683 30:-0.0576514 31:0.135917 32:-0.0344219 33:-0.983607 34:-0.942623 35:-0.999997 36:-0.99916 37:0.149348 38:-0.0663408 39:0.142137 40:-0.0500952 41:0.141768 42:-0.0354898 43:-0.967213 44:-0.967742 45:-0.999691 46:-0.999477 47:0.173108 48:-0.0684919 49:0.169064 50:-0.0580354 51:0.173585 52:-0.0367394 53:-0.983673 54:-0.951807 55:-0.999725 56:-0.999194 57:0.181657 58:-0.0691677 59:0.174426 60:-0.0553492 61:0.176301 62:-0.0378862 63:-0.975709 64:-0.959839 65:-0.999876 66:-0.99881 67:0.190324 68:-0.0672033 69:0.18257 70:-0.0501194 71:0.182696 72:-0.0387128 73:-0.966245 74:-0.975806 75:-0.998906 76:-0.99956 
4.112019748813617 1:0.0276769 2:0.0721554 3:0.818176 4:-0.105221 5:-0.0514431 6:-0.880757 7:-0.82578 8:-0.924471 9:-0.879143 10:-0.999031 11:-0.999369 12:-0.999679 13:-0.926893 14:-0.778694 15:0.28095 16:-0.817824 17:0.0139293 18:-0.0674013 19:0.0136498 20:-0.035529 21:0.0456049 22:-0.0353941 23:-0.885714 24:-1 25:-0.996183 26:-1 27:0.00276605 28:-0.0663049 29:0.000428292 30:-0.0340251 31:0.0265021 32:-0.0350136 33:-0.885246 34:-1 35:-0.997244 36:-1 37:0.0137959 38:-0.0667244 39:0.00851724 40:-0.0354652 41:0.0387015 42:-0.034989 43:-0.893443 44:-1 45:-0.997282 46:-1 47:0.0398352 48:-0.0693329 49:0.0356153 50:-0.0431457 51:0.039725 52:-0.035289 53:-0.918367 54:-0.975904 55:-0.997507 56:-0.998993 57:0.0489278 58:-0.0682211 59:0.0406915 60:-0.0437958 61:0.0413106 62:-0.03663 63:-0.927126 64:-0.975904 65:-0.998067 66:-0.97956 67:0.057457 68:-0.0675349 69:0.0495435 70:-0.0546931 71:0.0487583 72:-0.0356196 73:-0.966245 74:-0.935484 75:-0.998846 76:-0.998972 
4.998196529146928 1:0.0333837 2:0.0209375 3:0.663363 4:-0.105221 5:-0.564584 6:-0.894063 7:-0.89577 8:-0.90282 9:-0.798876 10:-0.983866 11:-1 12:-1 13:-0.926893 14:-0.778693 15:0.28095 16:-0.95806 17:0.0499947 18:-0.0352838 19:0.0499947 20:-0.0354676 21:0.0581061 22:-0.0350895 23:-1 24:-1 25:-1 26:-1 27:0.0423167 28:-0.0336858 29:0.0384384 30:-0.0336858 31:0.0462555 32:-0.0333499 33:-1 34:-1 35:-1 36:-1 37:0.0492749 38:-0.0346999 39:0.058089 40:-0.0343692 41:0.0596085 42:-0.0331757 43:-1 44:-1 45:-1 46:-1 47:0.0798632 48:-0.0348262 49:0.0798632 50:-0.0347763 51:0.0884165 52:-0.033706 53:-1 54:-1 55:-1 56:-1 57:0.0832757 58:-0.0342862 59:0.0797921 60:-0.0342862 61:0.0908126 62:-0.0349771 63:-1 64:-1 65:-1 66:-1 67:0.102003 68:-0.0341984 69:0.0982054 70:-0.0343789 71:0.0976865 72:-0.0333469 73:-1 74:-1 75:-1 76:-1 
8 1:0.0704481 2:0.0261961 3:0.746691 4:-0.105221 5:-0.437195 6:-0.885875 7:-0.902316 8:-0.875629 9:-0.776944 10:-0.979209 11:-1 12:-1 13:-0.926893 14:-0.778693 15:0.28095 16:-0.952818 17:-0.0207198 18:-0.0360781 19:-0.00558816 20:-0.03572 21:-0.00722144 22:-0.0342755 23:-0.991837 24:-1 25:-1 26:-1 27:-0.0310146 28:-0.0351091 29:-0.0184936 30:-0.0346 31:-0.0233079 32:-0.032745 33:-0.991803 34:-1 35:-1 36:-1 37:-0.0277292 38:-0.0354821 39:-0.0239182 40:-0.0354038 41:-0.0161733 42:-0.034454 43:-1 44:-0.991935 45:-1 46:-1 47:0.0015476 48:-0.0361213 49:0.0217978 50:-0.036104 51:0.0223503 52:-0.0342834 53:-0.991837 54:-1 55:-1 56:-1 57:0.013228 58:-0.0352932 59:0.0168088 60:-0.0347061 61:0.0246361 62:-0.0358031 63:-1 64:-1 65:-1 66:-1 67:0.0254918 68:-0.0351271 69:0.0305771 70:-0.0349518 71:0.0311214 72:-0.0347856 73:-1 74:-1 75:-1 76:-1 
4.986298855885006 1:0.0102791 2:0.00165927 3:0.766106 4:-0.105221 5:-0.0514431 6:-0.849539 7:-0.767372 8:-0.843907 9:-0.469855 10:-0.865241 11:-0.991495 12:-0.981936 13:-0.926725 14:-0.77261 15:0.280939 16:-0.804718 17:-0.188156 18:-0.0469879 19:-0.182856 20:-0.0390469 21:-0.0755347 22:-0.0353774 23:-0.910204 24:-0.634146 25:-0.999184 26:-0.999834 27:-0.2022 28:-0.046136 29:-0.201176 30:-0.0379617 31:-0.0928455 32:-0.0332169 33:-0.909836 34:-0.672131 35:-0.999598 36:-0.999014 37:-0.191106 38:-0.046379 39:-0.19129 40:-0.0384061 41:-0.0857377 42:-0.0338526 43:-0.918033 44:-0.709677 45:-0.999013 46:-0.999049 47:-0.160786 48:-0.0471392 49:-0.155278 50:-0.0389211 51:-0.0456039 52:-0.0344035 53:-0.918367 54:-0.742972 55:-0.997728 56:-0.998812 57:-0.151468 58:-0.0461031 59:-0.14967 60:-0.0378969 61:-0.0431033 62:-0.0347474 63:-0.919028 64:-0.767068 65:-0.996426 66:-0.996791 67:-0.141151 68:-0.0460001 69:-0.138996 70:-0.03787 71:-0.035751 72:-0.0346844 73:-0.915612 74:-0.814516 75:-0.996197 76:-0.997908 
8 1:0.450058 2:0.136719 3:0.357587 4:-0.105221 5:-0.0514431 6:-0.955476 7:-0.956193 8:-0.941591 9:-0.851531 10:-0.994628 11:-0.999639 12:-0.999786 13:-0.926893 14:-0.77869 15:0.28095 16:-0.930537 17:0.617265 18:-0.0466243 19:0.617265 20:-0.0468101 21:0.614742 22:-0.0342082 23:-1 24:-1 25:-1 26:-1 27:0.614262 28:-0.0335594 29:0.6127 30:-0.0335594 31:0.611243 32:-0.0339169 33:-1 34:-1 35:-1 36:-1 37:0.623732 38:-0.0344764 39:0.622052 40:-0.0345759 41:0.617946 42:-0.0282286 43:-1 44:-1 45:-1 46:-1 47:0.635638 48:-0.0290647 49:0.635638 50:-0.0290151 51:0.635386 52:-0.0291363 53:-1 54:-1 55:-1 56:-1 57:0.643295 58:-0.0287374 59:0.64194 60:-0.0287374 61:0.642376 62:-0.0234313 63:-1 64:-1 65:-1 66:-1 67:0.6509 68:-0.0290973 69:0.649423 70:-0.0292769 71:0.647452 72:-0.0303007 73:-1 74:-1 75:-1 76:-1 
2.11664248918213 1:0.508612 2:0.0883294 3:0.229205 4:-0.238875 5:-0.0514431 6:-0.883316 7:-0.865055 8:1 9:-0.873832 10:-0.998797 11:-0.998765 12:-0.998661 13:-0.926892 14:-0.778656 15:0.28095 16:-0.785059 17:0.0356269 18:-0.0692826 19:0.0392812 20:-0.0381412 21:0.094852 22:-0.0356428 23:-0.893878 24:-0.96748 25:-0.993061 26:-0.999672 27:0.0259059 28:-0.0682528 29:0.0238787 30:-0.0382144 31:0.0749772 32:-0.0349844 33:-0.901639 34:-0.967213 35:-0.994128 36:-0.999303 37:0.0369279 38:-0.0709 39:0.0347122 40:-0.0378303 41:0.0745862 42:-0.0353014 43:-0.893443 44:-0.975806 45:-0.986605 46:-0.999648 47:0.0628384 48:-0.0710372 49:0.0629544 50:-0.0392511 51:0.101465 52:-0.0356227 53:-0.902041 54:-0.975904 55:-0.985763 56:-0.999468 57:0.071439 58:-0.0695551 59:0.0622013 60:-0.0458567 61:0.0974249 62:-0.0359471 63:-0.935223 64:-0.951807 65:-0.997382 66:-0.981699 67:0.0808559 68:-0.0688819 69:0.0716202 70:-0.0450467 71:0.0970357 72:-0.0358852 73:-0.932489 74:-0.959677 75:-0.997765 76:-0.992809 
8 1:0.113625 2:0.396678 3:0.211331 4:-0.0797798 5:-0.0514431 6:-0.900716 7:-0.902316 8:-0.902316 9:-0.832693 10:-0.991381 11:-0.999662 12:-0.99981 13:-0.926893 14:-0.778682 15:0.28095 16:-0.964613 17:0.177821 18:-0.0372766 19:0.177821 20:-0.0374608 21:0.174916 22:-0.0375559 23:-1 24:-1 25:-1 26:-1 27:0.158087 28:-0.0359569 29:0.154677 30:-0.0359569 31:0.151686 32:-0.0363152 33:-1 34:-1 35:-1 36:-1 37:0.164202 38:-0.0367956 39:0.16047 40:-0.0368953 41:0.175376 42:-0.036193 43:-1 44:-1 45:-1 46:-1 47:0.187048 48:-0.0383206 49:0.187048 50:-0.0382706 51:0.205642 52:-0.0373506 53:-1 54:-1 55:-1 56:-1 57:0.195048 58:-0.0383835 59:0.191989 60:-0.0383835 61:0.205532 62:-0.0381109 63:-1 64:-1 65:-1 66:-1 67:0.19466 68:-0.0380764 69:0.191255 70:-0.0382575 71:0.205797 72:-0.0381794 73:-1 74:-1 75:-1 76:-1 
1.104686326207111 1:0.220647 2:0.398108 3:0.221935 4:-0.150562 5:-0.0514431 6:-0.863357 7:-0.797583 8:-0.945116 9:-0.241343 10:-0.751629 11:-0.524364 12:0.0570492 13:-0.363983 14:-0.283247 15:0.251458 16:-0.474443 17:-0.13235 18:-0.0804838 19:-0.128661 20:-0.0348495 21:0.140329 22:-0.0362778 23:-0.722449 24:-0.739837 25:-0.995672 26:-0.999807 27:-0.145202 28:-0.0779639 29:-0.143643 30:-0.0338368 31:0.117181 32:-0.0350943 33:-0.729508 34:-0.762295 35:-0.995949 36:-0.99969 37:-0.132936 38:-0.0790722 39:-0.133066 40:-0.0344042 41:0.117942 42:-0.0355591 43:-0.737705 44:-0.782258 45:-0.9961 46:-0.999708 47:-0.101747 48:-0.0801734 49:-0.0957219 50:-0.0344009 51:0.139673 52:-0.035415 53:-0.738776 54:-0.807229 55:-0.989439 56:-0.999346 57:-0.0885967 58:-0.0842937 59:-0.091436 60:-0.0341775 61:0.138369 62:-0.0360896 63:-0.740891 64:-0.815261 65:-0.988831 66:-0.99922 67:-0.0776049 68:-0.0837748 69:-0.0811273 70:-0.0340113 71:0.141513 72:-0.0365182 73:-0.738397 74:-0.830645 75:-0.988083 76:-0.99953 
2.240627232543987 1:0.272068 2:0.371958 3:0.280264 4:-0.178079 5:-0.0514431 6:-0.756397 7:-0.732628 8:-0.893253 9:0.107102 10:-0.414745 11:-0.178185 12:1 13:1 14:0.669922 15:0.236556 16:-0.49017 17:-0.212526 18:-0.0536579 19:-0.203396 20:-0.034403 21:0.0776819 22:-0.03568 23:-0.795918 24:-0.398374 25:-0.989874 26:-0.999181 27:-0.225647 28:-0.0580142 29:-0.223727 30:-0.0335882 31:0.0574312 32:-0.0350139 33:-0.778689 34:-0.434426 35:-0.992425 36:-0.999116 37:-0.213661 38:-0.0625486 39:-0.21065 40:-0.0341041 41:0.074043 42:-0.0352243 43:-0.745902 44:-0.5 45:-0.99802 46:-0.999041 47:-0.181155 48:-0.0669003 49:-0.17428 50:-0.0347123 51:0.105215 52:-0.0361735 53:-0.738776 54:-0.542169 55:-0.995533 56:-0.999311 57:-0.169844 58:-0.0692827 59:-0.167785 60:-0.0343403 61:0.100531 62:-0.0364026 63:-0.732794 64:-0.582329 65:-0.995006 66:-0.998636 67:-0.158198 68:-0.0735372 69:-0.156928 70:-0.0344131 71:0.120895 72:-0.0365908 73:-0.704641 74:-0.612903 75:-0.994112 76:-0.999273 
1.194445457267837 1:0.156644 2:0.35851 3:0.289532 4:-0.281994 5:-0.0514431 6:-0.790686 7:-0.792044 8:-0.879658 9:0.287995 10:-0.173205 11:-0.875467 12:-0.672271 13:-0.87713 14:-0.494648 15:0.280774 16:-0.614679 17:-0.283462 18:-0.0351173 19:-0.203764 20:-0.0406865 21:0.0047536 22:-0.0346075 23:-0.0285714 24:-0.382114 25:-0.996337 26:-0.993168 27:-0.29717 28:-0.0338931 29:-0.221352 30:-0.0393445 31:-0.0124383 32:-0.034761 33:-0.0655738 34:-0.442623 35:-0.996841 36:-0.993844 37:-0.285151 38:-0.0347364 39:-0.20992 40:-0.0393173 41:-0.00314245 42:-0.0347552 43:-0.114754 44:-0.5 45:-0.997272 46:-0.994257 47:-0.251766 48:-0.0359333 49:-0.171616 50:-0.0393852 51:0.0367951 52:-0.0347702 53:-0.167347 54:-0.550201 55:-0.997365 56:-0.995433 57:-0.244618 58:-0.0447364 59:-0.242644 60:-0.0338321 61:0.0371562 62:-0.0358954 63:-0.951417 64:0.124498 65:-0.998712 66:-0.995846 67:-0.233167 68:-0.0441105 69:-0.22998 70:-0.0339755 71:0.0473172 72:-0.0353747 73:-0.915612 75:-0.996625 76:-0.99757 
2.447283352796685 1:0.239086 2:0.408002 3:0.239364 4:-0.105221 5:-0.197854 6:-0.809621 7:-0.831823 8:0.966264 9:-0.884183 10:-0.997932 11:-0.999989 12:-0.999997 13:-0.926893 14:-0.778693 15:0.28095 16:-0.796855 17:-0.372898 18:-0.0773583 19:-0.373548 20:-0.0848988 21:-0.36189 22:-0.0835438 23:-0.97551 24:-0.97561 25:-0.999978 26:-0.994577 27:-0.388221 28:-0.0702662 29:-0.393796 30:-0.0833526 31:-0.390387 32:-0.082935 33:-0.942623 34:-1 35:-0.999958 36:-1 37:-0.37531 38:-0.0672361 39:-0.380987 40:-0.0830393 41:-0.382316 42:-0.0766402 43:-0.92623 44:-1 45:-0.999924 46:-1 47:-0.339065 48:-0.0682045 49:-0.33844 50:-0.0705663 51:-0.338619 52:-0.0841432 53:-0.991837 54:-0.943775 55:-1 56:-0.999987 57:-0.327239 58:-0.0513166 59:-0.324242 60:-0.0538432 61:-0.335745 62:-0.0845927 63:-0.975709 64:-0.919679 65:-0.99695 66:-0.992854 67:-0.315965 68:-0.0453561 69:-0.32037 70:-0.077676 71:-0.303621 72:-0.052814 73:-0.848101 74:-0.983871 75:-0.979389 76:-0.999646 
8 1:0.170872 2:0.466991 3:0.18065 4:-0.105221 5:-0.0514431 6:-0.898669 7:-0.826788 8:-0.942095 9:-0.873893 10:-0.996647 11:-0.999801 12:-0.999953 13:-0.926893 14:-0.778692 15:0.28095 16:-0.918742 17:0.393338 18:-0.183794 19:0.40489 20:-0.16615 21:0.412029 22:-0.15812 23:-0.97551 24:-0.99187 25:-0.999997 26:-1 27:0.387586 28:-0.184983 29:0.396581 30:-0.166846 31:0.400376 32:-0.16349 33:-0.97541 34:-1 35:-0.999989 36:-1 37:0.399313 38:-0.177835 39:0.396631 40:-0.177948 41:0.394054 42:-0.173182 43:-1 44:-1 45:-1 46:-1 47:0.413687 48:-0.179598 49:0.413687 50:-0.179541 51:0.416166 52:-0.175044 53:-1 54:-1 55:-1 56:-1 57:0.41972 58:-0.180637 59:0.417515 60:-0.180637 61:0.418196 62:-0.17701 63:-1 64:-1 65:-1 66:-1 67:0.4239 68:-0.181843 69:0.421464 70:-0.182049 71:0.421518 72:-0.178371 73:-1 74:-1 75:-1 76:-1 
2.933992823254019 1:0.148421 2:0.484329 3:0.169312 4:-0.105221 5:-0.0514431 6:-0.886899 7:-0.802115 8:-0.914904 9:-0.882115 10:-0.997316 11:-0.999976 12:-0.999993 13:-0.926893 14:-0.778693 15:0.28095 16:-0.87156 17:0.301788 18:-0.155709 19:0.305257 20:-0.143297 21:0.317917 22:-0.124785 23:-0.983673 24:-0.96748 25:-0.999822 26:-0.999795 27:0.293159 28:-0.156419 29:0.296589 30:-0.139886 31:0.307021 32:-0.125353 33:-0.97541 34:-0.97541 35:-0.999566 36:-0.999894 37:0.298777 38:-0.158101 39:0.297873 40:-0.149609 41:0.310292 42:-0.126709 43:-0.991803 44:-0.959677 45:-1 46:-0.99983 47:0.317793 48:-0.160656 49:0.321279 50:-0.147632 51:0.334141 52:-0.132742 53:-0.983673 54:-0.975904 55:-0.999449 56:-0.999926 57:0.323378 58:-0.161483 59:0.321723 60:-0.152327 61:0.334907 62:-0.134228 63:-0.991903 64:-0.967871 65:-1 66:-0.998781 67:0.328236 68:-0.16279 69:0.327236 70:-0.154037 71:0.338768 72:-0.135484 73:-0.991561 74:-0.967742 75:-1 76:-0.999907 
8 1:0.262953 2:0.489955 3:0.237523 4:-0.105221 5:-0.0514431 6:-0.883828 7:-0.794562 8:-0.875126 9:-0.881616 10:-0.997393 11:-0.999962 12:-0.999988 13:-0.926893 14:-0.778693 15:0.28095 16:-0.865007 17:0.255108 18:-0.141389 19:0.259159 20:-0.126134 21:0.267655 22:-0.11261 23:-0.97551 24:-0.97561 25:-0.999741 26:-0.999904 27:0.245286 28:-0.141937 29:0.247426 30:-0.126631 31:0.255936 32:-0.113196 33:-0.97541 34:-0.97541 35:-0.999835 36:-0.999746 37:0.251072 38:-0.143585 39:0.257755 40:-0.121136 41:0.259618 42:-0.114627 43:-0.959016 44:-0.991935 45:-0.999577 46:-1 47:0.270519 48:-0.145934 49:0.28008 50:-0.123012 51:0.287584 52:-0.116624 53:-0.959184 54:-0.991968 55:-0.998928 56:-1 57:0.276309 58:-0.14674 59:0.276951 60:-0.134785 61:0.288174 62:-0.118046 63:-0.983806 64:-0.967871 65:-0.999998 66:-0.998162 67:0.282041 68:-0.148232 69:0.282496 70:-0.136381 71:0.292381 72:-0.119301 73:-0.983122 74:-0.967742 75:-0.999746 76:-0.999264 
8 1:0.190261 2:0.488464 3:0.169781 4:-0.105221 5:-0.0514431 6:-0.866428 7:-0.783988 8:-0.832326 9:-0.882987 10:-0.997472 11:-0.99994 12:-0.999987 13:-0.926893 14:-0.778693 15:0.28095 16:-0.875491 17:0.205086 18:-0.129842 19:0.210533 20:-0.112782 21:0.218557 22:-0.100718 23:-0.967347 24:-0.97561 25:-0.999498 26:-0.999993 27:0.195664 28:-0.13077 29:0.197915 30:-0.113282 31:0.206744 32:-0.10149 33:-0.967213 34:-0.97541 35:-0.999976 36:-0.999853 37:0.202659 38:-0.132738 39:0.202505 40:-0.118403 41:0.210556 42:-0.102929 43:-0.97541 44:-0.967742 45:-0.999838 46:-0.999524 47:0.22377 48:-0.135311 49:0.226079 50:-0.120331 51:0.239176 52:-0.104679 53:-0.97551 54:-0.967871 55:-0.999942 56:-0.999571 57:0.228992 58:-0.13589 59:0.230921 60:-0.117646 61:0.240183 62:-0.10622 63:-0.967611 64:-0.975904 65:-0.99955 66:-0.998662 67:0.235091 68:-0.137449 69:0.233556 70:-0.126187 71:0.243488 72:-0.107204 73:-0.983122 74:-0.959677 75:-0.999441 76:-0.999566 
8 1:0.303901 2:0.454411 3:0.117085 4:-0.105221 5:-0.0514431 6:-0.764585 7:-0.89577 8:-0.829305 9:-0.884518 10:-0.997686 11:-0.999864 12:-0.999968 13:-0.926893 14:-0.778693 15:0.28095 16:-0.876802 17:0.157626 18:-0.118326 19:0.157546 20:-0.108269 21:0.168493 22:-0.0885917 23:-0.983673 24:-0.95122 25:-0.999975 26:-0.999495 27:0.147251 28:-0.119209 29:0.143987 30:-0.108908 31:0.15513 32:-0.0892068 33:-0.983607 34:-0.95082 35:-0.999267 36:-0.999434 37:0.154352 38:-0.121162 39:0.154258 40:-0.104941 41:0.159329 42:-0.0907154 43:-0.967213 44:-0.967742 45:-0.999957 46:-0.999635 47:0.174949 48:-0.123254 49:0.176434 50:-0.109568 51:0.189526 52:-0.0924266 53:-0.97551 54:-0.959839 55:-0.999548 56:-0.999713 57:0.180158 58:-0.123772 59:0.18149 60:-0.107353 61:0.188461 62:-0.0934745 63:-0.967611 64:-0.967871 65:-0.999688 66:-0.999713 67:0.18691 68:-0.125492 69:0.188842 70:-0.105746 71:0.192991 72:-0.0947105 73:-0.957806 74:-0.975806 75:-0.999167 76:-0.999907 
1.117279731873407 1:0.334981 2:0.466164 3:0.202773 4:-0.105221 5:-0.0514431 6:-0.906858 7:-0.85851 8:-0.81571 9:-0.88314 10:-0.997724 11:-0.999874 12:-0.999969 13:-0.926893 14:-0.778694 15:0.28095 16:-0.861075 17:0.105563 18:-0.110637 19:0.107769 20:-0.0963837 21:0.115897 22:-0.0788031 23:-0.967347 24:-0.95122 25:-0.999519 26:-0.99962 27:0.0962307 28:-0.109134 29:0.0978236 30:-0.0862957 31:0.10198 32:-0.0795552 33:-0.942623 34:-0.983607 35:-0.998972 36:-0.99982 37:0.103149 38:-0.111007 39:0.101441 40:-0.0962975 41:0.106453 42:-0.0811478 43:-0.967213 44:-0.959677 45:-0.999817 46:-0.999477 47:0.125384 48:-0.113333 49:0.131429 50:-0.0900998 51:0.138539 52:-0.0829227 53:-0.942857 54:-0.983936 55:-0.999701 56:-0.999289 57:0.131858 58:-0.114259 59:0.131142 60:-0.0991431 61:0.140519 62:-0.0816606 63:-0.967611 64:-0.951807 65:-0.998949 66:-0.998952 67:0.138518 68:-0.115938 69:0.136862 70:-0.100619 71:0.144341 72:-0.082674 73:-0.966245 74:-0.951613 75:-0.99986 76:-0.999519 
8 1:0.256493 2:0.515564 3:0.193914 4:-0.105221 5:-0.0514431 6:-0.846469 7:-0.889225 8:-0.817724 9:-0.88757 10:-0.998106 11:-0.999926 12:-0.99998 13:-0.926893 14:-0.778693 15:0.28095 16:-0.854522 17:0.0541221 18:-0.100744 19:0.0588848 20:-0.0762313 21:0.0619475 22:-0.0704194 23:-0.926531 24:-0.98374 25:-0.998586 26:-0.999883 27:0.0419822 28:-0.101778 29:0.0432968 30:-0.0767666 31:0.0487019 32:-0.0690721 33:-0.92623 34:-0.97541 35:-0.999368 36:-0.999777 37:0.0516721 38:-0.101917 39:0.0462651 40:-0.0933643 41:0.0526205 42:-0.0705413 43:-0.983607 44:-0.927419 45:-0.999976 46:-0.999521 47:0.074921 48:-0.104307 49:0.0811656 50:-0.0787738 51:0.0869896 52:-0.0724768 53:-0.926531 54:-0.983936 55:-0.999003 56:-0.999822 57:0.0809875 58:-0.1051 59:0.0825912 60:-0.081656 61:0.089916 62:-0.0719174 63:-0.935223 64:-0.967871 65:-0.999118 66:-0.999777 67:0.0877385 68:-0.103934 69:0.085959 70:-0.0906312 71:0.0926175 72:-0.0726272 73:-0.966245 74:-0.943548 75:-0.999918 76:-0.999491 
1.636511753036582 1:0.299839 2:0.48098 3:0.356058 4:-0.182279 5:-0.253084 6:-0.799898 7:-0.640987 8:-0.798087 9:-0.534397 10:-0.897896 11:-0.993914 12:-0.988399 13:-0.92682 14:-0.775307 15:0.280942 16:-0.777195 17:-0.26807 18:-0.0415431 19:-0.261088 20:-0.0378024 21:-0.155352 22:-0.0446743 23:-0.918367 24:-0.0731707 25:-0.999534 26:-0.998843 27:-0.284802 28:-0.0425307 29:-0.284309 30:-0.0371399 31:-0.174059 32:-0.0437519 33:-0.934426 34:-0.0901639 35:-0.99982 36:-0.99692 37:-0.275039 38:-0.0452403 39:-0.269512 40:-0.0380105 41:-0.169284 42:-0.0443762 43:-0.852459 44:-0.233871 45:-0.996483 46:-0.995663 47:-0.244023 48:-0.0502451 49:-0.234442 50:-0.0385586 51:-0.126772 52:-0.0455733 53:-0.861224 54:-0.269076 55:-0.995597 56:-0.996527 57:-0.234818 58:-0.0492397 59:-0.229264 60:-0.038069 61:-0.121309 62:-0.0482802 63:-0.846154 64:-0.333333 65:-0.994743 66:-0.996788 67:-0.225763 68:-0.0505802 69:-0.224064 70:-0.0383461 71:-0.119887 72:-0.047348 73:-0.873418 74:-0.346774 75:-0.998248 76:-0.99764 
1.091837027692095 1:0.360979 2:0.494948 3:0.461679 4:-0.218073 5:-0.173639 6:-0.824463 7:-0.808661 8:-0.832326 9:-0.555839 10:-0.90664 11:-0.999965 12:-0.999934 13:-0.926893 14:-0.778677 15:0.28095 16:-0.813893 17:-0.32133 18:-0.0387603 19:-0.21026 20:-0.0464317 21:-0.210676 22:-0.0411184 23:0.22449 24:-0.934959 25:-0.995464 26:-0.999048 27:-0.338255 28:-0.037852 29:-0.311667 30:-0.0442248 31:-0.23134 32:-0.0404076 33:-0.655738 34:-0.0491803 35:-0.991433 36:-0.991727 37:-0.327514 38:-0.0382422 39:-0.301014 40:-0.0448432 41:-0.225905 42:-0.0410699 43:-0.631148 44:-0.0967742 45:-0.989212 46:-0.990482 47:-0.294696 48:-0.0386352 49:-0.26291 50:-0.0468483 51:-0.181384 52:-0.0419555 53:-0.608163 54:-0.13253 55:-0.979999 56:-0.987756 57:-0.286361 58:-0.0384882 59:-0.257242 60:-0.0461983 61:-0.180586 62:-0.0426453 63:-0.578947 64:-0.180723 65:-0.98333 66:-0.966138 67:-0.277203 68:-0.0387724 69:-0.249355 70:-0.0487339 71:-0.174129 72:-0.0428178 73:-0.561181 74:-0.201613 75:-0.974372 76:-0.968202 
1.826829936566805 1:0.404652 2:0.499155 3:0.324378 4:-0.105221 5:-0.142681 6:-0.779427 7:-0.743706 8:-0.615307 9:-0.558595 10:-0.907401 11:-0.999334 12:-0.999107 13:-0.926892 14:-0.778478 15:0.28095 16:-0.888598 17:-0.327289 18:-0.0399364 19:-0.263066 20:-0.041212 21:-0.265668 22:-0.0391638 23:-0.330612 24:-0.98374 25:-0.999187 26:-0.999926 27:-0.349532 28:-0.0389642 29:-0.321529 30:-0.0375765 31:-0.288743 32:-0.0387456 33:-0.729508 34:-0.532787 35:-0.999991 36:-0.999956 37:-0.344571 38:-0.0393378 39:-0.317921 40:-0.0378903 41:-0.282981 42:-0.039469 43:-0.737705 44:-0.451613 45:-0.999973 46:-0.999898 47:-0.319275 48:-0.0420121 49:-0.31229 50:-0.0389522 51:-0.237357 52:-0.0395327 53:-0.983673 54:-0.140562 55:-0.999983 56:-0.999912 57:-0.311822 58:-0.0384011 59:-0.314868 60:-0.041678 61:-0.236536 62:-0.0399599 63:-0.967611 64:-0.0843373 65:-0.998676 66:-0.993466 67:-0.307433 68:-0.0381648 69:-0.305497 70:-0.0414461 71:-0.22943 72:-0.0406824 73:-0.924051 74:-0.0483871 75:-0.997144 76:-0.997479 
6.665015709471135 1:0.287375 2:0.431641 3:0.341819 4:-0.105221 5:-0.100792 6:-0.778403 7:-0.788016 8:-0.806647 9:-0.896783 10:-0.999798 11:-0.999639 12:-0.999973 13:-0.926893 14:-0.778693 15:0.28095 16:-0.803408 17:-0.327326 18:-0.0399662 19:-0.319877 20:-0.0405697 21:-0.323059 22:-0.0739829 23:-0.95102 24:-0.796748 25:-0.999918 26:-0.999977 27:-0.350012 28:-0.0393527 29:-0.341838 30:-0.0390278 31:-0.344964 32:-0.073911 33:-0.909836 34:-0.795082 35:-0.999948 36:-0.99997 37:-0.344516 38:-0.0392929 39:-0.33174 40:-0.0395298 41:-0.339275 42:-0.0741997 43:-0.860656 44:-0.806452 45:-0.999823 46:-0.999963 47:-0.317014 48:-0.0401282 49:-0.29299 50:-0.0395854 51:-0.291511 52:-0.0747716 53:-0.812245 54:-0.815261 55:-0.999919 56:-0.999972 57:-0.312679 58:-0.0391195 59:-0.277003 60:-0.0436382 61:-0.290913 62:-0.0749817 63:-0.603239 64:-0.983936 65:-0.849684 66:-0.999648 67:-0.3085 68:-0.0390637 69:-0.278818 70:-0.0646354 71:-0.274233 72:-0.0451353 73:-0.552743 74:-0.975806 75:-0.857343 76:-0.998603 
8 1:0.361187 2:0.511439 3:0.17344 4:-0.105221 5:-0.0514431 6:-0.927329 7:-0.866062 8:-0.889225 9:-0.785352 10:-0.981982 11:-1 12:-1 13:-0.926893 14:-0.778693 15:0.28095 16:-0.965924 17:0.452002 18:-0.2434 19:0.454571 20:-0.238461 21:0.456389 22:-0.227769 23:-1 24:-0.99187 25:-1 26:-1 27:0.443126 28:-0.243541 29:0.443676 30:-0.232353 31:0.44436 32:-0.227649 33:-0.991803 34:-1 35:-1 36:-1 37:0.443904 38:-0.250196 39:0.442195 40:-0.244447 41:0.441886 42:-0.233673 43:-1 44:-0.991935 45:-1 46:-1 47:0.454082 48:-0.251063 49:0.456553 50:-0.245767 51:0.459184 52:-0.234716 53:-1 54:-0.991968 55:-1 56:-1 57:0.455796 58:-0.251067 59:0.456109 60:-0.245781 61:0.45563 62:-0.241183 63:-1 64:-1 65:-1 66:-1 67:0.455389 68:-0.257196 69:0.455335 70:-0.252054 71:0.456248 72:-0.241988 73:-1 74:-0.991935 75:-1 76:-1 
8 1:0.434315 2:0.457096 3:0.171213 4:-0.105221 5:-0.0514431 6:-0.885875 7:-0.887714 8:-0.887714 9:-0.828544 10:-0.989705 11:-0.999957 12:-0.999968 13:-0.926893 14:-0.77869 15:0.28095 16:-0.941022 17:0.426241 18:-0.103209 19:0.426241 20:-0.103405 21:0.424252 22:-0.103506 23:-1 24:-1 25:-1 26:-1 27:0.408367 28:-0.116716 29:0.412194 30:-0.107584 31:0.411419 32:-0.103059 33:-1 34:-1 35:-1 36:-1 37:0.408885 38:-0.122207 39:0.410735 40:-0.112868 41:0.4102 42:-0.108514 43:-1 44:-1 45:-1 46:-1 47:0.418951 48:-0.127974 49:0.420459 50:-0.12306 51:0.425626 52:-0.113925 53:-1 54:-0.991968 55:-1 56:-1 57:0.418298 58:-0.132269 59:0.417596 60:-0.127402 61:0.423283 62:-0.114497 63:-1 64:-0.983936 65:-1 66:-0.999984 67:0.419323 68:-0.132439 69:0.420351 70:-0.128189 71:0.422659 72:-0.119838 73:-1 74:-0.991935 75:-1 76:-1 
8 1:0.344265 2:0.492252 3:0.216338 4:-0.105221 5:-0.0514431 6:-0.923746 7:-0.924975 8:-0.955186 9:-0.880667 10:-0.997081 11:-0.999978 12:-0.999992 13:-0.926893 14:-0.778692 15:0.28095 16:-0.961992 17:0.426951 18:-0.0728528 19:0.426951 20:-0.0730432 21:0.427064 22:-0.0683704 23:-1 24:-1 25:-1 26:-1 27:0.41772 28:-0.0723959 29:0.415362 30:-0.0723959 31:0.413244 32:-0.0727668 33:-1 34:-1 35:-1 36:-1 37:0.416555 38:-0.0775712 39:0.41395 40:-0.0776749 41:0.409855 42:-0.0778219 43:-1 44:-1 45:-1 46:-1 47:0.426806 48:-0.0833059 49:0.426806 50:-0.0832537 51:0.428152 52:-0.0785377 53:-1 54:-1 55:-1 56:-1 57:0.427151 58:-0.0825963 59:0.424974 60:-0.0825963 61:0.423079 62:-0.0837163 63:-1 64:-1 65:-1 66:-1 67:0.427506 68:-0.0876633 69:0.425085 70:-0.0878531 71:0.423915 72:-0.0840268 73:-1 74:-1 75:-1 76:-1 
8 1:0.412003 2:0.54004 3:0.101823 4:-0.105221 5:-0.0514431 6:-0.941146 7:-0.891239 8:-0.900302 9:-0.891977 10:-0.998777 11:-0.999949 12:-0.999989 13:-0.926893 14:-0.778692 15:0.28095 16:-0.889908 17:0.209851 18:-0.512993 19:0.211116 20:-0.505065 21:0.240112 22:-0.501523 23:-1 24:-0.97561 25:-1 26:-0.999413 27:0.199775 28:-0.507857 29:0.210671 30:-0.503983 31:0.225371 32:-0.503763 33:-0.991803 34:-0.991803 35:-1 36:-1 37:0.204144 38:-0.511072 39:0.214918 40:-0.507524 41:0.226906 42:-0.506867 43:-0.991803 44:-0.991935 45:-1 46:-1 47:0.221728 48:-0.514479 49:0.235801 50:-0.510762 51:0.252959 52:-0.510489 53:-0.991837 54:-0.991968 55:-1 56:-1 57:0.225663 58:-0.517046 59:0.229262 60:-0.51466 61:0.252181 62:-0.514192 63:-1 64:-0.983936 65:-1 66:-0.999936 67:0.236648 68:-0.518531 69:0.240967 70:-0.517439 71:0.25451 72:-0.517552 73:-1 74:-0.991935 75:-1 76:-1 
8 1:0.442697 2:0.507038 3:0.152593 4:-0.105221 5:-0.0514431 6:-0.954452 7:-0.910373 8:-0.894763 9:-0.826571 10:-0.995999 11:-0.995701 12:-0.996399 13:-0.926884 14:-0.778579 15:0.280958 16:-0.833552 17:0.191232 18:-0.520998 19:0.187625 20:-0.479012 21:0.219745 22:-0.471786 23:-0.97551 24:-0.96748 25:-0.998094 26:-0.99914 27:0.179562 28:-0.524297 29:0.172358 30:-0.48153 31:0.204728 32:-0.47406 33:-0.97541 34:-0.967213 35:-0.999264 36:-0.997904 37:0.183384 38:-0.516907 39:0.176786 40:-0.485149 41:0.206789 42:-0.477599 43:-0.983607 44:-0.967742 45:-0.999463 46:-0.996194 47:0.200874 48:-0.519792 49:0.202609 50:-0.483705 51:0.233327 52:-0.480965 53:-0.97551 54:-0.975904 55:-0.995545 56:-0.99991 57:0.205037 58:-0.522679 59:0.199203 60:-0.490522 61:0.232336 62:-0.484416 63:-0.983806 64:-0.967871 65:-0.999837 66:-0.996498 67:0.208318 68:-0.525223 69:0.20255 70:-0.493611 71:0.234929 72:-0.487906 73:-0.983122 74:-0.967742 75:-0.999501 76:-0.998296 
2.884386282811422 1:0.429104 2:0.561033 3:0.174921 4:-0.105221 5:-0.0514431 6:-0.930911 7:-0.886707 8:-0.892246 9:-0.634819 10:-0.954225 11:-0.954662 12:-0.928304 13:-0.923859 14:-0.764794 15:0.281595 16:-0.773263 17:0.177202 18:-0.534605 19:0.16796 20:-0.448665 21:0.199555 22:-0.443147 23:-0.942857 24:-0.96748 25:-0.999657 26:-0.9993 27:0.16435 28:-0.536917 29:0.151559 30:-0.450295 31:0.184401 32:-0.445586 33:-0.942623 34:-0.967213 35:-0.999789 36:-0.999157 37:0.167946 38:-0.539301 39:0.156142 40:-0.453898 41:0.185778 42:-0.448361 43:-0.942623 44:-0.967742 45:-0.999376 46:-0.999371 47:0.184902 48:-0.530717 49:0.178637 50:-0.457211 51:0.213278 52:-0.45193 53:-0.95102 54:-0.967871 55:-0.99936 56:-0.999469 57:0.18967 58:-0.534465 59:0.179583 60:-0.45964 61:0.212326 62:-0.455395 63:-0.959514 64:-0.967871 65:-0.999621 66:-0.997778 67:0.190488 68:-0.523598 69:0.183197 70:-0.462845 71:0.207578 72:-0.459695 73:-0.966245 74:-0.975806 75:-0.998362 76:-0.999557 
0.5314912657378437 1:0.656959 2:0.516197 3:0.444142 4:-0.105221 5:-0.0514431 6:-0.878199 7:-0.860524 8:-0.864048 9:-0.58541 10:-0.938033 11:-0.934516 12:-0.892607 13:-0.920189 14:-0.754449 15:0.282203 16:-0.74443 17:0.046954 18:-0.342015 19:0.0229229 20:-0.259435 21:0.0551484 22:-0.248995 23:-0.926531 24:-0.934959 25:-0.999645 26:-0.999105 27:0.0315994 28:-0.343337 29:0.00342041 30:-0.260389 31:0.0370321 32:-0.250608 33:-0.92623 34:-0.934426 35:-0.999794 36:-0.998686 37:0.0357725 38:-0.345331 39:0.00841607 40:-0.263266 41:0.040155 42:-0.254175 43:-0.92623 44:-0.935484 45:-0.9996 46:-0.999367 47:0.0570349 48:-0.348696 49:0.0343729 50:-0.265769 51:0.0724644 52:-0.257155 53:-0.926531 54:-0.935743 55:-0.999463 56:-0.999316 57:0.0613652 58:-0.357704 59:0.0352775 60:-0.267542 61:0.0660113 62:-0.260399 63:-0.919028 64:-0.943775 65:-0.999201 66:-0.999013 67:0.065311 68:-0.360032 69:0.0383135 70:-0.274113 71:0.0690542 72:-0.26313 73:-0.924051 74:-0.935484 75:-0.999143 76:-0.996685 
3.060768740384582 1:0.700453 2:0.546564 3:0.444322 4:-0.105221 5:-0.0514431 6:-0.877687 7:-0.851964 8:-0.862034 9:-0.581794 10:-0.936082 11:-0.936407 12:-0.895013 13:-0.920498 14:-0.754691 15:0.282051 16:-0.743119 17:0.0287756 18:-0.314531 19:0.00451808 20:-0.232492 21:0.0377397 22:-0.221728 23:-0.918367 24:-0.926829 25:-0.999832 26:-0.99881 27:0.0126497 28:-0.315231 29:-0.0154394 30:-0.233272 31:0.0205531 32:-0.224184 33:-0.918033 34:-0.92623 35:-0.999698 36:-0.999265 37:0.0185816 38:-0.325349 39:-0.0107251 40:-0.235703 41:0.0178516 42:-0.227248 43:-0.909836 44:-0.935484 45:-0.999609 46:-0.999636 47:0.0393281 48:-0.327634 49:0.0150074 50:-0.241941 51:0.0512876 52:-0.230449 53:-0.918367 54:-0.927711 55:-0.999655 56:-0.998113 57:0.0434311 58:-0.329333 59:0.0158732 60:-0.243593 61:0.0497365 62:-0.233009 63:-0.919028 64:-0.927711 65:-0.999811 66:-0.994295 67:0.0474458 68:-0.331567 69:0.0195625 70:-0.245552 71:0.0531766 72:-0.235871 73:-0.915612 74:-0.927419 75:-0.999844 76:-0.997848 
8 1:0.728442 2:0.562177 3:0.503494 4:-0.105221 5:-0.0514431 6:-0.872057 7:-0.837865 8:-0.868077 9:-0.563664 10:-0.928847 11:-0.92346 12:-0.867502 13:-0.916934 14:-0.746473 15:0.282536 16:-0.753604 17:0.0128807 18:-0.290548 19:-0.0122552 20:-0.204708 21:0.0227552 22:-0.194624 23:-0.902041 24:-0.918699 25:-0.999718 26:-0.998978 27:-0.00333466 28:-0.291372 29:-0.0322906 30:-0.205602 31:0.000149272 32:-0.196851 33:-0.901639 34:-0.92623 35:-0.999711 36:-0.999367 37:0.00143126 38:-0.293738 39:-0.0283565 40:-0.211115 41:0.00282304 42:-0.199703 43:-0.909836 44:-0.919355 45:-0.999701 46:-0.997701 47:0.0228035 48:-0.296234 49:-0.00155443 50:-0.213348 51:0.0367237 52:-0.20269 53:-0.910204 54:-0.919679 55:-0.999876 56:-0.998847 57:0.0273958 58:-0.30415 59:-0.00109693 60:-0.214466 61:0.0313795 62:-0.206069 63:-0.902834 64:-0.927711 65:-0.999631 66:-0.998529 67:0.031673 68:-0.306534 69:0.00227764 70:-0.220065 71:0.034493 72:-0.208471 73:-0.907173 74:-0.919355 75:-0.999654 76:-0.995639 
5.302571733754443 1:0.567562 2:0.59237 3:-0.0549768 4:-0.105221 5:-0.304958 6:-0.857216 7:-0.856999 8:-0.818731 9:-0.481492 10:-0.870725 11:-0.989926 12:-0.974465 13:-0.926585 14:-0.76996 15:0.280954 16:-0.811271 17:-0.0845749 18:-0.0914559 19:-0.059115 20:-0.0278192 21:-0.0631581 22:0.00311791 23:-0.64898 24:-0.837398 25:-0.9829 26:-0.993856 27:-0.102895 28:-0.0930844 29:-0.0851771 30:-0.0277114 31:-0.0852724 32:0.00232466 33:-0.647541 34:-0.836066 35:-0.994127 36:-0.998126 37:-0.0983454 38:-0.0960651 39:-0.0826182 40:-0.0310963 41:-0.0873334 42:-0.00068579 43:-0.655738 44:-0.83871 45:-0.993273 46:-0.997303 47:-0.0756407 48:-0.0992119 49:-0.0550724 50:-0.0334514 51:-0.0521027 52:-0.00279374 53:-0.657143 54:-0.839357 55:-0.988183 56:-0.998101 57:-0.0718225 58:-0.101268 59:-0.059199 60:-0.0350876 61:-0.0579757 62:-0.00584977 63:-0.668016 64:-0.839357 65:-0.996164 66:-0.998307 67:-0.0683316 68:-0.103774 69:-0.0537716 70:-0.0375972 71:-0.0559008 72:-0.00745975 73:-0.654008 74:-0.83871 75:-0.987314 76:-0.997484 
2.6005257471886 1:0.456885 2:0.611148 3:-0.0556508 4:-0.256772 5:-0.0514431 6:-0.87871 7:-0.768882 8:-0.817724 9:-0.540151 10:-0.910535 11:-0.979864 12:-0.977398 13:-0.92655 14:-0.773208 15:0.280794 16:-0.764089 17:-0.0798287 18:-0.0401041 19:-0.102782 20:-0.025511 21:-0.0532677 22:0.0556517 23:-0.959184 24:-0.504065 25:-0.997764 26:-0.999172 27:-0.0987324 28:-0.0408142 29:-0.126406 30:-0.0258393 31:-0.075349 32:0.0565142 33:-0.959016 34:-0.491803 35:-0.99866 36:-0.999537 37:-0.0942326 38:-0.0429605 39:-0.12308 40:-0.0288128 41:-0.0771277 42:0.0545209 43:-0.967213 44:-0.491935 45:-0.99843 46:-0.999547 47:-0.0718472 48:-0.0452893 49:-0.0951393 50:-0.032016 51:-0.0445188 52:0.0522954 53:-0.97551 54:-0.485944 55:-0.998329 56:-0.998837 57:-0.0682693 58:-0.0463418 59:-0.0963642 60:-0.0338921 61:-0.0496169 62:0.0503379 63:-0.983806 64:-0.477912 65:-0.999517 66:-0.996836 67:-0.0650472 68:-0.0479377 69:-0.0932163 70:-0.0354993 71:-0.0497083 72:0.048778 73:-0.991561 74:-0.475806 75:-1 76:-0.999337 
8 1:0.520174 2:0.652819 3:-0.0340453 4:-0.231917 5:-0.0514431 6:-0.882293 7:-0.850957 8:-0.865055 9:-0.906186 10:-0.999875 11:-0.999887 12:-0.999997 13:-0.926893 14:-0.778693 15:0.28095 16:-0.954128 17:-0.0693547 18:-0.0083551 19:-0.0760211 20:-0.00632763 21:-0.0828438 22:-0.00342918 23:-1 24:-0.99187 25:-1 26:-1 27:-0.091282 28:-0.00991432 29:-0.0933475 30:-0.00885777 31:-0.106031 32:-0.00405515 33:-1 34:-0.983607 35:-1 36:-0.99999 37:-0.0877372 38:-0.0102623 39:-0.097302 40:-0.00834647 41:-0.107693 42:-0.00679404 43:-1 44:-1 45:-1 46:-1 47:-0.0671391 48:-0.0121337 49:-0.0709762 50:-0.0101521 51:-0.0735049 52:-0.00860177 53:-1 54:-1 55:-1 56:-1 57:-0.0658738 58:-0.0124923 59:-0.0726168 60:-0.0107122 61:-0.0777252 62:-0.0102548 63:-1 64:-1 65:-1 66:-1 67:-0.0636277 68:-0.013661 69:-0.0715307 70:-0.0119175 71:-0.0772948 72:-0.0115356 73:-1 74:-1 75:-1 76:-1 
5.902486847988095 1:0.520174 2:0.652819 3:-0.0340453 4:-0.105221 5:-0.0514431 6:-0.860287 7:-0.888721 8:-0.847936 9:-0.468196 10:-0.865235 11:-0.998881 12:-0.999343 13:-0.926893 14:-0.778712 15:0.280951 16:-0.809961 17:-0.0998192 18:0.0105686 19:-0.0335967 20:0.0708322 21:-0.031652 22:0.0830798 23:-0.771429 24:-0.95935 25:-0.996496 26:-0.997969 27:-0.114083 28:0.00646705 29:-0.122164 30:0.0124551 31:-0.0548077 32:0.0836074 33:-0.97541 34:-0.713115 35:-0.999399 36:-0.995826 37:-0.10919 38:0.0036633 39:-0.118112 40:0.0119974 41:-0.0566198 42:0.0830868 43:-0.95082 44:-0.693548 45:-0.997006 46:-0.995321 47:-0.088706 48:0.00194675 49:-0.0906369 50:0.0102979 51:-0.0250348 52:0.0804087 53:-0.95102 54:-0.670683 55:-0.996128 56:-0.997055 57:-0.0845844 58:0.000229914 59:-0.0928061 60:0.00876674 61:-0.0303328 62:0.0798674 63:-0.951417 64:-0.646586 65:-0.995658 66:-0.990167 67:-0.0828378 68:-0.000730431 69:-0.0916546 70:0.00533447 71:-0.031849 72:0.0776174 73:-0.966245 74:-0.629032 75:-0.999031 76:-0.995265 
4.718216589847239 1:0.465772 2:0.720272 3:-0.0364165 4:-0.257285 5:-0.0514431 6:-0.872057 7:-0.855488 8:-0.878651 9:-0.904508 10:-0.999745 11:-0.999955 12:-0.999999 13:-0.926893 14:-0.778693 15:0.28095 16:-0.947575 17:-0.0655612 18:0.00517684 19:-0.073448 20:0.00811758 21:-0.0728715 22:0.0132807 23:-0.991837 24:-0.97561 25:-1 26:-0.999857 27:-0.0845577 28:0.00458703 29:-0.0973471 30:0.00777852 31:-0.0966596 32:0.0126445 33:-0.991803 34:-0.97541 35:-1 36:-0.999908 37:-0.0815277 38:0.00288625 39:-0.0947024 40:0.00603892 41:-0.0984155 42:0.0110908 43:-0.991803 44:-0.975806 45:-1 46:-0.999833 47:-0.0599585 48:0.000822453 49:-0.0681725 50:0.00418661 51:-0.065647 52:0.00792612 53:-0.991837 54:-0.983936 55:-1 56:-0.99988 57:-0.0574535 58:0.00023038 59:-0.0701982 60:0.00364845 61:-0.0709961 62:0.00499673 63:-0.991903 64:-0.991968 65:-1 66:-1 67:-0.0552737 68:-0.000999831 69:-0.067859 70:0.00226095 71:-0.0712085 72:0.00374449 73:-0.991561 74:-0.991935 75:-1 76:-1 
8 1:0.465772 2:0.720272 3:-0.0364165 4:-0.105221 5:-0.0514431 6:-0.845445 7:-0.831319 8:-0.842397 9:-0.469584 10:-0.863976 11:-0.998161 12:-0.995481 13:-0.926883 14:-0.777108 15:0.280951 16:-0.832241 17:-0.093823 18:0.0269168 19:-0.0415934 20:0.0621869 21:-0.0192595 22:0.0906129 23:-0.893878 24:-0.918699 25:-0.99757 26:-0.994301 27:-0.113324 28:0.0264975 29:-0.0412137 30:0.0848259 31:-0.0415842 32:0.0913134 33:-0.819672 34:-0.983607 35:-0.99908 36:-0.999927 37:-0.110465 38:0.0237607 39:-0.0664436 40:0.060048 41:-0.0435093 42:0.0907499 43:-0.885246 44:-0.91129 45:-0.998831 46:-0.996978 47:-0.0885825 48:0.0218854 49:-0.0381781 50:0.0583493 51:-0.0125147 52:0.0898405 53:-0.885714 54:-0.903614 55:-0.996338 56:-0.989693 57:-0.0862746 58:0.0214926 59:-0.018455 60:0.0816565 61:-0.0180411 62:0.0892014 63:-0.805668 64:-0.975904 65:-0.997875 66:-0.994053 67:-0.0838759 68:0.0192659 69:-0.0189556 70:0.079056 71:-0.0202116 72:0.0865896 73:-0.78903 74:-0.975806 75:-0.997813 76:-0.996634 
8 1:0.506096 2:0.763903 3:-0.111139 4:-0.105221 5:-0.0514431 6:-0.879734 7:-0.849446 8:-0.870594 9:-0.781327 10:-0.980682 11:-0.999844 12:-0.999764 13:-0.926893 14:-0.778664 15:0.28095 16:-0.923984 17:-0.00529908 18:0.0838454 19:-0.00905289 20:0.0846649 21:0.00983812 22:0.0995089 23:-1 24:-0.97561 25:-1 26:-0.998846 27:-0.0278644 28:0.0834111 29:-0.033377 30:0.0850232 31:-0.0135391 32:0.0997375 33:-1 34:-0.97541 35:-1 36:-0.998589 37:-0.0297108 38:0.0817647 39:-0.008677 40:0.0970551 41:-0.0157314 42:0.0991094 43:-0.97541 44:-1 45:-0.999944 46:-1 47:-0.011617 48:0.080431 49:0.0140716 50:0.096002 51:0.0174854 52:0.101406 53:-0.97551 54:-0.991968 55:-0.999651 56:-1 57:-0.012299 58:0.0804079 59:0.0108891 60:0.0962618 61:0.0110955 62:0.100468 63:-0.975709 64:-0.991968 65:-0.999521 66:-1 67:-0.0117965 68:0.0800023 69:0.0115243 70:0.0958555 71:0.0106799 72:0.100368 73:-0.974684 74:-0.991935 75:-0.99993 76:-1 
4.471273102725235 1:0.453447 2:0.822606 3:-0.093277 4:-0.105221 5:-0.0514431 6:-0.885875 7:-0.866566 8:-0.890232 9:-0.826641 10:-0.98931 11:-0.99996 12:-0.999988 13:-0.926893 14:-0.778694 15:0.28095 16:-0.930537 17:0.0120493 18:0.0884705 19:0.0105634 20:0.0900513 21:0.0283357 22:0.1028 23:-1 24:-0.98374 25:-1 26:-0.999537 27:-0.00712423 28:0.0888633 29:-0.00761801 30:0.0941474 31:0.00530155 32:0.103045 33:-0.991803 34:-0.991803 35:-1 36:-1 37:-0.0044422 38:0.0884469 39:-0.0117137 40:0.0897399 41:0.00304933 42:0.10242 43:-1 44:-0.983871 45:-1 46:-0.999999 47:0.0142662 48:0.0874356 49:0.00992076 50:0.0883948 51:0.0311848 52:0.101132 53:-1 54:-0.983936 55:-1 56:-0.999964 57:0.0110607 58:0.0888491 59:0.0205072 60:0.0969541 61:0.0255484 62:0.10045 63:-1 64:-1 65:-1 66:-1 67:0.0159346 68:0.0875972 69:0.00818046 70:0.0885332 71:0.0240602 72:0.100048 73:-1 74:-0.991935 75:-1 76:-1 
3.185171866440238 1:0.498259 2:0.858395 3:-0.106288 4:-0.0673031 5:-0.0514431 6:-0.878199 7:-0.881672 8:-0.928499 9:-0.815632 10:-0.987939 11:-0.999753 12:-0.999855 13:-0.926893 14:-0.778688 15:0.28095 16:-0.938401 17:0.0288297 18:0.0906736 19:0.0309881 20:0.0933586 21:0.0485535 22:0.103808 23:-1 24:-0.99187 25:-1 26:-1 27:0.0103531 28:0.0911954 29:0.00705257 30:0.093643 31:0.02574 32:0.10404 33:-1 34:-0.991803 35:-1 36:-1 37:0.0110697 38:0.092549 39:0.0150792 40:0.0970045 41:0.0226508 42:0.103215 43:-1 44:-1 45:-1 46:-1 47:0.0285599 48:0.0913038 49:0.0342128 50:0.0951643 51:0.0500386 52:0.101944 53:-1 54:-1 55:-1 56:-1 57:0.028789 58:0.0915918 59:0.045098 60:0.101805 61:0.0443597 62:0.103697 63:-0.991903 64:-1 65:-1 66:-1 67:0.0298958 68:0.0914209 69:0.0432019 70:0.100744 71:0.0428814 72:0.103333 73:-0.991561 74:-1 75:-1 76:-1 
8 1:0.48737 2:0.878939 3:-0.0248374 4:-0.0635919 5:-0.0514431 6:-0.885875 7:-0.887714 8:-0.887714 9:-0.871769 10:-0.996072 11:-0.999923 12:-0.999964 13:-0.926893 14:-0.778691 15:0.28095 16:-0.954128 17:0.0514336 18:0.0940859 19:0.0514336 20:0.093925 21:0.0480613 22:0.093842 23:-1 24:-1 25:-1 26:-1 27:0.0318715 28:0.0942681 29:0.0279509 30:0.0942681 31:0.0245356 32:0.0939548 33:-1 34:-1 35:-1 36:-1 37:0.0312053 38:0.0930806 39:0.0268798 40:0.0929933 41:0.0310009 42:0.0980224 43:-1 44:-1 45:-1 46:-1 47:0.0474778 48:0.0916756 49:0.0474778 50:0.0917194 51:0.0519355 52:0.0951932 53:-1 54:-1 55:-1 56:-1 57:0.0512192 58:0.0953025 59:0.0476138 60:0.0953025 61:0.0647813 62:0.101958 63:-1 64:-1 65:-1 66:-1 67:0.049739 68:0.0944891 69:0.0457209 70:0.0943311 71:0.0610564 72:0.101041 73:-1 74:-1 75:-1 76:-1 
6.503846164179694 1:0.407307 2:0.908081 3:-0.253892 4:-0.105221 5:-0.0514431 6:-0.947799 7:-0.73565 8:-0.956697 9:-0.896287 10:-0.999787 11:-0.99976 12:-0.999989 13:-0.926893 14:-0.778693 15:0.28095 16:-0.85059 17:0.107363 18:0.0611641 19:0.0755823 20:0.0669475 21:0.0941766 22:0.0808051 23:-0.97551 24:-0.97561 25:-0.997851 26:-0.998439 27:0.0886559 28:0.0616632 29:0.0546984 30:0.0653855 31:0.0714121 32:0.0810719 33:-0.983607 34:-0.967213 35:-0.999982 36:-0.995071 37:0.0882471 38:0.0609821 39:0.0542157 40:0.0670235 41:0.0685348 42:0.0805134 43:-0.97541 44:-0.975806 45:-0.990761 46:-0.999341 47:0.10522 48:0.0601958 49:0.0774733 50:0.061661 51:0.0935635 52:0.0819831 53:-0.991837 54:-0.951807 55:-1 56:-0.992331 57:0.101031 58:0.0525083 59:0.0716273 60:0.0691007 61:0.086955 62:0.0812396 63:-0.959514 64:-0.975904 65:-0.975783 66:-0.996278 67:0.10049 68:0.052391 69:0.0714434 70:0.0687824 71:0.0864536 72:0.0812403 73:-0.957806 74:-0.975806 75:-0.975277 76:-0.997813 
6.636016798676825 1:0.359473 2:0.245863 3:-0.472367 4:0.0694273 5:-0.160068 6:-0.883828 7:-0.857503 8:-0.89577 9:0.187941 10:-0.29667 11:-0.989397 12:-0.971771 13:-0.926526 14:-0.756144 15:0.28095 16:-0.571429 17:0.0933495 18:-0.288212 19:0.209217 20:-0.131344 21:0.234373 22:-0.0779558 23:-0.591837 24:-0.894309 25:-0.98764 26:-0.994088 27:0.080351 28:-0.285106 29:0.193215 30:-0.13102 31:0.220729 32:-0.0742447 33:-0.598361 34:-0.885246 35:-0.99072 36:-0.993955 37:0.0858601 38:-0.28274 39:0.198711 40:-0.128843 41:0.223327 42:-0.0751672 43:-0.598361 44:-0.895161 45:-0.988357 46:-0.995634 47:0.106409 48:-0.280477 49:0.22205 50:-0.126892 51:0.251116 52:-0.0727215 53:-0.6 54:-0.895582 55:-0.982977 56:-0.994748 57:0.111239 58:-0.277186 59:0.226379 60:-0.120252 61:0.251644 62:-0.0699893 63:-0.595142 64:-0.911647 65:-0.985369 66:-0.992605 67:0.116064 68:-0.274569 69:0.229153 70:-0.120962 71:0.256053 72:-0.0669859 73:-0.586498 74:-0.903226 75:-0.984642 76:-0.992513 
2.132498919652332 1:0.284898 2:0.181575 3:-0.594803 4:-0.105221 5:-0.168761 6:-0.849539 7:-0.919436 8:0.967271 9:0.116346 10:-0.382547 11:-0.77718 12:-0.415489 13:-0.768348 14:-0.340987 15:0.281575 16:-0.508519 17:0.0698684 18:-0.316752 19:0.207532 20:-0.111958 21:0.202458 22:-0.0932124 23:-0.485714 24:-0.96748 25:-0.962988 26:-0.991938 27:0.0559181 28:-0.312938 29:0.19634 30:-0.109101 31:0.184615 32:-0.0926137 33:-0.483607 34:-0.97541 35:-0.959109 36:-0.992353 37:0.0610367 38:-0.309908 39:0.198201 40:-0.11342 41:0.187529 42:-0.0901746 43:-0.516393 44:-0.959677 45:-0.942879 46:-0.994637 47:0.0798366 48:-0.310958 49:0.220655 50:-0.111175 51:0.21578 52:-0.0879447 53:-0.518367 54:-0.959839 55:-0.932646 56:-0.996073 57:0.0846733 58:-0.307421 59:0.225661 60:-0.104704 61:0.215842 62:-0.0855126 63:-0.51417 64:-0.967871 65:-0.93104 66:-0.960198 67:0.0888966 68:-0.303974 69:0.227974 70:-0.105221 71:0.220033 72:-0.0828633 73:-0.510549 74:-0.959677 75:-0.933928 76:-0.988115 
1.935392960655035 1:0.361415 2:0.173693 3:-0.493648 4:0.154078 5:-0.0514431 6:-0.884852 7:-0.887714 8:-0.902316 9:0.196632 10:-0.314217 11:-0.49717 12:0.121624 13:-0.294214 14:0.0917977 15:0.311873 16:-0.470511 17:0.0203641 18:-0.41452 19:0.10052 20:-0.182805 21:0.14419 22:-0.188198 23:-0.608163 24:-0.96748 25:-0.999401 26:-0.998096 27:0.00547668 28:-0.408787 29:0.0849511 30:-0.176796 31:0.127857 32:-0.184975 33:-0.598361 34:-0.97541 35:-0.999363 36:-0.999367 37:0.00796342 38:-0.408501 39:0.0894019 40:-0.174807 41:0.130841 42:-0.183184 43:-0.590164 44:-0.975806 45:-0.999292 46:-0.999637 47:0.0299271 48:-0.403963 49:0.113101 50:-0.172674 51:0.159196 52:-0.18071 53:-0.591837 54:-0.975904 55:-0.998883 56:-0.999849 57:0.0316517 58:-0.402642 59:0.1145 60:-0.169913 61:0.139495 62:-0.173544 63:-0.587045 64:-0.983936 65:-0.999106 66:-0.998984 67:0.0360182 68:-0.397351 69:0.11827 70:-0.167641 71:0.140599 72:-0.170443 73:-0.56962 74:-0.983871 75:-0.999295 76:-0.999975 
8 1:0.233686 2:0.118145 3:-0.526303 4:-0.105221 5:-0.178143 6:-0.879222 7:-0.935045 8:-0.869587 9:-0.832717 10:-0.994358 11:-0.999666 12:-0.999987 13:-0.926893 14:-0.778693 15:0.28095 16:-0.844037 17:0.314984 18:-0.266615 19:0.318233 20:-0.23042 21:0.334941 22:-0.217336 23:-0.95102 24:-0.97561 25:-0.948371 26:-0.951888 27:0.303428 28:-0.26672 29:0.334991 30:-0.243223 31:0.319147 32:-0.216694 33:-0.959016 34:-0.97541 35:-0.956357 36:-0.991075 37:0.307273 38:-0.268381 39:0.336488 40:-0.24961 41:0.315992 42:-0.221529 43:-0.967213 44:-0.975806 45:-0.971906 46:-0.997591 47:0.321882 48:-0.269964 49:0.352138 50:-0.250388 51:0.339365 52:-0.223389 53:-0.97551 54:-0.975904 55:-0.990698 56:-0.994543 57:0.321141 58:-0.274274 59:0.350724 60:-0.255669 61:0.334094 62:-0.228444 63:-0.967611 64:-0.975904 65:-0.955204 66:-0.9996 67:0.31934 68:-0.278754 69:0.351026 70:-0.255963 71:0.334741 72:-0.229183 73:-0.957806 74:-0.975806 75:-0.952815 76:-0.992239 
8 1:0.227147 2:0.157325 3:-0.497487 4:-0.105221 5:-0.142451 6:-0.948823 7:-0.867573 8:-0.837362 9:-0.548955 10:-0.91609 11:-0.993796 12:-0.995567 13:-0.926883 14:-0.778441 15:0.28097 16:-0.749672 17:0.311644 18:-0.311468 19:0.311529 20:-0.207153 21:0.344108 22:-0.194835 23:-0.869388 24:-0.96748 25:-0.958569 26:-0.992554 27:0.313364 28:-0.288942 29:0.287233 30:-0.271325 31:0.317599 32:-0.195521 33:-1 34:-0.885246 35:-1 36:-0.957597 37:0.316391 38:-0.290289 39:0.299158 40:-0.212837 41:0.323857 42:-0.198457 43:-0.92623 44:-0.967742 45:-0.984357 46:-0.995625 47:0.327882 48:-0.296316 49:0.31398 50:-0.254913 51:0.335213 52:-0.20099 53:-0.983673 54:-0.911647 55:-0.994998 56:-0.981705 57:0.330412 58:-0.296706 59:0.314635 60:-0.218383 61:0.338829 62:-0.204075 63:-0.919028 64:-0.967871 65:-0.983821 66:-0.923376 67:0.332633 68:-0.297642 69:0.315124 70:-0.218647 71:0.346415 72:-0.207318 73:-0.907173 74:-0.967742 75:-0.974129 76:-0.991913 
8 1:0.347485 2:0.18129 3:-0.400545 4:-0.105221 5:0.330436 6:-0.944217 7:-0.898792 8:-0.917925 9:-0.894121 10:-0.998779 11:-0.999999 12:-1 13:-0.926893 14:-0.778693 15:0.28095 16:-0.875491 17:-0.620993 18:-0.416145 19:-0.590271 20:-0.410908 21:-0.588088 22:-0.417376 23:-0.97551 24:-0.99187 25:-0.999801 26:-1 27:-0.650751 28:-0.419047 29:-0.631902 30:-0.412797 31:-0.621061 32:-0.417384 33:-0.983607 34:-0.983607 35:-0.999979 36:-0.999688 37:-0.637345 38:-0.419656 39:-0.627599 40:-0.415378 41:-0.621272 42:-0.418261 43:-0.991803 44:-0.983871 45:-1 46:-0.999239 47:-0.604327 48:-0.422008 49:-0.581545 50:-0.417896 51:-0.570742 52:-0.420479 53:-0.983673 54:-0.991968 55:-0.999926 56:-1 57:-0.601342 58:-0.42463 59:-0.583566 60:-0.419314 61:-0.576756 62:-0.42187 63:-0.983806 64:-0.991968 65:-0.999992 66:-1 67:-0.588972 68:-0.42485 69:-0.573566 70:-0.421551 71:-0.575715 72:-0.423677 73:-0.983122 74:-1 75:-0.999996 76:-1 
2.435070626251987 1:0.347485 2:0.18129 3:-0.400545 4:-0.105221 5:0.442675 6:-0.928352 7:-0.922961 8:-0.857503 9:-0.500527 10:-0.905365 11:-0.853827 12:-0.708862 13:-0.881878 14:-0.695813 15:0.285474 16:-0.609436 17:0.0705141 18:-0.502786 19:0.0590602 20:-0.409577 21:0.107585 22:-0.401439 23:-0.959184 24:-0.934959 25:-0.99996 26:-0.998353 27:0.0546196 28:-0.51476 29:0.0402766 30:-0.403035 31:0.0851513 32:-0.398065 33:-0.95082 34:-0.942623 35:-0.998409 36:-0.999896 37:0.0583815 38:-0.528647 39:0.0407631 40:-0.401169 41:0.0812825 42:-0.395163 43:-0.934426 44:-0.943548 45:-0.997726 46:-0.999516 47:0.0741369 48:-0.52476 49:0.0615045 50:-0.39856 51:0.112875 52:-0.392244 53:-0.934694 54:-0.935743 55:-0.999182 56:-0.999491 57:0.0768448 58:-0.537523 59:0.0581689 60:-0.395606 61:0.105912 62:-0.389472 63:-0.927126 64:-0.935743 65:-0.999794 66:-0.997281 67:0.0770849 68:-0.534611 69:0.0621248 70:-0.390995 71:0.103353 72:-0.386909 73:-0.924051 74:-0.943548 75:-0.996637 76:-0.999468 
8 1:0.352458 2:0.184782 3:-0.381841 4:-0.105221 5:0.305331 6:-0.928352 7:-0.880161 8:-0.894763 9:-0.878432 10:-0.997936 11:-0.999692 12:-0.999883 13:-0.926893 14:-0.778694 15:0.28095 16:-0.863696 17:-0.616465 18:-0.395168 19:-0.588467 20:-0.392661 21:-0.588755 22:-0.401723 23:-0.97551 24:-0.99187 25:-0.99965 26:-1 27:-0.645952 28:-0.3977 29:-0.622853 30:-0.393676 31:-0.622142 32:-0.402211 33:-0.97541 34:-0.991803 35:-0.999893 36:-1 37:-0.64186 38:-0.401081 39:-0.624567 40:-0.39566 41:-0.621855 42:-0.402436 43:-0.983607 44:-0.983871 45:-0.999889 46:-0.999962 47:-0.609216 48:-0.403898 49:-0.578594 50:-0.397912 51:-0.568051 52:-0.408462 53:-0.97551 54:-0.983936 55:-0.99924 56:-0.999384 57:-0.606139 58:-0.406259 59:-0.575268 60:-0.400365 61:-0.574217 62:-0.41004 63:-0.967611 64:-0.991968 65:-0.998602 66:-1 67:-0.594427 68:-0.407238 69:-0.577815 70:-0.402427 71:-0.572554 72:-0.410965 73:-0.983122 74:-0.983871 75:-0.999984 76:-0.999303 
6.223573135986544 1:0.329483 2:0.139619 3:-0.446934 4:-0.105221 5:0.382137 6:-0.933982 7:-0.897784 8:-0.888721 9:-0.874184 10:-0.998224 11:-0.99913 12:-0.999747 13:-0.926893 14:-0.778701 15:0.28095 16:-0.840105 17:-0.628407 18:-0.378964 19:-0.596475 20:-0.372416 21:-0.593675 22:-0.377059 23:-0.97551 24:-0.99187 25:-0.999724 26:-1 27:-0.648684 28:-0.378473 29:-0.631391 30:-0.37372 31:-0.624835 32:-0.382166 33:-0.983607 34:-0.983607 35:-0.999937 36:-0.99984 37:-0.644809 38:-0.381944 39:-0.62108 40:-0.376492 41:-0.625201 42:-0.383177 43:-0.97541 44:-0.991935 45:-0.999495 46:-1 47:-0.613429 48:-0.386119 49:-0.581795 50:-0.379062 51:-0.570869 52:-0.388273 53:-0.97551 54:-0.983936 55:-0.999723 56:-0.99994 57:-0.61063 58:-0.388648 59:-0.583774 60:-0.380236 61:-0.577017 62:-0.389751 63:-0.975709 64:-0.983936 65:-0.999635 66:-0.999984 67:-0.607327 68:-0.391639 69:-0.574727 70:-0.383165 71:-0.572651 72:-0.394967 73:-0.966245 74:-0.983871 75:-0.99872 76:-0.998894 
7.329113882278964 1:0.329483 2:0.139619 3:-0.446934 4:-0.105221 5:-0.0514431 6:-0.851586 7:-0.859517 8:-0.860524 9:-0.88555 10:-0.998076 11:-0.999995 12:-0.999997 13:-0.926893 14:-0.778693 15:0.28095 16:-0.748362 17:0.09339 18:-0.47431 19:0.110897 20:-0.469434 21:0.141337 22:-0.465443 23:-0.983673 24:-0.97561 25:-0.999996 26:-0.999964 27:0.0751282 28:-0.471136 29:0.0893149 30:-0.466272 31:0.126367 32:-0.460954 33:-0.983607 34:-0.97541 35:-0.999888 36:-0.999949 37:0.0754153 38:-0.468429 39:0.0948416 40:-0.461955 41:0.12217 42:-0.457647 43:-0.97541 44:-0.975806 45:-0.999754 46:-0.999993 47:0.0914016 48:-0.46612 49:0.114643 50:-0.460088 51:0.147067 52:-0.4561 53:-0.97551 54:-0.983936 55:-0.999548 56:-0.999994 57:0.0913773 58:-0.462847 59:0.116527 60:-0.455018 61:0.140479 62:-0.453543 63:-0.967611 64:-0.983936 65:-0.999411 66:-0.999378 67:0.0913489 68:-0.460159 69:0.097877 70:-0.456122 71:0.137779 72:-0.450832 73:-0.991561 74:-0.967742 75:-1 76:-0.999993 
8 1:0.207916 2:0.122168 3:-0.568503 4:-0.105221 5:0.258679 6:-0.967247 7:-0.873112 8:-0.884693 9:-0.854559 10:-0.997538 11:-0.99806 12:-0.998466 13:-0.926892 14:-0.778668 15:0.280948 16:-0.846658 17:-0.619476 18:-0.355785 19:-0.593162 20:-0.354741 21:-0.587561 22:-0.377091 23:-0.97551 24:-0.99187 25:-0.999542 26:-1 27:-0.649096 28:-0.358067 29:-0.622785 30:-0.35705 31:-0.618311 32:-0.381855 33:-0.967213 34:-0.991803 35:-0.999611 36:-1 37:-0.644699 38:-0.360842 39:-0.622831 40:-0.35729 41:-0.619246 42:-0.383557 43:-0.97541 44:-0.983871 45:-0.999791 46:-0.998784 47:-0.613774 48:-0.365306 49:-0.578594 50:-0.361071 51:-0.567815 52:-0.384428 53:-0.967347 54:-0.991968 55:-0.998331 56:-1 57:-0.61042 58:-0.367077 59:-0.580355 60:-0.361916 61:-0.573817 62:-0.385729 63:-0.967611 64:-0.991968 65:-0.998621 66:-1 67:-0.607529 68:-0.370341 69:-0.57661 70:-0.363729 71:-0.572199 72:-0.386655 73:-0.966245 74:-0.991935 75:-0.998985 76:-1 
3.953857339026317 1:0.207916 2:0.122168 3:-0.568503 4:0.454079 5:-0.479773 6:-0.825486 7:-0.860524 8:-0.86858 9:-0.893143 10:-0.998754 11:-0.999997 12:-0.999997 13:-0.926893 14:-0.778693 15:0.28095 16:-0.769332 17:0.116555 18:-0.506578 19:0.141564 20:-0.49964 21:0.165939 22:-0.494713 23:-0.97551 24:-0.97561 25:-0.999561 26:-0.999995 27:0.097967 28:-0.502506 29:0.113605 30:-0.497595 31:0.144798 32:-0.491482 33:-0.983607 34:-0.967213 35:-1 36:-0.999906 37:0.104253 38:-0.49795 39:0.126451 40:-0.492306 41:0.141548 42:-0.489259 43:-0.97541 44:-0.983871 45:-0.999987 46:-0.99998 47:0.119361 48:-0.495395 49:0.144991 50:-0.489963 51:0.164981 52:-0.486694 53:-0.97551 54:-0.983936 55:-0.99994 56:-0.999996 57:0.125476 58:-0.490867 59:0.141209 60:-0.486738 61:0.158879 62:-0.484639 63:-0.983806 64:-0.983936 65:-0.999986 66:-0.999968 67:0.113394 68:-0.491705 69:0.133805 70:-0.485451 71:0.156142 72:-0.481924 73:-0.991561 74:-0.975806 75:-1 76:-0.999989 
8 1:0.327709 2:0.0665598 3:-0.503686 4:-0.105221 5:0.238452 6:-0.925793 7:-0.880161 8:-0.898792 9:-0.835705 10:-0.995457 11:-0.996936 12:-0.996859 13:-0.926886 14:-0.778525 15:0.280946 16:-0.842726 17:-0.612851 18:-0.336148 19:-0.594549 20:-0.336583 21:-0.582233 22:-0.370631 23:-0.983673 24:-0.96748 25:-0.999706 26:-0.999991 27:-0.64213 28:-0.33808 29:-0.624335 30:-0.338793 31:-0.615228 32:-0.370723 33:-0.97541 34:-0.967213 35:-0.998687 36:-0.999871 37:-0.638565 38:-0.341549 39:-0.619683 40:-0.340631 41:-0.616021 42:-0.372222 43:-0.97541 44:-0.975806 45:-0.999929 46:-0.999995 47:-0.606723 48:-0.344813 49:-0.579888 50:-0.342429 51:-0.565496 52:-0.374071 53:-0.97551 54:-0.975904 55:-0.999511 56:-0.99997 57:-0.60369 58:-0.346779 59:-0.581577 60:-0.343114 61:-0.571203 62:-0.374993 63:-0.975709 64:-0.975904 65:-0.999874 66:-0.999255 67:-0.600495 68:-0.34957 69:-0.573775 70:-0.346932 71:-0.569684 72:-0.37601 73:-0.966245 74:-0.983871 75:-0.99879 76:-0.999764 
8 1:0.34375 2:0.0673767 3:-0.594839 4:-0.105221 5:0.223332 6:-0.952405 7:-0.869587 8:-0.89577 9:-0.768274 10:-0.980774 11:-0.994837 12:-0.992582 13:-0.926859 14:-0.777772 15:0.280944 16:-0.862385 17:-0.612782 18:-0.31786 19:-0.594375 20:-0.317991 21:-0.578536 22:-0.366149 23:-0.991837 24:-0.95935 25:-1 26:-0.999817 27:-0.641742 28:-0.319355 29:-0.625398 30:-0.321194 31:-0.611711 32:-0.366535 33:-0.983607 34:-0.967213 35:-0.999852 36:-0.999989 37:-0.629831 38:-0.320749 39:-0.620551 40:-0.322769 41:-0.611629 42:-0.366981 43:-0.983607 44:-0.959677 45:-0.997813 46:-0.99952 47:-0.591887 48:-0.323738 49:-0.57763 50:-0.327397 51:-0.561053 52:-0.368584 53:-0.983673 54:-0.959839 55:-0.999831 56:-0.999645 57:-0.588642 58:-0.325358 59:-0.578965 60:-0.327655 61:-0.566126 62:-0.368731 63:-0.983806 64:-0.959839 65:-0.99904 66:-0.999584 67:-0.584806 68:-0.327362 69:-0.574759 70:-0.32882 71:-0.564338 72:-0.369391 73:-0.983122 74:-0.959677 75:-0.999543 76:-0.999866 
8 1:0.319 2:-0.0192731 3:-0.578072 4:-0.105221 5:0.22161 6:-0.90174 7:-0.903827 8:-0.918429 9:-0.590861 10:-0.921844 11:-0.998318 12:-0.996755 13:-0.926887 14:-0.777832 15:0.28095 16:-0.837484 17:-0.599924 18:-0.278688 19:-0.592876 20:-0.288401 21:-0.571209 22:-0.350329 23:-0.983673 24:-0.918699 25:-0.998666 26:-0.999604 27:-0.628128 28:-0.279502 29:-0.628228 30:-0.284353 31:-0.604 32:-0.350398 33:-0.991803 34:-0.909836 35:-1 36:-0.999363 37:-0.624819 38:-0.282709 39:-0.622927 40:-0.285408 41:-0.60466 42:-0.351693 43:-0.991803 44:-0.91129 45:-1 46:-0.998434 47:-0.586468 48:-0.284861 49:-0.575435 50:-0.301671 51:-0.553337 52:-0.352085 53:-0.967347 54:-0.935743 55:-0.998637 56:-0.999335 57:-0.583876 58:-0.286798 59:-0.582068 60:-0.290372 61:-0.559184 62:-0.353185 63:-0.991903 64:-0.927711 65:-1 66:-0.996878 67:-0.574362 68:-0.288735 69:-0.574054 70:-0.29878 71:-0.554966 72:-0.357785 73:-0.983122 74:-0.935484 75:-0.999641 76:-0.999144 
4.12999182821268 1:0.319 2:-0.0192731 3:-0.578072 4:-0.105221 5:-0.0514431 6:-0.882805 7:-0.897784 8:-0.897784 9:-0.888948 10:-0.9983 11:-0.999992 12:-0.999999 13:-0.926893 14:-0.778693 15:0.28095 16:-0.756225 17:0.278742 18:-0.602069 19:0.300049 20:-0.592516 21:0.321034 22:-0.584711 23:-0.983673 24:-0.98374 25:-0.999709 26:-0.999963 27:0.256389 28:-0.603074 29:0.281532 30:-0.58928 31:0.302334 32:-0.581495 33:-0.97541 34:-0.983607 35:-0.999526 36:-0.999989 37:0.255127 38:-0.600297 39:0.272855 40:-0.590356 41:0.299377 42:-0.580202 43:-0.983607 44:-0.975806 45:-0.99991 46:-0.999979 47:0.266284 48:-0.597598 49:0.27984 50:-0.590818 51:0.30942 52:-0.580228 53:-0.991837 54:-0.975904 55:-1 56:-0.999984 57:0.258887 58:-0.598463 59:0.275957 60:-0.588056 61:0.30374 62:-0.578688 63:-0.983806 64:-0.975904 65:-0.999976 66:-0.99969 67:0.257046 68:-0.595182 69:0.274232 70:-0.585865 71:0.301045 72:-0.576959 73:-0.983122 74:-0.975806 75:-0.999894 76:-0.999996 
3.570230044926574 1:0.333614 2:-0.0391537 3:-0.515061 4:-0.105221 5:-0.0514431 6:-0.918628 7:-0.88721 8:-0.927996 9:-0.892024 10:-0.99861 11:-0.999993 12:-0.999999 13:-0.926893 14:-0.778693 15:0.28095 16:-0.752294 17:0.326433 18:-0.620962 19:0.347251 20:-0.60917 21:0.376956 22:-0.597004 23:-0.983673 24:-0.97561 25:-0.999411 26:-0.999974 27:0.311165 28:-0.617985 29:0.321894 30:-0.609387 31:0.350981 32:-0.596944 33:-0.991803 34:-0.97541 35:-1 36:-0.999985 37:0.309379 38:-0.615213 39:0.320171 40:-0.607327 41:0.347453 42:-0.595269 43:-0.991803 44:-0.975806 45:-1 46:-0.999769 47:0.312666 48:-0.616837 49:0.340738 50:-0.602017 51:0.363979 52:-0.593318 53:-0.97551 54:-0.983936 55:-0.999579 56:-0.999796 57:0.310857 58:-0.613496 59:0.321859 60:-0.60583 61:0.350092 62:-0.594425 63:-0.991903 64:-0.975904 65:-1 66:-0.999748 67:0.302908 68:-0.615311 69:0.320075 70:-0.603989 71:0.347511 72:-0.593087 73:-0.983122 74:-0.975806 75:-0.999477 76:-0.999826 
8 1:0.261388 2:-0.0527036 3:-0.541493 4:-0.105221 5:-0.0514431 6:-0.897646 7:-0.831319 8:-0.942095 9:-0.606475 10:-0.927321 11:-0.999591 12:-0.999038 13:-0.926893 14:-0.778446 15:0.28095 16:-0.867628 17:-0.593935 18:-0.258721 19:-0.577028 20:-0.295148 21:-0.571603 22:-0.324685 23:-0.959184 24:-0.95122 25:-0.999948 26:-0.999888 27:-0.621076 28:-0.258661 29:-0.610187 30:-0.294769 31:-0.602446 32:-0.328841 33:-0.959016 34:-0.942623 35:-0.999923 36:-0.999925 37:-0.615304 38:-0.259683 39:-0.602273 40:-0.298809 41:-0.604417 42:-0.325217 43:-0.942623 44:-0.959677 45:-0.999124 46:-0.99929 47:-0.581332 48:-0.260277 49:-0.562929 50:-0.300502 51:-0.553653 52:-0.326238 53:-0.934694 54:-0.959839 55:-0.99917 56:-0.999913 57:-0.576578 58:-0.260195 59:-0.56203 60:-0.304098 61:-0.556977 62:-0.330726 63:-0.927126 64:-0.959839 65:-0.99869 66:-0.999442 67:-0.571769 68:-0.260975 69:-0.557528 70:-0.304834 71:-0.555573 72:-0.331733 73:-0.932489 74:-0.959677 75:-0.999009 76:-0.999283 
8 1:0.261388 2:-0.0527036 3:-0.541493 4:-0.105221 5:-0.0514431 6:-0.924258 7:-0.900806 8:-0.909366 9:-0.888793 10:-0.998206 11:-0.999996 12:-0.999999 13:-0.926893 14:-0.778693 15:0.28095 16:-0.753604 17:0.382972 18:-0.634001 19:0.395598 20:-0.623917 21:0.42551 22:-0.609562 23:-0.991837 24:-0.97561 25:-1 26:-0.999971 27:0.366878 28:-0.629553 29:0.394004 30:-0.612815 31:0.409413 32:-0.607299 33:-0.97541 34:-0.991803 35:-0.999966 36:-1 37:0.358395 38:-0.632093 39:0.361739 40:-0.626965 41:0.39644 42:-0.608288 43:-1 44:-0.967742 45:-1 46:-0.999919 47:0.367288 48:-0.629895 49:0.388569 50:-0.617329 51:0.411994 52:-0.60711 53:-0.983673 54:-0.983936 55:-0.999418 56:-0.999965 57:0.358702 58:-0.631458 59:0.376698 60:-0.618288 61:0.406242 62:-0.60558 63:-0.983806 64:-0.975904 65:-0.999774 66:-0.999358 67:0.356176 68:-0.62848 69:0.38226 70:-0.613107 71:0.395281 72:-0.607506 73:-0.974684 74:-0.991935 75:-0.999884 76:-1 
4.828798693408988 1:0.23857 2:-0.0696435 3:-0.512352 4:-0.105221 5:-0.0514431 6:-0.882293 7:-0.893253 8:-0.88721 9:-0.895952 10:-0.998739 11:-0.999995 12:-0.999998 13:-0.926893 14:-0.778693 15:0.28095 16:-0.748362 17:0.445895 18:-0.637276 19:0.467521 20:-0.6231 21:0.482051 22:-0.615147 23:-0.983673 24:-0.99187 25:-1 26:-1 27:0.424994 28:-0.639383 29:0.429104 30:-0.633793 31:0.466798 32:-0.612855 33:-1 34:-0.967213 35:-1 36:-0.99994 37:0.422689 38:-0.637169 39:0.434263 40:-0.627463 41:0.463145 42:-0.611507 43:-0.991803 44:-0.975806 45:-1 46:-0.999656 47:0.423309 48:-0.640175 49:0.42941 50:-0.634462 51:0.467432 52:-0.613599 53:-1 54:-0.967871 55:-1 56:-0.999964 57:0.420793 58:-0.637106 59:0.447689 60:-0.619182 61:0.462819 62:-0.613122 63:-0.975709 64:-0.991968 65:-0.999535 66:-1 67:0.412587 68:-0.640678 69:0.415653 70:-0.634882 71:0.450394 72:-0.614613 73:-1 74:-0.967742 75:-1 76:-0.999806 
8 1:0.299264 2:-0.0971721 3:-0.473041 4:-0.105221 5:-0.0514431 6:-0.960082 7:-0.946123 8:-0.969789 9:-0.871682 10:-0.996301 11:-0.99975 12:-0.999851 13:-0.926893 14:-0.778685 15:0.28095 16:-0.967235 17:-0.570377 18:-0.299444 19:-0.568224 20:-0.30315 21:-0.57269 22:-0.307803 23:-1 24:-1 25:-1 26:-1 27:-0.595574 28:-0.303628 29:-0.602036 30:-0.303628 31:-0.607561 32:-0.304079 33:-1 34:-1 35:-1 36:-1 37:-0.589066 38:-0.303918 39:-0.596161 40:-0.304044 41:-0.607219 42:-0.304222 43:-1 44:-1 45:-1 46:-1 47:-0.554435 48:-0.308954 49:-0.554435 50:-0.308891 51:-0.554503 52:-0.309045 53:-1 54:-1 55:-1 56:-1 57:-0.549369 58:-0.308568 59:-0.555256 60:-0.308568 61:-0.559942 62:-0.309611 63:-1 64:-1 65:-1 66:-1 67:-0.543492 68:-0.308267 69:-0.550018 70:-0.308495 71:-0.55614 72:-0.313883 73:-1 74:-1 75:-1 76:-1 
3.245829916938654 1:0.299264 2:-0.0971721 3:-0.473041 4:-0.105221 5:-0.0514431 6:-0.917093 7:-0.890735 8:-0.917422 9:-0.891503 10:-0.998462 11:-0.999964 12:-0.999991 13:-0.926893 14:-0.778693 15:0.28095 16:-0.752294 17:0.504521 18:-0.643725 19:0.532825 20:-0.622316 21:0.547957 22:-0.613528 23:-0.97551 24:-0.99187 25:-0.999052 26:-1 27:0.49121 28:-0.640721 29:0.510715 30:-0.624529 31:0.526144 32:-0.616436 33:-0.983607 34:-0.991803 35:-0.999823 36:-1 37:0.481777 38:-0.644405 39:0.508527 40:-0.623494 41:0.522075 42:-0.614957 43:-0.97541 44:-0.991935 45:-0.999752 46:-1 47:0.487283 48:-0.64212 49:0.508427 50:-0.626354 51:0.523965 52:-0.617414 53:-0.983673 54:-0.991968 55:-0.999963 56:-1 57:0.477909 58:-0.644898 59:0.489443 60:-0.63403 61:0.519164 62:-0.616769 63:-0.991903 64:-0.975904 65:-1 66:-0.999581 67:0.47483 68:-0.642507 69:0.485968 70:-0.63193 71:0.506874 72:-0.619249 73:-0.991561 74:-0.983871 75:-1 76:-0.999826 
8 1:0.268105 2:-0.0973763 3:-0.397981 4:-0.105221 5:-0.0514431 6:-0.904299 7:-0.914904 8:-0.962236 9:-0.851312 10:-0.993334 11:-0.999939 12:-0.999979 13:-0.926893 14:-0.778693 15:0.28095 16:-0.965924 17:-0.587968 18:-0.253825 19:-0.586472 20:-0.257554 21:-0.590646 22:-0.261176 23:-1 24:-1 25:-1 26:-1 27:-0.614926 28:-0.253686 29:-0.619771 30:-0.257063 31:-0.623845 32:-0.26107 33:-1 34:-1 35:-1 36:-1 37:-0.608399 38:-0.254063 39:-0.613584 40:-0.257306 41:-0.623695 42:-0.261413 43:-1 44:-1 45:-1 46:-1 47:-0.574546 48:-0.254626 49:-0.572677 50:-0.257746 51:-0.571836 52:-0.261936 53:-1 54:-1 55:-1 56:-1 57:-0.569432 58:-0.254209 59:-0.570991 60:-0.264911 61:-0.573292 62:-0.268769 63:-0.983806 64:-1 65:-0.999872 66:-1 67:-0.564091 68:-0.254503 69:-0.56902 70:-0.258063 71:-0.572335 72:-0.270002 73:-1 74:-0.983871 75:-1 76:-1 
1.274626908829068 1:0.268105 2:-0.0973763 3:-0.397981 4:-0.105221 5:-0.0514431 6:-0.903787 7:-0.888218 8:-0.890735 9:-0.893832 10:-0.998629 11:-0.999994 12:-0.999998 13:-0.926893 14:-0.778693 15:0.28095 16:-0.779817 17:0.570602 18:-0.640912 19:0.576776 20:-0.634629 21:0.605816 22:-0.612771 23:-1 24:-0.97561 25:-1 26:-0.999966 27:0.557706 28:-0.637689 29:0.570601 30:-0.626232 31:0.592474 32:-0.610498 33:-0.991803 34:-0.983607 35:-1 36:-0.99998 37:0.548017 38:-0.6421 39:0.567285 40:-0.624698 41:0.580503 42:-0.614614 43:-0.983607 44:-0.991935 45:-0.999784 46:-1 47:0.551633 48:-0.639755 49:0.58115 50:-0.617917 51:0.589233 52:-0.613332 53:-0.97551 54:-1 55:-0.999903 56:-1 57:0.541474 58:-0.642782 59:0.561033 60:-0.625989 61:0.5837 62:-0.612148 63:-0.983806 64:-0.983936 65:-0.999998 66:-1 67:0.538347 68:-0.640871 69:0.550752 70:-0.630222 71:0.571839 72:-0.615845 73:-0.991561 74:-0.983871 75:-1 76:-0.999842 
5.724173165265602 1:0.297798 2:-0.0924138 3:-0.256227 4:-0.105221 5:-0.0514431 6:-0.882805 7:-0.893756 8:-0.899295 9:-0.892927 10:-0.998566 11:-0.999991 12:-0.999997 13:-0.926893 14:-0.778693 15:0.28095 16:-0.777195 17:0.779153 18:-0.602492 19:0.791524 20:-0.587453 21:0.805895 22:-0.573725 23:-0.991837 24:-0.99187 25:-1 26:-1 27:0.763929 28:-0.608105 29:0.782149 30:-0.585339 31:0.79676 32:-0.572171 33:-0.983607 34:-0.991803 35:-0.999909 36:-1 37:0.759006 38:-0.606434 39:0.763842 40:-0.598768 41:0.783438 42:-0.577498 43:-1 44:-0.983871 45:-1 46:-0.99992 47:0.751966 48:-0.612576 49:0.778028 50:-0.583198 51:0.785835 52:-0.576946 53:-0.97551 54:-1 55:-0.999711 56:-1 57:0.746781 58:-0.60983 59:0.752007 60:-0.602348 61:0.772466 62:-0.582516 63:-1 64:-0.983936 65:-1 66:-0.999977 67:0.736475 68:-0.615962 69:0.75419 70:-0.594084 71:0.767415 72:-0.581268 73:-0.983122 74:-0.991935 75:-0.999882 76:-1 
4.469577338117842 1:1 2:0.464387 3:0.10015 4:-0.105221 5:-0.0514431 6:-0.84391 7:-0.846425 8:-0.843404 9:-0.875529 10:-0.996731 11:-0.99987 12:-0.999889 13:-0.926893 14:-0.778687 15:0.28095 16:-0.882045 17:0.166951 18:-0.893765 19:0.166951 20:-0.894101 21:0.173466 22:-0.8907 23:-1 24:-1 25:-1 26:-1 27:0.170712 28:-0.886102 29:0.167353 30:-0.886102 31:0.164405 32:-0.886754 33:-1 34:-1 35:-1 36:-1 37:0.159927 38:-0.883372 39:0.165375 40:-0.879464 41:0.171396 42:-0.880668 43:-1 44:-1 45:-1 46:-1 47:0.183547 48:-0.876871 49:0.183547 50:-0.87678 51:0.193159 52:-0.874737 53:-1 54:-1 55:-1 56:-1 57:0.183599 58:-0.873723 59:0.189259 60:-0.869474 61:0.19753 62:-0.870146 63:-1 64:-1 65:-1 66:-1 67:0.192038 68:-0.866431 69:0.188622 70:-0.866757 71:0.194002 72:-0.864528 73:-1 74:-1 75:-1 76:-1 
8 1:0.978015 2:0.492191 3:0.00271423 4:-0.105221 5:0.175475 6:-0.923746 7:-0.860524 8:-0.906848 9:-0.887192 10:-0.998765 11:-0.999683 12:-0.999878 13:-0.926893 14:-0.778691 15:0.28095 16:-0.930537 17:0.00448533 18:-0.492655 19:0.00810288 20:-0.487646 21:0.0310781 22:-0.488693 23:-1 24:-0.97561 25:-1 26:-0.999857 27:-0.0107225 28:-0.496772 29:-0.00705598 30:-0.486865 31:0.0103392 32:-0.489077 33:-0.991803 34:-0.983607 35:-1 36:-0.999999 37:-0.00568703 38:-0.501014 39:-0.00405425 40:-0.488167 41:0.00990619 42:-0.490099 43:-0.991803 44:-0.983871 45:-1 46:-0.999944 47:0.0179269 48:-0.496401 49:0.0211792 50:-0.490424 51:0.0407257 52:-0.491298 53:-1 54:-0.983936 55:-1 56:-0.999898 57:0.0224375 58:-0.500168 59:0.0208176 60:-0.492 61:0.0367499 62:-0.492224 63:-1 64:-0.983936 65:-1 66:-0.998342 67:0.0267094 68:-0.504084 69:0.0288327 70:-0.491925 71:0.0372098 72:-0.493076 73:-0.991561 74:-0.991935 75:-1 76:-1 
3.991591266131719 1:0.916509 2:0.515411 3:-0.16073 4:-0.105221 5:0.171142 6:-0.916581 7:-0.865055 8:-0.89426 9:-0.798586 10:-0.988883 11:-0.994414 12:-0.996176 13:-0.926882 14:-0.778471 15:0.280939 16:-0.904325 17:-0.0218393 18:-0.490228 19:-0.0158054 20:-0.477468 21:0.0289102 22:-0.484977 23:-1 24:-0.95122 25:-1 26:-0.999874 27:-0.0383388 28:-0.492925 29:-0.0314188 30:-0.477201 31:0.00786991 32:-0.484918 33:-0.991803 34:-0.959016 35:-1 36:-0.999902 37:-0.0279698 38:-0.48233 39:-0.0280928 40:-0.478937 41:0.00738441 42:-0.485844 43:-1 44:-0.959677 45:-1 46:-0.999909 47:-0.00582104 48:-0.486491 49:0.00374913 50:-0.48099 51:0.0383216 52:-0.487099 53:-0.991837 54:-0.967871 55:-1 56:-0.999937 57:-0.00202413 58:-0.488842 59:0.00271369 60:-0.481284 61:0.0342754 62:-0.487908 63:-0.991903 64:-0.967871 65:-1 66:-0.999826 67:0.00188663 68:-0.491999 69:0.0051831 70:-0.482604 71:0.0346881 72:-0.48866 73:-0.991561 74:-0.967742 75:-1 76:-0.999829 
3.598552839968909 1:0.82631 2:0.591206 3:-0.1998 4:-0.105221 5:-0.0514431 6:-0.885875 7:-0.863041 8:-0.928499 9:-0.568442 10:-0.931214 11:-0.929391 12:-0.885291 13:-0.919213 14:-0.751627 15:0.279465 16:-0.764089 17:-0.288269 18:-0.32958 19:-0.262272 20:-0.310907 21:-0.18328 22:-0.375073 23:-0.95102 24:-0.845528 25:-0.999232 26:-0.999552 27:-0.310646 28:-0.334079 29:-0.285483 30:-0.312581 31:-0.208245 32:-0.375537 33:-0.942623 34:-0.852459 35:-0.998453 36:-0.999768 37:-0.302209 38:-0.335991 39:-0.277819 40:-0.315816 41:-0.203924 42:-0.377753 43:-0.942623 44:-0.854839 45:-0.997605 46:-0.999807 47:-0.271871 48:-0.338105 49:-0.242568 50:-0.318875 51:-0.165911 52:-0.379924 53:-0.942857 54:-0.863454 55:-0.995655 56:-0.99987 57:-0.264443 58:-0.338959 59:-0.243595 60:-0.319754 61:-0.165688 62:-0.382757 63:-0.951417 64:-0.855422 65:-0.998908 66:-0.99892 67:-0.256867 68:-0.340469 69:-0.236726 70:-0.322601 71:-0.16462 72:-0.384115 73:-0.949367 74:-0.862903 75:-0.998057 76:-0.999555 
0.7329839943351334 1:0.639482 2:0.655739 3:-0.428338 4:-0.105221 5:-0.0514431 6:-0.87871 7:-0.829305 8:-0.886707 9:-0.510981 10:-0.902325 11:-0.932324 12:-0.88616 13:-0.919435 14:-0.746199 15:0.279768 16:-0.758847 17:-0.371624 18:-0.26042 19:-0.344255 20:-0.245651 21:-0.270315 22:-0.312067 23:-0.95102 24:-0.780488 25:-0.998047 26:-0.99995 27:-0.392874 28:-0.263269 29:-0.370054 30:-0.246458 31:-0.293535 32:-0.313529 33:-0.95082 34:-0.778689 35:-0.998849 36:-0.999704 37:-0.385228 38:-0.266006 39:-0.363097 40:-0.24891 41:-0.290287 42:-0.316453 43:-0.95082 44:-0.782258 45:-0.998789 46:-0.99982 47:-0.354253 48:-0.269106 49:-0.326751 50:-0.25161 51:-0.249703 52:-0.318003 53:-0.95102 54:-0.791165 55:-0.997949 56:-0.999778 57:-0.343479 58:-0.268252 59:-0.322607 60:-0.254113 61:-0.250922 62:-0.320916 63:-0.951417 64:-0.799197 65:-0.997832 66:-0.999558 67:-0.336822 68:-0.271084 69:-0.316521 70:-0.256576 71:-0.246259 72:-0.323205 73:-0.949367 74:-0.798387 75:-0.998195 76:-0.999675 
4.601093543387726 1:0.636559 2:0.689558 3:-0.304289 4:-0.266661 5:-0.0514431 6:-0.879734 7:-0.825277 8:-0.871601 9:-0.413613 10:-0.837909 11:-0.982537 12:-0.969435 13:-0.926365 14:-0.767542 15:0.280875 16:-0.799476 17:-0.447832 18:-0.18957 19:-0.433207 20:-0.188324 21:-0.360298 22:-0.251735 23:-0.97551 24:-0.707317 25:-0.998148 26:-0.999888 27:-0.472666 28:-0.193283 29:-0.463158 30:-0.187419 31:-0.386329 32:-0.253325 33:-0.983607 34:-0.696721 35:-0.999888 36:-0.999944 37:-0.466678 38:-0.19722 39:-0.4538 40:-0.190502 41:-0.383902 42:-0.255222 43:-0.97541 44:-0.709677 45:-0.998633 46:-0.999888 47:-0.42769 48:-0.195822 49:-0.415254 50:-0.192381 51:-0.337685 52:-0.257581 53:-0.983673 54:-0.710843 55:-0.999719 56:-0.99994 57:-0.423174 58:-0.199256 59:-0.414036 60:-0.193164 61:-0.337362 62:-0.260962 63:-0.983806 64:-0.702811 65:-0.999986 66:-0.999739 67:-0.417691 68:-0.20254 69:-0.40565 70:-0.195958 71:-0.333615 72:-0.263559 73:-0.974684 74:-0.709677 75:-0.998876 76:-0.999817 
8 1:0.629287 2:0.222103 3:-0.40595 4:-0.368159 5:-0.0514431 6:-0.90174 7:-0.839376 8:-0.830312 9:-0.452716 10:-0.855346 11:-0.994357 12:-0.987323 13:-0.926812 14:-0.774275 15:0.280954 16:-0.8519 17:0.165403 18:-0.246016 19:0.187361 20:-0.195301 21:0.199392 22:-0.172643 23:-0.902041 24:-0.95122 25:-0.99994 26:-0.999734 27:0.153 28:-0.242355 29:0.171637 30:-0.191351 31:0.183973 32:-0.168991 33:-0.901639 34:-0.95082 35:-0.999904 36:-0.999646 37:0.155793 38:-0.243153 39:0.179074 40:-0.181785 41:0.185497 42:-0.16618 43:-0.877049 44:-0.967742 45:-0.999776 46:-0.999931 47:0.174394 48:-0.240535 49:0.195829 50:-0.189553 51:0.212516 52:-0.163597 53:-0.902041 54:-0.943775 55:-0.999767 56:-0.999685 57:0.175767 58:-0.239823 59:0.203696 60:-0.172222 61:0.211414 62:-0.160951 63:-0.862348 64:-0.975904 65:-0.999855 66:-0.999726 67:0.18126 68:-0.232909 69:0.205628 70:-0.172816 71:0.213496 72:-0.157888 73:-0.864979 74:-0.967742 75:-0.999728 76:-0.999862 
8 1:0.585971 2:0.240452 3:-0.367758 4:-0.105221 5:-0.0514431 6:-0.890481 7:-0.8429 8:-0.846425 9:-0.523265 10:-0.892166 11:-0.993706 12:-0.986463 13:-0.926799 14:-0.774622 15:0.280956 16:-0.8519 17:0.149205 18:-0.269654 19:0.170245 20:-0.216956 21:0.17922 22:-0.205751 23:-0.902041 24:-0.97561 25:-0.999897 26:-0.999102 27:0.134504 28:-0.269581 29:0.152199 30:-0.216387 31:0.163242 32:-0.202056 33:-0.901639 34:-0.967213 35:-0.99986 36:-0.998218 37:0.137782 38:-0.27071 39:0.159745 40:-0.206759 41:0.164247 42:-0.199023 43:-0.877049 44:-0.983871 45:-0.999583 46:-0.999372 47:0.156132 48:-0.26752 49:0.178298 50:-0.210953 51:0.190895 52:-0.195957 53:-0.893878 54:-0.967871 55:-0.999884 56:-0.998828 57:0.158305 58:-0.267308 59:0.177273 60:-0.210683 61:0.189211 62:-0.19315 63:-0.894737 64:-0.959839 65:-0.999866 66:-0.997143 67:0.162401 68:-0.264096 69:0.180678 70:-0.207748 71:0.19112 72:-0.190062 73:-0.890295 74:-0.959677 75:-0.999802 76:-0.998689 
8 1:0.64288 2:0.185211 3:-0.363003 4:-0.105221 5:0.208642 6:-0.909928 7:-0.685801 8:-0.922457 9:-0.730478 10:-0.970933 11:-0.992824 12:-0.986587 13:-0.926794 14:-0.776524 15:0.280959 16:-0.853211 17:0.142214 18:-0.274838 19:0.153841 20:-0.243751 21:0.168967 22:-0.240819 23:-0.942857 24:-0.98374 25:-0.99978 26:-0.999606 27:0.12724 28:-0.274666 29:0.137047 30:-0.239517 31:0.141978 32:-0.235404 33:-0.934426 34:-0.991803 35:-0.999808 36:-1 37:0.131186 38:-0.276274 39:0.140846 40:-0.23657 41:0.155395 42:-0.234703 43:-0.92623 44:-0.991935 45:-0.999127 46:-1 47:0.141918 48:-0.288047 49:0.161343 50:-0.23717 51:0.173161 52:-0.230707 53:-0.926531 54:-0.991968 55:-0.999459 56:-1 57:0.145212 58:-0.283409 59:0.161966 60:-0.233354 61:0.170592 62:-0.227351 63:-0.919028 64:-0.991968 65:-0.999658 66:-1 67:0.149192 68:-0.280004 69:0.167191 70:-0.226888 71:0.172686 72:-0.224299 73:-0.907173 74:-0.991935 75:-0.99991 76:-1 
8 1:0.650549 2:0.213536 3:-0.38887 4:-0.105221 5:-0.0514431 6:-0.955988 7:-0.721047 8:-0.925982 9:-0.828993 10:-0.99208 11:-0.997227 12:-0.996373 13:-0.926884 14:-0.778392 15:0.280952 16:-0.867628 17:0.127684 18:-0.300845 19:0.136693 20:-0.276145 21:0.152536 22:-0.274426 23:-0.959184 24:-0.98374 25:-0.99959 26:-0.999299 27:0.114089 28:-0.296514 29:0.12307 30:-0.26913 31:0.137698 32:-0.271577 33:-0.95082 34:-0.991803 35:-0.998796 36:-1 37:0.116512 38:-0.296982 39:0.123792 40:-0.268807 41:0.13886 42:-0.268261 43:-0.95082 44:-0.983871 45:-0.999757 46:-0.999025 47:0.136053 48:-0.294147 49:0.146621 50:-0.265755 51:0.168599 52:-0.266231 53:-0.95102 54:-0.983936 55:-0.999653 56:-0.998794 57:0.139521 58:-0.289577 59:0.147122 60:-0.261717 61:0.157628 62:-0.261935 63:-0.951417 64:-0.991968 65:-0.999713 66:-1 67:0.142635 68:-0.28544 69:0.150504 70:-0.258534 71:0.159682 72:-0.258689 73:-0.949367 74:-0.991935 75:-0.999658 76:-1 
6.370152016196901 1:0.583256 2:0.258372 3:-0.373547 4:-0.105221 5:-0.0514431 6:-0.930399 7:-0.767372 8:-0.933031 9:-0.864413 10:-0.99687 11:-0.998989 12:-0.998968 13:-0.926892 14:-0.778639 15:0.280951 16:-0.861075 17:0.114468 18:-0.329905 19:0.12315 20:-0.308492 21:0.141648 22:-0.309412 23:-0.967347 24:-0.98374 25:-0.999193 26:-0.999854 27:0.0999691 28:-0.324642 29:0.105855 30:-0.303844 31:0.125252 32:-0.305413 33:-0.967213 34:-0.983607 35:-0.999266 36:-0.999895 37:0.103042 38:-0.325639 39:0.106793 40:-0.30349 41:0.118152 42:-0.300992 43:-0.967213 44:-0.983871 45:-0.999485 46:-0.999305 47:0.121843 48:-0.32158 49:0.129979 50:-0.300046 51:0.147748 52:-0.298249 53:-0.967347 54:-0.983936 55:-0.999308 56:-0.99966 57:0.126157 58:-0.317416 59:0.13049 60:-0.295744 61:0.146274 62:-0.2952 63:-0.967611 64:-0.983936 65:-0.999291 66:-0.999665 67:0.13112 68:-0.308793 69:0.134297 70:-0.292603 71:0.149069 72:-0.292273 73:-0.974684 74:-0.983871 75:-0.999972 76:-0.997862 
3.643910436328029 1:0.53781 2:-0.246466 3:0.422524 4:-0.105221 5:-0.0514431 6:-0.884852 7:-0.886707 8:-0.886707 9:-0.90214 10:-0.999303 11:-0.999966 12:-0.999995 13:-0.926893 14:-0.778693 15:0.28095 16:-0.941022 17:0.690421 18:-0.0245535 19:0.690421 20:-0.0247353 21:0.689406 22:-0.0248293 23:-1 24:-1 25:-1 26:-1 27:0.688661 28:-0.0240345 29:0.687401 30:-0.0240345 31:0.686194 32:-0.0243887 33:-1 34:-1 35:-1 36:-1 37:0.693683 38:-0.0246355 39:0.692315 40:-0.024734 41:0.690139 42:-0.0248738 43:-1 44:-1 45:-1 46:-1 47:0.702636 48:-0.0324778 49:0.702636 50:-0.0324281 51:0.703277 52:-0.025645 53:-1 54:-1 55:-1 56:-1 57:0.707802 58:-0.0320426 59:0.706692 60:-0.0320426 61:0.706176 62:-0.0262128 63:-1 64:-1 65:-1 66:-1 67:0.712193 68:-0.0322573 69:0.710976 70:-0.0324374 71:0.709283 72:-0.0334594 73:-1 74:-1 75:-1 76:-1 
8 1:0.537374 2:-0.211013 3:0.44153 4:-0.105221 5:-0.0514431 6:-0.883316 7:-0.885196 8:-0.884189 9:-0.893998 10:-0.998777 11:-0.999929 12:-0.999993 13:-0.926893 14:-0.778693 15:0.28095 16:-0.93578 17:0.586515 18:-0.00189841 19:0.586515 20:-0.00207626 21:0.584917 22:0.00389191 23:-1 24:-1 25:-1 26:-1 27:0.582042 28:-0.0012189 29:0.58035 30:-0.0012189 31:0.579844 32:0.0045135 33:-1 34:-1 35:-1 36:-1 37:0.588156 38:-0.00169819 39:0.586317 40:-0.00179456 41:0.583707 42:0.00420455 43:-1 44:-1 45:-1 46:-1 47:0.599098 48:-0.00247948 49:0.599098 50:-0.0024312 51:0.598852 52:-0.00254922 53:-1 54:-1 55:-1 56:-1 57:0.604672 58:-0.00805983 59:0.60317 60:-0.00805983 61:0.600688 62:-0.00295967 63:-1 64:-1 65:-1 66:-1 67:0.609317 68:-0.00812167 69:0.607665 70:-0.00829758 71:0.603732 72:-0.00302859 73:-1 74:-1 75:-1 76:-1 
7.524505700868025 1:0.423189 2:-0.27137 3:0.476195 4:-0.105221 5:-0.0514431 6:-0.937564 7:-0.847432 8:-0.923968 9:-0.819601 10:-0.98848 11:-0.999563 12:-0.999875 13:-0.926893 14:-0.778704 15:0.28095 16:-0.934469 17:0.332616 18:0.0120289 19:0.332024 20:0.0203204 21:0.340394 22:0.0332377 23:-0.991837 24:-0.99187 25:-1 26:-1 27:0.322711 28:0.0170508 29:0.32047 30:0.021312 31:0.329125 32:0.034079 33:-1 34:-0.991803 35:-1 36:-1 37:0.329102 38:0.0124169 39:0.324515 40:0.0209029 41:0.332161 42:0.0339797 43:-0.991803 44:-0.991935 45:-1 46:-1 47:0.342647 48:0.0160304 49:0.343285 50:0.020387 51:0.355601 52:0.0335714 53:-1 54:-0.991968 55:-1 56:-1 57:0.346935 58:0.0168229 59:0.34509 60:0.0211616 61:0.35475 62:0.0333666 63:-1 64:-0.991968 65:-1 66:-1 67:0.352365 68:0.0169385 69:0.349401 70:0.0211387 71:0.359009 72:0.0335777 73:-1 74:-1 75:-1 76:-1 
8 1:0.513942 2:-0.202324 3:0.530768 4:-0.105221 5:0.164773 6:-0.898669 7:-0.900302 8:-0.900302 9:-0.874811 10:-0.996712 11:-0.999744 12:-0.999865 13:-0.926893 14:-0.778686 15:0.28095 16:-0.980341 17:0.252259 18:0.0751958 19:0.252259 20:0.0750316 21:0.249628 22:0.0749468 23:-1 24:-1 25:-1 26:-1 27:0.241428 28:0.0763747 29:0.238356 30:0.0763747 31:0.235645 32:0.0760553 33:-1 34:-1 35:-1 36:-1 37:0.244127 38:0.0724124 39:0.240752 40:0.0723232 41:0.235463 42:0.0721967 43:-1 44:-1 45:-1 46:-1 47:0.261139 48:0.0720329 49:0.261139 50:0.0720776 51:0.260945 52:0.0719684 53:-1 54:-1 55:-1 56:-1 57:0.26756 58:0.0772752 59:0.264777 60:0.0772752 61:0.262426 62:0.0761004 63:-1 64:-1 65:-1 66:-1 67:0.271307 68:0.0777534 69:0.268226 70:0.0775925 71:0.264529 72:0.0765079 73:-1 74:-1 75:-1 76:-1 
