svm_type c_svc
kernel_type rbf
gamma 0.125
nr_class 2
total_sv 1192
rho -2.0243
label 0 2
nr_sv 644 548
SV
32 1:0.988773 2:0.543741 3:-0.505145 4:0.197034 5:0.139495 6:-0.990469 7:-0.998989 8:-0.999064 9:-0.999843 10:-0.894003 11:-0.830346 12:0.976112 13:-0.941176 14:-0.830312 15:-0.814164 16:-0.88593 17:-0.0154608 18:0.0153595 19:-0.18579 20:0.081033 21:-0.0944793 22:-0.114051 23:-0.857143 24:-0.95122 25:-0.927451 26:-1 27:0.0775072 28:0.0457382 29:0.0761967 30:0.0458084 31:0.0759001 32:0.0456444 33:-0.882353 34:-0.948718 35:-0.91309 36:-1 37:0.0575277 38:-0.0646345 39:0.0562156 40:-0.0645426 41:0.0559944 42:-0.0647632 43:-0.837838 44:-0.972973 45:-0.927039 46:-1 47:0.0558003 48:-0.0847299 49:0.054474 50:-0.0846185 51:0.0542502 52:-0.0848406 53:-0.837838 54:-0.973333 55:-0.944553 56:-1 57:0.0558006 58:-0.0847299 59:0.055507 60:-0.084858 61:0.0541806 62:-0.0847631 63:-0.945946 64:-0.92 65:-1 66:-0.918787 67:-0.00350427 68:0.00536765 69:-0.00492527 70:0.00548069 71:-0.00507759 72:0.00519495 73:-0.853659 74:-0.972222 75:-0.88176 76:-1 77:-0.0459264 78:0.00486117 79:-0.047293 80:0.00495783 81:-0.0475272 82:0.00475697 83:-0.837838 84:-0.972973 85:-0.905205 86:-1 87:-0.0294739 88:-0.0378204 89:-0.0305066 90:-0.0375979 91:-0.0307317 92:-0.0378276 93:-0.891892 94:-0.972222 95:-0.985269 96:-1 97:-0.0294768 98:-0.0378172 99:-0.0304987 100:-0.037607 101:-0.0307402 102:-0.0378183 103:-0.891892 104:-0.972603 105:-0.97814 106:-1 107:-0.00746271 108:-0.0742575 109:-0.00849469 110:-0.0740673 111:-0.00870824 112:-0.0743102 113:-0.894737 114:-0.972222 115:-0.996824 116:-1 117:0.0230914 118:0.125109 119:0.0226348 120:0.125172 121:0.0223734 122:0.124997 123:-0.95122 124:-0.972603 125:-1 126:-1 127:0.0224505 128:0.0351848 129:0.0219676 130:0.0352377 131:0.0217441 132:0.0349883 133:-0.95122 134:-0.972603 135:-1 136:-1 137:-0.0386284 138:0.00948036 139:-0.0390899 140:0.0095149 141:-0.0393526 142:0.00934332 143:-0.956522 144:-0.972603 145:-1 146:-1 147:-0.0303176 148:-0.0687707 149:-0.0307994 150:-0.0687153 151:-0.0310866 152:-0.0688766 153:-0.95 154:-0.972222 155:-1 156:-1 157:0.0913017 158:0.0117438 159:0.24246 160:0.0452147 161:-0.0907992 162:-0.105255 163:-1 164:-0.972603 165:-1 166:-1 
32 1:0.994823 2:0.552871 3:-0.519072 4:0.112589 5:-0.013529 6:-0.98063 7:-0.998113 8:-0.996872 9:-0.999599 10:-0.894003 11:-0.830371 12:0.976112 13:-0.927602 14:-0.819235 15:-0.804621 16:-0.884422 17:-0.0658478 18:-0.0622256 19:-0.217368 20:0.11261 21:-0.0719142 22:-0.0403377 23:-0.809524 24:-0.902439 25:-0.928381 26:-0.986702 27:0.0764502 28:0.0444417 29:0.07563 30:0.0461551 31:0.0764366 32:0.0469489 33:-0.843137 34:-0.897436 35:-0.966259 36:-0.982447 37:0.0565491 38:-0.0657589 39:0.0556926 40:-0.0642445 41:0.0564244 42:-0.0635431 43:-0.783784 44:-0.945946 45:-0.948157 46:-0.973354 47:0.0548017 48:-0.0858854 49:0.0539703 50:-0.0843446 51:0.0546253 52:-0.0836281 53:-0.783784 54:-0.946667 55:-0.939904 56:-0.957809 57:0.0547778 58:-0.0858837 59:0.054018 60:-0.0843471 61:0.0547088 62:-0.0836307 63:-0.783784 64:-0.946667 65:-0.939797 66:-0.978494 67:-0.00456794 68:0.00430517 69:-0.00547268 70:0.00571865 71:-0.00470888 72:0.00637362 73:-0.804878 74:-0.944444 75:-0.948197 76:-0.935516 77:-0.0469714 78:0.00380389 79:-0.0478192 80:0.0052167 81:-0.047121 82:0.00587353 83:-0.783784 84:-0.945946 85:-0.920098 86:-0.964288 87:-0.0302237 88:-0.0388904 89:-0.0310134 90:-0.0373223 91:-0.0302575 92:-0.0365934 93:-0.783784 94:-0.944444 95:-0.945873 96:-0.98205 97:-0.0302116 98:-0.0388914 99:-0.0309932 100:-0.0373232 101:-0.0303588 102:-0.0365905 103:-0.783784 104:-0.945205 105:-0.928872 106:-0.944536 107:-0.00816896 108:-0.075347 109:-0.00896413 110:-0.0738114 111:-0.00828222 112:-0.0730947 113:-0.789474 114:-0.944444 115:-0.935154 116:-0.972758 117:0.0228742 118:0.123878 119:0.0221372 120:0.125449 121:0.0228612 122:0.126179 123:-0.804878 124:-0.945205 125:-0.938885 126:-0.97999 127:0.0222658 128:0.0338982 129:0.0214268 130:0.0355379 131:0.0221767 132:0.0362999 133:-0.804878 134:-0.945205 135:-0.957657 136:-0.962587 137:-0.0387722 138:0.00835751 139:-0.0396173 140:0.00977673 141:-0.0388429 142:0.0104344 143:-0.826087 144:-0.945205 145:-0.953402 146:-0.95336 147:-0.0305144 148:-0.0699588 149:-0.0313503 150:-0.0684293 151:-0.0306105 152:-0.0677188 153:-0.8 154:-0.944444 155:-0.936058 156:-0.94048 157:0.109722 158:-0.0733897 159:0.208428 160:0.0699988 161:-0.073916 162:-0.029485 163:-0.826087 164:-0.945205 165:-0.939936 166:-0.968474 
1.91711264356045 1:0.993014 2:0.554839 3:-0.535835 4:0.112589 5:0.420005 6:-0.975187 7:-0.996676 8:-1 9:-1 10:-0.894003 11:-0.830346 12:0.976112 13:-0.954751 14:-0.867573 15:-0.867906 16:-0.873367 17:-0.0413093 18:0.012248 19:-0.12483 20:0.0586576 21:-0.0724053 22:-0.105709 23:-1 24:-0.95122 25:-1 26:-1 27:0.0770205 28:0.0458057 29:0.0763889 30:0.0458018 31:0.0757335 32:0.0456779 33:-0.960784 34:-0.948718 35:-1 36:-1 37:0.057015 38:-0.0646043 39:0.0564036 40:-0.0645771 41:0.0557586 42:-0.064694 43:-0.945946 44:-0.972973 45:-1 46:-1 47:0.0553118 48:-0.0846604 49:0.0546842 50:-0.0846991 51:0.0540222 52:-0.0848928 53:-0.945946 54:-0.973333 55:-1 56:-1 57:0.0553056 58:-0.0846835 59:0.0546881 60:-0.084683 61:0.0540298 62:-0.0848611 63:-0.945946 64:-0.973333 65:-1 66:-1 67:-0.00403458 68:0.00538634 69:-0.00467387 70:0.00544409 71:-0.0053718 72:0.00528817 73:-0.95122 74:-0.972222 75:-1 76:-1 77:-0.0464471 78:0.00488924 79:-0.0470725 80:0.00493623 81:-0.047738 82:0.00483058 83:-0.945946 84:-0.972973 85:-1 86:-1 87:-0.0296415 88:-0.037603 89:-0.0302777 90:-0.0376304 91:-0.0309549 92:-0.03784 93:-0.945946 94:-0.972222 95:-1 96:-1 97:-0.0296509 98:-0.0376389 99:-0.0302798 100:-0.0376384 101:-0.0309336 102:-0.037752 103:-0.945946 104:-0.972603 105:-1 106:-1 107:-0.00760043 108:-0.0740924 109:-0.00893759 110:-0.074301 111:-0.00893759 112:-0.074301 113:-0.894737 114:-0.972222 115:-0.997829 116:-1 117:0.0234221 118:0.125015 119:0.0222029 120:0.124905 121:0.0216752 122:0.125194 123:-0.902439 124:-0.972603 125:-0.970451 126:-1 127:0.0228568 128:0.0352737 129:0.0214985 130:0.0350095 131:0.0209185 132:0.0352738 133:-0.902439 134:-0.972603 135:-0.936381 136:-1 137:-0.0382447 138:0.00947309 139:-0.0395424 140:0.00935284 141:-0.0401327 142:0.00949445 143:-0.913043 144:-0.972603 145:-0.9941 146:-1 147:-0.0299663 148:-0.0688197 149:-0.031282 150:-0.0689809 151:-0.0318632 152:-0.0687736 153:-0.9 154:-0.972222 155:-0.941387 156:-1 157:0.136836 158:0.00521942 159:0.260011 160:0.0402879 161:-0.134156 162:-0.101742 163:-0.956522 164:-0.945205 165:-1 166:-0.960304 
5.882054359989703 1:0.993014 2:0.554839 3:-0.535835 4:-0.0651611 5:0.132832 6:-0.993383 7:-0.999268 8:-1 9:-1 10:-0.894003 11:-0.830346 12:0.976112 13:-0.9819 14:-0.819738 15:-0.779508 16:-0.788945 17:-0.086063 18:-0.0122918 19:-0.199735 20:0.080977 21:-0.0757142 22:-0.0844596 23:-0.904762 24:-0.95122 25:-0.970204 26:-1 27:0.0760501 28:0.0452742 29:0.0759647 30:0.0458736 31:0.0762712 32:0.046146 33:-0.921569 34:-0.948718 35:-0.954501 36:-1 37:0.0561204 38:-0.0650231 39:0.0559611 40:-0.0644887 41:0.0563734 42:-0.0642564 43:-0.891892 44:-0.972973 45:-0.967099 46:-1 47:0.0543697 48:-0.0851349 49:0.0542741 50:-0.0845959 51:0.05465 52:-0.0843566 53:-0.891892 54:-0.973333 55:-0.960212 56:-1 57:0.0543938 58:-0.0851373 59:0.0542466 60:-0.084594 61:0.0546264 62:-0.0843552 63:-0.891892 64:-0.973333 65:-0.950234 66:-1 67:-0.00499658 68:0.00499113 69:-0.0051319 70:0.00548794 71:-0.00473667 72:0.00570754 73:-0.902439 74:-0.972222 75:-0.948239 76:-1 77:-0.0474129 78:0.00449245 79:-0.0475036 80:0.00498627 81:-0.0471641 82:0.00520876 83:-0.891892 84:-0.972973 85:-0.966243 86:-1 87:-0.0306581 88:-0.0381237 89:-0.0306827 90:-0.03758 91:-0.0303971 92:-0.037329 93:-0.891892 94:-0.972222 95:-0.952745 96:-1 97:-0.0306016 98:-0.038129 99:-0.0307191 100:-0.0375772 101:-0.0303243 102:-0.0373339 103:-0.891892 104:-0.972603 105:-0.935982 106:-1 107:-0.00862993 108:-0.0745952 109:-0.00867988 110:-0.0740609 111:-0.00836719 112:-0.0738167 113:-0.894737 114:-0.972222 115:-0.979794 116:-1 117:0.0225331 118:0.12464 119:0.022425 120:0.125193 121:0.0227857 122:0.125438 123:-0.902439 124:-0.972603 125:-0.944043 126:-1 127:0.0218591 128:0.0346945 129:0.0217338 130:0.0352712 131:0.0221782 132:0.0355227 133:-0.902439 134:-0.972603 135:-0.9664 136:-1 137:-0.0392067 138:0.00904822 139:-0.039313 140:0.00954544 141:-0.0389191 142:0.00976539 143:-0.913043 144:-0.972603 145:-0.944538 146:-1 147:-0.0308583 148:-0.0692219 149:-0.031027 150:-0.0686799 151:-0.0306174 152:-0.0684434 153:-0.9 154:-0.972222 155:-0.948382 156:-1 157:0.0857782 158:-0.0241215 159:0.226996 160:0.0445315 161:-0.0734566 162:-0.0733749 163:-0.913043 164:-0.972603 165:-0.996747 166:-1 
32 1:0.993014 2:0.554839 3:-0.535835 4:0.0657395 5:0.240658 6:-1 7:-1 8:-1 9:-1 10:-0.894003 11:-0.830346 12:0.976112 13:-0.954751 14:-0.866062 15:-0.866399 16:-0.866332 17:-0.0639711 18:0.0144775 19:-0.157735 20:0.0629039 21:-0.0646869 22:-0.107742 23:-1 24:-1 25:-1 26:-1 27:0.0757927 28:0.0458954 29:0.0757927 30:0.0458954 31:0.0765008 32:0.0456881 33:-1 34:-0.948718 35:-1 36:-1 37:0.0559116 38:-0.0644023 39:0.0559116 40:-0.0644023 41:0.0564789 42:-0.0646866 43:-1 44:-0.972973 45:-1 46:-1 47:0.0542497 48:-0.0844626 49:0.0542497 50:-0.0844626 51:0.0548127 52:-0.0847542 53:-1 54:-0.973333 55:-1 56:-1 57:0.0541309 58:-0.084558 59:0.0541309 60:-0.084558 61:0.0547844 62:-0.0847769 63:-1 64:-0.973333 65:-1 66:-1 67:-0.00534327 68:0.00547654 69:-0.00534327 70:0.00547654 71:-0.00459234 72:0.00531491 73:-1 74:-0.972222 75:-1 76:-1 77:-0.0477901 78:0.00492738 79:-0.0477901 80:0.00492738 81:-0.0469306 82:0.00485844 83:-1 84:-0.972973 85:-1 86:-1 87:-0.0302051 88:-0.0377755 89:-0.0302051 90:-0.0377755 91:-0.0302051 92:-0.0377755 93:-1 94:-1 95:-1 96:-1 97:-0.0301263 98:-0.0377107 99:-0.0301263 100:-0.0377107 101:-0.0301263 102:-0.0377107 103:-1 104:-1 105:-1 106:-1 107:-0.00877088 108:-0.0739692 109:-0.00877088 110:-0.0739692 111:-0.00819405 112:-0.0742687 113:-1 114:-0.972222 115:-1 116:-1 117:0.0222314 118:0.125169 119:0.0222314 120:0.125169 121:0.0229497 122:0.125017 123:-1 124:-0.972603 125:-1 126:-1 127:0.0216967 128:0.0353921 129:0.0216967 130:0.0353921 131:0.0222714 132:0.0350673 133:-1 134:-0.972603 135:-1 136:-1 137:-0.0393736 138:0.00963952 139:-0.0393736 140:0.00963952 141:-0.0387607 142:0.00939611 143:-1 144:-0.972603 145:-1 146:-1 147:-0.0312497 148:-0.0687029 149:-0.0312497 150:-0.0687029 151:-0.0304893 152:-0.0688556 153:-1 154:-0.972222 155:-1 156:-1 157:0.0693702 158:0.0086207 159:0.213864 160:0.0403486 161:-0.0700836 162:-0.10239 163:-1 164:-0.972603 165:-1 166:-1 
0.9955417143232405 1:0.989272 2:0.58973 3:-0.504475 4:0.123395 5:0.139495 6:-0.993383 7:-1 8:-1 9:-1 10:-0.894003 11:-0.830346 12:0.976112 13:-1 14:-0.94713 15:-0.947263 16:-0.947236 17:-0.0856143 18:0.0144775 19:-0.18916 20:0.0629039 21:-0.0865044 22:-0.107742 23:-1 24:-1 25:-1 26:-1 27:-0.0354591 28:-0.881702 29:-0.0354591 30:-0.881702 31:-0.0354591 32:-0.881702 33:-1 34:-1 35:-1 36:-1 37:0.0558903 38:-0.0646425 39:0.0558903 40:-0.0646425 41:0.0558903 42:-0.0646425 43:-1 44:-1 45:-1 46:-1 47:0.0543387 48:-0.0847413 49:0.0543387 50:-0.0847413 51:0.0543387 52:-0.0847413 53:-1 54:-1 55:-1 56:-1 57:-0.0548999 58:-0.917082 59:-0.0548999 60:-0.917082 61:-0.0548999 62:-0.917082 63:-1 64:-1 65:-1 66:-1 67:-0.121155 68:-0.757854 69:-0.121155 70:-0.757854 71:-0.121155 72:-0.757854 73:-1 74:-1 75:-1 76:-1 77:-0.0476797 78:0.00484034 79:-0.0476797 80:0.00484034 81:-0.0476797 82:0.00484034 83:-1 84:-1 85:-1 86:-1 87:-0.0304875 88:-0.0377169 89:-0.0304875 90:-0.0377169 91:-0.0304875 92:-0.0377169 93:-1 94:-1 95:-1 96:-1 97:-0.0305884 98:-0.0377215 99:-0.0305884 100:-0.0377215 101:-0.0305884 102:-0.0377215 103:-1 104:-1 105:-1 106:-1 107:-0.122349 108:-0.905953 109:-0.122349 110:-0.905953 111:-0.122349 112:-0.905953 113:-1 114:-1 115:-1 116:-1 117:0.0226312 118:0.125052 119:0.0226312 120:0.125052 121:0.0226312 122:0.125052 123:-1 124:-1 125:-1 126:-1 127:0.0220659 128:0.0351324 129:0.0220659 130:0.0351324 131:0.0220659 132:0.0351324 133:-1 134:-1 135:-1 136:-1 137:-0.0389999 138:0.00942618 139:-0.0389999 140:0.00942618 141:-0.0389999 142:0.00942618 143:-1 144:-1 145:-1 146:-1 147:-0.0310112 148:-0.0688248 149:-0.0310112 150:-0.0688248 151:-0.0310112 152:-0.0688248 153:-1 154:-1 155:-1 156:-1 157:0.0872123 158:0.00191431 159:0.237128 160:0.0298994 161:-0.0869369 162:-0.0962263 163:-1 164:-1 165:-1 166:-1 
32 1:0.992827 2:0.581414 3:-0.443662 4:0.312923 5:0.139495 6:-0.977739 7:-0.99728 8:-0.999091 9:-0.9997 10:-0.894003 11:-0.830334 12:0.976112 13:-0.927602 14:-0.867573 15:-0.867906 16:-0.867839 17:-0.0486892 18:0.0144775 19:-0.135546 20:0.0629039 21:-0.0492819 22:-0.107742 23:-1 24:-1 25:-1 26:-1 27:0.0761333 28:0.0459493 29:0.0761333 30:0.0459493 31:0.0768231 32:0.0457517 33:-1 34:-0.948718 35:-1 36:-1 37:0.0561448 38:-0.0644001 39:0.0561448 40:-0.0644001 41:0.0568435 42:-0.0646122 43:-1 44:-0.972973 45:-1 46:-1 47:0.0537304 48:-0.0842647 49:0.0544277 50:-0.0844999 51:0.055155 52:-0.0847685 53:-0.945946 54:-0.973333 55:-1 56:-1 57:0.0544102 58:-0.0844682 59:0.0544102 60:-0.0844682 61:0.0551411 62:-0.084744 63:-1 64:-0.973333 65:-1 66:-1 67:-0.00596067 68:0.00524215 69:-0.00495706 70:0.00556919 71:-0.00417773 72:0.00531328 73:-0.95122 74:-0.972222 75:-1 76:-1 77:-0.0482411 78:0.00460418 79:-0.0473423 80:0.00506188 81:-0.0466431 82:0.00489907 83:-0.945946 84:-0.972973 85:-1 86:-1 87:-0.0314557 88:-0.037953 89:-0.0305921 90:-0.0374083 91:-0.02982 92:-0.0377401 93:-0.945946 94:-0.972222 95:-1 96:-1 97:-0.031454 98:-0.0379566 99:-0.0305764 100:-0.0374371 101:-0.0298223 102:-0.0377365 103:-0.945946 104:-0.972603 105:-1 106:-1 107:-0.00942868 108:-0.0744734 109:-0.00856084 110:-0.0739115 111:-0.00778144 112:-0.0742187 113:-0.947368 114:-0.972222 115:-1 116:-1 117:0.0216942 118:0.124888 119:0.0225726 120:0.125326 121:0.0232872 122:0.125033 123:-0.95122 124:-0.972603 125:-1 126:-1 127:0.020957 128:0.0349207 129:0.0218936 130:0.0354029 131:0.0226793 132:0.0350753 133:-0.95122 134:-0.972603 135:-1 136:-1 137:-0.0400479 138:0.00918776 139:-0.0391588 140:0.00965051 141:-0.0384227 142:0.00941902 143:-0.956522 144:-0.972603 145:-1 146:-1 147:-0.0317859 148:-0.0690337 149:-0.0308756 150:-0.0685592 151:-0.0301353 152:-0.0688055 153:-0.95 154:-0.972222 155:-1 156:-1 157:0.0429796 158:-0.0124591 159:0.241363 160:0.0533857 161:-0.0482245 162:-0.0968694 163:-0.956522 164:-0.972603 165:-1 166:-1 
2.470407294719774 1:0.989023 2:0.575237 3:-0.448407 4:0.112589 5:0.139495 6:-0.973674 7:-0.996972 8:-0.998116 9:-0.999528 10:-0.894003 11:-0.830359 12:0.976112 13:-0.950226 14:-0.829305 15:-0.812657 16:-0.892462 17:-0.117778 18:0.0157637 19:-0.140514 20:0.0456692 21:-0.0407733 22:-0.103197 23:-0.857143 24:-0.95122 25:-0.936869 26:-1 27:0.0754438 28:0.045742 29:0.0767956 30:0.0455347 31:0.0770923 32:0.0456925 33:-0.882353 34:-0.948718 35:-0.935288 36:-1 37:0.0555183 38:-0.0646538 39:0.0568011 40:-0.06478 41:0.0570643 42:-0.0646074 43:-0.837838 44:-0.972973 45:-0.897351 46:-1 47:0.0537725 48:-0.0847201 49:0.0550972 50:-0.0849061 51:0.0553247 52:-0.0846864 53:-0.837838 54:-0.973333 55:-0.930631 56:-1 57:0.0537748 58:-0.0847232 59:0.0540698 60:-0.084604 61:0.055082 62:-0.0848872 63:-0.945946 64:-0.946667 65:-1 66:-0.982194 67:-0.0056242 68:0.00533579 69:-0.00430301 70:0.00526107 71:-0.00407528 72:0.00547642 73:-0.853659 74:-0.972222 75:-0.865397 76:-1 77:-0.0480282 78:0.0048733 79:-0.046668 80:0.00471422 81:-0.0464302 82:0.00491285 83:-0.837838 84:-0.972973 85:-0.897719 86:-1 87:-0.0312068 88:-0.0377206 89:-0.0298961 90:-0.037862 91:-0.0296571 92:-0.0376475 93:-0.837838 94:-0.972222 95:-0.873601 96:-1 97:-0.0312417 98:-0.0376748 99:-0.0309042 100:-0.0376021 101:-0.0298786 102:-0.0378845 103:-0.945946 104:-0.945205 105:-1 106:-0.995305 107:-0.00921499 108:-0.0741806 109:-0.0078281 110:-0.0743759 111:-0.00762814 112:-0.0741127 113:-0.842105 114:-0.972222 115:-0.923141 116:-1 117:0.0219419 118:0.125084 119:0.0232164 120:0.124906 121:0.0234564 122:0.125105 123:-0.853659 124:-0.972603 125:-0.935219 126:-1 127:0.0212656 128:0.0350793 129:0.0215294 130:0.0352679 131:0.0228829 132:0.0351335 133:-0.95122 134:-0.917808 135:-1 136:-0.893507 137:-0.0398088 138:0.00941548 139:-0.0395084 140:0.00952834 141:-0.0384694 142:0.00926752 143:-0.956522 144:-0.945205 145:-1 146:-0.998338 147:-0.0315222 148:-0.0688265 149:-0.0301814 150:-0.0689735 151:-0.0299199 152:-0.0687862 153:-0.85 154:-0.972222 155:-0.914002 156:-1 157:0.0554931 158:0.00289723 159:0.217532 160:0.0410054 161:-0.0534139 162:-0.102174 163:-0.956522 164:-0.945205 165:-1 166:-0.983392 
32 1:0.994199 2:0.576323 3:-0.448665 4:0.112589 5:0.139495 6:-0.973674 7:-0.996972 8:-0.998116 9:-0.999528 10:-0.894003 11:-0.830359 12:0.976112 13:-0.950226 14:-0.829305 15:-0.814164 16:-0.891457 17:-0.118212 18:0.0177523 19:-0.139769 20:0.0401155 21:-0.0392946 22:-0.107267 23:-0.857143 24:-0.95122 25:-0.931453 26:-1 27:0.0754249 28:0.0457892 29:0.0757343 30:0.045904 31:0.0767552 32:0.0455563 33:-0.960784 34:-0.897436 35:-1 36:-0.961309 37:0.0554653 38:-0.0645688 39:0.0567686 40:-0.0647707 41:0.0570101 42:-0.0645719 43:-0.837838 44:-0.972973 45:-0.941555 46:-1 47:0.0537488 48:-0.084672 49:0.0550908 50:-0.0849325 51:0.0553226 52:-0.0847168 53:-0.837838 54:-0.973333 55:-0.928618 56:-1 57:0.0537742 58:-0.0847083 59:0.0540495 60:-0.0845658 61:0.0553566 62:-0.0847617 63:-0.945946 64:-0.92 65:-1 66:-0.897221 67:-0.00564817 68:0.00537561 69:-0.00533058 70:0.00547642 71:-0.00395573 72:0.00531507 73:-0.95122 74:-0.916667 75:-1 76:-0.914296 77:-0.0480549 78:0.00491986 79:-0.0466616 80:0.00467496 81:-0.0464494 82:0.00490511 83:-0.837838 84:-0.972973 85:-0.889762 86:-1 87:-0.0312145 88:-0.037696 89:-0.0298915 90:-0.0379019 91:-0.0296705 92:-0.0376624 93:-0.837838 94:-0.972222 95:-0.872881 96:-1 97:-0.0312191 98:-0.0376891 99:-0.0298938 100:-0.0378985 101:-0.029606 102:-0.037747 103:-0.837838 104:-0.972603 105:-0.853451 106:-1 107:-0.00923347 108:-0.0741392 109:-0.00786131 110:-0.0743673 111:-0.00764302 112:-0.0741232 113:-0.842105 114:-0.972222 115:-0.928726 116:-1 117:0.0219435 118:0.125101 119:0.0231986 120:0.1249 121:0.0234324 122:0.125107 123:-0.853659 124:-0.972603 125:-0.936869 126:-1 127:0.0212066 128:0.0351797 129:0.0225897 130:0.0349365 131:0.0228992 132:0.0350777 133:-0.853659 134:-0.972603 135:-0.935288 136:-1 137:-0.0398009 138:0.00942201 139:-0.0384913 140:0.00926609 141:-0.0382161 142:0.00942041 143:-0.869565 144:-0.972603 145:-0.897351 146:-1 147:-0.0315506 148:-0.0687703 149:-0.030186 150:-0.068997 151:-0.0299436 152:-0.0687859 153:-0.85 154:-0.972222 155:-0.920276 156:-1 157:0.0550493 158:0.00493011 159:0.215842 160:0.0458108 161:-0.0521068 162:-0.105827 163:-0.956522 164:-0.945205 165:-1 166:-0.978864 
32 1:0.994137 2:0.569332 3:-0.453256 4:0.124026 5:0.139495 6:-0.975371 7:-0.996385 8:-1 9:-1 10:-0.894003 11:-0.830346 12:0.976112 13:-0.963801 14:-0.885196 15:-0.885485 16:-0.965829 17:-0.0884949 18:0.0148934 19:-0.193343 20:0.063696 21:0.0119178 22:-0.10812 23:-1 24:-0.95122 25:-1 26:-1 27:0.076163 28:0.0456872 29:0.076163 30:0.0456872 31:0.076163 32:0.0456872 33:-1 34:-1 35:-1 36:-1 37:0.0561566 38:-0.0646474 39:0.0561566 40:-0.0646474 41:0.0579054 42:-0.0645986 43:-1 44:-0.972973 45:-1 46:-1 47:0.0545071 48:-0.0847726 49:0.0545071 50:-0.0847726 51:0.0545071 52:-0.0847726 53:-1 54:-1 55:-1 56:-1 57:0.0545033 58:-0.0847716 59:0.0545033 60:-0.0847716 61:0.0545033 62:-0.0847716 63:-1 64:-1 65:-1 66:-1 67:-0.00501597 68:0.00535718 69:-0.00501597 70:0.00535718 71:-0.00501597 72:0.00535718 73:-1 74:-1 75:-1 76:-1 77:-0.0474632 78:0.00487024 79:-0.0474632 80:0.00487024 81:-0.0474632 82:0.00487024 83:-1 84:-1 85:-1 86:-1 87:-0.0305846 88:-0.0377283 89:-0.0305846 90:-0.0377283 91:-0.0305846 92:-0.0377283 93:-1 94:-1 95:-1 96:-1 97:-0.0305255 98:-0.0377436 99:-0.0305255 100:-0.0377436 101:-0.0305255 102:-0.0377436 103:-1 104:-1 105:-1 106:-1 107:-0.00860264 108:-0.074197 109:-0.00860264 110:-0.074197 111:-0.00860264 112:-0.074197 113:-1 114:-1 115:-1 116:-1 117:0.0225206 118:0.125052 119:0.0225206 120:0.125052 121:0.0238689 122:0.125194 123:-1 124:-0.972603 125:-1 126:-1 127:0.0219022 128:0.0351063 129:0.0219022 130:0.0351063 131:0.0239571 132:0.035102 133:-1 134:-0.972603 135:-1 136:-1 137:-0.0391405 138:0.00939998 139:-0.0391405 140:0.00939998 141:-0.037769 142:0.009541 143:-1 144:-0.972603 145:-1 146:-1 147:-0.0307572 148:-0.0688605 149:-0.0307572 150:-0.0688605 151:-0.0307572 152:-0.0688605 153:-1 154:-1 155:-1 156:-1 157:0.0872123 158:0.00191431 159:0.237128 160:0.0298994 161:-0.0869369 162:-0.0962263 163:-1 164:-1 165:-1 166:-1 
32 1:0.99133 2:0.555857 3:-0.454597 4:0.112589 5:0.130754 6:-0.993383 7:-0.999268 8:-1 9:-1 10:-0.894003 11:-0.830346 12:0.976112 13:-0.9819 14:-0.881168 15:-0.881467 16:-0.853266 17:-0.0381039 18:0.0170599 19:-0.120176 20:0.0678224 21:-0.0860302 22:-0.110096 23:-1 24:-0.95122 25:-1 26:-1 27:0.0770299 28:0.0457828 29:0.0770299 30:0.0457828 31:0.0761049 32:0.0456737 33:-1 34:-0.948718 35:-1 36:-1 37:0.0569707 38:-0.0645154 39:0.0569707 40:-0.0645154 41:0.0561183 42:-0.0646569 43:-1 44:-0.972973 45:-1 46:-1 47:0.0553035 48:-0.0846618 49:0.0553035 50:-0.0846618 51:0.054397 52:-0.0847598 53:-1 54:-0.973333 55:-1 56:-1 57:0.0552789 58:-0.0846411 59:0.0552789 60:-0.0846411 61:0.0543939 62:-0.0847572 63:-1 64:-0.973333 65:-1 66:-1 67:-0.00400732 68:0.00541104 69:-0.00400732 70:0.00541104 71:-0.00499032 72:0.00533531 73:-1 74:-0.972222 75:-1 76:-1 77:-0.0464374 78:0.00492207 79:-0.0464374 80:0.00492207 81:-0.04742 82:0.0048648 83:-1 84:-0.972973 85:-1 86:-1 87:-0.0297225 88:-0.0375923 89:-0.0297225 90:-0.0375923 91:-0.0305227 92:-0.037794 93:-1 94:-0.972222 95:-1 96:-1 97:-0.029616 98:-0.0376813 99:-0.029616 100:-0.0376813 101:-0.0306109 102:-0.0377213 103:-1 104:-0.972603 105:-1 106:-1 107:-0.00768759 108:-0.0740689 109:-0.00768759 110:-0.0740689 111:-0.00857372 112:-0.0742131 113:-1 114:-0.972222 115:-1 116:-1 117:0.0234599 118:0.125109 119:0.0234599 120:0.125109 121:0.022587 122:0.125004 123:-1 124:-0.972603 125:-1 126:-1 127:0.0229882 128:0.0350668 129:0.0229882 130:0.0350668 131:0.0219049 132:0.0350747 133:-1 134:-0.972603 135:-1 136:-1 137:-0.0382204 138:0.00946413 139:-0.0382204 140:0.00946413 141:-0.0391505 142:0.00937405 143:-1 144:-0.972603 145:-1 146:-1 147:-0.0309111 148:-0.0688268 149:-0.0309111 150:-0.0688268 151:-0.0309111 152:-0.0688268 153:-1 154:-1 155:-1 156:-1 157:0.0872123 158:0.00191431 159:0.237128 160:0.0298994 161:-0.0869369 162:-0.0962263 163:-1 164:-1 165:-1 166:-1 
32 1:0.99052 2:0.551377 3:-0.470277 4:0.112589 5:0.139495 6:-0.992012 7:-0.99965 8:-0.999195 9:-0.999857 10:-0.894003 11:-0.830346 12:0.976112 13:-0.850679 14:-0.792044 15:-0.769463 16:-0.830653 17:-0.0386074 18:0.0964557 19:-0.0455486 20:0.134552 21:-0.0179213 22:-0.167542 23:-0.904762 24:-0.609756 25:-0.935006 26:-0.808105 27:0.0767839 28:0.047152 29:0.0779344 30:0.0463824 31:0.0774697 32:0.044622 33:-0.921569 34:-0.589744 35:-0.954431 36:-0.893376 37:0.0566145 38:-0.0633217 39:0.0577858 40:-0.0640121 41:0.0573792 42:-0.06558 43:-0.891892 44:-0.783784 45:-0.994333 46:-0.863969 47:0.0549782 48:-0.0836451 49:0.0559358 50:-0.0842895 51:0.0556029 52:-0.0856966 53:-0.891892 54:-0.813333 55:-0.934411 56:-0.924987 57:0.0547413 58:-0.0835903 59:0.0557915 60:-0.0842588 61:0.0553807 62:-0.0858743 63:-0.891892 64:-0.786667 65:-0.953323 66:-0.921905 67:-0.00477633 68:0.00643945 69:-0.00376433 70:0.00584327 71:-0.00404461 72:0.00432716 73:-0.902439 74:-0.777778 75:-0.993002 76:-0.906926 77:-0.0472506 78:0.00595557 79:-0.0463009 80:0.00516749 81:-0.0465723 82:0.00383991 83:-0.837838 84:-0.810811 85:-0.908282 86:-0.905199 87:-0.0305529 88:-0.0364774 89:-0.0296072 90:-0.0373592 91:-0.0298791 92:-0.0388412 93:-0.837838 94:-0.805556 95:-0.903128 96:-0.939436 97:-0.0306375 98:-0.0366891 99:-0.0300291 100:-0.0372731 101:-0.0302532 102:-0.0387887 103:-0.891892 104:-0.808219 105:-0.941241 106:-0.943015 107:-0.00850333 108:-0.0732141 109:-0.00784002 110:-0.0737919 111:-0.00797724 112:-0.0752787 113:-0.894737 114:-0.805556 115:-0.96011 116:-0.876359 117:0.0225409 118:0.126076 119:0.0231775 120:0.125478 121:0.0229916 122:0.12396 123:-0.902439 124:-0.808219 125:-0.989926 126:-0.935044 127:0.0218059 128:0.0362028 129:0.0223428 130:0.0356111 131:0.0220072 132:0.034036 133:-0.902439 134:-0.808219 135:-0.940592 136:-0.867029 137:-0.0392667 138:0.0103549 139:-0.0387576 140:0.0098461 141:-0.0391388 142:0.0084895 143:-0.913043 144:-0.808219 145:-0.930957 146:-0.895867 147:-0.0309482 148:-0.067813 149:-0.0306003 150:-0.068329 151:-0.0309209 152:-0.0698095 153:-0.9 154:-0.805556 155:-0.924999 156:-0.872533 157:0.0860117 158:0.0682273 159:0.248539 160:0.0832984 161:-0.0907034 162:-0.15557 163:-0.913043 164:-0.808219 165:-0.946851 166:-0.899357 
32 1:0.99052 2:0.551377 3:-0.470277 4:0.112589 5:-0.0124903 6:-0.98063 7:-0.998113 8:-0.996872 9:-0.999599 10:-0.894003 11:-0.830371 12:0.976112 13:-0.927602 14:-0.819235 15:-0.804621 16:-0.888442 17:-0.0702113 18:-0.0633555 19:-0.21959 20:0.115391 21:-0.069292 22:-0.0413586 23:-0.809524 24:-0.902439 25:-0.932335 26:-0.979428 27:0.0763742 28:0.0444239 29:0.0756478 30:0.0461788 31:0.0764159 32:0.0469341 33:-0.843137 34:-0.897436 35:-0.96954 36:-0.960202 37:0.0564066 38:-0.0657695 39:0.0556858 40:-0.0642225 41:0.0564357 42:-0.0635568 43:-0.783784 44:-0.945946 45:-0.95597 46:-0.94647 47:0.054691 48:-0.0858986 49:0.0540149 50:-0.0843266 51:0.054712 52:-0.0836436 53:-0.783784 54:-0.946667 55:-0.939722 56:-0.971671 57:0.0547107 58:-0.0859012 59:0.054007 60:-0.0843259 61:0.0545929 62:-0.0836343 63:-0.783784 64:-0.946667 65:-0.939354 66:-0.965248 67:-0.00461397 68:0.00428556 69:-0.00543337 70:0.0057374 71:-0.00462076 72:0.00635836 73:-0.804878 74:-0.944444 75:-0.930522 76:-0.983241 77:-0.0470814 78:0.0037922 79:-0.0478136 80:0.00523698 81:-0.0471377 82:0.00586619 83:-0.783784 84:-0.945946 85:-0.948947 86:-0.930838 87:-0.0302631 88:-0.0389106 89:-0.0309431 90:-0.0373062 91:-0.0301688 92:-0.0366136 93:-0.783784 94:-0.944444 95:-0.88716 96:-0.99674 97:-0.030287 98:-0.0389082 99:-0.0309833 100:-0.0373031 101:-0.0302333 102:-0.0366093 103:-0.783784 104:-0.945205 105:-0.918473 106:-0.978763 107:-0.00826271 108:-0.0753615 109:-0.00894594 110:-0.0737928 111:-0.00824496 112:-0.0731082 113:-0.789474 114:-0.944444 115:-0.938326 116:-0.960541 117:0.0228905 118:0.123851 119:0.022162 120:0.125469 121:0.0229189 122:0.126161 123:-0.804878 124:-0.945205 125:-0.940546 126:-0.969977 127:0.022204 128:0.0338781 129:0.0214615 130:0.0355578 131:0.0222096 132:0.0362845 133:-0.804878 134:-0.945205 135:-0.933996 136:-0.970988 137:-0.0388412 138:0.00833975 139:-0.0396204 140:0.00979687 141:-0.0389009 142:0.0104252 143:-0.826087 144:-0.945205 145:-0.948486 146:-0.96198 147:-0.0305475 148:-0.0699811 149:-0.0313374 150:-0.0684084 151:-0.0305131 152:-0.0677378 153:-0.8 154:-0.944444 155:-0.946058 156:-0.975163 157:0.103605 158:-0.0742727 159:0.209549 160:0.0720703 161:-0.0702017 162:-0.0304406 163:-0.826087 164:-0.945205 165:-0.965727 166:-0.942719 
21.00526607035017 1:0.990831 2:0.560405 3:-0.47234 4:0.112589 5:-0.0127943 6:-0.98063 7:-0.998113 8:-0.996872 9:-0.999599 10:-0.894003 11:-0.830371 12:0.976112 13:-0.927602 14:-0.816213 15:-0.804621 16:-0.888442 17:-0.0623629 18:-0.0609715 19:-0.217018 20:0.110345 21:-0.0737496 22:-0.039557 23:-0.809524 24:-0.902439 25:-0.929639 26:-0.97627 27:0.0765161 28:0.0444608 29:0.0756752 30:0.046132 31:0.0763102 32:0.0469641 33:-0.843137 34:-0.897436 35:-0.917527 36:-0.967552 37:0.05659 38:-0.0657373 39:0.0557009 40:-0.0642633 41:0.056328 42:-0.0635304 43:-0.783784 44:-0.945946 45:-0.928707 46:-0.96985 47:0.0547985 48:-0.0858631 49:0.0539666 50:-0.084364 51:0.0547122 52:-0.0836153 53:-0.783784 54:-0.946667 55:-0.940681 56:-0.985826 57:0.0548704 58:-0.0858656 59:0.0539508 60:-0.0843639 61:0.0546048 62:-0.0836173 63:-0.783784 64:-0.946667 65:-0.942395 66:-0.954642 67:-0.00453678 68:0.00432497 69:-0.00541672 70:0.0057005 71:-0.00475972 72:0.00638528 73:-0.804878 74:-0.944444 75:-0.919263 76:-0.975023 77:-0.0469696 78:0.00382464 79:-0.0477808 80:0.00519989 81:-0.0470713 82:0.0058863 83:-0.783784 84:-0.945946 85:-0.893494 86:-0.989757 87:-0.0301043 88:-0.0388736 89:-0.0310079 90:-0.037341 91:-0.0303016 92:-0.0365777 93:-0.783784 94:-0.944444 95:-0.88857 96:-0.981552 97:-0.0301447 98:-0.0388721 99:-0.0310158 100:-0.037341 101:-0.0303703 102:-0.036579 103:-0.783784 104:-0.945205 105:-0.912916 106:-0.957403 107:-0.00808397 108:-0.0753281 109:-0.00904543 110:-0.073828 111:-0.00833965 112:-0.0730819 113:-0.789474 114:-0.944444 115:-0.960835 116:-0.952375 117:0.0229916 118:0.123894 119:0.0221539 120:0.125429 121:0.0228191 122:0.126195 123:-0.804878 124:-0.945205 125:-0.932335 126:-0.97814 127:0.0223091 128:0.0339199 129:0.0214112 130:0.0355184 131:0.0221308 132:0.036315 133:-0.804878 134:-0.945205 135:-0.96954 136:-0.960202 137:-0.0387463 138:0.00837781 139:-0.0396328 140:0.00975993 141:-0.038933 142:0.0104485 143:-0.826087 144:-0.945205 145:-0.95597 146:-0.943268 147:-0.0304557 148:-0.0699396 149:-0.0313044 150:-0.0684482 151:-0.0306522 152:-0.0677055 153:-0.8 154:-0.944444 155:-0.930724 156:-0.969345 157:0.112099 158:-0.0720168 159:0.210939 160:0.0680215 161:-0.0799251 162:-0.0288947 163:-0.826087 164:-0.945205 165:-0.939354 166:-0.958748 
32 1:0.687707 2:0.576086 3:-0.227234 4:0.125498 5:0.128449 6:-0.989689 7:-0.999062 8:-0.999118 9:-0.999871 10:-0.894003 11:-0.830346 12:0.976112 13:-0.968326 14:-0.882175 15:-0.882471 16:-0.882412 17:-0.047507 18:0.0144775 19:-0.133829 20:0.0629039 21:-0.0480902 22:-0.107742 23:-1 24:-1 25:-1 26:-1 27:0.0766205 28:0.0457473 29:0.0766205 30:0.0457473 31:0.0766205 32:0.0457473 33:-1 34:-1 35:-1 36:-1 37:0.0566642 38:-0.064624 39:0.0566642 40:-0.064624 41:0.0566642 42:-0.064624 43:-1 44:-1 45:-1 46:-1 47:0.054858 48:-0.0847298 49:0.054858 50:-0.0847298 51:0.054858 52:-0.0847298 53:-1 54:-1 55:-1 56:-1 57:0.0548074 58:-0.0847311 59:0.0548074 60:-0.0847311 61:0.0548074 62:-0.0847311 63:-1 64:-1 65:-1 66:-1 67:-0.00449902 68:0.00534557 69:-0.00449902 70:0.00534557 71:-0.00449902 72:0.00534557 73:-1 74:-1 75:-1 76:-1 77:-0.0469564 78:0.00484657 79:-0.0469564 80:0.00484657 81:-0.0469564 82:0.00484657 83:-1 84:-1 85:-1 86:-1 87:-0.030209 88:-0.0377246 89:-0.030209 90:-0.0377246 91:-0.030209 92:-0.0377246 93:-1 94:-1 95:-1 96:-1 97:-0.0302691 98:-0.0377129 99:-0.0302691 100:-0.0377129 101:-0.0302691 102:-0.0377129 103:-1 104:-1 105:-1 106:-1 107:-0.00819835 108:-0.0741948 109:-0.00819835 110:-0.0741948 111:-0.00819835 112:-0.0741948 113:-1 114:-1 115:-1 116:-1 117:0.0227527 118:0.125082 119:0.0227527 120:0.125082 121:0.0227527 122:0.125082 123:-1 124:-1 125:-1 126:-1 127:0.0220692 128:0.0351461 129:0.0220692 130:0.0351461 131:0.0220692 132:0.0351461 133:-1 134:-1 135:-1 136:-1 137:-0.0390544 138:0.00942873 139:-0.0390544 140:0.00942873 141:-0.0390544 142:0.00942873 143:-1 144:-1 145:-1 146:-1 147:-0.0307513 148:-0.068834 149:-0.0307513 150:-0.068834 151:-0.0307513 152:-0.068834 153:-1 154:-1 155:-1 156:-1 157:0.0872123 158:0.00191431 159:0.237128 160:0.0298994 161:-0.0869369 162:-0.0962263 163:-1 164:-1 165:-1 166:-1 
32 1:0.687707 2:0.576086 3:-0.227234 4:0.124052 5:0.139495 6:-0.993383 7:-0.999268 8:-1 9:-1 10:-0.894003 11:-0.830346 12:0.976112 13:-0.9819 14:-0.901813 15:-0.902059 16:-0.90201 17:-0.0511777 18:0.0144775 19:-0.139159 20:0.0629039 21:-0.0517905 22:-0.107742 23:-1 24:-1 25:-1 26:-1 27:0.0766423 28:0.0457301 29:0.0766423 30:0.0457301 31:0.0766423 32:0.0457301 33:-1 34:-1 35:-1 36:-1 37:0.0567359 38:-0.0646497 39:0.0567359 40:-0.0646497 41:0.0567359 42:-0.0646497 43:-1 44:-1 45:-1 46:-1 47:0.05491 48:-0.0847505 49:0.05491 50:-0.0847505 51:0.05491 52:-0.0847505 53:-1 54:-1 55:-1 56:-1 57:0.0547772 58:-0.0847341 59:0.0547772 60:-0.0847341 61:0.0547772 62:-0.0847341 63:-1 64:-1 65:-1 66:-1 67:-0.00440706 68:0.00532015 69:-0.00440706 70:0.00532015 71:-0.00440706 72:0.00532015 73:-1 74:-1 75:-1 76:-1 77:-0.047089 78:0.00486257 79:-0.047089 80:0.00486257 81:-0.047089 82:0.00486257 83:-1 84:-1 85:-1 86:-1 87:-0.0302281 88:-0.0377286 89:-0.0302281 90:-0.0377286 91:-0.0302281 92:-0.0377286 93:-1 94:-1 95:-1 96:-1 97:-0.0303238 98:-0.037708 99:-0.0303238 100:-0.037708 101:-0.0303238 102:-0.037708 103:-1 104:-1 105:-1 106:-1 107:-0.00819346 108:-0.074202 109:-0.00819346 110:-0.074202 111:-0.00819346 112:-0.074202 113:-1 114:-1 115:-1 116:-1 117:0.0229506 118:0.125035 119:0.0229506 120:0.125035 121:0.0229506 122:0.125035 123:-1 124:-1 125:-1 126:-1 127:0.0221561 128:0.0351246 129:0.0221561 130:0.0351246 131:0.0221561 132:0.0351246 133:-1 134:-1 135:-1 136:-1 137:-0.0392381 138:0.00946082 139:-0.0392381 140:0.00946082 141:-0.0392381 142:0.00946082 143:-1 144:-1 145:-1 146:-1 147:-0.0307433 148:-0.0688383 149:-0.0307433 150:-0.0688383 151:-0.0307433 152:-0.0688383 153:-1 154:-1 155:-1 156:-1 157:0.0872123 158:0.00191431 159:0.237128 160:0.0298994 161:-0.0869369 162:-0.0962263 163:-1 164:-1 165:-1 166:-1 
32 1:0.766606 2:0.576764 3:-0.347724 4:0.123999 5:0.127511 6:-0.993383 7:-0.999268 8:-1 9:-1 10:-0.894003 11:-0.830346 12:0.976112 13:-0.9819 14:-0.878651 15:-0.878955 16:-0.878894 17:-0.0502559 18:0.0144775 19:-0.137821 20:0.0629039 21:-0.0508613 22:-0.107742 23:-1 24:-1 25:-1 26:-1 27:0.0766278 28:0.045738 29:0.0766278 30:0.045738 31:0.0766278 32:0.045738 33:-1 34:-1 35:-1 36:-1 37:0.0566277 38:-0.064617 39:0.0566277 40:-0.064617 41:0.0566277 42:-0.064617 43:-1 44:-1 45:-1 46:-1 47:0.0548626 48:-0.0847174 49:0.0548626 50:-0.0847174 51:0.0548626 52:-0.0847174 53:-1 54:-1 55:-1 56:-1 57:0.0548601 58:-0.0847195 59:0.0548601 60:-0.0847195 61:0.0548601 62:-0.0847195 63:-1 64:-1 65:-1 66:-1 67:-0.00457613 68:0.00538138 69:-0.00457613 70:0.00538138 71:-0.00457613 72:0.00538138 73:-1 74:-1 75:-1 76:-1 77:-0.0470111 78:0.00488085 79:-0.0470111 80:0.00488085 81:-0.0470111 82:0.00488085 83:-1 84:-1 85:-1 86:-1 87:-0.0302768 88:-0.037689 89:-0.0302768 90:-0.037689 91:-0.0302768 92:-0.037689 93:-1 94:-1 95:-1 96:-1 97:-0.0303323 98:-0.0376863 99:-0.0303323 100:-0.0376863 101:-0.0303323 102:-0.0376863 103:-1 104:-1 105:-1 106:-1 107:-0.00832649 108:-0.074174 109:-0.00832649 110:-0.074174 111:-0.00832649 112:-0.074174 113:-1 114:-1 115:-1 116:-1 117:0.0228786 118:0.12504 119:0.0228786 120:0.12504 121:0.0228786 122:0.12504 123:-1 124:-1 125:-1 126:-1 127:0.021969 128:0.0351433 129:0.021969 130:0.0351433 131:0.021969 132:0.0351433 133:-1 134:-1 135:-1 136:-1 137:-0.039063 138:0.00941517 139:-0.039063 140:0.00941517 141:-0.039063 142:0.00941517 143:-1 144:-1 145:-1 146:-1 147:-0.0308683 148:-0.0688182 149:-0.0308683 150:-0.0688182 151:-0.0308683 152:-0.0688182 153:-1 154:-1 155:-1 156:-1 157:0.0872123 158:0.00191431 159:0.237128 160:0.0298994 161:-0.0869369 162:-0.0962263 163:-1 164:-1 165:-1 166:-1 
15.49606856612454 1:0.81114 2:0.590476 3:-0.465119 4:0.112589 5:0.139495 6:-0.990469 7:-0.998989 8:-0.999064 9:-0.999843 10:-0.894003 11:-0.830346 12:0.976112 13:-0.941176 14:-0.844914 15:-0.845304 16:-0.836181 17:-0.0616434 18:0.0234294 19:-0.154355 20:0.0799539 21:-0.0857242 22:-0.115894 23:-1 24:-0.95122 25:-1 26:-1 27:0.0765674 28:0.0459065 29:0.0760925 30:0.0456247 31:0.0755519 32:0.0455263 33:-0.960784 34:-0.948718 35:-1 36:-1 37:0.056588 38:-0.0644547 39:0.0561217 40:-0.0647029 41:0.0555969 42:-0.0648043 43:-0.945946 44:-0.972973 45:-1 46:-1 47:0.0548922 48:-0.0846003 49:0.054408 50:-0.0848042 51:0.0538406 52:-0.0847988 53:-0.945946 54:-0.973333 55:-1 56:-1 57:0.0548652 58:-0.0845213 59:0.0544385 60:-0.0848758 61:0.0538732 62:-0.0848739 63:-0.945946 64:-0.973333 65:-1 66:-1 67:-0.00445722 68:0.00547237 69:-0.00496726 70:0.00527514 71:-0.00555428 72:0.00524588 73:-0.95122 74:-0.972222 75:-1 76:-1 77:-0.0468528 78:0.00495578 79:-0.0473644 80:0.00479298 81:-0.0479021 82:0.00468805 83:-0.945946 84:-0.972973 85:-1 86:-1 87:-0.0300583 88:-0.0376227 89:-0.0305379 90:-0.0378651 91:-0.0310863 92:-0.037932 93:-0.945946 94:-0.972222 95:-1 96:-1 97:-0.0300946 98:-0.0375471 99:-0.0300946 100:-0.0375471 101:-0.0305541 102:-0.0378436 103:-1 104:-0.972603 105:-1 106:-1 107:-0.00806885 108:-0.0740493 109:-0.00853575 110:-0.0743472 111:-0.00912466 112:-0.0743453 113:-0.947368 114:-0.972222 115:-1 116:-1 117:0.0230068 118:0.125226 119:0.0225602 120:0.124952 121:0.021985 122:0.125023 123:-0.95122 124:-0.972603 125:-1 126:-1 127:0.0223597 128:0.0352873 129:0.0218751 130:0.0350055 131:0.0213356 132:0.0348674 133:-0.95122 134:-0.972603 135:-1 136:-1 137:-0.0387153 138:0.00957997 139:-0.0391792 140:0.00931208 141:-0.0397284 142:0.00924103 143:-0.956522 144:-0.972603 145:-1 146:-1 147:-0.0304017 148:-0.0686753 149:-0.0309192 150:-0.0688408 151:-0.0314971 152:-0.0688618 153:-0.95 154:-0.972222 155:-1 156:-1 157:0.114353 158:0.0109617 159:0.239443 160:0.021231 161:-0.11425 162:-0.099426 163:-0.956522 164:-0.972603 165:-1 166:-1 
32 1:0.866775 2:0.599267 3:-0.535938 4:0.112589 5:-0.173621 6:-0.989689 7:-0.999062 8:-0.999118 9:-0.999871 10:-0.894003 11:-0.830346 12:0.976112 13:-0.968326 14:-0.805136 15:-0.819186 16:-0.869347 17:-0.096475 18:0.00995809 19:-0.167504 20:0.0726016 21:-0.0549465 22:-0.108263 23:-0.952381 24:-0.95122 25:-1 26:-1 27:0.0755447 28:0.0457413 29:0.0764443 30:0.0458604 31:0.0767348 32:0.0457097 33:-0.921569 34:-0.948718 35:-0.940678 36:-1 37:0.055576 38:-0.0646213 39:0.056479 40:-0.0644917 41:0.0567369 42:-0.0646587 43:-0.891892 44:-0.972973 45:-0.921844 46:-1 47:0.0538992 48:-0.0846947 49:0.0547752 50:-0.0845936 51:0.0550424 52:-0.084751 53:-0.891892 54:-0.973333 55:-0.941169 56:-1 57:0.053855 58:-0.0847591 59:0.0547717 60:-0.0846083 61:0.0550881 62:-0.0847022 63:-0.891892 64:-0.973333 65:-0.962038 66:-1 67:-0.00554011 68:0.00536391 69:-0.00515829 70:0.0053154 71:-0.0045664 72:0.00550246 73:-0.95122 74:-0.972222 75:-1 76:-1 77:-0.0479182 78:0.00485016 79:-0.0475361 80:0.00481303 81:-0.0469676 82:0.00499154 83:-0.945946 84:-0.972973 85:-1 86:-1 87:-0.0311149 88:-0.0377448 89:-0.0307567 90:-0.0378086 91:-0.0301743 92:-0.0375813 93:-0.945946 94:-0.972222 95:-1 96:-1 97:-0.0310886 98:-0.037728 99:-0.030723 100:-0.037782 101:-0.0301485 102:-0.0375641 103:-0.945946 104:-0.972603 105:-1 106:-1 107:-0.00905673 108:-0.0742028 109:-0.0086803 110:-0.0742523 111:-0.00813432 112:-0.0740893 113:-0.947368 114:-0.972222 115:-1 116:-1 117:0.0220963 118:0.125018 119:0.0224228 120:0.124935 121:0.0229991 122:0.125193 123:-0.95122 124:-0.972603 125:-1 126:-1 127:0.0213842 128:0.0350894 129:0.0217584 130:0.0350298 131:0.0223973 132:0.0353182 133:-0.95122 134:-0.972603 135:-1 136:-1 137:-0.0396521 138:0.00939312 139:-0.0392784 140:0.00935029 141:-0.0387071 142:0.00953845 143:-0.956522 144:-0.972603 145:-1 146:-1 147:-0.031332 148:-0.0688084 149:-0.0310178 150:-0.0689292 151:-0.0304387 152:-0.0687234 153:-0.95 154:-0.972222 155:-1 156:-1 157:0.065254 158:0.000654795 159:0.231412 160:0.0190196 161:-0.0620548 162:-0.0886447 163:-0.956522 164:-0.972603 165:-1 166:-1 
0.9973185200216278 1:0.922223 2:0.615219 3:-0.589426 4:0.12137 5:0.139495 6:-0.993383 7:-0.999268 8:-1 9:-1 10:-0.894003 11:-0.830346 12:0.976112 13:-0.9819 14:-0.942095 15:-0.94224 16:-0.942211 17:-0.0562364 18:0.0144775 19:-0.146504 20:0.0629039 21:-0.0568899 22:-0.107742 23:-1 24:-1 25:-1 26:-1 27:0.0765064 28:0.045721 29:0.0765064 30:0.045721 31:0.0765064 32:0.045721 33:-1 34:-1 35:-1 36:-1 37:0.0562582 38:-0.0646141 39:0.0562582 40:-0.0646141 41:0.0562582 42:-0.0646141 43:-1 44:-1 45:-1 46:-1 47:0.0544206 48:-0.084717 49:0.0544206 50:-0.084717 51:0.0544206 52:-0.084717 53:-1 54:-1 55:-1 56:-1 57:-0.166424 58:-0.894049 59:-0.166424 60:-0.894049 61:-0.166424 62:-0.894049 63:-1 64:-1 65:-1 66:-1 67:-0.00457234 68:0.00535174 69:-0.00457234 70:0.00535174 71:-0.00457234 72:0.00535174 73:-1 74:-1 75:-1 76:-1 77:-0.0471385 78:0.004862 79:-0.0471385 80:0.004862 81:-0.0471385 82:0.004862 83:-1 84:-1 85:-1 86:-1 87:-0.0302324 88:-0.0377228 89:-0.0302324 90:-0.0377228 91:-0.0302324 92:-0.0377228 93:-1 94:-1 95:-1 96:-1 97:-0.0305662 98:-0.0377005 99:-0.0305662 100:-0.0377005 101:-0.0305662 102:-0.0377005 103:-1 104:-1 105:-1 106:-1 107:-0.238456 108:-0.882937 109:-0.238456 110:-0.882937 111:-0.238456 112:-0.882937 113:-1 114:-1 115:-1 116:-1 117:-0.191591 118:-0.703221 119:-0.191591 120:-0.703221 121:-0.191591 122:-0.703221 123:-1 124:-1 125:-1 126:-1 127:0.0223114 128:0.0351071 129:0.0223114 130:0.0351071 131:0.0223114 132:0.0351071 133:-1 134:-1 135:-1 136:-1 137:-0.0389539 138:0.00941268 139:-0.0389539 140:0.00941268 141:-0.0389539 142:0.00941268 143:-1 144:-1 145:-1 146:-1 147:-0.259473 148:-0.873504 149:-0.259473 150:-0.873504 151:-0.259473 152:-0.873504 153:-1 154:-1 155:-1 156:-1 157:0.0872123 158:0.00191431 159:0.237128 160:0.0298994 161:-0.0869369 162:-0.0962263 163:-1 164:-1 165:-1 166:-1 
32 1:0.886484 2:0.603815 3:-0.555848 4:0.168982 5:0.139495 6:-0.990469 7:-0.998989 8:-0.999064 9:-0.999843 10:-0.894003 11:-0.830346 12:0.976112 13:-0.941176 14:-0.918429 15:-0.918634 16:-0.876884 17:-0.0376393 18:0.0148615 19:-0.119502 20:0.0636353 21:-0.0762373 22:-0.108088 23:-1 24:-0.95122 25:-1 26:-1 27:0.0770724 28:0.045728 29:0.0770724 30:0.045728 31:0.0763031 32:0.0456845 33:-1 34:-0.948718 35:-1 36:-1 37:0.0570852 38:-0.0646268 39:0.0570852 40:-0.0646268 41:0.0563411 42:-0.0646147 43:-1 44:-0.972973 45:-1 46:-1 47:0.0554062 48:-0.0846088 49:0.0554062 50:-0.0846088 51:0.0546379 52:-0.0847107 53:-1 54:-0.973333 55:-1 56:-1 57:0.0554033 58:-0.0846806 59:0.0554033 60:-0.0846806 61:0.0546304 62:-0.0848063 63:-1 64:-0.973333 65:-1 66:-1 67:-0.00392858 68:0.00533329 69:-0.00392858 70:0.00533329 71:-0.00472708 72:0.00530852 73:-1 74:-0.972222 75:-1 76:-1 77:-0.0463258 78:0.00484932 79:-0.0463258 80:0.00484932 81:-0.0470999 82:0.00483914 83:-1 84:-0.972973 85:-1 86:-1 87:-0.0295062 88:-0.0375644 89:-0.0295062 90:-0.0375644 91:-0.0303025 92:-0.0377326 93:-1 94:-0.972222 95:-1 96:-1 97:-0.0303073 98:-0.0377346 99:-0.0303073 100:-0.0377346 101:-0.0303073 102:-0.0377346 103:-1 104:-1 105:-1 106:-1 107:-0.00826338 108:-0.0741661 109:-0.00826338 110:-0.0741661 111:-0.00826338 112:-0.0741661 113:-1 114:-1 115:-1 116:-1 117:0.0228664 118:0.125138 119:0.0228664 120:0.125138 121:0.0228664 122:0.125138 123:-1 124:-1 125:-1 126:-1 127:0.0222182 128:0.0351615 129:0.0222182 130:0.0351615 131:0.0222182 132:0.0351615 133:-1 134:-1 135:-1 136:-1 137:-0.0388334 138:0.00941985 139:-0.0388334 140:0.00941985 141:-0.0396267 142:0.00928697 143:-1 144:-0.972603 145:-1 146:-1 147:-0.030536 148:-0.0688321 149:-0.030536 150:-0.0688321 151:-0.0312828 152:-0.0687237 153:-1 154:-0.972222 155:-1 156:-1 157:0.107208 158:0.00352699 159:0.2632 160:0.0324121 161:-0.105824 162:-0.0977073 163:-1 164:-0.972603 165:-1 166:-1 
32 1:0.863282 2:0.609958 3:-0.570135 4:-0.0489661 5:0.0230295 6:-0.995004 7:-0.999268 8:-1 9:-1 10:-0.894003 11:-0.830346 12:0.976112 13:-0.927602 14:-0.830816 15:-0.808137 16:-0.836683 17:-0.0329776 18:0.0190626 19:-0.169871 20:0.0070219 21:-0.137059 22:-0.0757363 23:-0.904762 24:-0.853659 25:-0.93229 26:-0.957891 27:0.0771563 28:0.0457352 29:0.0763595 30:0.0452462 31:0.07508 32:0.04629 33:-0.921569 34:-0.846154 35:-0.918887 36:-0.941268 37:0.0571529 38:-0.0645368 39:0.0563732 40:-0.0650508 41:0.055115 42:-0.0640919 43:-0.891892 44:-0.918919 45:-0.903064 46:-0.967293 47:0.0554293 48:-0.0846706 49:0.0546508 50:-0.0851782 51:0.0533961 52:-0.0842173 53:-0.891892 54:-0.92 55:-0.923653 56:-0.962703 57:0.0554253 58:-0.0846789 59:0.0546467 60:-0.0851824 61:0.0533928 62:-0.0842295 63:-0.891892 64:-0.92 65:-0.928573 66:-0.968194 67:-0.00390152 68:0.00538917 69:-0.00473118 70:0.00498311 71:-0.00605877 72:0.00578305 73:-0.902439 74:-0.916667 75:-0.856629 76:-0.949672 77:-0.0463257 78:0.00492611 79:-0.0471329 80:0.00449763 81:-0.0484308 82:0.00536819 83:-0.891892 84:-0.918919 85:-0.866421 86:-0.992749 87:-0.0295535 88:-0.0376532 89:-0.0303482 90:-0.0381135 91:-0.0316262 92:-0.0371368 93:-0.891892 94:-0.916667 95:-0.84002 96:-0.980812 97:-0.0295609 98:-0.0376532 99:-0.0303552 100:-0.0381218 101:-0.0316281 102:-0.0372151 103:-0.891892 104:-0.917808 105:-0.817299 106:-0.961044 107:-0.00752154 108:-0.0741461 109:-0.00833322 110:-0.0746129 111:-0.00963984 112:-0.0736486 113:-0.894737 114:-0.916667 115:-0.924255 116:-0.966823 117:0.0235263 118:0.125066 119:0.0227674 120:0.124675 121:0.0215553 122:0.125568 123:-0.902439 124:-0.917808 125:-0.881375 126:-0.965784 127:0.0229126 128:0.035214 129:0.0220946 130:0.0347031 131:0.0207798 132:0.0356975 133:-0.902439 134:-0.917808 135:-0.906081 136:-0.945082 137:-0.0381722 138:0.00948947 139:-0.0389745 140:0.00909994 141:-0.040255 142:0.00987032 143:-0.913043 144:-0.917808 145:-0.883834 146:-0.946978 147:-0.0298818 148:-0.0687598 149:-0.0306892 150:-0.0692121 151:-0.0319866 152:-0.0682766 153:-0.9 154:-0.916667 155:-0.882387 156:-0.963909 157:0.140304 158:0.00396812 159:0.252374 160:-0.0108986 161:-0.138711 162:-0.0628727 163:-0.913043 164:-0.917808 165:-0.904539 166:-0.981255 
32 1:0.888293 2:0.59163 3:-0.577511 4:-0.0487295 5:0.0230802 6:-0.995004 7:-0.999268 8:-1 9:-1 10:-0.894003 11:-0.830346 12:0.976112 13:-0.927602 14:-0.835851 15:-0.809141 16:-0.834673 17:-0.0336851 18:0.00419673 19:-0.178212 20:0.00363554 21:-0.129445 22:-0.06027 23:-0.904762 24:-0.853659 25:-0.917931 26:-0.989295 27:0.0771474 28:0.0455668 29:0.076241 30:0.0451667 31:0.0752259 32:0.0465322 33:-0.921569 34:-0.846154 35:-0.922957 36:-0.98463 37:0.0571352 38:-0.0648054 39:0.0562622 40:-0.0650804 41:0.0552528 42:-0.0639479 43:-0.891892 44:-0.918919 45:-0.929049 46:-0.944561 47:0.0554091 48:-0.0849053 49:0.0545328 50:-0.0852094 51:0.0535336 52:-0.0840079 53:-0.891892 54:-0.92 55:-0.947515 56:-0.967686 57:0.0554111 58:-0.0848562 59:0.0545247 60:-0.0852077 61:0.0535357 62:-0.0839466 63:-0.891892 64:-0.92 65:-0.922081 66:-0.988782 67:-0.00392666 68:0.00521958 69:-0.00485482 70:0.00495534 71:-0.00591535 72:0.00606802 73:-0.902439 74:-0.916667 75:-0.897508 76:-0.984395 77:-0.0463463 78:0.00471101 79:-0.0472504 80:0.00444301 81:-0.0482801 82:0.00556727 83:-0.891892 84:-0.918919 85:-0.864527 86:-0.989151 87:-0.0295596 88:-0.0378525 89:-0.0304601 90:-0.0382031 91:-0.0314788 92:-0.0369889 93:-0.891892 94:-0.916667 95:-0.883047 96:-0.968921 97:-0.0295702 98:-0.0378804 99:-0.0304606 100:-0.0381826 101:-0.0314908 102:-0.0370332 103:-0.891892 104:-0.917808 105:-0.895808 106:-0.940074 107:-0.00752464 108:-0.0743288 109:-0.00844304 110:-0.07466 111:-0.00947855 112:-0.0734354 113:-0.894737 114:-0.916667 115:-0.923685 116:-0.956328 117:0.0235182 118:0.124875 119:0.0226688 120:0.124564 121:0.0217073 122:0.125834 123:-0.902439 124:-0.917808 125:-0.93229 126:-0.955255 127:0.0228972 128:0.0348876 129:0.0219932 130:0.0346353 131:0.0209478 132:0.0359293 133:-0.902439 134:-0.917808 135:-0.918887 136:-0.941268 137:-0.038174 138:0.00928616 139:-0.0390764 140:0.00899164 141:-0.0400916 142:0.0101467 143:-0.913043 144:-0.917808 145:-0.903064 146:-0.965337 147:-0.029892 148:-0.0689848 149:-0.0307984 150:-0.069287 151:-0.0318248 152:-0.0680566 153:-0.9 154:-0.916667 155:-0.912256 156:-0.959641 157:0.139616 158:-0.00946665 159:0.244962 160:-0.0184796 161:-0.130996 162:-0.050697 163:-0.913043 164:-0.917808 165:-0.928573 166:-0.962245 
19.21816736449272 1:0.900455 2:0.580803 3:-0.632444 4:0.112589 5:0.139495 6:-0.988499 7:-0.999352 8:-0.99787 9:-1 10:-0.894003 11:-0.830346 12:0.976112 13:-0.954751 14:-0.828298 15:-0.795078 16:-0.825126 17:-0.113303 18:0.017522 19:-0.167234 20:0.0562341 21:-0.0517771 22:-0.100033 23:-0.857143 24:-0.95122 25:-0.956978 26:-1 27:0.0755144 28:0.04573 29:0.0763833 30:0.0456283 31:0.0767544 32:0.0457833 33:-0.882353 34:-0.948718 35:-0.997256 36:-1 37:0.0555774 38:-0.0645682 39:0.0564162 40:-0.0646819 41:0.0567659 42:-0.0645736 43:-0.837838 44:-0.972973 45:-0.965665 46:-1 47:0.0538699 48:-0.0846602 49:0.0546835 50:-0.0848226 51:0.0550454 52:-0.084687 53:-0.837838 54:-0.973333 55:-0.965024 56:-1 57:0.0538745 58:-0.0846434 59:0.0546825 60:-0.0848164 61:0.0550444 62:-0.0846809 63:-0.837838 64:-0.973333 65:-0.955762 66:-1 67:-0.00556762 68:0.00541995 69:-0.00470037 70:0.00527407 71:-0.0043042 72:0.00541812 73:-0.853659 74:-0.972222 75:-0.984035 76:-1 77:-0.0479445 78:0.00492067 79:-0.0471001 80:0.00477464 81:-0.0467255 82:0.00489886 83:-0.837838 84:-0.972973 85:-0.970704 86:-1 87:-0.0311047 88:-0.037576 89:-0.0303164 90:-0.0378184 91:-0.0299222 92:-0.0376287 93:-0.837838 94:-0.972222 95:-0.91262 96:-1 97:-0.031136 98:-0.0376237 99:-0.030313 100:-0.0378008 101:-0.0299353 102:-0.0376442 103:-0.837838 104:-0.972603 105:-0.93837 106:-1 107:-0.00913379 108:-0.0741 109:-0.00827879 110:-0.0742485 111:-0.00787592 112:-0.0740627 113:-0.842105 114:-0.972222 115:-0.959919 116:-1 117:0.0220179 118:0.125144 119:0.0228041 120:0.12497 121:0.0231676 122:0.125134 123:-0.853659 124:-0.972603 125:-0.938382 126:-1 127:0.0212559 128:0.0351673 129:0.0221214 130:0.0350117 131:0.0225168 132:0.0351864 133:-0.853659 134:-0.972603 135:-0.95849 136:-1 137:-0.039754 138:0.00952046 139:-0.0389428 140:0.00932706 141:-0.0385395 142:0.00950805 143:-0.869565 144:-0.972603 145:-0.946123 146:-1 147:-0.0314694 148:-0.0686941 149:-0.0306757 150:-0.0689492 151:-0.0302539 152:-0.0687254 153:-0.85 154:-0.972222 155:-0.974853 156:-1 157:0.0590864 158:0.0105264 159:0.253602 160:0.0174745 161:-0.0555692 162:-0.0923819 163:-0.869565 164:-0.972603 165:-0.956986 166:-1 
32 1:0.900455 2:0.580803 3:-0.632444 4:-0.0480197 5:0.0229028 6:-0.990688 7:-0.999247 8:-0.99881 9:-0.999871 10:-0.894003 11:-0.830346 12:0.976112 13:-0.914027 14:-0.844914 15:-0.807132 16:-0.827136 17:-0.038174 18:-0.0118138 19:-0.189514 20:0.00331563 21:-0.120198 22:-0.052026 23:-0.904762 24:-0.853659 25:-0.96201 26:-0.96513 27:0.0770504 28:0.045273 29:0.0760743 30:0.0451618 31:0.0754051 32:0.0467028 33:-0.921569 34:-0.846154 35:-0.984954 36:-0.972554 37:0.0570542 38:-0.0650139 39:0.0560832 40:-0.0651365 41:0.0554499 42:-0.0637331 43:-0.891892 44:-0.918919 45:-0.970681 46:-0.985756 47:0.0553505 48:-0.0850917 49:0.0543916 50:-0.0851949 51:0.0537333 52:-0.0838151 53:-0.891892 54:-0.92 55:-0.956249 56:-0.970577 57:0.0553318 58:-0.0851151 59:0.0543549 60:-0.0852544 61:0.0537525 62:-0.083763 63:-0.891892 64:-0.92 65:-0.972109 66:-0.981746 67:-0.00399774 68:0.00502253 69:-0.0050439 70:0.00488181 71:-0.00570247 72:0.00621598 73:-0.902439 74:-0.916667 75:-0.951428 76:-0.968378 77:-0.0464426 78:0.00448017 79:-0.0474085 80:0.00442763 81:-0.048069 82:0.00572975 83:-0.891892 84:-0.918919 85:-0.961008 86:-0.95829 87:-0.0296496 88:-0.0381258 89:-0.0306172 90:-0.038217 91:-0.0312522 92:-0.0367388 93:-0.891892 94:-0.916667 95:-0.908862 96:-0.992317 97:-0.0296368 98:-0.0381072 99:-0.0306235 100:-0.0382345 101:-0.0312489 102:-0.0367381 103:-0.891892 104:-0.917808 105:-0.895331 106:-0.988766 107:-0.00760438 108:-0.0745868 109:-0.00860559 110:-0.0746973 111:-0.00926165 112:-0.0732647 113:-0.894737 114:-0.916667 115:-0.965453 116:-0.984138 117:0.0234667 118:0.124671 119:0.0225248 120:0.12454 121:0.0219378 122:0.126059 123:-0.902439 124:-0.917808 125:-0.956308 126:-0.993699 127:0.0228407 128:0.0347069 129:0.0218473 130:0.0346198 131:0.0211969 132:0.0361717 133:-0.902439 134:-0.917808 135:-0.948984 136:-0.989706 137:-0.0382545 138:0.00904022 139:-0.0392295 140:0.00895809 141:-0.0398468 142:0.0103325 143:-0.913043 144:-0.917808 145:-0.964518 146:-0.977856 147:-0.0299691 148:-0.0692346 149:-0.0309389 150:-0.0692985 151:-0.0316035 152:-0.0678983 153:-0.9 154:-0.916667 155:-0.948289 156:-0.947138 157:0.135944 158:-0.0252697 159:0.236383 160:-0.017555 161:-0.119746 162:-0.0395874 163:-0.913043 164:-0.917808 165:-0.960217 166:-0.973415 
0.479240504645384 1:0.925903 2:0.587931 3:-0.653488 4:0.112589 5:0.139495 6:-0.993383 7:-1 8:-1 9:-1 10:-0.894003 11:-0.830346 12:0.976112 13:-1 14:-0.955186 15:-0.955299 16:-0.955276 17:-0.0721536 18:0.0144775 19:-0.169615 20:0.0629039 21:-0.0729353 22:-0.107742 23:-1 24:-1 25:-1 26:-1 27:0.0762626 28:0.0457134 29:0.0762626 30:0.0457134 31:0.0762626 32:0.0457134 33:-1 34:-1 35:-1 36:-1 37:0.0559758 38:-0.0646552 39:0.0559758 40:-0.0646552 41:0.0559758 42:-0.0646552 43:-1 44:-1 45:-1 46:-1 47:-0.324242 48:0.703957 49:-0.324242 50:0.703957 51:-0.324242 52:0.703957 53:-1 54:-1 55:-1 56:-1 57:-0.324242 58:0.703957 59:-0.324242 60:0.703957 61:-0.324242 62:0.703957 63:-1 64:-1 65:-1 66:-1 67:-0.407414 68:0.728546 69:-0.407414 70:0.728546 71:-0.407414 72:0.728546 73:-1 74:-1 75:-1 76:-1 77:-0.439107 78:0.728409 79:-0.439107 80:0.728409 81:-0.439107 82:0.728409 83:-1 84:-1 85:-1 86:-1 87:-0.416026 88:0.767271 89:-0.416026 90:0.767271 91:-0.416026 92:0.767271 93:-1 94:-1 95:-1 96:-1 97:-0.416026 98:0.767271 99:-0.416026 100:0.767271 101:-0.416026 102:0.767271 103:-1 104:-1 105:-1 106:-1 107:-0.40276 108:0.713932 109:-0.40276 110:0.713932 111:-0.40276 112:0.713932 113:-1 114:-1 115:-1 116:-1 117:-0.344645 118:0.932215 119:-0.344645 120:0.932215 121:-0.344645 122:0.932215 123:-1 124:-1 125:-1 126:-1 127:-0.375412 128:0.87594 129:-0.375412 130:0.87594 131:-0.375412 132:0.87594 133:-1 134:-1 135:-1 136:-1 137:-0.427774 138:0.736199 139:-0.427774 140:0.736199 141:-0.427774 142:0.736199 143:-1 144:-1 145:-1 146:-1 147:-0.422838 148:0.715365 149:-0.422838 150:0.715365 151:-0.422838 152:0.715365 153:-1 154:-1 155:-1 156:-1 157:0.0872123 158:0.00191431 159:0.237128 160:0.0298994 161:-0.0869369 162:-0.0962263 163:-1 164:-1 165:-1 166:-1 
11.09033489029668 1:0.965384 2:0.564308 3:-0.727195 4:0.112589 5:-0.00777791 6:-0.965638 7:-0.995536 8:-0.998355 9:-0.999714 10:-0.894003 11:-0.830359 12:0.976112 13:-0.914027 14:-0.873112 15:-0.803616 16:-0.908543 17:-0.137633 18:-0.0320519 19:-0.15012 20:0.135977 21:-0.015095 22:-0.108796 23:-0.761905 24:-0.902439 25:-0.939248 26:-0.988248 27:0.0750508 28:0.0448937 29:0.0762951 30:0.0462221 31:0.0775028 32:0.0457947 33:-0.843137 34:-0.846154 35:-0.976484 36:-0.885843 37:0.0550993 38:-0.0653604 39:0.0566372 40:-0.0639897 41:0.0575349 42:-0.0646821 43:-0.72973 44:-0.945946 45:-0.975427 46:-0.97282 47:0.05339 48:-0.0854921 49:0.0549392 50:-0.0841545 51:0.0558042 52:-0.0847263 53:-0.72973 54:-0.946667 55:-0.95154 56:-0.986244 57:0.053386 58:-0.0854547 59:0.0549371 60:-0.0841331 61:0.055797 62:-0.0846853 63:-0.72973 64:-0.946667 65:-0.959059 66:-0.972497 67:-0.00604536 68:0.00460317 69:-0.00440418 70:0.00586285 71:-0.00350346 72:0.00540707 73:-0.756098 74:-0.944444 75:-0.927004 76:-0.96982 77:-0.0484249 78:0.00420875 79:-0.0468196 80:0.00541759 81:-0.0463543 82:0.00507389 83:-0.72973 84:-0.972973 85:-0.956916 86:-1 87:-0.0316135 88:-0.0383971 89:-0.0300224 90:-0.0371128 91:-0.0295776 92:-0.037439 93:-0.72973 94:-0.972222 95:-0.941247 96:-1 97:-0.0315935 98:-0.0384715 99:-0.0303515 100:-0.0372583 101:-0.0295574 102:-0.0374963 103:-0.783784 104:-0.945205 105:-0.981131 106:-0.870841 107:-0.00960078 108:-0.0748816 109:-0.00831917 110:-0.0737532 111:-0.00751363 112:-0.0739587 113:-0.789474 114:-0.944444 115:-0.968274 116:-0.840821 117:0.0216004 118:0.12434 119:0.022788 120:0.125528 121:0.0235488 122:0.125269 123:-0.804878 124:-0.945205 125:-0.970001 126:-0.874453 127:0.0208592 128:0.0342925 129:0.0224755 130:0.0357657 131:0.0229447 132:0.0353791 133:-0.756098 134:-0.972603 135:-0.948802 136:-1 137:-0.0401974 138:0.00882301 139:-0.0389362 140:0.00986721 141:-0.0381313 142:0.00963429 143:-0.826087 144:-0.945205 145:-0.924612 146:-0.869248 147:-0.0319067 148:-0.0695244 149:-0.0302975 150:-0.0682253 151:-0.0298325 152:-0.0685937 153:-0.75 154:-0.972222 155:-0.9463 156:-1 157:0.0363826 158:-0.043153 159:0.279174 160:0.0875102 161:-0.0344659 162:-0.0819742 163:-0.782609 164:-0.972603 165:-0.96846 166:-1 
4.326659629474783 1:0.965384 2:0.564308 3:-0.727195 4:-0.047967 5:0.0195333 6:-0.978678 7:-0.997659 8:-0.998725 9:-0.9998 10:-0.894003 11:-0.830359 12:0.976112 13:-0.886878 14:-0.862538 15:-0.808639 16:-0.921608 17:-0.130075 18:-0.0282464 19:-0.222437 20:0.096609 21:-0.0123847 22:-0.0976362 23:-0.904762 24:-0.804878 25:-0.999657 26:-0.881548 27:0.0752161 28:0.0449586 29:0.0756264 30:0.0460175 31:0.0776347 32:0.045795 33:-0.921569 34:-0.794872 35:-0.982071 36:-0.965172 37:0.0552252 38:-0.0652301 39:0.0556827 40:-0.0643987 41:0.0571806 42:-0.0645919 43:-0.891892 44:-0.918919 45:-0.967561 46:-0.92628 47:0.0535326 48:-0.0853846 49:0.0539495 50:-0.0844628 51:0.055909 52:-0.0846486 53:-0.891892 54:-0.893333 55:-0.989883 56:-0.932212 57:0.0535488 58:-0.0854092 59:0.053966 60:-0.0844873 61:0.0554612 62:-0.0846842 63:-0.891892 64:-0.92 65:-0.969176 66:-0.983033 67:-0.00593773 68:0.00481738 69:-0.00545485 70:0.00559722 71:-0.00385528 72:0.0054005 73:-0.902439 74:-0.916667 75:-0.954914 76:-0.964611 77:-0.0482927 78:0.00430625 79:-0.0478185 80:0.00508008 81:-0.0462505 82:0.00486756 83:-0.891892 84:-0.918919 85:-0.981915 86:-0.959803 87:-0.031427 88:-0.0384297 89:-0.0310333 90:-0.0374308 91:-0.0294814 92:-0.0376856 93:-0.891892 94:-0.916667 95:-0.967 96:-0.96046 97:-0.031459 98:-0.0383521 99:-0.0310432 100:-0.0373971 101:-0.0294756 102:-0.0376806 103:-0.891892 104:-0.917808 105:-0.963564 106:-0.978197 107:-0.00939711 108:-0.0749211 109:-0.00899405 110:-0.0739428 111:-0.00742287 112:-0.0741637 113:-0.894737 114:-0.916667 115:-0.993336 116:-0.917283 117:0.021763 118:0.124362 119:0.0221357 120:0.125367 121:0.0236292 122:0.125083 123:-0.902439 124:-0.917808 125:-0.996007 126:-0.971523 127:0.0210015 128:0.0344417 129:0.0214343 130:0.035432 131:0.0230424 132:0.0351514 133:-0.902439 134:-0.917808 135:-0.978243 136:-0.953019 137:-0.0400611 138:0.00887954 139:-0.0395991 140:0.00966991 141:-0.0380175 142:0.0094149 143:-0.913043 144:-0.917808 145:-0.978206 146:-0.961045 147:-0.0317176 148:-0.0695118 149:-0.0313075 150:-0.068556 151:-0.0297286 152:-0.0688033 153:-0.9 154:-0.916667 155:-0.991066 156:-0.957404 157:0.0450335 158:-0.0407861 159:0.210017 160:0.0600891 161:-0.0309081 162:-0.0919768 163:-0.913043 164:-0.917808 165:-0.994858 166:-0.959237 
32 1:0.951662 2:0.551309 3:-0.718582 4:-0.0479934 5:0.021408 6:-0.978678 7:-0.997659 8:-0.998725 9:-0.9998 10:-0.894003 11:-0.830359 12:0.976112 13:-0.886878 14:-0.862034 15:-0.807634 16:-0.915075 17:-0.131872 18:-0.0226131 19:-0.220602 20:0.104015 21:-0.00739484 22:-0.112904 23:-0.904762 24:-0.804878 25:-0.979531 26:-0.930928 27:0.0751793 28:0.0450614 29:0.0756666 30:0.0460644 31:0.077629 32:0.0457429 33:-0.921569 34:-0.794872 35:-0.972336 36:-0.952925 37:0.0552091 38:-0.0651663 39:0.0556949 40:-0.064301 41:0.0571656 42:-0.0645837 43:-0.891892 44:-0.918919 45:-0.994093 46:-0.953492 47:0.05349 48:-0.0852658 49:0.0539681 50:-0.0843697 51:0.0554796 52:-0.0847486 53:-0.891892 54:-0.92 55:-0.969478 56:-0.972137 57:0.0535211 58:-0.0853326 59:0.0539869 60:-0.0844066 61:0.0559702 62:-0.084818 63:-0.891892 64:-0.893333 65:-0.999707 66:-0.949503 67:-0.00594563 68:0.00485956 69:-0.00544262 70:0.00569139 71:-0.00333029 72:0.00530378 73:-0.902439 74:-0.888889 75:-0.941947 76:-0.96295 77:-0.0483266 78:0.00440237 79:-0.0478154 80:0.00519056 81:-0.0457759 82:0.00483261 83:-0.891892 84:-0.891892 85:-0.940344 86:-0.955714 87:-0.031473 88:-0.0383192 89:-0.0309855 90:-0.0374042 91:-0.0290426 92:-0.0376691 93:-0.891892 94:-0.888889 95:-0.987938 96:-0.935796 97:-0.0314697 98:-0.0383227 99:-0.0309871 100:-0.0373964 101:-0.0289843 102:-0.0377829 103:-0.891892 104:-0.890411 105:-0.950636 106:-0.953036 107:-0.00949622 108:-0.0747268 109:-0.00898121 110:-0.0738681 111:-0.00700803 112:-0.0741026 113:-0.894737 114:-0.888889 115:-0.972393 116:-0.868945 117:0.0216896 118:0.124507 119:0.0221646 120:0.125398 121:0.024004 122:0.125154 123:-0.902439 124:-0.890411 125:-0.999657 126:-0.874132 127:0.02095 128:0.0345125 129:0.021442 130:0.0354914 131:0.0234863 132:0.0351251 133:-0.902439 134:-0.890411 135:-0.982071 136:-0.965172 137:-0.0401166 138:0.00895521 139:-0.039587 140:0.00970284 141:-0.0380706 142:0.00942075 143:-0.913043 144:-0.917808 145:-0.967561 146:-0.92187 147:-0.0318185 148:-0.0693533 149:-0.03132 150:-0.0684697 151:-0.0293107 152:-0.068797 153:-0.9 154:-0.888889 155:-0.988373 156:-0.926646 157:0.0419682 158:-0.0349953 159:0.211471 160:0.0632082 161:-0.0315149 162:-0.0950351 163:-0.913043 164:-0.917808 165:-0.969176 166:-0.97986 
0.289158967073366 1:0.957276 2:0.558844 3:-0.74236 4:0.0117387 5:0.139495 6:-0.797716 7:-0.967903 8:-0.948205 9:-0.973193 10:-0.894341 11:-0.834022 12:0.975073 13:-0.78733 14:-0.881672 15:-0.8222 16:-0.880402 17:0.0905977 18:0.0619758 19:-0.18413 20:-0.0340896 21:-0.239956 22:0.00377621 23:-0.666667 24:-0.609756 25:-0.764229 26:-0.66331 27:0.0796419 28:0.046476 29:0.0757332 30:0.0449275 31:0.073025 32:0.0478405 33:-0.686275 34:-0.641026 35:-0.67505 36:-0.66363 37:0.0596054 38:-0.0639405 39:0.0561772 40:-0.0654095 41:0.0530992 42:-0.0628168 43:-0.621622 44:-0.783784 45:-0.759671 46:-0.608231 47:0.057876 48:-0.0840621 49:0.0540489 50:-0.08544 51:0.0513961 52:-0.0828175 53:-0.567568 54:-0.813333 55:-0.688984 56:-0.733702 57:0.0578796 58:-0.0840336 59:0.0544617 60:-0.0855067 61:0.0513841 62:-0.0828889 63:-0.621622 64:-0.786667 65:-0.762813 66:-0.684875 67:-0.00132462 68:0.0059236 69:-0.00493111 70:0.00466225 71:-0.00820149 72:0.00707337 73:-0.658537 74:-0.777778 75:-0.678816 76:-0.653413 77:-0.0437841 78:0.00553643 79:-0.0473405 80:0.00409746 81:-0.0505057 82:0.00660814 83:-0.621622 84:-0.783784 85:-0.67902 86:-0.682442 87:-0.0270672 88:-0.0370447 89:-0.0309635 90:-0.0384648 91:-0.0336589 92:-0.0357565 93:-0.567568 94:-0.805556 95:-0.585512 96:-0.760535 97:-0.0270662 98:-0.037032 99:-0.0305445 100:-0.038545 101:-0.0336723 102:-0.03585 103:-0.621622 104:-0.780822 105:-0.66351 106:-0.674102 107:-0.00496304 108:-0.0735134 109:-0.00895034 110:-0.0749073 111:-0.0117123 112:-0.0722877 113:-0.578947 114:-0.805556 115:-0.73573 116:-0.696176 117:0.0259052 118:0.125715 119:0.022201 120:0.124332 121:0.0196221 122:0.126966 123:-0.609756 124:-0.808219 125:-0.693486 126:-0.71669 127:0.0254978 128:0.0358197 129:0.0219184 130:0.0342649 131:0.018697 132:0.0371017 133:-0.658537 134:-0.780822 135:-0.769162 136:-0.620891 137:-0.0356334 138:0.010038 139:-0.0391365 140:0.00869073 141:-0.0422923 142:0.0111136 143:-0.695652 144:-0.780822 145:-0.771823 146:-0.56819 147:-0.0273209 148:-0.0681677 149:-0.0308421 150:-0.0695663 151:-0.0340236 152:-0.0669198 153:-0.65 154:-0.777778 155:-0.744453 156:-0.669213 157:0.27206 158:0.0472503 159:0.213235 160:-0.0419044 161:-0.237412 162:0.016718 163:-0.652174 164:-0.808219 165:-0.677295 166:-0.735737 
32 1:0.957276 2:0.558844 3:-0.74236 4:-0.0479145 5:0.0202426 6:-0.965526 7:-0.996706 8:-0.997154 9:-0.999385 10:-0.894003 11:-0.830309 12:0.976112 13:-0.895928 14:-0.873112 15:-0.808137 16:-0.886935 17:-0.045257 18:-0.0477216 19:-0.199599 20:-0.019247 21:-0.0997892 22:-0.0242775 23:-0.904762 24:-0.804878 25:-0.983502 26:-0.939624 27:0.0768997 28:0.0446765 29:0.0758886 30:0.0449494 31:0.0757599 32:0.0471853 33:-0.921569 34:-0.794872 35:-0.955903 36:-0.946625 37:0.0569045 38:-0.0655485 39:0.0559684 40:-0.0652638 41:0.0557861 42:-0.0633389 43:-0.891892 44:-0.891892 45:-0.970407 46:-0.931572 47:0.0551942 48:-0.0856669 49:0.0542439 50:-0.0853894 51:0.0541198 52:-0.0833786 53:-0.891892 54:-0.893333 55:-0.960661 56:-0.943333 57:0.0552249 58:-0.0856397 59:0.0542275 60:-0.0853993 61:0.0540977 62:-0.0833944 63:-0.891892 64:-0.893333 65:-0.988363 66:-0.953502 67:-0.00417058 68:0.00450077 69:-0.00518356 70:0.0047525 71:-0.00534098 72:0.00657625 73:-0.902439 74:-0.888889 75:-0.946989 76:-0.937785 77:-0.0465333 78:0.00403799 79:-0.0475362 80:0.004279 81:-0.0477971 82:0.00602296 83:-0.891892 84:-0.891892 85:-0.984623 86:-0.910789 87:-0.02973 88:-0.0386146 89:-0.0307488 90:-0.0383719 91:-0.0308973 92:-0.0363384 93:-0.891892 94:-0.888889 95:-0.987153 96:-0.937831 97:-0.0298012 98:-0.0386678 99:-0.0307842 100:-0.0383981 101:-0.030904 102:-0.0363418 103:-0.891892 104:-0.890411 105:-0.938671 106:-0.951157 107:-0.00777189 108:-0.0751328 109:-0.00874134 110:-0.0748413 111:-0.00892767 112:-0.0728796 113:-0.894737 114:-0.888889 115:-0.957833 116:-0.926651 117:0.0233073 118:0.124101 119:0.0224223 120:0.124416 121:0.0222832 122:0.126458 123:-0.902439 124:-0.890411 125:-0.989868 126:-0.938715 127:0.0226927 128:0.0341393 129:0.0216696 130:0.0344132 131:0.0215273 132:0.0365442 133:-0.902439 134:-0.890411 135:-0.969621 136:-0.931016 137:-0.0383496 138:0.00859016 139:-0.0393283 140:0.0088437 141:-0.0394844 142:0.0106752 143:-0.913043 144:-0.890411 145:-0.999693 146:-0.93273 147:-0.0301399 148:-0.0697736 149:-0.031029 150:-0.0694266 151:-0.0312589 152:-0.0675098 153:-0.9 154:-0.888889 155:-0.95359 156:-0.926511 157:0.132605 158:-0.0557596 159:0.224951 160:-0.0382317 161:-0.103136 162:-0.0166433 163:-0.913043 164:-0.890411 165:-0.987938 166:-0.953704 
32 1:0.962702 2:0.552022 3:-0.735912 4:0.112589 5:0.139495 6:-0.989689 7:-0.999062 8:-0.999118 9:-0.999871 10:-0.894003 11:-0.830346 12:0.976112 13:-0.968326 14:-0.826284 15:-0.812155 16:-0.853769 17:-0.119562 18:-0.0127862 19:-0.154315 20:0.0812881 21:-0.0563435 22:-0.0819133 23:-0.857143 24:-0.95122 25:-0.898481 26:-1 27:0.0753688 28:0.0452758 29:0.0765505 30:0.0458859 31:0.076705 32:0.0461853 33:-0.882353 34:-0.948718 35:-0.919368 36:-1 37:0.055425 38:-0.0650238 39:0.0566191 40:-0.0644969 41:0.0566947 42:-0.0642089 43:-0.837838 44:-0.972973 45:-0.920272 46:-1 47:0.0537394 48:-0.0851487 49:0.0549014 50:-0.0846011 51:0.0549389 52:-0.0842955 53:-0.837838 54:-0.973333 55:-0.886878 56:-1 57:0.0537144 58:-0.0851419 59:0.0548839 60:-0.0845974 61:0.0549898 62:-0.0843138 63:-0.837838 64:-0.973333 65:-0.894578 66:-1 67:-0.00572172 68:0.00498559 69:-0.00448277 70:0.00548587 71:-0.00436622 72:0.0057448 73:-0.853659 74:-0.972222 75:-0.866656 76:-1 77:-0.0480695 78:0.00447625 79:-0.0468671 80:0.00497838 81:-0.0467576 82:0.00523875 83:-0.837838 84:-0.972973 85:-0.872007 86:-1 87:-0.031293 88:-0.0381372 89:-0.030087 90:-0.0375871 91:-0.0300024 92:-0.0372901 93:-0.837838 94:-0.972222 95:-0.8686 96:-1 97:-0.0312608 98:-0.0381511 99:-0.0301047 100:-0.0375836 101:-0.030051 102:-0.0372769 103:-0.837838 104:-0.972603 105:-0.837816 106:-1 107:-0.00927916 108:-0.0746119 109:-0.0080496 110:-0.0740719 111:-0.00795907 112:-0.0737822 113:-0.842105 114:-0.972222 115:-0.922852 116:-1 117:0.0218859 118:0.124632 119:0.0230459 120:0.12518 121:0.0231192 122:0.12548 123:-0.853659 124:-0.972603 125:-0.907213 126:-1 127:0.0211728 128:0.0346807 129:0.0223923 130:0.0352642 131:0.0224795 132:0.0355744 133:-0.853659 134:-0.972603 135:-0.887092 136:-1 137:-0.0398562 138:0.00903172 139:-0.0386555 140:0.00953408 141:-0.0385507 142:0.00979688 143:-0.869565 144:-0.972603 145:-0.909676 146:-1 147:-0.0316346 148:-0.0692128 149:-0.0303927 150:-0.0686821 151:-0.0303027 152:-0.068394 153:-0.85 154:-0.972222 155:-0.901965 156:-1 157:0.0524081 158:-0.024597 159:0.271331 160:0.0448774 161:-0.0551418 162:-0.0709748 163:-0.869565 164:-0.972603 165:-0.902133 166:-1 
32 1:0.958897 2:0.561186 3:-0.721831 4:0.17148 5:0.139495 6:-0.975371 7:-0.996385 8:-1 9:-1 10:-0.894003 11:-0.830346 12:0.976112 13:-0.963801 14:-0.943102 15:-0.943245 16:-0.873367 17:-0.0307043 18:0.0197941 19:-0.109432 20:0.07303 21:-0.0725642 22:-0.112583 23:-1 24:-0.95122 25:-1 26:-1 27:0.0763649 28:0.0455777 29:0.0763649 30:0.0455777 31:0.0763649 32:0.0455777 33:-1 34:-1 35:-1 36:-1 37:0.0563836 38:-0.0647568 39:0.0563836 40:-0.0647568 41:0.0563836 42:-0.0647568 43:-1 44:-1 45:-1 46:-1 47:0.055632 48:-0.0842406 49:0.055632 50:-0.0842406 51:0.0546735 52:-0.084853 53:-1 54:-0.973333 55:-1 56:-1 57:0.0546613 58:-0.0849058 59:0.0546613 60:-0.0849058 61:0.0539414 62:-0.0847837 63:-1 64:-0.973333 65:-1 66:-1 67:-0.00377503 68:0.00554849 69:-0.00377503 70:0.00554849 71:-0.00468894 72:0.00526878 73:-1 74:-0.972222 75:-1 76:-1 77:-0.0462006 78:0.00504704 79:-0.0462006 80:0.00504704 81:-0.0470952 82:0.00475299 83:-1 84:-0.972973 85:-1 86:-1 87:-0.0294226 88:-0.0375125 89:-0.0294226 90:-0.0375125 91:-0.0302906 92:-0.0378004 93:-1 94:-0.972222 95:-1 96:-1 97:-0.0302798 98:-0.0377835 99:-0.0302798 100:-0.0377835 101:-0.0302798 102:-0.0377835 103:-1 104:-1 105:-1 106:-1 107:-0.00824851 108:-0.0742803 109:-0.00824851 110:-0.0742803 111:-0.00824851 112:-0.0742803 113:-1 114:-1 115:-1 116:-1 117:0.0236152 118:0.125011 119:0.0228403 120:0.124891 121:0.0221589 122:0.125075 123:-0.95122 124:-0.972603 125:-1 126:-1 127:0.0221925 128:0.0349787 129:0.0221925 130:0.0349787 131:0.0221925 132:0.0349787 133:-1 134:-1 135:-1 136:-1 137:-0.0388702 138:0.00929522 139:-0.0388702 140:0.00929522 141:-0.0396695 142:0.00923005 143:-1 144:-0.972603 145:-1 146:-1 147:-0.0305687 148:-0.0689211 149:-0.0305687 150:-0.0689211 151:-0.0305687 152:-0.0689211 153:-1 154:-1 155:-1 156:-1 157:0.106492 158:-0.00147399 159:0.262266 160:0.0246201 161:-0.105148 162:-0.0931142 163:-1 164:-0.972603 165:-1 166:-1 
1.313074466151983 1:0.958897 2:0.561186 3:-0.721831 4:0.0121068 5:0.139495 6:-0.7779 7:-0.964268 8:-0.930191 9:-0.952938 10:-0.893834 11:-0.832497 12:0.972866 13:-0.79638 14:-0.880665 15:-0.822702 16:-0.870854 17:0.0156494 18:0.216514 19:-0.148688 20:-0.00326728 21:-0.262841 22:-0.151868 23:-0.666667 24:-0.609756 25:-0.740577 26:-0.639768 27:0.0781419 28:0.0490849 29:0.0762918 30:0.0448914 31:0.0725753 32:0.0448912 33:-0.686275 34:-0.641026 35:-0.695362 36:-0.731885 37:0.0581626 38:-0.0617257 39:0.056667 40:-0.0651297 41:0.0526675 42:-0.0653601 43:-0.621622 44:-0.783784 45:-0.77604 46:-0.580295 47:0.0564542 48:-0.0818047 49:0.0545918 50:-0.0854762 51:0.0509172 52:-0.0854309 53:-0.567568 54:-0.813333 55:-0.722186 56:-0.775233 57:0.0564958 58:-0.081883 59:0.0549538 60:-0.0852588 61:0.0509426 62:-0.085467 63:-0.621622 64:-0.786667 65:-0.771325 66:-0.686533 67:-0.00284301 68:0.00810213 69:-0.00477909 70:0.00466785 71:-0.00866611 72:0.00468914 73:-0.609756 74:-0.805556 75:-0.584395 76:-0.740976 77:-0.0452577 78:0.00754261 79:-0.0464564 80:0.00460557 81:-0.0509395 82:0.00415932 83:-0.675676 84:-0.756757 85:-0.787565 86:-0.6098 87:-0.0285045 88:-0.0347259 89:-0.0303984 90:-0.0384772 91:-0.0341273 92:-0.038448 93:-0.567568 94:-0.805556 95:-0.595155 96:-0.756073 97:-0.0285465 98:-0.0346504 99:-0.0300632 100:-0.0382032 101:-0.0341765 102:-0.0383819 103:-0.621622 104:-0.780822 105:-0.603539 106:-0.618359 107:-0.00642253 108:-0.0712885 109:-0.0083673 110:-0.0749467 111:-0.0122245 112:-0.0748587 113:-0.578947 114:-0.805556 115:-0.735396 116:-0.695362 117:0.0245386 118:0.128067 119:0.0231027 120:0.124497 121:0.0191613 122:0.124362 123:-0.658537 124:-0.780822 125:-0.758144 126:-0.608343 127:0.0240001 128:0.0383013 129:0.0220639 130:0.0343488 131:0.018222 132:0.0343763 133:-0.609756 134:-0.808219 135:-0.676947 136:-0.685775 137:-0.037044 138:0.0120638 139:-0.0386047 140:0.00891789 141:-0.0427898 142:0.00881486 143:-0.695652 144:-0.780822 145:-0.790644 146:-0.597991 147:-0.0287823 148:-0.0658897 149:-0.0303588 150:-0.0692901 151:-0.0345363 152:-0.0694694 153:-0.65 154:-0.777778 155:-0.726168 156:-0.623802 157:0.196907 158:0.194871 159:0.276292 160:-0.0223492 161:-0.260402 162:-0.138171 163:-0.695652 164:-0.780822 165:-0.771383 166:-0.625758 
16.36534716534154 1:0.958897 2:0.561186 3:-0.721831 4:-0.0468366 5:0.020876 6:-0.956248 7:-0.994617 8:-0.998929 9:-0.999828 10:-0.894003 11:-0.830359 12:0.976112 13:-0.909502 14:-0.879658 15:-0.807132 16:-0.878894 17:-0.0507972 18:-0.052765 19:-0.210098 20:-0.0189055 21:-0.0897479 22:-0.0213457 23:-0.904762 24:-0.804878 25:-0.975141 26:-0.942161 27:0.0767572 28:0.0445681 29:0.0757876 30:0.0449884 31:0.0759563 32:0.047244 33:-0.921569 34:-0.794872 35:-0.956756 36:-0.937507 37:0.0568542 38:-0.0655922 39:0.0558607 40:-0.0652449 41:0.055975 42:-0.0632889 43:-0.891892 44:-0.891892 45:-0.97799 46:-0.919592 47:0.0551339 48:-0.0857163 49:0.0541386 50:-0.0853645 51:0.054283 52:-0.0833521 53:-0.891892 54:-0.893333 55:-0.99581 56:-0.932471 57:0.0550825 58:-0.0857457 59:0.0541561 60:-0.0853536 61:0.0542868 62:-0.0833493 63:-0.891892 64:-0.893333 65:-0.99142 66:-0.925996 67:-0.00422351 68:0.00445449 69:-0.00529938 70:0.00476734 71:-0.00513439 72:0.0066176 73:-0.902439 74:-0.888889 75:-0.98198 76:-0.959641 77:-0.0466465 78:0.0039498 79:-0.0476794 80:0.00427017 81:-0.0475813 82:0.00608523 83:-0.891892 84:-0.891892 85:-0.999553 86:-0.905211 87:-0.0299132 88:-0.0387567 89:-0.0308664 90:-0.0383633 91:-0.0307054 92:-0.0363011 93:-0.891892 94:-0.888889 95:-0.964977 96:-0.955555 97:-0.0298602 98:-0.0387239 99:-0.0308627 100:-0.0383592 101:-0.0307086 102:-0.0363013 103:-0.891892 104:-0.890411 105:-0.979438 106:-0.941901 107:-0.00782056 108:-0.0751838 109:-0.00883157 110:-0.0748184 111:-0.00872993 112:-0.0728381 113:-0.894737 114:-0.888889 115:-0.989203 116:-0.957686 117:0.023194 118:0.124002 119:0.022306 120:0.124409 121:0.0224854 122:0.126495 123:-0.902439 124:-0.890411 125:-0.989812 126:-0.941692 127:0.0225344 128:0.0340129 129:0.0216314 130:0.0344719 131:0.0217196 132:0.0365759 133:-0.902439 134:-0.890411 135:-0.984212 136:-0.954932 137:-0.0385055 138:0.00847546 139:-0.0394101 140:0.00886124 141:-0.0392242 142:0.0107387 143:-0.913043 144:-0.890411 145:-0.957786 146:-0.899583 147:-0.0301702 148:-0.0698074 149:-0.0311787 150:-0.0694459 151:-0.0309693 152:-0.067409 153:-0.9 154:-0.888889 155:-0.992546 156:-0.944948 157:0.12239 158:-0.0655886 159:0.219923 160:-0.0344365 161:-0.0929567 162:-0.0136604 163:-0.913043 164:-0.890411 165:-0.973015 166:-0.943254 
2.572848356325787 1:0.952286 2:0.544895 3:-0.719665 4:0.112589 5:0.0714701 6:-0.851055 7:-0.981068 8:-0.970422 9:-0.981404 10:-0.894003 11:-0.831584 12:0.976631 13:-0.832579 14:-0.941591 15:-0.837268 16:-0.927638 17:0.0477405 18:-0.071639 19:-0.198128 20:-0.0449136 21:-0.141993 22:0.0531757 23:-0.809524 24:-0.707317 25:-0.858953 26:-0.689089 27:0.0785891 28:0.0441031 29:0.0756109 30:0.0452133 31:0.0749555 32:0.0486363 33:-0.803922 34:-0.74359 35:-0.805107 36:-0.781997 37:0.0585426 38:-0.0660697 39:0.0556652 40:-0.0650531 41:0.055004 42:-0.0620538 43:-0.72973 44:-0.864865 45:-0.81995 46:-0.752918 47:0.0569121 48:-0.0861296 49:0.0539027 50:-0.0852114 51:0.0532389 52:-0.082163 53:-0.72973 54:-0.866667 55:-0.831291 56:-0.820851 57:0.056888 58:-0.0861444 59:0.0542684 60:-0.0855853 61:0.0532647 62:-0.0821318 63:-0.783784 64:-0.84 65:-0.901778 66:-0.751205 67:-0.00238355 68:0.00404953 69:-0.00548868 70:0.00496084 71:-0.00611143 72:0.00782992 73:-0.756098 74:-0.861111 75:-0.74311 76:-0.777881 77:-0.0447997 78:0.00358413 79:-0.0478823 80:0.00445052 81:-0.0484175 82:0.00738278 83:-0.72973 84:-0.864865 85:-0.727394 86:-0.762568 87:-0.0280197 88:-0.0391229 89:-0.0310415 90:-0.0381468 91:-0.0316849 92:-0.0349985 93:-0.72973 94:-0.861111 95:-0.692331 96:-0.800779 97:-0.0279575 98:-0.0390705 99:-0.0313814 100:-0.0377288 101:-0.0316157 102:-0.0349291 103:-0.675676 104:-0.890411 105:-0.512072 106:-0.868849 107:-0.00592505 108:-0.0755586 109:-0.00906843 110:-0.0746481 111:-0.00972786 112:-0.0715701 113:-0.736842 114:-0.861111 115:-0.822779 116:-0.774286 117:0.0249558 118:0.123601 119:0.022462 120:0.124216 121:0.021545 122:0.127814 123:-0.804878 124:-0.835616 125:-0.9115 126:-0.607996 127:0.0245597 128:0.0336854 129:0.0217589 130:0.0342389 131:0.0207709 132:0.0379882 133:-0.804878 134:-0.835616 135:-0.862378 136:-0.635065 137:-0.0365259 138:0.00821189 139:-0.0400234 140:0.00938615 141:-0.0401389 142:0.0120197 143:-0.73913 144:-0.890411 145:-0.685258 146:-0.808585 147:-0.0283144 148:-0.0701849 149:-0.0313896 150:-0.0692376 151:-0.0319285 152:-0.0660618 153:-0.75 154:-0.861111 155:-0.799217 156:-0.807922 157:0.221722 158:-0.0867148 159:0.206173 160:-0.0118657 161:-0.142307 162:0.0633713 163:-0.782609 164:-0.863014 165:-0.756522 166:-0.750666 
3.224228962617764 1:0.952286 2:0.544895 3:-0.719665 4:0.0114232 5:0.139495 6:-0.795374 7:-0.9668 8:-0.933784 9:-0.955742 10:-0.89358 11:-0.830821 12:0.973255 13:-0.809955 14:-0.880665 15:-0.822702 16:-0.867839 17:0.0611595 18:0.155152 19:-0.192322 20:-0.0318692 21:-0.264049 22:-0.079131 23:-0.619048 24:-0.658537 25:-0.6941 26:-0.693513 27:0.0790678 28:0.0479905 29:0.0760656 30:0.044808 31:0.0725412 32:0.0462186 33:-0.686275 34:-0.641026 35:-0.690945 36:-0.727592 37:0.0590256 38:-0.0625601 39:0.056081 40:-0.0653913 41:0.0526243 42:-0.0641646 43:-0.567568 44:-0.810811 45:-0.711841 46:-0.700772 47:0.0573093 48:-0.0826565 49:0.0543667 50:-0.085521 51:0.050952 52:-0.0843907 53:-0.567568 54:-0.813333 55:-0.720183 56:-0.785223 57:0.0573091 58:-0.0826766 59:0.0543551 60:-0.0854859 61:0.0509175 62:-0.0842867 63:-0.567568 64:-0.813333 65:-0.71026 66:-0.742128 67:-0.00192245 68:0.00733858 69:-0.0050474 70:0.00468183 71:-0.0087117 72:0.00580934 73:-0.609756 74:-0.805556 75:-0.583163 76:-0.716978 77:-0.0443806 78:0.00675049 79:-0.0474339 80:0.004162 81:-0.0510033 82:0.00530083 83:-0.567568 84:-0.810811 85:-0.580788 86:-0.729397 87:-0.0276297 88:-0.035608 89:-0.0302054 90:-0.038441 91:-0.0341319 92:-0.0372719 93:-0.621622 94:-0.777778 95:-0.734281 96:-0.706637 97:-0.0276376 98:-0.0355633 99:-0.0302098 100:-0.0384249 101:-0.0341432 102:-0.0372362 103:-0.621622 104:-0.780822 105:-0.676777 106:-0.640191 107:-0.00555658 108:-0.0720516 109:-0.00861454 110:-0.0749584 111:-0.0121967 112:-0.0737484 113:-0.578947 114:-0.805556 115:-0.72397 116:-0.691557 117:0.0253772 118:0.127147 119:0.0225207 120:0.124235 121:0.0191915 122:0.125456 123:-0.609756 124:-0.808219 125:-0.702908 126:-0.72386 127:0.0249274 128:0.0373065 129:0.0218311 130:0.0342996 131:0.0182183 132:0.0356036 133:-0.609756 134:-0.808219 135:-0.695729 136:-0.714898 137:-0.0362195 138:0.011375 139:-0.0392351 140:0.00870572 141:-0.0427761 142:0.00985388 143:-0.652174 144:-0.808219 145:-0.693413 146:-0.645749 147:-0.0279109 148:-0.0667339 149:-0.0309645 150:-0.0695553 151:-0.034537 152:-0.0683212 153:-0.6 154:-0.805556 155:-0.670732 156:-0.705913 157:0.241014 158:0.140719 159:0.262988 160:-0.0407156 161:-0.261333 162:-0.0695984 163:-0.695652 164:-0.780822 165:-0.75037 166:-0.654459 
3.393186581869764 1:0.947359 2:0.554364 3:-0.722141 4:0.0119227 5:0.139495 6:-0.795374 7:-0.9668 8:-0.933784 9:-0.955742 10:-0.89358 11:-0.830821 12:0.973255 13:-0.809955 14:-0.88721 15:-0.824209 16:-0.869849 17:0.0926214 18:-0.0312307 19:-0.202657 20:-0.0253778 21:-0.192555 22:0.0645896 23:-0.666667 24:-0.609756 25:-0.750987 26:-0.633936 27:0.0796492 28:0.0448923 29:0.0751484 30:0.0454039 31:0.0739768 32:0.0488891 33:-0.647059 34:-0.692308 35:-0.639803 36:-0.770012 37:0.0596108 38:-0.0653457 39:0.0558922 40:-0.0653641 41:0.0540487 42:-0.0618144 43:-0.621622 44:-0.783784 45:-0.793563 46:-0.60493 47:0.0578883 48:-0.0854591 49:0.0538199 50:-0.0852493 51:0.0522694 52:-0.081977 53:-0.567568 54:-0.813333 55:-0.722998 56:-0.767604 57:0.0579178 58:-0.08541 59:0.0541404 60:-0.0855212 61:0.0523064 62:-0.0818995 63:-0.621622 64:-0.786667 65:-0.787308 66:-0.717428 67:-0.0012967 68:0.00469746 69:-0.00523752 70:0.00468566 71:-0.00723654 72:0.00793751 73:-0.658537 74:-0.777778 75:-0.711931 76:-0.659384 77:-0.0437564 78:0.00423465 79:-0.0479791 80:0.00441263 81:-0.049546 82:0.00747618 83:-0.567568 84:-0.810811 85:-0.577841 86:-0.72853 87:-0.0270469 88:-0.0384521 89:-0.0312013 90:-0.0382596 91:-0.0327042 92:-0.0347885 93:-0.567568 94:-0.805556 95:-0.594194 96:-0.777955 97:-0.0270163 98:-0.0384078 99:-0.0311805 100:-0.0382234 101:-0.0327035 102:-0.0347831 103:-0.567568 104:-0.808219 105:-0.526456 106:-0.704479 107:-0.00493388 108:-0.0748978 109:-0.00918612 110:-0.0747117 111:-0.010767 112:-0.0713863 113:-0.578947 114:-0.805556 115:-0.730354 116:-0.675715 117:0.0259372 118:0.124332 119:0.0219932 120:0.12455 121:0.0205421 122:0.128 123:-0.609756 124:-0.808219 125:-0.6941 126:-0.674325 127:0.025487 128:0.0343226 129:0.0212191 130:0.0345398 131:0.0196799 132:0.0381795 133:-0.609756 134:-0.808219 135:-0.690945 136:-0.727592 137:-0.0356097 138:0.00877774 139:-0.0398037 140:0.00894627 141:-0.0413195 142:0.0120805 143:-0.652174 144:-0.808219 145:-0.711841 146:-0.68287 147:-0.02731 148:-0.0695297 149:-0.0315273 150:-0.0693321 151:-0.0331189 152:-0.0660586 153:-0.6 154:-0.805556 155:-0.678413 156:-0.767588 157:0.271458 158:-0.0458297 159:0.197788 160:-0.0194522 161:-0.190785 162:0.0768386 163:-0.652174 164:-0.808219 165:-0.71026 166:-0.693895 
32 1:0.946485 2:0.542315 3:-0.713063 4:0.0909784 5:0.139495 6:-0.990688 7:-0.999247 8:-0.99881 9:-0.999871 10:-0.894003 11:-0.830346 12:0.976112 13:-0.914027 14:-0.833837 15:-0.776996 16:-0.759296 17:-0.0394094 18:-0.0385027 19:-0.150071 20:0.0966208 21:-0.0225273 22:-0.0607822 23:-0.809524 24:-0.902439 25:-0.898494 26:-0.887702 27:0.0770055 28:0.0448276 29:0.0765901 30:0.0462926 31:0.0773746 32:0.0465687 33:-0.803922 34:-0.948718 35:-0.856047 36:-1 37:0.0568439 38:-0.065405 39:0.0564694 40:-0.0643741 41:0.0572697 42:-0.063881 43:-0.783784 44:-0.945946 45:-0.93535 46:-0.884487 47:0.0551558 48:-0.0855312 49:0.0547923 50:-0.0842238 51:0.0555769 52:-0.0839769 53:-0.72973 54:-0.973333 55:-0.869129 56:-1 57:0.0550803 58:-0.085527 59:0.0546624 60:-0.084477 61:0.0554812 62:-0.0839764 63:-0.783784 64:-0.946667 65:-0.920004 66:-0.910623 67:-0.0043181 68:0.00463652 69:-0.00472431 70:0.00559672 71:-0.00387536 72:0.00605582 73:-0.804878 74:-0.944444 75:-0.881231 76:-0.897289 77:-0.0467526 78:0.00413571 79:-0.0471046 80:0.00532851 81:-0.0463259 82:0.00555442 83:-0.72973 84:-0.972973 85:-0.800549 86:-1 87:-0.0300926 88:-0.038521 89:-0.0304455 90:-0.0374588 91:-0.0295919 92:-0.0369504 93:-0.783784 94:-0.944444 95:-0.87311 96:-0.907436 97:-0.0301328 98:-0.0385205 99:-0.0305223 100:-0.0374587 101:-0.029616 102:-0.0369523 103:-0.783784 104:-0.945205 105:-0.872433 106:-0.893302 107:-0.0081257 108:-0.0749819 109:-0.00843896 110:-0.073692 111:-0.00759321 112:-0.0734478 113:-0.736842 114:-0.972222 115:-0.8573 116:-1 117:0.0229148 118:0.124247 119:0.0226229 120:0.125566 121:0.0234725 122:0.125815 123:-0.756098 124:-0.972603 125:-0.847109 126:-1 127:0.0221971 128:0.0342886 129:0.0217828 130:0.0353927 131:0.0228213 132:0.0359177 133:-0.804878 134:-0.945205 135:-0.909891 136:-0.873832 137:-0.0389416 138:0.00870071 139:-0.0392263 140:0.00988215 141:-0.0382251 142:0.0101043 143:-0.782609 144:-0.972603 145:-0.854228 146:-1 147:-0.0307059 148:-0.0695892 149:-0.0311314 150:-0.0685635 151:-0.0299957 152:-0.0680774 153:-0.8 154:-0.944444 155:-0.875333 156:-0.888018 157:0.0929577 158:-0.0485151 159:0.226229 160:0.0816055 161:-0.0429655 162:-0.0513416 163:-0.782609 164:-0.972603 165:-0.837566 166:-1 
0.4448260093046338 1:0.9274 2:0.545302 3:-0.715951 4:0.123947 5:0.139495 6:-0.993383 7:-0.999268 8:-1 9:-1 10:-0.894003 11:-0.830346 12:0.976112 13:-0.9819 14:-0.939074 15:-0.939227 16:-0.939196 17:-0.0705923 18:0.0144775 19:-0.167348 20:0.0629039 21:-0.0713614 22:-0.107742 23:-1 24:-1 25:-1 26:-1 27:0.0762655 28:0.0457235 29:0.0762655 30:0.0457235 31:0.0762655 32:0.0457235 33:-1 34:-1 35:-1 36:-1 37:0.0562326 38:-0.0646241 39:0.0562326 40:-0.0646241 41:0.0562326 42:-0.0646241 43:-1 44:-1 45:-1 46:-1 47:0.0546451 48:-0.0847483 49:0.0546451 50:-0.0847483 51:0.0546451 52:-0.0847483 53:-1 54:-1 55:-1 56:-1 57:0.0546318 58:-0.0847445 59:0.0546318 60:-0.0847445 61:0.0546318 62:-0.0847445 63:-1 64:-1 65:-1 66:-1 67:-0.00456946 68:0.00533609 69:-0.00456946 70:0.00533609 71:-0.00456946 72:0.00533609 73:-1 74:-1 75:-1 76:-1 77:-0.0472415 78:0.00486105 79:-0.0472415 80:0.00486105 81:-0.0472415 82:0.00486105 83:-1 84:-1 85:-1 86:-1 87:-0.0305012 88:-0.0377181 89:-0.0305012 90:-0.0377181 91:-0.0305012 92:-0.0377181 93:-1 94:-1 95:-1 96:-1 97:-0.0304531 98:-0.0377314 99:-0.0304531 100:-0.0377314 101:-0.0304531 102:-0.0377314 103:-1 104:-1 105:-1 106:-1 107:-0.278033 108:-0.871699 109:-0.278033 110:-0.871699 111:-0.278033 112:-0.871699 113:-1 114:-1 115:-1 116:-1 117:0.0229459 118:0.125005 119:0.0229459 120:0.125005 121:0.0229459 122:0.125005 123:-1 124:-1 125:-1 126:-1 127:0.0223413 128:0.0350762 129:0.0223413 130:0.0350762 131:0.0223413 132:0.0350762 133:-1 134:-1 135:-1 136:-1 137:-0.0389078 138:0.00939769 139:-0.0389078 140:0.00939769 141:-0.0389078 142:0.00939769 143:-1 144:-1 145:-1 146:-1 147:-0.0307487 148:-0.06883 149:-0.0307487 150:-0.06883 151:-0.0307487 152:-0.06883 153:-1 154:-1 155:-1 156:-1 157:0.0872123 158:0.00191431 159:0.237128 160:0.0298994 161:-0.0869369 162:-0.0962263 163:-1 164:-1 165:-1 166:-1 
22.38198754812898 1:0.9274 2:0.545302 3:-0.715951 4:-0.0741788 5:0.0226241 6:-0.956248 7:-0.994617 8:-0.998929 9:-0.999828 10:-0.894003 11:-0.830359 12:0.976112 13:-0.909502 14:-0.826788 15:-0.810146 16:-0.857286 17:-0.128632 18:0.0289556 19:-0.188337 20:0.125158 21:-0.0337252 22:-0.155991 23:-0.904762 24:-0.853659 25:-0.91006 26:-0.955711 27:0.0752436 28:0.0460197 29:0.0761015 30:0.046186 31:0.0771651 32:0.0448779 33:-0.921569 34:-0.846154 35:-0.890421 36:-0.936474 37:0.0552895 38:-0.06437 39:0.0561281 40:-0.064243 41:0.0571766 42:-0.0653679 43:-0.891892 44:-0.918919 45:-0.861738 46:-0.939776 47:0.0535803 48:-0.0844681 49:0.054425 50:-0.0842949 51:0.055471 52:-0.0854367 53:-0.891892 54:-0.92 55:-0.897391 56:-0.941124 57:0.0535793 58:-0.0844655 59:0.0544205 60:-0.0843123 61:0.0554697 62:-0.0854344 63:-0.891892 64:-0.92 65:-0.888988 66:-0.906599 67:-0.00587147 68:0.00556552 69:-0.00496445 70:0.00576788 71:-0.00385922 72:0.00468405 73:-0.902439 74:-0.916667 75:-0.824168 76:-0.945687 77:-0.0482371 78:0.00506322 79:-0.0473465 80:0.00530578 81:-0.0462843 82:0.00414446 83:-0.891892 84:-0.918919 85:-0.854068 86:-0.955541 87:-0.0314137 88:-0.0374599 89:-0.0305532 90:-0.0372793 91:-0.0294916 92:-0.0384654 93:-0.891892 94:-0.916667 95:-0.842364 96:-0.951976 97:-0.0314085 98:-0.0374678 99:-0.0305403 100:-0.0372424 101:-0.0294942 102:-0.0385303 103:-0.891892 104:-0.917808 105:-0.78969 106:-0.950504 107:-0.00986238 108:-0.0741268 109:-0.00891859 110:-0.0736483 111:-0.00743396 112:-0.0749355 113:-0.894737 114:-0.888889 115:-0.979768 116:-0.891375 117:0.0213344 118:0.12504 119:0.022228 120:0.125607 121:0.0236044 122:0.124239 123:-0.902439 124:-0.890411 125:-0.979473 126:-0.88341 127:0.0205743 128:0.0352557 129:0.0215187 130:0.0357322 131:0.0230036 132:0.0342864 133:-0.902439 134:-0.890411 135:-0.951864 136:-0.922874 137:-0.0404384 138:0.00962401 139:-0.0395339 140:0.00994816 141:-0.0380825 142:0.00869456 143:-0.913043 144:-0.890411 145:-0.944456 146:-0.899627 147:-0.0321809 148:-0.0687038 149:-0.0308549 150:-0.0683969 151:-0.0297959 152:-0.0696877 153:-0.85 154:-0.916667 155:-0.862149 156:-0.983279 157:0.0225157 158:0.0069847 159:0.215806 160:0.0895412 161:-0.0319187 162:-0.146124 163:-0.913043 164:-0.890411 165:-0.962208 166:-0.92102 
32 1:0.899208 2:0.538853 3:-0.70481 4:0.150421 5:0.139495 6:-1 7:-1 8:-1 9:-1 10:-0.894003 11:-0.830346 12:0.976112 13:-0.954751 14:-0.884189 15:-0.88448 16:-0.884422 17:-0.0516274 18:0.0144775 19:-0.139812 20:0.0629039 21:-0.0522438 22:-0.107742 23:-1 24:-1 25:-1 26:-1 27:0.0767048 28:0.0456511 29:0.0767048 30:0.0456511 31:0.0767048 32:0.0456511 33:-1 34:-1 35:-1 36:-1 37:0.0566898 38:-0.0647007 39:0.0566898 40:-0.0647007 41:0.0566898 42:-0.0647007 43:-1 44:-1 45:-1 46:-1 47:0.0549367 48:-0.0848208 49:0.0549367 50:-0.0848208 51:0.0549367 52:-0.0848208 53:-1 54:-1 55:-1 56:-1 57:0.0549074 58:-0.0848242 59:0.0549074 60:-0.0848242 61:0.0549074 62:-0.0848242 63:-1 64:-1 65:-1 66:-1 67:-0.00440989 68:0.00532044 69:-0.00440989 70:0.00532044 71:-0.00440989 72:0.00532044 73:-1 74:-1 75:-1 76:-1 77:-0.0468406 78:0.0048079 79:-0.0468406 80:0.0048079 81:-0.0468406 82:0.0048079 83:-1 84:-1 85:-1 86:-1 87:-0.0308251 88:-0.0374487 89:-0.0308251 90:-0.0374487 91:-0.0300299 92:-0.0377445 93:-1 94:-0.972222 95:-1 96:-1 97:-0.0310465 98:-0.0376234 99:-0.0310465 100:-0.0376234 101:-0.0300465 102:-0.0377441 103:-1 104:-0.972603 105:-1 106:-1 107:-0.00916545 108:-0.0742051 109:-0.00916545 110:-0.0742051 111:-0.00804731 112:-0.0742455 113:-1 114:-0.972222 115:-1 116:-1 117:0.0220081 118:0.125052 119:0.0220081 120:0.125052 121:0.0230555 122:0.125016 123:-1 124:-0.972603 125:-1 126:-1 127:0.0212913 128:0.0351427 129:0.0212913 130:0.0351427 131:0.0224086 132:0.0350914 133:-1 134:-0.972603 135:-1 136:-1 137:-0.039737 138:0.0094515 139:-0.039737 140:0.0094515 141:-0.0386225 142:0.00942424 143:-1 144:-0.972603 145:-1 146:-1 147:-0.031629 148:-0.0689284 149:-0.031629 150:-0.0689284 151:-0.0303785 152:-0.0688547 153:-1 154:-0.972222 155:-1 156:-1 157:0.05857 158:0.003066 159:0.199782 160:0.0316938 161:-0.0598802 162:-0.0972817 163:-1 164:-0.972603 165:-1 166:-1 
26.42148334029547 1:0.899208 2:0.538853 3:-0.70481 4:0.112589 5:0.139495 6:-0.990469 7:-0.998989 8:-0.999064 9:-0.999843 10:-0.894003 11:-0.830346 12:0.976112 13:-0.941176 14:-0.82578 15:-0.811652 16:-0.845226 17:-0.118742 18:-0.0164507 19:-0.153133 20:0.0869869 21:-0.0588709 22:-0.0781965 23:-0.857143 24:-0.95122 25:-0.924088 26:-1 27:0.0754408 28:0.0451986 29:0.0765594 30:0.0459375 31:0.0766598 32:0.0462566 33:-0.882353 34:-0.948718 35:-0.915023 36:-1 37:0.0555197 38:-0.0650957 39:0.0565983 40:-0.0644396 41:0.056642 42:-0.0641473 43:-0.837838 44:-0.972973 45:-0.897566 46:-1 47:0.0537719 48:-0.0852071 49:0.0548839 50:-0.0845469 51:0.0549588 52:-0.0842554 53:-0.837838 54:-0.973333 55:-0.898489 56:-1 57:0.0538159 58:-0.0852226 59:0.0548619 60:-0.0845472 61:0.054933 62:-0.0842551 63:-0.837838 64:-0.973333 65:-0.89909 66:-1 67:-0.00565335 68:0.00491924 69:-0.00448379 70:0.00552701 71:-0.00442064 72:0.00579722 73:-0.853659 74:-0.972222 75:-0.868075 76:-1 77:-0.0480203 78:0.00441705 79:-0.0468938 80:0.00502751 81:-0.0468363 82:0.00529854 83:-0.837838 84:-0.972973 85:-0.867871 86:-1 87:-0.0311769 88:-0.0382218 89:-0.0311025 90:-0.0379323 91:-0.0299917 92:-0.0372438 93:-0.945946 94:-0.916667 95:-1 96:-0.905897 97:-0.0312258 98:-0.0382122 99:-0.0301411 100:-0.0375283 101:-0.0300448 102:-0.0372351 103:-0.837838 104:-0.972603 105:-0.849908 106:-1 107:-0.00921955 108:-0.074681 109:-0.00805332 110:-0.074023 111:-0.00797507 112:-0.0737314 113:-0.842105 114:-0.972222 115:-0.927388 116:-1 117:0.021968 118:0.124553 119:0.0230469 120:0.125229 121:0.0230781 122:0.125537 123:-0.853659 124:-0.972603 125:-0.913521 126:-1 127:0.0212181 128:0.034611 129:0.0224222 130:0.0353072 131:0.0224725 132:0.0356245 133:-0.853659 134:-0.972603 135:-0.905314 136:-1 137:-0.0398423 138:0.00898002 139:-0.0387047 140:0.00958912 141:-0.0385875 142:0.00985054 143:-0.869565 144:-0.972603 145:-0.908198 146:-1 147:-0.0315409 148:-0.0692908 149:-0.0303611 150:-0.0686395 151:-0.0303115 152:-0.0683435 153:-0.85 154:-0.972222 155:-0.900646 156:-1 157:0.0533787 158:-0.0284129 159:0.272094 160:0.0494017 161:-0.0574492 162:-0.0672499 163:-0.869565 164:-0.972603 165:-0.922019 166:-1 
32 1:0.885112 2:0.527381 3:-0.654107 4:0.122159 5:0.425857 6:-0.983445 7:-0.998939 8:-0.998494 9:-0.999499 10:-0.894003 11:-0.830346 12:0.976112 13:-0.877828 14:-0.863041 15:-0.862381 16:-0.865327 17:-0.0517609 18:0.114817 19:-0.106872 20:0.0943444 21:-0.021303 22:-0.181099 23:-0.952381 24:-0.902439 25:-1 26:-0.922898 27:0.0768147 28:0.0474232 29:0.0770769 30:0.0450304 31:0.0773814 32:0.0443705 33:-0.921569 34:-0.948718 35:-0.96907 36:-1 37:0.056774 38:-0.063151 39:0.0569948 40:-0.0652831 41:0.0572976 42:-0.065863 43:-0.891892 44:-0.972973 45:-0.972761 46:-1 47:0.0551036 48:-0.0832033 49:0.0544683 50:-0.0843476 51:0.0554772 52:-0.0860597 53:-0.945946 54:-0.92 55:-1 56:-0.731773 57:0.0550787 58:-0.0832136 59:0.0545291 60:-0.0843067 61:0.0554057 62:-0.0861013 63:-0.945946 64:-0.92 65:-1 66:-0.818531 67:-0.00431512 68:0.00673127 69:-0.00505168 70:0.0056492 71:-0.00437175 72:0.00458089 73:-0.95122 74:-0.944444 75:-1 76:-0.808564 77:-0.0466085 78:0.00629507 79:-0.0474394 80:0.00515273 81:-0.0468721 82:0.00403119 83:-0.945946 84:-0.945946 85:-1 86:-0.854621 87:-0.0298499 88:-0.0361293 89:-0.0306918 90:-0.0374151 91:-0.0301643 92:-0.0386834 93:-0.945946 94:-0.944444 95:-1 96:-0.896668 97:-0.0298734 98:-0.0361358 99:-0.0307571 100:-0.0374471 101:-0.0302806 102:-0.0387491 103:-0.945946 104:-0.945205 105:-1 106:-0.840603 107:-0.00787524 108:-0.0726611 109:-0.00876464 110:-0.073937 111:-0.00833007 112:-0.0752439 113:-0.947368 114:-0.944444 115:-1 116:-0.904989 117:0.0232157 118:0.126649 119:0.0223405 120:0.125313 121:0.0227783 122:0.123996 123:-0.95122 124:-0.945205 125:-1 126:-0.985052 127:0.0226154 128:0.0368131 129:0.0216 130:0.0353799 131:0.0220955 132:0.0340205 133:-0.95122 134:-0.945205 135:-1 136:-0.962118 137:-0.0384488 138:0.0108866 139:-0.0394877 140:0.00962314 141:-0.0390479 142:0.00842205 143:-0.956522 144:-0.945205 145:-1 146:-0.932513 147:-0.0302355 148:-0.0672727 149:-0.0312652 150:-0.0686264 151:-0.0308806 152:-0.0699593 153:-0.95 154:-0.944444 155:-1 156:-0.906472 157:0.125054 158:0.106071 159:0.214809 160:0.0505947 161:-0.0907755 162:-0.169489 163:-0.956522 164:-0.945205 165:-1 166:-0.915023 
32 1:0.885112 2:0.527381 3:-0.654107 4:0.0679216 5:0.236249 6:-0.969367 7:-0.996851 8:-0.995559 9:-0.997726 10:-0.894003 11:-0.830171 12:0.976112 13:-0.936652 14:-0.900302 15:-0.844299 16:-0.844221 17:-0.110957 18:0.0155931 19:-0.11573 20:0.0607843 21:-0.0355245 22:-0.108755 23:-0.904762 24:-0.95122 25:-0.999234 26:-1 27:0.0755686 28:0.0457074 29:0.0764054 30:0.0457695 31:0.0771528 32:0.0457345 33:-0.960784 34:-0.948718 35:-1 36:-1 37:0.0556616 38:-0.0645772 39:0.0563955 40:-0.0646203 41:0.0571553 42:-0.0646214 43:-0.945946 44:-0.972973 45:-1 46:-1 47:0.0539897 48:-0.0846478 49:0.054722 50:-0.0846913 51:0.0554516 52:-0.0847257 53:-0.945946 54:-0.973333 55:-1 56:-1 57:0.0540064 58:-0.0846423 59:0.0546912 60:-0.0847403 61:0.0554785 62:-0.0847078 63:-0.945946 64:-0.973333 65:-1 66:-1 67:-0.00541262 68:0.005433 69:-0.00467352 70:0.00535417 71:-0.00384514 72:0.00537559 73:-0.95122 74:-0.972222 75:-1 76:-1 77:-0.0477753 78:0.00492963 79:-0.047075 80:0.0048314 81:-0.0462227 82:0.00490043 83:-0.945946 84:-0.972973 85:-1 86:-1 87:-0.0309467 88:-0.0376183 89:-0.0309467 90:-0.0376183 91:-0.0302766 92:-0.0377492 93:-1 94:-0.972222 95:-1 96:-1 97:-0.0310499 98:-0.0377408 99:-0.0302823 100:-0.0377612 101:-0.0295205 102:-0.037775 103:-0.945946 104:-0.972603 105:-1 106:-1 107:-0.00899771 108:-0.0741801 109:-0.00899771 110:-0.0741801 111:-0.00822401 112:-0.0742118 113:-1 114:-0.972222 115:-1 116:-1 117:0.0221768 118:0.125093 119:0.0228565 120:0.125011 121:0.0235873 122:0.125003 123:-0.95122 124:-0.972603 125:-1 126:-1 127:0.0214603 128:0.0351687 129:0.0214603 130:0.0351687 131:0.0221957 132:0.0350832 133:-1 134:-0.972603 135:-1 136:-1 137:-0.0396298 138:0.00940491 139:-0.0388507 140:0.0093921 141:-0.0381042 142:0.00935718 143:-0.956522 144:-0.972603 145:-1 146:-1 147:-0.031351 148:-0.0688441 149:-0.031351 150:-0.0688441 151:-0.0305405 152:-0.0688309 153:-1 154:-0.972222 155:-1 156:-1 157:0.0683466 158:0.00414801 159:0.212529 160:0.0333797 161:-0.0691179 162:-0.0982742 163:-1 164:-0.972603 165:-1 166:-1 
32 1:0.866525 2:0.510785 3:-0.627956 4:0.122474 5:0.418966 6:-0.990752 7:-0.999465 8:-0.999842 9:-0.999771 10:-0.894003 11:-0.830334 12:0.976112 13:-0.855204 14:-0.869587 15:-0.916123 16:-0.847739 17:-0.0679661 18:0.103399 19:-0.0763982 20:0.0948731 21:-0.0247566 22:-0.178245 23:-0.952381 24:-0.902439 25:-1 26:-0.925907 27:0.0765967 28:0.047237 29:0.07757 30:0.0459793 31:0.0771519 32:0.0443841 33:-0.960784 34:-0.897436 35:-1 36:-0.909406 37:0.0565401 38:-0.0632983 39:0.0575268 40:-0.0644007 41:0.0570701 42:-0.0658177 43:-0.945946 44:-0.945946 45:-1 46:-0.977048 47:0.0548132 48:-0.0833768 49:0.0556737 50:-0.084528 51:0.0552222 52:-0.0859732 53:-0.945946 54:-0.946667 55:-1 56:-0.968985 57:0.0548851 58:-0.0833466 59:0.0556324 60:-0.0845217 61:0.0551111 62:-0.0859845 63:-0.945946 64:-0.946667 65:-1 66:-0.983319 67:-0.0044552 68:0.00664599 69:-0.00376451 70:0.0055489 71:-0.00431425 72:0.00420724 73:-0.95122 74:-0.944444 75:-1 76:-0.962623 77:-0.0468083 78:0.00615792 79:-0.0463053 80:0.00502771 81:-0.0468399 82:0.00368341 83:-0.945946 84:-0.945946 85:-1 86:-0.951958 87:-0.0300824 88:-0.0362804 89:-0.0296585 90:-0.0375549 91:-0.0300854 92:-0.0390292 93:-0.945946 94:-0.944444 95:-1 96:-0.944486 97:-0.0300713 98:-0.0362673 99:-0.0298535 100:-0.0375876 101:-0.0301338 102:-0.0390301 103:-0.945946 104:-0.945205 105:-1 106:-0.951319 107:-0.00803144 108:-0.0727634 109:-0.0078169 110:-0.0740576 111:-0.00816418 112:-0.075484 113:-0.947368 114:-0.944444 115:-1 116:-0.874593 117:0.0230481 118:0.126526 119:0.0230743 120:0.12516 121:0.0227702 122:0.1237 123:-0.95122 124:-0.945205 125:-1 126:-0.918071 127:0.0224484 128:0.0366794 129:0.0219844 130:0.0344232 131:0.0220823 132:0.0337214 133:-0.902439 134:-0.972603 135:-0.96907 136:-1 137:-0.0386821 138:0.0107573 139:-0.0391795 140:0.00879654 141:-0.0390796 142:0.00818992 143:-0.913043 144:-0.972603 145:-0.972761 146:-1 147:-0.030337 148:-0.0673613 149:-0.0313372 150:-0.0682305 151:-0.0309147 152:-0.0701705 153:-0.95 154:-0.916667 155:-1 156:-0.709749 157:0.1157 158:0.0979606 159:0.214187 160:0.0923173 161:-0.0906972 162:-0.17903 163:-0.956522 164:-0.917808 165:-1 166:-0.784588 
32 1:0.830911 2:0.516758 3:-0.587672 4:0.0427089 5:0.411771 6:-0.993792 7:-0.999442 8:-0.999653 9:-1 10:-0.894003 11:-0.830346 12:0.976112 13:-0.895928 14:-0.853978 15:-0.854345 16:-0.843216 17:-0.0164118 18:0.0372842 19:-0.0886797 20:0.106342 21:-0.0182484 22:-0.128512 23:-1 24:-0.95122 25:-1 26:-1 27:0.077465 28:0.0460932 29:0.077465 30:0.0460932 31:0.0773847 32:0.0453146 33:-1 34:-0.948718 35:-1 36:-1 37:0.0573106 38:-0.0636759 39:0.057359 40:-0.0643195 41:0.057155 42:-0.0650464 43:-0.945946 44:-0.972973 45:-1 46:-1 47:0.0554554 48:-0.0837939 49:0.0555952 50:-0.0844221 51:0.0553234 52:-0.0851853 53:-0.945946 54:-0.973333 55:-1 56:-1 57:0.0553567 58:-0.0838151 59:0.0555197 60:-0.084437 61:0.0552215 62:-0.0852096 63:-0.945946 64:-0.973333 65:-1 66:-1 67:-0.00410982 68:0.00617165 69:-0.00387155 70:0.00561796 71:-0.00415203 72:0.00491914 73:-0.95122 74:-0.972222 75:-1 76:-1 77:-0.0464059 78:0.00570578 79:-0.0463829 80:0.00509422 81:-0.0467732 82:0.0043603 83:-0.945946 84:-0.972973 85:-1 86:-1 87:-0.0297206 88:-0.0368084 89:-0.0297092 90:-0.0374934 91:-0.0300428 92:-0.0382946 93:-0.945946 94:-0.972222 95:-1 96:-1 97:-0.0297894 98:-0.036824 99:-0.0298746 100:-0.0375403 101:-0.030173 102:-0.0383317 103:-0.945946 104:-0.972603 105:-1 106:-1 107:-0.00791795 108:-0.0733602 109:-0.00792551 110:-0.074039 111:-0.00821068 112:-0.0748084 113:-0.947368 114:-0.972222 115:-1 116:-1 117:0.0230208 118:0.125872 119:0.0230289 120:0.12518 121:0.0228113 122:0.124407 123:-0.95122 124:-0.972603 125:-1 126:-1 127:0.022279 128:0.0359549 129:0.0222681 130:0.0352272 131:0.0219654 132:0.0343989 133:-0.95122 134:-0.972603 135:-1 136:-1 137:-0.0388302 138:0.0101316 139:-0.0389696 140:0.00946566 141:-0.0391835 142:0.00877214 143:-0.956522 144:-0.972603 145:-1 146:-1 147:-0.0306783 148:-0.0680817 149:-0.0307909 150:-0.068793 151:-0.0310299 152:-0.0695496 153:-0.95 154:-0.972222 155:-1 156:-1 157:0.0974261 158:0.0507531 159:0.23871 160:0.0308988 161:-0.0977276 162:-0.141673 163:-0.956522 164:-0.972603 165:-1 166:-1 
