svm_type c_svc
kernel_type rbf
gamma 2
nr_class 11
total_sv 1480
rho -0.891526 -0.985546 -0.991293 -11.1205 -0.992053 -0.993178 -0.983667 -0.99234 -0.991357 -0.991247 -0.751441 -0.866391 0.567418 -0.867599 -0.867374 -0.750452 -0.868806 -0.866497 -0.86639 -0.335393 0.925185 -0.333375 -0.336715 0.000102145 -0.337067 -0.333428 -0.333243 0.96046 0 0 0.333333 0 0 0 -0.960641 -0.963531 -0.923561 -0.966339 -0.960915 -0.960437 0 0.333341 0 0 0 0.333447 0 0 0 -0.333588 -0.333346 -0.333337 0 0 0
label 0 1 4 -1 2 3 6 5 301 133 288
nr_sv 877 14 2 1 579 1 1 2 1 1 1
SV
0.1086275141112657 0.0155036958390849 0.007724901469834369 0 0.007485444341301115 0.006383893601338403 0.01509376553525776 0.007805427672546871 0.007767063848961584 0.007743050093145682 1:-0.91896 2:-0.993571 3:-0.979719 4:-0.786457 5:-0.789816 6:-0.9314 7:-0.982063 8:-0.988777 9:-0.99549 10:-0.994801 11:-0.992493 12:-0.991327 13:-0.971783 14:-0.992297 15:-0.956204 16:-0.940382 17:0.611216 18:-0.978705 19:-0.966292 20:-0.956436 21:-0.960684 22:-0.968745 23:-0.996497 24:-0.974193 25:-0.977789 26:-0.981476 27:-0.334636 28:-0.162571 29:-0.230467 30:-0.156834 31:-0.287244 32:-0.236371 33:-0.994912 34:-0.983837 35:-0.979876 36:-0.99575 37:-0.173032 38:-0.175306 39:-0.177694 40:-0.174067 41:-0.17803 42:-0.00123022 43:-0.976962 44:-0.983931 45:-0.989637 46:-0.964657 47:-0.0314116 48:-0.147374 49:-0.262582 50:-0.144594 51:-0.167827 52:-0.149723 53:-0.982648 54:-0.982683 55:-0.982291 56:-0.954471 57:-0.185979 58:-0.240061 59:-0.274737 60:-0.0359976 61:-0.144314 62:-0.0185382 63:-0.994363 64:-0.979815 65:-0.983308 66:-0.974476 67:-0.230035 68:-0.141306 69:-0.0145175 70:-0.0504752 71:-0.240602 72:-0.152333 73:-0.957921 74:-0.934373 75:-0.99045 76:-0.980626 77:-0.192766 78:-0.0385375 79:-0.271013 80:-0.284544 81:-0.293477 82:-0.141629 83:-0.953498 84:-0.960914 85:-0.992155 86:-0.994471 87:-0.0957368 88:-0.0950775 89:-0.0997336 90:-0.0472376 91:-0.184515 92:-0.173167 93:-0.974055 94:-0.981476 95:-0.990379 96:-0.887112 97:-0.116834 98:-0.0980817 99:-0.246832 100:-0.141197 101:-0.0506623 102:-0.140276 103:-0.979345 104:-0.980167 105:-0.975345 106:-0.992215 107:-0.979808 108:-0.982881 109:-0.987174 110:-0.953539 111:-0.970126 112:-0.974632 113:-0.992452 114:-0.968409 115:-0.986573 116:-0.991861 
0.1103287895459167 0.01929651222675753 0.007831654343586356 0 0.007188136371729908 0.007108253950835033 0.01547135823754866 0.007443647814386875 0.007802330957556232 0.00781278590978329 1:-0.91896 2:-0.993572 3:-0.979859 4:-0.786301 5:-0.789831 6:-0.992402 7:-0.985686 8:-0.988132 9:-0.995535 10:-0.994825 11:-0.992493 12:-0.991338 13:-0.971783 14:-0.999596 15:-0.997377 16:-0.903705 17:1 18:0.501091 19:-0.964093 20:-0.956696 21:-0.96017 22:-0.972094 23:-0.99834 24:-0.984829 25:-0.989923 26:-0.976972 27:-0.334642 28:-0.161815 29:-0.229768 30:-0.157965 31:-0.287511 32:-0.238049 33:-0.997543 34:-0.995526 35:-0.986947 36:-0.989091 37:-0.173032 38:-0.174713 39:-0.176971 40:-0.174924 41:-0.178341 42:-0.00339351 43:-0.979588 44:-0.995719 45:-0.994296 46:-0.958829 47:-0.0314116 48:-0.145975 49:-0.26141 50:-0.144802 51:-0.167545 52:-0.151527 53:-0.984166 54:-0.993104 55:-0.993273 56:-0.949421 57:-0.185986 58:-0.238754 59:-0.273583 60:-0.0363297 61:-0.144022 62:-0.0205828 63:-0.996974 64:-0.990734 65:-0.993664 66:-0.968947 67:-0.230064 68:-0.140533 69:-0.0135909 70:-0.0516047 71:-0.240877 72:-0.15421 73:-0.960477 74:-0.948836 75:-0.99601 76:-0.975826 77:-0.192766 78:-0.0378464 79:-0.270327 80:-0.285313 81:-0.293718 82:-0.143459 83:-0.955363 84:-0.971541 85:-0.996724 86:-0.989815 87:-0.0957368 88:-0.0943699 89:-0.0988958 90:-0.0482619 91:-0.184814 92:-0.174912 93:-0.97613 94:-0.991472 95:-0.995985 96:-0.877072 97:-0.116834 98:-0.0973999 99:-0.246115 100:-0.142102 101:-0.0510044 102:-0.142102 103:-0.981138 104:-0.990895 105:-0.981996 106:-0.987596 107:-0.979808 108:-0.980331 109:-0.985096 110:-0.955019 111:-0.970588 112:-0.977181 113:-0.994251 114:-0.988697 115:-0.992723 116:-0.985108 
0.1056505545402882 0.01145108049369943 0.01394243630495924 0 0.007791697920232959 0.007087051018642431 0.01713779694096773 0.007766257404962022 0.007797688670264872 0.00809528059121005 1:-0.91896 2:-0.993572 3:-0.97986 4:-0.786439 5:-0.789687 6:-0.992421 7:-0.985686 8:-0.98926 9:-0.994393 10:-0.994758 11:-0.992493 12:-0.991338 13:-0.971783 14:-0.999596 15:-0.999385 16:-0.997659 17:0.478211 18:-0.0568983 19:0.568052 20:-0.956146 21:-0.961313 22:-0.97163 23:-0.998458 24:-0.985209 25:-0.989386 26:-0.981581 27:-0.331896 28:-0.161815 29:-0.229967 30:-0.157616 31:-0.287955 32:-0.237732 33:-0.997729 34:-0.995935 35:-0.986321 36:-0.995766 37:-0.16968 38:-0.174713 39:-0.177168 40:-0.174559 41:-0.178832 42:-0.0029528 43:-0.979598 44:-0.996011 45:-0.993883 46:-0.964694 47:-0.0274139 48:-0.145975 49:-0.261647 50:-0.144601 51:-0.168116 52:-0.151328 53:-0.984263 54:-0.993514 55:-0.992787 56:-0.954485 57:-0.182626 58:-0.238754 59:-0.273818 60:-0.0359728 61:-0.144612 62:-0.02022 63:-0.997122 64:-0.99108 65:-0.993205 66:-0.974509 67:-0.226835 68:-0.140533 69:-0.0138669 70:-0.0512587 71:-0.241371 72:-0.153901 73:-0.960615 74:-0.949313 75:-0.995518 76:-0.980657 77:-0.189435 78:-0.0378464 79:-0.270539 80:-0.2851 81:-0.29418 82:-0.143204 83:-0.955522 84:-0.971888 85:-0.996319 86:-0.99453 87:-0.0919584 88:-0.0943699 89:-0.0991407 90:-0.0479708 91:-0.185337 92:-0.17466 93:-0.976282 94:-0.991779 95:-0.995488 96:-0.887164 97:-0.113099 98:-0.0973999 99:-0.24633 100:-0.141813 101:-0.0516302 102:-0.141813 103:-0.981295 104:-0.99136 105:-0.981407 106:-0.992284 107:-0.975398 108:-0.980331 109:-0.98548 110:-0.954668 111:-0.971459 112:-0.976866 113:-0.994341 114:-0.989179 115:-0.992179 116:-0.991883 
0.1038382372576357 0.01303277536774585 0.008256622791908705 0 0.0123149067766884 0.00603389518463175 0.01582198166109697 0.007213807834558626 0.009702735826484687 0.008862681905523612 1:-0.492603 2:-0.98794 3:-0.974757 4:-0.78644 5:-0.789816 6:-0.992402 7:-0.985685 8:-0.989074 9:-0.995563 10:-0.994825 11:-0.994877 12:-0.990076 13:-0.971774 14:-0.999596 15:-0.999385 16:-0.999669 17:-0.954152 18:-0.97594 19:-0.940805 20:0.586794 21:0.827882 22:0.601283 23:-0.997621 24:-0.984759 25:-0.989413 26:-0.981219 27:-0.334833 28:-0.162068 29:-0.229967 30:-0.154515 31:-0.287695 32:-0.237853 33:-0.996476 34:-0.995461 35:-0.986303 36:-0.995244 37:-0.173329 38:-0.174952 39:-0.177168 40:-0.171654 41:-0.178538 42:-0.0031388 43:-0.978368 44:-0.995557 45:-0.993831 46:-0.964238 47:-0.0316667 48:-0.146224 49:-0.261647 50:-0.14145 51:-0.167813 52:-0.151348 53:-0.983557 54:-0.993037 55:-0.992791 56:-0.954088 57:-0.186264 58:-0.238975 59:-0.273818 60:-0.0325547 61:-0.1443 62:-0.0203773 63:-0.995999 64:-0.990652 65:-0.993271 66:-0.974071 67:-0.23026 68:-0.140784 69:-0.0138669 70:-0.047863 71:-0.241089 72:-0.154009 73:-0.9595 74:-0.948723 75:-0.995572 76:-0.980277 77:-0.193076 78:-0.0381244 79:-0.270539 80:-0.282499 81:-0.293923 82:-0.143262 83:-0.954733 84:-0.971495 85:-0.996409 86:-0.994157 87:-0.0960577 88:-0.0946324 89:-0.0991407 90:-0.0445032 91:-0.185036 92:-0.174713 93:-0.975347 94:-0.991417 95:-0.995532 96:-0.886372 97:-0.117155 98:-0.0976615 99:-0.24633 100:-0.138719 101:-0.0512756 102:-0.1419 103:-0.980443 104:-0.990856 105:-0.981411 106:-0.991917 107:-0.980239 108:-0.980749 109:-0.98548 110:-0.94968 111:-0.97097 112:-0.976899 113:-0.993459 114:-0.988592 115:-0.992109 116:-0.991356 
0.1064260038236114 0.01325122904414476 0.009802740267946104 0 0.007328823552431286 0.006101368354133611 0.01570644294600689 0.007246265782848951 0.008836568299872062 0.008537898594276661 1:-0.665461 2:-0.994009 3:-0.97986 4:-0.781393 5:-0.789816 6:-0.992402 7:-0.985686 8:-0.989259 9:-0.995393 10:-0.99484 11:-0.977584 12:-0.991338 13:-0.970917 14:-0.999596 15:-0.999385 16:-0.999669 17:-0.954152 18:-0.97594 19:-0.964474 20:-0.911077 21:0.154376 22:-0.157917 23:0.190119 24:-0.985 25:-0.990476 26:-0.981421 27:-0.334892 28:-0.161902 29:-0.229677 30:-0.157749 31:-0.284755 32:-0.237853 33:-0.997112 34:-0.995851 35:-0.987597 36:-0.995675 37:-0.17334 38:-0.174759 39:-0.176862 40:-0.174713 41:-0.175209 42:-0.0031388 43:-0.979021 44:-0.995884 45:-0.994723 46:-0.964555 47:-0.0317777 48:-0.146101 49:-0.26137 50:-0.144621 51:-0.164378 52:-0.151348 53:-0.983909 54:-0.993287 55:-0.993774 56:-0.954324 57:-0.186293 58:-0.238799 59:-0.273543 60:-0.0361275 61:-0.140768 62:-0.0203773 63:-0.996518 64:-0.990911 65:-0.994137 66:-0.974327 67:-0.230358 68:-0.140685 69:-0.0134933 70:-0.0513793 71:-0.237907 72:-0.154009 73:-0.960026 74:-0.949118 75:-0.996519 76:-0.980532 77:-0.193071 78:-0.037917 79:-0.270262 80:-0.285148 81:-0.291008 82:-0.143262 83:-0.955078 84:-0.971805 85:-0.997142 86:-0.994422 87:-0.0960826 88:-0.0944799 89:-0.0987977 90:-0.0480319 91:-0.18163 92:-0.174713 93:-0.975794 94:-0.991659 95:-0.996497 96:-0.886843 97:-0.117175 98:-0.0974828 99:-0.246039 100:-0.1419 101:-0.0472631 102:-0.1419 103:-0.980868 104:-0.990992 105:-0.982597 106:-0.992032 107:-0.980206 108:-0.98047 109:-0.984974 110:-0.954705 111:-0.965449 112:-0.976899 113:-0.993927 114:-0.988937 115:-0.993285 116:-0.991695 
0.1096722446717297 0.01696008888872867 0.00844340202147632 0 0.007712844256076087 0.00596994572947334 0.01572031613740287 0.006755724926447097 0.00786994669290304 0.008494813559622571 1:-0.687124 2:-0.993728 3:-0.979393 4:-0.78644 5:-0.785143 6:-0.992402 7:-0.985686 8:-0.98926 9:-0.995544 10:-0.994707 11:-0.992516 12:-0.991338 13:-1 14:-0.999516 15:-0.999385 16:-0.999669 17:-0.954152 18:-0.97594 19:-0.964474 20:-0.956271 21:-0.908267 22:1 23:1 24:1 25:-0.9896 26:-0.982049 27:-0.33461 28:-0.161702 29:-0.230228 30:-0.157428 31:-0.281815 32:-0.234927 33:-0.997057 34:-0.995934 35:-0.986705 36:-0.996448 37:-0.172945 38:-0.174604 39:-0.177456 40:-0.174409 41:-0.17188 42:0.000556334 43:-0.979004 44:-0.996028 45:-0.994048 46:-0.965291 47:-0.03132 48:-0.145862 49:-0.261866 50:-0.144303 51:-0.160943 52:-0.148202 53:-0.983887 54:-0.993459 55:-0.993035 56:-0.955001 57:-0.185952 58:-0.238655 59:-0.274034 60:-0.03577 61:-0.137236 62:-0.0167461 63:-0.996488 64:-0.991096 65:-0.993414 66:-0.975075 67:-0.230031 68:-0.140421 69:-0.0141812 70:-0.051028 71:-0.234725 72:-0.150873 73:-0.960023 74:-0.94931 75:-0.995813 76:-0.98115 77:-0.192766 78:-0.0377221 79:-0.270806 80:-0.284885 81:-0.288094 82:-0.140087 83:-0.955006 84:-0.97193 85:-0.996457 86:-0.995008 87:-0.0957177 88:-0.0942521 89:-0.0994491 90:-0.0476801 91:-0.178225 92:-0.171654 93:-0.975748 94:-0.991823 95:-0.995708 96:-0.88819 97:-0.116834 98:-0.0972832 99:-0.246591 100:-0.141583 101:-0.0432506 102:-0.138719 103:-0.980854 104:-0.991291 105:-0.981687 106:-0.992761 107:-0.979759 108:-0.980141 109:-0.985894 110:-0.954202 111:-0.959928 112:-0.972396 113:-0.993911 114:-0.989129 115:-0.992425 116:-0.992572 
0.1112059567100788 0.01429373579659308 0.008355235172163184 0 0.007811831509895732 0.007100350000687494 0.01722276864859646 0.01113379177432444 0.007867182315509171 0.008055433688948229 1:-0.890979 2:-0.993373 3:-0.980293 4:-0.785937 5:-0.78047 6:-0.986758 7:-0.985635 8:-0.98926 9:-0.984489 10:-0.994825 11:-0.992304 12:-0.991363 13:-0.943566 14:-0.999596 15:-0.999293 16:-0.999665 17:-0.954152 18:-0.97594 19:-0.964474 20:-0.956271 21:-0.960651 22:-0.917117 23:0.742972 24:0.989002 25:1 26:-0.979946 27:-0.334486 28:-0.160674 29:-0.229787 30:-0.156635 31:-0.287862 32:-0.237853 33:-0.990129 34:-0.995934 35:-0.986947 36:-0.993609 37:-0.172823 38:-0.173724 39:-0.176961 40:-0.173783 41:-0.178704 42:-0.0031388 43:-0.97249 44:-0.996028 45:-0.994296 46:-0.962984 47:-0.0311409 48:-0.145051 49:-0.26144 50:-0.143791 51:-0.16796 52:-0.151348 53:-0.979909 54:-0.993459 55:-0.993273 56:-0.953203 57:-0.185736 58:-0.23813 59:-0.273927 60:-0.0354842 61:-0.144815 62:-0.0167461 63:-0.989681 64:-0.991096 65:-0.993664 66:-0.973288 67:-0.229805 68:-0.13997 69:-0.0139868 70:-0.0509687 71:-0.241522 72:-0.150873 73:-0.953359 74:-0.94931 75:-0.99601 76:-0.979806 77:-0.192474 78:-0.0373326 79:-0.27061 80:-0.284925 81:-0.294304 82:-0.140087 83:-0.950065 84:-0.97193 85:-0.996724 86:-0.993773 87:-0.0953949 88:-0.0940221 89:-0.0992044 90:-0.0479198 91:-0.185453 92:-0.171654 93:-0.970275 94:-0.991823 95:-0.995985 96:-0.886002 97:-0.116466 98:-0.0971755 99:-0.246365 100:-0.14189 101:-0.05175 102:-0.138719 103:-0.976036 104:-0.991291 105:-0.981996 106:-0.991841 107:-0.979358 108:-0.980135 109:-0.985512 110:-0.954933 111:-0.971581 112:-0.972396 113:-0.989246 114:-0.989129 115:-0.992723 116:-0.991516 
0.07940012760656628 0.01299635975866495 0.00736809830424541 0 0.006958685332004069 0.007828720928412669 0.01362205861130572 0.007711098843584972 0.007507497091927113 0.007320023719667932 1:-0.642002 2:-0.993488 3:-0.979871 4:-0.786788 5:-0.790315 6:-0.986758 7:-0.974654 8:-0.98926 9:-0.995545 10:-0.994825 11:-0.992492 12:-0.99113 13:-0.971801 14:-0.999596 15:-0.999385 16:-0.999585 17:-0.954134 18:-0.97594 19:-0.964474 20:-0.956271 21:-0.960651 22:-0.971735 23:-0.978631 24:-0.374786 25:-0.316504 26:-0.336415 27:-0.334686 28:-0.162178 29:-0.230017 30:-0.158114 31:-0.28753 32:-0.237523 33:-0.997112 34:-0.989885 35:-0.986947 36:-0.995766 37:-0.173125 38:-0.175058 39:-0.177261 40:-0.175058 41:-0.178361 42:-0.00272202 43:-0.979021 44:-0.989979 45:-0.994296 46:-0.964694 47:-0.0316503 48:-0.146332 49:-0.261828 50:-0.144978 51:-0.167712 52:-0.150994 53:-0.983909 54:-0.988071 55:-0.993273 56:-0.954485 57:-0.186069 58:-0.239073 59:-0.273892 60:-0.0365307 61:-0.144079 62:-0.0199675 63:-0.996518 64:-0.985455 65:-0.993664 66:-0.974509 67:-0.230195 68:-0.140892 69:-0.0140347 70:-0.0517761 71:-0.241015 72:-0.153656 73:-0.960026 74:-0.941842 75:-0.99601 76:-0.980657 77:-0.192891 78:-0.0382487 79:-0.270651 80:-0.285447 81:-0.293717 82:-0.142904 83:-0.955078 84:-0.966422 85:-0.996724 86:-0.99453 87:-0.0959917 88:-0.0947485 89:-0.0993946 90:-0.0484299 91:-0.184863 92:-0.174368 93:-0.975794 94:-0.98665 95:-0.995985 96:-0.887164 97:-0.117082 98:-0.0977772 99:-0.246542 100:-0.142259 101:-0.0510808 102:-0.141541 103:-0.980868 104:-0.985729 105:-0.981996 106:-0.992284 107:-0.980127 108:-0.980936 109:-0.98588 110:-0.955272 111:-0.970829 112:-0.976392 113:-0.993927 114:-0.982222 115:-0.992723 116:-0.991883 
0.1100956323553525 0.0127271559397753 0.008252747690112822 0 0.007714835223999791 0.005818594042117178 0.01591042334573327 0.006869877122126692 0.008049934937435096 0.008303768568436714 1:-0.80854 2:-0.994207 3:-0.980081 4:-0.787009 5:-0.789613 6:-0.991766 7:-0.985686 8:-0.982494 9:-0.995545 10:-0.994825 11:-0.992493 12:-0.991338 13:-0.971634 14:-0.999598 15:-0.999385 16:-0.999669 17:-0.952256 18:-0.975889 19:-0.964474 20:-0.956271 21:-0.960651 22:-0.971735 23:-0.998029 24:-0.946697 25:0.63599 26:0.239626 27:0.0937617 28:-0.16155 29:-0.230683 30:-0.157845 31:-0.287474 32:-0.23795 33:-0.995544 34:-0.983837 35:-0.979876 36:-0.995695 37:-0.173032 38:-0.174479 39:-0.177919 40:-0.17484 41:-0.178287 42:-0.00331225 43:-0.977555 44:-0.983931 45:-0.989637 46:-0.964579 47:-0.0314116 48:-0.145783 49:-0.262332 50:-0.144704 51:-0.167554 52:-0.151347 53:-0.98301 54:-0.982683 55:-0.987782 56:-0.954418 57:-0.185986 58:-0.238569 59:-0.274493 60:-0.0362644 61:-0.144034 62:-0.0205544 63:-0.994984 64:-0.979815 65:-0.988486 66:-0.974361 67:-0.230064 68:-0.140301 69:-0.0147982 70:-0.0512356 71:-0.241327 72:-0.154278 73:-0.958532 74:-0.941842 75:-0.98489 76:-0.980657 77:-0.192703 78:-0.0375904 79:-0.271216 80:-0.28522 81:-0.293703 82:-0.143299 83:-0.953952 84:-0.960914 85:-0.992155 86:-0.994458 87:-0.0957368 88:-0.0941288 89:-0.0999882 90:-0.0478378 91:-0.18529 92:-0.17488 93:-0.974555 94:-0.98665 95:-0.984772 96:-0.887164 97:-0.116716 98:-0.0971629 99:-0.247048 100:-0.142082 101:-0.0509732 102:-0.142115 103:-0.979784 104:-0.980167 105:-0.975345 106:-0.992199 107:-0.979808 108:-0.979913 109:-0.986725 110:-0.954977 111:-0.970554 112:-0.977167 113:-0.992877 114:-0.975315 115:-0.986573 116:-0.991726 
0.1110591919975018 0.01574168647699886 0.008259002326921363 0 0.007600174667687917 0.006038657212014156 0.01578008117019992 0.007265001251897398 0.008110493148526625 0.009110578984035778 1:-0.91896 2:-0.993167 3:-0.981008 4:-0.786658 5:-0.789464 6:-0.992761 7:-0.983211 8:-0.975728 9:-0.990017 10:-0.994738 11:-0.992493 12:-0.976195 13:-0.971782 14:-0.999582 15:-0.999387 16:-0.999669 17:-0.990053 18:-0.97484 19:-0.964466 20:-0.956271 21:-0.960651 22:-0.971735 23:-0.998029 24:-0.985191 25:-0.932288 26:1 27:1 28:0.819774 29:-0.229259 30:-0.158164 31:-0.28738 32:-0.237966 33:-0.995761 34:-0.994821 35:-0.965734 36:-0.975742 37:-0.172886 38:-0.17461 39:-0.176425 40:-0.175105 41:-0.178248 42:-0.00332878 43:-0.977866 44:-0.994983 45:-0.980318 46:-0.9471 47:-0.0313163 48:-0.145915 49:-0.260957 50:-0.145021 51:-0.167548 52:-0.15153 53:-0.98338 54:-0.99269 55:-0.9768 56:-0.939295 57:-0.185915 58:-0.238696 59:-0.273137 60:-0.0365765 61:-0.144078 62:-0.0206205 63:-0.995823 64:-0.990408 65:-0.978129 66:-0.957823 67:-0.230003 68:-0.140464 69:-0.0129727 70:-0.0518446 71:-0.240892 72:-0.154221 73:-0.959159 74:-0.947835 75:-0.979331 76:-0.961334 77:-0.192673 78:-0.0377318 79:-0.269911 80:-0.285511 81:-0.29381 82:-0.143524 83:-0.95469 84:-0.971042 85:-0.983017 86:-0.975669 87:-0.0956791 88:-0.0942973 89:-0.0984651 90:-0.0485766 91:-0.184919 92:-0.174973 93:-0.975571 94:-0.990831 95:-0.979165 96:-0.836705 97:-0.116743 98:-0.097337 99:-0.245896 100:-0.142305 101:-0.0512224 102:-0.142213 103:-0.980736 104:-0.990275 105:-0.968694 106:-0.968845 107:-0.97975 108:-0.980227 109:-0.984698 110:-0.95533 111:-0.970976 112:-0.977384 113:-0.994171 114:-0.987868 115:-0.980422 116:-0.951232 
0.2056892542844733 0 0.007275495331776475 0 0.00760728394973983 0.005135913238213406 0.01522468142905217 0.01156288737930237 0.007785005934399549 0.00777002170139718 1:-0.877858 2:-0.993263 3:-0.979182 4:-0.787094 5:-0.7899 6:-0.993071 7:-0.986261 8:-0.988025 9:-0.984489 10:-0.968974 11:-0.99245 12:-0.991015 13:-0.971783 14:-0.999596 15:-0.999371 16:-0.99967 17:-0.954152 18:-0.97594 19:-0.963465 20:-0.956257 21:-0.960649 22:-0.971735 23:-0.998029 24:-0.985191 25:-0.989923 26:-0.956235 27:0.467242 28:0.916324 29:0.421566 30:-0.157826 31:-0.28731 32:-0.237797 33:-0.997083 34:-0.995893 35:-0.987903 36:-0.989091 37:-0.16968 38:-0.174713 39:-0.177168 40:-0.174773 41:-0.178099 42:-0.00304619 43:-0.978985 44:-0.995917 45:-0.994914 46:-0.958829 47:-0.0274139 48:-0.145975 49:-0.261647 50:-0.144727 51:-0.167369 52:-0.151282 53:-0.98389 54:-0.993271 55:-0.99398 56:-0.949421 57:-0.182626 58:-0.238754 59:-0.273818 60:-0.0362756 61:-0.14385 62:-0.0203509 63:-0.996507 64:-0.991087 65:-0.99437 66:-0.968947 67:-0.226835 68:-0.140533 69:-0.0138669 70:-0.0515357 71:-0.240686 72:-0.153937 73:-0.959992 74:-0.949256 75:-0.99676 76:-0.975826 77:-0.189435 78:-0.0378464 79:-0.270539 80:-0.285199 81:-0.293538 82:-0.143196 83:-0.955055 84:-0.971998 85:-0.997361 86:-0.989815 87:-0.0919584 88:-0.0943699 89:-0.0991407 90:-0.0481167 91:-0.184589 92:-0.174674 93:-0.975778 94:-0.991731 95:-0.996728 96:-0.877072 97:-0.113099 98:-0.0973999 99:-0.24633 100:-0.142004 101:-0.0507571 102:-0.141834 103:-0.980845 104:-0.991214 105:-0.982883 106:-0.987596 107:-0.975398 108:-0.980331 109:-0.98548 110:-0.954909 111:-0.970266 112:-0.976841 113:-0.993913 114:-0.989059 115:-0.993549 116:-0.985108 
0.103464643594305 0.01369259469820102 0.01052768501939123 0 0.007840254320134275 0.007106820051977396 0.01586080906591837 0.007220391747467739 0.01518720020523269 0.007852046873078663 1:-0.797823 2:-0.994189 3:-0.969654 4:-0.781393 5:-0.789775 6:-0.992402 7:-0.985993 8:-0.988616 9:-0.995298 10:-0.994932 11:-0.992753 12:-0.992154 13:-0.960949 14:-0.999093 15:-0.999379 16:-0.999669 17:-0.954152 18:-0.97594 19:-0.964311 20:-0.956293 21:-0.958787 22:-0.993468 23:-0.996335 24:-0.984691 25:-0.989909 26:-0.981577 27:-0.334642 28:-0.161815 29:-0.229967 30:-0.0979215 31:0.932381 32:0.771743 33:0.66482 34:-1 35:-0.987754 36:-0.992223 37:-0.172756 38:-0.172635 39:-0.176715 40:-0.156358 41:-0.175209 42:-0.00308857 43:-0.979021 44:-1 45:-0.994846 46:-0.96782 47:-0.0317154 48:-0.143792 49:-0.261238 50:-0.14145 51:-0.147204 52:-0.151348 53:-0.983795 54:-0.99706 55:-0.993906 56:-0.954854 57:-0.18609 58:-0.236831 59:-0.273413 60:-0.025409 61:-0.130172 62:-0.0203 63:-0.996409 64:-0.994915 65:-0.994251 66:-0.974947 67:-0.23016 68:-0.138337 69:-0.0133137 70:-0.0408304 71:-0.22836 72:-0.153951 73:-0.959938 74:-0.954338 75:-0.996646 76:-0.978007 77:-0.192504 78:-0.0354439 79:-0.270128 80:-0.26925 81:-0.291008 82:-0.143212 83:-0.955078 84:-0.975686 85:-0.997237 86:-0.994933 87:-0.0958444 88:-0.0920686 89:-0.098635 90:-0.0374457 91:-0.171414 92:-0.174675 93:-0.975703 94:-0.995306 95:-0.996627 96:-0.887987 97:-0.116944 98:-0.0951721 99:-0.245891 100:-0.132358 101:-0.0352256 102:-0.141849 103:-0.980772 104:-0.995003 105:-0.982766 106:-0.992653 107:-0.97994 108:-0.976641 109:-0.984739 110:-0.93963 111:-0.948887 112:-0.976822 113:-0.993855 114:-0.993724 115:-0.993438 116:-0.988272 
0.111565139201121 0.01687284639190484 0.007847102624120215 0 0.00778949163779874 0.007043374380904111 0.01713975399164183 0.007788268493480852 0.007796034739531428 0.007989590239548832 1:-0.712343 2:-0.98991 3:-0.979143 4:-0.756161 5:-0.785143 6:-0.992309 7:-0.985686 8:-0.993755 9:-0.996188 10:-0.992563 11:-0.991924 12:-0.986304 13:-0.971036 14:-0.996576 15:-0.998883 16:-0.999662 17:-0.954152 18:-0.97594 19:-0.964473 20:-0.956094 21:-0.960676 22:-0.950003 23:-0.99993 24:-0.983721 25:-0.989668 26:-0.981579 27:-0.334642 28:-0.161815 29:-0.229967 30:-0.157749 31:-0.258296 32:0.552266 33:0.930171 34:0.673393 35:-0.989667 36:-0.993946 37:-0.172053 38:-0.175277 39:-0.176133 40:-0.175619 41:-0.158563 42:0.000556334 43:-0.978961 44:-0.996028 45:-0.99612 46:-0.963108 47:-0.0301713 48:-0.146533 49:-0.260656 50:-0.145539 51:-0.147204 52:-0.148202 53:-0.983813 54:-0.993459 55:-0.9955 56:-0.953141 57:-0.185034 58:-0.239283 59:-0.272858 60:-0.0371693 61:-0.123109 62:-0.0167461 63:-0.99644 64:-0.991096 65:-0.995657 66:-0.972991 67:-0.229137 68:-0.141125 69:-0.012527 70:-0.0523987 71:-0.221996 72:-0.150873 73:-0.959958 74:-0.94931 75:-0.998171 76:-0.979345 77:-0.191779 78:-0.0384952 79:-0.269569 80:-0.285919 81:-0.276437 82:-0.140087 83:-0.954992 84:-0.97193 85:-0.998518 86:-0.993255 87:-0.0946075 88:-0.0949766 89:-0.0979215 90:-0.0490545 91:-0.164604 92:-0.171654 93:-0.97573 94:-0.991823 95:-0.998218 96:-0.884456 97:-0.115732 98:-0.0980097 99:-0.245286 100:-0.142817 101:-0.0272006 102:-0.138719 103:-0.980831 104:-0.991291 105:-0.984626 106:-0.991021 107:-0.978482 108:-0.981297 109:-0.983745 110:-0.956183 111:-0.937845 112:-0.972396 113:-0.993869 114:-0.989129 115:-0.995248 116:-0.990095 
0.1116789412574925 0.01646669765483434 0.007883665721411092 0 0.007265277787839077 0.006482336101800028 0.01536908482654328 0.007186468161036122 0.007884193073091891 0.007834285822395544 1:-0.148778 2:-0.994578 3:-0.978217 4:-0.787906 5:-0.761777 6:-0.986758 7:-0.985617 8:-0.98926 9:-0.99772 10:-0.993662 11:-0.990465 12:-0.992718 13:-0.970014 14:-0.999741 15:-0.996373 16:-0.999166 17:-0.95395 18:-0.97594 19:-0.964474 20:-0.956271 21:-0.960445 22:-0.971754 23:-0.998029 24:-1 25:-0.988005 26:-0.981378 27:-0.334617 28:-0.161812 29:-0.229967 30:-0.15775 31:-0.287695 32:-0.189568 33:1 34:1 35:0.413108 36:-0.996937 37:-0.171028 38:-0.174319 39:-0.177369 40:-0.175306 41:-0.180587 42:0.0153369 43:-0.952895 44:-0.995341 45:-0.994066 46:-0.965747 47:-0.0290212 48:-0.145544 49:-0.261828 50:-0.145311 51:-0.169933 52:-0.135619 53:-0.967909 54:-0.992878 55:-0.992968 56:-0.955444 57:-0.183977 58:-0.238355 59:-0.273601 60:-0.0369195 61:-0.146481 62:-0.00585239 63:-0.962331 64:-0.990675 65:-0.993239 66:-0.975513 67:-0.228133 68:-0.140106 69:-0.0141131 70:-0.0520677 71:-0.243048 72:-0.13833 73:-0.933359 74:-0.948563 75:-0.995701 76:-0.981558 77:-0.190773 78:-0.0373459 79:-0.27032 80:-0.285746 81:-0.295723 82:-0.13056 83:-0.930013 84:-0.97147 85:-0.996288 86:-0.995386 87:-0.093476 88:-0.0939291 89:-0.098868 90:-0.0487054 91:-0.187129 92:-0.162477 93:-0.948199 94:-0.991462 95:-0.995513 96:-0.888936 97:-0.114599 98:-0.0969307 99:-0.246098 100:-0.142602 101:-0.0537521 102:-0.129177 103:-0.956711 104:-0.990872 105:-0.981367 106:-0.99322 107:-0.977169 108:-0.979602 109:-0.985807 110:-0.955755 111:-0.974372 112:-0.954383 113:-0.975204 114:-0.988361 115:-0.992457 116:-0.993215 
0.1111372503115673 0.01177274315529462 0.008033702501036495 0 0.007337598798262823 0.006497442697184842 0.0164172404828872 0.007222006432174376 0.008009687611780546 0.007949703058462113 1:0.599969 2:-0.99279 3:-0.980161 4:-0.787609 5:-0.792704 6:-0.964181 7:-0.94156 8:-0.988558 9:-0.995211 10:-0.99559 11:-0.988381 12:-0.990307 13:-0.971389 14:-0.99971 15:-0.999695 16:-0.997659 17:-0.902996 18:-0.97548 19:-0.963949 20:-0.956271 21:-0.96065 22:-0.971585 23:-0.998045 24:-0.970382 25:-0.979846 26:-0.979694 27:-0.334264 28:-0.161812 29:-0.229966 30:-0.157749 31:-0.287695 32:-0.237853 33:-0.860945 34:0.606862 35:1 36:1 37:-0.175417 38:-0.174467 39:-0.176376 40:-0.174682 41:-0.176156 42:-0.00367286 43:-0.939833 44:-0.977882 45:-0.994081 46:-0.96461 47:-0.0342562 48:-0.145713 49:-0.260923 50:-0.144617 51:-0.165356 52:-0.151749 53:-0.95991 54:-0.977295 55:-0.993033 56:-0.954396 57:-0.188378 58:-0.23853 59:-0.273107 60:-0.036106 61:-0.141775 62:-0.0207932 63:-0.955494 64:-0.974174 65:-0.99357 66:-0.97435 67:-0.232364 68:-0.140305 69:-0.012887 70:-0.0514178 71:-0.238815 72:-0.154368 73:-0.920026 74:-0.926905 75:-0.99589 76:-0.980594 77:-0.195135 78:-0.0374986 79:-0.270778 80:-0.28505 81:-0.291372 82:-0.143771 83:-0.935026 84:-0.938881 85:-0.996556 86:-0.994447 87:-0.0984262 88:-0.0940795 89:-0.0982495 90:-0.0480742 91:-0.182602 92:-0.175079 93:-0.94268 94:-0.976303 95:-0.99582 96:-0.886939 97:-0.119495 98:-0.0971373 99:-0.245575 100:-0.141916 101:-0.0477645 102:-0.142407 103:-0.951879 104:-0.969042 105:-0.981812 106:-0.992137 107:-0.982946 108:-0.979851 109:-0.984169 110:-0.954685 111:-0.967026 112:-0.977451 113:-0.965843 114:-0.968409 115:-0.992518 116:-0.991631 
0.1119048875665704 0.01369291639846036 0.00787215382150179 0 0.007854785687063201 0.008340597591973451 0.01722401969819261 0.007760736802173318 0.007853356004187576 0.009216876684894366 1:0.88871 2:-0.993107 3:-0.978651 4:-0.786415 5:-0.785727 6:-0.993308 7:-0.919496 8:-0.962195 9:-0.995347 10:-0.994692 11:-0.997372 12:-0.990495 13:-0.9705 14:-0.9996 15:-0.999026 16:-0.999736 17:-0.892765 18:-0.956247 19:-0.964209 20:-0.956153 21:-0.960651 22:-0.971735 23:-0.997895 24:-0.985209 25:-1 26:-0.963161 27:-0.334184 28:-0.16181 29:-0.229967 30:-0.157749 31:-0.287695 32:-0.237853 33:-0.997112 34:-0.971741 35:-0.265706 36:-0.314936 37:0.731878 38:-0.1745 39:-0.177415 40:-0.1745 41:-0.178784 42:-0.00325669 43:-0.978537 44:-0.996028 45:-0.989637 46:-0.964694 47:-0.0314116 48:-0.145902 49:-0.261868 50:-0.144548 51:-0.168062 52:-0.151445 53:-0.983613 54:-0.993459 55:-0.987782 56:-0.954485 57:-0.185986 58:-0.238687 59:-0.274036 60:-0.0360426 61:-0.144557 62:-0.0204897 63:-0.996013 64:-0.991096 65:-0.988486 66:-0.974509 67:-0.230064 68:-0.140457 69:-0.0141683 70:-0.0512958 71:-0.241321 72:-0.154122 73:-0.959534 74:-0.94931 75:-0.99045 76:-0.980657 77:-0.192766 78:-0.0379675 79:-0.270317 80:-0.285238 81:-0.293708 82:-0.14337 83:-0.954709 84:-0.97193 85:-0.996724 86:-0.99453 87:-0.0957368 88:-0.0941961 89:-0.0994192 90:-0.0478492 91:-0.185288 92:-0.174796 93:-0.975389 94:-0.991823 95:-0.990379 96:-0.887164 97:-0.116834 98:-0.0975835 99:-0.246094 100:-0.142074 101:-0.0509787 102:-0.142074 103:-0.98051 104:-0.991291 105:-0.981996 106:-0.992284 107:-0.979808 108:-0.980005 109:-0.985891 110:-0.9544 111:-0.971381 112:-0.977146 113:-0.99358 114:-0.989129 115:-0.986573 116:-0.991883 
0.112106100214271 0.0169612563616133 0.008312471758737047 0 0.007358793713591992 0.008317679736920732 0.0156646111566815 0.00782394845171369 0.008507179456376385 0.008670111668145533 1:-0.91896 2:-0.99379 3:-0.979484 4:-0.786636 5:-0.789472 6:-0.992622 7:-0.984874 8:-0.98926 9:-0.995545 10:-0.994825 11:-0.992493 12:-0.991067 13:-0.972181 14:-0.999578 15:-0.999422 16:-0.999687 17:-0.9534 18:-0.97594 19:-0.958557 20:-0.956271 21:-0.960651 22:-0.971735 23:-0.998028 24:-0.985039 25:-0.989943 26:-1 27:-0.334642 28:-0.160561 29:-0.229664 30:-0.157704 31:-0.28769 32:-0.237853 33:-0.997116 34:-0.995934 35:-0.82785 36:0.899878 37:1 38:0.724677 39:-0.176475 40:-0.177175 41:-0.179061 42:-0.003052 43:-0.97652 44:-0.99168 45:-0.961679 46:-0.923641 47:-0.0309288 48:-0.14565 49:-0.261033 50:-0.147168 51:-0.168392 52:-0.151604 53:-0.982417 54:-0.989582 55:-0.960327 56:-0.913977 57:-0.185696 58:-0.238366 59:-0.273209 60:-0.0389996 61:-0.144839 62:-0.0206821 63:-0.993873 64:-0.987044 65:-0.962594 66:-0.930013 67:-0.229786 68:-0.140083 69:-0.0131449 70:-0.0541856 71:-0.241604 72:-0.154268 73:-0.957454 74:-0.943946 75:-0.962651 76:-0.94201 77:-0.192532 78:-0.0373442 79:-0.269921 80:-0.28728 81:-0.294315 82:-0.142861 83:-0.953194 84:-0.96797 85:-0.960171 86:-0.966239 87:-0.0951834 88:-0.0941348 89:-0.0983949 90:-0.0508659 91:-0.185528 92:-0.174323 93:-0.97367 94:-0.988108 95:-0.951132 96:-0.826613 97:-0.116307 98:-0.0971282 99:-0.245689 100:-0.144457 101:-0.051812 102:-0.141499 103:-0.979008 104:-0.987297 105:-0.928788 106:-0.964158 107:-0.979166 108:-0.979831 109:-0.984433 110:-0.958732 111:-0.971736 112:-0.976328 113:-0.992107 114:-0.984171 115:-0.94352 116:-0.951232 
0.2174844829647928 0.01113834614364449 0.00794842225807019 0 0.007113206896594304 0.01029228463898723 0.01504856033052053 0.007898496120422444 0.007908430930143947 0.007968231457105526 1:-0.555671 2:-0.993044 3:-0.978818 4:-0.790499 5:-0.790504 6:-0.992281 7:-0.981462 8:-0.9844 9:-0.95685 10:-0.964666 11:-0.991693 12:-0.99038 13:-0.970736 14:-1 15:-0.999469 16:-0.999657 17:-0.950265 18:-0.971224 19:-0.923054 20:-0.911077 21:-0.959839 22:-0.971125 23:-0.998029 24:-0.98519 25:-0.989756 26:-0.981596 27:-0.334642 28:-0.161815 29:-0.229425 30:-0.157742 31:-0.287694 32:-0.237853 33:-0.997112 34:-0.995934 35:-0.986947 36:-0.959055 37:0.617927 38:1 39:1 40:-0.17451 41:-0.178838 42:-0.00305964 43:-0.97904 44:-0.996509 45:-0.993863 46:-0.958829 47:-0.0274139 48:-0.145975 49:-0.261647 50:-0.144504 51:-0.168103 52:-0.151262 53:-0.983925 54:-0.993813 55:-0.992776 56:-0.949421 57:-0.182626 58:-0.238754 59:-0.273818 60:-0.0359364 61:-0.14461 62:-0.0202248 63:-0.996564 64:-0.991517 65:-0.993188 66:-0.968947 67:-0.226835 68:-0.140533 69:-0.0138669 70:-0.0511776 71:-0.241372 72:-0.153896 73:-0.960064 74:-0.949839 75:-0.995503 76:-0.975826 77:-0.189435 78:-0.0378464 79:-0.270539 80:-0.284978 81:-0.294185 82:-0.143133 83:-0.955112 84:-0.972413 85:-0.996295 86:-0.989815 87:-0.0919584 88:-0.0943699 89:-0.0991407 90:-0.0478122 91:-0.185341 92:-0.174612 93:-0.975823 94:-0.99218 95:-0.995477 96:-0.877072 97:-0.113099 98:-0.0973999 99:-0.24633 100:-0.141739 101:-0.0516272 102:-0.141823 103:-0.980886 104:-0.991663 105:-0.981395 106:-0.987596 107:-0.975398 108:-0.980331 109:-0.98548 110:-0.954506 111:-0.971443 112:-0.97671 113:-0.99396 114:-0.989659 115:-0.992158 116:-0.985108 
0.05748355503196648 0.01516736714891922 0.006382954957643085 0 0.006143406639864605 0.01438796286239081 0.01028217451017105 0.01220532097587797 0.007831227423800227 0.006408108586185387 1:-0.330461 2:-0.982308 3:-0.964551 4:-0.786316 5:-0.789756 6:-0.992394 7:-0.98845 8:-0.99008 9:-0.995735 10:-0.994199 11:-0.990899 12:-0.976195 13:-0.955532 14:-0.999595 15:-0.99938 16:-0.999674 17:-0.956699 18:-0.976723 19:-0.964679 20:-0.955249 21:-0.958925 22:-0.960812 23:-0.98348 24:-0.985155 25:-0.989893 26:-0.981581 27:-0.334642 28:-0.161727 29:-0.229978 30:-0.157749 31:-0.256094 32:-0.236892 33:-0.996613 34:-0.995874 35:-0.986908 36:-0.995766 37:-0.173027 38:-0.174713 39:-0.128814 40:0.109788 41:0.274234 42:0.488314 43:-0.974636 44:-0.996031 45:-0.994841 46:-0.964761 47:-0.0331817 48:-0.145917 49:-0.252504 50:-0.14145 51:-0.167747 52:-0.151348 53:-0.982243 54:-0.993486 55:-0.994074 56:-0.954443 57:-0.187479 58:-0.2387 59:-0.267824 60:-0.0325547 61:-0.144291 62:-0.0203773 63:-0.991944 64:-0.991088 65:-0.992896 66:-0.974536 67:-0.231547 68:-0.14044 69:-0.0055968 70:-0.0443467 71:-0.241064 72:-0.154 73:-0.955307 74:-0.94951 75:-0.993795 76:-0.98062 77:-0.194294 78:-0.037744 79:-0.267528 80:-0.277199 81:-0.293923 82:-0.143234 83:-0.951754 84:-0.9719 85:-0.994735 86:-0.994616 87:-0.0974416 88:-0.0942902 89:-0.0953765 90:-0.0374457 91:-0.185036 92:-0.174668 93:-0.971928 94:-0.991934 95:-0.993733 96:-0.88711 97:-0.118526 98:-0.0973168 99:-0.243143 100:-0.132358 101:-0.0512756 102:-0.141881 103:-0.978895 104:-0.991288 105:-0.981168 106:-0.992229 107:-0.981819 108:-0.980186 109:-0.979949 110:-0.944655 111:-0.97097 112:-0.976891 113:-0.990728 114:-0.989192 115:-0.993452 116:-0.991952 
0.1102588954525529 0.01665847633904202 0.008128319260873342 0 0.007802038646506684 0.006032791542881354 0.01557449553889297 0.007568319180151063 0.007834986336276165 0.008644414350322781 1:0.220008 2:-0.993447 3:-0.964551 4:-0.781393 5:-0.789713 6:-0.992402 7:-0.978208 8:-0.989295 9:-0.996415 10:-0.994756 11:-0.99537 12:-0.991323 13:-0.955532 14:-0.999093 15:-0.999379 16:-0.999669 17:-0.949557 18:-0.976125 19:-0.963815 20:-0.956137 21:-0.963784 22:-0.971724 23:-0.993179 24:-0.974193 25:-0.989923 26:-0.981552 27:-0.334642 28:-0.161815 29:-0.22988 30:-0.15776 31:-0.287695 32:-0.237853 33:-0.995948 34:-0.995923 35:-0.986947 36:-0.995766 37:-0.173032 38:-0.174713 39:-0.177168 40:-0.162477 41:0.45734 42:0.702632 43:0.503612 44:-0.995806 45:-0.99471 46:-0.964479 47:-0.0317667 48:-0.146078 49:-0.261376 50:-0.144621 51:-0.164378 52:-0.151348 53:-0.983909 54:-0.993229 55:-0.99376 56:-0.954269 57:-0.186284 58:-0.238815 59:-0.273551 60:-0.0361275 61:-0.140768 62:-0.0203773 63:-0.996518 64:-0.99103 65:-0.994128 66:-0.974444 67:-0.230353 68:-0.14057 69:-0.0134962 70:-0.0513793 71:-0.237907 72:-0.154009 73:-0.960026 74:-0.949193 75:-0.996508 76:-0.980581 77:-0.193064 78:-0.0379487 79:-0.270271 80:-0.285148 81:-0.291008 82:-0.143262 83:-0.955078 84:-0.971733 85:-0.99713 86:-0.994361 87:-0.0960726 88:-0.0944795 89:-0.0988063 90:-0.0480319 91:-0.18163 92:-0.174713 93:-0.975794 94:-0.991737 95:-0.996487 96:-0.886995 97:-0.117168 98:-0.0974757 99:-0.246046 100:-0.1419 101:-0.0472631 102:-0.1419 103:-0.980868 104:-0.991165 105:-0.982589 106:-0.992177 107:-0.980201 108:-0.980319 109:-0.984981 110:-0.954705 111:-0.965449 112:-0.976899 113:-0.993927 114:-0.988765 115:-0.993266 116:-0.991526 
0.1090226135029693 0.01387979589496593 0.009652070766788961 0 0.01157262269060706 0.007197219125013782 0.01567657614922204 0.01012681356017406 0.01516207355408644 0.008867408230681323 1:-0.694787 2:-0.993677 3:-0.979403 4:-0.78644 5:-0.785143 6:-0.992402 7:-0.985686 8:-0.989147 9:-0.996039 10:-0.994753 11:-0.993107 12:-0.991389 13:-0.971296 14:-0.999596 15:-0.998883 16:-0.999669 17:-0.954152 18:-0.975772 19:-0.965001 20:-0.956105 21:-0.961318 22:-0.971876 23:-0.997597 24:-0.985191 25:-0.983856 26:-0.981581 27:-0.334642 28:-0.161815 29:-0.229967 30:-0.157661 31:-0.287705 32:-0.237853 33:-0.997112 34:-0.994903 35:-0.986931 36:-0.995765 37:-0.173032 38:-0.174713 39:-0.177168 40:-0.174713 41:-0.160227 42:0.540046 43:-0.0189019 44:0.570552 45:-0.994232 46:-0.965217 47:-0.031356 48:-0.146257 49:-0.261683 50:-0.144338 51:-0.167813 52:-0.148202 53:-0.983909 54:-0.993459 55:-0.99317 56:-0.954937 57:-0.185923 58:-0.239006 59:-0.273824 60:-0.0358102 61:-0.1443 62:-0.0167461 63:-0.996518 64:-0.991096 65:-0.993685 66:-0.975001 67:-0.230077 68:-0.140815 69:-0.0139287 70:-0.0510656 71:-0.241089 72:-0.150873 73:-0.960026 74:-0.94931 75:-0.996133 76:-0.981081 77:-0.19284 78:-0.0381592 79:-0.270617 80:-0.284911 81:-0.293923 82:-0.140087 83:-0.955078 84:-0.97193 85:-0.996688 86:-0.994949 87:-0.0957067 88:-0.0946683 89:-0.099193 90:-0.0477172 91:-0.185036 92:-0.171654 93:-0.975794 94:-0.991823 95:-0.995907 96:-0.888063 97:-0.116782 98:-0.097698 99:-0.246381 100:-0.141616 101:-0.0512756 102:-0.138719 103:-0.980868 104:-0.991291 105:-0.981989 106:-0.992699 107:-0.979803 108:-0.980807 109:-0.985441 110:-0.95426 111:-0.97097 112:-0.972396 113:-0.993927 114:-0.989129 115:-0.992502 116:-0.992492 
0.108906848808783 0.01573059642573482 0.007858692387505507 0 0.007817791457298946 0.006006574170176465 0.01720142384052176 0.01102347179084272 0.01000183735004831 0.007876215883797886 1:-0.827748 2:-0.994078 3:-0.97991 4:-0.78599 5:-0.789816 6:-0.986758 7:-0.985686 8:-0.98926 9:-0.995401 10:-0.995211 11:-0.992315 12:-0.992016 13:-0.97181 14:-0.999551 15:-0.999385 16:-0.999166 17:-0.954152 18:-0.97594 19:-0.96432 20:-0.956849 21:-0.960457 22:-0.972225 23:-0.998155 24:-0.984698 25:-0.989923 26:-0.976972 27:-0.334642 28:-0.161815 29:-0.229967 30:-0.157749 31:-0.287615 32:-0.237863 33:-0.997112 34:-0.995934 35:-0.985625 36:-0.995718 37:-0.17303 38:-0.174713 39:-0.177168 40:-0.174713 41:-0.178538 42:0.0245747 43:1 44:1 45:0.417554 46:-0.964333 47:-0.0321 48:-0.145972 49:-0.261646 50:-0.144733 51:-0.167222 52:-0.148202 53:-0.979909 54:-0.993459 55:-0.993273 56:-0.954213 57:-0.186564 58:-0.238766 59:-0.273817 60:-0.0362688 61:-0.143693 62:-0.0167461 63:-0.989681 64:-0.991096 65:-0.993664 66:-0.974244 67:-0.230619 68:-0.14053 69:-0.0138656 70:-0.0514937 71:-0.240542 72:-0.150873 73:-0.953359 74:-0.94931 75:-0.99601 76:-0.980509 77:-0.193339 78:-0.037822 79:-0.270538 80:-0.28529 81:-0.293422 82:-0.140087 83:-0.950065 84:-0.97193 85:-0.996724 86:-0.994343 87:-0.0963865 88:-0.0943871 89:-0.0991394 90:-0.0481712 91:-0.18445 92:-0.171654 93:-0.970275 94:-0.991823 95:-0.995985 96:-0.886601 97:-0.117477 98:-0.0973568 99:-0.246329 100:-0.141997 101:-0.0505857 102:-0.138719 103:-0.976036 104:-0.991291 105:-0.981996 106:-0.991971 107:-0.980567 108:-0.9803 109:-0.985478 110:-0.954808 111:-0.970021 112:-0.972396 113:-0.989246 114:-0.989129 115:-0.992723 116:-0.99156 
0.1103203397862915 0.01424257257539914 0.008075392506147401 0 0.007829491799265127 0.006032054148333553 0.01557335787447182 0.007209128755683621 0.009604392068627102 0.008478759580311492 1:-0.482261 2:-0.993539 3:-0.979858 4:-0.786573 5:-0.789012 6:-0.986758 7:-0.974654 8:-0.98926 9:-0.995545 10:-0.994641 11:-0.993675 12:-0.991392 13:-0.971781 14:-0.999606 15:-0.999299 16:-0.999166 17:-0.943921 18:-0.97594 19:-0.964474 20:-0.955873 21:-0.961939 22:-0.97178 23:-0.998027 24:-0.985485 25:-0.988881 26:-0.976972 27:-0.331896 28:-0.161815 29:-0.229967 30:-0.151281 31:-0.287695 32:-0.237773 33:-0.997136 34:-0.995934 35:-1 36:-0.994662 37:-0.173031 38:-0.174712 39:-0.177168 40:-0.174713 41:-0.178538 42:-0.0031388 43:-0.861455 44:0.455629 45:1 46:1 47:-0.0309849 48:-0.145742 49:-0.260465 50:-0.144308 51:-0.166561 52:-0.152063 53:-0.967909 54:-0.982683 55:-0.993123 56:-0.954336 57:-0.185608 58:-0.238517 59:-0.272795 60:-0.0356369 61:-0.143213 62:-0.0211138 63:-0.976006 64:-0.979815 65:-0.993483 66:-0.974406 67:-0.229736 68:-0.14033 69:-0.0126592 70:-0.0507807 71:-0.240131 72:-0.154687 73:-0.946693 74:-0.926905 75:-0.995956 76:-0.980455 77:-0.192557 78:-0.0374223 79:-0.269818 80:-0.284628 81:-0.293198 82:-0.143844 83:-0.945052 84:-0.955406 85:-0.996611 86:-0.994515 87:-0.0956539 88:-0.0938027 89:-0.098449 90:-0.0472662 91:-0.184244 92:-0.175375 93:-0.964756 94:-0.971129 95:-0.995809 96:-0.887009 97:-0.116752 98:-0.0968348 99:-0.245955 100:-0.141204 101:-0.0504864 102:-0.142375 103:-0.976036 104:-0.969042 105:-0.981996 106:-0.99205 107:-0.979534 108:-0.979041 109:-0.984575 110:-0.954443 111:-0.969984 112:-0.977732 113:-0.979885 114:-0.975315 115:-0.992461 116:-0.991785 
0.1080000365163229 0.01633987279815411 0.007811050835767159 0 0.00764340241161619 0.00645626849692586 0.01542937298055695 0.007075443805784942 0.007774867274240125 0.007809714034859858 1:-0.90728 2:-0.992112 3:-0.979073 4:-0.786265 5:-0.789237 6:-0.994061 7:-0.94156 8:-0.975728 9:-0.995113 10:-0.994767 11:-0.992963 12:-0.989432 13:-0.970998 14:-0.999588 15:-0.999334 16:-0.999838 17:-0.902996 18:-0.962811 19:-0.964204 20:-0.956157 21:-0.962668 22:-0.97157 23:-0.998275 24:-0.98364 25:-0.989352 26:-0.983206 27:-0.331896 28:-0.139287 29:-0.229967 30:-0.157414 31:-0.287695 32:-0.237853 33:-0.996921 34:-0.995954 35:-0.986947 36:-0.995766 37:-0.172405 38:-0.174691 39:-0.177167 40:-0.174713 41:-0.178538 42:-0.0031388 43:-0.979021 44:-0.950664 45:0.212532 46:0.759545 47:1 48:-0.145794 49:-0.261014 50:-0.144465 51:-0.16796 52:-0.151643 53:-0.984567 54:-0.988071 55:-0.987782 56:-0.954485 57:-0.185986 58:-0.238542 59:-0.273199 60:-0.0359383 61:-0.144452 62:-0.020729 63:-0.997642 64:-0.985455 65:-0.988486 66:-0.974509 67:-0.230064 68:-0.140275 69:-0.0130141 70:-0.0512247 71:-0.241226 72:-0.154316 73:-0.961122 74:-0.941842 75:-0.99045 76:-0.980657 77:-0.192766 78:-0.0375469 79:-0.269918 80:-0.285032 81:-0.294047 82:-0.143595 83:-0.955901 84:-0.966422 85:-0.992155 86:-0.99453 87:-0.0957368 88:-0.0940746 89:-0.0983656 90:-0.0479051 91:-0.18518 92:-0.175031 93:-0.9767 94:-0.98665 95:-0.990379 96:-0.887164 97:-0.116834 98:-0.0971324 99:-0.245672 100:-0.141776 101:-0.0514462 102:-0.142246 103:-0.98166 104:-0.985729 105:-0.975345 106:-0.992284 107:-0.979808 108:-0.979945 109:-0.984336 110:-0.95451 111:-0.971205 112:-0.977255 113:-0.994698 114:-0.982222 115:-0.986573 116:-0.991883 
0.1085971012005192 0.01644750350773968 0.007810146501672015 0 0.007608571757626914 0.006487810341954289 0.01530113037296121 0.007192962429002995 0.00777866916311864 0.007811631179794556 1:-0.91896 2:-0.993166 3:-0.978805 4:-0.786198 5:-0.790016 6:-0.992932 7:-0.9875 8:-0.982494 9:-0.990017 10:-0.994825 11:-0.992493 12:-0.990823 13:-0.970662 14:-0.999576 15:-0.999407 16:-0.999717 17:-0.955834 18:-0.969376 19:-0.958557 20:-0.956271 21:-0.960651 22:-0.971315 23:-0.997028 24:-0.985015 25:-0.99018 26:-0.982082 27:-0.335092 28:-0.158597 29:-0.226789 30:-0.157749 31:-0.287695 32:-0.237853 33:-0.997112 34:-0.995768 35:-0.986971 36:-0.995766 37:-0.174107 38:-0.174203 39:-0.177162 40:-0.174713 41:-0.178538 42:-0.0031388 43:-0.979021 44:-0.996028 45:-0.975658 46:0.448713 47:0.932039 48:0.772071 49:-0.261837 50:-0.144878 51:-0.168027 52:-0.151603 53:-0.983556 54:-0.993022 55:-0.993273 56:-0.949421 57:-0.185986 58:-0.238754 59:-0.274101 60:-0.0364162 61:-0.144633 62:-0.0206707 63:-0.995976 64:-0.990639 65:-0.993664 66:-0.968947 67:-0.230064 68:-0.140533 69:-0.0141703 70:-0.0516641 71:-0.241323 72:-0.154263 73:-0.959478 74:-0.948706 75:-0.99601 76:-0.975826 77:-0.192766 78:-0.0378464 79:-0.270771 80:-0.285363 81:-0.294148 82:-0.14352 83:-0.954691 84:-0.971484 85:-0.996724 86:-0.989815 87:-0.0957368 88:-0.0943699 89:-0.0995147 90:-0.0483172 91:-0.185374 92:-0.17496 93:-0.975362 94:-0.991405 95:-0.995985 96:-0.877072 97:-0.116834 98:-0.0973999 99:-0.246577 100:-0.142158 101:-0.051586 102:-0.142158 103:-0.980465 104:-0.990842 105:-0.981996 106:-0.987596 107:-0.979808 108:-0.980331 109:-0.985952 110:-0.955112 111:-0.971442 112:-0.977264 113:-0.993542 114:-0.98857 115:-0.992723 116:-0.985108 
0.08625934766915058 0.01588142625367572 0.007027709546250062 8.810569321010547 0.006120910758223558 0 0.01292525280610485 0.008534769917403656 0.007144478574722185 0.007345331461351995 1:-0.91896 2:-0.993572 3:-0.980295 4:-0.786848 5:-0.790215 6:-0.99286 7:-0.984745 8:-0.988713 9:-0.995545 10:-0.990517 11:-0.992493 12:-0.991338 13:-0.972224 14:-0.999637 15:-0.999426 16:-0.999709 17:-0.953228 18:-0.975409 19:-0.964474 20:-0.949815 21:-0.960651 22:-0.971735 23:-0.998433 24:-0.985636 25:-0.990428 26:-0.981954 27:-0.334413 28:-0.161555 29:-0.229967 30:-0.154515 31:-0.287695 32:-0.237853 33:-0.997112 34:-0.995934 35:-0.986754 36:-0.995789 37:-0.165665 38:-0.174713 39:-0.1766 40:-0.174706 41:-0.178537 42:-0.00313877 43:-0.979021 44:-0.996028 45:-0.994296 46:-0.932438 47:0.536265 48:0.303551 49:0.494122 50:-0.144459 51:-0.16813 52:-0.151188 53:-0.984279 54:-0.99363 55:-0.992765 56:-0.954485 57:-0.182626 58:-0.238754 59:-0.273818 60:-0.0360602 61:-0.144626 62:-0.0203089 63:-0.997149 64:-0.991112 65:-0.993185 66:-0.974509 67:-0.226835 68:-0.140533 69:-0.0138669 70:-0.0512568 71:-0.241384 72:-0.1539 73:-0.960642 74:-0.949392 75:-0.995496 76:-0.980657 77:-0.189435 78:-0.0378464 79:-0.270539 80:-0.285006 81:-0.294192 82:-0.143092 83:-0.955542 84:-0.971908 85:-0.996301 86:-0.99453 87:-0.0919584 88:-0.0943699 89:-0.0991407 90:-0.0478525 91:-0.185351 92:-0.174558 93:-0.976305 94:-0.991885 95:-0.995467 96:-0.887164 97:-0.113099 98:-0.0973999 99:-0.24633 100:-0.14185 101:-0.0516466 102:-0.14185 103:-0.981314 104:-0.991385 105:-0.981381 106:-0.992284 107:-0.975398 108:-0.980331 109:-0.98548 110:-0.95449 111:-0.971482 112:-0.976706 113:-0.99436 114:-0.989273 115:-0.992155 116:-0.991883 
0 0.01074812180811555 0 35.36835263576639 0 0.01428783813637905 0 0.01004751006146008 0 0 1:-0.723639 2:-0.993572 3:-0.974757 4:-0.78644 5:-0.789816 6:-0.991916 7:-0.985231 8:-0.988677 9:-0.995317 10:-0.994518 11:-0.992977 12:-0.991338 13:-0.966366 14:-0.999596 15:-0.999385 16:-0.999639 17:-0.953677 18:-0.975556 19:-0.964199 20:-0.956084 21:-0.961121 22:-0.971735 23:-0.993179 24:-0.985191 25:-0.989923 26:-0.981555 27:-0.334487 28:-0.161798 29:-0.229787 30:-0.157767 31:-0.287861 32:-0.237853 33:-0.990129 34:-0.995934 35:-0.986947 36:-0.995766 37:-0.173032 38:-0.174629 39:-0.177179 40:-0.174713 41:-0.178538 42:-0.00252294 43:-0.97901 44:-0.996028 45:-0.994296 46:-0.964694 47:-0.0314116 48:-0.145975 49:-0.249457 50:0.248545 51:0.258096 52:0.29535 53:-0.983652 54:-0.992852 55:-0.992921 56:-0.953915 57:-0.186001 58:-0.239072 59:-0.273818 60:-0.0325547 61:-0.1443 62:-0.0203773 63:-0.996202 64:-0.99046 65:-0.993425 66:-0.973883 67:-0.230326 68:-0.140893 69:-0.0138669 70:-0.047863 71:-0.241089 72:-0.154009 73:-0.959698 74:-0.948469 75:-0.995736 76:-0.980113 77:-0.192957 78:-0.0382488 79:-0.270539 80:-0.282499 81:-0.293923 82:-0.143262 83:-0.954841 84:-0.97131 85:-0.996508 86:-0.993998 87:-0.0958926 88:-0.0947482 89:-0.0991407 90:-0.0445032 91:-0.185036 92:-0.174713 93:-0.975372 94:-0.99124 95:-0.995557 96:-0.886027 97:-0.117003 98:-0.0977768 99:-0.24633 100:-0.138719 101:-0.0512756 102:-0.1419 103:-0.980687 104:-0.990664 105:-0.981747 106:-0.991755 107:-0.979985 108:-0.980935 109:-0.98548 110:-0.94968 111:-0.97097 112:-0.976899 113:-0.9937 114:-0.988349 115:-0.992425 116:-0.991118 
0.1027767420946629 0.00871874078301044 0.007634221516244925 0 0.007409099263769953 0 0.01503113476391697 0 0.007771527236998449 0.007718912870211889 1:-0.806951 2:-0.994206 3:-0.97986 4:-0.781393 5:-0.789816 6:-0.992402 7:-0.985042 8:-0.988497 9:-0.995222 10:-0.994339 11:-0.992638 12:-0.99219 13:-0.971783 14:-0.999093 15:-0.999385 16:-0.999669 17:-0.95333 18:-0.975201 19:-0.963999 20:-0.955544 21:-0.960929 22:-0.97235 23:-0.998029 24:-0.979692 25:-0.989923 26:-0.981581 27:-0.33449 28:-0.161453 29:-0.229791 30:-0.157385 31:-0.287858 32:-0.238183 33:-0.997112 34:-0.989885 35:-0.986947 36:-0.995766 37:-0.173032 38:-0.174713 39:-0.177077 40:-0.174723 41:-0.178538 42:-0.0031388 43:-0.97763 44:-0.995928 45:-0.994293 46:-0.964694 47:-0.0314116 48:-0.145975 49:-0.261647 50:-0.125597 51:0.735525 52:0.625655 53:-0.343938 54:-0.993783 55:-0.992051 56:-0.954664 57:-0.18574 58:-0.238552 59:-0.274483 60:-0.0325547 61:-0.137236 62:-0.0203773 63:-0.996358 64:-0.991548 65:-0.992514 66:-0.974162 67:-0.2303 68:-0.140432 69:-0.0147922 70:-0.0443467 71:-0.237907 72:-0.153938 73:-0.960026 74:-0.949715 75:-0.994772 76:-0.980408 77:-0.193011 78:-0.0376221 79:-0.271208 80:-0.279849 81:-0.291008 82:-0.143154 83:-0.955078 84:-0.972294 85:-0.995707 86:-0.994258 87:-0.0960135 88:-0.0942122 89:-0.09998 90:-0.0409744 91:-0.18163 92:-0.174621 93:-0.975794 94:-0.992175 95:-0.994738 96:-0.886642 97:-0.117108 98:-0.0972125 99:-0.247039 100:-0.135538 101:-0.0472631 102:-0.141828 103:-0.980868 104:-0.991681 105:-0.980515 106:-0.99199 107:-0.980129 108:-0.980089 109:-0.986713 110:-0.944655 111:-0.965449 112:-0.976783 113:-0.993927 114:-0.989667 115:-0.991355 116:-0.991424 
0.1107177456810086 0.01363479208940683 0.007970546159088172 0 0.007703042358914537 0.008282535473285701 0.01555762284582282 0.0107897256976622 0.007829078805738774 0.00783968160991509 1:-0.734434 2:-0.993273 3:-0.980995 4:-0.776347 5:-0.785143 6:-0.992213 7:-0.985686 8:-0.989761 9:-0.994315 10:-0.99499 11:-0.99199 12:-0.990649 13:-0.972979 14:-0.999093 15:-0.998381 16:-0.999669 17:-0.953865 18:-0.97642 19:-0.963157 20:-0.955931 21:-0.9612 22:-0.971528 23:-0.999112 24:-0.974193 25:-0.983856 26:-0.981503 27:-0.334642 28:-0.162054 29:-0.22926 30:-0.157576 31:-0.287911 32:-0.237678 33:-0.998664 34:-0.983837 35:-0.979876 36:-0.995585 37:-0.173032 38:-0.168595 39:-0.177168 40:-0.174629 41:-0.178549 42:-0.0031388 43:-1 44:-0.995002 45:-0.994285 46:-0.964693 47:-0.0314115 48:-0.145975 49:-0.261647 50:-0.144621 51:-0.138617 52:1 53:1 54:0.439676 55:-0.992123 56:-0.955139 57:-0.185734 58:-0.238866 59:-0.273193 60:-0.0354361 61:-0.133704 62:-0.00948362 63:-0.996386 64:-0.991033 65:-0.992677 66:-0.975279 67:-0.229845 68:-0.140671 69:-0.0130955 70:-0.0507415 71:-0.231543 72:-0.144601 73:-0.959833 74:-0.949199 75:-0.99531 76:-0.981228 77:-0.192614 78:-0.0380425 79:-0.270098 80:-0.284727 81:-0.288094 82:-0.133735 83:-0.954948 84:-0.971782 85:-0.996177 86:-0.995102 87:-0.0955746 88:-0.0945593 89:-0.0986955 90:-0.0475255 91:-0.178225 92:-0.165536 93:-0.975674 94:-0.991652 95:-0.995374 96:-0.888442 97:-0.116751 98:-0.0974507 99:-0.245917 100:-0.141424 101:-0.0392381 102:-0.135538 103:-0.980723 104:-0.991177 105:-0.981247 106:-0.99287 107:-0.979791 108:-0.980466 109:-0.984855 110:-0.953999 111:-0.954407 112:-0.967893 113:-0.993758 114:-0.989047 115:-0.992025 116:-0.992727 
0.1044236577777182 0.01453920483009857 0.007850999618432719 0 0.01041115119144101 0.006130039471004473 0.01562215330618749 0.007188121837677607 0.007900714086681563 0.01560899645502119 1:-0.881358 2:-0.993769 3:-0.979359 4:-0.785773 5:-0.775796 6:-0.981114 7:-0.985359 8:-0.9892 9:-0.994933 10:-0.995367 11:-0.992783 12:-0.991713 13:-0.971221 14:-0.999501 15:-0.997879 16:-0.998162 17:-0.953929 18:-0.975859 19:-0.963967 20:-0.957164 21:-0.961045 22:-0.972036 23:-0.997707 24:-0.984263 25:-0.971722 26:-0.967756 27:-0.334583 28:-0.161735 29:-0.229859 30:-0.158115 31:-0.287866 32:-0.238023 33:-0.996795 34:-0.994985 35:-0.972805 36:-0.975742 37:-0.172987 38:-0.174635 39:-0.177168 40:-0.174713 41:-0.178447 42:-0.00315128 43:-0.958042 44:-0.996028 45:-0.993425 46:-0.964652 47:-0.0314096 48:-0.145975 49:-0.261647 50:-0.144621 51:-0.167813 52:-0.127755 53:0.364029 54:1 55:0.253209 56:-0.953201 57:-0.185981 58:-0.238989 59:-0.273709 60:-0.0366084 61:-0.144385 62:-0.00948362 63:-0.989681 64:-0.990912 65:-0.993664 66:-0.973107 67:-0.230054 68:-0.140756 69:-0.0137786 70:-0.051883 71:-0.241135 72:-0.144601 73:-0.953359 74:-0.949021 75:-0.99601 76:-0.979414 77:-0.192776 78:-0.0381005 79:-0.27047 80:-0.285485 81:-0.294017 82:-0.133735 83:-0.950065 84:-0.97175 85:-0.996724 86:-0.993328 87:-0.0957368 88:-0.0946311 89:-0.0990266 90:-0.0485063 91:-0.185118 92:-0.165536 93:-0.970275 94:-0.991684 95:-0.995985 96:-0.884591 97:-0.116834 98:-0.0967943 99:-0.246429 100:-0.142383 101:-0.0512951 102:-0.138719 103:-0.966374 104:-0.991291 105:-0.981761 106:-0.991092 107:-0.979804 108:-0.980766 109:-0.985292 110:-0.955296 111:-0.971207 112:-0.96339 113:-0.989246 114:-0.988854 115:-0.992723 116:-0.990151 
0.1113802624210078 0.01168509836897721 0.01031020888845936 0 0.00761983975430273 0.007085507395734322 0.01606830488285825 0.007803556601792656 0.00876516180481612 0.007824313542813485 1:-0.91698 2:-0.993998 3:-0.979717 4:-0.78711 5:-0.789936 6:-0.97547 7:-0.974654 8:-0.989053 9:-0.995545 10:-0.994067 11:-0.992665 12:-0.991931 13:-0.971615 14:-0.999664 15:-0.999397 16:-0.998664 17:-0.943921 18:-0.975909 19:-0.964474 20:-0.95514 21:-0.960832 22:-0.972153 23:-0.997889 24:-0.985941 25:-0.990056 26:-0.972364 27:-0.331896 28:-0.161795 29:-0.229967 30:-0.157208 31:-0.287739 32:-0.238091 33:-0.996874 34:-0.996739 35:-0.987128 36:-0.982417 37:-0.16968 38:-0.174708 39:-0.177168 40:-0.174713 41:-0.178538 42:-0.00303772 43:-0.979043 44:-0.996028 45:-0.994296 46:-0.963694 47:-0.0314027 48:-0.145974 49:-0.261646 50:-0.144621 51:-0.167813 52:-0.151348 53:-0.96191 54:0.558206 55:0.829776 56:0.0733919 57:-0.185927 58:-0.239131 59:-0.273866 60:-0.036126 61:-0.144275 62:-0.0198939 63:-0.989681 64:-0.985455 65:-0.993664 66:-0.974509 67:-0.230078 68:-0.140957 69:-0.0138842 70:-0.0513787 71:-0.241036 72:-0.153592 73:-0.953359 74:-0.941842 75:-0.99601 76:-0.980657 77:-0.192721 78:-0.0383224 79:-0.270575 80:-0.285148 81:-0.293891 82:-0.14284 83:-0.950065 84:-0.966422 85:-0.996724 86:-0.99453 87:-0.0956822 88:-0.0948181 89:-0.0992321 90:-0.04803 91:-0.185002 92:-0.174306 93:-0.970275 94:-0.98665 95:-0.995985 96:-0.887164 97:-0.11681 98:-0.097846 99:-0.246373 100:-0.141899 101:-0.0512006 102:-0.141477 103:-0.976036 104:-0.985729 105:-0.981996 106:-0.992284 107:-0.979767 108:-0.981047 109:-0.985554 110:-0.954704 111:-0.97095 112:-0.9763 113:-0.989246 114:-0.982222 115:-0.992723 116:-0.991883 
0.1121836089146012 0.01648409392405339 0.007894978812183751 0 0.007819229531725674 0.00656982341162424 0.01580508893888926 0.007205093031355961 0.00840479988404999 0.008351792961289481 1:-0.917213 2:-0.994322 3:-0.979882 4:-0.78644 5:-0.789603 6:-0.991655 7:-0.974654 8:-0.982494 9:-0.995545 10:-0.994825 11:-0.99238 12:-0.99235 13:-0.971861 14:-0.999596 15:-0.999371 16:-0.999602 17:-0.943921 18:-0.969376 19:-0.964474 20:-0.956271 21:-0.960535 22:-0.972465 23:-0.998045 24:-0.985191 25:-0.989743 26:-0.980969 27:-0.331896 28:-0.158597 29:-0.229967 30:-0.157749 31:-0.287711 32:-0.238243 33:-0.997156 34:-0.995933 35:-0.986864 36:-0.994879 37:-0.16968 38:-0.171654 39:-0.177168 40:-0.174713 41:-0.178538 42:-0.00313895 43:-0.978842 44:-0.996048 45:-0.994296 46:-1 47:-0.0306929 48:-0.14596 49:-0.261644 50:-0.144621 51:-0.167813 52:-0.151348 53:-0.983909 54:-0.939581 55:1 56:1 57:0.563235 58:-0.239157 59:-0.273039 60:-0.0356661 61:-0.144559 62:-0.0204772 63:-0.998466 64:-0.968534 65:-0.983308 66:-0.974426 67:-0.230027 68:-0.141026 69:-0.012798 70:-0.0509772 71:-0.24133 72:-0.15404 73:-0.961905 74:-0.919436 75:-0.98489 76:-0.980493 77:-0.192715 78:-0.0384014 79:-0.269761 80:-0.284827 81:-0.29414 82:-0.143362 83:-0.95651 84:-0.949898 85:-0.987586 86:-0.994439 87:-0.095722 88:-0.0948887 89:-0.0981676 90:-0.0476139 91:-0.185291 92:-0.174764 93:-0.977356 94:-0.971129 95:-0.984772 96:-0.886925 97:-0.1168 98:-0.0978868 99:-0.245503 100:-0.141485 101:-0.0515694 102:-0.141965 103:-0.982238 104:-0.969042 105:-0.968694 106:-0.992218 107:-0.979751 108:-0.98117 109:-0.984051 110:-0.954044 111:-0.971373 112:-0.976986 113:-0.995254 114:-0.961502 115:-0.980422 116:-0.991748 
0.08792286756442971 0.01704376532470475 0.007568334222533708 0 0 0.005598652958587256 0.01503643665124195 0.02141569965355952 0.007681816642297532 0.007557110038367403 1:-0.873403 2:-0.994413 3:-0.978537 4:-0.785806 5:-0.790161 6:-0.992528 7:-0.988819 8:-0.962195 9:-0.984489 10:-0.994702 11:-0.992389 12:-0.99244 13:-0.970377 14:-0.999534 15:-0.999422 16:-0.999672 17:-0.957028 18:-0.949682 19:-0.95264 20:-0.956115 21:-0.960547 22:-0.972584 23:-0.996776 24:-0.984717 25:-0.989849 26:-0.981629 27:-0.335416 28:-0.15216 29:-0.220432 30:-0.15772 31:-0.287551 32:-0.238282 33:-0.9953 34:-0.995169 35:-0.987469 36:-0.995889 37:-0.173981 38:-0.162477 39:-0.170499 40:-0.174676 41:-0.178488 42:-0.0031388 43:-0.979021 44:-0.995862 45:-0.994312 46:-0.929388 47:-0.00434303 48:-0.143746 49:-0.26023 50:-0.144617 51:-0.167809 52:-0.151348 53:-0.983906 54:-0.993459 55:-0.77912 56:-0.382317 57:0.583393 58:0.463865 59:-0.272084 60:-0.0300322 61:-0.144109 62:-0.0194805 63:-1 64:-1 65:-0.952238 66:-0.913327 67:-0.229977 68:-0.14046 69:-0.0114592 70:-0.0454092 71:-0.241279 72:-0.15433 73:-0.963421 74:-0.961101 75:-0.940411 76:-0.937179 77:-0.192697 78:-0.0377933 79:-0.268792 80:-0.280638 81:-0.294909 82:-0.146163 83:-0.957713 84:-0.980494 85:-0.928187 86:-0.975669 87:-0.0956376 88:-0.0942558 89:-0.0969518 90:-0.0420349 91:-0.184842 92:-0.173974 93:-0.978598 94:-1 95:-0.951132 96:-0.776154 97:-0.116708 98:-0.0973241 99:-0.244526 100:-0.136388 101:-0.0517449 102:-0.142757 103:-0.983371 104:-1 105:-0.908835 106:-0.954782 107:-0.97965 108:-0.980248 109:-0.982238 110:-0.946216 111:-0.969332 112:-0.972514 113:-0.996325 114:-1 115:-0.968121 116:-0.890256 
0.1392197663669109 0.01344722722250848 0.008054524461217542 0 0.006181703714800616 0.00649759236434831 0.01642190962085157 0.007070486417466088 0.007881196432306857 0.008067215460388286 1:-0.894746 2:-0.993389 3:-0.97686 4:-0.777933 5:-0.790334 6:-0.993983 7:-0.99124 8:-1 9:-0.934739 10:-0.960357 11:-0.992353 12:-0.991237 13:-0.968711 14:-0.998725 15:-0.999418 16:-0.999715 17:-0.959412 18:-0.986257 19:-0.905303 20:-0.898164 21:-0.9604 22:-0.971633 23:-0.995245 24:-0.975756 25:-0.991592 26:-0.985132 27:-0.336037 28:-0.166902 29:-0.185472 30:-0.14158 31:-0.28763 32:-0.237828 33:-0.993077 34:-0.985605 35:-0.987356 36:-0.996468 37:-0.174734 38:-0.179548 39:-0.143821 40:-0.147181 41:-0.178455 42:-0.00307728 43:-0.979021 44:-0.996028 45:-0.994169 46:-0.964714 47:-0.0584801 48:-0.146779 49:-0.261139 50:-0.144615 51:-0.167813 52:-0.151348 53:-0.983909 54:-0.993459 55:-0.993273 56:-0.934231 57:1 58:1 59:1 60:-0.0361276 61:-0.144648 62:-0.0204713 63:-0.996294 64:-0.990716 65:-0.993156 66:-0.963385 67:-0.226835 68:-0.140499 69:-0.0138669 70:-0.0513759 71:-0.241403 72:-0.154081 73:-0.959808 74:-0.948845 75:-0.995464 76:-0.970995 77:-0.189435 78:-0.0377631 79:-0.270539 80:-0.285112 81:-0.294211 82:-0.14338 83:-0.954913 84:-0.971521 85:-0.996275 86:-0.985099 87:-0.0919584 88:-0.094328 89:-0.0991407 90:-0.0480007 91:-0.185372 92:-0.17479 93:-0.975613 94:-0.991517 95:-0.995435 96:-0.86698 97:-0.113099 98:-0.0973288 99:-0.24633 100:-0.141828 101:-0.0516729 102:-0.141983 103:-0.980709 104:-0.990863 105:-0.981342 106:-0.982909 107:-0.975398 108:-0.980205 109:-0.98548 110:-0.954636 111:-0.971516 112:-0.977026 113:-0.993773 114:-0.988618 115:-0.992119 116:-0.978333 
0.1106098904128346 0.01142693239205772 0.008277130560191451 0 0.03176988153848853 0.005978845508370021 0.01570829367412822 0.007204212249593537 0.008091654757573567 0.008246143533477825 1:0.045451 2:-0.959782 3:-0.974757 4:-0.786385 5:-0.789816 6:-0.994007 7:-0.981433 8:-0.988288 9:-0.996451 10:-0.993834 11:-0.995103 12:-0.95348 13:-0.960949 14:-0.999591 15:-0.999373 16:-0.999803 17:-0.950206 18:-0.974524 19:-0.966074 20:-0.954851 21:-0.963499 22:-0.938964 23:-0.993179 24:-0.985089 25:-0.989923 26:-0.982887 27:-0.333583 28:-0.16106 29:-0.230823 30:-0.15707 31:-0.288816 32:-0.220295 33:-0.990129 34:-0.99587 35:-0.986947 36:-0.997765 37:-0.17174 38:-0.174041 39:-0.178069 40:-0.174038 41:-0.179804 42:0.019032 43:-0.97249 44:-0.99594 45:-0.994296 46:-0.964694 47:-0.0314117 48:-0.145888 49:-0.261657 50:-0.144621 51:-0.176973 52:-0.1503 53:-0.983706 54:-0.993408 55:-0.993267 56:-0.954485 57:-0.185987 58:-0.238754 59:-0.219868 60:1 61:1 62:0.771232 63:-0.996016 64:-0.994593 65:-0.99446 66:-0.97477 67:-0.228997 68:-0.138721 69:0.00267335 70:-0.0337977 71:-0.240884 72:-0.153747 73:-0.959472 74:-0.953954 75:-0.996826 76:-0.980888 77:-0.191705 78:-0.0358136 79:-0.258496 80:-0.271899 81:-0.293714 82:-0.142994 83:-0.954706 84:-0.975346 85:-0.997367 86:-0.994759 87:-0.0944475 88:-0.0924634 89:-0.0840839 90:-0.0303883 91:-0.184833 92:-0.174411 93:-0.975167 94:-0.995067 95:-0.996578 96:-0.886359 97:-0.115511 98:-0.0955035 99:-0.230392 100:-0.129177 101:-0.0507347 102:-0.141686 103:-0.980471 104:-0.994748 105:-0.982999 106:-0.992505 107:-0.978299 108:-0.977283 109:-0.963357 110:-0.92958 111:-0.970614 112:-0.97649 113:-0.993447 114:-0.993445 115:-0.993393 116:-0.991339 
0.1045183888675301 0.01301686735263175 0.008203093821083373 0 0.0078600321541368 0.006574573696765664 0.01594738916283493 0.01031923083009326 0.008185970333846323 0.008971996642920175 1:-0.126611 2:-0.990357 3:-0.954346 4:-0.766254 5:-0.789232 6:-0.992062 7:-0.984859 8:-0.993456 9:-0.996407 10:-0.995025 11:-0.990027 12:-0.987049 13:-0.950115 14:-0.997079 15:-0.999353 16:-0.999626 17:-0.953244 18:-0.980027 19:-0.965267 20:-0.95659 21:-0.958389 22:-0.968613 23:-0.978631 24:-0.957695 25:-0.989441 26:-0.981148 27:-0.334436 28:-0.163811 29:-0.230418 30:-0.157906 31:-0.286637 32:-0.236196 33:-0.96918 34:-0.965692 35:-0.986528 36:-0.995135 37:-0.17273 38:-0.176618 39:-0.177638 40:-0.174862 41:-0.177508 42:-0.00102912 43:-0.952895 44:-0.965785 45:-0.993945 46:-0.964249 47:-0.0314116 48:-0.145975 49:-0.261563 50:-0.144631 51:-0.158652 52:-0.146072 53:-0.982272 54:-0.992718 55:-0.993268 56:-0.954484 57:-0.185986 58:-0.238754 59:-0.273818 60:0.0335431 61:0.809283 62:1 63:1 64:-0.991075 65:-0.997378 66:-0.974688 67:-0.229306 68:-0.140413 69:-0.0108701 70:-0.0302814 71:-0.231543 72:-0.1539 73:-0.959867 74:-0.94935 75:-1 76:-0.980817 77:-0.191984 78:-0.0377434 79:-0.26836 80:-0.26925 81:-0.28518 82:-0.143099 83:-0.954879 84:-0.971905 85:-1 86:-0.994705 87:-0.0948515 88:-0.094207 89:-0.0957985 90:-0.0268595 91:-0.171414 92:-0.174651 93:-0.975614 94:-0.991717 95:-1 96:-0.887469 97:-0.115956 98:-0.097307 99:-0.244024 100:-0.122815 101:-0.0392381 102:-0.141808 103:-0.980716 104:-0.991272 105:-0.986764 106:-0.992369 107:-0.979469 108:-0.980124 109:-0.98147 110:-0.92958 111:-0.948887 112:-0.976774 113:-0.993882 114:-0.989147 115:-0.997134 116:-0.991988 
0.1040643874270162 0.01201941352285395 0.008949075590693911 0 0.01229218766985601 0.006044233885659353 0.01513985146434787 0.00730833083762983 0.00873917828067434 0.008309506669683601 1:-0.317776 2:-0.993361 3:-0.97616 4:-0.756161 5:-0.775796 6:-0.992266 7:-0.985384 8:-0.989333 9:-0.999511 10:-0.99493 11:-0.993064 12:-0.991206 13:-0.966996 14:-0.997582 15:-0.996373 16:-0.999651 17:-0.953889 18:-0.97601 19:-0.96872 20:-0.956436 21:-0.958887 22:-0.971547 23:-0.994515 24:-0.952196 25:-0.971722 26:-0.98139 27:-0.334578 28:-0.161811 29:-0.232246 30:-0.157819 31:-0.287001 32:-0.23777 33:-0.992058 34:-0.959644 35:-0.965734 36:-0.995611 37:-0.172904 38:-0.174706 39:-0.179559 40:-0.174802 41:-0.178286 42:-0.0029964 43:-0.974286 44:-0.965785 45:-0.975658 46:-0.964556 47:-0.0313245 48:-0.145975 49:-0.261647 50:-0.144534 51:-0.167824 52:-0.156623 53:-0.967817 54:-0.992561 55:-0.993264 56:-0.954485 57:-0.185986 58:-0.238754 59:-0.273818 60:-0.0361275 61:-0.130172 62:0.310065 63:-0.374315 64:0.54312 65:-0.993794 66:-0.974103 67:-0.230145 68:-0.1403 69:-0.0137198 70:-0.051636 71:-0.241089 72:-0.150873 73:-0.960026 74:-0.94931 75:-0.996316 76:-0.980302 77:-0.19295 78:-0.0375838 79:-0.270398 80:-0.285342 81:-0.293923 82:-0.140087 83:-0.955078 84:-0.97193 85:-0.996424 86:-0.994876 87:-0.0954889 88:-0.0946163 89:-0.0988936 90:-0.048291 91:-0.185036 92:-0.174713 93:-0.975794 94:-0.991823 95:-0.996282 96:-0.886423 97:-0.117032 98:-0.0971542 99:-0.246156 100:-0.142133 101:-0.0512756 102:-0.138719 103:-0.980868 104:-0.991291 105:-0.982075 106:-0.991944 107:-0.97986 108:-0.979942 109:-0.985155 110:-0.955074 111:-0.97097 112:-0.972396 113:-0.993927 114:-0.989129 115:-0.993023 116:-0.991387 
0.1087275987602457 0.01199360452803998 0.00821536484063131 0 0.007836818697606003 0.006027618791535796 0.01555462511779435 0.00676458268947209 0.007854477776719278 0.008118090781710604 1:-0.795267 2:-0.993159 3:-0.979615 4:-0.78681 5:-0.789816 6:-0.986758 7:-0.985686 8:-0.98926 9:-0.995263 10:-0.995142 11:-0.992143 12:-0.991895 13:-0.971507 14:-0.999633 15:-0.999385 16:-0.999669 17:-0.954152 18:-0.97594 19:-0.964567 20:-0.955803 21:-0.960769 22:-0.971339 23:-0.997787 24:-0.985595 25:-0.989923 26:-0.976972 27:-0.334642 28:-0.161815 29:-0.229973 30:-0.157515 31:-0.2877 32:-0.237642 33:-0.996631 34:-0.996379 35:-0.986947 36:-0.989091 37:-0.173032 38:-0.174713 39:-0.177304 40:-0.174489 41:-0.178674 42:-0.00286834 43:-0.978755 44:-0.996471 45:-0.994296 46:-0.958829 47:-0.0314116 48:-0.145975 49:-0.261647 50:-0.144621 51:-0.167719 52:-0.151358 53:-1 54:-0.993459 55:-0.991163 56:-0.954039 57:-0.185933 58:-0.238749 59:-0.273818 60:-0.0361296 61:-0.1443 62:0.0576942 63:0.993163 64:1 65:0.502878 66:-0.97265 67:-0.232505 68:-0.141045 69:-0.0138881 70:-0.0505126 71:-0.238629 72:-0.132058 73:-0.913359 74:-0.948496 75:-0.99543 76:-0.979062 77:-0.195286 78:-0.0384094 79:-0.270554 80:-0.284469 81:-0.291666 82:-0.121032 83:-0.919987 84:-0.971332 85:-0.996247 86:-0.992959 87:-0.0985939 88:-0.0948699 89:-0.0995552 90:-0.0471658 91:-0.182403 92:-0.156358 93:-0.931642 94:-0.991393 95:-0.995229 96:-0.883751 97:-0.119659 98:-0.0979183 99:-0.246345 100:-0.1411 101:-0.0481705 102:-0.119634 103:-0.947048 104:-0.990624 105:-0.981251 106:-0.990713 107:-0.983142 108:-0.981189 109:-0.984924 110:-0.953427 111:-0.966696 112:-0.940874 113:-0.965843 114:-0.988158 115:-0.992243 116:-0.98962 
0.1111690350286158 0.01576961469145316 0.008219672400676944 0 0.00765060284322878 0.00677106812500255 0.01724154721179855 0.007231893980842006 0.007841192157140638 0.008213728776019086 1:1 2:-0.994434 3:-0.979883 4:-0.785162 5:-0.786198 6:-0.952893 7:-0.908465 8:-0.988471 9:-0.994893 10:-0.993373 11:-0.997687 12:-0.992551 13:-0.971809 14:-0.999473 15:-0.998997 16:-0.996152 17:-0.882534 18:-0.97527 19:-0.963871 20:-0.954141 21:-0.966307 22:-0.972605 23:-0.998052 24:-0.98382 25:-0.985229 26:-0.949322 27:-0.315419 28:-0.161459 29:-0.229653 30:-0.156653 31:-0.289918 32:-0.238301 33:-0.997881 34:-0.994348 35:-0.981467 36:-0.955717 37:-0.146219 38:-0.174471 39:-0.176692 40:-0.173725 41:-0.181054 42:-0.00375605 43:-0.979055 44:-0.994544 45:-0.990693 46:-0.923641 47:-0.00342755 48:-0.14562 49:-0.261338 50:-0.144621 51:-0.167813 52:-0.151262 53:-0.983922 54:-0.993459 55:-0.993273 56:-0.953622 57:-0.185979 58:-0.238753 59:-0.273818 60:-0.0361275 61:-0.1443 62:-0.0203773 63:-0.958912 64:0.328781 65:1 66:1 67:-0.230228 68:-0.140244 69:-0.0139711 70:-0.0513608 71:-0.240839 72:-0.15431 73:-0.953359 74:-0.941842 75:-0.99601 76:-0.980657 77:-0.19291 78:-0.0375291 79:-0.270623 80:-0.285133 81:-0.29371 82:-0.143563 83:-0.950065 84:-0.966422 85:-0.996724 86:-0.99453 87:-0.095874 88:-0.0940767 89:-0.0992721 90:-0.0480059 91:-0.184814 92:-0.174998 93:-0.970275 94:-0.98665 95:-0.995985 96:-0.887164 97:-0.11697 98:-0.0971079 99:-0.246438 100:-0.141877 101:-0.0509519 102:-0.142207 103:-0.976036 104:-0.985729 105:-0.981996 106:-0.992284 107:-0.979963 108:-0.979864 109:-0.985662 110:-0.954671 111:-0.970552 112:-0.97733 113:-0.989246 114:-0.982222 115:-0.992723 116:-0.991883 
0.1115556724334582 0.01399240383249552 0.01017630359025701 0 0.007557849228455595 0.007566055828786575 0.01521899808357291 0.007223799642412263 0.01009457937997378 0.008242149082792844 1:-0.79002 2:-0.993062 3:-0.980042 4:-0.786403 5:-0.789457 6:-0.992944 7:-0.974654 8:-0.982494 9:-0.995545 10:-0.994825 11:-0.992949 12:-0.990626 13:-0.971966 14:-0.999593 15:-0.99935 16:-0.999716 17:-0.943921 18:-0.969376 19:-0.964474 20:-0.956271 21:-0.961009 22:-0.971245 23:-0.998131 24:-0.985168 25:-0.989469 26:-0.982021 27:-0.331896 28:-0.158597 29:-0.229967 30:-0.157749 31:-0.28781 32:-0.237596 33:-0.99726 34:-0.995908 35:-0.98639 36:-0.996409 37:-0.16968 38:-0.171654 39:-0.177168 40:-0.174713 41:-0.178662 42:-0.00281566 43:-0.979268 44:-0.99598 45:-0.993947 46:-0.965253 47:-0.0274139 48:-0.142809 49:-0.261647 50:-0.144621 51:-0.167813 52:-0.151348 53:-0.983799 54:-0.993477 55:-0.99491 56:-0.947123 57:-0.18514 58:-0.23866 59:-0.273818 60:-0.0361274 61:-0.1443 62:-0.0203773 63:-0.996518 64:-0.895207 65:0.347528 66:0.549478 67:0.460838 68:-0.139786 69:-0.012116 70:-0.0506299 71:-0.24032 72:-0.154938 73:-0.962799 74:-0.941842 75:-0.973771 76:-0.980657 77:-0.192682 78:-0.0369956 79:-0.269266 80:-0.284599 81:-0.293214 82:-0.144162 83:-0.957174 84:-0.966422 85:-0.978447 86:-0.99453 87:-0.095667 88:-0.0935921 89:-0.0975448 90:-0.0472659 91:-0.184215 92:-0.175526 93:-0.978116 94:-0.98665 95:-0.973559 96:-0.887164 97:-0.116727 98:-0.0966214 99:-0.24498 100:-0.141225 101:-0.0503048 102:-0.142754 103:-0.982899 104:-0.985729 105:-0.955392 106:-0.992284 107:-0.979671 108:-0.979051 109:-0.983144 110:-0.953658 111:-0.969631 112:-0.978051 113:-0.995905 114:-0.982222 115:-0.968121 116:-0.991883 
0.1122856011540974 0.01515456680873645 0.007852817255240167 0 0.007277196416304593 0.008390438861803675 0.01567562599922565 0.00977380761057159 0.009484406696130945 0.007864135603353417 1:-0.849949 2:-0.992228 3:-0.977705 4:-0.785388 5:-0.788683 6:-0.994029 7:-0.990293 8:-0.982494 9:-0.973434 10:-0.994825 11:-0.992298 12:-0.989613 13:-0.969484 14:-0.999489 15:-0.999264 16:-0.999808 17:-0.958445 18:-0.969376 19:-0.940805 20:-0.956271 21:-0.960429 22:-0.970277 23:-0.996009 24:-0.984007 25:-0.98846 26:-0.982859 27:-0.335793 28:-0.158597 29:-0.217254 30:-0.157749 31:-0.287606 32:-0.237181 33:-0.994151 34:-0.994685 35:-0.985229 36:-0.997439 37:-0.174451 38:-0.171654 39:-0.163829 40:-0.174713 41:-0.178382 42:-0.00224969 43:-0.976265 44:-0.994785 45:-0.993163 46:-0.966506 47:-0.0330676 48:-0.142809 49:-0.249457 50:-0.144621 51:-0.167781 52:-0.151348 53:-0.983909 54:-0.993311 55:-0.993292 56:-1 57:-0.202996 58:-0.238173 59:-0.273773 60:-0.0361263 61:-0.1443 62:-0.0203773 63:-0.996518 64:-0.991096 65:-0.947059 66:0.738586 67:1 68:1 69:-0.0135428 70:-0.052218 71:-0.241379 72:-0.154217 73:-0.959525 74:-0.947327 75:-0.98489 76:-0.966165 77:-0.192724 78:-0.0378052 79:-0.270359 80:-0.285788 81:-0.294219 82:-0.143479 83:-0.954647 84:-0.970456 85:-0.987586 86:-0.980384 87:-0.0957048 88:-0.0943479 89:-0.0988457 90:-0.0488733 91:-0.185355 92:-0.174917 93:-0.975314 94:-0.990437 95:-0.984772 96:-0.856888 97:-0.116777 98:-0.0973731 99:-0.246109 100:-0.142662 101:-0.0517078 102:-0.142119 103:-0.980453 104:-0.989802 105:-0.968694 106:-0.978221 107:-0.979746 108:-0.980327 109:-0.985096 110:-0.955909 111:-0.971462 112:-0.977195 113:-0.993571 114:-0.987292 115:-0.980422 116:-0.971558 
0.2782091850832229 0.02199465598251124 0 0 0 0 0 0.03223404819045642 0.005255108316229054 0 1:-0.890195 2:-0.993475 3:-0.97947 4:-0.787643 5:-0.790269 6:-0.99278 7:-0.984696 8:-0.987442 9:-0.984489 10:-0.9819 11:-0.992388 12:-0.991259 13:-0.971472 14:-0.999718 15:-0.999429 16:-0.999702 17:-0.953345 18:-0.97419 19:-0.95264 20:-0.936902 21:-0.960557 22:-0.971659 23:-0.997698 24:-0.986509 25:-0.990506 26:-0.981888 27:-0.334396 28:-0.16095 29:-0.22361 30:-0.148048 31:-0.287663 32:-0.23783 33:-0.996669 34:-0.997388 35:-0.98757 36:-0.996203 37:-0.172757 38:-0.173896 39:-0.170499 40:-0.165536 41:-0.178482 42:-0.00310884 43:-0.978516 44:-0.99747 45:-0.994735 46:-0.965084 47:-0.0311117 48:-0.145134 49:-0.255552 50:-0.135109 51:-0.167757 52:-0.151317 53:-0.983909 54:-0.993459 55:-0.993121 56:-0.954502 57:-0.185986 58:-0.208465 59:-0.272834 60:-0.0358723 61:-0.144265 62:-0.0203572 63:-0.996518 64:-0.991088 65:-0.993664 66:-0.89386 67:0.0863306 68:0.139821 69:0.548503 70:-0.0497387 71:-0.240097 72:-0.153307 73:-0.95896 74:-0.952656 75:-0.997789 76:-0.975826 77:-0.182771 78:-0.0378464 79:-0.270531 80:-0.283782 81:-0.293014 82:-0.14327 83:-0.955059 84:-0.974475 85:-0.998188 86:-0.985099 87:-0.08818 88:-0.094362 89:-0.0991179 90:-0.0465053 91:-0.183973 92:-0.173842 93:-0.974909 94:-0.994296 95:-0.997784 96:-0.877072 97:-0.105628 98:-0.0973999 99:-0.246308 100:-0.141022 101:-0.0506326 102:-0.14192 103:-0.980849 104:-0.994016 105:-0.984132 106:-0.987596 107:-0.970989 108:-0.980331 109:-0.985443 110:-0.952511 111:-0.969247 112:-0.977766 113:-0.994653 114:-0.99263 115:-0.994702 116:-0.971558 
0.1830038143766298 0.009879904112425937 0.006103454481786791 0 0.005002886861513937 0 0.009624977394739382 0 0.006254332524467221 0.006273871571994862 1:-0.91896 2:-0.98794 3:-0.97986 4:-0.78644 5:-0.789685 6:-0.992911 7:-0.985378 8:-0.989869 9:-0.9955 10:-0.994437 11:-0.992493 12:-0.983767 13:-0.971783 14:-0.999596 15:-0.999367 16:-0.999714 17:-0.953784 18:-0.976532 19:-0.964455 20:-0.95569 21:-0.960651 22:-0.966273 23:-0.998029 24:-0.985191 25:-0.989754 26:-0.981996 27:-0.334565 28:-0.162105 29:-0.230005 30:-0.157458 31:-0.287695 32:-0.234927 33:-0.997112 34:-0.995934 35:-0.98687 36:-0.996367 37:-0.172995 38:-0.174988 39:-0.177218 40:-0.174438 41:-0.178538 42:0.000556334 43:-0.979021 44:-0.996028 45:-0.994241 46:-0.965222 47:-0.031364 48:-0.146259 49:-0.261683 50:-0.144335 51:-0.167813 52:-0.148202 53:-0.983909 54:-0.993459 55:-0.993273 56:-0.954485 57:-0.185893 58:-0.238764 59:-0.273818 60:-0.0361275 61:-0.143698 62:-0.0203693 63:-0.996516 64:-0.991096 65:-0.993664 66:-0.974509 67:-0.230064 68:-0.123011 69:0.544368 70:0.423324 71:0.583121 72:-0.153939 73:-0.960617 74:-0.949143 75:-0.996503 76:-0.9806 77:-0.192471 78:-0.0378464 79:-0.267528 80:-0.285148 81:-0.293923 82:-0.143156 83:-0.955524 84:-0.971746 85:-0.99713 86:-0.994526 87:-0.0954015 88:-0.0943699 89:-0.0953765 90:-0.0480319 91:-0.185036 92:-0.174712 93:-0.976282 94:-0.991821 95:-0.996481 96:-0.887297 97:-0.116502 98:-0.0973999 99:-0.243143 100:-0.1419 101:-0.0512756 102:-0.141911 103:-0.981295 104:-0.991312 105:-0.982584 106:-0.992243 107:-0.979417 108:-0.980331 109:-0.979949 110:-0.954705 111:-0.97097 112:-0.976902 113:-0.994341 114:-0.989133 115:-0.993267 116:-0.992034 
0.08902575588334942 0.01702278956598172 0.007848158733614812 0 0.007108592192364416 0.008263852615927407 0.01452241349537585 0.009621052743586671 0.007823828457475208 0.007838555209120822 1:-0.693566 2:-0.993572 3:-0.974757 4:-0.78644 5:-0.789816 6:-0.992276 7:-0.986665 8:-0.989109 9:-0.996035 10:-0.994869 11:-0.991883 12:-0.991338 13:-0.966366 14:-0.999596 15:-0.999385 16:-0.999652 17:-0.955062 18:-0.975715 19:-0.965 20:-0.956247 21:-0.959987 22:-0.971735 23:-0.993179 24:-0.985191 25:-0.989923 26:-0.981418 27:-0.334886 28:-0.161702 29:-0.230249 30:-0.157754 31:-0.287434 32:-0.237853 33:-0.990129 34:-0.995934 35:-0.986947 36:-0.995457 37:-0.17333 38:-0.174571 39:-0.177465 40:-0.174693 41:-0.178243 42:-0.0031388 43:-0.97249 44:-0.996028 45:-0.994296 46:-0.964569 47:-0.0317664 48:-0.145907 49:-0.261917 50:-0.144688 51:-0.167508 52:-0.151348 53:-0.979909 54:-0.993459 55:-0.993273 56:-0.954485 57:-0.185986 58:-0.238676 59:-0.273828 60:-0.0361275 61:-0.1443 62:-0.0196985 63:-0.996469 64:-0.991093 65:-0.993664 66:-0.974509 67:-0.230064 68:-0.140533 69:0.0171461 70:1 71:0.802699 72:0.789895 73:-0.959686 74:-0.950591 75:-0.996018 76:-0.980656 77:-0.192924 78:-0.037236 79:-0.267528 80:-0.282499 81:-0.293923 82:-0.143262 83:-0.954833 84:-0.972875 85:-0.996676 86:-0.994528 87:-0.0958818 88:-0.0937947 89:-0.0953765 90:-0.0445032 91:-0.185036 92:-0.174713 93:-0.975468 94:-0.99271 95:-0.996049 96:-0.887163 97:-0.116974 98:-0.0968266 99:-0.243143 100:-0.138719 101:-0.0512756 102:-0.1419 103:-0.980578 104:-0.992245 105:-0.982032 106:-0.992283 107:-0.97999 108:-0.979412 109:-0.979949 110:-0.94968 111:-0.97097 112:-0.976899 113:-0.99373 114:-0.990313 115:-0.992695 116:-0.991881 
0.103331974580462 0.01695752569807784 0.007882326682188349 0 0.01044039053544119 0.006148782218173899 0.01525055851043899 0.01068082003792524 0.009650712948732272 0.00801719850919809 1:-0.796147 2:-0.992608 3:-0.974757 4:-0.781393 5:-0.789816 6:-0.992402 7:-0.985101 8:-0.99042 9:-0.995542 10:-0.994824 11:-0.992839 12:-0.990043 13:-0.966366 14:-0.999093 15:-0.999385 16:-0.999669 17:-0.953692 18:-0.977066 19:-0.9644 20:-0.956269 21:-0.961065 22:-0.970802 23:-0.993179 24:-0.979692 25:-0.989923 26:-0.981581 27:-0.334464 28:-0.162367 29:-0.229991 30:-0.157749 31:-0.287817 32:-0.237352 33:-0.990129 34:-0.989885 35:-0.986947 36:-0.995766 37:-0.172898 38:-0.175238 39:-0.177203 40:-0.174713 41:-0.178679 42:-0.0025063 43:-0.97249 44:-0.989979 45:-0.994296 46:-0.964694 47:-0.0312839 48:-0.146518 49:-0.261645 50:-0.14462 51:-0.167924 52:-0.150809 53:-0.979909 54:-0.988071 55:-0.993273 56:-0.954485 57:-0.179267 58:-0.238754 59:-0.273735 60:-0.0361394 61:-0.1443 62:-0.0203773 63:-0.995352 64:-0.991084 65:-0.993664 66:-0.974509 67:-0.230064 68:-0.140533 69:-0.0138669 70:-0.00742534 71:1 72:1 73:0.953333 74:-0.949095 75:-0.996122 76:-0.979079 77:-0.193252 78:-0.0360356 79:-0.270305 80:-0.271899 81:-0.288094 82:-0.142892 83:-0.954799 84:-0.972108 85:-0.996884 86:-0.992991 87:-0.0963703 88:-0.0928637 89:-0.0988951 90:-0.0268595 91:-0.18163 92:-0.17431 93:-0.975794 94:-0.991988 95:-0.996137 96:-0.884486 97:-0.117425 98:-0.0958987 99:-0.246078 100:-0.125996 101:-0.0432506 102:-0.141547 103:-0.980627 104:-0.991815 105:-0.982345 106:-0.991041 107:-0.98055 108:-0.97824 109:-0.985034 110:-0.924555 111:-0.959928 112:-0.976282 113:-0.993621 114:-0.989784 115:-0.993107 116:-0.990497 
0.1115349900289916 0.01685622146244672 0.00951285931092569 0 0.007385841835467092 0.006755283226608973 0.01571833262295222 0.01101304906543416 0.007947586808968506 0.008309898804396889 1:-0.547302 2:-0.991378 3:-0.979449 4:-0.761208 5:-0.775796 6:-0.991685 7:-0.985046 8:-0.989895 9:-0.995813 10:-0.993941 11:-0.993361 12:-0.988834 13:-0.971299 14:-0.997079 15:-0.998381 16:-0.999611 17:-0.953683 18:-0.976974 19:-0.964966 20:-0.95534 21:-0.961594 22:-0.97025 23:-0.997531 24:-0.957695 25:-0.977789 26:-0.980955 27:-0.334591 28:-0.162314 29:-0.230143 30:-0.157474 31:-0.28796 32:-0.237228 33:-0.996292 34:-0.971741 35:-0.972805 36:-0.995141 37:-0.173 38:-0.175185 39:-0.177326 40:-0.174623 41:-0.178564 42:-0.00256757 43:-0.978298 44:-0.977882 45:-0.984977 46:-0.964443 47:-0.0313695 48:-0.14646 49:-0.261757 50:-0.144321 51:-0.167512 52:-0.150893 53:-0.984384 54:-0.971908 55:-0.987782 56:-0.954414 57:-0.185986 58:-0.238754 59:-0.273818 60:-0.0360283 61:-0.144311 62:-0.0203773 63:-0.996518 64:-0.990041 65:-0.993627 66:-0.974507 67:-0.230064 68:-0.140533 69:-0.0138669 70:-0.0513793 71:-0.217222 72:0.658188 73:1 74:1 75:-0.994878 76:-0.980316 77:-0.192824 78:-0.0380214 79:-0.271097 80:-0.285205 81:-0.291008 82:-0.140087 83:-0.955078 84:-0.97193 85:-0.995794 86:-0.994197 87:-0.0958018 88:-0.0945347 89:-0.099878 90:-0.0480519 91:-0.18163 92:-0.171654 93:-0.975794 94:-0.991823 95:-0.994785 96:-0.886623 97:-0.116862 98:-0.0976148 99:-0.246986 100:-0.14187 101:-0.0472631 102:-0.138719 103:-0.980868 104:-0.991291 105:-0.980578 106:-0.992025 107:-0.979891 108:-0.980581 109:-0.986609 110:-0.954671 111:-0.965449 112:-0.972396 113:-0.993927 114:-0.989129 115:-0.991441 116:-0.991457 
0.1113566883492883 0.0138846489745088 0.008532707105276757 0 0.00769289818605977 0.008258681217094386 0.01555596763531471 0.007527493623570979 0.00823401824220121 0.01000540056076026 1:-0.868527 2:-0.993825 3:-0.980867 4:-0.786456 5:-0.785143 6:-0.986758 7:-0.985686 8:-0.98926 9:-0.994416 10:-0.994525 11:-0.992581 12:-0.991761 13:-0.972784 14:-0.999607 15:-0.998883 16:-0.999166 17:-0.954152 18:-0.97594 19:-0.9632 20:-0.955936 21:-0.960763 22:-0.972022 23:-0.998957 24:-0.985259 25:-0.983856 26:-0.976972 27:-0.334642 28:-0.161815 29:-0.229301 30:-0.157552 31:-0.287749 32:-0.237992 33:-0.998429 34:-0.996034 35:-0.979876 36:-0.989091 37:-0.173032 38:-0.174713 39:-0.17648 40:-0.17451 41:-0.178566 42:-0.00337032 43:-0.980332 44:-0.996017 45:-0.989637 46:-0.958829 47:-0.0314116 48:-0.145975 49:-0.260981 50:-0.144473 51:-0.167853 52:-0.151529 53:-0.984736 54:-0.9934 55:-0.987782 56:-0.949421 57:-0.185986 58:-0.238754 59:-0.273818 60:-0.0361275 61:-0.144202 62:-0.0203894 63:-0.996518 64:-0.993076 65:-0.992801 66:-0.9745 67:-0.230064 68:-0.140533 69:-0.0138669 70:-0.0513793 71:-0.241089 72:-0.141465 73:0.613328 74:0.813284 75:0.655285 76:-0.980205 77:-0.192512 78:-0.0375124 79:-0.270308 80:-0.285384 81:-0.294145 82:-0.143262 83:-0.950065 84:-0.97193 85:-0.996724 86:-0.994022 87:-0.0954513 88:-0.0940086 89:-0.0988561 90:-0.0483881 91:-0.185294 92:-0.174713 93:-0.970275 94:-0.991823 95:-0.995985 96:-0.886209 97:-0.116549 98:-0.0970832 99:-0.246087 100:-0.142183 101:-0.0515824 102:-0.1419 103:-0.976036 104:-0.991291 105:-0.981996 106:-0.991779 107:-0.979475 108:-0.979753 109:-0.985062 110:-0.955197 111:-0.97139 112:-0.976899 113:-0.989246 114:-0.989129 115:-0.992723 116:-0.991322 
0.1059573081387724 0.01201537134918051 0.009525297426740187 0 0.007551210870605546 0.005982631761294321 0.01533584046110903 0.007838590628611582 0.008976087477560672 0.008454797199946403 1:-0.723468 2:-0.993106 3:-0.979467 4:-0.786868 5:-0.790174 6:-0.992402 7:-0.974654 8:-0.98926 9:-0.995545 10:-0.994451 11:-0.991965 12:-0.990681 13:-0.971367 14:-0.999642 15:-0.999424 16:-0.999669 17:-0.943921 18:-0.97594 19:-0.964474 20:-0.955653 21:-0.96008 22:-0.971212 23:-0.997659 24:-0.985679 25:-0.990387 26:-0.981581 27:-0.331896 28:-0.161815 29:-0.229967 30:-0.157469 31:-0.28747 32:-0.237599 33:-0.996576 34:-0.996416 35:-0.987491 36:-0.995766 37:-0.16968 38:-0.174713 39:-0.177168 40:-0.174445 41:-0.178283 42:-0.00281436 43:-0.97852 44:-0.996595 45:-0.994652 46:-0.964694 47:-0.0274139 48:-0.145975 49:-0.261647 50:-0.144336 51:-0.16755 52:-0.151065 53:-0.983603 54:-0.993942 55:-0.993693 56:-0.954485 57:-0.182626 58:-0.238754 59:-0.273818 60:-0.0361275 61:-0.1443 62:-0.0202765 63:-0.996541 64:-0.978861 65:-0.993664 66:-0.97362 67:-0.230064 68:-0.140533 69:-0.0138669 70:-0.0513793 71:-0.241089 72:-0.154009 73:-0.913359 74:0.193389 75:-0.145343 76:0.183583 77:-0.192609 78:-0.0381729 79:-0.270396 80:-0.285391 81:-0.29401 82:-0.142972 83:-0.955078 84:-0.966422 85:-0.996724 86:-0.99453 87:-0.0957128 88:-0.0946799 89:-0.0991167 90:-0.0483578 91:-0.185169 92:-0.174434 93:-0.975794 94:-0.98665 95:-0.995985 96:-0.887164 97:-0.116837 98:-0.0977093 99:-0.246332 100:-0.142194 101:-0.0514565 102:-0.14161 103:-0.980868 104:-0.985729 105:-0.981996 106:-0.992284 107:-0.979771 108:-0.980826 109:-0.985434 110:-0.955169 111:-0.971126 112:-0.976486 113:-0.993927 114:-0.982222 115:-0.992723 116:-0.991883 
0.1089055777733406 0.01378013871613257 0.00813801468161717 0 0.007697113113865396 0.007077379379559102 0.01592238755481071 0.0077817208041958 0.007864872084989726 0.008941133401419783 1:-0.849652 2:-0.994089 3:-0.97972 4:-0.786903 5:-0.789975 6:-0.991886 7:-0.985686 8:-0.982494 9:-0.995545 10:-0.994825 11:-0.992237 12:-0.992032 13:-0.971581 14:-0.999642 15:-0.999402 16:-0.999623 17:-0.954152 18:-0.969376 19:-0.964474 20:-0.956271 21:-0.96026 22:-0.972234 23:-0.997776 24:-0.985693 25:-0.990034 26:-0.981157 27:-0.334642 28:-0.158597 29:-0.229967 30:-0.157749 31:-0.287674 32:-0.238123 33:-0.997061 34:-0.996492 35:-0.987062 36:-0.995152 37:-0.173032 38:-0.171654 39:-0.177168 40:-0.174713 41:-0.178381 42:-0.00347665 43:-0.978713 44:-0.996581 45:-0.994386 46:-0.964155 47:-0.0314116 48:-0.142809 49:-0.261647 50:-0.144621 51:-0.167746 52:-0.151637 53:-0.983832 54:-0.993954 55:-0.993379 56:-0.954019 57:-0.185986 58:-0.235932 59:-0.273818 60:-0.0361275 61:-0.1443 62:-0.0203773 63:-0.996328 64:-0.991115 65:-0.993664 66:-1 67:-0.229548 68:-0.140533 69:-0.0138669 70:-0.0513793 71:-0.241089 72:-0.154009 73:-0.960026 74:-0.89703 75:1 76:1 77:1 78:-0.0376374 79:-0.270835 80:-0.285089 81:-0.293815 82:-0.143555 83:-0.954607 84:-0.960914 85:-0.992155 86:-0.994442 87:-0.0957368 88:-0.0942133 89:-0.0995155 90:-0.047974 91:-0.184912 92:-0.174958 93:-0.975267 94:-0.981476 95:-0.990379 96:-0.887069 97:-0.116834 98:-0.0972338 99:-0.246647 100:-0.141854 101:-0.0511303 102:-0.142126 103:-0.980402 104:-0.980167 105:-0.975345 106:-0.992247 107:-0.979808 108:-0.980022 109:-0.986025 110:-0.954623 111:-0.970769 112:-0.977256 113:-0.99348 114:-0.975315 115:-0.986573 116:-0.991844 
0.1046961169771182 0.01568973034173705 0.008370614964155854 0 0.007691325209871622 0.006074285481787644 0.01600796690559168 0.007680592637076454 0.008180478858184613 0.008713321371181384 1:-0.91896 2:-0.993259 3:-0.980364 4:-0.786382 5:-0.789648 6:-0.992855 7:-0.984633 8:-0.975728 9:-0.990017 10:-0.994815 11:-0.992493 12:-0.990865 13:-0.972315 14:-0.99959 15:-0.999367 16:-0.999707 17:-0.953171 18:-0.962811 19:-0.958557 20:-0.956152 21:-0.960651 22:-0.971509 23:-0.998513 24:-0.985151 25:-0.989707 26:-0.981946 27:-0.334379 28:-0.155379 29:-0.226789 30:-0.157685 31:-0.287695 32:-0.237688 33:-0.997801 34:-0.995878 35:-0.986694 36:-0.996395 37:-0.172716 38:-0.168595 39:-0.173833 40:-0.174701 41:-0.178538 42:-0.00299669 43:-0.979675 44:-0.995894 45:-0.994123 46:-0.965235 47:-0.0310347 48:-0.139643 49:-0.258599 50:-0.144577 51:-0.167813 52:-0.151189 53:-0.984305 54:-0.993441 55:-0.99308 56:-0.954896 57:-0.185665 58:-0.233111 59:-0.270821 60:-0.036124 61:-0.1443 62:-0.0131149 63:-0.996518 64:-0.990939 65:-0.993682 66:-0.949019 67:-0.230064 68:-0.140024 69:-0.0138669 70:-0.0513793 71:-0.241089 72:-0.154009 73:-0.960026 74:-0.94931 75:-0.957091 76:0.425126 77:0.776773 78:1 79:-0.269693 80:-0.285148 81:-0.293104 82:-0.143262 83:-0.953671 84:-0.97193 85:-0.996724 86:-0.99453 87:-0.0957368 88:-0.0943699 89:-0.0982266 90:-0.0480319 91:-0.184209 92:-0.174713 93:-0.974454 94:-0.991823 95:-0.995985 96:-0.887164 97:-0.116834 98:-0.0973999 99:-0.245642 100:-0.1419 101:-0.0504096 102:-0.1419 103:-0.979825 104:-0.991291 105:-0.981996 106:-0.992284 107:-0.979808 108:-0.980331 109:-0.984562 110:-0.954705 111:-0.970055 112:-0.976899 113:-0.99315 114:-0.989129 115:-0.992723 116:-0.991883 
0.4023285818835655 0.01461295358632502 0 0 0 0 0 0.01857952205825711 0 0 1:-0.91896 2:-0.993572 3:-0.97913 4:-0.78644 5:-0.789148 6:-0.992402 7:-0.98411 8:-0.98926 9:-0.995545 10:-0.994825 11:-0.992493 12:-0.991338 13:-0.971198 14:-0.999596 15:-0.999331 16:-0.999669 17:-0.953048 18:-0.97594 19:-0.964474 20:-0.956271 21:-0.960651 22:-0.971735 23:-0.99769 24:-0.985191 25:-0.989498 26:-0.98158 27:-0.33445 28:-0.161815 29:-0.229967 30:-0.157749 31:-0.287695 32:-0.237853 33:-0.996791 34:-0.995934 35:-0.986622 36:-0.995766 37:-0.172878 38:-0.174713 39:-0.177168 40:-0.174713 41:-0.178538 42:-0.0031388 43:-0.97893 44:-0.996028 45:-0.994231 46:-0.964694 47:-0.0313556 48:-0.145975 49:-0.261647 50:-0.144621 51:-0.167813 52:-0.151348 53:-0.983909 54:-0.993459 55:-0.993273 56:-0.954485 57:-0.185986 58:-0.238754 59:-0.273818 60:-0.0361275 61:-0.1443 62:-0.0203773 63:-0.996518 64:-0.991096 65:-0.993521 66:-0.974528 67:-0.230064 68:-0.140533 69:-0.0131621 70:-0.0513715 71:-0.241089 72:-0.154009 73:-0.960026 74:-0.94931 75:-0.99601 76:-0.954087 77:0.207044 78:0.390132 79:0.117849 80:-0.285012 81:-0.293599 82:-0.143099 83:-0.954522 84:-0.972092 85:-0.997231 86:-0.99453 87:-0.0919584 88:-0.0943699 89:-0.0991407 90:-0.0476887 91:-0.184665 92:-0.174416 93:-0.975194 94:-0.991919 95:-0.99661 96:-0.887164 97:-0.113099 98:-0.0973999 99:-0.24633 100:-0.141603 101:-0.0508385 102:-0.141603 103:-0.980341 104:-0.991311 105:-0.982741 106:-0.992284 107:-0.975398 108:-0.980331 109:-0.98548 110:-0.954262 111:-0.970368 112:-0.976502 113:-0.993416 114:-0.989498 115:-0.9934 116:-0.991883 
0.09550200698528741 0.01223410559346469 0.007729869500686869 0 0.00758409445995086 0.01058658846185651 0.01520311825235789 0.007880417804860169 0.00862856122821919 0.007818504431130798 1:-0.49825 2:-0.982308 3:-0.964551 4:-0.786357 5:-0.7897 6:-0.991354 7:-0.986899 8:-0.988707 9:-0.995515 10:-0.993951 11:-0.991415 12:-0.968623 13:-0.960949 14:-0.999577 15:-0.999375 16:-0.999584 17:-0.955335 18:-0.975626 19:-0.964818 20:-0.955285 21:-0.959628 22:-0.960812 23:-0.98348 24:-0.985164 25:-0.989768 26:-0.980864 27:-0.334973 28:-0.161751 29:-0.230024 30:-0.157285 31:-0.287149 32:-0.229074 33:-0.976163 34:-0.995739 35:-0.986825 36:-0.994942 37:-0.173473 38:-0.174758 39:-0.177272 40:-0.174362 41:-0.177959 42:0.0079466 43:-0.959427 44:-0.995909 45:-0.994217 46:-0.964257 47:-0.031806 48:-0.146077 49:-0.261609 50:-0.144339 51:-0.167251 52:-0.14191 53:-0.975909 54:-0.993306 55:-0.993129 56:-0.954169 57:-0.186332 58:-0.238911 59:-0.273809 60:-0.0360078 61:-0.143803 62:-0.00948362 63:-0.982843 64:-0.990919 65:-0.993569 66:-0.974509 67:-0.230064 68:-0.140445 69:-0.0138807 70:-0.0513793 71:-0.241089 72:-0.153423 73:-0.959978 74:-0.949307 75:-0.99601 76:-0.980657 77:-0.192766 78:-0.0378464 79:-0.247958 80:0.607831 81:0.775604 82:0.564925 83:-0.954226 84:-0.971385 85:-0.997284 86:-0.994692 87:-0.0963013 88:-0.0947325 89:-0.0878481 90:-0.0445032 91:-0.184905 92:-0.174713 93:-0.97481 94:-0.99133 95:-0.996751 96:-0.887456 97:-0.117455 98:-0.0977401 99:-0.236768 100:-0.138719 101:-0.0511039 102:-0.1419 103:-0.98002 104:-0.990754 105:-0.982873 106:-0.992428 107:-0.980537 108:-0.980879 109:-0.968888 110:-0.94968 111:-0.97073 112:-0.976899 113:-0.993145 114:-0.988438 115:-0.993557 116:-0.992082 
0.1071290163830822 0.01542360775652107 0.007824416862796712 0 0.007786523704192276 0.006327087707400055 0.01712486464225318 0.007088487599093939 0.007673766754190485 0.007755551085520597 1:-0.465856 2:-0.994119 3:-0.964551 4:-0.781393 5:-0.789667 6:-0.992402 7:-0.983781 8:-0.988599 9:-0.99631 10:-0.994947 11:-0.993546 12:-0.992146 13:-0.955532 14:-0.999093 15:-0.999368 16:-0.999669 17:-0.9523 18:-0.975322 19:-0.965293 20:-0.956454 21:-0.961944 22:-0.972278 23:-0.98348 24:-0.979692 25:-0.989739 26:-0.981581 27:-0.334198 28:-0.161487 29:-0.230416 30:-0.157838 31:-0.288151 32:-0.238164 33:-0.976163 34:-0.989885 35:-0.986659 36:-0.995766 37:-0.172456 38:-0.174414 39:-0.177636 40:-0.174798 41:-0.179054 42:-0.00353115 43:-0.959427 44:-0.989979 45:-0.994127 46:-0.964694 47:-0.0307881 48:-0.145644 49:-0.262071 50:-0.14471 51:-0.168378 52:-0.151671 53:-0.971909 54:-0.988071 55:-0.992976 56:-0.954485 57:-0.185413 58:-0.238477 59:-0.274191 60:-0.0362487 61:-0.144841 62:-0.0207656 63:-0.976006 64:-0.985455 65:-0.993531 66:-0.974509 67:-0.230064 68:-0.140533 69:-0.0137521 70:-0.051391 71:-0.241089 72:-0.154009 73:-0.95889 74:-0.949294 75:-0.996009 76:-0.980657 77:-0.192766 78:-0.0378464 79:-0.270539 80:-0.270575 81:0.53955 82:0.914255 83:0.127734 84:-0.971862 85:-0.996115 86:-0.994346 87:-0.0957393 88:-0.094387 89:-0.0996401 90:-0.0445032 91:-0.18163 92:-0.174713 93:-0.975794 94:-0.991739 95:-0.995239 96:-0.886871 97:-0.116836 98:-0.0975073 99:-0.246751 100:-0.138719 101:-0.0472631 102:-0.1419 103:-0.980868 104:-0.991367 105:-0.981103 106:-0.992186 107:-0.979808 108:-0.980316 109:-0.986215 110:-0.94968 111:-0.965449 112:-0.976899 113:-0.993927 114:-0.989051 115:-0.991903 116:-0.991734 
0.1048228981175726 0.01156892713147255 0.007865879244663119 0 0.0076102622631622 0.005972582408743227 0.01555487493239624 0.01102105547807608 0.007895302836298869 0.007878110770403866 1:-0.91835 2:-0.993544 3:-0.980538 4:-0.781393 5:-0.785143 6:-0.992402 7:-0.985686 8:-0.989264 9:-0.994806 10:-0.994709 11:-0.992496 12:-0.991415 13:-0.972502 14:-0.999093 15:-0.998883 16:-0.999669 17:-0.954152 18:-0.975859 19:-0.963686 20:-0.956116 21:-0.960654 22:-0.971801 23:-0.998673 24:-0.979692 25:-0.983856 26:-0.981581 27:-0.334642 28:-0.161756 29:-0.229545 30:-0.157662 31:-0.287697 32:-0.237924 33:-0.998038 34:-0.989885 35:-0.979876 36:-0.995766 37:-0.173032 38:-0.174651 39:-0.176726 40:-0.174612 41:-0.178541 42:-0.00306548 43:-0.979893 44:-0.989979 45:-0.989637 46:-0.964694 47:-0.0314116 48:-0.145907 49:-0.261242 50:-0.144551 51:-0.167814 52:-0.151424 53:-0.984439 54:-0.988071 55:-0.987782 56:-0.954485 57:-0.185986 58:-0.238753 59:-0.273418 60:-0.0359884 61:-0.144303 62:-0.0205197 63:-0.997423 64:-0.985455 65:-0.988486 66:-0.974509 67:-0.230064 68:-0.140533 69:-0.0138669 70:-0.0512817 71:-0.2411 72:-0.154009 73:-1 74:-0.947968 75:-0.995985 76:-0.980653 77:-0.192766 78:-0.0378464 79:-0.270539 80:-0.285148 81:-0.26478 82:1 83:1 84:0.261903 85:-0.997065 86:-0.99319 87:-0.0953224 88:-0.0947018 89:-0.0994441 90:-0.048993 91:-0.171414 92:-0.168595 93:-0.975642 94:-0.991787 95:-0.996472 96:-0.884285 97:-0.116432 98:-0.0977302 99:-0.246568 100:-0.142767 101:-0.0352256 102:-0.135538 103:-0.980776 104:-0.991218 105:-0.982619 106:-0.990944 107:-0.979338 108:-0.980861 109:-0.985954 110:-0.956073 111:-0.948887 112:-0.967893 113:-0.993829 114:-0.989025 115:-0.993251 116:-0.989951 
0.1053348319460439 0.01180090240971235 0.008740863565170051 0 0.007478662526912277 0.01078972363591084 0.01501252575411013 0.006136907130222695 0.008757812019515636 0.008428074103546393 1:-0.63827 2:-0.994129 3:-0.980226 4:-0.787816 5:-0.771123 6:-0.981114 7:-0.985388 8:-0.989099 9:-0.996063 10:-0.993594 11:-0.991733 12:-0.992088 13:-0.972117 14:-0.999734 15:-0.997377 16:-0.998664 17:-0.953873 18:-0.975865 19:-0.965023 20:-0.954427 21:-0.959883 22:-0.972274 23:-0.998319 24:-0.986695 25:-0.965656 26:-0.972364 27:-0.334555 28:-0.161733 29:-0.230255 30:-0.156826 31:-0.287376 32:-0.238143 33:-0.997613 34:-0.997585 35:-0.958663 36:-0.982417 37:-0.172977 38:-0.174697 39:-0.177455 40:-0.173842 41:-0.178197 42:-0.00350353 43:-0.97951 44:-0.997679 45:-0.975658 46:-0.952965 47:-0.03129 48:-0.145937 49:-0.261908 50:-0.143718 51:-0.167454 52:-0.151659 53:-0.98418 54:-0.994931 55:-0.971309 56:-0.944358 57:-0.185879 58:-0.238687 59:-0.274082 60:-0.0351092 61:-0.143956 62:-0.0207347 63:-0.997112 64:-0.992632 65:-0.972951 66:-0.963385 67:-0.229991 68:-0.14052 69:-0.0138669 70:-0.0513793 71:-0.241001 72:-0.154019 73:-0.920052 74:-0.898621 75:-0.992095 76:-0.978412 77:-0.192762 78:-0.0378429 79:-0.270539 80:-0.285147 81:-0.293923 82:-0.019409 83:-0.363542 84:0.328001 85:0.0861675 86:-1 87:-0.0906556 88:-0.0937556 89:-0.100024 90:-0.0441269 91:-0.189208 92:-0.141062 93:-0.931642 94:-0.991623 95:-0.995833 96:-0.899163 97:-0.111801 98:-0.096771 99:-0.247078 100:-0.138345 101:-0.0561885 102:-0.106911 103:-0.942217 104:-0.991109 105:-0.981892 106:-0.997937 107:-0.97386 108:-0.976875 109:-0.989602 110:-0.949025 111:-0.977725 112:-0.909351 113:-0.975204 114:-0.988974 115:-0.992661 116:-1 
0.1096894930162664 0.01184165525856247 0.008248912547715335 0 0.007696801782472989 0.01018513935817763 0.01577196889587254 0.007241126707952067 0.007965244458836359 0.008746369125604371 1:-0.849085 2:-0.994111 3:-0.980068 4:-0.786307 5:-0.78961 6:-0.991799 7:-0.963623 8:-0.982494 9:-0.995494 10:-0.994825 11:-0.992324 12:-0.992066 13:-0.971918 14:-0.999582 15:-0.999362 16:-0.999615 17:-0.93369 18:-0.969376 19:-0.964345 20:-0.956271 21:-0.96046 22:-0.972259 23:-0.998289 24:-0.985057 25:-0.98965 26:-0.981086 27:-0.32915 28:-0.158597 29:-0.229943 30:-0.157749 31:-0.287602 32:-0.238131 33:-0.997355 34:-0.995768 35:-0.986642 36:-0.995052 37:-0.166329 38:-0.171654 39:-0.177116 40:-0.174713 41:-0.178462 42:-0.00349439 43:-0.979254 44:-0.995863 45:-0.994155 46:-0.96408 47:-0.0234161 48:-0.142809 49:-0.261584 50:-0.144621 51:-0.167755 52:-0.151653 53:-0.984055 54:-0.993313 55:-0.99302 56:-0.95394 57:-0.179267 58:-0.235932 59:-0.2738 60:-0.0361275 61:-0.144219 62:-0.0207266 63:-0.996721 64:-0.990937 65:-0.993491 66:-0.973924 67:-0.223607 68:-0.137347 69:-0.0137717 70:-0.0513793 71:-0.241089 72:-0.154009 73:-0.959841 74:-0.949335 75:-0.994598 76:-1 77:-0.191602 78:-0.037522 79:-0.270532 80:-0.285146 81:-0.293923 82:-0.143262 83:-0.955078 84:-0.870029 85:0.89034 86:0.64636 87:0.799745 88:-0.0922013 89:-0.0983595 90:-0.049882 91:-0.18556 92:-0.17668 93:-0.977054 94:-0.960782 95:-0.990379 96:-0.886976 97:-0.116834 98:-0.0952153 99:-0.245671 100:-0.143523 101:-0.0518956 102:-0.144 103:-0.981968 104:-0.957918 105:-0.975345 106:-0.992227 107:-0.979808 108:-0.976859 109:-0.984332 110:-0.95735 111:-0.97182 112:-0.97984 113:-0.994994 114:-0.947689 115:-0.986573 116:-0.991779 
0.109113506258659 0.01373221196456641 0.007820166134457313 0 0.00713689998752803 0.005727616437280425 0.01518608524921639 0.007588125858848275 0.008170218674426567 0.007823730659195099 1:-0.91896 2:-0.989951 3:-0.978799 4:-0.786067 5:-0.789625 6:-0.996146 7:-0.988198 8:-0.968961 9:-0.973434 10:-0.99475 11:-0.992385 12:-0.986418 13:-0.970661 14:-0.999856 15:-0.999463 16:-1 17:-0.956484 18:-0.936553 19:-0.958557 20:-0.956192 21:-0.960651 22:-0.968088 23:-0.997033 24:-0.988031 25:-0.99086 26:-0.984549 27:-0.335269 28:-0.142505 29:-0.226789 30:-0.157703 31:-0.287695 32:-0.235946 33:-0.995668 34:-0.999003 35:-0.988042 36:-1 37:-0.173799 38:-0.156358 39:-0.173833 40:-0.174672 41:-0.178538 42:-0.00073805 43:-0.977669 44:-0.999116 45:-0.995017 46:-0.968549 47:-0.0323236 48:-0.126981 49:-0.258599 50:-0.144571 51:-0.167813 52:-0.149304 53:-0.983081 54:-0.99628 55:-0.99412 56:-0.957758 57:-0.186754 58:-0.221824 59:-0.270821 60:-0.0360737 61:-0.1443 62:-0.0180148 63:-0.995104 64:-0.990698 65:-0.993453 66:-0.978172 67:-0.2308 68:-0.130975 69:0.00267335 70:-0.0513142 71:-0.241028 72:-0.154009 73:-0.960026 74:-0.949103 75:-0.996029 76:-0.961314 77:-0.194079 78:-0.0368929 79:-0.270412 80:-0.285147 81:-0.293922 82:-0.143262 83:-0.955078 84:-0.97193 85:-0.951032 86:0.269144 87:0.962216 88:0.832152 89:-0.0976994 90:-0.0490525 91:-0.185679 92:-0.174363 93:-0.977424 94:-0.990215 95:-0.967952 96:-0.86698 97:-0.11679 98:-0.097261 99:-0.245107 100:-0.142819 101:-0.0524622 102:-0.141285 103:-0.982363 104:-0.989592 105:-0.94209 106:-0.987596 107:-0.979777 108:-0.980331 109:-0.983388 110:-0.956166 111:-0.972551 112:-0.976013 113:-0.995384 114:-0.987023 115:-0.955821 116:-0.985108 
0.1061145444198821 0.03753816388213211 0.007785265415621259 0 0.007451346623595013 0 0.01504776834518082 0.007999914668099784 0.007652845170274118 0.007795690740794859 1:-0.899196 2:-0.993572 3:-0.978032 4:-0.787937 5:-0.791136 6:-0.991284 7:-0.989109 8:-0.987194 9:-0.962378 10:-0.990517 11:-0.992392 12:-0.991338 13:-0.969832 14:-0.999745 15:-0.999528 16:-0.99957 17:-0.957317 18:-0.973934 19:-0.928971 20:-0.949815 21:-0.96051 22:-0.971735 23:-0.996222 24:-0.986798 25:-0.991677 26:-0.980678 27:-0.335494 28:-0.160832 29:-0.210898 30:-0.154515 31:-0.287653 32:-0.237853 33:-0.994464 34:-0.997689 35:-0.989004 36:-0.994463 37:-0.174062 38:-0.173775 39:-0.15716 40:-0.171654 41:-0.178509 42:-0.0031388 43:-0.976519 44:-0.997775 45:-0.995625 46:-0.963537 47:-0.0326741 48:-0.145014 49:-0.243362 50:-0.14145 51:-0.167768 52:-0.151348 53:-0.982372 54:-0.995014 55:-0.994278 56:-0.953894 57:-0.187047 58:-0.237898 59:-0.258832 60:-0.0289818 61:-0.144264 62:-0.0202648 63:-0.99395 64:-0.992738 65:-0.995126 66:-0.973406 67:-0.231071 68:-0.139562 69:0.0109435 70:-0.047863 71:-0.241058 72:-0.154009 73:-0.960026 74:-0.94931 75:-0.995856 76:-0.980673 77:-0.192766 78:-0.0474901 79:-0.269536 80:-0.285014 81:-0.293895 82:-0.143259 83:-0.955078 84:-0.971931 85:-0.996724 86:-0.909656 87:1 88:1 89:0.698866 90:-0.0484207 91:-0.18294 92:-0.174275 93:-0.975485 94:-0.993211 95:-0.999279 96:-0.846797 97:-0.098158 98:-0.0971863 99:-0.246109 100:-0.142276 101:-0.0488021 102:-0.141458 103:-0.980596 104:-0.993262 105:-0.985882 106:-0.973533 107:-0.957761 108:-0.979959 109:-0.984854 110:-0.955289 111:-0.967568 112:-0.97639 113:-0.994272 114:-0.991168 115:-0.99633 116:-0.958007 
0.109516485556229 0.009273606977243776 0.007963162783065494 0 0.007187582222972523 0.1290643786032165 0.0147406164108702 0.007023654443105184 0.008602118947905874 0.007869407865262919 1:-0.884633 2:-0.993572 3:-0.974757 4:-0.78644 5:-0.789816 6:-0.992361 7:-0.985588 8:-0.98921 9:-0.995496 10:-0.994793 11:-0.992432 12:-0.991338 13:-0.971783 14:-0.999596 15:-0.999385 16:-0.999578 17:-0.954233 18:-0.974748 19:-0.964521 20:-0.956276 21:-0.960659 22:-0.971735 23:-0.993179 24:-0.985191 25:-0.989923 26:-0.981576 27:-0.334638 28:-0.161812 29:-0.229963 30:-0.157746 31:-0.287691 32:-0.237853 33:-0.997112 34:-0.995934 35:-0.986947 36:-0.99478 37:-0.173194 38:-0.174261 39:-0.17733 40:-0.174692 41:-0.17851 42:-0.0031388 43:-0.97249 44:-0.996028 45:-0.994296 46:-0.963523 47:-0.0313565 48:-0.145343 49:-0.261605 50:-0.144589 51:-0.16777 52:-0.151348 53:-0.979909 54:-0.993459 55:-0.993273 56:-0.953632 57:-0.186066 58:-0.238279 59:-0.273889 60:-0.036148 61:-0.144324 62:-0.0203773 63:-0.989681 64:-0.991096 65:-0.993664 66:-0.974509 67:-0.230064 68:-0.140533 69:-0.0138669 70:-0.0513793 71:-0.241089 72:-0.154009 73:-0.960026 74:-0.94931 75:-0.99601 76:-0.980657 77:-0.192766 78:-0.0377473 79:-0.270549 80:-0.295763 81:-0.293923 82:-0.142025 83:-0.954601 84:-0.971853 85:-0.996716 86:-0.99453 87:-0.0957388 88:-0.0943699 89:-0.0144466 90:0.964713 91:1 92:0.743032 93:-0.97754 94:-0.987867 95:-0.99511 96:-0.886093 97:-0.11783 98:-0.0999671 99:-0.227205 100:-0.116454 101:-0.0509462 102:-0.14146 103:-0.982343 104:-0.987041 105:-0.980984 106:-0.991786 107:-0.981001 108:-0.98445 109:-0.952296 110:-0.914506 111:-0.970573 112:-0.976263 113:-0.995361 114:-0.983851 115:-0.991761 116:-0.991878 
