svm_type c_svc
kernel_type rbf
gamma 0.125
nr_class 2
total_sv 825
rho 2.83906
label 2 0
nr_sv 382 443
SV
128 1:0.177599 2:0.651755 3:0.767679 4:0.0357033 5:0.0309006 6:-0.857104 7:-0.998794 8:-0.999957 9:-0.999978 10:0.0504076 11:-0.152507 12:-0.66567 13:-0.87037 14:-0.0410835 15:0.0531065 16:-0.0821765 17:0.182491 18:-0.141253 19:-0.100557 20:-0.983871 21:-0.987013 22:-1 23:-1 24:-0.855493 25:-0.893264 26:0.0121749 27:0.0705887 28:0.0117186 29:0.0697595 30:0.0114402 31:0.0689137 32:-0.983607 33:-0.987013 34:-1 35:-1 36:0.0117779 37:0.069754 38:0.0426038 39:0.0212908 40:0.0421957 41:0.0204959 42:0.0420238 43:0.0196823 44:-0.984 45:-0.987013 46:-1 47:-1 48:0.0422744 49:0.0204897 50:0.0628709 51:0.0211661 52:0.0625699 53:0.0203615 54:0.0623988 55:0.019546 56:-0.98374 57:-0.987013 58:-1 59:-1 60:0.0626131 61:0.0203579 62:0.0628807 63:0.0211156 64:0.0624728 65:0.0203167 66:0.0622906 67:0.0195002 68:-0.983871 69:-0.987097 70:-1 71:-1 72:0.0625481 73:0.0203109 74:0.012822 75:0.0431026 76:0.0124654 77:0.0422804 78:0.0121003 79:0.0414538 80:-0.983471 81:-0.987013 82:-1 83:-1 84:0.0124626 85:0.0422789 86:0.0189987 87:0.0545123 88:0.018646 89:0.0536794 90:0.018379 91:0.052837 92:-0.98374 93:-0.987013 94:-1 95:-1 96:0.0186746 97:0.0536762 98:0.00751155 99:0.0544877 100:0.00702791 101:0.0536623 102:0.00673308 103:0.0528198 104:-0.98374 105:-0.987013 106:-1 107:-1 108:0.00709083 109:0.0536566 110:-0.0120281 111:0.0210091 112:-0.012525 113:0.0202088 114:-0.0128728 115:0.019394 116:-0.98374 117:-0.987261 118:-1 119:-1 120:-0.0124753 121:0.020204 122:0.00817833 123:0.0544771 124:0.00772615 125:0.0536464 126:0.00757073 127:0.0527937 128:-0.98374 129:-0.987097 130:-1 131:-1 132:0.00782503 133:0.0536391 134:0.00807198 135:0.0369055 136:0.00768939 137:0.0360663 138:0.00744545 139:0.0352144 140:-0.983871 141:-0.987013 142:-1 143:-1 144:0.00773557 145:0.0360621 146:0.0202127 147:-0.0232566 148:0.0197971 149:-0.0240681 150:0.019686 151:-0.024901 152:-0.98374 153:-0.987013 154:-1 155:-1 156:0.0198986 157:-0.0240752 158:0.0138636 159:0.0175497 160:0.0133739 161:0.0167405 162:0.0132221 163:0.0159077 164:-0.984 165:-0.987013 166:-1 167:-1 168:0.0134865 169:0.0167326 170:0.0134274 171:0.0430077 172:0.0134274 173:0.0430077 174:0.0130158 175:0.0421774 176:-1 177:-0.987013 178:-1 179:-1 180:0.0132216 181:0.0425926 182:0.117025 183:0.027219 184:-0.0440944 185:-0.0322484 186:-0.0331422 187:-0.0954516 188:-1 189:-0.987097 190:-1 191:-1 
128 1:0.198686 2:0.699584 3:0.161842 4:-0.0749485 5:0.0309006 6:-0.848482 7:-0.99792 8:-0.999734 9:-0.999906 10:0.0504076 11:-0.152507 12:-0.66567 13:-0.87963 14:-0.0348336 15:0.0426691 16:-0.0986257 17:0.169146 18:-0.15016 19:-0.0921213 20:-0.967742 21:-0.987013 22:-0.989691 23:-1 24:-0.866846 25:-0.893264 26:0.0122333 27:0.0703562 28:0.0114207 29:0.0695216 30:0.0113561 31:0.0690187 32:-0.967213 33:-0.987013 34:-0.978766 35:-1 36:0.0116881 37:0.0697147 38:0.042779 39:0.0215076 40:0.0427011 41:0.0210333 42:0.0417158 43:0.0197832 44:-0.984 45:-0.961039 46:-1 47:-0.924773 48:0.0422459 49:0.0206479 50:0.0631794 51:0.0213379 52:0.0624591 53:0.0205198 54:0.0623542 55:0.0200467 56:-0.96748 57:-0.987013 58:-0.941955 59:-1 60:0.0627621 61:0.0206944 62:0.0631314 63:0.021243 64:0.0623598 65:0.0204341 66:0.0622815 67:0.0199536 68:-0.967742 69:-0.987097 70:-0.954998 71:-1 72:0.062672 73:0.0206077 74:0.0130987 75:0.0431832 76:0.0123145 77:0.0423466 78:0.0122721 79:0.0418459 80:-0.966942 81:-0.987013 82:-0.993492 83:-1 84:0.0125921 85:0.0425371 86:0.0192923 87:0.0545333 88:0.0187349 89:0.0541534 90:0.0184173 91:0.0531921 92:-0.98374 93:-0.974026 94:-1 95:-0.997027 96:0.0187589 97:0.0538871 98:0.00780229 99:0.0549273 100:0.00709459 101:0.0540673 102:0.00700179 103:0.0535701 104:-0.96748 105:-0.987013 106:-0.963071 107:-1 108:0.00736917 109:0.0542578 110:-0.0120012 111:0.0214083 112:-0.0120618 113:0.0209188 114:-0.0125564 115:0.0200257 116:-0.98374 117:-0.974522 118:-1 119:-0.945752 120:-0.0122762 121:0.0207166 122:0.00838031 123:0.0547675 124:0.00785846 125:0.0538538 126:0.00777446 127:0.0533525 128:-0.96748 129:-0.987097 130:-0.984587 131:-1 132:0.00804625 133:0.0540682 134:0.00816684 135:0.0371691 136:0.00777276 137:0.0362164 138:0.0076779 139:0.0357146 140:-0.967742 141:-0.987013 142:-0.992797 143:-1 144:0.00789116 145:0.0364498 146:0.0202483 147:-0.0229952 148:0.0200349 149:-0.0234534 150:0.0198656 151:-0.0244322 152:-0.98374 153:-0.974026 154:-1 155:-0.976641 156:0.0200427 157:-0.0237102 158:0.0138113 159:0.0178355 160:0.0135595 161:0.0173836 162:0.0134397 163:0.0163892 164:-0.984 165:-0.974026 166:-1 167:-0.956895 168:0.0136101 169:0.0171161 170:0.0133308 171:0.04334 172:0.0131353 173:0.0428638 174:0.0130795 175:0.0418333 176:-0.98374 177:-0.974026 178:-1 179:-0.953069 180:0.0132 181:0.0425877 182:0.110976 183:0.0468294 184:-0.047383 185:-0.0885483 186:-0.0306202 187:-0.113253 188:-0.967742 189:-0.987097 190:-0.964695 191:-1 
128 1:0.308493 2:0.357585 3:-0.12773 4:0.088797 5:0.0309006 6:-0.859935 7:-0.999387 8:-0.99987 9:-0.999967 10:0.0504076 11:-0.152507 12:-0.66567 13:-0.893519 14:-0.0224761 15:-0.00842673 16:-0.0757582 17:0.18695 18:-0.169394 19:-0.041284 20:-0.983871 21:-0.987013 22:-1 23:-1 24:-0.858694 25:-0.893264 26:0.0126562 27:0.069308 28:0.0120976 29:0.0698152 30:0.0110053 31:0.0700257 32:-0.983607 33:-0.987013 34:-1 35:-1 36:0.0119197 37:0.0697163 38:0.0432199 39:0.0199866 40:0.0427419 41:0.0205046 42:0.0416206 43:0.0206745 44:-0.984 45:-0.987013 46:-1 47:-1 48:0.0425275 49:0.0203885 50:0.0632333 51:0.02026 52:0.062171 53:0.0204743 54:0.0618335 55:0.0210603 56:-0.98374 57:-0.987013 58:-1 59:-1 60:0.0624126 61:0.0205982 62:0.0633173 63:0.0201636 64:0.0623425 65:0.0204261 66:0.0617707 67:0.0208893 68:-0.983871 69:-0.987097 70:-1 71:-1 72:0.0624769 73:0.020493 74:0.0133892 75:0.0420314 76:0.0126826 77:0.0424622 78:0.0118817 79:0.0428372 80:-0.983471 81:-0.987013 82:-1 83:-1 84:0.0126512 85:0.0424436 86:0.0196968 87:0.0532918 88:0.019093 89:0.05377 90:0.018308 91:0.0541459 92:-0.98374 93:-0.987013 94:-1 95:-1 96:0.0190326 97:0.0537359 98:0.0081044 99:0.0530808 100:0.00764163 101:0.0536296 102:0.00683898 103:0.0539931 104:-0.98374 105:-0.987013 106:-1 107:-1 108:0.00752834 109:0.0535678 110:-0.0117992 111:0.0200654 112:-0.012586 113:0.0204348 114:-0.0129197 115:0.0210302 116:-0.98374 117:-0.987261 118:-1 119:-1 120:-0.012435 121:0.0205101 122:0.00848992 123:0.0533315 124:0.00784543 125:0.053781 126:0.00740443 127:0.0543347 128:-0.98374 129:-0.987097 130:-1 131:-1 132:0.00791324 133:0.0538157 134:0.00838232 135:0.0355794 136:0.00790897 137:0.0361211 138:0.00746862 139:0.0366778 140:-0.983871 141:-0.987013 142:-1 143:-1 144:0.00792005 145:0.0361261 146:0.0205086 147:-0.0246662 148:0.0200759 149:-0.0241247 150:0.0198126 151:-0.0234954 152:-0.98374 153:-0.987013 154:-1 155:-1 156:0.0201324 157:-0.0240955 158:0.0136696 159:0.0166266 160:0.0136696 161:0.0166266 162:0.0134462 163:0.0172797 164:-1 165:-0.987013 166:-1 167:-1 168:0.0135579 169:0.0169532 170:0.0132875 171:0.0419574 172:0.0132875 173:0.0419574 174:0.0131199 175:0.0426507 176:-1 177:-0.987013 178:-1 179:-1 180:0.0132037 181:0.042304 182:0.115384 183:-0.0339567 184:-0.0522981 185:-0.0645147 186:-0.0323968 187:-0.0367652 188:-0.983871 189:-0.987097 190:-1 191:-1 
128 1:0.306169 2:0.337141 3:-0.219653 4:0.088797 5:0.0309006 6:-0.830493 7:-0.995016 8:-0.999794 9:-0.999733 10:0.0504076 11:-0.152489 12:-0.66567 13:-0.893519 14:-0.100918 15:0.0243288 16:-0.0497179 17:0.189554 18:-0.0964117 19:-0.0763387 20:-0.983871 21:-0.987013 22:-1 23:-1 24:-0.844488 25:-0.893264 26:0.0104124 27:0.0700561 28:0.0124563 29:0.0698838 30:0.0128352 31:0.0694302 32:-0.983607 33:-0.987013 34:-1 35:-1 36:0.0119013 37:0.0697901 38:0.0409491 39:0.020828 40:0.0427814 41:0.0206333 42:0.0433331 43:0.0202323 44:-0.984 45:-0.987013 46:-1 47:-1 48:0.0423546 49:0.0205646 50:0.0613142 51:0.0207613 52:0.0630614 53:0.0205417 54:0.063831 55:0.020175 56:-0.98374 57:-0.987013 58:-1 59:-1 60:0.0627355 61:0.0204927 62:0.0612761 63:0.0207872 64:0.062664 65:0.0205035 66:0.0637468 67:0.0201878 68:-0.983871 69:-0.987097 70:-1 71:-1 72:0.0625623 73:0.0204928 74:0.0112832 75:0.0428545 76:0.0126888 77:0.0425535 78:0.0140037 79:0.0422588 80:-0.983471 81:-0.987013 82:-1 83:-1 84:0.0126586 85:0.0425556 86:0.0174613 87:0.0543077 88:0.018702 89:0.0539791 90:0.0201054 91:0.0536993 92:-0.98374 93:-0.987013 94:-1 95:-1 96:0.0187562 97:0.0539954 98:0.0059456 99:0.0543269 100:0.00686683 101:0.0539448 102:0.00861616 103:0.0537241 104:-0.98374 105:-0.987013 106:-1 107:-1 108:0.00714286 109:0.0539985 110:-0.0135857 111:0.0208764 112:-0.0128452 113:0.0204733 114:-0.0108636 115:0.0202882 116:-0.98374 117:-0.987261 118:-1 119:-1 120:-0.0124315 121:0.0205459 122:0.00675555 123:0.0543559 124:0.0073777 125:0.0539209 126:0.00934229 127:0.0537295 128:-0.98374 129:-0.987097 130:-1 131:-1 132:0.00782517 133:0.0540022 134:0.00667938 135:0.0368163 136:0.00719421 137:0.0363605 138:0.00909029 139:0.0361517 140:-0.983871 141:-0.987013 142:-1 143:-1 144:0.00765463 145:0.0364428 146:0.0190448 147:-0.0232538 148:0.0194432 149:-0.0237126 150:0.0211274 151:-0.0239498 152:-0.98374 153:-0.987013 154:-1 155:-1 156:0.0198718 157:-0.0236387 158:0.0128597 159:0.017146 160:0.0128597 161:0.017146 162:0.0145894 163:0.0169058 164:-1 165:-0.987013 166:-1 167:-1 168:0.0137246 169:0.0170259 170:0.0125493 171:0.0426676 172:0.0125493 173:0.0426676 174:0.0139635 175:0.0423678 176:-1 177:-0.987013 178:-1 179:-1 180:0.0132564 181:0.0425177 182:0.0856671 183:0.0138237 184:-0.0822487 185:-0.0517705 186:0.00206651 187:-0.0824711 188:-1 189:-0.987097 190:-1 191:-1 
128 1:0.242718 2:0.318692 3:-0.199027 4:0.088797 5:0.0309006 6:-0.864882 7:-0.999965 8:-0.9999 9:-0.999996 10:0.0504076 11:-0.152507 12:-0.66567 13:-0.898148 14:-0.0534688 15:-0.00883797 16:-0.0813662 17:0.154891 18:-0.146093 19:-0.0374766 20:-1 21:-0.987013 22:-1 23:-1 24:-0.88062 25:-0.893264 26:0.0118546 27:0.0691609 28:0.0118546 29:0.0691609 30:0.0114699 31:0.0698227 32:-1 33:-0.987013 34:-1 35:-1 36:0.0116622 37:0.0694918 38:0.0420254 39:0.020355 40:0.0420254 41:0.020355 42:0.0415446 43:0.0208532 44:-1 45:-0.987013 46:-1 47:-1 48:0.041785 49:0.0206041 50:0.0624528 51:0.019994 52:0.0624528 53:0.019994 54:0.0619855 55:0.0205185 56:-1 57:-0.987013 58:-1 59:-1 60:0.0622192 61:0.0202563 62:0.0625483 63:0.0198781 64:0.0625483 65:0.0198781 66:0.0620607 67:0.0203775 68:-1 69:-0.987097 70:-1 71:-1 72:0.0623045 73:0.0201278 74:0.0126793 75:0.0417447 76:0.0126793 77:0.0417447 78:0.0121397 79:0.0422233 80:-1 81:-0.987013 82:-1 83:-1 84:0.0124095 85:0.041984 86:0.0185632 87:0.0535164 88:0.0185632 89:0.0535164 90:0.0185632 91:0.0535164 92:-1 93:-1 94:-1 95:-1 96:0.0185632 97:0.0535164 98:0.00711667 99:0.0533802 100:0.00711667 101:0.0533802 102:0.00672071 103:0.0540216 104:-1 105:-0.987013 106:-1 107:-1 108:0.00691871 109:0.0537009 110:-0.0123862 111:0.0197174 112:-0.0123862 113:0.0197174 114:-0.0128476 115:0.0202658 116:-1 117:-0.987261 118:-1 119:-1 120:-0.0126169 121:0.0199916 122:0.00800308 123:0.0529839 124:0.00800308 125:0.0529839 126:0.00749347 127:0.0534758 128:-1 129:-0.987097 130:-1 131:-1 132:0.0077483 133:0.0532299 134:0.0075741 135:0.035813 136:0.0075741 137:0.035813 138:0.0075741 139:0.035813 140:-1 141:-1 142:-1 143:-1 144:0.0075741 145:0.035813 146:0.0198403 147:-0.0244961 148:0.0198403 149:-0.0244961 150:0.0195179 151:-0.0237865 152:-1 153:-0.987013 154:-1 155:-1 156:0.019679 157:-0.0241413 158:0.0136077 159:0.0162571 160:0.0136077 161:0.0162571 162:0.0132186 163:0.0168923 164:-1 165:-0.987013 166:-1 167:-1 168:0.0134131 169:0.0165747 170:0.013431 171:0.0415277 172:0.013431 173:0.0415277 174:0.0130603 175:0.0421961 176:-1 177:-0.987013 178:-1 179:-1 180:0.0132457 181:0.0418619 182:0.112135 183:-0.0220811 184:-0.0500445 185:-0.104098 186:-0.0276493 187:-0.0476757 188:-1 189:-0.987097 190:-1 191:-1 
128 1:0.183029 2:0.265138 3:0.0447845 4:0.189472 5:0.0309006 6:-0.859749 7:-0.999177 8:-0.999897 9:-0.99996 10:0.0504076 11:-0.152507 12:-0.66567 13:-0.921296 14:-0.0550403 15:0.0100744 16:-0.0832584 17:0.182138 18:-0.13496 19:-0.0566613 20:-1 21:-1 22:-1 23:-1 24:-0.865433 25:-0.893264 26:0.0117409 27:0.0699809 28:0.0117409 29:0.0699809 30:0.0117409 31:0.0699809 32:-1 33:-1 34:-1 35:-1 36:0.0117409 37:0.0699809 38:0.0423021 39:0.0209172 40:0.0423021 41:0.0209172 42:0.0423021 43:0.0209172 44:-1 45:-1 46:-1 47:-1 48:0.0423021 49:0.0209172 50:0.0627544 51:0.0210021 52:0.0627544 53:0.0210021 54:0.0627544 55:0.0210021 56:-1 57:-1 58:-1 59:-1 60:0.0627544 61:0.0210021 62:0.062478 63:0.0201305 64:0.062478 65:0.0201305 66:0.062478 67:0.0201305 68:-1 69:-1 70:-1 71:-1 72:0.062478 73:0.0201305 74:0.0123002 75:0.0423732 76:0.0123002 77:0.0423732 78:0.0123002 79:0.0423732 80:-1 81:-1 82:-1 83:-1 84:0.0123002 85:0.0423732 86:0.0188003 87:0.0539732 88:0.0188003 89:0.0539732 90:0.0188003 91:0.0539732 92:-1 93:-1 94:-1 95:-1 96:0.0188003 97:0.0539732 98:0.00722522 99:0.0542247 100:0.00722522 101:0.0542247 102:0.00722522 103:0.0542247 104:-1 105:-1 106:-1 107:-1 108:0.00722522 109:0.0542247 110:-0.0123807 111:0.0210089 112:-0.0123807 113:0.0210089 114:-0.0123807 115:0.0210089 116:-1 117:-1 118:-1 119:-1 120:-0.0123807 121:0.0210089 122:0.00806363 123:0.0547034 124:0.00806363 125:0.0547034 126:0.00806363 127:0.0547034 128:-1 129:-1 130:-1 131:-1 132:0.00806363 133:0.0547034 134:0.00790666 135:0.0362876 136:0.00790666 137:0.0362876 138:0.00790666 139:0.0362876 140:-1 141:-1 142:-1 143:-1 144:0.00790666 145:0.0362876 146:0.0201311 147:-0.0236411 148:0.0201311 149:-0.0236411 150:0.0201311 151:-0.0236411 152:-1 153:-1 154:-1 155:-1 156:0.0201311 157:-0.0236411 158:0.0136091 159:0.0175186 160:0.0136091 161:0.0175186 162:0.0136091 163:0.0175186 164:-1 165:-1 166:-1 167:-1 168:0.0136091 169:0.0175186 170:0.013263 171:0.0433734 172:0.013263 173:0.0433734 174:0.013263 175:0.0433734 176:-1 177:-1 178:-1 179:-1 180:0.013263 181:0.0433734 182:0.109306 183:0.00446155 184:-0.0534867 185:-0.0654147 186:-0.024473 187:-0.0733983 188:-1 189:-1 190:-1 191:-1 
86.29633438201304 1:0.230527 2:0.314094 3:-0.122703 4:0.088797 5:0.0309006 6:-0.824285 7:-0.994301 8:-0.999616 9:-0.999527 10:0.0504076 11:-0.152497 12:-0.66567 13:-0.865741 14:-0.0895446 15:0.0321556 16:-0.034269 17:0.164298 18:-0.0815199 19:-0.0819159 20:-0.951613 21:-0.987013 22:-0.950089 23:-1 24:-0.847002 25:-0.893264 26:0.0109764 27:0.0701842 28:0.0112515 29:0.0699268 30:0.0132528 31:0.0692463 32:-0.983607 33:-0.974026 34:-1 35:-0.959981 36:0.012112 37:0.0697093 38:0.0415171 39:0.0208148 40:0.0435721 41:0.0202512 42:0.0437537 43:0.0199396 44:-0.968 45:-0.987013 46:-0.950901 47:-1 48:0.0426561 49:0.0203929 50:0.0616265 51:0.0208323 52:0.0621762 53:0.0203394 54:0.0640415 55:0.0200522 56:-0.96748 57:-0.974026 58:-0.961939 59:-0.948855 60:0.062717 61:0.0204301 62:0.06168 63:0.0208104 64:0.0637742 65:0.0202205 66:0.0640212 67:0.0199637 68:-0.967742 69:-0.987097 70:-0.955296 71:-1 72:0.0628623 73:0.0203934 74:0.0117184 75:0.0428035 76:0.0139176 77:0.0421944 78:0.0141098 79:0.041873 80:-0.966942 81:-0.987013 82:-0.932919 83:-1 84:0.012925 85:0.0423449 86:0.0181135 87:0.0541889 88:0.0199409 89:0.0537933 90:0.0203227 91:0.0531504 92:-0.96748 93:-0.974026 94:-0.916349 95:-0.97987 96:0.0193782 97:0.0537068 98:0.00636766 99:0.054387 100:0.00684312 101:0.0538095 102:0.00862387 103:0.0533981 104:-0.96748 105:-0.974026 106:-0.99624 107:-0.941484 108:0.0073547 109:0.0538645 110:-0.0131541 111:0.0208347 112:-0.0113981 113:0.0203608 114:-0.0109151 115:0.0198184 116:-0.96748 117:-0.974522 118:-0.948714 119:-0.99224 120:-0.0118939 121:0.0203422 122:0.00724566 123:0.0542485 124:0.00887415 125:0.0536772 126:0.00908003 127:0.0533685 128:-0.96748 129:-0.987097 130:-0.962967 131:-1 132:0.00818784 133:0.0538273 134:0.00733793 135:0.0366842 136:0.0085705 137:0.0362578 138:0.00893236 139:0.0355909 140:-0.967742 141:-0.974026 142:-0.930892 143:-0.983841 144:0.00823911 145:0.0361756 146:0.019555 147:-0.0235292 148:0.0207479 149:-0.0239665 150:0.0209124 151:-0.0243016 152:-0.96748 153:-0.987013 154:-0.955675 155:-1 156:0.0202571 157:-0.0238973 158:0.0130192 159:0.0176087 160:0.0133454 161:0.0169253 162:0.0142215 163:0.0166828 164:-0.968 165:-0.974026 166:-0.966101 167:-0.919658 168:0.0135754 169:0.0171091 170:0.0126772 171:0.0429833 172:0.0136443 173:0.0423232 174:0.0138578 175:0.0420169 176:-0.95122 177:-0.987013 178:-0.962228 179:-1 180:0.0132835 181:0.0425117 182:0.0950298 183:0.028278 184:-0.0491575 185:-0.0788967 186:-0.00594305 187:-0.094157 188:-0.967742 189:-0.987097 190:-0.996306 191:-1 
128 1:0.230527 2:0.314094 3:-0.122703 4:-0.0800506 5:0.0309006 6:-0.852688 7:-0.99808 8:-0.999912 9:-0.999942 10:0.0504076 11:-0.152505 12:-0.66567 13:-0.893519 14:-0.0395621 15:-0.0341253 16:-0.10152 17:0.210874 18:-0.167888 19:-0.0320631 20:-0.983871 21:-0.987013 22:-1 23:-1 24:-0.900236 25:-0.893264 26:0.0122037 27:0.0689833 28:0.0113779 29:0.0701929 30:0.0109412 31:0.0702042 32:-0.983607 33:-0.987013 34:-1 35:-1 36:0.0115076 37:0.0697935 38:0.0427239 39:0.0198197 40:0.0419257 41:0.0210179 42:0.0415023 43:0.0210254 44:-0.984 45:-0.987013 46:-1 47:-1 48:0.0420506 49:0.020621 50:0.0631771 51:0.01977 52:0.0623625 53:0.0208958 54:0.0619323 55:0.0209585 56:-0.96748 57:-0.987013 58:-0.920704 59:-1 60:0.0625576 61:0.0203677 62:0.0631468 63:0.0197185 64:0.0627272 65:0.0197371 66:0.0619074 67:0.0209919 68:-0.983871 69:-0.974194 70:-1 71:-0.891142 72:0.0625297 73:0.020345 74:0.0131839 75:0.0417367 76:0.0127412 77:0.0417261 78:0.0118794 79:0.0429601 80:-0.983471 81:-0.974026 82:-1 83:-0.928812 84:0.012534 85:0.0423333 86:0.0194668 87:0.0532794 88:0.019037 89:0.0532464 90:0.0182024 91:0.0544492 92:-0.98374 93:-0.974026 94:-1 95:-0.922864 96:0.0188367 97:0.0538529 98:0.00747896 99:0.0532216 100:0.00708764 101:0.0543816 102:0.00665616 103:0.0544474 104:-0.98374 105:-0.987013 106:-1 107:-1 108:0.00707426 109:0.0540169 110:-0.0120314 111:0.0198995 112:-0.0124364 113:0.0208109 114:-0.0128713 115:0.0210612 116:-0.98374 117:-0.987261 118:-1 119:-1 120:-0.0124464 121:0.0205905 122:0.00828984 123:0.0534065 124:0.00788466 125:0.0540348 126:0.00746428 127:0.0544445 128:-0.98374 129:-0.987097 130:-1 131:-1 132:0.0078796 133:0.0539619 134:0.00824578 135:0.0358752 136:0.00784067 137:0.036483 138:0.007424 139:0.037042 140:-0.983871 141:-0.987013 142:-1 143:-1 144:0.00783682 145:0.0364667 146:0.0204768 147:-0.0241071 148:0.0200689 149:-0.0237786 150:0.0196625 151:-0.0231018 152:-0.98374 153:-0.987013 154:-1 155:-1 156:0.0200694 157:-0.0236625 158:0.0136767 159:0.0169492 160:0.0136767 161:0.0169492 162:0.0132632 163:0.0175718 164:-1 165:-0.987013 166:-1 167:-1 168:0.0134699 169:0.0172605 170:0.0133642 171:0.0424213 172:0.0133642 173:0.0424213 174:0.012947 175:0.0428426 176:-1 177:-0.987013 178:-1 179:-1 180:0.0131556 181:0.0426319 182:0.11789 183:-0.000116881 184:-0.0430417 185:-0.0720872 186:-0.0341122 187:-0.0689585 188:-1 189:-0.987097 190:-1 191:-1 
128 1:0.247409 2:0.394512 3:-0.118115 4:-0.0457481 5:0.053062 6:-0.852688 7:-0.99808 8:-0.999912 9:-0.999942 10:0.0504076 11:-0.152505 12:-0.66567 13:-0.893519 14:-0.0295015 15:0.0159397 16:-0.0672987 17:0.163552 18:-0.16742 19:-0.0579326 20:-0.983871 21:-0.974026 22:-1 23:-0.917279 24:-0.871239 25:-0.893264 26:0.0124712 27:0.0698978 28:0.0121584 29:0.0694982 30:0.010842 31:0.0699547 32:-0.983607 33:-0.974026 34:-1 35:-0.932841 36:0.0117058 37:0.0698393 38:0.0430336 39:0.020526 40:0.0426578 41:0.0202814 42:0.0413881 43:0.020708 44:-0.984 45:-0.974026 46:-1 47:-0.928326 48:0.0422358 49:0.0205762 50:0.063493 51:0.0203847 52:0.0622468 53:0.0207457 54:0.0613227 55:0.0204987 56:-0.96748 57:-0.974026 58:-0.916729 59:-0.982655 60:0.0623808 61:0.0204977 62:0.063443 63:0.0204066 64:0.0622354 65:0.0207009 66:0.0612994 67:0.0204777 68:-0.967742 69:-0.974194 70:-0.911879 71:-0.97753 72:0.0623487 73:0.0204898 74:0.013485 75:0.0424461 76:0.0130853 77:0.0421907 78:0.0111979 79:0.0425694 80:-0.983471 81:-0.961039 82:-1 83:-0.923136 84:0.0123396 85:0.0425194 86:0.0197419 87:0.0539344 88:0.0193782 89:0.053633 90:0.0175887 91:0.0539554 92:-0.98374 93:-0.961039 94:-1 95:-0.928085 96:0.0186629 97:0.0539563 98:0.00784237 99:0.0536458 100:0.00708274 101:0.0540778 102:0.00610422 103:0.0539176 104:-0.98374 105:-0.974026 106:-1 107:-0.948468 108:0.0068867 109:0.0539443 110:-0.0116502 111:0.0202059 112:-0.0130319 113:0.0207366 114:-0.0133982 115:0.0204329 116:-0.96748 117:-0.987261 118:-0.980377 119:-1 120:-0.0126158 121:0.0204824 122:0.00868083 123:0.0536235 124:0.00732298 125:0.0541832 126:0.00695665 127:0.0538833 128:-0.96748 129:-0.987097 130:-0.996888 131:-1 132:0.00774417 133:0.0538944 134:0.00862164 135:0.036105 136:0.00728799 137:0.0366241 138:0.00689183 139:0.0363766 140:-0.967742 141:-0.987013 142:-0.977031 143:-1 144:0.00770463 145:0.0363414 146:0.0208101 147:-0.0239799 148:0.0195116 149:-0.0235091 150:0.0191039 151:-0.0237194 152:-0.96748 153:-0.987013 154:-0.963795 155:-1 156:0.0199223 157:-0.0237822 158:0.014392 159:0.0169072 160:0.0131008 161:0.0173208 162:0.0126419 163:0.0171846 164:-0.968 165:-0.987013 166:-0.959898 167:-1 168:0.0134973 169:0.017086 170:0.0139848 171:0.0425223 172:0.0135429 173:0.0423718 174:0.0123377 175:0.0426211 176:-0.98374 177:-0.974026 178:-1 179:-0.932211 180:0.0131686 181:0.0425629 182:0.141943 183:0.00344152 184:-0.0339885 185:-0.0835756 186:-0.0631715 187:-0.0685967 188:-0.983871 189:-0.974194 190:-1 191:-0.955073 
128 1:0.248909 2:0.298566 3:-0.207166 4:0.088797 5:0.0309006 6:-0.852688 7:-0.99808 8:-0.999912 9:-0.999942 10:0.0504076 11:-0.152505 12:-0.66567 13:-0.893519 14:-0.0444506 15:-0.00101219 16:-0.0705074 17:0.166166 18:-0.146355 19:-0.0454159 20:-1 21:-0.987013 22:-1 23:-1 24:-0.86587 25:-0.893264 26:0.0123281 27:0.0695019 28:0.0116655 29:0.0697639 30:0.0112516 31:0.0705391 32:-0.983607 33:-0.987013 34:-1 35:-1 36:0.0117484 37:0.069935 38:0.0423758 39:0.0203352 40:0.0423758 41:0.0203352 42:0.0418953 43:0.0209105 44:-1 45:-0.987013 46:-1 47:-1 48:0.0421355 49:0.0206228 50:0.0630637 51:0.0201903 52:0.0630637 53:0.0201903 54:0.0624492 55:0.0205203 56:-1 57:-0.987013 58:-1 59:-1 60:0.0627564 61:0.0203553 62:0.0625831 63:0.0203142 64:0.0625831 65:0.0203142 66:0.0621885 67:0.0210864 68:-1 69:-0.987097 70:-1 71:-1 72:0.0623858 73:0.0207003 74:0.0127641 75:0.0421234 76:0.0127641 77:0.0421234 78:0.0122603 79:0.0427377 80:-1 81:-0.987013 82:-1 83:-1 84:0.0125122 85:0.0424306 86:0.0193103 87:0.0534381 88:0.0187458 89:0.0539041 90:0.0184303 91:0.054889 92:-0.98374 93:-0.987013 94:-1 95:-1 96:0.0188288 97:0.0540771 98:0.00739101 99:0.0536374 100:0.00739101 101:0.0536374 102:0.0069718 103:0.0543941 104:-1 105:-0.987013 106:-1 107:-1 108:0.00718141 109:0.0540157 110:-0.0119179 111:0.0200244 112:-0.0119179 113:0.0200244 114:-0.0124349 115:0.0205798 116:-1 117:-0.987261 118:-1 119:-1 120:-0.0121764 121:0.0203021 122:0.00860404 123:0.0533621 124:0.00803149 125:0.0538009 126:0.00761785 127:0.0545772 128:-0.98374 129:-0.987097 130:-1 131:-1 132:0.00808445 133:0.0539134 134:0.00812243 135:0.0360132 136:0.00812243 137:0.0360132 138:0.00769303 139:0.0367549 140:-1 141:-0.987013 142:-1 143:-1 144:0.00790773 145:0.036384 146:0.0204746 147:-0.024258 148:0.0204746 149:-0.024258 150:0.0199837 151:-0.0236788 152:-1 153:-0.987013 154:-1 155:-1 156:0.0202292 157:-0.0239684 158:0.0142723 159:0.0165236 160:0.0136883 161:0.0169388 162:0.0132076 163:0.0175693 164:-0.984 165:-0.987013 166:-1 167:-1 168:0.0137227 169:0.0170106 170:0.014124 171:0.0418502 172:0.0134972 173:0.0421864 174:0.0130236 175:0.042839 176:-0.98374 177:-0.987013 178:-1 179:-1 180:0.0135482 181:0.0422918 182:0.131068 183:-0.0243273 184:-0.0539428 185:-0.0672054 186:-0.0484848 187:-0.0443082 188:-0.983871 189:-0.987097 190:-1 191:-1 
2.531186627232636 1:0.203524 2:-0.219768 3:-0.471843 4:0.221247 5:-0.113346 6:-0.848205 7:-0.997678 8:-0.999866 9:-0.999964 10:0.0504076 11:-0.152509 12:-0.66567 13:-0.842593 14:-0.049702 15:0.0426952 16:-0.0604445 17:0.178886 18:-0.110521 19:-0.0874599 20:-0.983871 21:-0.987013 22:-1 23:-1 24:-0.812115 25:-0.893264 26:0.0118878 27:0.070667 28:0.0120241 29:0.0700952 30:0.012756 31:0.0692411 32:-0.983607 33:-0.987013 34:-1 35:-1 36:0.0122226 37:0.0700011 38:0.0424316 39:0.0216072 40:0.0428294 41:0.0204518 42:0.0424908 43:0.020142 44:-0.968 45:-0.987013 46:-0.923038 47:-1 48:0.0425076 49:0.0208503 50:0.0628683 51:0.0216846 52:0.062689 53:0.0212872 54:0.0627841 55:0.0207582 56:-0.98374 57:-0.987013 58:-1 59:-1 60:0.0627805 61:0.0212433 62:0.0625419 63:0.0220126 64:0.0628248 65:0.0213805 66:0.0625041 67:0.0210533 68:-0.983871 69:-0.987097 70:-1 71:-1 72:0.0626236 73:0.0214821 74:0.0127684 75:0.0436331 76:0.0127684 77:0.0436331 78:0.0127046 79:0.0431665 80:-1 81:-0.987013 82:-1 83:-1 84:0.0127365 85:0.0433998 86:0.0187832 87:0.0553935 88:0.0187832 89:0.0553935 90:0.0187832 91:0.0553935 92:-1 93:-1 94:-1 95:-1 96:0.0187832 97:0.0553935 98:0.00722279 99:0.0555688 100:0.00722279 101:0.0555688 102:0.00722279 103:0.0555688 104:-1 105:-1 106:-1 107:-1 108:0.00722279 109:0.0555688 110:-0.87627 111:0.012273 112:-0.87627 113:0.012273 114:-0.87627 115:0.012273 116:-1 117:-1 118:-1 119:-1 120:-0.87627 121:0.012273 122:-0.83854 123:0.0454581 124:-0.83854 125:0.0454581 126:-0.83854 127:0.0454581 128:-1 129:-1 130:-1 131:-1 132:-0.83854 133:0.0454581 134:-0.83854 135:0.0278768 136:-0.83854 137:0.0278768 138:-0.83854 139:0.0278768 140:-1 141:-1 142:-1 143:-1 144:-0.83854 145:0.0278768 146:-0.815832 147:-0.0319606 148:-0.815832 149:-0.0319606 150:-0.815832 151:-0.0319606 152:-1 153:-1 154:-1 155:-1 156:-0.815832 157:-0.0319606 158:0.0144613 159:0.0162504 160:0.0144613 161:0.0162504 162:0.0144613 163:0.0162504 164:-1 165:-1 166:-1 167:-1 168:0.0144613 169:0.0162504 170:0.0135472 171:0.0421877 172:0.0135472 173:0.0421877 174:0.0135472 175:0.0421877 176:-1 177:-1 178:-1 179:-1 180:0.0135472 181:0.0421877 182:0.109306 183:0.00446155 184:-0.0534867 185:-0.0654147 186:-0.024473 187:-0.0733983 188:-1 189:-1 190:-1 191:-1 
5.643688640574678 1:0.247092 2:-0.669886 3:0.477348 4:0.624016 5:-0.0628235 6:-0.861931 7:-0.99973 8:-0.999802 9:-0.999982 10:0.0504076 11:-0.152507 12:-0.66567 13:-0.837963 14:-0.00352769 15:-0.0187795 16:-0.0547308 17:0.178801 18:-0.136796 19:-0.0250547 20:-0.983871 21:-0.987013 22:-1 23:-1 24:-0.783067 25:-0.893264 26:0.0129062 27:0.0692389 28:0.0121685 29:0.0697774 30:0.0116239 31:0.0707173 32:-0.983607 33:-0.987013 34:-1 35:-1 36:0.0122328 37:0.0699111 38:0.0424645 39:0.0206558 40:0.0424645 41:0.0206558 42:0.0419942 43:0.0216722 44:-1 45:-0.987013 46:-1 47:-1 48:0.0422294 49:0.021164 50:0.0626578 51:0.0206128 52:0.0626578 53:0.0206128 54:0.0626578 55:0.0206128 56:-1 57:-1 58:-1 59:-1 60:0.0626578 61:0.0206128 62:0.0624273 63:0.0207388 64:0.0624273 65:0.0207388 66:0.0624273 67:0.0207388 68:-1 69:-1 70:-1 71:-1 72:0.0624273 73:0.0207388 74:0.0122764 75:0.0429909 76:0.0122764 77:0.0429909 78:0.0122764 79:0.0429909 80:-1 81:-1 82:-1 83:-1 84:0.0122764 85:0.0429909 86:-0.4218 87:-0.81817 88:-0.4218 89:-0.81817 90:-0.4218 91:-0.81817 92:-1 93:-1 94:-1 95:-1 96:-0.4218 97:-0.81817 98:-0.428332 99:-0.81817 100:-0.428332 101:-0.81817 102:-0.428332 103:-0.81817 104:-1 105:-1 106:-1 107:-1 108:-0.428332 109:-0.81817 110:-0.0107263 111:0.0195304 112:-0.0107263 113:0.0195304 114:-0.0116471 115:0.0197037 116:-1 117:-0.987261 118:-1 119:-1 120:-0.0111867 121:0.019617 122:0.00934031 123:0.0529897 124:0.00934031 125:0.0529897 126:0.00845542 127:0.0531993 128:-1 129:-0.987097 130:-1 131:-1 132:0.00889786 133:0.0530945 134:0.00908782 135:0.0354975 136:0.00908782 137:0.0354975 138:0.00825186 139:0.0358037 140:-1 141:-0.987013 142:-1 143:-1 144:0.00866984 145:0.0356506 146:0.0209919 147:-0.0246922 148:0.0209919 149:-0.0246922 150:0.0203044 151:-0.024125 152:-1 153:-0.987013 154:-1 155:-1 156:0.0206481 157:-0.0244086 158:0.0136869 159:0.0168102 160:0.0136869 161:0.0168102 162:0.0136869 163:0.0168102 164:-1 165:-1 166:-1 167:-1 168:0.0136869 169:0.0168102 170:0.0131932 171:0.0424347 172:0.0131932 173:0.0424347 174:0.0131932 175:0.0424347 176:-1 177:-1 178:-1 179:-1 180:0.0131932 181:0.0424347 182:0.109306 183:0.00446155 184:-0.0534867 185:-0.0654147 186:-0.024473 187:-0.0733983 188:-1 189:-1 190:-1 191:-1 
128 1:0.25229 2:-0.853363 3:0.444872 4:0.088797 5:0.0309006 6:-0.854393 7:-0.998868 8:-0.999835 9:-0.999964 10:0.0504076 11:-0.152509 12:-0.66567 13:-0.884259 14:-0.0570944 15:0.0292272 16:-0.0857317 17:0.209731 18:-0.112076 19:-0.0760885 20:-1 21:-0.987013 22:-1 23:-1 24:-0.832244 25:-0.893264 26:0.0116744 27:0.070542 28:0.0116744 29:0.070542 30:0.012099 31:0.0698008 32:-1 33:-0.987013 34:-1 35:-1 36:0.0118867 37:0.0701714 38:0.0421122 39:0.0209154 40:0.0421122 41:0.0209154 42:0.0427894 43:0.0201963 44:-1 45:-0.987013 46:-1 47:-1 48:0.0424508 49:0.0205558 50:0.0627439 51:0.0204787 52:0.0627439 53:0.0204787 54:0.0633255 55:0.0197674 56:-1 57:-0.987013 58:-1 59:-1 60:0.0630347 61:0.020123 62:0.0624569 63:0.0209588 64:0.0624569 65:0.0209588 66:0.0628414 67:0.0202503 68:-1 69:-0.987097 70:-1 71:-1 72:0.0626491 73:0.0206046 74:0.0125476 75:0.0427219 76:0.0125476 77:0.0427219 78:0.012801 79:0.0420064 80:-1 81:-0.987013 82:-1 83:-1 84:0.0126743 85:0.0423642 86:0.018742 87:0.0545403 88:0.018742 89:0.0545403 90:0.0189751 91:0.0538144 92:-1 93:-0.987013 94:-1 95:-1 96:0.0188586 97:0.0541773 98:0.00715834 99:0.0541897 100:0.00715834 101:0.0541897 102:0.00743385 103:0.0534616 104:-1 105:-0.987013 106:-1 107:-1 108:0.0072961 109:0.0538256 110:-0.0123948 111:0.0210899 112:-0.0123948 113:0.0210899 114:-0.01239 115:0.0203971 116:-1 117:-0.987261 118:-1 119:-1 120:-0.0123925 121:0.0207435 122:0.0078582 123:0.0542263 124:0.0078582 125:0.0542263 126:0.00771844 127:0.0535175 128:-1 129:-0.987097 130:-1 131:-1 132:0.00778832 133:0.0538719 134:0.00768385 135:0.0363349 136:0.00768385 137:0.0363349 138:0.00768385 139:0.0363349 140:-1 141:-1 142:-1 143:-1 144:0.00768385 145:0.0363349 146:0.0200107 147:-0.0234205 148:0.0200107 149:-0.0234205 150:0.0195774 151:-0.0240937 152:-1 153:-0.987013 154:-1 155:-1 156:0.0197941 157:-0.0237571 158:0.0133855 159:0.017089 160:0.0133855 161:0.017089 162:0.0133855 163:0.017089 164:-1 165:-1 166:-1 167:-1 168:0.0133855 169:0.017089 170:0.0134584 171:0.0428902 172:0.0134584 173:0.0428902 174:0.0127974 175:0.0422178 176:-1 177:-0.987013 178:-1 179:-1 180:0.013128 181:0.042554 182:0.109306 183:0.00446155 184:-0.0534867 185:-0.0654147 186:-0.024473 187:-0.0733983 188:-1 189:-1 190:-1 191:-1 
128 1:0.288294 2:-0.923457 3:0.486485 4:0.320715 5:0.255746 6:-0.855013 7:-0.999833 8:-0.999402 9:-0.999942 10:0.0504076 11:-0.152507 12:-0.66567 13:-0.856481 14:-0.0372495 15:0.0217171 16:-0.0618366 17:0.198911 18:-0.112978 19:-0.0684709 20:-1 21:-0.987013 22:-1 23:-1 24:-0.800312 25:-0.893264 26:0.0122325 27:0.0698669 28:0.0122325 29:0.0698669 30:0.0122917 31:0.0694091 32:-1 33:-0.987013 34:-1 35:-1 36:0.0122621 37:0.069638 38:0.0427181 39:0.0204985 40:0.0427181 41:0.0204985 42:0.0427507 43:0.0200583 44:-1 45:-0.987013 46:-1 47:-1 48:0.0427344 49:0.0202784 50:0.0631192 51:0.0203618 52:0.0631192 53:0.0203618 54:0.063081 55:0.0199116 56:-1 57:-0.987013 58:-1 59:-1 60:0.0631001 61:0.0201367 62:0.0629925 63:0.0202238 64:0.0629925 65:0.0202238 66:0.0629482 67:0.0197721 68:-1 69:-0.987097 70:-1 71:-1 72:0.0629703 73:0.0199979 74:0.0130634 75:0.0421109 76:0.0130634 77:0.0421109 78:0.0128784 79:0.0416303 80:-1 81:-0.987013 82:-1 83:-1 84:0.0129709 85:0.0418706 86:0.0179313 87:0.054626 88:0.0192055 89:0.0533963 90:0.0191366 91:0.0529251 92:-0.98374 93:-0.987013 94:-1 95:-1 96:0.0187579 97:0.0536492 98:0.00631468 99:0.0544845 100:0.00631468 101:0.0544845 102:0.0074359 103:0.052774 104:-1 105:-0.987013 106:-1 107:-1 108:0.00687532 109:0.0536293 110:-0.0131026 111:0.0209158 112:-0.0131026 113:0.0209158 114:-0.012134 115:0.0192409 116:-1 117:-0.987261 118:-1 119:-1 120:-0.0126183 121:0.0200784 122:0.00737518 123:0.0543495 124:0.00737518 125:0.0543495 126:0.00813955 127:0.0525975 128:-1 129:-0.987097 130:-1 131:-1 132:0.00775737 133:0.0534735 134:0.00751135 135:0.0367076 136:0.00751135 137:0.0367076 138:0.00797841 139:0.0349106 140:-1 141:-0.987013 142:-1 143:-1 144:0.00774491 145:0.0358091 146:0.0193779 147:-0.0231427 148:0.0198164 149:-0.0235398 150:0.0201291 151:-0.0252987 152:-0.98374 153:-0.987013 154:-1 155:-1 156:0.0197744 157:-0.0239938 158:0.0130039 159:0.0175872 160:0.0139122 161:0.0168043 162:0.0136854 163:0.0154199 164:-0.968 165:-0.987013 166:-0.990038 167:-1 168:0.0135279 169:0.0167526 170:0.0126585 171:0.0430098 172:0.0135182 173:0.0422074 174:0.0132599 175:0.0407907 176:-0.96748 177:-0.987013 178:-0.970469 179:-1 180:0.0131679 181:0.0421582 182:0.0929123 183:0.026531 184:-0.0468094 185:-0.0640843 186:-0.0122292 187:-0.0956695 188:-0.983871 189:-0.987097 190:-1 191:-1 
128 1:0.221125 2:-0.903013 3:0.683816 4:0.088797 5:0.0309006 6:-0.859749 7:-0.999177 8:-0.999897 9:-0.99996 10:0.0504076 11:-0.152507 12:-0.66567 13:-0.921296 14:-0.0823544 15:0.0100744 16:-0.116147 17:0.182138 18:-0.163648 19:-0.0566613 20:-1 21:-1 22:-1 23:-1 24:-0.957307 25:-0.893264 26:0.0102659 27:0.0700942 28:0.0102659 29:0.0700942 30:0.0113191 31:0.0694316 32:-1 33:-0.987013 34:-1 35:-1 36:0.0107925 37:0.0697629 38:0.041357 39:0.0207294 40:0.041357 41:0.0207294 42:0.041357 43:0.0207294 44:-1 45:-1 46:-1 47:-1 48:0.041357 49:0.0207294 50:0.061204 51:0.0208934 52:0.061204 53:0.0208934 54:0.0622503 55:0.0202683 56:-1 57:-0.987013 58:-1 59:-1 60:0.0617272 61:0.0205809 62:0.0617517 63:0.0206717 64:0.0617517 65:0.0206717 66:0.0617517 67:0.0206717 68:-1 69:-1 70:-1 71:-1 72:0.0617517 73:0.0206717 74:0.0121266 75:0.0423446 76:0.0121266 77:0.0423446 78:0.0121266 79:0.0423446 80:-1 81:-1 82:-1 83:-1 84:0.0121266 85:0.0423446 86:0.0177544 87:0.0542297 88:0.0177544 89:0.0542297 90:0.0177544 91:0.0542297 92:-1 93:-1 94:-1 95:-1 96:0.0177544 97:0.0542297 98:0.00678876 99:0.0540043 100:0.00678876 101:0.0540043 102:0.00678876 103:0.0540043 104:-1 105:-1 106:-1 107:-1 108:0.00678876 109:0.0540043 110:-0.0133108 111:0.0207768 112:-0.0133108 113:0.0207768 114:-0.0133108 115:0.0207768 116:-1 117:-1 118:-1 119:-1 120:-0.0133108 121:0.0207768 122:0.00755934 123:0.0539627 124:0.00755934 125:0.0539627 126:0.00755934 127:0.0539627 128:-1 129:-1 130:-1 131:-1 132:0.00755934 133:0.0539627 134:0.00705212 135:0.0368694 136:0.00705212 137:0.0368694 138:0.0081016 139:0.0362082 140:-1 141:-0.987013 142:-1 143:-1 144:0.00757686 145:0.0365388 146:0.0197431 147:-0.0236101 148:0.0197431 149:-0.0236101 150:0.0197431 151:-0.0236101 152:-1 153:-1 154:-1 155:-1 156:0.0197431 157:-0.0236101 158:0.0137994 159:0.0169301 160:0.0137994 161:0.0169301 162:0.0137994 163:0.0169301 164:-1 165:-1 166:-1 167:-1 168:0.0137994 169:0.0169301 170:0.0128539 171:0.042911 172:0.0128539 173:0.042911 174:0.0128539 175:0.042911 176:-1 177:-1 178:-1 179:-1 180:0.0128539 181:0.042911 182:0.109306 183:0.00446155 184:-0.0534867 185:-0.0654147 186:-0.024473 187:-0.0733983 188:-1 189:-1 190:-1 191:-1 
128 1:0.221125 2:-0.903013 3:0.683816 4:0.088797 5:0.0309006 6:-0.858858 7:-0.998794 8:-1 9:-1 10:0.0504076 11:-0.152507 12:-0.66567 13:-0.861111 14:-0.0723973 15:-0.0271012 16:-0.0624333 17:0.175367 18:-0.108522 19:-0.0114688 20:-0.967742 21:-0.974026 22:-0.9668 23:-0.985177 24:-0.832626 25:-0.893264 26:0.0116548 27:0.0691576 28:0.012135 29:0.0694687 30:0.0123569 31:0.0704263 32:-0.983607 33:-0.974026 34:-1 35:-0.995037 36:0.0120952 37:0.0697516 38:0.0419394 39:0.0198295 40:0.0426173 41:0.020533 42:0.0430426 43:0.0213546 44:-0.968 45:-0.974026 46:-0.994359 47:-0.995193 48:0.0425421 49:0.0205678 50:0.0626014 51:0.0199482 52:0.0628881 53:0.0203261 54:0.0634238 55:0.0211028 56:-0.98374 57:-0.974026 58:-1 59:-0.998753 60:0.0630168 61:0.0205229 62:0.0624785 63:0.0198138 64:0.062607 65:0.0202614 66:0.063212 67:0.0210044 68:-0.983871 69:-0.974194 70:-1 71:-0.974479 72:0.06282 73:0.02042 74:0.012458 75:0.0416207 76:0.0124904 77:0.0421242 78:0.0133756 79:0.0432925 80:-0.983471 81:-0.961039 82:-1 83:-0.996412 84:0.0128364 85:0.0424909 86:0.0186646 87:0.0533378 88:0.0187115 89:0.0538373 90:0.019429 91:0.0545564 92:-0.98374 93:-0.974026 94:-1 95:-0.967239 96:0.0190043 97:0.053966 98:0.00716761 99:0.0531221 100:0.00707392 101:0.0536888 102:0.00779745 103:0.0543994 104:-0.98374 105:-0.974026 106:-1 107:-0.982788 108:0.00738039 109:0.0538079 110:-0.0123 111:0.0195097 112:-0.0123588 113:0.0205492 114:-0.0115309 115:0.0212002 116:-0.96748 117:-0.974522 118:-0.950591 119:-0.981559 120:-0.0121156 121:0.0204431 122:0.00782634 123:0.0533581 124:0.00780227 125:0.0538907 126:0.00856358 127:0.0545811 128:-0.98374 129:-0.974194 130:-1 131:-0.982498 132:0.0081129 133:0.0540073 134:0.00784067 135:0.0355823 136:0.00765288 137:0.036197 138:0.0083438 139:0.0369185 140:-0.983871 141:-0.974026 142:-1 143:-0.980465 144:0.00793829 145:0.036323 146:0.0199775 147:-0.024654 148:0.0199433 149:-0.0236225 150:0.0207371 151:-0.0229732 152:-0.96748 153:-0.974026 154:-0.974823 155:-0.979589 156:0.0201847 157:-0.0237336 158:0.0135183 159:0.0165451 160:0.0133644 161:0.0171232 162:0.0141136 163:0.0177953 164:-0.984 165:-0.974026 166:-1 167:-0.993431 168:0.0136881 169:0.0172284 170:0.0131036 171:0.0418101 172:0.0129466 173:0.0424029 174:0.0138272 175:0.0435386 176:-0.98374 177:-0.961039 178:-1 179:-0.984285 180:0.0133259 181:0.0427401 182:0.0987335 183:-0.0452737 184:-0.0668439 185:-0.0552899 186:0.000787705 187:-0.0325109 188:-0.967742 189:-0.974194 190:-0.98107 191:-0.990776 
128 1:0.215293 2:-0.895379 3:0.719165 4:0.088797 5:0.0309006 6:-0.862807 7:-0.999459 8:-0.999938 9:-0.999989 10:0.0504076 11:-0.152507 12:-0.66567 13:-0.847222 14:-0.0339977 15:-0.017859 16:-0.0716871 17:0.182651 18:-0.133655 19:-0.0286882 20:-0.983871 21:-0.987013 22:-1 23:-1 24:-0.829671 25:-0.893264 26:0.0123349 27:0.0689654 28:0.0117895 29:0.0700553 30:0.0118459 31:0.0705364 32:-0.967213 33:-0.987013 34:-0.960476 35:-1 36:0.0120537 37:0.0697594 38:0.0427944 39:0.0200561 40:0.0424084 41:0.0205983 42:0.042258 43:0.0210928 44:-0.984 45:-0.987013 46:-1 47:-1 48:0.0424869 49:0.0205825 50:0.0633982 51:0.0197367 52:0.062714 53:0.0208038 54:0.06285 55:0.0212494 56:-0.96748 57:-0.987013 58:-0.999359 59:-1 60:0.063003 61:0.0205163 62:0.0633256 63:0.0195518 64:0.0632739 65:0.0200382 66:0.062589 67:0.0211001 68:-0.983871 69:-0.974194 70:-1 71:-0.945263 72:0.062974 73:0.0203256 74:0.0132752 75:0.0418699 76:0.0125875 77:0.0429534 78:0.0127672 79:0.0434018 80:-0.966942 81:-0.987013 82:-0.983902 83:-1 84:0.0128707 85:0.0426635 86:0.0195577 87:0.0531159 88:0.0189441 89:0.054207 90:0.0189277 91:0.0546929 92:-0.96748 93:-0.987013 94:-0.981076 95:-1 96:0.0191895 97:0.0539166 98:0.00685792 99:0.0531447 100:0.00778996 101:0.0534463 102:0.00727014 103:0.0545151 104:-0.98374 105:-0.974026 106:-1 107:-0.987247 108:0.00734984 109:0.0537748 110:-0.0130212 111:0.0195124 112:-0.0121505 113:0.0198115 114:-0.0122706 115:0.0212403 116:-0.98374 117:-0.961783 118:-1 119:-0.966877 120:-0.0123607 121:0.0203218 122:0.00753056 123:0.0531982 124:0.00823119 125:0.0535416 126:0.00804438 127:0.0545458 128:-0.98374 129:-0.974194 130:-1 131:-0.990835 132:0.00797517 133:0.0538348 134:0.00727451 135:0.0355591 136:0.00803505 137:0.0363746 138:0.0080217 139:0.0373463 140:-0.967742 141:-0.974026 142:-0.966959 143:-0.989186 144:0.00781719 145:0.0364181 146:0.019793 147:-0.0243666 148:0.0201827 149:-0.0239743 150:0.0201795 151:-0.0230348 152:-0.98374 153:-0.974026 154:-1 155:-0.994796 156:0.0200809 157:-0.0237192 158:0.0131659 159:0.016312 160:0.0136796 161:0.017149 162:0.0139104 163:0.0180458 164:-0.968 165:-0.974026 166:-0.994359 167:-0.994708 168:0.0135955 169:0.0171664 170:0.0130235 171:0.0420378 172:0.0132157 173:0.0424768 174:0.0135581 175:0.0433674 176:-0.98374 177:-0.974026 178:-1 179:-0.998795 180:0.0132956 181:0.042701 182:0.101528 183:-0.0325491 184:-0.0620024 185:-0.0816892 186:-0.0132299 187:-0.0380828 188:-0.983871 189:-0.974194 190:-1 191:-0.981928 
128 1:0.184403 2:-0.845729 3:0.841688 4:0.088797 5:0.0309006 6:-0.862574 7:-0.999546 8:-0.999962 9:-1 10:0.0504076 11:-0.152507 12:-0.66567 13:-0.875 14:-0.0550852 15:0.0100744 16:-0.0833125 17:0.182138 18:-0.135007 19:-0.0566613 20:-1 21:-1 22:-1 23:-1 24:-0.865584 25:-0.893264 26:0.0114771 27:0.0699889 28:0.0114771 29:0.0699889 30:0.0114771 31:0.0699889 32:-1 33:-1 34:-1 35:-1 36:0.0114771 37:0.0699889 38:0.0422641 39:0.0201087 40:0.0422641 41:0.0201087 42:0.0419368 43:0.0210683 44:-1 45:-0.987013 46:-1 47:-1 48:0.0421004 49:0.0205885 50:0.0624992 51:0.0203742 52:0.0624992 53:0.0203742 54:0.0624992 55:0.0203742 56:-1 57:-1 58:-1 59:-1 60:0.0624992 61:0.0203742 62:0.0622141 63:0.020732 64:0.0622141 65:0.020732 66:0.0622141 67:0.020732 68:-1 69:-1 70:-1 71:-1 72:0.0622141 73:0.020732 74:0.0124003 75:0.0419845 76:0.0124003 77:0.0419845 78:0.0122009 79:0.0429504 80:-1 81:-0.987013 82:-1 83:-1 84:0.0123006 85:0.0424674 86:0.0185574 87:0.0536859 88:0.0185574 89:0.0536859 90:0.0185725 91:0.0546467 92:-1 93:-0.987013 94:-1 95:-1 96:0.018565 97:0.0541663 98:0.00698126 99:0.0540436 100:0.00698126 101:0.0540436 102:0.00698126 103:0.0540436 104:-1 105:-1 106:-1 107:-1 108:0.00698126 109:0.0540436 110:-0.0123563 111:0.0200126 112:-0.0123563 113:0.0200126 114:-0.0126665 115:0.0209612 116:-1 117:-0.987261 118:-1 119:-1 120:-0.0125114 121:0.0204869 122:0.00789094 123:0.0537553 124:0.00789094 125:0.0537553 126:0.00771867 127:0.0547243 128:-1 129:-0.987097 130:-1 131:-1 132:0.0078048 133:0.0542398 134:0.00771599 135:0.0363908 136:0.00771599 137:0.0363908 138:0.00771599 139:0.0363908 140:-1 141:-1 142:-1 143:-1 144:0.00771599 145:0.0363908 146:0.0202229 147:-0.02434 148:0.0202229 149:-0.02434 150:0.019934 151:-0.0233919 152:-1 153:-0.987013 154:-1 155:-1 156:0.0200784 157:-0.0238659 158:0.0136344 159:0.0168566 160:0.0134564 161:0.0177949 162:0.0134292 163:0.0187219 164:-0.984 165:-0.987013 166:-1 167:-1 168:0.0135066 169:0.0177912 170:0.013158 171:0.0426811 172:0.013158 173:0.0426811 174:0.0131979 175:0.0436211 176:-1 177:-0.987013 178:-1 179:-1 180:0.0131779 181:0.0431511 182:0.112101 183:-0.0214748 184:-0.0500853 185:-0.103214 186:-0.0276169 187:-0.0482628 188:-1 189:-0.987097 190:-1 191:-1 
128 1:0.184403 2:-0.845729 3:0.841688 4:0.088797 5:0.0309006 6:-0.85648 7:-0.998862 8:-0.999861 9:-0.999964 10:0.0504076 11:-0.152507 12:-0.66567 13:-0.856481 14:-0.0528721 15:-0.028959 16:-0.0855373 17:0.201946 18:-0.131053 19:-0.0183289 20:-0.967742 21:-0.987013 22:-0.999023 23:-1 24:-0.862119 25:-0.893264 26:0.0114787 27:0.0688308 28:0.0117512 29:0.0692715 30:0.0118688 31:0.0707509 32:-0.983607 33:-0.961039 34:-1 35:-0.949304 36:0.0116878 37:0.0697874 38:0.0421645 39:0.019825 40:0.0422698 41:0.0202816 42:0.0421731 43:0.021257 44:-0.984 45:-0.974026 46:-1 47:-0.958514 48:0.0421719 49:0.0205411 50:0.0622063 51:0.0196175 52:0.0626857 53:0.0199889 54:0.0627835 55:0.0214034 56:-0.98374 57:-0.961039 58:-1 59:-0.892905 60:0.0625152 61:0.0205046 62:0.0626116 63:0.0198172 64:0.0623926 65:0.0208218 66:0.0624352 67:0.021288 68:-0.967742 69:-0.987097 70:-0.970176 71:-1 72:0.0625127 73:0.0205562 74:0.0126158 75:0.0421108 76:0.0124084 77:0.0426439 78:0.012314 79:0.0431491 80:-0.983471 81:-0.987013 82:-1 83:-1 84:0.0124461 85:0.0426346 86:0.0187627 87:0.0532908 88:0.0185004 89:0.0543362 90:0.0187252 91:0.0547792 92:-0.96748 93:-0.987013 94:-0.962167 95:-1 96:0.0186899 97:0.0540477 98:0.00715541 99:0.0535701 100:0.00692845 101:0.0541148 102:0.00688115 103:0.054615 104:-0.98374 105:-0.987013 106:-1 107:-1 108:0.00698832 109:0.0541 110:-0.0124158 111:0.019952 112:-0.0127284 113:0.0209731 114:-0.0125668 115:0.0214132 116:-0.96748 117:-0.987261 118:-0.96284 119:-1 120:-0.012536 121:0.0206933 122:0.00794895 123:0.053684 124:0.00767021 125:0.0542409 126:0.0076764 127:0.0547291 128:-0.98374 129:-0.987097 130:-1 131:-1 132:0.00776519 133:0.054218 134:0.00795177 135:0.0358863 136:0.00767663 137:0.0364475 138:0.00748238 139:0.0369837 140:-0.983871 141:-0.987013 142:-1 143:-1 144:0.00770359 145:0.0364392 146:0.0201297 147:-0.0244626 148:0.0196547 149:-0.0233932 150:0.0197367 151:-0.0229367 152:-0.96748 153:-0.987013 154:-0.960476 155:-1 156:0.0198976 157:-0.0236896 158:0.0136942 159:0.0166904 160:0.0133275 161:0.0172546 162:0.0132014 163:0.0177582 164:-0.984 165:-0.987013 166:-1 167:-1 168:0.0134077 169:0.0172344 170:0.0135207 171:0.0419318 172:0.0128908 173:0.0430571 174:0.0130549 175:0.0435042 176:-0.96748 177:-0.987013 178:-0.999359 179:-1 180:0.0131665 181:0.0427482 182:0.121912 183:-0.0396402 184:-0.0393169 185:-0.0900111 186:-0.0401673 187:-0.0305171 188:-0.983871 189:-0.974194 190:-1 191:-0.96124 
5.387204066697842 1:0.223998 2:-0.879215 3:0.834547 4:0.088797 5:0.0309006 6:-0.867849 7:-1 8:-1 9:-1 10:0.0504076 11:-0.152507 12:-0.66567 13:-0.935185 14:-0.0643072 15:0.0100744 16:-0.0944166 17:0.182138 18:-0.144693 19:-0.0566613 20:-1 21:-1 22:-1 23:-1 24:-0.896604 25:-0.893264 26:0.0111207 27:0.0694893 28:0.0111207 29:0.0694893 30:0.0111207 31:0.0694893 32:-1 33:-1 34:-1 35:-1 36:0.0111207 37:0.0694893 38:-0.513564 39:0.478394 40:-0.513564 41:0.478394 42:-0.513564 43:0.478394 44:-1 45:-1 46:-1 47:-1 48:-0.513564 49:0.478394 50:0.0622008 51:0.0203382 52:0.0622008 53:0.0203382 54:0.0622008 55:0.0203382 56:-1 57:-1 58:-1 59:-1 60:0.0622008 61:0.0203382 62:0.0618301 63:0.0199023 64:0.0618301 65:0.0199023 66:0.0618301 67:0.0199023 68:-1 69:-1 70:-1 71:-1 72:0.0618301 73:0.0199023 74:0.0122957 75:0.0424573 76:0.0122957 77:0.0424573 78:0.0122957 79:0.0424573 80:-1 81:-1 82:-1 83:-1 84:0.0122957 85:0.0424573 86:0.0183314 87:0.053529 88:0.0183314 89:0.053529 90:0.0183314 91:0.053529 92:-1 93:-1 94:-1 95:-1 96:0.0183314 97:0.053529 98:-0.563644 99:0.526804 100:-0.563644 101:0.526804 102:-0.563644 103:0.526804 104:-1 105:-1 106:-1 107:-1 108:-0.563644 109:0.526804 110:-0.0124418 111:0.0204469 112:-0.0124418 113:0.0204469 114:-0.0124418 115:0.0204469 116:-1 117:-1 118:-1 119:-1 120:-0.0124418 121:0.0204469 122:0.00753514 123:0.0534643 124:0.00753514 125:0.0534643 126:0.00753514 127:0.0534643 128:-1 129:-1 130:-1 131:-1 132:0.00753514 133:0.0534643 134:0.00807903 135:0.0365065 136:0.00807903 137:0.0365065 138:0.00807903 139:0.0365065 140:-1 141:-1 142:-1 143:-1 144:0.00807903 145:0.0365065 146:0.0201151 147:-0.0238685 148:0.0201151 149:-0.0238685 150:0.0201151 151:-0.0238685 152:-1 153:-1 154:-1 155:-1 156:0.0201151 157:-0.0238685 158:-0.560714 159:0.476552 160:-0.560714 161:0.476552 162:-0.560714 163:0.476552 164:-1 165:-1 166:-1 167:-1 168:-0.560714 169:0.476552 170:0.0137003 171:0.0426958 172:0.0137003 173:0.0426958 174:0.0137003 175:0.0426958 176:-1 177:-1 178:-1 179:-1 180:0.0137003 181:0.0426958 182:0.109306 183:0.00446155 184:-0.0534867 185:-0.0654147 186:-0.024473 187:-0.0733983 188:-1 189:-1 190:-1 191:-1 
128 1:0.194629 2:-0.592707 3:0.799118 4:0.391802 5:0.0309006 6:-0.861456 7:-0.999566 8:-0.999975 9:-0.999996 10:0.0504076 11:-0.152507 12:-0.66567 13:-0.912037 14:-0.0608088 15:0.0100744 16:-0.0902041 17:0.182138 18:-0.141019 19:-0.0566613 20:-1 21:-1 22:-1 23:-1 24:-0.884836 25:-0.893264 26:0.0112628 27:0.0697857 28:0.0112628 29:0.0697857 30:0.0123374 31:0.0696422 32:-1 33:-0.987013 34:-1 35:-1 36:0.0118001 37:0.069714 38:0.0414688 39:0.0206102 40:0.0414688 41:0.0206102 42:0.0424928 43:0.0206333 44:-1 45:-0.987013 46:-1 47:-1 48:0.0419808 49:0.0206218 50:0.0626089 51:0.0204218 52:0.0626089 53:0.0204218 54:0.0626089 55:0.0204218 56:-1 57:-1 58:-1 59:-1 60:0.0626089 61:0.0204218 62:0.0622326 63:0.020425 64:0.0622326 65:0.020425 66:0.0632786 67:0.0204534 68:-1 69:-0.987097 70:-1 71:-1 72:0.0627556 73:0.0204392 74:0.0118123 75:0.0424299 76:0.0118123 77:0.0424299 78:0.0129165 79:0.04244 80:-1 81:-0.987013 82:-1 83:-1 84:0.0123644 85:0.042435 86:0.0186982 87:0.053973 88:0.0186982 89:0.053973 90:0.0197972 91:0.0536943 92:-1 93:-0.987013 94:-1 95:-1 96:0.0192477 97:0.0538336 98:0.00676479 99:0.0538656 100:0.00676479 101:0.0538656 102:0.00781303 103:0.0539735 104:-1 105:-0.987013 106:-1 107:-1 108:0.00728891 109:0.0539195 110:-0.0131047 111:0.0204187 112:-0.0131047 113:0.0204187 114:-0.0120255 115:0.0204214 116:-1 117:-0.987261 118:-1 119:-1 120:-0.0125651 121:0.02042 122:0.00796668 123:0.0539292 124:0.00796668 125:0.0539292 126:0.0090233 127:0.0539525 128:-1 129:-0.987097 130:-1 131:-1 132:0.008495 133:0.0539409 134:0.00760583 135:0.0364073 136:0.00760583 137:0.0364073 138:0.00865148 139:0.036544 140:-1 141:-0.987013 142:-1 143:-1 144:0.00812865 145:0.0364757 146:0.0194802 147:-0.0236815 148:0.0194802 149:-0.0236815 150:0.0205237 151:-0.0236587 152:-1 153:-0.987013 154:-1 155:-1 156:0.0200019 157:-0.0236701 158:0.0136975 159:0.017169 160:0.0136975 161:0.017169 162:0.0147691 163:0.0171378 164:-1 165:-0.987013 166:-1 167:-1 168:0.0142333 169:0.0171534 170:0.0129489 171:0.042523 172:0.0129489 173:0.042523 174:0.014008 175:0.0426282 176:-1 177:-0.987013 178:-1 179:-1 180:0.0134785 181:0.0425756 182:0.0878199 183:0.001077 184:-0.0796293 185:-0.0703473 186:-0.000351492 187:-0.0701209 188:-1 189:-0.987097 190:-1 191:-1 
128 1:0.194629 2:-0.592707 3:0.799118 4:-0.0797772 5:-0.093977 6:-0.856861 7:-0.998809 8:-0.999994 9:-0.999993 10:0.0504076 11:-0.152507 12:-0.66567 13:-0.884259 14:-0.0488258 15:-0.0371176 16:-0.0790347 17:0.163004 18:-0.168831 19:-0.010652 20:-0.983871 21:-0.974026 22:-1 23:-0.973163 24:-0.899532 25:-0.893264 26:0.0118666 27:0.0692987 28:0.0113344 29:0.0698638 30:0.0109687 31:0.0704584 32:-0.983607 33:-0.987013 34:-1 35:-1 36:0.0113899 37:0.0698736 38:0.0424827 39:0.0199109 40:0.0423117 41:0.0205219 42:0.0415466 43:0.0210063 44:-0.984 45:-0.987013 46:-1 47:-1 48:0.0421137 49:0.0204797 50:0.0628983 51:0.0196212 52:0.0627865 53:0.0202442 54:0.0619895 55:0.0207274 56:-0.98374 57:-0.987013 58:-1 59:-1 60:0.0625581 61:0.0201976 62:0.0629171 63:0.0200891 64:0.0620127 65:0.0205543 66:0.0616831 67:0.0211265 68:-0.983871 69:-0.987097 70:-1 71:-1 72:0.0622043 73:0.02059 74:0.0128905 75:0.041883 76:0.0127679 77:0.0425191 78:0.011722 79:0.0429715 80:-0.983471 81:-0.987013 82:-1 83:-1 84:0.0124602 85:0.0424579 86:0.0191689 87:0.0530229 88:0.019111 89:0.0536773 90:0.0179986 91:0.0547786 92:-0.98374 93:-0.974026 94:-1 95:-0.911499 96:0.0185891 97:0.0539034 98:0.00758508 99:0.0534445 100:0.00758508 101:0.0534445 102:0.00637273 103:0.054525 104:-1 105:-0.987013 106:-1 107:-1 108:0.00697891 109:0.0539847 110:-0.0118764 111:0.0198306 112:-0.0118764 113:0.0198306 114:-0.0130082 115:0.0209006 116:-1 117:-0.987261 118:-1 119:-1 120:-0.0124423 121:0.0203656 122:0.00832794 123:0.053066 124:0.00829913 125:0.0537249 126:0.00723725 127:0.0548347 128:-0.98374 129:-0.974194 130:-1 131:-0.924976 132:0.00781072 133:0.0539574 134:0.00826676 135:0.0359922 136:0.00826676 137:0.0359922 138:0.00719007 139:0.0371047 140:-1 141:-0.987013 142:-1 143:-1 144:0.00772839 145:0.0365485 146:0.0204315 147:-0.0242991 148:0.0204315 149:-0.0242991 150:0.0194397 151:-0.0232064 152:-1 153:-0.987013 154:-1 155:-1 156:0.0199356 157:-0.0237527 158:0.0140729 159:0.0163249 160:0.0139235 161:0.0169423 162:0.0128952 163:0.018029 164:-0.984 165:-0.974026 166:-1 167:-0.912206 168:0.013498 169:0.0171813 170:0.0135777 171:0.042157 172:0.0135777 173:0.042157 174:0.0127839 175:0.0433122 176:-1 177:-0.987013 178:-1 179:-1 180:0.0131808 181:0.0427346 182:0.123706 183:-0.0275166 184:-0.0359657 185:-0.112019 186:-0.0406381 187:-0.0424101 188:-1 189:-0.987097 190:-1 191:-1 
2.627003814329469 1:0.176817 2:-0.491498 3:0.752798 4:0.088797 5:0.0309006 6:-0.848931 7:-0.997785 8:-0.9999 9:-0.999924 10:0.0504076 11:-0.152505 12:-0.66567 13:-0.907407 14:-0.0390401 15:0.0100744 16:-0.0639927 17:0.182138 18:-0.118155 19:-0.0566613 20:-1 21:-1 22:-1 23:-1 24:-0.811614 25:-0.893264 26:0.0117428 27:0.0699435 28:0.0117428 29:0.0699435 30:0.0117428 31:0.0699435 32:-1 33:-1 34:-1 35:-1 36:0.0117428 37:0.0699435 38:0.0419168 39:0.0209659 40:0.0419168 41:0.0209659 42:0.0419168 43:0.0209659 44:-1 45:-1 46:-1 47:-1 48:0.0419168 49:0.0209659 50:0.0629589 51:0.0206262 52:0.0629589 53:0.0206262 54:0.0629589 55:0.0206262 56:-1 57:-1 58:-1 59:-1 60:0.0629589 61:0.0206262 62:0.0625362 63:0.0208727 64:0.0625362 65:0.0208727 66:0.0625362 67:0.0208727 68:-1 69:-1 70:-1 71:-1 72:0.0625362 73:0.0208727 74:-0.165579 75:-0.662859 76:-0.165579 77:-0.662859 78:-0.165579 79:-0.662859 80:-1 81:-1 82:-1 83:-1 84:-0.165579 85:-0.662859 86:0.018803 87:0.0541524 88:0.018803 89:0.0541524 90:0.018803 91:0.0541524 92:-1 93:-1 94:-1 95:-1 96:0.018803 97:0.0541524 98:0.00673626 99:0.0542237 100:0.00673626 101:0.0542237 102:0.00673626 103:0.0542237 104:-1 105:-1 106:-1 107:-1 108:0.00673626 109:0.0542237 110:-0.185909 111:-0.669979 112:-0.185909 113:-0.669979 114:-0.185909 115:-0.669979 116:-1 117:-1 118:-1 119:-1 120:-0.185909 121:-0.669979 122:0.0078389 123:0.0540177 124:0.0078389 125:0.0540177 126:0.0078389 127:0.0540177 128:-1 129:-1 130:-1 131:-1 132:0.0078389 133:0.0540177 134:0.00744834 135:0.0366179 136:0.00744834 137:0.0366179 138:0.00744834 139:0.0366179 140:-1 141:-1 142:-1 143:-1 144:0.00744834 145:0.0366179 146:-0.147709 147:-0.71606 148:-0.147709 149:-0.71606 150:-0.147709 151:-0.71606 152:-1 153:-1 154:-1 155:-1 156:-0.147709 157:-0.71606 158:0.0133001 159:0.0171884 160:0.0133001 161:0.0171884 162:0.0133001 163:0.0171884 164:-1 165:-1 166:-1 167:-1 168:0.0133001 169:0.0171884 170:0.0125137 171:0.0428251 172:0.0125137 173:0.0428251 174:0.0125137 175:0.0428251 176:-1 177:-1 178:-1 179:-1 180:0.0125137 181:0.0428251 182:0.109306 183:0.00446155 184:-0.0534867 185:-0.0654147 186:-0.024473 187:-0.0733983 188:-1 189:-1 190:-1 191:-1 
128 1:0.176817 2:-0.491498 3:0.752798 4:0.088797 5:0.164595 6:-0.853666 7:-0.998486 8:-1 9:-1 10:0.0504076 11:-0.152507 12:-0.66567 13:-0.87963 14:-0.0939197 15:0.0367541 16:-0.0890067 17:0.174827 18:-0.105393 19:-0.0785762 20:-0.983871 21:-0.987013 22:-1 23:-1 24:-0.882814 25:-0.893264 26:0.0104513 27:0.0704034 28:0.0113748 29:0.0697192 30:0.012266 31:0.0693512 32:-0.983607 33:-0.987013 34:-1 35:-1 36:0.011364 37:0.0698246 38:0.0416931 39:0.0205702 40:0.0416931 41:0.0205702 42:0.0425675 43:0.0201292 44:-1 45:-0.987013 46:-1 47:-1 48:0.0421303 49:0.0203497 50:0.0618621 51:0.020575 52:0.0618621 53:0.020575 54:0.0627763 55:0.019953 56:-1 57:-0.987013 58:-1 59:-1 60:0.0623192 61:0.020264 62:0.0615317 63:0.0210498 64:0.0615317 65:0.0210498 66:0.0624661 67:0.0202319 68:-1 69:-0.987097 70:-1 71:-1 72:0.061999 73:0.0206409 74:0.0112188 75:0.0431519 76:0.0112188 77:0.0431519 78:0.0121777 79:0.0424646 80:-1 81:-0.987013 82:-1 83:-1 84:0.0116983 85:0.0428083 86:0.0181599 87:0.0539654 88:0.0181599 89:0.0539654 90:0.0190601 91:0.0535445 92:-1 93:-0.987013 94:-1 95:-1 96:0.01861 97:0.0537549 98:0.0063073 99:0.0542933 100:0.0063073 101:0.0542933 102:0.00724651 103:0.0534601 104:-1 105:-0.987013 106:-1 107:-1 108:0.00677688 109:0.0538767 110:-0.0134622 111:0.0210187 112:-0.0134622 113:0.0210187 114:-0.0125381 115:0.0204191 116:-1 117:-0.987261 118:-1 119:-1 120:-0.0130001 121:0.0207189 122:0.00672418 123:0.0544358 124:0.00672418 125:0.0544358 126:0.00761282 127:0.0539374 128:-1 129:-0.987097 130:-1 131:-1 132:0.0071685 133:0.0541866 134:0.00736959 135:0.0366685 136:0.00736959 137:0.0366685 138:0.0083067 139:0.0358469 140:-1 141:-0.987013 142:-1 143:-1 144:0.00783814 145:0.0362577 146:0.0193541 147:-0.0232095 148:0.0193541 149:-0.0232095 150:0.0202718 151:-0.0239863 152:-1 153:-0.987013 154:-1 155:-1 156:0.0198129 157:-0.0235979 158:0.0126228 159:0.0177468 160:0.0126228 161:0.0177468 162:0.0135577 163:0.0169399 164:-1 165:-0.987013 166:-1 167:-1 168:0.0130903 169:0.0173434 170:0.0120475 171:0.0431759 172:0.0120475 173:0.0431759 174:0.0129405 175:0.0426699 176:-1 177:-0.987013 178:-1 179:-1 180:0.012494 181:0.0429229 182:0.0901503 183:0.0278533 184:-0.0767938 185:-0.031324 186:-0.00296682 187:-0.0960673 188:-1 189:-0.987097 190:-1 191:-1 
128 1:0.236464 2:-0.180325 3:0.333639 4:0.128817 5:0.0309006 6:-0.862225 7:-0.999404 8:-1 9:-1 10:0.0504076 11:-0.152507 12:-0.66567 13:-0.962963 14:-0.0912564 15:0.0160511 16:-0.126866 17:0.190748 18:-0.159629 19:-0.0627236 20:-1 21:-0.987013 22:-1 23:-1 24:-0.965844 25:-0.893264 26:0.0108325 27:0.0699229 28:0.0108325 29:0.0699229 30:0.0111684 31:0.0696751 32:-1 33:-0.987013 34:-1 35:-1 36:0.0110005 37:0.069799 38:0.0413806 39:0.020659 40:0.0413806 41:0.020659 42:0.0417265 43:0.020461 44:-1 45:-0.987013 46:-1 47:-1 48:0.0415536 49:0.02056 50:0.061808 51:0.0205613 52:0.061808 53:0.0205613 54:0.0621591 55:0.0203591 56:-1 57:-0.987013 58:-1 59:-1 60:0.0619835 61:0.0204602 62:0.0618047 63:0.0205656 64:0.0618047 65:0.0205656 66:0.0621387 67:0.0203299 68:-1 69:-0.987097 70:-1 71:-1 72:0.0619717 73:0.0204478 74:0.0117543 75:0.0425265 76:0.0117543 77:0.0425265 78:0.0121597 79:0.0423814 80:-1 81:-0.987013 82:-1 83:-1 84:0.011957 85:0.042454 86:0.0180744 87:0.0539492 88:0.0180744 89:0.0539492 90:0.01846 91:0.0537878 92:-1 93:-0.987013 94:-1 95:-1 96:0.0182672 97:0.0538685 98:0.00653835 99:0.0539817 100:0.00653835 101:0.0539817 102:0.00691789 103:0.053816 104:-1 105:-0.987013 106:-1 107:-1 108:0.00672815 109:0.0538989 110:-0.0129815 111:0.0205348 112:-0.0129815 113:0.0205348 114:-0.0126106 115:0.0203442 116:-1 117:-0.987261 118:-1 119:-1 120:-0.012796 121:0.0204395 122:0.00736579 123:0.053959 124:0.00736579 125:0.053959 126:0.00774558 127:0.0537915 128:-1 129:-0.987097 130:-1 131:-1 132:0.00755569 133:0.0538752 134:0.00737446 135:0.0363983 136:0.00737446 137:0.0363983 138:0.00776516 139:0.0362497 140:-1 141:-0.987013 142:-1 143:-1 144:0.00756978 145:0.036324 146:0.0196448 147:-0.0237173 148:0.0196448 149:-0.0237173 150:0.0200274 151:-0.0238682 152:-1 153:-0.987013 154:-1 155:-1 156:0.0198361 157:-0.0237927 158:0.0132698 159:0.0171309 160:0.0132698 161:0.0171309 162:0.0136425 163:0.0169465 164:-1 165:-0.987013 166:-1 167:-1 168:0.0134561 169:0.0170387 170:0.01296 171:0.0426044 172:0.01296 173:0.0426044 174:0.0133616 175:0.0424687 176:-1 177:-0.987013 178:-1 179:-1 180:0.0131608 181:0.0425366 182:0.101368 183:0.00873347 184:-0.0631446 185:-0.0591889 186:-0.0155614 187:-0.0775382 188:-1 189:-0.987097 190:-1 191:-1 
128 1:0.300379 2:-0.197588 3:0.340142 4:0.088797 5:0.0309006 6:-0.858654 7:-0.999489 8:-0.999931 9:-0.999982 10:0.0504076 11:-0.152507 12:-0.66567 13:-0.898148 14:-0.0723395 15:0.0350107 16:-0.104088 17:0.218063 18:-0.157053 19:-0.0819554 20:-1 21:-0.987013 22:-1 23:-1 24:-0.929905 25:-0.893264 26:0.0112733 27:0.0704938 28:0.0112733 29:0.0704938 30:0.0112015 31:0.0695259 32:-1 33:-0.987013 34:-1 35:-1 36:0.0112374 37:0.0700098 38:0.0417522 39:0.0205047 40:0.0417522 41:0.0205047 42:0.0415603 43:0.0195534 44:-1 45:-0.987013 46:-1 47:-1 48:0.0416563 49:0.020029 50:0.062271 51:0.0206239 52:0.062271 53:0.0206239 54:0.0619568 55:0.0196508 56:-1 57:-0.987013 58:-1 59:-1 60:0.0621139 61:0.0201374 62:0.0623186 63:0.0208707 64:0.0623186 65:0.0208707 66:0.0620324 67:0.0199039 68:-1 69:-0.987097 70:-1 71:-1 72:0.0621755 73:0.0203873 74:0.0122877 75:0.0430968 76:0.0122877 77:0.0430968 78:0.0122147 79:0.0421504 80:-1 81:-0.987013 82:-1 83:-1 84:0.0122512 85:0.0426236 86:0.0184314 87:0.0537357 88:0.0184314 89:0.0537357 90:0.0184314 91:0.0537357 92:-1 93:-1 94:-1 95:-1 96:0.0184314 97:0.0537357 98:0.00691252 99:0.0539121 100:0.00691252 101:0.0539121 102:0.00676182 103:0.0529336 104:-1 105:-0.987013 106:-1 107:-1 108:0.00683714 109:0.0534228 110:-0.012486 111:0.0206579 112:-0.012486 113:0.0206579 114:-0.0125988 115:0.0197189 116:-1 117:-0.987261 118:-1 119:-1 120:-0.0125424 121:0.0201884 122:0.00772679 123:0.0542864 124:0.00772679 125:0.0542864 126:0.007706 127:0.0533326 128:-1 129:-0.987097 130:-1 131:-1 132:0.00771643 133:0.0538095 134:0.00772445 135:0.0369494 136:0.00772445 137:0.0369494 138:0.00769824 139:0.0359915 140:-1 141:-0.987013 142:-1 143:-1 144:0.00771137 145:0.0364705 146:0.0198992 147:-0.0229572 148:0.0198992 149:-0.0229572 150:0.0199015 151:-0.0238797 152:-1 153:-0.987013 154:-1 155:-1 156:0.0199003 157:-0.0234184 158:0.0136265 159:0.0181546 160:0.0135157 161:0.0172119 162:0.0134867 163:0.0162797 164:-0.984 165:-0.987013 166:-1 167:-1 168:0.013543 169:0.0172154 170:0.0131677 171:0.0438191 172:0.0132393 173:0.0428912 174:0.0131552 175:0.0419319 176:-0.98374 177:-0.987013 178:-1 179:-1 180:0.0131874 181:0.0428807 182:0.111658 183:0.0308204 184:-0.050625 185:-0.0269997 186:-0.0271136 187:-0.0989426 188:-1 189:-0.987097 190:-1 191:-1 
8.873682471674499 1:0.165429 2:-0.0910589 3:0.269764 4:0.088797 5:0.0309006 6:-0.848449 7:-0.997386 8:-1 9:-1 10:0.0504076 11:-0.152507 12:-0.66567 13:-0.907407 14:-0.0356829 15:0.0100744 16:-0.0599502 17:0.182138 18:-0.114629 19:-0.0566613 20:-1 21:-1 22:-1 23:-1 24:-0.800322 25:-0.893264 26:0.0126394 27:0.069732 28:0.0126394 29:0.069732 30:0.0126394 31:0.069732 32:-1 33:-1 34:-1 35:-1 36:0.0126394 37:0.069732 38:0.0431629 39:0.0205574 40:0.0431629 41:0.0205574 42:0.0431629 43:0.0205574 44:-1 45:-1 46:-1 47:-1 48:0.0431629 49:0.0205574 50:0.0637457 51:0.0204942 52:0.0637457 53:0.0204942 54:0.0637457 55:0.0204942 56:-1 57:-1 58:-1 59:-1 60:0.0637457 61:0.0204942 62:-0.301436 63:0.651551 64:-0.301436 65:0.651551 66:-0.301436 67:0.651551 68:-1 69:-1 70:-1 71:-1 72:-0.301436 73:0.651551 74:0.0121792 75:0.042289 76:0.0121792 77:0.042289 78:0.0121792 79:0.042289 80:-1 81:-1 82:-1 83:-1 84:0.0121792 85:0.042289 86:0.0187364 87:0.0538296 88:0.0187364 89:0.0538296 90:0.0187364 91:0.0538296 92:-1 93:-1 94:-1 95:-1 96:0.0187364 97:0.0538296 98:0.00743638 99:0.0539129 100:0.00743638 101:0.0539129 102:0.00743638 103:0.0539129 104:-1 105:-1 106:-1 107:-1 108:0.00743638 109:0.0539129 110:-0.0116964 111:0.0204738 112:-0.0116964 113:0.0204738 114:-0.0116964 115:0.0204738 116:-1 117:-1 118:-1 119:-1 120:-0.0116964 121:0.0204738 122:0.00905709 123:0.0539345 124:0.00905709 125:0.0539345 126:0.00704905 127:0.0536771 128:-1 129:-0.987097 130:-1 131:-1 132:0.00805306 133:0.0538059 134:0.00922766 135:0.0365023 136:0.00922766 137:0.0365023 138:0.00742381 139:0.0361579 140:-1 141:-0.987013 142:-1 143:-1 144:0.00832574 145:0.0363301 146:0.0198936 147:-0.023841 148:0.0198936 149:-0.023841 150:0.0198936 151:-0.023841 152:-1 153:-1 154:-1 155:-1 156:0.0198936 157:-0.023841 158:0.0136454 159:0.017185 160:0.0136454 161:0.017185 162:0.0136454 163:0.017185 164:-1 165:-1 166:-1 167:-1 168:0.0136454 169:0.017185 170:0.0136278 171:0.0427574 172:0.0136278 173:0.0427574 174:0.0136278 175:0.0427574 176:-1 177:-1 178:-1 179:-1 180:0.0136278 181:0.0427574 182:0.142095 183:0.0164474 184:-0.0135915 185:-0.0479467 186:-0.0612842 187:-0.0850164 188:-1 189:-0.987097 190:-1 191:-1 
128 1:0.222202 2:-0.112949 3:0.0398372 4:0.088797 5:0.0309006 6:-0.852329 7:-0.998563 8:-0.999702 9:-0.999957 10:0.0504076 11:-0.152509 12:-0.66567 13:-0.907407 14:-0.0723575 15:0.0279555 16:-0.10411 17:0.207899 18:-0.129965 19:-0.0747989 20:-1 21:-0.987013 22:-1 23:-1 24:-0.88656 25:-0.893264 26:0.0112178 27:0.0702988 28:0.0112178 29:0.0702988 30:0.0117966 31:0.0695776 32:-1 33:-0.987013 34:-1 35:-1 36:0.0115072 37:0.0699382 38:0.0421667 39:0.0204119 40:0.0421667 41:0.0204119 42:0.0428068 43:0.0198335 44:-1 45:-0.987013 46:-1 47:-1 48:0.0424867 49:0.0201227 50:0.062506 51:0.0204623 52:0.062506 53:0.0204623 54:0.0631432 55:0.0198612 56:-1 57:-0.987013 58:-1 59:-1 60:0.0628246 61:0.0201617 62:0.0622888 63:0.0205516 64:0.0622888 65:0.0205516 66:0.062888 67:0.0198935 68:-1 69:-0.987097 70:-1 71:-1 72:0.0625885 73:0.0202226 74:0.0120603 75:0.042724 76:0.0120603 77:0.042724 78:0.0127212 79:0.0420935 80:-1 81:-0.987013 82:-1 83:-1 84:0.0123908 85:0.0424087 86:0.0181411 87:0.0543631 88:0.0187879 89:0.0537362 90:0.0194416 91:0.053114 92:-0.98374 93:-0.987013 94:-1 95:-1 96:0.0187902 97:0.0537378 98:0.00702115 99:0.0538958 100:0.00702115 101:0.0538958 102:0.00767478 103:0.0532842 104:-1 105:-0.987013 106:-1 107:-1 108:0.00734797 109:0.05359 110:-0.0126632 111:0.0206201 112:-0.0126632 113:0.0206201 114:-0.0120325 115:0.0199774 116:-1 117:-0.987261 118:-1 119:-1 120:-0.0123478 121:0.0202988 122:0.00747797 123:0.0541949 124:0.00747797 125:0.0541949 126:0.00815045 127:0.0536114 128:-1 129:-0.987097 130:-1 131:-1 132:0.00781421 133:0.0539031 134:0.00731502 135:0.0367833 136:0.00790818 137:0.0360793 138:0.00860391 139:0.0355224 140:-0.983871 141:-0.987013 142:-1 143:-1 144:0.0079424 145:0.0361284 146:0.0200183 147:-0.0238556 148:0.0200183 149:-0.0238556 150:0.0206673 151:-0.0244513 152:-1 153:-0.987013 154:-1 155:-1 156:0.0203428 157:-0.0241534 158:0.0134458 159:0.0171291 160:0.0134458 161:0.0171291 162:0.0140859 163:0.0165005 164:-1 165:-0.987013 166:-1 167:-1 168:0.0137659 169:0.0168148 170:0.0129541 171:0.0427164 172:0.0129541 173:0.0427164 174:0.0136019 175:0.0420874 176:-1 177:-0.987013 178:-1 179:-1 180:0.013278 181:0.0424019 182:0.0952981 183:0.019962 184:-0.0705304 185:-0.0428246 186:-0.00874628 187:-0.0884198 188:-1 189:-0.987097 190:-1 191:-1 
128 1:0.213708 2:-0.0716269 3:0.0861577 4:0.088797 5:0.0309006 6:-0.863604 7:-0.999404 8:-1 9:-1 10:0.0504076 11:-0.152507 12:-0.66567 13:-0.907407 14:-0.0511315 15:0.0263762 16:-0.0785519 17:0.205623 18:-0.154115 19:-0.0731971 20:-1 21:-0.987013 22:-1 23:-1 24:-0.889531 25:-0.893264 26:0.0119383 27:0.0704537 28:0.0115565 29:0.0696913 30:0.0107742 31:0.0691575 32:-0.983607 33:-0.987013 34:-1 35:-1 36:0.011423 37:0.0697675 38:0.0423157 39:0.0206429 40:0.0423157 41:0.0206429 42:0.0415824 43:0.0201208 44:-1 45:-0.987013 46:-1 47:-1 48:0.041949 49:0.0203818 50:0.0629689 51:0.0207302 52:0.0629689 53:0.0207302 54:0.0623525 55:0.020136 56:-1 57:-0.987013 58:-1 59:-1 60:0.0626607 61:0.0204331 62:0.0625686 63:0.0203312 64:0.0625686 65:0.0203312 66:0.0616986 67:0.0198717 68:-1 69:-0.987097 70:-1 71:-1 72:0.0621336 73:0.0201015 74:0.0127468 75:0.0426158 76:0.0127468 77:0.0426158 78:0.0119196 79:0.0420993 80:-1 81:-0.987013 82:-1 83:-1 84:0.0123332 85:0.0423576 86:0.0191642 87:0.0543146 88:0.0191642 89:0.0543146 90:0.0185106 91:0.05371 92:-1 93:-0.987013 94:-1 95:-1 96:0.0188374 97:0.0540123 98:0.00797528 99:0.0543887 100:0.00797528 101:0.0543887 102:0.00718477 103:0.0538682 104:-1 105:-0.987013 106:-1 107:-1 108:0.00758003 109:0.0541284 110:-0.012146 111:0.0205722 112:-0.012146 113:0.0205722 114:-0.0130016 115:0.0200873 116:-1 117:-0.987261 118:-1 119:-1 120:-0.0125738 121:0.0203298 122:0.00830849 123:0.0542087 124:0.00830849 125:0.0542087 126:0.00750892 127:0.0536861 128:-1 129:-0.987097 130:-1 131:-1 132:0.00790868 133:0.0539475 134:0.0077976 135:0.0362056 136:0.0077976 137:0.0362056 138:0.0077976 139:0.0362056 140:-1 141:-1 142:-1 143:-1 144:0.0077976 145:0.0362056 146:0.0200768 147:-0.0236797 148:0.0200768 149:-0.0236797 150:0.0200768 151:-0.0236797 152:-1 153:-1 154:-1 155:-1 156:0.0200768 157:-0.0236797 158:0.0139387 159:0.0172709 160:0.0139387 161:0.0172709 162:0.0132176 163:0.0167121 164:-1 165:-0.987013 166:-1 167:-1 168:0.0135781 169:0.0169915 170:0.0130863 171:0.0423178 172:0.0130863 173:0.0423178 174:0.0130863 175:0.0423178 176:-1 177:-1 178:-1 179:-1 180:0.0130863 181:0.0423178 182:0.109306 183:0.00446155 184:-0.0534867 185:-0.0654147 186:-0.024473 187:-0.0733983 188:-1 189:-1 190:-1 191:-1 
81.693742635007 1:0.214363 2:-0.0708172 3:0.0567536 4:0.088797 5:0.0309006 6:-0.852329 7:-0.998563 8:-0.999702 9:-0.999957 10:0.0504076 11:-0.152509 12:-0.66567 13:-0.907407 14:-0.0721836 15:0.0279571 16:-0.1039 17:0.207901 18:-0.0992485 19:-0.0748017 20:-1 21:-0.987013 22:-1 23:-1 24:-0.837084 25:-0.893264 26:0.0108487 27:0.0702526 28:0.0108487 29:0.0702526 30:0.0122872 31:0.0695579 32:-1 33:-0.987013 34:-1 35:-1 36:0.011568 37:0.0699052 38:0.04256 39:0.0204849 40:0.04256 41:0.0204849 42:0.04256 43:0.0204849 44:-1 45:-1 46:-1 47:-1 48:0.04256 49:0.0204849 50:0.0625475 51:0.0204922 52:0.0625475 53:0.0204922 54:0.0639863 55:0.0198413 56:-1 57:-0.987013 58:-1 59:-1 60:0.0632669 61:0.0201668 62:0.0621831 63:0.0206107 64:0.0621831 65:0.0206107 66:0.0637193 67:0.0199707 68:-1 69:-0.987097 70:-1 71:-1 72:0.0629512 73:0.0202907 74:0.0118655 75:0.0427708 76:0.0118655 77:0.0427708 78:0.0133475 79:0.042088 80:-1 81:-0.987013 82:-1 83:-1 84:0.0126065 85:0.0424294 86:0.0179455 87:0.0543942 88:0.0179455 89:0.0543942 90:0.0192476 91:0.0536753 92:-1 93:-0.987013 94:-1 95:-1 96:0.0185966 97:0.0540348 98:0.00732948 99:0.0538047 100:0.00732948 101:0.0538047 102:0.00857872 103:0.0530924 104:-1 105:-0.987013 106:-1 107:-1 108:0.00795412 109:0.0534485 110:-0.0125176 111:0.0204622 112:-0.0125176 113:0.0204622 114:-0.0109225 115:0.0198216 116:-1 117:-0.987261 118:-1 119:-1 120:-0.01172 121:0.0201419 122:0.00739194 123:0.0540485 124:0.00739194 125:0.0540485 126:0.00873372 127:0.0533403 128:-1 129:-0.987097 130:-1 131:-1 132:0.0080628 133:0.0536944 134:0.00734723 135:0.0367502 136:0.00734723 137:0.0367502 138:0.00846642 139:0.0359966 140:-1 141:-0.987013 142:-1 143:-1 144:0.00790682 145:0.0363734 146:0.0202822 147:-0.0239041 148:0.0202822 149:-0.0239041 150:0.0202822 151:-0.0239041 152:-1 153:-1 154:-1 155:-1 156:0.0202822 157:-0.0239041 158:0.013623 159:0.0171254 160:0.013623 161:0.0171254 162:0.0146803 163:0.016388 164:-1 165:-0.987013 166:-1 167:-1 168:0.0141517 169:0.0167567 170:0.0129582 171:0.042759 172:0.0129582 173:0.042759 174:0.0138377 175:0.041972 176:-1 177:-0.987013 178:-1 179:-1 180:0.0133979 181:0.0423655 182:0.0953721 183:0.0269402 184:-0.0704403 185:-0.0326547 186:-0.00883189 187:-0.0951809 188:-1 189:-0.987097 190:-1 191:-1 
128 1:0.236084 2:-0.0395871 3:0.0538012 4:0.0209436 5:0.0309006 6:-0.841006 7:-0.996701 8:-0.999905 9:-0.999859 10:0.0504076 11:-0.152501 12:-0.66567 13:-0.865741 14:-0.087682 15:0.0488371 16:-0.101552 17:0.18726 18:-0.144792 19:-0.0995835 20:-0.983871 21:-0.987013 22:-1 23:-1 24:-0.929563 25:-0.893264 26:0.011262 27:0.0700213 28:0.011262 29:0.0700213 30:0.0115695 31:0.0692258 32:-1 33:-0.987013 34:-1 35:-1 36:0.0114157 37:0.0696236 38:0.0418127 39:0.0208288 40:0.0418127 41:0.0208288 42:0.0420446 43:0.020027 44:-1 45:-0.987013 46:-1 47:-1 48:0.0419286 49:0.0204279 50:0.0621259 51:0.0206417 52:0.0624716 53:0.0199078 54:0.0627962 55:0.0191573 56:-0.98374 57:-0.987013 58:-1 59:-1 60:0.0624645 61:0.0199023 62:0.0622628 63:0.0205867 64:0.0622628 65:0.0205867 66:0.0625028 67:0.0197831 68:-1 69:-0.987097 70:-1 71:-1 72:0.0623828 73:0.0201849 74:0.0120927 75:0.0428161 76:0.0120927 77:0.0428161 78:0.0123372 79:0.0419896 80:-1 81:-0.987013 82:-1 83:-1 84:0.012215 85:0.0424029 86:0.0182912 87:0.0544996 88:0.0182912 89:0.0544996 90:0.0186008 91:0.0537111 92:-1 93:-0.987013 94:-1 95:-1 96:0.018446 97:0.0541053 98:0.00672519 99:0.0547337 100:0.0069909 101:0.0539196 102:0.00718485 103:0.0530532 104:-0.98374 105:-0.987013 106:-1 107:-1 108:0.00696699 109:0.0539022 110:-0.0126043 111:0.0206379 112:-0.0126043 113:0.0206379 114:-0.0123488 115:0.019835 116:-1 117:-0.987261 118:-1 119:-1 120:-0.0124765 121:0.0202365 122:0.00766623 123:0.0542918 124:0.00766623 125:0.0542918 126:0.00791198 127:0.0534596 128:-1 129:-0.987097 130:-1 131:-1 132:0.00778908 133:0.0538757 134:0.00758606 135:0.0369655 136:0.00758606 137:0.0369655 138:0.00780125 139:0.036111 140:-1 141:-0.987013 142:-1 143:-1 144:0.00769366 145:0.0365383 146:0.0194458 147:-0.0230844 148:0.0198871 149:-0.0237687 150:0.0202366 151:-0.0245131 152:-0.98374 153:-0.987013 154:-1 155:-1 156:0.0198565 157:-0.0237888 158:0.0134119 159:0.0174037 160:0.0134119 161:0.0174037 162:0.0137208 163:0.0166292 164:-1 165:-0.987013 166:-1 167:-1 168:0.0135663 169:0.0170165 170:0.0129843 171:0.0431515 172:0.0129843 173:0.0431515 174:0.0132164 175:0.0423144 176:-1 177:-0.987013 178:-1 179:-1 180:0.0131004 181:0.042733 182:0.0993483 183:0.04978 184:-0.0519797 185:-0.0637113 186:-0.0146796 187:-0.118446 188:-0.983871 189:-0.987097 190:-1 191:-1 
16.1794541786825 1:0.19315 2:-0.0810248 3:0.00249357 4:0.088797 5:0.0309006 6:-0.840328 7:-0.99617 8:-0.999924 9:-0.999931 10:0.0504076 11:-0.152505 12:-0.66567 13:-0.865741 14:-0.0843116 15:0.0697059 16:-0.118504 17:0.268047 18:-0.145362 19:-0.117148 20:-1 21:-0.987013 22:-1 23:-1 24:-0.931318 25:-0.893264 26:0.0112326 27:0.0709917 28:0.0112326 29:0.0709917 30:0.0115239 31:0.0689666 32:-1 33:-0.987013 34:-1 35:-1 36:0.0113782 37:0.0699792 38:0.041769 39:0.0204981 40:0.041769 41:0.0204981 42:0.041769 43:0.0204981 44:-1 45:-1 46:-1 47:-1 48:0.041769 49:0.0204981 50:0.0619423 51:0.0211241 52:0.0619423 53:0.0211241 54:0.062413 55:0.0189707 56:-1 57:-0.987013 58:-1 59:-1 60:0.0621777 61:0.0200474 62:0.0625487 63:0.019203 64:0.0625487 65:0.019203 66:0.0625487 67:0.019203 68:-1 69:-1 70:-1 71:-1 72:0.0625487 73:0.019203 74:0.0124363 75:0.0417694 76:0.0124363 77:0.0417694 78:0.0124363 79:0.0417694 80:-1 81:-1 82:-1 83:-1 84:0.0124363 85:0.0417694 86:0.0186523 87:0.053681 88:0.0186523 89:0.053681 90:0.0186523 91:0.053681 92:-1 93:-1 94:-1 95:-1 96:0.0186523 97:0.053681 98:0.142644 99:0.793721 100:0.142644 101:0.793721 102:0.142644 103:0.793721 104:-1 105:-1 106:-1 107:-1 108:0.142644 109:0.793721 110:-0.0122747 111:0.019332 112:-0.0122747 113:0.019332 114:-0.0122747 115:0.019332 116:-1 117:-1 118:-1 119:-1 120:-0.0122747 121:0.019332 122:0.00813481 123:0.0531376 124:0.00813481 125:0.0531376 126:0.00813481 127:0.0531376 128:-1 129:-1 130:-1 131:-1 132:0.00813481 133:0.0531376 134:0.00807328 135:0.0360491 136:0.00807328 137:0.0360491 138:0.00807328 139:0.0360491 140:-1 141:-1 142:-1 143:-1 144:0.00807328 145:0.0360491 146:0.0199469 147:-0.0232801 148:0.0199469 149:-0.0232801 150:0.0199469 151:-0.0232801 152:-1 153:-1 154:-1 155:-1 156:0.0199469 157:-0.0232801 158:0.0133486 159:0.0181472 160:0.0133486 161:0.0181472 162:0.0135533 163:0.0163065 164:-1 165:-0.987013 166:-1 167:-1 168:0.013451 169:0.0172269 170:0.0129958 171:0.0440281 172:0.0129958 173:0.0440281 174:0.013242 175:0.0420885 176:-1 177:-0.987013 178:-1 179:-1 180:0.0131189 181:0.0430583 182:0.109306 183:0.00446155 184:-0.0534867 185:-0.0654147 186:-0.024473 187:-0.0733983 188:-1 189:-1 190:-1 191:-1 
128 1:0.232555 2:-0.0342664 3:-0.172096 4:0.088797 5:0.0309006 6:-0.793011 7:-0.987658 8:-0.999942 9:-0.999935 10:0.0504076 11:-0.152509 12:-0.66567 13:-0.810185 14:-0.0503869 15:0.106358 16:-0.0763989 17:0.265434 18:-0.185618 19:-0.154977 20:-0.983871 21:-0.948052 22:-1 23:-0.917311 24:-0.931538 25:-0.893264 26:0.0118507 27:0.0711223 28:0.0105834 29:0.0688637 30:0.0105181 31:0.0673385 32:-0.95082 33:-0.974026 34:-0.929271 35:-0.998814 36:0.0110884 37:0.0692369 38:0.0423774 39:0.0220235 40:0.0412204 41:0.0198689 42:0.0410414 43:0.0184115 44:-0.952 45:-0.974026 46:-0.927449 47:-0.988825 48:0.0416653 49:0.0202241 50:0.0627823 51:0.0221335 52:0.0628008 53:0.0214146 54:0.0614703 55:0.0185185 56:-0.98374 57:-0.948052 58:-1 59:-0.887918 60:0.0621408 61:0.0203321 62:0.0627774 63:0.022356 64:0.0628519 65:0.0216353 66:0.0614921 67:0.0187407 68:-0.983871 69:-0.948387 70:-1 71:-0.91599 72:0.0622011 73:0.0205537 74:0.0127514 75:0.0439064 76:0.0115514 77:0.0416932 78:0.0113595 79:0.0401983 80:-0.950413 81:-0.974026 82:-0.927975 83:-0.997735 84:0.0119933 85:0.0420589 86:0.0190777 87:0.0555907 88:0.0178957 89:0.0533536 90:0.0177066 91:0.051841 92:-0.95122 93:-0.974026 94:-0.922095 95:-0.998383 96:0.0183391 97:0.0537225 98:0.00760111 99:0.0558433 100:0.00629171 101:0.0528514 102:0.00624049 103:0.0520944 104:-0.934959 105:-0.987013 106:-0.926642 107:-1 108:0.00691799 109:0.0539754 110:-0.0119576 111:0.0218914 112:-0.0131723 113:0.019716 114:-0.0132742 115:0.0182487 116:-0.95122 117:-0.974522 118:-0.941915 119:-0.988427 120:-0.0127392 121:0.020076 122:0.00835527 123:0.0556615 124:0.00719023 125:0.0534152 126:0.00708646 127:0.0518988 128:-0.95122 129:-0.974194 130:-0.918775 131:-0.996212 132:0.00764204 133:0.0537863 134:0.00838003 135:0.0383668 136:0.00730239 137:0.0361145 138:0.00703262 139:0.034591 140:-0.951613 141:-0.974026 142:-0.917564 143:-0.986996 144:0.00768024 145:0.0364854 146:0.0206435 147:-0.0222645 148:0.0193793 149:-0.0244536 150:0.0192971 151:-0.025192 152:-0.95122 153:-0.987013 154:-0.971076 155:-1 156:0.0199178 157:-0.0237231 158:0.0142312 159:0.0188312 160:0.0130882 161:0.0166409 162:0.0128499 163:0.0151609 164:-0.952 165:-0.974026 166:-0.946549 167:-0.98243 168:0.0134623 169:0.0170026 170:0.0139381 171:0.0445608 172:0.0127791 173:0.042331 174:0.0125338 175:0.0408229 176:-0.95122 177:-0.974026 178:-0.933819 179:-0.994985 180:0.0131909 181:0.0426987 182:0.140827 183:0.0859318 184:-0.0803088 185:-0.124961 186:-0.0490484 187:-0.152859 188:-0.951613 189:-0.987097 190:-0.978951 191:-1 
128 1:0.246416 2:0.00870395 3:-0.019011 4:0.542975 5:0.0309006 6:-0.863604 7:-0.999404 8:-1 9:-1 10:0.0504076 11:-0.152507 12:-0.66567 13:-0.907407 14:-0.0573254 15:0.0100744 16:-0.0860099 17:0.182138 18:-0.13736 19:-0.0566613 20:-1 21:-1 22:-1 23:-1 24:-0.873119 25:-0.893264 26:0.0118136 27:0.0699749 28:0.0118136 29:0.0699749 30:0.0111876 31:0.0692534 32:-1 33:-0.987013 34:-1 35:-1 36:0.0115006 37:0.0696142 38:0.0419331 39:0.0201292 40:0.0419331 41:0.0201292 42:0.0419331 43:0.0201292 44:-1 45:-1 46:-1 47:-1 48:0.0419331 49:0.0201292 50:0.0624421 51:0.0202454 52:0.0624421 53:0.0202454 54:0.0624421 55:0.0202454 56:-1 57:-1 58:-1 59:-1 60:0.0624421 61:0.0202454 62:0.062523 63:0.0205002 64:0.062523 65:0.0205002 66:0.062523 67:0.0205002 68:-1 69:-1 70:-1 71:-1 72:0.062523 73:0.0205002 74:0.01245 75:0.0429074 76:0.01245 77:0.0429074 78:0.01245 79:0.0429074 80:-1 81:-1 82:-1 83:-1 84:0.01245 85:0.0429074 86:0.0185348 87:0.0535696 88:0.0185348 89:0.0535696 90:0.0185348 91:0.0535696 92:-1 93:-1 94:-1 95:-1 96:0.0185348 97:0.0535696 98:0.00711625 99:0.0537443 100:0.00711625 101:0.0537443 102:0.00711625 103:0.0537443 104:-1 105:-1 106:-1 107:-1 108:0.00711625 109:0.0537443 110:-0.0124992 111:0.0207202 112:-0.0124992 113:0.0207202 114:-0.0124992 115:0.0207202 116:-1 117:-1 118:-1 119:-1 120:-0.0124992 121:0.0207202 122:0.00790949 123:0.0545571 124:0.00790949 125:0.0545571 126:0.00790949 127:0.0545571 128:-1 129:-1 130:-1 131:-1 132:0.00790949 133:0.0545571 134:0.00788195 135:0.0361579 136:0.00788195 137:0.0361579 138:0.00788195 139:0.0361579 140:-1 141:-1 142:-1 143:-1 144:0.00788195 145:0.0361579 146:0.0200243 147:-0.0235709 148:0.0200243 149:-0.0235709 150:0.0200243 151:-0.0235709 152:-1 153:-1 154:-1 155:-1 156:0.0200243 157:-0.0235709 158:0.0135948 159:0.0176024 160:0.0135948 161:0.0176024 162:0.0135948 163:0.0176024 164:-1 165:-1 166:-1 167:-1 168:0.0135948 169:0.0176024 170:0.0132502 171:0.0434114 172:0.0132502 173:0.0434114 174:0.0132502 175:0.0434114 176:-1 177:-1 178:-1 179:-1 180:0.0132502 181:0.0434114 182:0.109306 183:0.00446155 184:-0.0534867 185:-0.0654147 186:-0.024473 187:-0.0733983 188:-1 189:-1 190:-1 191:-1 
128 1:0.246416 2:0.00870395 3:-0.019011 4:0.088797 5:-0.168222 6:-0.849155 7:-0.998463 8:-0.999705 9:-0.999848 10:0.0504076 11:-0.152505 12:-0.66567 13:-0.893519 14:-0.073406 15:0.0360509 16:-0.0873034 17:0.200651 18:-0.131046 19:-0.0863117 20:-0.983871 21:-0.974026 22:-1 23:-0.981289 24:-0.882144 25:-0.893264 26:0.011219 27:0.070272 28:0.0117033 29:0.0700536 30:0.0117321 31:0.0691469 32:-0.983607 33:-0.974026 34:-1 35:-0.974546 36:0.0115726 37:0.0697582 38:0.0417319 39:0.0210167 40:0.0422115 41:0.0208116 42:0.0421721 43:0.0199109 44:-0.984 45:-0.974026 46:-1 47:-0.988745 48:0.0420862 49:0.0205304 50:0.0626152 51:0.0207273 52:0.0626641 53:0.0203119 54:0.0625133 55:0.0197941 56:-0.98374 57:-0.987013 58:-1 59:-1 60:0.0625975 61:0.0202778 62:0.0624528 63:0.0207234 64:0.0626624 65:0.0203842 66:0.0622857 67:0.0197549 68:-0.983871 69:-0.987097 70:-1 71:-1 72:0.062467 73:0.0202875 74:0.012429 75:0.0427988 76:0.0125735 77:0.0424156 78:0.0121579 79:0.0417637 80:-0.983471 81:-0.987013 82:-1 83:-1 84:0.0123868 85:0.042326 86:0.0186225 87:0.0542131 88:0.0189092 89:0.0538952 90:0.018579 91:0.0532728 92:-0.98374 93:-0.987013 94:-1 95:-1 96:0.0187036 97:0.0537937 98:0.00692757 99:0.0541707 100:0.00733255 101:0.0539097 102:0.0072672 103:0.0534178 104:-0.98374 105:-0.987013 106:-1 107:-1 108:0.0071758 109:0.0538327 110:-0.0127841 111:0.0206859 112:-0.0122364 113:0.0204921 114:-0.0121314 115:0.0200963 116:-0.98374 117:-0.987261 118:-1 119:-1 120:-0.012384 121:0.0204248 122:0.00736611 123:0.0541613 124:0.00794822 125:0.0539794 126:0.00809899 127:0.0535926 128:-0.98374 129:-0.987097 130:-1 131:-1 132:0.00780444 133:0.0539111 134:0.00703944 135:0.0365515 136:0.00786192 137:0.0364799 138:0.00802942 139:0.0360991 140:-0.983871 141:-0.987013 142:-1 143:-1 144:0.00764362 145:0.0363768 146:0.0189272 147:-0.0236681 148:0.0199812 149:-0.0236297 150:0.0201705 151:-0.0239886 152:-0.98374 153:-0.987013 154:-1 155:-1 156:0.019693 157:-0.0237622 158:0.012269 159:0.0171258 160:0.0134542 161:0.0172095 162:0.0137974 163:0.0169186 164:-0.984 165:-0.987013 166:-1 167:-1 168:0.0131735 169:0.0170846 170:0.0118704 171:0.0426131 172:0.0130842 173:0.0427077 174:0.0133993 175:0.0423965 176:-0.98374 177:-0.987013 178:-1 179:-1 180:0.0127847 181:0.0425724 182:0.100702 183:0.0116216 184:-0.0639559 185:-0.0549798 186:-0.0148129 187:-0.0803371 188:-1 189:-0.987097 190:-1 191:-1 
128 1:0.220322 2:-0.0592794 3:-0.120469 4:0.0482763 5:-0.188625 6:-0.863604 7:-0.999404 8:-1 9:-1 10:0.0504076 11:-0.152507 12:-0.66567 13:-0.907407 14:-0.0735672 15:-0.00432236 16:-0.129854 17:0.176367 18:-0.180247 19:-0.0373929 20:-0.951613 21:-0.948052 22:-0.987387 23:-0.974552 24:-0.987891 25:-0.893264 26:0.0111867 27:0.0694847 28:0.01066 29:0.0698124 30:0.0108015 31:0.0702301 32:-0.934426 33:-0.961039 34:-0.985857 35:-0.966506 36:0.0108164 37:0.0698009 38:0.041984 39:0.0202387 40:0.0411778 41:0.0207041 42:0.041713 43:0.0211243 44:-0.904 45:-0.974026 46:-0.942718 47:-0.980013 48:0.0414588 49:0.0205593 50:0.0623414 51:0.0201499 52:0.0617808 53:0.0203468 54:0.0618175 55:0.0208292 56:-0.95122 57:-0.948052 58:-0.982578 59:-0.958762 60:0.061871 61:0.0204301 62:0.0622145 63:0.0201537 64:0.0616351 65:0.0204603 66:0.0620235 67:0.0209388 68:-0.935484 69:-0.96129 70:-0.968606 71:-0.959442 72:0.0618244 73:0.0204581 74:0.012309 75:0.0420988 76:0.0116496 77:0.0425263 78:0.0123229 79:0.0431002 80:-0.917355 81:-0.961039 82:-0.960574 83:-0.968982 84:0.0118988 85:0.0424778 86:0.0193212 87:0.0537358 88:0.0183246 89:0.0536038 90:0.0182448 91:0.0543194 92:-0.98374 93:-0.922078 94:-1 95:-0.938882 96:0.0182737 97:0.0538913 98:0.00742593 99:0.0536711 100:0.0065043 101:0.0537948 102:0.00703043 103:0.0544499 104:-0.95122 105:-0.948052 106:-0.955903 107:-0.925992 108:0.0067242 109:0.0539175 110:-0.0122843 111:0.0200772 112:-0.0130598 113:0.0204764 114:-0.0121732 115:0.0210979 116:-0.918699 117:-0.961783 118:-0.958238 119:-0.957718 120:-0.0127454 121:0.0204444 122:0.00791204 123:0.0535106 124:0.00736533 125:0.0538594 126:0.00768711 127:0.0543248 128:-0.934959 129:-0.96129 130:-0.970935 131:-0.970186 132:0.00753575 133:0.0538451 134:0.00775972 135:0.0359561 136:0.00732235 137:0.0363339 138:0.00786634 139:0.0368684 140:-0.935484 141:-0.961039 142:-0.969902 143:-0.97267 144:0.00750625 145:0.0363247 146:0.0202589 147:-0.0241706 148:0.0195428 149:-0.0237477 150:0.0204421 151:-0.0231235 152:-0.918699 153:-0.961039 154:-0.961053 155:-0.965045 156:0.0198451 157:-0.0237851 158:0.0137941 159:0.0166888 160:0.0131514 161:0.0171351 162:0.0140216 163:0.017745 164:-0.92 165:-0.961039 166:-0.968774 167:-0.97601 168:0.0134567 169:0.0170965 170:0.0134159 171:0.0421605 172:0.012865 173:0.0426391 174:0.0134149 175:0.0430378 176:-0.918699 177:-0.974026 178:-0.961131 179:-0.979511 180:0.0130864 181:0.042514 182:0.118402 183:-0.01635 184:-0.0662486 185:-0.0561952 186:-0.000746855 187:-0.0428053 188:-0.919355 189:-0.974194 190:-0.967059 191:-0.988138 
128 1:0.229323 2:0.0244058 3:-0.331884 4:0.088797 5:0.00770592 6:-0.782636 7:-0.987697 8:-0.998482 9:-0.997904 10:0.0504101 11:-0.152366 12:-0.665668 13:-0.740741 14:-0.0686075 15:0.127439 16:-0.131245 17:0.158759 18:-0.172928 19:-0.176204 20:-0.935484 21:-0.961039 22:-0.910713 23:-0.926072 24:-0.955647 25:-0.893264 26:0.0114736 27:0.0716727 28:0.0108769 29:0.0677398 30:0.00885045 31:0.067065 32:-0.918033 33:-0.987013 34:-0.887446 35:-1 36:0.0107858 37:0.0694268 38:0.0420116 39:0.0225556 40:0.0415085 41:0.0188012 42:0.0400667 43:0.0181641 44:-0.92 45:-0.987013 46:-0.942405 47:-1 48:0.0415089 49:0.0204102 50:0.0625933 51:0.022644 52:0.0619466 53:0.0188933 54:0.0615121 55:0.0182616 56:-0.902439 57:-0.987013 58:-0.895818 59:-1 60:0.0621152 61:0.0204587 62:0.0625907 63:0.0222159 64:0.0618099 65:0.0184594 66:0.0593143 67:0.0178027 68:-0.919355 69:-0.987097 70:-0.922787 71:-1 72:0.0617662 73:0.020069 74:0.0127271 75:0.0444714 76:0.0118849 77:0.040637 78:0.0101326 79:0.0399778 80:-0.917355 81:-0.987013 82:-0.892751 83:-1 84:0.0119559 85:0.0422814 86:0.0188915 87:0.056154 88:0.0190454 89:0.0554983 90:0.0176899 91:0.0516109 92:-0.98374 93:-0.922078 94:-1 95:-0.954199 96:0.0184473 97:0.0538872 98:0.00749908 99:0.055715 100:0.00639662 101:0.053139 102:0.00649924 103:0.0518271 104:-0.934959 105:-0.974026 106:-0.905695 107:-0.947357 108:0.00694602 109:0.0537773 110:-0.0120237 111:0.0224393 112:-0.0130012 113:0.0186717 114:-0.0149381 115:0.0180167 116:-0.902439 117:-0.987261 118:-0.925984 119:-1 120:-0.012779 121:0.0202415 122:0.00821169 123:0.0562154 124:0.00826534 125:0.0549131 126:0.00668599 127:0.0516557 128:-0.96748 129:-0.935484 130:-0.93747 131:-0.929552 132:0.00773831 133:0.0539409 134:0.00834212 135:0.0382419 136:0.00709072 137:0.0356514 138:0.00723055 139:0.0343301 140:-0.935484 141:-0.974026 142:-0.851468 143:-0.964189 144:0.00775775 145:0.0362923 146:0.0206105 147:-0.0217139 148:0.0195159 149:-0.0254992 150:0.0175475 151:-0.0261632 152:-0.902439 153:-0.987013 154:-0.91649 155:-1 156:0.0198002 157:-0.0239223 158:0.0143039 159:0.0187686 160:0.0129641 161:0.0162545 162:0.0126703 163:0.014969 164:-0.936 165:-0.974026 166:-0.916268 167:-0.90292 168:0.0135629 169:0.0168778 170:0.01395 171:0.0445625 172:0.0126027 173:0.0420026 174:0.0127061 175:0.0406956 176:-0.934959 177:-0.974026 178:-0.854624 179:-0.971297 180:0.0133418 181:0.0426348 182:0.138798 183:0.127773 184:-0.0732109 185:-0.193566 186:-0.119454 187:-0.194361 188:-0.903226 189:-0.987097 190:-0.856668 191:-1 
128 1:0.214913 2:-0.028483 3:-0.334397 4:0.088797 5:0.0309006 6:-0.844305 7:-0.996911 8:-0.999918 9:-0.999935 10:0.0504076 11:-0.152507 12:-0.66567 13:-0.884259 14:-0.0928008 15:-0.0398939 16:-0.127166 17:0.206261 18:-0.155574 19:-0.00637564 20:-0.967742 21:-0.987013 22:-0.962591 23:-1 24:-0.979414 25:-0.893264 26:0.0106455 27:0.0691785 28:0.0107181 29:0.069826 30:0.0114756 31:0.0711133 32:-0.983607 33:-0.974026 34:-1 35:-0.984882 36:0.0109692 37:0.0701465 38:0.0413565 39:0.0197262 40:0.0412891 41:0.0203501 42:0.0419093 43:0.0215788 44:-0.984 45:-0.974026 46:-1 47:-0.966558 48:0.0415086 49:0.0206551 50:0.0617699 51:0.0194113 52:0.0617753 53:0.020654 54:0.0622185 55:0.0212657 56:-0.96748 57:-0.987013 58:-0.988917 59:-1 60:0.0618743 61:0.0203413 62:0.0617105 63:0.0198222 64:0.0617501 65:0.0204422 66:0.0625107 67:0.0216734 68:-0.983871 69:-0.974194 70:-1 71:-0.969156 72:0.0619983 73:0.0207488 74:0.011736 75:0.0416168 76:0.0118523 77:0.0428844 78:0.0122715 79:0.0435135 80:-0.966942 81:-0.987013 82:-0.973055 83:-1 84:0.0118894 85:0.042567 86:0.0181832 87:0.0528225 88:0.0180988 89:0.0541115 90:0.0189188 91:0.0553876 92:-0.96748 93:-0.974026 94:-0.984696 95:-0.995395 96:0.0183647 97:0.0541074 98:0.00660513 99:0.0532513 100:0.00655409 101:0.0538958 102:0.00723187 103:0.0551721 104:-0.98374 105:-0.974026 106:-1 107:-0.975041 108:0.00679947 109:0.054213 110:-0.0128075 111:0.0195681 112:-0.0128352 113:0.0208161 114:-0.0123567 115:0.0214327 116:-0.96748 117:-0.987261 118:-0.963381 119:-1 120:-0.012736 121:0.0205033 122:0.00766364 123:0.052718 124:0.00748155 125:0.0540136 126:0.00824675 127:0.0552941 128:-0.96748 129:-0.974194 130:-0.94657 131:-0.982515 132:0.00771164 133:0.0540102 134:0.00743335 135:0.0355816 136:0.0076174 137:0.0368695 138:0.00806428 139:0.0375118 140:-0.967742 141:-0.987013 142:-0.968563 143:-1 144:0.00763377 145:0.0365477 146:0.0197741 147:-0.0247081 148:0.0197369 149:-0.0234554 150:0.0201832 151:-0.0228354 152:-0.96748 153:-0.987013 154:-0.965141 155:-1 156:0.0198297 157:-0.0237691 158:0.0132587 159:0.0165759 160:0.0133043 161:0.0172005 162:0.0140092 163:0.0184479 164:-0.984 165:-0.974026 166:-1 167:-0.983769 168:0.0135424 169:0.0175116 170:0.0129412 171:0.0418324 172:0.0129531 173:0.0424691 174:0.0135435 175:0.0437382 176:-0.98374 177:-0.974026 178:-1 179:-0.979548 180:0.0131537 181:0.0427855 182:0.107504 183:-0.0478202 184:-0.057345 185:-0.0399845 186:-0.0110861 187:-0.0229303 188:-0.967742 189:-0.987097 190:-0.964995 191:-1 
128 1:0.193087 2:0.0712799 3:-0.467653 4:0.088797 5:0.0309006 6:-0.867849 7:-1 8:-1 9:-1 10:0.0504076 11:-0.152507 12:-0.66567 13:-0.935185 14:-0.0874269 15:0.0100744 16:-0.122255 17:0.182138 18:-0.168975 19:-0.0566613 20:-1 21:-1 22:-1 23:-1 24:-0.974369 25:-0.893264 26:0.0106954 27:0.0698436 28:0.0106954 29:0.0698436 30:0.0106954 31:0.0698436 32:-1 33:-1 34:-1 35:-1 36:0.0106954 37:0.0698436 38:0.0409927 39:0.0205721 40:0.0409927 41:0.0205721 42:0.041851 43:0.0205418 44:-1 45:-0.987013 46:-1 47:-1 48:0.0414218 49:0.0205569 50:0.0619913 51:0.0203802 52:0.0619913 53:0.0203802 54:0.0619913 55:0.0203802 56:-1 57:-1 58:-1 59:-1 60:0.0619913 61:0.0203802 62:0.0617108 63:0.0204106 64:0.0617108 65:0.0204106 66:0.0617108 67:0.0204106 68:-1 69:-1 70:-1 71:-1 72:0.0617108 73:0.0204106 74:0.011415 75:0.0424391 76:0.011415 77:0.0424391 78:0.0123614 79:0.0425429 80:-1 81:-0.987013 82:-1 83:-1 84:0.0118882 85:0.0424911 86:0.0183918 87:0.0538837 88:0.0183918 89:0.0538837 90:0.0183918 91:0.0538837 92:-1 93:-1 94:-1 95:-1 96:0.0183918 97:0.0538837 98:0.00662807 99:0.0539751 100:0.00662807 101:0.0539751 102:0.00662807 103:0.0539751 104:-1 105:-1 106:-1 107:-1 108:0.00662807 109:0.0539751 110:-0.013148 111:0.0204234 112:-0.013148 113:0.0204234 114:-0.0122523 115:0.0203653 116:-1 117:-0.987261 118:-1 119:-1 120:-0.0127001 121:0.0203943 122:0.00786806 123:0.0538407 124:0.00786806 125:0.0538407 126:0.00786806 127:0.0538407 128:-1 129:-1 130:-1 131:-1 132:0.00786806 133:0.0538407 134:0.00761481 135:0.0362523 136:0.00761481 137:0.0362523 138:0.00761481 139:0.0362523 140:-1 141:-1 142:-1 143:-1 144:0.00761481 145:0.0362523 146:0.0196366 147:-0.0237498 148:0.0196366 149:-0.0237498 150:0.0196366 151:-0.0237498 152:-1 153:-1 154:-1 155:-1 156:0.0196366 157:-0.0237498 158:0.0138922 159:0.0170144 160:0.0138922 161:0.0170144 162:0.0138922 163:0.0170144 164:-1 165:-1 166:-1 167:-1 168:0.0138922 169:0.0170144 170:0.0133617 171:0.0424686 172:0.0133617 173:0.0424686 174:0.0133617 175:0.0424686 176:-1 177:-1 178:-1 179:-1 180:0.0133617 181:0.0424686 182:0.109306 183:0.00446155 184:-0.0534867 185:-0.0654147 186:-0.024473 187:-0.0733983 188:-1 189:-1 190:-1 191:-1 
6.096982502130693 1:0.203313 2:0.138107 3:-0.378922 4:0.212272 5:0.134013 6:-0.859749 7:-0.999177 8:-0.999897 9:-0.99996 10:0.0504076 11:-0.152507 12:-0.66567 13:-0.921296 14:-0.0429063 15:0.0100744 16:-0.0686479 17:0.182138 18:-0.122216 19:-0.0566613 20:-1 21:-1 22:-1 23:-1 24:-0.824619 25:-0.893264 26:0.0122663 27:0.0695967 28:0.0122663 29:0.0695967 30:0.0122663 31:0.0695967 32:-1 33:-1 34:-1 35:-1 36:0.0122663 37:0.0695967 38:0.0429465 39:0.020203 40:0.0429465 41:0.020203 42:0.0429465 43:0.020203 44:-1 45:-1 46:-1 47:-1 48:0.0429465 49:0.020203 50:0.50241 51:-0.58485 52:0.50241 53:-0.58485 54:0.50241 55:-0.58485 56:-1 57:-1 58:-1 59:-1 60:0.50241 61:-0.58485 62:0.0620773 63:0.0205332 64:0.0620773 65:0.0205332 66:0.0620773 67:0.0205332 68:-1 69:-1 70:-1 71:-1 72:0.0620773 73:0.0205332 74:0.0131268 75:0.0423654 76:0.0131268 77:0.0423654 78:0.0131268 79:0.0423654 80:-1 81:-1 82:-1 83:-1 84:0.0131268 85:0.0423654 86:0.0184929 87:0.0535886 88:0.0184929 89:0.0535886 90:0.0184929 91:0.0535886 92:-1 93:-1 94:-1 95:-1 96:0.0184929 97:0.0535886 98:0.0066343 99:0.0541853 100:0.0066343 101:0.0541853 102:0.0066343 103:0.0541853 104:-1 105:-1 106:-1 107:-1 108:0.0066343 109:0.0541853 110:-0.012954 111:0.0205823 112:-0.012954 113:0.0205823 114:-0.012954 115:0.0205823 116:-1 117:-1 118:-1 119:-1 120:-0.012954 121:0.0205823 122:0.00761043 123:0.0539148 124:0.00761043 125:0.0539148 126:0.00761043 127:0.0539148 128:-1 129:-1 130:-1 131:-1 132:0.00761043 133:0.0539148 134:0.45124 135:-0.590802 136:0.45124 137:-0.590802 138:0.45124 139:-0.590802 140:-1 141:-1 142:-1 143:-1 144:0.45124 145:-0.590802 146:0.019841 147:-0.0232501 148:0.019841 149:-0.0232501 150:0.019841 151:-0.0232501 152:-1 153:-1 154:-1 155:-1 156:0.019841 157:-0.0232501 158:0.0133768 159:0.017439 160:0.0133768 161:0.017439 162:0.0133768 163:0.017439 164:-1 165:-1 166:-1 167:-1 168:0.0133768 169:0.017439 170:0.013167 171:0.0427341 172:0.013167 173:0.0427341 174:0.013167 175:0.0427341 176:-1 177:-1 178:-1 179:-1 180:0.013167 181:0.0427341 182:0.109306 183:0.00446155 184:-0.0534867 185:-0.0654147 186:-0.024473 187:-0.0733983 188:-1 189:-1 190:-1 191:-1 
128 1:0.262347 2:0.0953964 3:-0.376648 4:0.0273212 5:0.0309006 6:-0.813763 7:-0.992821 8:-0.999637 9:-0.999736 10:0.0504076 11:-0.152507 12:-0.66567 13:-0.888889 14:-0.0720225 15:0.0484548 16:-0.119235 17:0.182566 18:-0.183681 19:-0.0958955 20:-0.983871 21:-0.987013 22:-1 23:-1 24:-0.96998 25:-0.893264 26:0.0114576 27:0.0705857 28:0.0112094 29:0.0698539 30:0.0103728 31:0.0690557 32:-0.983607 33:-0.987013 34:-1 35:-1 36:0.0110133 37:0.0698318 38:0.041652 39:0.02067 40:0.041652 41:0.02067 42:0.0408361 43:0.019909 44:-1 45:-0.987013 46:-1 47:-1 48:0.0412441 49:0.0202895 50:0.0622924 51:0.0206105 52:0.0622924 53:0.0206105 54:0.061127 55:0.0198202 56:-1 57:-0.987013 58:-1 59:-1 60:0.0617097 61:0.0202154 62:0.0623964 63:0.0206323 64:0.0611955 65:0.019841 66:0.0611862 67:0.0191521 68:-0.983871 69:-0.987097 70:-1 71:-1 72:0.0615927 73:0.0198752 74:0.0125994 75:0.0427419 76:0.0110107 77:0.0419082 78:0.0109634 79:0.0411999 80:-0.983471 81:-0.987013 82:-1 83:-1 84:0.0115244 85:0.04195 86:0.018715 87:0.054216 88:0.017515 89:0.0534057 90:0.0173977 91:0.0526839 92:-0.98374 93:-0.987013 94:-1 95:-1 96:0.0178759 97:0.0534352 98:0.00723741 99:0.0542517 100:0.00723741 101:0.0542517 102:0.00569008 103:0.0526978 104:-1 105:-0.987013 106:-1 107:-1 108:0.00646372 109:0.0534747 110:-0.0122134 111:0.0208252 112:-0.0122134 113:0.0208252 114:-0.0136721 115:0.0193354 116:-1 117:-0.987261 118:-1 119:-1 120:-0.0129427 121:0.0200803 122:0.00822438 123:0.0543354 124:0.00822438 125:0.0543354 126:0.00670775 127:0.0527926 128:-1 129:-0.987097 130:-1 131:-1 132:0.00746606 133:0.053564 134:0.00813869 135:0.0368205 136:0.00813869 137:0.0368205 138:0.0064502 139:0.0352577 140:-1 141:-0.987013 142:-1 143:-1 144:0.00729442 145:0.0360391 146:0.0202894 147:-0.0232306 148:0.0202894 149:-0.0232306 150:0.018763 151:-0.0247275 152:-1 153:-0.987013 154:-1 155:-1 156:0.0195262 157:-0.023979 158:0.0140251 159:0.0177229 160:0.0138929 161:0.0170361 162:0.0124601 163:0.0162302 164:-0.984 165:-0.987013 166:-1 167:-1 168:0.0134593 169:0.0169964 170:0.0136467 171:0.0432459 172:0.0134901 173:0.0425444 174:0.0120178 175:0.041722 176:-0.98374 177:-0.987013 178:-1 179:-1 180:0.0130516 181:0.0425041 182:0.128275 183:0.0443067 184:-0.0322529 185:-0.0623768 186:-0.065363 187:-0.114033 188:-0.983871 189:-0.987097 190:-1 191:-1 
128 1:0.268728 2:0.12787 3:-0.387859 4:-0.0767251 5:0.115985 6:-0.859749 7:-0.999177 8:-0.999897 9:-0.99996 10:0.0504076 11:-0.152507 12:-0.66567 13:-0.921296 14:-0.0513062 15:-0.0267257 16:-0.0775269 17:0.179171 18:-0.13977 19:-0.0172447 20:-0.983871 21:-0.987013 22:-1 23:-1 24:-0.861043 25:-0.893264 26:0.0118144 27:0.0689709 28:0.0115013 29:0.0704889 30:0.0119192 31:0.0709814 32:-0.967213 33:-0.987013 34:-0.942992 35:-1 36:0.0117836 37:0.070016 38:0.0420306 39:0.0197936 40:0.0424166 41:0.0202748 42:0.0423526 43:0.0216095 44:-0.984 45:-0.974026 46:-1 47:-0.910684 48:0.0422208 49:0.0206893 50:0.0627208 51:0.0201287 52:0.0625498 53:0.0208599 54:0.0626959 55:0.0214463 56:-0.98374 57:-0.987013 58:-1 59:-1 60:0.0626555 61:0.0208117 62:0.0625622 63:0.0200751 64:0.0625804 65:0.0207233 66:0.0625077 67:0.0214058 68:-0.983871 69:-0.987097 70:-1 71:-1 72:0.0625501 73:0.0207348 74:0.0125086 75:0.0420064 76:0.012672 77:0.0426075 78:0.0124243 79:0.0433789 80:-0.983471 81:-0.987013 82:-1 83:-1 84:0.012535 85:0.0426643 86:0.018858 87:0.0532917 88:0.0189966 89:0.05391 90:0.018716 91:0.0547103 92:-0.98374 93:-0.987013 94:-1 95:-1 96:0.0188569 97:0.0539707 98:0.00736624 99:0.0537982 100:0.00736624 101:0.0537982 102:0.00716096 103:0.0545678 104:-1 105:-0.987013 106:-1 107:-1 108:0.0072636 109:0.054183 110:-0.012232 111:0.0202484 112:-0.012232 113:0.0202484 114:-0.0123143 115:0.0209405 116:-1 117:-0.987261 118:-1 119:-1 120:-0.0122731 121:0.0205944 122:0.00805826 123:0.053594 124:0.00805826 125:0.053594 126:0.008158 127:0.0542285 128:-1 129:-0.987097 130:-1 131:-1 132:0.00810812 133:0.0539113 134:0.00785766 135:0.0360015 136:0.00785766 137:0.0360015 138:0.00813344 139:0.0365573 140:-1 141:-0.987013 142:-1 143:-1 144:0.00799554 145:0.0362794 146:0.0201394 147:-0.0235929 148:0.0201394 149:-0.0235929 150:0.0201394 151:-0.0235929 152:-1 153:-1 154:-1 155:-1 156:0.0201394 157:-0.0235929 158:0.0136071 159:0.0172005 160:0.0136071 161:0.0172005 162:0.0136071 163:0.0172005 164:-1 165:-1 166:-1 167:-1 168:0.0136071 169:0.0172005 170:0.0132503 171:0.0426178 172:0.0132503 173:0.0426178 174:0.0132503 175:0.0426178 176:-1 177:-1 178:-1 179:-1 180:0.0132503 181:0.0426178 182:0.109306 183:0.00446155 184:-0.0534867 185:-0.0654147 186:-0.024473 187:-0.0733983 188:-1 189:-1 190:-1 191:-1 
128 1:0.301626 2:0.185241 3:-0.559856 4:0.088797 5:-0.316492 6:-0.859749 7:-0.999177 8:-0.999897 9:-0.99996 10:0.0504076 11:-0.152507 12:-0.66567 13:-0.921296 14:-0.100713 15:0.0130254 16:-0.138252 17:0.186389 18:-0.163118 19:-0.0596562 20:-1 21:-0.987013 22:-1 23:-1 24:-0.987331 25:-0.893264 26:0.010511 27:0.0698708 28:0.010511 29:0.0698708 30:0.0110243 31:0.0697696 32:-1 33:-0.987013 34:-1 35:-1 36:0.0107677 37:0.0698202 38:0.0410416 39:0.0206596 40:0.0415439 41:0.0205764 42:0.0419561 43:0.020211 44:-0.984 45:-0.987013 46:-1 47:-1 48:0.0415139 49:0.0204823 50:0.0614257 51:0.0205826 52:0.0619222 53:0.02045 54:0.0623781 55:0.0201924 56:-0.98374 57:-0.987013 58:-1 59:-1 60:0.0619087 61:0.0204083 62:0.0613288 63:0.0205215 64:0.0618602 65:0.0204892 66:0.0623209 67:0.020245 68:-0.983871 69:-0.987097 70:-1 71:-1 72:0.0618366 73:0.0204185 74:0.0112329 75:0.0425851 76:0.011793 77:0.0425516 78:0.012276 79:0.0422946 80:-0.983471 81:-0.987013 82:-1 83:-1 84:0.0117673 85:0.0424771 86:0.0180579 87:0.0539597 88:0.0180579 89:0.0539597 90:0.0185633 91:0.0538145 92:-1 93:-0.987013 94:-1 95:-1 96:0.0183106 97:0.0538871 98:0.00644531 99:0.0539287 100:0.00644531 101:0.0539287 102:0.00695854 103:0.0538223 104:-1 105:-0.987013 106:-1 107:-1 108:0.00670193 109:0.0538755 110:-0.0131392 111:0.0205099 112:-0.0131392 113:0.0205099 114:-0.0126143 115:0.0204096 116:-1 117:-0.987261 118:-1 119:-1 120:-0.0128767 121:0.0204597 122:0.00716245 123:0.0539981 124:0.00768299 125:0.053912 126:0.00814756 127:0.0536498 128:-0.98374 129:-0.987097 130:-1 131:-1 132:0.00766435 133:0.0538533 134:0.0070601 135:0.0363638 136:0.00760056 137:0.0363343 138:0.00806594 139:0.0360706 140:-0.983871 141:-0.987013 142:-1 143:-1 144:0.00757548 145:0.0362562 146:0.0192483 147:-0.0237502 148:0.0197887 149:-0.0237619 150:0.0202634 151:-0.0239721 152:-0.98374 153:-0.987013 154:-1 155:-1 156:0.0197668 157:-0.023828 158:0.0127869 159:0.0171268 160:0.0133565 161:0.0171669 162:0.0138658 163:0.0170332 164:-0.984 165:-0.987013 166:-1 167:-1 168:0.0133364 169:0.017109 170:0.0129583 171:0.0426038 172:0.0129583 173:0.0426038 174:0.0134743 175:0.0424847 176:-1 177:-0.987013 178:-1 179:-1 180:0.0132163 181:0.0425442 182:0.0984616 183:0.0062754 184:-0.0666813 185:-0.0627712 186:-0.012298 187:-0.0751561 188:-1 189:-0.987097 190:-1 191:-1 
