svm_type c_svc
kernel_type rbf
gamma 0.03125
nr_class 2
total_sv 633
rho -7.30796
label 0 1
nr_sv 400 233
SV
2.901159934740704 1:0.237671 2:-0.417847 3:0.676701 4:-0.994471 5:-0.99539 6:-0.995714 7:-0.995423 8:-0.983046 9:-0.916839 10:-0.636089 11:-0.479243 12:-0.60878 13:-0.617009 14:-0.96729 15:-0.971021 16:-0.979285 17:-0.984572 18:-0.973984 19:-0.962155 20:-0.922586 21:-0.836614 22:-0.707 23:-0.653714 24:-0.781182 25:-0.757407 26:-0.83635 27:-0.952494 28:-0.950389 29:-0.909415 30:-0.920461 31:-0.939242 32:-0.904286 33:-0.87466 34:-0.92543 35:-0.967131 36:-0.796148 37:-0.379558 38:0.0684195 39:-0.0850527 40:-0.507931 41:-0.880764 42:-0.932283 43:-0.944568 44:-0.971784 45:-0.977987 46:-0.970824 47:-0.976015 48:-0.988365 49:-0.988568 50:-0.990392 51:-0.990977 52:-0.990843 53:-0.990515 54:-0.98807 55:-0.989588 56:-0.989877 57:-0.991828 58:-0.987724 59:-0.988827 60:-0.990499 61:-0.989562 62:-0.988638 63:-0.985383 64:-0.985413 65:-0.990246 66:-0.991885 67:-0.989857 68:-0.990913 69:-0.989994 70:-0.990884 71:-0.991263 72:-0.990146 73:-0.990759 74:-0.991177 75:-0.991065 76:-0.991896 77:-0.992764 78:-0.993759 79:-0.993309 80:-0.99099 81:-0.986095 82:-0.986543 83:-0.992293 84:-0.99106 85:-0.991115 86:-0.992611 87:-0.991797 88:-0.985539 89:-0.98902 90:-0.990981 91:-0.991354 92:-0.990668 93:-0.987875 94:-0.986854 95:-0.912966 96:-0.912797 97:-0.940779 98:-0.947115 99:-0.829037 100:-0.459369 101:-0.525331 102:-0.679788 103:-0.446059 104:-0.502317 105:-0.927455 106:-0.852576 107:-0.95526 108:-0.942041 109:-0.245546 110:-0.0209433 111:-0.947652 112:-0.989956 113:-0.989123 114:-0.989177 115:-0.983598 116:-0.811679 117:-0.357722 118:-0.46504 119:-0.649558 120:-0.993601 121:-0.994079 122:-0.994146 123:-0.98964 
1.348280101482082 1:0.195308 2:-0.420835 3:0.686985 4:-0.995233 5:-0.995278 6:-0.995645 7:-0.996034 8:-0.962701 9:-0.715052 10:-0.5765 11:-0.577184 12:-0.618523 13:-0.974044 14:-0.974011 15:-0.976503 16:-0.98467 17:-0.973294 18:-0.967371 19:-0.933826 20:-0.868343 21:-0.711616 22:-0.665642 23:-0.757087 24:-0.788143 25:-0.781007 26:-0.901345 27:-0.954168 28:-0.933127 29:-0.906276 30:-0.927927 31:-0.913217 32:-0.883874 33:-0.896871 34:-0.957757 35:-0.888924 36:-0.386722 37:0.171016 38:-0.0787991 39:-0.231444 40:-0.695521 41:-0.930149 42:-0.936083 43:-0.951819 44:-0.978869 45:-0.969772 46:-0.973851 47:-0.986815 48:-0.985744 49:-0.988927 50:-0.987238 51:-0.986944 52:-0.98652 53:-0.988025 54:-0.989143 55:-0.989281 56:-0.989163 57:-0.989138 58:-0.98843 59:-0.989852 60:-0.990156 61:-0.990668 62:-0.985736 63:-0.985332 64:-0.987649 65:-0.99007 66:-0.990811 67:-0.990462 68:-0.990042 69:-0.990601 70:-0.989971 71:-0.991319 72:-0.988279 73:-0.990136 74:-0.990409 75:-0.989709 76:-0.991495 77:-0.990247 78:-0.992254 79:-0.99068 80:-0.984721 81:-0.982925 82:-0.988146 83:-0.9886 84:-0.989702 85:-0.989065 86:-0.990382 87:-0.987 88:-0.985414 89:-0.989439 90:-0.990226 91:-0.989378 92:-0.988839 93:-0.986349 94:-0.965275 95:-0.899706 96:-0.931933 97:-0.938248 98:-0.987117 99:-0.362955 100:-0.532318 101:-0.682516 102:-0.519306 103:-0.383349 104:-0.734391 105:-0.929606 106:-0.945678 107:-0.95256 108:-0.629401 109:-0.434404 110:-0.55049 111:-0.991726 112:-0.988414 113:-0.987721 114:-0.989297 115:-0.95035 116:-0.0292694 117:-0.195246 118:-0.537291 119:-0.880277 120:-0.993668 121:-0.993815 122:-0.993304 123:-0.973913 
9.27937336694057 1:0.244863 2:-0.414001 3:0.718226 4:-0.855708 5:-0.841303 6:-0.853228 7:-0.923304 8:-0.746673 9:-0.536467 10:-0.67778 11:-0.74475 12:-0.737277 13:-0.791215 14:-0.801829 15:-0.724868 16:-0.767018 17:-0.572933 18:-0.465345 19:-0.429435 20:-0.441034 21:-0.63322 22:-0.781256 23:-0.931258 24:-0.982139 25:-0.97971 26:-0.718712 27:-0.474051 28:-0.382593 29:-0.957768 30:-0.830021 31:-0.620143 32:-0.474766 33:-0.59798 34:-0.614487 35:-0.805438 36:-0.99379 37:-0.992317 38:-0.995588 39:-0.993989 40:-0.995594 41:-0.997269 42:-0.996824 43:-0.996664 44:-0.996893 45:-0.996698 46:-0.997133 47:-0.996367 48:-0.99651 49:-0.996728 50:-0.996461 51:-0.996446 52:-0.996325 53:-0.995902 54:-0.996157 55:-0.996762 56:-0.996374 57:-0.996437 58:-0.996326 59:-0.996401 60:-0.996629 61:-0.996845 62:-0.996848 63:-0.996465 64:-0.996002 65:-0.996368 66:-0.996584 67:-0.995898 68:-0.996403 69:-0.996477 70:-0.996362 71:-0.996368 72:-0.993743 73:-0.984702 74:-0.991988 75:-0.182046 76:-0.57066 77:-0.996676 78:-0.405569 79:0.676736 80:0.157161 81:-0.996288 82:-0.996568 83:-0.996292 84:-0.995594 85:-0.902107 86:-0.893641 87:-0.881509 88:-0.95948 89:-0.996301 90:-0.996414 91:-0.996577 92:-0.996262 93:-0.995644 94:0.198681 95:-0.0511577 96:-0.257993 97:-0.040188 98:-0.514934 99:-0.523696 100:-0.597196 101:-0.0845353 102:-0.442082 103:-0.335592 104:-0.253676 105:-0.803863 106:-0.78384 107:-0.816394 108:-0.824958 109:-0.828715 110:-0.824628 111:-0.833198 112:-0.826637 113:-0.896028 114:-0.855992 115:-0.483482 116:-0.291604 117:-0.189656 118:-0.456961 119:-0.952282 120:-0.603507 121:-0.350353 122:-0.474759 123:-0.804665 
5.46571156051403 1:0.240867 2:-0.412683 3:0.721235 4:-0.842903 5:-0.835014 6:-0.93202 7:-0.912608 8:-0.750414 9:-0.577782 10:-0.720486 11:-0.732233 12:-0.741571 13:-0.799172 14:-0.781221 15:-0.732983 16:-0.666277 17:-0.5047 18:-0.428528 19:-0.445552 20:-0.554642 21:-0.812057 22:-0.916671 23:-0.963493 24:-0.982051 25:-0.95261 26:-0.5432 27:-0.375915 28:-0.533941 29:-0.952072 30:-0.836957 31:-0.616372 32:-0.485102 33:-0.598978 34:-0.668957 35:-0.84577 36:-0.993497 37:-0.991264 38:-0.995205 39:-0.995773 40:-0.997147 41:-0.99824 42:-0.998048 43:-0.997807 44:-0.997758 45:-0.997894 46:-0.997879 47:-0.997841 48:-0.99777 49:-0.997811 50:-0.997657 51:-0.997454 52:-0.997484 53:-0.997342 54:-0.997406 55:-0.997808 56:-0.997383 57:-0.997622 58:-0.997225 59:-0.99748 60:-0.997429 61:-0.997387 62:-0.9975 63:-0.997378 64:-0.997182 65:-0.997175 66:-0.997203 67:-0.996669 68:-0.997095 69:-0.996862 70:-0.997268 71:-0.997398 72:-0.995762 73:-0.99557 74:-0.996827 75:-0.39776 76:0.108796 77:-0.996485 78:-0.145776 79:0.337289 80:0.109522 81:-0.996449 82:-0.997328 83:-0.99686 84:-0.923066 85:-0.871267 86:-0.845049 87:-0.866941 88:-0.948094 89:-0.997314 90:-0.997527 91:-0.997402 92:-0.996809 93:-0.996206 94:-0.995279 95:-0.174273 96:-0.0613321 97:-0.0723875 98:-0.459995 99:-0.509993 100:-0.607833 101:-0.784214 102:-0.291704 103:-0.335592 104:-0.242007 105:-0.78973 106:-0.761231 107:-0.809054 108:-0.815785 109:-0.833765 110:-0.832469 111:-0.838835 112:-0.835405 113:-0.883789 114:-0.904836 115:-0.604239 116:-0.345999 117:-0.180802 118:-0.308246 119:-0.94159 120:-0.576635 121:-0.330944 122:-0.473304 123:-0.641011 
3.16734344420582 1:0.230013 2:-0.401497 3:0.720022 4:-0.810125 5:-0.914911 6:-0.714399 7:-0.772839 8:-0.743131 9:-0.718261 10:-0.733381 11:-0.734078 12:-0.728998 13:-0.785211 14:-0.781976 15:-0.589432 16:-0.482408 17:-0.442448 18:-0.493889 19:-0.583802 20:-0.883218 21:-0.92882 22:-0.980833 23:-0.980722 24:-0.889142 25:-0.484771 26:-0.303025 27:-0.579094 28:-0.991834 29:-0.87864 30:-0.697397 31:-0.529191 32:-0.590734 33:-0.640797 34:-0.761202 35:-0.9883 36:-0.988401 37:-0.990266 38:-0.994607 39:-0.99393 40:-0.99576 41:-0.995767 42:-0.995772 43:-0.995903 44:-0.996193 45:-0.996004 46:-0.996419 47:-0.996473 48:-0.996401 49:-0.996024 50:-0.995822 51:-0.995572 52:-0.99521 53:-0.995321 54:-0.995845 55:-0.995505 56:-0.995447 57:-0.996031 58:-0.995518 59:-0.995901 60:-0.995874 61:-0.996474 62:-0.996584 63:-0.996733 64:-0.996318 65:-0.996141 66:-0.996286 67:-0.995616 68:-0.995747 69:-0.996574 70:-0.996964 71:-0.996883 72:-0.995914 73:-0.996551 74:-0.996855 75:-0.996546 76:0.0987488 77:0.0331727 78:-0.0487655 79:0.0782822 80:-0.997708 81:-0.997357 82:-0.996937 83:-0.923587 84:-0.895784 85:-0.844002 86:-0.834466 87:-0.923337 88:-0.976026 89:-0.997843 90:-0.997833 91:-0.997734 92:-0.997143 93:-0.996504 94:-0.911899 95:0.0802521 96:-0.429814 97:-0.232341 98:-0.53138 99:-0.569008 100:-0.733865 101:-0.805197 102:-0.292916 103:-0.216013 104:-0.109872 105:-0.783998 106:-0.77317 107:-0.795577 108:-0.805213 109:-0.834321 110:-0.820143 111:-0.849712 112:-0.835331 113:-0.881203 114:-0.924086 115:-0.558478 116:-0.306532 117:-0.103033 118:-0.245743 119:-0.94377 120:-0.59106 121:-0.357587 122:-0.462714 123:-0.703032 
5.561836942907379 1:0.213986 2:-0.287127 3:0.662834 4:-0.834545 5:-0.601049 6:-0.615941 7:-0.75942 8:-0.528707 9:-0.494083 10:-0.56024 11:-0.656117 12:-0.796058 13:-0.923682 14:-0.971291 15:-0.958039 16:-0.954393 17:-0.954038 18:-0.973543 19:-0.984007 20:-0.996868 21:-0.997086 22:-0.997473 23:-0.997207 24:-0.996508 25:-0.994986 26:-0.982717 27:-0.890411 28:-0.743124 29:-0.617105 30:-0.653288 31:-0.86552 32:-0.908838 33:-0.954822 34:-0.988332 35:-0.989155 36:-0.987101 37:-0.981889 38:-0.98706 39:-0.986575 40:-0.9864 41:-0.987381 42:-0.987189 43:-0.986666 44:-0.986881 45:-0.987326 46:-0.98718 47:-0.987266 48:-0.987066 49:-0.988568 50:-0.987754 51:-0.987498 52:-0.987022 53:-0.98816 54:-0.988423 55:-0.986884 56:-0.98443 57:-0.985099 58:-0.984327 59:-0.985814 60:-0.986097 61:-0.985687 62:-0.986659 63:-0.987904 64:-0.986885 65:-0.986824 66:-0.987037 67:-0.983576 68:-0.985439 69:-0.986375 70:-0.987046 71:-0.986721 72:-0.98497 73:-0.987349 74:-0.988233 75:-0.98579 76:-0.987072 77:-0.985397 78:-0.988 79:-0.587592 80:-0.474172 81:-0.606009 82:-0.595014 83:-1 84:-1 85:-1 86:-0.536225 87:-0.54767 88:-1 89:-1 90:-1 91:-1 92:-1 93:-1 94:-1 95:-1 96:-1 97:-0.652006 98:-0.800222 99:-0.907095 100:-0.93816 101:-0.954206 102:-0.956171 103:-0.978051 104:-0.99793 105:-0.997526 106:-0.997228 107:-0.997124 108:-0.996713 109:-0.916125 110:-0.743676 111:-0.68647 112:-0.674062 113:-0.62105 114:-0.858198 115:-0.469546 116:-0.411496 117:-0.0592782 118:-0.363342 119:-0.454711 120:-0.536821 121:-0.629024 122:-0.534726 123:-0.587023 
11.23206708755373 1:0.248945 2:-0.279904 3:0.673572 4:-0.989344 5:-0.469309 6:-0.699553 7:-0.784356 8:-0.561951 9:-0.476035 10:-0.602725 11:-0.629989 12:-0.7703 13:-0.889247 14:-0.958576 15:-0.949021 16:-0.946096 17:-0.955043 18:-0.972095 19:-0.981179 20:-0.996588 21:-0.996671 22:-0.996983 23:-0.99681 24:-0.996479 25:-0.994773 26:-0.995553 27:-0.975868 28:-0.819266 29:-0.6448 30:-0.71822 31:-0.879724 32:-0.915088 33:-0.908109 34:-0.963235 35:-0.987546 36:-0.984028 37:-0.985543 38:-0.988337 39:-0.986921 40:-0.988786 41:-0.990098 42:-0.990328 43:-0.988569 44:-0.989263 45:-0.989193 46:-0.989575 47:-0.988861 48:-0.988709 49:-0.989085 50:-0.987148 51:-0.987557 52:-0.985751 53:-0.987945 54:-0.988198 55:-0.988362 56:-0.988556 57:-0.988725 58:-0.987388 59:-0.98818 60:-0.98813 61:-0.989057 62:-0.988939 63:-0.987512 64:-0.985006 65:-0.984512 66:-0.987872 67:-0.988672 68:-0.989118 69:-0.989276 70:-0.988983 71:-0.987828 72:-0.98316 73:-0.982818 74:-0.986453 75:-0.984079 76:-0.985402 77:-0.985808 78:-0.985467 79:-0.977682 80:-0.817956 81:-0.707955 82:-0.687628 83:-0.697677 84:-1 85:-1 86:-1 87:-0.465415 88:-0.455974 89:-0.628914 90:-0.673115 91:-0.713882 92:-0.954956 93:-0.979856 94:-0.986246 95:-0.63471 96:-0.670575 97:-0.687296 98:-0.67854 99:-0.797457 100:-0.909085 101:-0.94169 102:-0.960999 103:-0.981159 104:-0.997776 105:-0.997533 106:-0.997306 107:-0.997056 108:-0.996638 109:-0.996228 110:-0.897658 111:-0.740786 112:-0.606178 113:-0.641736 114:-0.518337 115:-0.864913 116:-0.812942 117:-0.164299 118:-0.211115 119:-0.471829 120:-0.457485 121:-0.495769 122:-0.543456 123:-0.638295 
9.262115986572201 1:0.205968 2:-0.195508 3:0.531824 4:0.3131 5:-0.457537 6:-0.782618 7:-0.975213 8:-0.963905 9:-0.975792 10:-0.947716 11:-0.801681 12:-0.97955 13:-0.987682 14:-0.984881 15:-0.939033 16:-0.870048 17:-0.733532 18:-0.721115 19:-0.647512 20:-0.601939 21:-0.730553 22:-0.806968 23:-0.89376 24:-0.977143 25:-0.979702 26:-0.977779 27:-0.975168 28:-0.979739 29:-0.981161 30:-0.985999 31:-0.992702 32:-0.995756 33:-0.993306 34:-0.995363 35:-0.997256 36:-0.995248 37:-0.995907 38:-0.99429 39:-0.99535 40:-0.994849 41:-0.996724 42:-0.997049 43:-0.996962 44:-0.997002 45:-0.99787 46:-0.997894 47:-0.998127 48:-0.997911 49:-0.998723 50:-0.998657 51:-0.998899 52:-0.998928 53:-0.998942 54:-0.998999 55:-0.998813 56:-0.998852 57:-0.999095 58:-0.999025 59:-0.998914 60:-0.998692 61:-0.998782 62:-0.999047 63:-0.998986 64:-0.999011 65:-0.998974 66:-0.999202 67:-0.999171 68:-0.998972 69:-0.998949 70:-0.99902 71:-0.999055 72:-0.998582 73:-0.998396 74:-0.998657 75:-0.998872 76:-0.998753 77:-0.998628 78:-0.998425 79:0.0530396 80:-0.324971 81:-0.438433 82:-0.363251 83:-0.767083 84:-0.788764 85:-0.872352 86:-0.851749 87:-0.830786 88:-0.754507 89:-0.756801 90:-1 91:-1 92:-1 93:-1 94:-1 95:-1 96:-0.810346 97:-0.804251 98:-0.79877 99:-1 100:-1 101:-1 102:-1 103:-1 104:-1 105:-1 106:-1 107:-1 108:-1 109:-1 110:-1 111:-0.828962 112:-0.815383 113:-0.791266 114:-0.783925 115:-1 116:-1 117:-1 118:-1 119:-1 120:-1 121:-1 122:-1 123:-1 
4.230464418825147 1:0.23015 2:-0.124672 3:0.586911 4:-0.920285 5:-0.954036 6:-0.966753 7:-0.959445 8:-0.954263 9:-0.776339 10:-0.486464 11:-0.368077 12:-0.387816 13:-0.946332 14:-0.956596 15:-0.876483 16:-0.807629 17:-0.695634 18:-0.558654 19:-0.42724 20:-0.298955 21:0.01046 22:-0.251066 23:-0.505345 24:-0.679075 25:-0.996888 26:-0.99738 27:-0.997727 28:-0.997434 29:-0.997197 30:-0.996369 31:-0.995469 32:-0.993085 33:-0.989713 34:-0.990375 35:-0.997637 36:-0.998042 37:-0.998332 38:-0.997138 39:-0.998588 40:-0.998787 41:-0.998734 42:-0.998851 43:-0.998758 44:-0.998817 45:-0.99874 46:-0.998829 47:-0.999075 48:-0.999038 49:-0.998515 50:-0.997625 51:-0.997984 52:-0.998643 53:-0.997661 54:-0.998022 55:-0.99787 56:-0.997892 57:-0.997567 58:-0.997436 59:-0.997126 60:-0.997399 61:-0.996904 62:-0.996291 63:-0.996646 64:-0.997182 65:-0.998032 66:-0.99733 67:-0.997514 68:-0.998354 69:-0.99758 70:-0.995286 71:-0.995677 72:-0.996211 73:-0.995913 74:-0.998191 75:-0.998517 76:-0.94671 77:-0.754534 78:-0.616574 79:0.489423 80:0.187207 81:-0.310603 82:-0.989787 83:-0.99375 84:-0.9933 85:-0.91982 86:-0.920369 87:-0.959256 88:-0.93259 89:-0.710726 90:-0.586727 91:-0.584296 92:-0.682139 93:-0.808924 94:-0.890291 95:-0.913067 96:-0.926817 97:-0.933186 98:-0.937669 99:-0.91385 100:-0.905993 101:-0.901354 102:-0.901722 103:-0.928907 104:-0.948395 105:-0.947881 106:-0.955774 107:-0.972054 108:-0.949053 109:-0.90654 110:-0.389553 111:-0.796646 112:-0.758273 113:-0.653995 114:-0.599734 115:-0.562878 116:-0.600851 117:-0.660279 118:-0.699125 119:-0.72157 120:-0.718303 121:-0.709006 122:-0.69623 123:-0.677327 
32 1:-0.269344 2:-0.113829 3:0.547598 4:-0.970391 5:-0.964882 6:-0.963744 7:-0.957326 8:-0.962601 9:-0.975462 10:-0.983719 11:-0.979105 12:-0.974157 13:-0.871729 14:-0.572188 15:-0.580732 16:-0.452452 17:-0.519236 18:-0.419065 19:-0.555328 20:-0.594922 21:-0.987471 22:-0.982467 23:-0.978778 24:-0.981655 25:-0.977093 26:-0.97503 27:-0.962727 28:-0.970715 29:-0.965133 30:-0.960363 31:-0.951462 32:-0.943806 33:-0.963114 34:-0.963044 35:-0.962933 36:-0.965976 37:-0.965222 38:-0.963682 39:-0.966446 40:-0.964551 41:-0.969006 42:-0.9688 43:-0.97223 44:-0.970468 45:-0.968847 46:-0.968794 47:-0.971788 48:-0.971182 49:-0.974079 50:-0.97147 51:-0.969367 52:-0.970023 53:-0.970559 54:-0.969856 55:-0.970232 56:-0.968277 57:-0.972186 58:-0.968159 59:-0.973323 60:-0.974877 61:-0.967558 62:-0.972028 63:-0.974851 64:-0.968317 65:-0.967855 66:-0.972001 67:-0.968834 68:-0.970714 69:-0.973461 70:-0.973601 71:-0.974775 72:-0.96656 73:-0.968462 74:-0.970673 75:-0.967566 76:-0.965322 77:-0.969708 78:-0.976946 79:-0.967375 80:-0.961855 81:-0.965593 82:-0.965544 83:-0.960322 84:-0.962046 85:-0.958687 86:-0.960716 87:-0.956389 88:-0.956393 89:-0.95582 90:-0.955183 91:-0.9571 92:-0.960089 93:-0.943175 94:-0.944435 95:-0.938995 96:-0.940142 97:-0.53091 98:-0.445197 99:-0.549086 100:-0.569577 101:-0.722492 102:-0.801536 103:-0.856206 104:-0.873072 105:-0.886197 106:-0.871994 107:-0.82884 108:-0.352921 109:-0.35699 110:-0.148252 111:-0.740472 112:-0.991733 113:-0.994378 114:-0.995624 115:-0.996111 116:-0.989792 117:-0.983886 118:-0.923529 119:-0.830662 120:-0.823804 121:-0.795262 122:-0.803541 123:-0.821075 
32 1:-0.268946 2:-0.0959255 3:0.544414 4:-0.968806 5:-0.965101 6:-0.962612 7:-0.956633 8:-0.961717 9:-0.972296 10:-0.980126 11:-0.977325 12:-0.973481 13:-0.857419 14:-0.56053 15:-0.540796 16:-0.488983 17:-0.37286 18:-0.400286 19:-0.567112 20:-0.551287 21:-0.990256 22:-0.986046 23:-0.982824 24:-0.985704 25:-0.980615 26:-0.978572 27:-0.980588 28:-0.983761 29:-0.98254 30:-0.959135 31:-0.955852 32:-0.945126 33:-0.966348 34:-0.963342 35:-0.960414 36:-0.968506 37:-0.968429 38:-0.961831 39:-0.963656 40:-0.966556 41:-0.971686 42:-0.972629 43:-0.973306 44:-0.97289 45:-0.970426 46:-0.970178 47:-0.97345 48:-0.972857 49:-0.976469 50:-0.974534 51:-0.971577 52:-0.972772 53:-0.975397 54:-0.972378 55:-0.971663 56:-0.97315 57:-0.973949 58:-0.97211 59:-0.975758 60:-0.978958 61:-0.971129 62:-0.977086 63:-0.976756 64:-0.969439 65:-0.970789 66:-0.971591 67:-0.971743 68:-0.973038 69:-0.973121 70:-0.977937 71:-0.977053 72:-0.971967 73:-0.972814 74:-0.973566 75:-0.972297 76:-0.969367 77:-0.973612 78:-0.973136 79:-0.970888 80:-0.966032 81:-0.967812 82:-0.971505 83:-0.679962 84:-0.731598 85:-0.968189 86:-0.96469 87:-0.965756 88:-0.966981 89:-0.965721 90:-0.964495 91:-0.967837 92:-0.965669 93:-0.954232 94:-0.952656 95:-0.950941 96:-0.951048 97:-0.60748 98:-0.465275 99:-0.552918 100:-0.544713 101:-0.699727 102:-0.802583 103:-0.841401 104:-0.868602 105:-0.873374 106:-0.858233 107:-0.837658 108:-0.120187 109:-0.25525 110:-0.113371 111:-0.670592 112:-0.99101 113:-0.993738 114:-0.994997 115:-0.995637 116:-0.989681 117:-0.982827 118:-0.938625 119:-0.827503 120:-0.829764 121:-0.790728 122:-0.784396 123:-0.808453 
1.371975880321558 1:-0.0325887 2:-0.212715 3:0.554374 4:-0.958871 5:-0.967759 6:-0.963625 7:-0.957802 8:-0.951776 9:-0.958829 10:-0.974887 11:-0.985253 12:-0.893643 13:-0.775538 14:-0.759853 15:-0.378276 16:-0.855375 17:-0.825093 18:-0.823638 19:-0.699721 20:-0.591841 21:-0.462488 22:-0.369215 23:-0.505375 24:-0.783331 25:-0.991494 26:-0.991332 27:-0.991427 28:-0.990284 29:-0.988743 30:-0.989145 31:-0.989308 32:-0.981848 33:-0.975732 34:-0.963878 35:-0.979041 36:-0.987079 37:-0.980429 38:-0.982612 39:-0.985662 40:-0.991148 41:-0.990216 42:-0.989397 43:-0.98852 44:-0.989645 45:-0.989624 46:-0.990822 47:-0.990057 48:-0.9891 49:-0.989365 50:-0.987361 51:-0.987213 52:-0.988656 53:-0.989855 54:-0.991385 55:-0.991089 56:-0.990074 57:-0.989746 58:-0.988506 59:-0.989312 60:-0.990514 61:-0.991128 62:-0.991695 63:-0.991612 64:-0.991074 65:-0.990869 66:-0.990856 67:-0.989335 68:-0.991159 69:-0.991844 70:-0.992821 71:-0.992976 72:-0.991484 73:-0.991709 74:-0.990286 75:-0.988124 76:-0.984933 77:-0.977838 78:-0.710588 79:-0.162029 80:0.197811 81:0.216169 82:-0.314848 83:-0.991761 84:-0.992668 85:-0.992888 86:-0.993342 87:-0.992753 88:-0.991556 89:-0.992295 90:-0.890446 91:-0.835417 92:-0.808014 93:-0.85653 94:-0.981832 95:-0.99114 96:-0.43883 97:-0.514551 98:-0.691261 99:-0.583919 100:-0.629841 101:-0.885231 102:-0.921633 103:-0.920934 104:-0.932164 105:-0.951532 106:-0.954306 107:-0.966804 108:-0.954932 109:-0.594603 110:-0.459586 111:-0.415901 112:-0.741282 113:-0.995276 114:-0.995737 115:-0.990274 116:-0.957579 117:-0.943999 118:-0.715933 119:-0.198125 120:-0.145121 121:-0.331378 122:-0.678251 123:-0.651202 
7.110683102465993 1:0.149452 2:-0.269964 3:0.549708 4:-0.870689 5:-0.891936 6:-0.938005 7:-0.961645 8:-0.970283 9:-0.977185 10:-0.97495 11:-0.974258 12:-0.799515 13:-0.656788 14:-0.613612 15:-0.372563 16:-0.974582 17:-0.986611 18:-0.955241 19:-0.853099 20:-0.322291 21:0.141364 22:-0.0518274 23:0.123439 24:0.101601 25:-0.362999 26:-0.992155 27:-0.995194 28:-0.993427 29:-0.993566 30:-0.99198 31:-0.991868 32:-0.991797 33:-0.986307 34:-0.97925 35:-0.979134 36:-0.980119 37:-0.987043 38:-0.988056 39:-0.987691 40:-0.988501 41:-0.991453 42:-0.991072 43:-0.990357 44:-0.990603 45:-0.99074 46:-0.990784 47:-0.991742 48:-0.991683 49:-0.991209 50:-0.989892 51:-0.990321 52:-0.989538 53:-0.989513 54:-0.98992 55:-0.991206 56:-0.989319 57:-0.99108 58:-0.990709 59:-0.991701 60:-0.990589 61:-0.992561 62:-0.992787 63:-0.992597 64:-0.991423 65:-0.990524 66:-0.993138 67:-0.991349 68:-0.992924 69:-0.992481 70:-0.992457 71:-0.990508 72:-0.990154 73:-0.991304 74:-0.992153 75:-0.988928 76:-0.985432 77:-0.981221 78:-0.584453 79:-0.161118 80:0.683928 81:0.114339 82:-0.173523 83:-0.691253 84:-0.879804 85:-0.337063 86:-0.990976 87:-0.988231 88:-0.990249 89:-0.990249 90:-0.920901 91:-0.879812 92:-0.758657 93:-0.807523 94:-0.763 95:-0.710801 96:-0.501656 97:-0.43644 98:-0.598388 99:-0.705045 100:-0.781147 101:-0.766351 102:-0.919794 103:-0.952505 104:-0.9549 105:-0.964229 106:-0.976022 107:-0.986149 108:-0.98874 109:-0.982836 110:-0.289527 111:-0.307918 112:-0.117187 113:-0.381529 114:-0.924903 115:-0.900759 116:-0.900813 117:-0.869803 118:-0.630689 119:-0.129488 120:0.469824 121:0.501785 122:-0.475271 123:-0.46945 
18.26436936233876 1:0.00325917 2:-0.172431 3:0.511302 4:-0.910492 5:-0.953838 6:-0.895274 7:-0.563143 8:-0.273847 9:-0.174403 10:-0.824565 11:-0.927036 12:-0.978282 13:-0.992386 14:-0.99272 15:-0.726271 16:-0.103687 17:0.240079 18:-0.418558 19:-0.186854 20:-0.434922 21:0.103977 22:-0.0500058 23:0.00155396 24:-0.699548 25:-0.959846 26:-0.959756 27:-0.961984 28:-0.962491 29:-0.963605 30:-0.961326 31:-0.960833 32:-0.955359 33:-0.947488 34:-0.964789 35:-0.956924 36:-0.956443 37:-0.962134 38:-0.965261 39:-0.955193 40:-0.964123 41:-0.963455 42:-0.966427 43:-0.964268 44:-0.964279 45:-0.963846 46:-0.966711 47:-0.963063 48:-0.96292 49:-0.969673 50:-0.966064 51:-0.959974 52:-0.95848 53:-0.962276 54:-0.963146 55:-0.963576 56:-0.961969 57:-0.962564 58:-0.966956 59:-0.968484 60:-0.965578 61:-0.965932 62:-0.969741 63:-0.96663 64:-0.958892 65:-0.964979 66:-0.969077 67:-0.966588 68:-0.96769 69:-0.963729 70:-0.963965 71:-0.975396 72:-0.965879 73:-0.962888 74:-0.972353 75:-0.963284 76:-0.964528 77:-0.967161 78:-0.967428 79:-0.829102 80:-0.560888 81:-0.447381 82:-0.299607 83:-0.376073 84:-0.418549 85:-0.639153 86:-0.605976 87:-0.737401 88:-0.827841 89:-0.846997 90:-0.880171 91:-0.892233 92:-0.903329 93:-0.90261 94:-0.907229 95:-0.91651 96:-0.914463 97:-0.910339 98:-0.873065 99:-0.798479 100:-0.441989 101:-0.383817 102:-0.770097 103:-0.439878 104:-0.819854 105:-0.920917 106:-0.965033 107:-0.980201 108:-0.988719 109:-0.995457 110:-0.994211 111:-0.994206 112:-0.993503 113:-0.988817 114:-0.949191 115:0.488086 116:-0.0949066 117:0.385326 118:0.127125 119:-0.199421 120:-0.706909 121:-0.765249 122:-0.625822 123:-0.702239 
6.135796222220006 1:0.00325917 2:-0.172431 3:0.511302 4:-0.90257 5:-0.93495 6:-0.970252 7:-0.619338 8:-0.430634 9:-0.267033 10:-0.552666 11:-0.903896 12:-0.973115 13:-0.990835 14:-0.993474 15:-0.991943 16:-0.31842 17:0.105544 18:-0.446683 19:-0.293766 20:-0.362291 21:-0.495744 22:-0.698 23:0.0474521 24:-0.315306 25:-0.90516 26:-0.976072 27:-0.975486 28:-0.975141 29:-0.976286 30:-0.969982 31:-0.970219 32:-0.966841 33:-0.964322 34:-0.961942 35:-0.96228 36:-0.976645 37:-0.971245 38:-0.97584 39:-0.973184 40:-0.970891 41:-0.973791 42:-0.972517 43:-0.972106 44:-0.97092 45:-0.971487 46:-0.970984 47:-0.97266 48:-0.972184 49:-0.976254 50:-0.974239 51:-0.974744 52:-0.973663 53:-0.973607 54:-0.9757 55:-0.974853 56:-0.975406 57:-0.977309 58:-0.973817 59:-0.97696 60:-0.976656 61:-0.975991 62:-0.977709 63:-0.978263 64:-0.974692 65:-0.97401 66:-0.977401 67:-0.975364 68:-0.979108 69:-0.978642 70:-0.977306 71:-0.978914 72:-0.975116 73:-0.976987 74:-0.97829 75:-0.97434 76:-0.97738 77:-0.978543 78:-0.981987 79:-0.940982 80:-0.814647 81:-0.549606 82:-0.317543 83:-0.307374 84:-0.511652 85:-0.489877 86:-1 87:-0.660313 88:-0.808076 89:-0.825522 90:-0.878947 91:-0.872525 92:-0.902248 93:-0.895597 94:-0.89786 95:-0.914152 96:-0.913247 97:-0.909357 98:-0.881796 99:-0.861261 100:-0.800124 101:-0.444852 102:-0.92571 103:-0.695611 104:-0.470059 105:-0.837616 106:-0.928812 107:-0.974049 108:-0.983188 109:-0.98956 110:-0.995076 111:-0.99435 112:-0.993791 113:-0.993962 114:-0.987641 115:-0.842573 116:-0.0328445 117:-0.00110935 118:0.223231 119:0.0638477 120:-0.369292 121:-0.554475 122:-0.599867 123:-0.607119 
2.857398317518217 1:0.249996 2:-0.230275 3:0.547913 4:-0.992356 5:-0.993406 6:-0.995494 7:-0.995355 8:-0.995632 9:-0.83357 10:-0.412122 11:-0.293126 12:-0.929969 13:-0.63423 14:-0.408403 15:-0.359031 16:0.266902 17:-0.424183 18:-0.788717 19:-0.800584 20:-0.815076 21:-0.799263 22:-0.776274 23:-0.748972 24:-0.617606 25:-0.277562 26:-0.0815684 27:-0.997445 28:-0.208512 29:-0.99663 30:-0.996399 31:-0.996561 32:-0.999139 33:-0.999275 34:-0.999342 35:-0.998538 36:-0.998092 37:-0.997471 38:-0.998635 39:-0.996771 40:-0.996711 41:-0.998874 42:-0.999429 43:-0.999305 44:-0.999416 45:-0.999386 46:-0.99946 47:-0.999428 48:-0.999624 49:-0.999584 50:-0.999509 51:-0.999378 52:-0.999222 53:-0.999196 54:-0.998839 55:-0.998515 56:-0.998441 57:-0.999041 58:-0.999075 59:-0.999522 60:-0.99932 61:-0.998931 62:-0.998329 63:-0.998508 64:-0.998371 65:-0.998772 66:-0.998844 67:-0.999022 68:-0.999404 69:-0.999512 70:-0.99954 71:-0.999549 72:-0.999519 73:-0.999377 74:-0.999505 75:-0.999385 76:-0.999373 77:-0.99942 78:-0.999384 79:-0.999391 80:-0.999303 81:-0.999356 82:-0.999443 83:-0.99941 84:-0.999192 85:-0.998837 86:-0.999096 87:-0.998466 88:-0.998799 89:-0.671264 90:-0.83275 91:-0.867329 92:-0.869099 93:-1 94:-1 95:-1 96:-1 97:-1 98:-1 99:-0.475074 100:-0.505312 101:-1 102:-1 103:-1 104:-1 105:-1 106:-1 107:-1 108:-1 109:-1 110:-1 111:-0.910252 112:-0.903126 113:-0.917414 114:-0.91451 115:-1 116:-1 117:-1 118:-1 119:-1 120:-1 121:-1 122:-1 123:-1 
0.6302245601480786 1:0.229959 2:-0.140399 3:0.558956 4:-0.158423 5:-0.311934 6:-0.60978 7:-0.969658 8:-0.971288 9:-0.972583 10:-0.971577 11:-0.771343 12:-0.412462 13:-0.462255 14:-0.684816 15:-0.951053 16:-0.986037 17:-0.985079 18:-0.983976 19:-0.984581 20:-0.985513 21:-0.986576 22:-0.964078 23:-0.958096 24:-0.882805 25:-0.854583 26:-0.717452 27:-0.230338 28:-0.776863 29:-0.592973 30:-0.499545 31:-0.775387 32:-0.854548 33:-0.867646 34:-0.85985 35:-0.833036 36:-0.817595 37:-0.872958 38:-0.994792 39:-0.996483 40:-0.995261 41:-0.995517 42:-0.996628 43:-0.996673 44:-0.996598 45:-0.996443 46:-0.996548 47:-0.996495 48:-0.996432 49:-0.99629 50:-0.995822 51:-0.994917 52:-0.99457 53:-0.994987 54:-0.995236 55:-0.995301 56:-0.995152 57:-0.995228 58:-0.994787 59:-0.995076 60:-0.994984 61:-0.995063 62:-0.995301 63:-0.995292 64:-0.994523 65:-0.994249 66:-0.994488 67:-0.993603 68:-0.994503 69:-0.994087 70:-0.99346 71:-0.992758 72:-0.9917 73:-0.991499 74:-0.992778 75:-0.99183 76:-0.992228 77:-0.991458 78:-0.991765 79:-0.990193 80:-0.990022 81:-0.990181 82:-0.991721 83:-0.971052 84:-0.452253 85:-0.235355 86:-0.0611275 87:-0.0743857 88:-0.141509 89:-0.980576 90:-0.986751 91:-0.644854 92:-0.705529 93:-0.987563 94:-0.983099 95:-0.986976 96:-0.987223 97:-1 98:-1 99:-1 100:-1 101:-1 102:-0.698389 103:-0.742029 104:-0.692688 105:-0.798615 106:-0.921609 107:-0.950749 108:-0.911705 109:-0.896697 110:-0.624143 111:-0.620129 112:-0.997404 113:-0.992111 114:-0.963022 115:-0.941281 116:-0.85037 117:-0.728375 118:-0.566569 119:-0.522389 120:-0.394322 121:-0.194502 122:-0.315053 123:-0.837566 
2.295214766753163 1:0.206989 2:-0.102498 3:0.549181 4:-0.995621 5:-0.995767 6:-0.995337 7:-0.995735 8:-0.995931 9:-0.996123 10:-0.995909 11:-0.996133 12:-0.9956 13:-0.994986 14:-0.993131 15:-0.977371 16:-0.907003 17:-0.784406 18:-0.656519 19:-0.626118 20:-0.614473 21:-0.620168 22:-0.765761 23:-0.999122 24:-0.99901 25:-0.998684 26:-0.998596 27:-0.998124 28:-0.998587 29:-0.998226 30:-0.998188 31:-0.998642 32:-0.998609 33:-0.997553 34:-0.99632 35:-0.98928 36:-0.985957 37:-0.998707 38:-0.998355 39:-0.0513038 40:-0.00357031 41:-0.437163 42:-0.69866 43:-0.929868 44:-0.962932 45:-0.999386 46:-0.999422 47:-0.999474 48:-0.99939 49:-0.999368 50:-0.999345 51:-0.99937 52:-0.999412 53:-0.999395 54:-0.999512 55:-0.999497 56:-0.999565 57:-0.999524 58:-0.99947 59:-0.999414 60:-0.999432 61:-0.999354 62:-0.999392 63:-0.998971 64:-0.998861 65:-0.999083 66:-0.999232 67:-0.999246 68:-0.998823 69:-0.998927 70:-0.999414 71:-0.99952 72:-0.999391 73:-0.999486 74:-0.99949 75:-0.999535 76:-0.999622 77:-0.99956 78:-0.999714 79:-0.999664 80:-0.999708 81:-0.999802 82:-0.74714 83:-0.530246 84:-0.437421 85:-0.485268 86:-0.808421 87:-0.960474 88:-0.999169 89:-0.999529 90:-0.999681 91:-0.999763 92:-0.999152 93:-0.96368 94:-0.925126 95:-0.359917 96:-0.574429 97:-0.718568 98:-0.76259 99:-0.7887 100:-0.858724 101:-0.873048 102:-0.919229 103:-0.909075 104:-0.894903 105:-0.892118 106:-0.889095 107:-0.893895 108:-1 109:-1 110:-1 111:-1 112:-1 113:-1 114:-1 115:-1 116:-1 117:-1 118:0.0774231 119:-0.281991 120:-0.637191 121:-0.590538 122:-0.68102 123:-0.652326 
5.804677784402895 1:0.135425 2:-0.101054 3:0.547302 4:-0.99524 5:-0.995351 6:-0.995475 7:-0.995525 8:-0.996031 9:-0.995973 10:-0.995985 11:-0.995818 12:-0.995304 13:-0.994966 14:-0.99338 15:-0.990034 16:-0.941695 17:-0.843236 18:-0.667834 19:-0.631214 20:-0.659925 21:-0.629812 22:-0.736053 23:-0.994993 24:-0.999354 25:-0.999262 26:-0.998875 27:-0.998485 28:-0.998587 29:-0.998397 30:-0.998006 31:-0.998591 32:-0.998815 33:-0.998426 34:-0.997146 35:-0.991138 36:-0.98873 37:-0.994224 38:-0.998001 39:-0.457567 40:-0.000463625 41:-0.163508 42:-0.663285 43:-0.949444 44:-0.969674 45:-0.995119 46:-0.999483 47:-0.999534 48:-0.999468 49:-0.999376 50:-0.999263 51:-0.999328 52:-0.99936 53:-0.999451 54:-0.999432 55:-0.999489 56:-0.999524 57:-0.999478 58:-0.999453 59:-0.999538 60:-0.999507 61:-0.999391 62:-0.999333 63:-0.999305 64:-0.998953 65:-0.999067 66:-0.999135 67:-0.999138 68:-0.999158 69:-0.998786 70:-0.999265 71:-0.99945 72:-0.999295 73:-0.999385 74:-0.999519 75:-0.999661 76:-0.999637 77:-0.99964 78:-0.999708 79:-0.999671 80:-0.99963 81:-0.999707 82:-0.907439 83:-0.657344 84:-0.409072 85:-0.316052 86:-0.717855 87:-0.943066 88:-0.956261 89:-0.999503 90:-0.999108 91:-0.998207 92:-0.99755 93:-0.997038 94:-0.950935 95:-0.915708 96:-0.864136 97:-0.487127 98:-0.622457 99:-0.684337 100:-0.759537 101:-0.744536 102:-0.845001 103:-0.845133 104:-0.889851 105:-0.900365 106:-0.878864 107:-0.882405 108:-0.881757 109:-1 110:-1 111:-1 112:-1 113:-1 114:-1 115:-1 116:-1 117:-1 118:-1 119:-1 120:-1 121:-0.0766769 122:-0.579799 123:-0.573234 
0.7178434107848873 1:0.135425 2:-0.101054 3:0.547302 4:-0.994859 5:-0.995106 6:-0.995494 7:-0.995722 8:-0.995831 9:-0.996066 10:-0.995923 11:-0.995711 12:-0.994826 13:-0.994365 14:-0.993838 15:-0.990822 16:-0.949042 17:-0.820637 18:-0.683696 19:-0.669327 20:-0.626353 21:-0.672053 22:-0.81797 23:-0.986044 24:-0.999399 25:-0.999483 26:-0.99923 27:-0.998925 28:-0.998998 29:-0.999076 30:-0.998613 31:-0.998797 32:-0.999115 33:-0.998363 34:-0.997758 35:-0.991153 36:-0.987994 37:-0.995149 38:-0.998429 39:0.125624 40:-0.0936325 41:-0.515385 42:-0.727698 43:-0.958714 44:-0.974369 45:-0.997855 46:-0.999658 47:-0.999677 48:-0.999664 49:-0.999612 50:-0.999517 51:-0.999471 52:-0.999516 53:-0.999578 54:-0.999568 55:-0.99956 56:-0.999549 57:-0.999571 58:-0.999554 59:-0.999638 60:-0.999566 61:-0.999458 62:-0.999538 63:-0.999478 64:-0.999244 65:-0.999176 66:-0.999344 67:-0.999345 68:-0.999292 69:-0.99909 70:-0.999183 71:-0.999485 72:-0.999479 73:-0.999463 74:-0.999655 75:-0.999677 76:-0.999766 77:-0.999809 78:-0.999721 79:-0.999719 80:-0.999673 81:-0.999736 82:-0.896451 83:-0.72133 84:-0.461737 85:-0.303905 86:-0.662992 87:-0.929601 88:-0.950799 89:-0.999438 90:-0.998692 91:-0.997916 92:-0.997283 93:-0.997253 94:-0.954178 95:-0.909665 96:-0.886008 97:-0.882349 98:-0.490403 99:-0.641069 100:-0.72665 101:-0.705364 102:-0.696027 103:-0.793659 104:-0.839404 105:-0.878903 106:-0.881537 107:-0.879848 108:-0.8662 109:-0.863856 110:-0.856372 111:-1 112:-1 113:-1 114:-1 115:-1 116:-1 117:-1 118:-1 119:-1 120:-1 121:-1 122:-0.269812 123:-0.230524 
0.735679140480743 1:0.182481 2:-0.133041 3:0.530964 4:-0.995246 5:-0.995047 6:-0.995148 7:-0.991206 8:-0.986973 9:-0.98015 10:-0.976359 11:-0.975853 12:-0.983851 13:-0.986844 14:-0.987743 15:-0.983793 16:-0.934833 17:-0.845026 18:-0.789187 19:-0.634005 20:-0.61453 21:-0.562527 22:-0.57777 23:-0.936873 24:-0.994315 25:-0.9938 26:-0.995137 27:-0.985488 28:-0.938907 29:-0.935865 30:-0.951017 31:-0.957203 32:-0.96274 33:-0.97284 34:-0.976816 35:-0.983511 36:-0.595755 37:-0.168175 38:0.106154 39:-0.223438 40:0.178726 41:-0.315034 42:-0.661198 43:-0.999139 44:-0.999198 45:-0.999218 46:-0.999171 47:-0.999255 48:-0.999374 49:-0.999218 50:-0.998747 51:-0.998698 52:-0.998314 53:-0.998249 54:-0.998487 55:-0.998821 56:-0.998843 57:-0.999345 58:-0.998983 59:-0.99886 60:-0.99855 61:-0.998048 62:-0.997596 63:-0.997689 64:-0.997906 65:-0.998243 66:-0.998426 67:-0.998061 68:-0.998853 69:-0.998335 70:-0.997996 71:-0.997842 72:-0.998077 73:-0.998318 74:-0.998772 75:-0.998793 76:-0.998579 77:-0.998444 78:-0.998457 79:-0.998295 80:-0.998207 81:-0.998389 82:-0.998924 83:-0.998987 84:-0.998989 85:-0.998291 86:-0.98091 87:-0.732112 88:-0.957336 89:-0.837194 90:-0.837891 91:-1 92:-1 93:-1 94:-1 95:-0.642371 96:-0.696347 97:-0.74518 98:-0.738045 99:-1 100:-1 101:-1 102:-1 103:-1 104:-1 105:-1 106:-1 107:-1 108:-1 109:-0.968228 110:-0.990166 111:-0.997288 112:-0.996881 113:-0.997005 114:-0.995617 115:-0.991135 116:-0.984466 117:-0.941284 118:-0.702888 119:-0.634566 120:-0.688325 121:-0.638092 122:-0.706645 123:-0.694955 
2.478193932900557 1:0.182481 2:-0.133041 3:0.530964 4:-0.994974 5:-0.994875 6:-0.993638 7:-0.988917 8:-0.982918 9:-0.975678 10:-0.973644 11:-0.976639 12:-0.985857 13:-0.986896 14:-0.986531 15:-0.98427 16:-0.944182 17:-0.877799 18:-0.80854 19:-0.63873 20:-0.582252 21:-0.599234 22:-0.563715 23:-0.788609 24:-0.83324 25:-0.978097 26:-0.925824 27:-0.919118 28:-0.939333 29:-0.956694 30:-0.955231 31:-0.959025 32:-0.967513 33:-0.976682 34:-0.980818 35:-0.979834 36:0.152283 37:0.0629705 38:-0.11117 39:-0.13281 40:0.0373397 41:-0.236547 42:-0.530847 43:-0.998758 44:-0.998848 45:-0.998995 46:-0.999148 47:-0.999158 48:-0.999194 49:-0.999096 50:-0.998239 51:-0.998345 52:-0.998072 53:-0.99817 54:-0.998279 55:-0.998499 56:-0.998671 57:-0.999306 58:-0.998478 59:-0.997943 60:-0.99778 61:-0.997558 62:-0.997515 63:-0.997523 64:-0.997066 65:-0.998276 66:-0.997882 67:-0.997945 68:-0.998153 69:-0.996418 70:-0.996192 71:-0.996432 72:-0.997004 73:-0.998038 74:-0.998464 75:-0.998565 76:-0.998261 77:-0.997446 78:-0.99746 79:-0.997946 80:-0.997958 81:-0.997921 82:-0.998412 83:-0.998849 84:-0.998921 85:-0.99393 86:-0.981331 87:-0.968091 88:-0.950911 89:-0.924443 90:-0.799627 91:-0.791685 92:-1 93:-1 94:-1 95:-0.634016 96:-0.679227 97:-0.713649 98:-0.705631 99:-1 100:-1 101:-1 102:-1 103:-1 104:-1 105:-1 106:-1 107:-1 108:-1 109:-0.958969 110:-0.983827 111:-0.996167 112:-0.996954 113:-0.997073 114:-0.997231 115:-0.994411 116:-0.988647 117:-0.943546 118:-0.784325 119:-0.602076 120:-0.541891 121:-0.585753 122:-0.709535 123:-0.702665 
0.06444112127553302 1:0.137002 2:-0.0436608 3:0.713589 4:-0.697087 5:-0.939864 6:-0.989698 7:-0.993175 8:-0.992959 9:-0.993797 10:-0.811829 11:-0.161451 12:0.000749733 13:-0.155682 14:0.243555 15:0.0146089 16:-0.346005 17:-0.449035 18:-0.971978 19:-0.987853 20:-0.991525 21:-0.964102 22:-0.837893 23:-0.6278 24:-0.48632 25:-0.456302 26:-0.665247 27:-0.401093 28:-0.63841 29:-0.686376 30:-0.618744 31:-0.595365 32:-0.997685 33:-0.997717 34:-0.997949 35:-0.99773 36:-0.997878 37:-0.996553 38:-0.995647 39:-0.997312 40:-0.998042 41:-0.99799 42:-0.996621 43:-0.996052 44:-0.996029 45:-0.995972 46:-0.99524 47:-0.995908 48:-0.996205 49:-0.997682 50:-0.997092 51:-0.996824 52:-0.997276 53:-0.9977 54:-0.996869 55:-0.997226 56:-0.997071 57:-0.996873 58:-0.996696 59:-0.99654 60:-0.997018 61:-0.996682 62:-0.996921 63:-0.99619 64:-0.99508 65:-0.995308 66:-0.995473 67:-0.995011 68:-0.995382 69:-0.995456 70:-0.995694 71:-0.996206 72:-0.994808 73:-0.994262 74:-0.993869 75:-0.993597 76:-0.993582 77:-0.993983 78:-0.994787 79:-0.994501 80:-0.994221 81:-0.99412 82:-0.994393 83:-0.993881 84:-0.994182 85:-0.994214 86:-0.994005 87:-0.99424 88:-0.991628 89:-0.960192 90:-0.967866 91:-0.977336 92:-0.968293 93:-0.993154 94:-0.991546 95:-0.726608 96:-0.72769 97:-0.775094 98:-0.776651 99:-0.785433 100:-0.819761 101:-0.814488 102:-0.509327 103:-0.904954 104:-0.31093 105:-0.411659 106:-0.642506 107:-0.843579 108:-0.490418 109:-0.0483798 110:0.134915 111:-0.21282 112:-0.867632 113:-0.690846 114:-0.637057 115:-0.614957 116:-0.294884 117:0.0378404 118:0.0581503 119:-0.450498 120:-0.726086 121:-0.760972 122:-0.733368 123:-0.756719 
0.07808149309464439 1:0.183857 2:-0.0748535 3:0.700592 4:-0.98121 5:-0.993056 6:-0.993851 7:-0.993583 8:-0.993886 9:-0.860534 10:-0.370756 11:-0.183969 12:-0.14272 13:-0.101354 14:-0.196851 15:-0.389631 16:-0.54221 17:-0.954352 18:-0.98197 19:-0.982015 20:-0.985017 21:-0.962878 22:-0.894732 23:-0.768738 24:-0.62299 25:-0.462335 26:-0.557259 27:-0.665193 28:-0.74068 29:-0.828066 30:-0.819355 31:-0.601725 32:-0.997835 33:-0.998114 34:-0.997429 35:-0.998025 36:-0.998213 37:-0.997622 38:-0.996577 39:-0.997996 40:-0.999041 41:-0.998218 42:-0.997695 43:-0.998212 44:-0.997742 45:-0.996786 46:-0.997612 47:-0.997638 48:-0.997739 49:-0.998285 50:-0.998829 51:-0.998849 52:-0.998815 53:-0.999021 54:-0.999055 55:-0.998986 56:-0.998843 57:-0.999088 58:-0.999025 59:-0.99933 60:-0.99929 61:-0.999243 62:-0.999128 63:-0.999087 64:-0.998753 65:-0.998814 66:-0.999008 67:-0.998459 68:-0.998831 69:-0.998749 70:-0.998612 71:-0.998702 72:-0.998438 73:-0.998038 74:-0.998234 75:-0.998801 76:-0.998511 77:-0.998598 78:-0.998679 79:-0.998589 80:-0.998577 81:-0.998741 82:-0.998826 83:-0.998594 84:-0.998656 85:-0.998369 86:-0.998558 87:-0.998506 88:-0.998489 89:-0.981818 90:-0.979417 91:-0.969055 92:-0.975348 93:-0.988915 94:-0.998434 95:-0.786374 96:-0.746224 97:-0.789571 98:-0.782717 99:-0.769236 100:-0.809757 101:-0.833141 102:-0.829484 103:-0.712604 104:-0.917737 105:-0.682506 106:-0.371833 107:-0.432271 108:-0.818308 109:-0.217747 110:-0.343439 111:-0.23361 112:0.0469434 113:-0.532407 114:-0.948726 115:-0.793324 116:-0.657041 117:-0.480947 118:-0.456297 119:-0.129319 120:0.0731227 121:-0.647343 122:-0.765305 123:-0.792689 
4.550052885533514 1:0.376927 2:0.0226429 3:0.740887 4:-0.981843 5:-0.981846 6:-0.974368 7:-0.961713 8:-0.960221 9:-0.959446 10:-0.964252 11:-0.965809 12:-0.960831 13:-0.330144 14:-0.521503 15:-0.62722 16:-0.756684 17:-0.73406 18:-0.734252 19:-0.903643 20:-0.841429 21:-0.704743 22:-0.655245 23:-0.613259 24:-0.671021 25:-0.544036 26:-0.650622 27:-0.664046 28:-0.640104 29:-0.634684 30:-0.725338 31:-0.876574 32:-0.676791 33:-0.298614 34:-0.18934 35:-0.20063 36:-0.395255 37:-0.653245 38:-0.790806 39:-0.997717 40:-0.997416 41:-0.997305 42:-0.997049 43:-0.997095 44:-0.996605 45:-0.996132 46:-0.996168 47:-0.995104 48:-0.994961 49:-0.99479 50:-0.996027 51:-0.996438 52:-0.997216 53:-0.997645 54:-0.997542 55:-0.997635 56:-0.99717 57:-0.99706 58:-0.996931 59:-0.997234 60:-0.997234 61:-0.99709 62:-0.997464 63:-0.997487 64:-0.996833 65:-0.996754 66:-0.99689 67:-0.996561 68:-0.997051 69:-0.996292 70:-0.996303 71:-0.996594 72:-0.995137 73:-0.995173 74:-0.994257 75:-0.921647 76:-0.832591 77:-0.779073 78:-0.134658 79:-0.773556 80:-0.91497 81:-0.989324 82:-0.993324 83:-0.993007 84:-0.991175 85:-0.989143 86:-0.986236 87:-0.961066 88:-0.927623 89:-0.540489 90:-0.542457 91:-1 92:-1 93:-0.594 94:-0.779674 95:-0.833843 96:-0.942568 97:-0.938493 98:-0.214464 99:-0.392777 100:-0.749015 101:-0.935664 102:-0.74257 103:-0.268329 104:-0.094301 105:-0.629743 106:-0.168137 107:-0.431905 108:-0.593588 109:-0.420533 110:-0.441413 111:-0.731064 112:-0.779889 113:-0.793954 114:-0.780437 115:-0.783905 116:-0.796078 117:-0.797565 118:-0.772025 119:-0.812004 120:-0.82003 121:-0.857054 122:-0.848802 123:-0.917832 
8.614311301077766 1:0.318896 2:0.0372778 3:0.736036 4:-0.982407 5:-0.982368 6:-0.977074 7:-0.963927 8:-0.959558 9:-0.960982 10:-0.964653 11:-0.964958 12:-0.961612 13:-0.300579 14:-0.510412 15:-0.587422 16:-0.753007 17:-0.72671 18:-0.725524 19:-0.897341 20:-0.894272 21:-0.761453 22:-0.655813 23:-0.638032 24:-0.652544 25:-0.548342 26:-0.605832 27:-0.739833 28:-0.624513 29:-0.62365 30:-0.713763 31:-0.797775 32:-0.748371 33:-0.320755 34:-0.185239 35:-0.167947 36:-0.340756 37:-0.602335 38:-0.744477 39:-0.889555 40:-0.997939 41:-0.997607 42:-0.997237 43:-0.996689 44:-0.996831 45:-0.996164 46:-0.996282 47:-0.994863 48:-0.994945 49:-0.994754 50:-0.994536 51:-0.996396 52:-0.996472 53:-0.997756 54:-0.997494 55:-0.997548 56:-0.997219 57:-0.997115 58:-0.996435 59:-0.996687 60:-0.996472 61:-0.996526 62:-0.996782 63:-0.996813 64:-0.996218 65:-0.996107 66:-0.996323 67:-0.995906 68:-0.996455 69:-0.996514 70:-0.995702 71:-0.995973 72:-0.99456 73:-0.994029 74:-0.994687 75:-0.992028 76:-0.88468 77:-0.817658 78:-0.58218 79:0.0133883 80:-0.91919 81:-0.948899 82:-0.989628 83:-0.993561 84:-0.993517 85:-0.990555 86:-0.987823 87:-0.986084 88:-0.949176 89:-0.893837 90:-0.894292 91:-1 92:-1 93:-0.646489 94:-0.615155 95:-0.815401 96:-0.856416 97:-0.943398 98:-0.779021 99:-0.186496 100:-0.461471 101:-0.885849 102:-0.954649 103:-0.649058 104:-0.183869 105:-0.254524 106:-0.4354 107:-0.220319 108:-0.463948 109:-0.456465 110:-0.401542 111:-0.480021 112:-0.732986 113:-0.790742 114:-0.770841 115:-0.768517 116:-0.776711 117:-0.78931 118:-0.787638 119:-0.778644 120:-0.818984 121:-0.836015 122:-0.867866 123:-0.799767 
4.798948183261879 1:0.318896 2:0.0372778 3:0.736036 4:-0.982557 5:-0.980232 6:-0.968968 7:-0.963024 8:-0.959772 9:-0.964873 10:-0.964736 11:-0.958089 12:-0.242178 13:-0.487274 14:-0.611127 15:-0.709189 16:-0.744573 17:-0.71792 18:-0.897389 19:-0.877953 20:-0.774839 21:-0.705681 22:-0.63885 23:-0.612486 24:-0.613806 25:-0.546235 26:-0.686457 27:-0.62087 28:-0.618776 29:-0.674478 30:-0.734548 31:-0.853633 32:-0.41756 33:-0.218545 34:-0.156868 35:-0.203576 36:-0.550411 37:-0.699824 38:-0.830156 39:-0.998022 40:-0.997218 41:-0.997445 42:-0.997041 43:-0.996863 44:-0.996582 45:-0.996323 46:-0.996229 47:-0.995156 48:-0.994484 49:-0.995213 50:-0.995356 51:-0.996623 52:-0.99719 53:-0.997597 54:-0.997382 55:-0.997501 56:-0.997047 57:-0.997162 58:-0.996612 59:-0.996633 60:-0.996696 61:-0.996756 62:-0.996929 63:-0.997081 64:-0.996459 65:-0.996141 66:-0.996219 67:-0.996163 68:-0.996648 69:-0.996122 70:-0.995754 71:-0.995734 72:-0.994264 73:-0.994815 74:-0.993811 75:-0.94159 76:-0.837891 77:-0.811472 78:-0.165935 79:-0.417256 80:-0.91233 81:-0.988577 82:-0.811093 83:-0.993116 84:-0.991005 85:-0.989491 86:-0.988257 87:-0.966543 88:-0.939174 89:-0.939743 90:-1 91:-1 92:-1 93:-0.583976 94:-0.723627 95:-0.810004 96:-0.862325 97:-0.953386 98:-0.455583 99:-0.23699 100:-0.60076 101:-0.934305 102:-0.953933 103:-0.425391 104:-0.0321213 105:-0.496263 106:-0.278496 107:-0.292075 108:-0.516525 109:-0.322314 110:-0.402692 111:-0.555025 112:-0.771681 113:-0.798991 114:-0.766211 115:-0.785911 116:-0.789719 117:-0.805734 118:-0.79557 119:-0.802743 120:-0.825322 121:-0.853542 122:-0.857384 123:-0.780846 
0.6917397887571707 1:0.168334 2:0.0514522 3:0.712589 4:-0.420207 5:-0.405462 6:-0.738829 7:-0.746972 8:-0.732043 9:-0.767114 10:-0.878632 11:-0.845536 12:-0.991693 13:-0.992122 14:-0.992215 15:-0.992131 16:-0.991887 17:-0.99091 18:-0.991646 19:-0.981325 20:-0.602808 21:-0.319585 22:-0.518778 23:-0.48723 24:-0.259052 25:-0.399715 26:-0.775447 27:-0.624565 28:0.025782 29:-0.863365 30:-0.489433 31:-0.336816 32:-0.44902 33:-0.777258 34:-0.984269 35:-0.985571 36:-0.986893 37:-0.98366 38:-0.987164 39:-0.982238 40:-0.986884 41:-0.992704 42:-0.99213 43:-0.991773 44:-0.993001 45:-0.991346 46:-0.991225 47:-0.993193 48:-0.993881 49:-0.993254 50:-0.991063 51:-0.992346 52:-0.993178 53:-0.99525 54:-0.996165 55:-0.99578 56:-0.996136 57:-0.996522 58:-0.996048 59:-0.995777 60:-0.996031 61:-0.996637 62:-0.997134 63:-0.997009 64:-0.996368 65:-0.996611 66:-0.996726 67:-0.996868 68:-0.997043 69:-0.996877 70:-0.997454 71:-0.99799 72:-0.998109 73:-0.998303 74:-0.997904 75:-0.99668 76:-0.997596 77:-0.997909 78:-0.99753 79:-0.997096 80:-0.100313 81:-0.675884 82:-0.66684 83:-1 84:-1 85:-1 86:-1 87:-1 88:-1 89:-1 90:-1 91:-1 92:-1 93:-1 94:-1 95:-1 96:-1 97:-1 98:-1 99:-0.845013 100:-0.859883 101:-0.960308 102:-0.973767 103:-0.832091 104:-0.507061 105:-0.544865 106:-0.731213 107:-0.797958 108:-0.855908 109:-0.195339 110:0.221172 111:-0.475361 112:-0.582661 113:-0.411322 114:-0.495388 115:-0.826806 116:-0.99265 117:0.289223 118:0.114264 119:-0.456061 120:-0.826605 121:-0.885551 122:-0.887651 123:-0.868881 
0.9184846654132197 1:0.168334 2:0.0514522 3:0.712589 4:-0.410135 5:-0.711467 6:-0.760585 7:-0.739848 8:-0.759621 9:-0.853592 10:-0.82784 11:-0.991651 12:-0.991947 13:-0.992254 14:-0.992531 15:-0.991415 16:-0.991115 17:-0.991702 18:-0.991632 19:-0.661425 20:-0.275489 21:-0.466225 22:-0.563521 23:-0.276155 24:-0.451873 25:-0.779295 26:-0.64024 27:-0.681697 28:-0.931591 29:-0.502298 30:-0.283046 31:-0.454782 32:-0.873079 33:-0.986393 34:-0.985317 35:-0.983177 36:-0.985071 37:-0.983237 38:-0.986065 39:-0.986118 40:-0.990022 41:-0.991696 42:-0.991965 43:-0.992609 44:-0.992876 45:-0.990349 46:-0.992275 47:-0.992464 48:-0.993568 49:-0.992716 50:-0.991162 51:-0.99348 52:-0.993238 53:-0.994502 54:-0.994844 55:-0.99512 56:-0.995053 57:-0.99554 58:-0.995149 59:-0.995361 60:-0.995889 61:-0.996221 62:-0.99632 63:-0.996472 64:-0.996609 65:-0.996401 66:-0.996875 67:-0.996271 68:-0.995956 69:-0.996344 70:-0.996778 71:-0.997779 72:-0.997332 73:-0.996738 74:-0.996439 75:-0.994898 76:-0.996129 77:-0.996705 78:-0.995422 79:-0.993528 80:-0.133149 81:-0.108116 82:-1 83:-1 84:-1 85:-0.528517 86:-0.541275 87:-1 88:-1 89:-1 90:-1 91:-1 92:-1 93:-1 94:-1 95:-1 96:-1 97:-1 98:-1 99:-0.834191 100:-0.909301 101:-0.970502 102:-0.97385 103:-0.809129 104:-0.466403 105:-0.55595 106:-0.724931 107:-0.79089 108:-0.769387 109:-0.0972806 110:0.327852 111:-0.519579 112:-0.539497 113:-0.405339 114:-0.505972 115:-0.875675 116:-0.283324 117:0.473368 118:0.0128756 119:-0.520026 120:-0.807562 121:-0.878087 122:-0.87692 123:-0.869622 
1.460489080962731 1:0.112203 2:0.0575824 3:0.696621 4:-0.462961 5:-0.715224 6:-0.753046 7:-0.738035 8:-0.752474 9:-0.839119 10:-0.827654 11:-0.991679 12:-0.991771 13:-0.992525 14:-0.992767 15:-0.991611 16:-0.990944 17:-0.991502 18:-0.991859 19:-0.732164 20:-0.301871 21:-0.391903 22:-0.694061 23:-0.281943 24:-0.41175 25:-0.806592 26:-0.697397 27:-0.727753 28:-0.912123 29:-0.547855 30:-0.28413 31:-0.351707 32:-0.745621 33:-0.647655 34:-0.989066 35:-0.986209 36:-0.985564 37:-0.985096 38:-0.990447 39:-0.989128 40:-0.992352 41:-0.992977 42:-0.994699 43:-0.993577 44:-0.994931 45:-0.9933 46:-0.992275 47:-0.992704 48:-0.992684 49:-0.99456 50:-0.992988 51:-0.994102 52:-0.993852 53:-0.995234 54:-0.995709 55:-0.995607 56:-0.995546 57:-0.995805 58:-0.995746 59:-0.996039 60:-0.996098 61:-0.99634 62:-0.996496 63:-0.996951 64:-0.996376 65:-0.996838 66:-0.996979 67:-0.996346 68:-0.996626 69:-0.996255 70:-0.996726 71:-0.99701 72:-0.99698 73:-0.997213 74:-0.996202 75:-0.994377 76:-0.995797 77:-0.995898 78:-0.995302 79:-0.992556 80:-0.991923 81:-0.676074 82:-0.667035 83:-1 84:-1 85:-1 86:-0.509 87:-0.521117 88:-1 89:-1 90:-1 91:-1 92:-1 93:-1 94:-1 95:-1 96:-1 97:-1 98:-1 99:-0.810366 100:-0.823856 101:-0.932259 102:-0.974663 103:-0.966319 104:-0.673418 105:-0.462174 106:-0.544299 107:-0.749338 108:-0.726971 109:-0.541993 110:0.215507 111:0.0757385 112:-0.672484 113:-0.506153 114:-0.386076 115:-0.490705 116:-0.824716 117:0.413132 118:0.163811 119:0.0122282 120:-0.523287 121:-0.840671 122:-0.874966 123:-0.853212 
3.191465385910627 1:0.00504588 2:0.0523009 3:0.758002 4:-0.99252 5:-0.993724 6:-0.994405 7:-0.994194 8:-0.99338 9:-0.993783 10:-0.994306 11:-0.993338 12:-0.994094 13:-0.995025 14:-0.993723 15:-0.645894 16:-0.41845 17:-0.393292 18:-0.735296 19:-0.273346 20:-0.465735 21:-0.796678 22:-0.988984 23:-0.983882 24:-0.885152 25:-0.444274 26:-0.262207 27:-0.328258 28:-0.599582 29:-0.900633 30:-0.116228 31:-0.315144 32:-0.911137 33:-0.972006 34:-0.970703 35:-0.972472 36:-0.974301 37:-0.969841 38:-0.974844 39:-0.973243 40:-0.976399 41:-0.976014 42:-0.976932 43:-0.979787 44:-0.979702 45:-0.976902 46:-0.974596 47:-0.975315 48:-0.976206 49:-0.980071 50:-0.976925 51:-0.975257 52:-0.976456 53:-0.97811 54:-0.980857 55:-0.980621 56:-0.980066 57:-0.98205 58:-0.980451 59:-0.982277 60:-0.98289 61:-0.982955 62:-0.983764 63:-0.98376 64:-0.981931 65:-0.982595 66:-0.984524 67:-0.983692 68:-0.985178 69:-0.985258 70:-0.985242 71:-0.986256 72:-0.985203 73:-0.984974 74:-0.986029 75:-0.982431 76:-0.983837 77:-0.985991 78:-0.988406 79:-0.986803 80:-0.98297 81:-0.978422 82:-0.970805 83:-0.971744 84:-1 85:-1 86:-1 87:-1 88:-0.378926 89:-0.336392 90:-0.339233 91:-1 92:-1 93:-0.73079 94:-0.822261 95:-0.886331 96:-0.868261 97:-0.828674 98:-0.869215 99:-0.866694 100:-1 101:-0.68461 102:-0.535924 103:-0.743679 104:-0.862638 105:-0.726161 106:-0.721713 107:-0.590319 108:-0.318301 109:-0.151203 110:-0.216599 111:-0.335513 112:-0.328058 113:-0.411629 114:-0.813413 115:-0.999022 116:-0.712122 117:-0.678404 118:-0.379014 119:-0.3834 120:-0.690127 121:-0.989003 122:0.0433485 123:0.541677 
1.832029059360626 1:-0.0204289 2:0.0290982 3:0.750551 4:-0.993988 5:-0.994458 6:-0.994261 7:-0.994004 8:-0.994057 9:-0.993374 10:-0.994161 11:-0.994417 12:-0.995121 13:-0.803296 14:-0.454192 15:-0.305564 16:-0.765678 17:-0.297362 18:-0.337107 19:-0.622941 20:-0.942762 21:-0.98644 22:-0.881981 23:-0.653842 24:-0.33137 25:-0.25556 26:-0.470496 27:-0.881073 28:-0.337992 29:-0.0986555 30:-0.507777 31:-0.923828 32:-0.969678 33:-0.970268 34:-0.972746 35:-0.972534 36:-0.976117 37:-0.975466 38:-0.979123 39:-0.980395 40:-0.978681 41:-0.982206 42:-0.986176 43:-0.983934 44:-0.984997 45:-0.981217 46:-0.983469 47:-0.983942 48:-0.979899 49:-0.984772 50:-0.980923 51:-0.981499 52:-0.980865 53:-0.982423 54:-0.98317 55:-0.983434 56:-0.983782 57:-0.982799 58:-0.983041 59:-0.985822 60:-0.986433 61:-0.986273 62:-0.986087 63:-0.986795 64:-0.985106 65:-0.985084 66:-0.986963 67:-0.985399 68:-0.98777 69:-0.987811 70:-0.988322 71:-0.990409 72:-0.988936 73:-0.989147 74:-0.988757 75:-0.987509 76:-0.988101 77:-0.987804 78:-0.991384 79:-0.989687 80:-0.986464 81:-0.984374 82:-0.955127 83:-0.969908 84:-0.971957 85:-1 86:-1 87:-1 88:-0.383287 89:-0.367063 90:-0.369773 91:-1 92:-1 93:-0.793004 94:-0.842998 95:-0.857014 96:-0.888493 97:-0.866856 98:-0.841444 99:-0.857501 100:-0.86571 101:-1 102:-0.863134 103:-0.677967 104:-0.612446 105:-0.688231 106:-0.685108 107:-0.718978 108:-0.554528 109:-0.258862 110:-0.0559195 111:-0.773321 112:-0.99927 113:-0.999129 114:-0.999007 115:-0.999168 116:-0.998951 117:-0.767397 118:-0.687703 119:-0.415593 120:-0.375847 121:-0.538064 122:-0.8782 123:-0.227513 
3.46190884061604 1:0.0849031 2:-0.00743931 3:0.733537 4:-0.993179 5:-0.994286 6:-0.994858 7:-0.99454 8:-0.994427 9:-0.99397 10:-0.994568 11:-0.99506 12:-0.949673 13:-0.67647 14:-0.4299 15:-0.575496 16:-0.552093 17:-0.470159 18:-0.605787 19:-0.888908 20:-0.988429 21:-0.926723 22:-0.824811 23:-0.493176 24:-0.41574 25:-0.456432 26:-0.69372 27:-0.893774 28:-0.283127 29:-0.17776 30:-0.631434 31:-0.971119 32:-0.982077 33:-0.985964 34:-0.986067 35:-0.98467 36:-0.985636 37:-0.984857 38:-0.986293 39:-0.985383 40:-0.986678 41:-0.989656 42:-0.989157 43:-0.987468 44:-0.989248 45:-0.987151 46:-0.986678 47:-0.990207 48:-0.985673 49:-0.990147 50:-0.985371 51:-0.985196 52:-0.983684 53:-0.98886 54:-0.990368 55:-0.989132 56:-0.990074 57:-0.988631 58:-0.990659 59:-0.991254 60:-0.991307 61:-0.993942 62:-0.991219 63:-0.989867 64:-0.993625 65:-0.992903 66:-0.994264 67:-0.994224 68:-0.995494 69:-0.995397 70:-0.995301 71:-0.995 72:-0.994424 73:-0.994543 74:-0.994357 75:-0.994551 76:-0.994209 77:-0.99421 78:-0.995809 79:-0.994932 80:-0.85988 81:-0.76662 82:-0.760108 83:-0.970957 84:-0.972934 85:-1 86:-1 87:-0.372985 88:-0.468264 89:-0.436967 90:-0.427358 91:-0.404659 92:-1 93:-1 94:-0.842903 95:-0.780936 96:-0.820511 97:-0.853083 98:-0.832629 99:-0.808129 100:-0.872998 101:-0.869269 102:-1 103:-0.782486 104:-0.630824 105:-0.794081 106:-0.658493 107:-0.78214 108:-0.573338 109:-0.473768 110:-0.179036 111:-0.998558 112:-0.999115 113:-0.998836 114:-0.999302 115:-0.999263 116:-0.999254 117:-0.998041 118:-0.861947 119:-0.656801 120:-0.472241 121:-0.423548 122:-0.648086 123:-0.917061 
2.925807602791467 1:0.287962 2:-0.0292155 3:0.737017 4:-0.994328 5:-0.994491 6:-0.9954 7:-0.995538 8:-0.995881 9:-0.821846 10:-0.480563 11:-0.224 12:-0.662367 13:-0.358265 14:-0.266015 15:-0.515723 16:-0.873794 17:-0.890161 18:-0.898469 19:-0.512053 20:-0.197235 21:-0.207303 22:-0.386524 23:-0.767649 24:-0.846033 25:-0.839154 26:-0.85999 27:-0.822851 28:-0.890976 29:-0.974593 30:-0.989319 31:-0.992156 32:-0.991173 33:-0.991513 34:-0.993496 35:-0.994294 36:-0.987022 37:-0.98299 38:-0.983202 39:-0.961534 40:-0.951078 41:-0.959111 42:-0.957041 43:-0.969458 44:-0.975623 45:-0.985476 46:-0.985804 47:-0.982302 48:-0.978639 49:-0.985052 50:-0.987066 51:-0.986104 52:-0.986157 53:-0.987476 54:-0.988751 55:-0.991615 56:-0.991526 57:-0.989941 58:-0.990406 59:-0.990969 60:-0.99118 61:-0.991255 62:-0.989987 63:-0.990663 64:-0.989968 65:-0.988808 66:-0.990147 67:-0.989907 68:-0.989647 69:-0.98844 70:-0.98804 71:-0.990261 72:-0.988984 73:-0.988229 74:-0.987831 75:-0.98288 76:-0.984071 77:-0.983826 78:-0.961746 79:-0.797635 80:-0.676306 81:0.359757 82:0.3977 83:-1 84:-1 85:-1 86:-1 87:-1 88:-1 89:-1 90:-0.242096 91:-0.355184 92:-0.425529 93:-0.412517 94:-0.380065 95:-0.448574 96:-0.525762 97:-0.51054 98:-1 99:-1 100:-1 101:-0.734322 102:-0.777804 103:-0.771568 104:-1 105:-1 106:-1 107:-1 108:-0.289684 109:-0.380933 110:-0.411867 111:-0.975425 112:-0.944594 113:-0.94603 114:-0.922719 115:-0.897286 116:-0.971606 117:-0.547335 118:-0.766476 119:-0.969671 120:-0.810762 121:-0.99035 122:-0.794157 123:-0.878852 
0.4244297207441199 1:0.254069 2:-0.0169822 3:0.740248 4:-0.994668 5:-0.994868 6:-0.995557 7:-0.995246 8:-0.945861 9:-0.654583 10:-0.312625 11:-0.363638 12:-0.483451 13:-0.279848 14:-0.342459 15:-0.699014 16:-0.908547 17:-0.274342 18:-0.781744 19:-0.313328 20:-0.17221 21:-0.28542 22:-0.498006 23:-0.876644 24:-0.781432 25:-0.839154 26:-0.792451 27:-0.855224 28:-0.90759 29:-0.982198 30:-0.988516 31:-0.989825 32:-0.987127 33:-0.987484 34:-0.984093 35:-0.981397 36:-0.982527 37:-0.983149 38:-0.972306 39:-0.951583 40:-0.952045 41:-0.961239 42:-0.957258 43:-0.967984 44:-0.979399 45:-0.983985 46:-0.983203 47:-0.981227 48:-0.978467 49:-0.983315 50:-0.987001 51:-0.986347 52:-0.984419 53:-0.98625 54:-0.988062 55:-0.989926 56:-0.989606 57:-0.989505 58:-0.988481 59:-0.988958 60:-0.989251 61:-0.990007 62:-0.989862 63:-0.989874 64:-0.98779 65:-0.986135 66:-0.988506 67:-0.988316 68:-0.988448 69:-0.987833 70:-0.987253 71:-0.988985 72:-0.987566 73:-0.98696 74:-0.985239 75:-0.982478 76:-0.982037 77:-0.983386 78:-0.971251 79:-0.863604 80:-0.807395 81:0.224721 82:0.112438 83:0.0766496 84:-1 85:-1 86:-1 87:-1 88:-1 89:-1 90:-0.153216 91:-0.229989 92:-0.395277 93:-0.413682 94:-0.404191 95:-0.44879 96:-0.469387 97:-0.508439 98:-0.494674 99:-1 100:-1 101:-1 102:-0.700228 103:-0.766782 104:-0.76886 105:-1 106:-1 107:-1 108:-1 109:-0.202348 110:-0.430077 111:-0.975165 112:-0.95309 113:-0.939876 114:-0.922824 115:-0.907471 116:-0.942237 117:-0.587696 118:-0.742931 119:-0.832194 120:-0.812247 121:-0.991534 122:-0.994308 123:-0.867955 
2.463253034058144 1:0.325022 2:-0.0125313 3:0.748773 4:-0.988691 5:-0.990364 6:-0.991863 7:-0.805863 8:-0.469558 9:-0.302906 10:-0.764105 11:-0.282167 12:-0.375863 13:-0.637397 14:-0.897244 15:-0.913287 16:-0.933008 17:-0.482272 18:-0.208972 19:-0.367594 20:-0.527563 21:-0.830464 22:-0.867271 23:-0.815492 24:-0.762103 25:-0.667566 26:-0.678355 27:-0.703311 28:-0.888951 29:-0.989928 30:-0.987902 31:-0.985604 32:-0.980015 33:-0.984203 34:-0.978064 35:-0.972837 36:-0.936089 37:-0.895689 38:-0.904635 39:-0.891381 40:-0.918663 41:-0.909874 42:-0.92753 43:-0.960849 44:-0.979515 45:-0.979566 46:-0.979972 47:-0.980084 48:-0.985227 49:-0.986243 50:-0.989016 51:-0.9857 52:-0.987298 53:-0.986664 54:-0.987774 55:-0.98958 56:-0.990861 57:-0.989247 58:-0.988506 59:-0.990522 60:-0.990933 61:-0.989555 62:-0.99031 63:-0.990272 64:-0.987807 65:-0.986412 66:-0.988961 67:-0.98994 68:-0.989506 69:-0.988936 70:-0.990646 71:-0.990797 72:-0.99013 73:-0.988922 74:-0.988176 75:-0.987343 76:-0.986634 77:-0.987217 78:-0.905129 79:-0.677291 80:-0.539816 81:-0.318225 82:-0.299201 83:-1 84:-1 85:-1 86:-1 87:-1 88:-1 89:-1 90:-1 91:-0.194314 92:-0.363016 93:-0.4155 94:-0.40761 95:-0.461976 96:-0.472209 97:-1 98:-1 99:-1 100:-1 101:-1 102:-1 103:-0.185235 104:-0.192493 105:-1 106:-1 107:-1 108:-1 109:-1 110:-0.469186 111:-0.650211 112:-0.507793 113:-0.303885 114:-0.284563 115:0.0881001 116:-0.529748 117:-0.44513 118:-0.63958 119:-0.901196 120:-0.891347 121:-0.888448 122:-0.996463 123:-0.994178 
3.868772541499054 1:0.138549 2:0.0594783 3:0.763742 4:-0.425375 5:-0.480168 6:-0.373744 7:-0.366147 8:-0.43843 9:-0.65543 10:-0.913163 11:-0.808758 12:-0.358587 13:-0.249709 14:-0.313446 15:-0.429306 16:-0.635535 17:-0.839879 18:-0.977554 19:-0.924638 20:-0.778273 21:-0.695851 22:-0.46834 23:-0.60061 24:-0.562049 25:-0.460372 26:-0.339872 27:-0.419834 28:-0.496692 29:-0.57573 30:-0.658306 31:-0.645725 32:-0.584609 33:-0.596523 34:-0.707856 35:-0.779216 36:-0.81936 37:-0.859267 38:-0.903079 39:-0.857041 40:-0.861919 41:-0.585965 42:-0.553337 43:-0.877781 44:-0.976565 45:-0.977317 46:-0.978983 47:-0.978429 48:-0.977771 49:-0.98076 50:-0.976803 51:-0.978004 52:-0.977813 53:-0.97753 54:-0.978094 55:-0.978979 56:-0.979828 57:-0.980631 58:-0.978046 59:-0.979842 60:-0.981455 61:-0.98193 62:-0.982892 63:-0.983138 64:-0.979986 65:-0.979349 66:-0.983062 67:-0.981231 68:-0.983391 69:-0.982053 70:-0.982814 71:-0.984154 72:-0.980756 73:-0.982289 74:-0.982956 75:-0.983243 76:-0.982166 77:-0.981713 78:-0.98452 79:-0.985249 80:-0.946967 81:-0.931435 82:-0.325807 83:-0.888426 84:-0.896021 85:-1 86:-1 87:-1 88:-1 89:-1 90:-1 91:-1 92:-1 93:-1 94:-1 95:-1 96:-1 97:-1 98:-1 99:-0.312539 100:-0.352139 101:-1 102:-1 103:-1 104:-1 105:-1 106:-1 107:-1 108:-1 109:-1 110:-1 111:-0.983111 112:-0.806216 113:-0.295792 114:-0.11972 115:-0.594491 116:-0.511931 117:0.0537963 118:-0.145173 119:-0.770544 120:0.0666221 121:-0.967659 122:-0.920369 123:-0.936716 
8.596875997206485 1:0.082027 2:0.0457463 3:0.776877 4:-0.370842 5:-0.347872 6:-0.363367 7:-0.449851 8:-0.661656 9:-0.857677 10:-0.867223 11:-0.322649 12:-0.175716 13:-0.328112 14:-0.517577 15:-0.610753 16:-0.83904 17:-0.977807 18:-0.957651 19:-0.82288 20:-0.725962 21:-0.52184 22:-0.637957 23:-0.555958 24:-0.491352 25:-0.297898 26:-0.372913 27:-0.478071 28:-0.553373 29:-0.627572 30:-0.629758 31:-0.600973 32:-0.553403 33:-0.701951 34:-0.72358 35:-0.783243 36:-0.859637 37:-0.895553 38:-0.887875 39:-0.84414 40:-0.911903 41:-0.529373 42:-0.747447 43:-0.977197 44:-0.978013 45:-0.979 46:-0.977135 47:-0.977256 48:-0.976057 49:-0.97911 50:-0.976499 51:-0.975459 52:-0.975167 53:-0.976941 54:-0.977998 55:-0.979112 56:-0.977662 57:-0.978253 58:-0.977323 59:-0.979981 60:-0.980834 61:-0.980832 62:-0.981338 63:-0.981211 64:-0.978515 65:-0.978794 66:-0.981764 67:-0.980054 68:-0.981633 69:-0.981165 70:-0.981678 71:-0.982455 72:-0.979923 73:-0.980988 74:-0.982081 75:-0.981516 76:-0.980934 77:-0.982483 78:-0.984076 79:-0.981708 80:-0.955158 81:-0.928287 82:-0.707791 83:-0.854597 84:-0.864496 85:-1 86:-1 87:-1 88:-1 89:-1 90:-1 91:-1 92:-1 93:-1 94:-1 95:-1 96:-1 97:-1 98:-1 99:-1 100:-1 101:-1 102:-1 103:-1 104:-1 105:-0.921982 106:-0.921063 107:-1 108:-1 109:-1 110:-0.987242 111:-0.98501 112:-0.508464 113:-0.333998 114:-0.129796 115:-0.621589 116:-0.451561 117:-0.00172165 118:-0.715926 119:-0.755707 120:0.18264 121:-0.968931 122:-0.924418 123:-0.94038 
0.6946392950616948 1:0.082027 2:0.0457463 3:0.776877 4:-0.297404 5:-0.384524 6:-0.4045 7:-0.40095 8:-0.60364 9:-0.851941 10:-0.918554 11:-0.35283 12:-0.192703 13:-0.308483 14:-0.472018 15:-0.576118 16:-0.840872 17:-0.792569 18:-0.960891 19:-0.858246 20:-0.617145 21:-0.611498 22:-0.667507 23:-0.537077 24:-0.568335 25:-0.372288 26:-0.309451 27:-0.453831 28:-0.549582 29:-0.587166 30:-0.610111 31:-0.61587 32:-0.583463 33:-0.67702 34:-0.729097 35:-0.766047 36:-0.836361 37:-0.875639 38:-0.904562 39:-0.848722 40:-0.924774 41:-0.53181 42:-0.639061 43:-0.849787 44:-0.97781 45:-0.978912 46:-0.979318 47:-0.978226 48:-0.978655 49:-0.979691 50:-0.976729 51:-0.975198 52:-0.975712 53:-0.978182 54:-0.978383 55:-0.978311 56:-0.977941 57:-0.978089 58:-0.976743 59:-0.97958 60:-0.97996 61:-0.980935 62:-0.98133 63:-0.981493 64:-0.978673 65:-0.978374 66:-0.981234 67:-0.98017 68:-0.982199 69:-0.98209 70:-0.981262 71:-0.982772 72:-0.980299 73:-0.981183 74:-0.981535 75:-0.981808 76:-0.981145 77:-0.983496 78:-0.985574 79:-0.984407 80:-0.979084 81:-0.972483 82:-0.638495 83:-0.820594 84:-0.832807 85:-1 86:-1 87:-1 88:-1 89:-1 90:-1 91:-1 92:-1 93:-1 94:-1 95:-1 96:-1 97:-1 98:-1 99:-1 100:-1 101:-1 102:-1 103:-1 104:-1 105:-1 106:-1 107:-1 108:-1 109:-1 110:-0.981548 111:-0.988105 112:-0.828915 113:-0.510918 114:-0.333131 115:-0.0251423 116:-0.669812 117:-0.318974 118:0.0173248 119:-0.777902 120:-0.70377 121:0.00900389 122:-0.878409 123:-0.923441 
6.790942462374608 1:0.082027 2:0.0457463 3:0.776877 4:-0.384967 5:-0.346622 6:-0.444739 7:-0.585173 8:-0.858036 9:-0.916372 10:-0.385903 11:-0.165919 12:-0.247627 13:-0.49731 14:-0.598345 15:-0.827659 16:-0.822275 17:-0.969879 18:-0.872401 19:-0.572244 20:-0.496103 21:-0.710965 22:-0.600472 23:-0.575206 24:-0.44525 25:-0.306176 26:-0.373782 27:-0.48217 28:-0.559961 29:-0.653097 30:-0.612983 31:-0.612461 32:-0.651796 33:-0.714841 34:-0.764155 35:-0.78898 36:-0.872865 37:-0.895314 38:-0.875075 39:-0.87028 40:-0.516086 41:-0.513854 42:-0.70858 43:-0.972777 44:-0.980045 45:-0.979957 46:-0.977881 47:-0.97964 48:-0.977708 49:-0.979942 50:-0.977941 51:-0.976097 52:-0.976473 53:-0.979002 54:-0.978903 55:-0.978924 56:-0.978351 57:-0.978588 58:-0.977424 59:-0.98032 60:-0.980603 61:-0.981195 62:-0.981484 63:-0.982189 64:-0.978216 65:-0.978937 66:-0.982368 67:-0.980758 68:-0.982639 69:-0.981846 70:-0.982087 71:-0.983682 72:-0.980588 73:-0.981977 74:-0.984529 75:-0.981642 76:-0.985318 77:-0.982799 78:-0.985447 79:-0.982893 80:-0.980757 81:-0.974592 82:-0.548787 83:-0.86548 84:-0.874638 85:-1 86:-1 87:-1 88:-1 89:-1 90:-1 91:-1 92:-1 93:-1 94:-1 95:-1 96:-1 97:-1 98:-1 99:-1 100:-1 101:-1 102:-1 103:-1 104:-1 105:-1 106:-1 107:-1 108:-0.957462 109:-0.978057 110:-0.9816 111:-0.984928 112:-0.983732 113:-0.501457 114:-0.384272 115:0.0478914 116:-0.632347 117:-0.175263 118:0.00793194 119:-0.824202 120:0.0974102 121:-0.902828 122:-0.893633 123:-0.929337 
1.837832970950732 1:0.091574 2:0.0192934 3:0.792224 4:-0.394059 5:-0.330035 6:-0.450598 7:-0.572012 8:-0.855357 9:-0.913823 10:-0.391681 11:-0.160064 12:-0.242495 13:-0.493767 14:-0.587185 15:-0.829004 16:-0.815823 17:-0.971248 18:-0.884098 19:-0.720715 20:-0.560517 21:-0.738672 22:-0.616932 23:-0.554591 24:-0.451089 25:-0.302273 26:-0.340839 27:-0.512313 28:-0.55431 29:-0.645285 30:-0.62045 31:-0.608263 32:-0.666368 33:-0.728558 34:-0.736602 35:-0.762626 36:-0.859637 37:-0.892521 38:-0.887875 39:-0.835094 40:-0.52753 41:-0.545562 42:-0.559194 43:-0.642496 44:-0.97929 45:-0.981807 46:-0.982238 47:-0.981528 48:-0.983412 49:-0.982892 50:-0.981422 51:-0.981457 52:-0.980986 53:-0.986402 54:-0.983523 55:-0.984637 56:-0.984266 57:-0.984296 58:-0.98389 59:-0.984989 60:-0.985618 61:-0.9866 62:-0.985948 63:-0.985687 64:-0.984507 65:-0.984108 66:-0.986948 67:-0.984844 68:-0.985811 69:-0.986797 70:-0.987706 71:-0.987483 72:-0.986236 73:-0.986096 74:-0.987953 75:-0.986515 76:-0.984683 77:-0.989279 78:-0.987987 79:-0.985516 80:-0.98524 81:-0.985239 82:-0.984503 83:-0.778607 84:-0.840797 85:-0.833699 86:-1 87:-1 88:-1 89:-1 90:-1 91:-1 92:-1 93:-1 94:-1 95:-1 96:-1 97:-1 98:-1 99:-1 100:-1 101:-1 102:-1 103:-1 104:-1 105:-1 106:-1 107:-1 108:-0.920646 109:-0.951717 110:-0.97507 111:-0.976757 112:-1 113:-1 114:-0.54958 115:-0.396272 116:-0.133745 117:-0.602737 118:0.205758 119:0.000975419 120:-0.770544 121:-0.0176863 122:-0.963307 123:-0.895944 
8.322402780296434 1:0.091574 2:0.0192934 3:0.792224 4:-0.347986 5:-0.388849 6:-0.599251 7:-0.840007 8:-0.911662 9:-0.385601 10:-0.195244 11:-0.214007 12:-0.450034 13:-0.604374 14:-0.833219 15:-0.729548 16:-0.978724 17:-0.936115 18:-0.759343 19:-0.414737 20:-0.71712 21:-0.645849 22:-0.57772 23:-0.52111 24:-0.342703 25:-0.312346 26:-0.403297 27:-0.524227 28:-0.595301 29:-0.612878 30:-0.615909 31:-0.680827 32:-0.720863 33:-0.752335 34:-0.750995 35:-0.823964 36:-0.891567 37:-0.894548 38:-0.838285 39:-0.535319 40:-0.494553 41:-0.520553 42:-0.559292 43:-0.776279 44:-0.983237 45:-0.985229 46:-0.983964 47:-0.987011 48:-0.98709 49:-0.986846 50:-0.986419 51:-0.984406 52:-0.986676 53:-0.987786 54:-0.989367 55:-0.98859 56:-0.988154 57:-0.988928 58:-0.9869 59:-0.991485 60:-0.990133 61:-0.989532 62:-0.988367 63:-0.99159 64:-0.988987 65:-0.988363 66:-0.990006 67:-0.990147 68:-0.991405 69:-0.991852 70:-0.992116 71:-0.992292 72:-0.989385 73:-0.991203 74:-0.989892 75:-0.986847 76:-0.990807 77:-0.98856 78:-0.989987 79:-0.987968 80:-0.988599 81:-0.990137 82:-0.326883 83:-0.891427 84:-0.898818 85:-1 86:-1 87:-1 88:-1 89:-1 90:-1 91:-1 92:-1 93:-1 94:-1 95:-1 96:-1 97:-1 98:-1 99:-1 100:-1 101:-1 102:-1 103:-1 104:-1 105:-1 106:-0.822153 107:-0.857417 108:-0.902845 109:-0.958108 110:-0.955805 111:-1 112:-1 113:-1 114:-0.544718 115:-0.415708 116:-0.22248 117:-0.52164 118:0.116766 119:-0.00602465 120:-0.755707 121:-0.14031 122:-0.970522 123:-0.919073 
5.025481842224775 1:0.144286 2:-0.00142647 3:0.776729 4:-0.302709 5:-0.402446 6:-0.649515 7:-0.867395 8:-0.909909 9:-0.194245 10:-0.114675 11:-0.272166 12:-0.503353 13:-0.697372 14:-0.832182 15:-0.706181 16:-0.978724 17:-0.923069 18:-0.766242 19:-0.428134 20:-0.754793 21:-0.7262 22:-0.606794 23:-0.525584 24:-0.33517 25:-0.237476 26:-0.380018 27:-0.416998 28:-0.481692 29:-0.664093 30:-0.691606 31:-0.69875 32:-0.698728 33:-0.622209 34:-0.680503 35:-0.762416 36:-0.865168 37:-0.86095 38:-0.869291 39:-0.568586 40:-0.602305 41:-0.552129 42:-0.474612 43:-0.463835 44:-0.821183 45:-0.989544 46:-0.992503 47:-0.99102 48:-0.992387 49:-0.993312 50:-0.992292 51:-0.991405 52:-0.991267 53:-0.990388 54:-0.991465 55:-0.990428 56:-0.991263 57:-0.99239 58:-0.991735 59:-0.992071 60:-0.991382 61:-0.991581 62:-0.991394 63:-0.992018 64:-0.990891 65:-0.990759 66:-0.991527 67:-0.99105 68:-0.991911 69:-0.991941 70:-0.992354 71:-0.992186 72:-0.989849 73:-0.989147 74:-0.990538 75:-0.989228 76:-0.989802 77:-0.988317 78:-0.990762 79:-0.987927 80:-0.989617 81:-0.987362 82:-0.990697 83:-0.647364 84:-0.895906 85:-0.891264 86:-1 87:-1 88:-1 89:-1 90:-1 91:-1 92:-1 93:-1 94:-1 95:-1 96:-1 97:-1 98:-1 99:-1 100:-1 101:-1 102:-1 103:-1 104:-1 105:-1 106:-1 107:-0.823889 108:-0.822919 109:-1 110:-1 111:-1 112:-1 113:-1 114:-1 115:-0.443616 116:-0.502247 117:-0.166222 118:-0.462583 119:0.119733 120:-0.146971 121:-0.233116 122:-0.226571 123:0.332288 
8.467332095566608 1:0.261997 2:-0.0105902 3:0.777738 4:-0.797115 5:-0.821185 6:-0.418798 7:-0.326278 8:-0.497743 9:-0.61385 10:-0.695422 11:-0.86626 12:-0.787822 13:-0.981367 14:-0.977204 15:-0.947386 16:-0.87149 17:-0.444801 18:-0.303832 19:-0.864897 20:-0.854509 21:-0.812493 22:-0.65451 23:-0.440927 24:-0.32936 25:-0.169743 26:-0.111838 27:-0.455397 28:-0.67837 29:-0.701614 30:-0.719956 31:-0.763286 32:-0.608972 33:-0.673388 34:-0.718377 35:-0.793155 36:-0.688151 37:-0.573069 38:-0.624864 39:-0.693293 40:-0.581128 41:-0.516541 42:-0.596589 43:-0.566777 44:-0.575883 45:-0.913112 46:-0.997468 47:-0.997759 48:-0.99856 49:-0.998127 50:-0.99769 51:-0.997622 52:-0.996775 53:-0.997207 54:-0.997166 55:-0.998012 56:-0.998556 57:-0.999018 58:-0.998688 59:-0.99896 60:-0.999021 61:-0.99902 62:-0.999128 63:-0.999124 64:-0.998936 65:-0.998966 66:-0.998874 67:-0.998856 68:-0.999099 69:-0.998905 70:-0.998812 71:-0.998688 72:-0.998975 73:-0.998856 74:-0.999203 75:-0.998068 76:-0.997921 77:-0.99796 78:-0.997041 79:-0.996713 80:-0.998491 81:-0.997986 82:-0.998209 83:-0.801035 84:-0.953608 85:-0.951539 86:-1 87:-1 88:-1 89:-1 90:-1 91:-1 92:-1 93:-1 94:-1 95:-1 96:-1 97:-1 98:-1 99:-1 100:-1 101:-1 102:-1 103:-0.753917 104:-0.8101 105:-0.810373 106:-0.866067 107:-0.887044 108:-0.823239 109:-0.84292 110:-0.835913 111:-0.874376 112:-0.864402 113:-1 114:-1 115:-1 116:-1 117:-0.726063 118:-0.605934 119:-0.344924 120:-0.384487 121:-0.307983 122:-0.270991 123:0.0803655 
3.328152112121109 1:0.259575 2:-0.00497459 3:0.774766 4:-0.704371 5:-0.328217 6:-0.46888 7:-0.517142 8:-0.650346 9:-0.771306 10:-0.86157 11:-0.734607 12:-0.979423 13:-0.978992 14:-0.961842 15:-0.897391 16:-0.468021 17:-0.346375 18:-0.75539 19:-0.938115 20:-0.950885 21:-0.84983 22:-0.526641 23:-0.293263 24:-0.234266 25:0.135759 26:-0.0070522 27:-0.608046 28:-0.683271 29:-0.663109 30:-0.713846 31:-0.650544 32:-0.585723 33:-0.634843 34:-0.792763 35:-0.710167 36:-0.672043 37:-0.628903 38:-0.783842 39:-0.633007 40:-0.559651 41:-0.581879 42:-0.674616 43:-0.614263 44:-0.595908 45:-0.885069 46:-0.996251 47:-0.997465 48:-0.997559 49:-0.997495 50:-0.996527 51:-0.99695 52:-0.996161 53:-0.996332 54:-0.996661 55:-0.99736 56:-0.997908 57:-0.99837 58:-0.998487 59:-0.998428 60:-0.9984 61:-0.998849 62:-0.998835 63:-0.998725 64:-0.998446 65:-0.998318 66:-0.998478 67:-0.998359 68:-0.998458 69:-0.998239 70:-0.997669 71:-0.998181 72:-0.998494 73:-0.99817 74:-0.99766 75:-0.997295 76:-0.99712 77:-0.996155 78:-0.99666 79:-0.995939 80:-0.996698 81:-0.995614 82:-0.995966 83:-0.9952 84:-0.944165 85:-0.941675 86:-1 87:-1 88:-1 89:-1 90:-1 91:-1 92:-1 93:-1 94:-1 95:-1 96:-1 97:-1 98:-1 99:-1 100:-1 101:-1 102:-1 103:-0.783654 104:-0.818899 105:-0.807065 106:-0.804791 107:-0.882534 108:-0.883878 109:-0.811142 110:-0.823404 111:-0.835351 112:-0.843252 113:-0.855324 114:-1 115:-1 116:-1 117:-0.781508 118:-0.732277 119:-0.68634 120:-0.489812 121:-0.401764 122:-0.342558 123:-0.219216 
6.249326966291081 1:0.364135 2:0.00435163 3:0.754818 4:-0.412359 5:-0.556428 6:-0.744915 7:-0.829569 8:-0.841881 9:-0.961083 10:-0.978046 11:-0.982744 12:-0.961985 13:-0.924051 14:-0.729419 15:-0.20592 16:-0.197982 17:-0.872338 18:-0.961383 19:-0.982422 20:-0.788386 21:-0.547621 22:-0.284273 23:-0.285073 24:0.545376 25:0.0106701 26:-0.65149 27:-0.684266 28:-0.647348 29:-0.715414 30:-0.55169 31:-0.479221 32:-0.765693 33:-0.80293 34:-0.732387 35:-0.678573 36:-0.801301 37:-0.729217 38:-0.668279 39:-0.574707 40:-0.580621 41:-0.656287 42:-0.661535 43:-0.66669 44:-0.743706 45:-0.853732 46:-0.997422 47:-0.997503 48:-0.997348 49:-0.998349 50:-0.997362 51:-0.997673 52:-0.99636 53:-0.997112 54:-0.99731 55:-0.997847 56:-0.998195 57:-0.998706 58:-0.998705 59:-0.998759 60:-0.998722 61:-0.998641 62:-0.99871 63:-0.998457 64:-0.99823 65:-0.998335 66:-0.998516 67:-0.998285 68:-0.998279 69:-0.997928 70:-0.997713 71:-0.997955 72:-0.997965 73:-0.997968 74:-0.997975 75:-0.997161 76:-0.996893 77:-0.996955 78:-0.996844 79:-0.996672 80:-0.996662 81:-0.996397 82:-0.996892 83:-0.996664 84:-0.934261 85:-0.934598 86:-0.936368 87:-1 88:-1 89:-0.985459 90:-0.985521 91:-1 92:-1 93:-1 94:-1 95:-1 96:-1 97:-0.818721 98:-0.813644 99:-1 100:-1 101:-1 102:-1 103:-0.769296 104:-0.741128 105:-0.798012 106:-0.817027 107:-0.824947 108:-0.340651 109:-0.819685 110:-0.80762 111:-0.789787 112:-0.801275 113:-0.895449 114:-0.891772 115:-1 116:-1 117:-1 118:-1 119:-0.87622 120:-0.87622 121:-0.640866 122:-0.441825 123:-0.388369 
1.72095853014682 1:0.181529 2:0.064146 3:0.765954 4:-0.974832 5:-0.98012 6:-0.983367 7:-0.978969 8:-0.850183 9:-0.68439 10:-0.178556 11:-0.465217 12:-0.525809 13:-0.777564 14:-0.702185 15:-0.953982 16:-0.938899 17:-0.548209 18:-0.444112 19:-0.282607 20:-0.0561106 21:0.365176 22:0.00218168 23:-0.560957 24:-0.439653 25:-0.322517 26:-0.118173 27:-0.705865 28:-0.719555 29:-0.72834 30:-0.683017 31:-0.713523 32:-0.703248 33:-0.683621 34:-0.694321 35:-0.632441 36:-0.709476 37:-0.766381 38:-0.74762 39:-0.679437 40:-0.706656 41:-0.736585 42:-0.67949 43:-0.684502 44:-0.822179 45:-0.996818 46:-0.997688 47:-0.997225 48:-0.997457 49:-0.996656 50:-0.996814 51:-0.995648 52:-0.99591 53:-0.995894 54:-0.996749 55:-0.997768 56:-0.997728 57:-0.997863 58:-0.997536 59:-0.997896 60:-0.997855 61:-0.997892 62:-0.99775 63:-0.997863 64:-0.997523 65:-0.997419 66:-0.997501 67:-0.997125 68:-0.997438 69:-0.997395 70:-0.997513 71:-0.997638 72:-0.99722 73:-0.997073 74:-0.997344 75:-0.996491 76:-0.996734 77:-0.996903 78:-0.997041 79:-0.99737 80:-0.996983 81:-0.997056 82:-0.997012 83:-0.997094 84:-0.996945 85:-0.834968 86:-0.839433 87:-1 88:-1 89:-1 90:-1 91:-1 92:-1 93:-1 94:-1 95:-1 96:-1 97:-1 98:-1 99:-0.938726 100:-0.942255 101:-1 102:-1 103:-1 104:-1 105:-1 106:-1 107:-1 108:-0.796231 109:-0.760067 110:-0.746878 111:-0.339475 112:-0.287033 113:-1 114:-1 115:-1 116:-1 117:-1 118:-1 119:-1 120:-1 121:-1 122:-0.843723 123:-0.71022 
11.96475942342114 1:0.248376 2:0.0104909 3:0.77584 4:-0.466008 5:-0.535066 6:-0.361064 7:-0.271937 8:-0.467392 9:-0.881152 10:-0.767422 11:-0.694633 12:-0.618263 13:-0.771038 14:-0.786966 15:-0.745169 16:-0.76179 17:-0.627058 18:-0.482685 19:-0.547382 20:-0.371808 21:-0.431759 22:-0.726642 23:-0.690514 24:-0.711365 25:-0.682447 26:-0.755778 27:-0.77388 28:-0.794673 29:-0.793676 30:-0.809349 31:-0.815868 32:-0.820236 33:-0.773993 34:-0.686165 35:-0.696049 36:-0.949639 37:-0.982144 38:-0.992579 39:-0.988485 40:-0.986377 41:-0.962203 42:-0.932336 43:-0.918686 44:-0.97672 45:-0.991235 46:-0.992594 47:-0.992757 48:-0.993467 49:-0.994302 50:-0.994266 51:-0.993472 52:-0.993368 53:-0.993969 54:-0.994572 55:-0.995395 56:-0.995111 57:-0.995017 58:-0.994821 59:-0.995708 60:-0.995792 61:-0.995293 62:-0.995946 63:-0.996045 64:-0.995869 65:-0.995367 66:-0.99595 67:-0.994879 68:-0.995092 69:-0.995234 70:-0.995241 71:-0.995776 72:-0.994961 73:-0.99469 74:-0.995068 75:-0.994385 76:-0.994534 77:-0.994995 78:-0.994514 79:-0.945515 80:-0.472236 81:0.00409676 82:0.13127 83:-0.671184 84:-0.965576 85:-0.994157 86:-0.99495 87:-0.995222 88:-0.995145 89:-0.995432 90:-0.994273 91:-0.994046 92:-1 93:-1 94:-1 95:-1 96:-1 97:-1 98:-0.253673 99:-0.239285 100:-0.310124 101:-0.289865 102:-1 103:-1 104:-1 105:-1 106:-1 107:-1 108:-1 109:-1 110:-1 111:-1 112:-1 113:-0.631594 114:-0.618638 115:-1 116:-1 117:-1 118:-1 119:-1 120:-1 121:-1 122:-1 123:-1 
15.01527628298156 1:0.229683 2:0.00985889 3:0.776201 4:-0.924889 5:-0.71359 6:-0.726463 7:-0.670161 8:-0.699831 9:-0.500853 10:-0.403719 11:-0.538196 12:-0.758473 13:-0.802134 14:-0.822013 15:-0.81608 16:-0.819288 17:-0.808959 18:-0.820538 19:-0.791476 20:-0.718434 21:-0.734591 22:-0.747818 23:-0.728552 24:-0.769189 25:-0.806874 26:-0.861017 27:-0.917393 28:-0.946778 29:-0.945146 30:-0.925691 31:-0.906997 32:-0.882444 33:-0.877434 34:-0.874128 35:-0.874153 36:-0.915508 37:-0.978506 38:-0.990874 39:-0.982627 40:-0.960009 41:-0.924863 42:-0.908449 43:-0.964135 44:-0.997773 45:-0.998341 46:-0.998396 47:-0.998405 48:-0.99831 49:-0.998802 50:-0.998673 51:-0.998152 52:-0.998072 53:-0.998687 54:-0.999432 55:-0.999646 56:-0.999664 57:-0.99968 58:-0.999613 59:-0.999592 60:-0.999544 61:-0.999614 62:-0.999648 63:-0.999623 64:-0.999593 65:-0.999588 66:-0.999731 67:-0.999528 68:-0.999598 69:-0.999401 70:-0.999458 71:-0.999492 72:-0.999127 73:-0.998996 74:-0.999024 75:-0.99888 76:-0.998662 77:-0.998246 78:-0.998292 79:-0.932511 80:-0.798862 81:-0.713915 82:0.394268 83:-0.246514 84:-0.621035 85:-0.536622 86:-0.830982 87:-0.86756 88:-0.846788 89:-0.859598 90:-0.876735 91:-0.874677 92:-0.852798 93:-0.819183 94:-0.784066 95:-0.811358 96:-0.828205 97:-0.783294 98:-0.754967 99:-0.57359 100:-0.766604 101:-0.942238 102:-0.944126 103:-0.805299 104:-0.919562 105:-0.983947 106:-0.962013 107:-0.678775 108:-0.316344 109:-0.689279 110:-0.679908 111:-0.738265 112:-0.878208 113:-0.992948 114:-0.9927 115:-1 116:-1 117:-1 118:-1 119:-1 120:-1 121:-1 122:-1 123:-1 
13.60335356579973 1:0.198277 2:0.0283669 3:0.773822 4:-0.823569 5:-0.741889 6:-0.766388 7:-0.762727 8:-0.757548 9:-0.762354 10:-0.77841 11:-0.837158 12:-0.741859 13:-0.751047 14:-0.823413 15:-0.683298 16:-0.545292 17:-0.684783 18:-0.720851 19:-0.812281 20:-0.878599 21:-0.884582 22:-0.91598 23:-0.918691 24:-0.912681 25:-0.89883 26:-0.907612 27:-0.909354 28:-0.894104 29:-0.898538 30:-0.896909 31:-0.81783 32:-0.895166 33:-0.992331 34:-0.995111 35:-0.992902 36:-0.990031 37:-0.989428 38:-0.991789 39:-0.969498 40:-0.923331 41:-0.881147 42:-0.932433 43:-0.993271 44:-0.998186 45:-0.9974 46:-0.996023 47:-0.996954 48:-0.997332 49:-0.998306 50:-0.997944 51:-0.99832 52:-0.998253 53:-0.998878 54:-0.998759 55:-0.999269 56:-0.999311 57:-0.999384 58:-0.999142 59:-0.999299 60:-0.999267 61:-0.999399 62:-0.999465 63:-0.999384 64:-0.999069 65:-0.998974 66:-0.999232 67:-0.999055 68:-0.999211 69:-0.999423 70:-0.999243 71:-0.999126 72:-0.998702 73:-0.998614 74:-0.998614 75:-0.998265 76:-0.998246 77:-0.997644 78:-0.998584 79:-0.689104 80:-0.576054 81:-0.495048 82:-0.459989 83:-0.908589 84:-0.945889 85:-0.720836 86:-0.65414 87:-0.746768 88:-0.839096 89:-0.904784 90:-0.897344 91:-0.875563 92:-0.855074 93:-0.831558 94:-0.794307 95:-0.792714 96:-0.789386 97:-0.799149 98:-0.833218 99:-0.849767 100:-0.864612 101:-0.859928 102:-0.945255 103:-0.817711 104:-0.93114 105:-0.967193 106:-0.958631 107:-0.943824 108:-0.449728 109:-0.507255 110:-0.561753 111:-0.498256 112:-0.470647 113:-0.159597 114:-0.999676 115:-0.999526 116:-0.999387 117:-0.999337 118:-0.999092 119:-0.999217 120:-0.405798 121:-0.566298 122:-0.625775 123:-0.771668 
4.894723376711521 1:0.251037 2:0.0216047 3:0.736351 4:-0.904182 5:-0.975484 6:-0.931674 7:-0.835939 8:-0.703958 9:-0.405236 10:0.000625395 11:-0.465947 12:-0.479615 13:-0.452358 14:-0.998175 15:-0.996478 16:-0.997116 17:-0.991794 18:-0.98917 19:-0.977966 20:-0.972289 21:-0.927675 22:-0.857939 23:-0.920921 24:-0.956531 25:-0.987112 26:-0.988923 27:-0.986765 28:-0.986839 29:-0.98837 30:-0.986856 31:-0.993389 32:-0.994563 33:-0.994093 34:-0.990818 35:-0.989241 36:-0.993354 37:-0.989548 38:-0.975788 39:-0.942081 40:-0.927009 41:-0.941957 42:-0.972659 43:-0.996532 44:-0.996528 45:-0.997583 46:-0.9974 47:-0.99648 48:-0.996276 49:-0.997359 50:-0.997674 51:-0.998034 52:-0.998202 53:-0.998249 54:-0.998599 55:-0.998711 56:-0.998663 57:-0.998854 58:-0.99884 59:-0.999098 60:-0.999178 61:-0.999094 62:-0.998944 63:-0.998848 64:-0.998803 65:-0.998789 66:-0.998986 67:-0.998732 68:-0.998875 69:-0.999171 70:-0.998775 71:-0.998773 72:-0.99859 73:-0.998132 74:-0.998234 75:-0.998312 76:-0.997309 77:-0.998283 78:-0.520707 79:-0.0420482 80:0.0562749 81:-0.432605 82:-0.797628 83:-0.988913 84:-0.987122 85:-0.942129 86:-0.946558 87:-0.907739 88:-0.746281 89:-0.742488 90:-0.740402 91:-0.809796 92:-0.870167 93:-0.889111 94:-0.884706 95:-0.902125 96:-0.915454 97:-0.898155 98:-0.872666 99:-0.849024 100:-0.854116 101:-0.846462 102:-0.872211 103:-0.91544 104:-0.919702 105:-0.885959 106:-0.867797 107:-0.894553 108:-0.858889 109:-0.841024 110:-0.743273 111:-0.702068 112:-0.533442 113:-0.441054 114:-0.616369 115:-0.653378 116:-0.734504 117:-0.569241 118:-0.586875 119:-0.939781 120:-0.99408 121:-0.846802 122:-0.708282 123:-0.620849 
15.94886829628148 1:0.249666 2:0.0234284 3:0.776951 4:-0.666635 5:-0.717909 6:-0.698402 7:-0.663044 8:-0.697587 9:-0.696236 10:-0.655901 11:-0.426659 12:-0.390139 13:-0.566542 14:-0.796098 15:-0.924894 16:-0.987042 17:-0.991039 18:-0.991543 19:-0.993072 20:-0.99452 21:-0.995497 22:-0.995212 23:-0.995541 24:-0.996303 25:-0.996341 26:-0.995696 27:-0.992401 28:-0.991625 29:-0.990323 30:-0.9896 31:-0.986128 32:-0.991244 33:-0.97411 34:-0.932867 35:-0.920082 36:-0.912206 37:-0.875583 38:-0.831683 39:-0.769904 40:-0.734315 41:-0.709964 42:-0.698713 43:-0.595656 44:-0.52399 45:-0.590451 46:-0.792721 47:-0.787027 48:-0.895074 49:-0.996039 50:-0.996093 51:-0.996623 52:-0.997173 53:-0.99782 54:-0.997326 55:-0.99732 56:-0.997137 57:-0.997271 58:-0.996763 59:-0.99664 60:-0.996479 61:-0.996459 62:-0.996863 63:-0.996791 64:-0.996318 65:-0.996401 66:-0.996979 67:-0.996876 68:-0.996671 69:-0.996307 70:-0.99441 71:-0.995289 72:-0.994945 73:-0.995656 74:-0.996568 75:-0.99534 76:-0.995063 77:-0.994628 78:-0.991543 79:-0.970991 80:-0.51505 81:-0.257217 82:-0.853994 83:-0.991033 84:-0.993449 85:-0.990618 86:-0.992611 87:-0.996521 88:-0.99682 89:-0.979779 90:-0.944849 91:-0.93817 92:-0.967452 93:-0.978725 94:-0.832919 95:-0.659674 96:-0.626105 97:-0.644182 98:-0.665341 99:-0.706346 100:-0.759847 101:-0.765588 102:-0.744622 103:-0.709446 104:-0.75966 105:-0.865148 106:-0.916334 107:-0.914278 108:-0.909113 109:-0.891481 110:-0.870603 111:-0.877628 112:-0.892566 113:-0.911159 114:-0.89612 115:-0.874267 116:-0.997326 117:-0.995411 118:-0.9953 119:-0.993857 120:-0.724243 121:-0.636298 122:-0.590395 123:-0.833447 
5.768856364490834 1:0.266187 2:0.0300461 3:0.758752 4:-0.678461 5:-0.580904 6:-0.630069 7:-0.632274 8:-0.678837 9:-0.631962 10:-0.187615 11:-0.941826 12:-0.96887 13:-0.979896 14:-0.983359 15:-0.98359 16:-0.989707 17:-0.991716 18:-0.992668 19:-0.991829 20:-0.993277 21:-0.994587 22:-0.995147 23:-0.994662 24:-0.991689 25:-0.991068 26:-0.991717 27:-0.989154 28:-0.984568 29:-0.985597 30:-0.982118 31:-0.965659 32:-0.918826 33:-0.937926 34:-0.95954 35:-0.931635 36:-0.894926 37:-0.82164 38:-0.793919 39:-0.719636 40:-0.66596 41:-0.677976 42:-0.691219 43:-0.617458 44:-0.627705 45:-0.814962 46:-0.812947 47:-0.805221 48:-0.789326 49:-0.984535 50:-0.995741 51:-0.995639 52:-0.995599 53:-0.996372 54:-0.997422 55:-0.997564 56:-0.997317 57:-0.997723 58:-0.997629 59:-0.997727 60:-0.997885 61:-0.997958 62:-0.997603 63:-0.997371 64:-0.997116 65:-0.99773 66:-0.997949 67:-0.997456 68:-0.997535 69:-0.997528 70:-0.997647 71:-0.997708 72:-0.997444 73:-0.995897 74:-0.996346 75:-0.99668 76:-0.997218 77:-0.997769 78:-0.998514 79:-0.998267 80:-0.997794 81:-0.477636 82:-0.903571 83:-0.968306 84:-0.990999 85:-0.995923 86:-0.996888 87:-0.992645 88:-0.993601 89:-0.993582 90:-0.992809 91:-0.985779 92:-0.965796 93:-0.935372 94:-0.953512 95:-0.975818 96:-0.981294 97:-0.85487 98:-0.705301 99:-0.627845 100:-0.660155 101:-0.637402 102:-0.63987 103:-0.690003 104:-0.713887 105:-0.701222 106:-0.637486 107:-0.664884 108:-0.68635 109:-0.821116 110:-0.869079 111:-0.883709 112:-0.861364 113:-0.872041 114:-1 115:-1 116:-1 117:-1 118:-1 119:-0.986999 120:-0.991825 121:-0.496344 122:-0.647856 123:-0.69196 
17.63967888886768 1:0.248314 2:0.0485722 3:0.761474 4:-0.565764 5:-0.5964 6:-0.740548 7:-0.754883 8:-0.383002 9:-0.890434 10:-0.964183 11:-0.970298 12:-0.98573 13:-0.989311 14:-0.988807 15:-0.990938 16:-0.992954 17:-0.993049 18:-0.993174 19:-0.995224 20:-0.996014 21:-0.995497 22:-0.99406 23:-0.990286 24:-0.990538 25:-0.990619 26:-0.988772 27:-0.985329 28:-0.987538 29:-0.981601 30:-0.945172 31:-0.934431 32:-0.948595 33:-0.959747 34:-0.944306 35:-0.902396 36:-0.852812 37:-0.783311 38:-0.726551 39:-0.640987 40:-0.711689 41:-0.769118 42:-0.768337 43:-0.779722 44:-0.809115 45:-0.798587 46:-0.826117 47:-0.800776 48:-0.907186 49:-0.995178 50:-0.993275 51:-0.994312 52:-0.994855 53:-0.995735 54:-0.995893 55:-0.996228 56:-0.996202 57:-0.996265 58:-0.995661 59:-0.996348 60:-0.996158 61:-0.996102 62:-0.996606 63:-0.996965 64:-0.99606 65:-0.995754 66:-0.996718 67:-0.99526 68:-0.995926 69:-0.996189 70:-0.995145 71:-0.99567 72:-0.996515 73:-0.995788 74:-0.996647 75:-0.995978 76:-0.996273 77:-0.99647 78:-0.997067 79:-0.995912 80:-0.994684 81:-0.705671 82:-0.953441 83:-0.977652 84:-0.992872 85:-0.995887 86:-0.996806 87:-0.992645 88:-0.993713 89:-0.993249 90:-0.993271 91:-0.987443 92:-0.975328 93:-0.968549 94:-0.951389 95:-0.974086 96:-0.982973 97:-0.982488 98:-0.811071 99:-0.680077 100:-0.633782 101:-0.62836 102:-0.63089 103:-0.621792 104:-0.658121 105:-0.688063 106:-0.677834 107:-0.63295 108:-0.638608 109:-0.631938 110:-1 111:-1 112:-1 113:-0.838763 114:-0.833093 115:-1 116:-1 117:-1 118:-1 119:-1 120:-0.923276 121:-0.416815 122:-0.683404 123:-0.68635 
24.24093551839322 1:0.254287 2:0.0422614 3:0.781968 4:-0.995729 5:-0.995767 6:-0.99623 7:-0.99619 8:-0.995781 9:-0.99682 10:-0.996358 11:-0.994496 12:-0.962042 13:-0.879185 14:-0.828141 15:-0.664205 16:-0.679577 17:-0.57396 18:-0.596852 19:-0.940892 20:-0.987603 21:-0.975507 22:-0.96541 23:-0.969889 24:-0.887851 25:-0.846648 26:-0.834621 27:-0.848592 28:-0.874153 29:-0.874674 30:-0.877981 31:-0.87954 32:-0.870977 33:-0.85806 34:-0.866316 35:-0.873858 36:-0.905195 37:-0.975083 38:-0.99117 39:-0.987547 40:-0.994381 41:-0.998101 42:-0.920088 43:-0.743137 44:-0.793785 45:-0.806707 46:-0.82969 47:-0.791006 48:-0.887374 49:-0.996541 50:-0.996175 51:-0.997244 52:-0.998279 53:-0.999355 54:-0.999231 55:-0.999285 56:-0.999204 57:-0.999173 58:-0.999092 59:-0.999306 60:-0.999223 61:-0.999443 62:-0.999568 63:-0.999486 64:-0.999277 65:-0.999117 66:-0.999224 67:-0.999204 68:-0.999196 69:-0.998979 70:-0.998307 71:-0.998442 72:-0.997965 73:-0.997843 74:-0.998033 75:-0.997571 76:-0.997656 77:-0.997476 78:-0.997232 79:-0.997747 80:-0.998292 81:-0.99896 82:-0.999308 83:-0.809208 84:-0.884128 85:-0.933393 86:-0.988961 87:-0.989422 88:-0.988646 89:-0.971257 90:-0.95858 91:-0.952446 92:-0.949489 93:-0.946387 94:-0.933639 95:-0.940147 96:-0.946824 97:-0.952103 98:-0.953925 99:-0.958891 100:-0.963765 101:-0.970204 102:-0.97832 103:-0.975594 104:-0.957918 105:-0.935962 106:-0.93006 107:-0.89207 108:-0.83924 109:-0.798597 110:-0.737623 111:-0.723562 112:-0.701614 113:-0.672026 114:-0.660492 115:-1 116:-1 117:-1 118:-1 119:-1 120:-1 121:-1 122:-1 123:-1 
4.736213012412994 1:0.263655 2:0.0623674 3:0.740174 4:-0.163524 5:-0.999279 6:-0.998974 7:-0.998255 8:-0.87541 9:-0.309971 10:-0.84332 11:-0.956759 12:-0.8469 13:-0.549598 14:-0.384401 15:-0.991777 16:-0.905171 17:-0.893155 18:-0.911415 19:-0.812005 20:-0.626059 21:-0.997201 22:-0.994485 23:-0.876914 24:0.311183 25:0.348765 26:-0.491917 27:-0.525757 28:-0.904937 29:-0.991606 30:-0.993534 31:-0.998192 32:-0.998807 33:-0.998652 34:-0.998539 35:-0.997652 36:-0.995905 37:-0.991678 38:-0.995861 39:-0.988207 40:-0.995815 41:-0.999072 42:-0.994563 43:-0.934975 44:-0.701297 45:-0.722642 46:-0.771651 47:-0.770262 48:-0.746346 49:-0.967197 50:-0.997453 51:-0.997446 52:-0.998063 53:-0.998417 54:-0.998935 55:-0.998876 56:-0.998802 57:-0.998885 58:-0.998655 59:-0.998644 60:-0.998655 61:-0.998723 62:-0.998754 63:-0.998703 64:-0.998587 65:-0.998587 66:-0.998792 67:-0.998459 68:-0.998347 69:-0.998268 70:-0.9981 71:-0.998025 72:-0.997981 73:-0.997937 74:-0.997968 75:-0.99847 76:-0.997558 77:-0.867001 78:-0.841452 79:-0.202817 80:0.419459 81:0.140897 82:-0.162226 83:-0.674375 84:-0.893435 85:-0.913112 86:-0.910061 87:-0.917812 88:-0.931152 89:-0.917241 90:-0.915253 91:-0.899966 92:-0.671105 93:-0.759646 94:-0.832018 95:-0.875773 96:-0.865398 97:-0.861269 98:-0.907064 99:-0.847444 100:-0.760029 101:-0.768202 102:-0.760373 103:-0.753648 104:-1 105:-1 106:-1 107:-1 108:-1 109:-1 110:-1 111:-1 112:-1 113:-1 114:-1 115:-1 116:-0.885323 117:-0.920689 118:-0.918762 119:-1 120:-1 121:-1 122:-1 123:-1 
8.158751868383124 1:0.263655 2:0.0623674 3:0.740174 4:-0.747934 5:-0.998208 6:-0.872442 7:-0.998194 8:-0.579496 9:-0.998715 10:-0.84332 11:-0.533828 12:-0.843767 13:-0.379939 14:-0.883182 15:-0.906742 16:-0.918772 17:-0.929264 18:-0.912495 19:-0.677534 20:-0.602069 21:-0.996778 22:-0.992512 23:0.0375878 24:0.201741 25:-0.0158358 26:-0.523078 27:-0.602201 28:-0.87065 29:-0.987192 30:-0.993852 31:-0.99862 32:-0.998996 33:-0.998854 34:-0.998845 35:-0.998282 36:-0.997506 37:-0.991718 38:-0.994054 39:-0.990159 40:-0.997567 41:-0.999131 42:-0.995082 43:-0.911535 44:-0.709993 45:-0.728209 46:-0.775574 47:-0.779288 48:-0.784248 49:-0.963667 50:-0.997403 51:-0.998219 52:-0.99815 53:-0.998711 54:-0.999071 55:-0.999049 56:-0.998975 57:-0.998963 58:-0.998688 59:-0.998844 60:-0.998901 61:-0.998938 62:-0.998908 63:-0.998928 64:-0.998795 65:-0.99884 66:-0.99906 67:-0.998765 68:-0.998726 69:-0.99849 70:-0.998523 71:-0.998378 72:-0.998326 73:-0.997742 74:-0.99794 75:-0.998107 76:-0.997414 77:-0.879733 78:-0.8545 79:-0.541367 80:0.607659 81:0.0529649 82:0.128327 83:-0.0686878 84:-0.891697 85:-0.912871 86:-0.912642 87:-0.91111 88:-0.925353 89:-0.921038 90:-0.91129 91:-0.90644 92:-0.891754 93:-0.661507 94:-0.746252 95:-0.846806 96:-0.793544 97:-0.865908 98:-0.859236 99:-0.900605 100:-0.822624 101:-0.731527 102:-0.747494 103:-0.731558 104:-0.733949 105:-1 106:-1 107:-1 108:-1 109:-1 110:-1 111:-1 112:-1 113:-1 114:-1 115:-1 116:-1 117:-1 118:-1 119:-1 120:-1 121:-1 122:-1 123:-1 
6.742099186453148 1:0.228809 2:0.10545 3:0.689383 4:-0.410822 5:-0.955161 6:-0.958339 7:-0.956695 8:-0.953465 9:-0.929445 10:-0.753166 11:-0.738395 12:-0.825921 13:-0.944544 14:-0.94811 15:-0.918971 16:-0.862701 17:-0.62442 18:-0.604508 19:-0.721653 20:-0.709082 21:-0.44663 22:-0.995183 23:-0.885135 24:-0.895759 25:-0.724001 26:-0.817579 27:-0.998571 28:-0.991891 29:-0.995378 30:-0.970809 31:-0.719986 32:-0.348279 33:-0.266786 34:-0.413173 35:-0.740874 36:-0.979811 37:-0.972323 38:-0.977315 39:-0.986566 40:-0.99813 41:-0.999153 42:-0.99581 43:-0.818964 44:-0.770388 45:-0.77222 46:-0.80126 47:-0.754656 48:-0.799725 49:-0.99868 50:-0.998935 51:-0.998983 52:-0.998945 53:-0.999085 54:-0.999416 55:-0.999497 56:-0.99945 57:-0.999524 58:-0.99942 59:-0.99943 60:-0.999514 61:-0.999569 62:-0.999619 63:-0.999536 64:-0.999368 65:-0.999403 66:-0.999485 67:-0.999246 68:-0.998801 69:-0.998631 70:-0.998575 71:-0.998533 72:-0.998069 73:-0.997805 74:-0.998263 75:-0.997753 76:-0.996704 77:-0.995979 78:-0.998743 79:-0.998391 80:-0.997801 81:-0.997737 82:-0.828554 83:-0.938804 84:-0.971916 85:-0.970664 86:-1 87:-1 88:-0.679676 89:-0.750893 90:-0.794662 91:-0.814897 92:-0.834494 93:-0.822159 94:-0.804979 95:-0.834375 96:-0.852331 97:-0.864673 98:-0.86533 99:-0.867673 100:-0.880954 101:-0.885405 102:-0.88664 103:-0.857863 104:-0.859129 105:-0.39487 106:-0.758083 107:-0.947697 108:-0.970666 109:-0.953433 110:-0.904803 111:-0.861907 112:-0.606857 113:-0.418394 114:-0.433256 115:-0.4534 116:-0.544654 117:-0.348883 118:-0.0997727 119:-0.379708 120:-0.989422 121:-0.989829 122:-0.984594 123:-0.99486 
3.757407143803824 1:0.212894 2:0.126549 3:0.679922 4:-0.948072 5:-0.93581 6:-0.868609 7:-0.807384 8:-0.747599 9:-0.80644 10:-0.906177 11:-0.937758 12:-0.939845 13:-0.879179 14:-0.77512 15:-0.507442 16:-0.449718 17:-0.707304 18:-0.903171 19:-0.809926 20:-0.907754 21:-0.700727 22:-0.87059 23:-0.883588 24:-0.403718 25:0.375849 26:-0.267591 27:-0.988497 28:-0.974989 29:-0.97343 30:-0.963418 31:0.528025 32:-0.577268 33:-0.907088 34:-0.987475 35:-0.986442 36:-0.97919 37:-0.952201 38:-0.976518 39:-0.984529 40:-0.991354 41:-0.991445 42:-0.98788 43:-0.798056 44:-0.698369 45:-0.746817 46:-0.821965 47:-0.754701 48:-0.78755 49:-0.986222 50:-0.989491 51:-0.989952 52:-0.990748 53:-0.99299 54:-0.99289 55:-0.993289 56:-0.992773 57:-0.9926 58:-0.991777 59:-0.992464 60:-0.992914 61:-0.99363 62:-0.994517 63:-0.994271 64:-0.993633 65:-0.993383 66:-0.994093 67:-0.993014 68:-0.991792 69:-0.990801 70:-0.99274 71:-0.994387 72:-0.994039 73:-0.993056 74:-0.993811 75:-0.993739 76:-0.99399 77:-0.994768 78:-0.372921 79:-0.114598 80:0.134437 81:-0.444613 82:-0.429115 83:-1 84:-0.801757 85:-0.889733 86:-0.966014 87:-0.966853 88:-1 89:-1 90:-0.629703 91:-0.5686 92:-0.609372 93:-0.670858 94:-0.643504 95:-0.656615 96:-0.653363 97:-0.633116 98:-0.634723 99:-0.658353 100:-0.695966 101:-0.710565 102:-0.735442 103:-0.746086 104:-0.804872 105:-0.841898 106:-0.832682 107:-0.817994 108:-0.874821 109:-0.960636 110:-0.956128 111:-0.950262 112:-0.863495 113:-0.801911 114:-0.593695 115:-0.39749 116:-0.385724 117:-0.521942 118:-0.47481 119:-0.333408 120:-0.516786 121:-0.989856 122:-0.989835 123:-0.996762 
0.1290313625613748 1:0.186853 2:0.131994 3:0.680663 4:-0.900652 5:-0.944784 6:-0.949289 7:-0.926625 8:-0.882316 9:-0.796533 10:-0.5164 11:-0.456346 12:-0.621367 13:-0.821519 14:-0.987238 15:-0.984747 16:-0.98588 17:-0.988066 18:-0.987385 19:-0.873163 20:-0.969108 21:-0.656961 22:-0.685637 23:-0.618544 24:0.159476 25:-0.209381 26:-0.665443 27:-0.526024 28:-0.316138 29:-0.991457 30:-0.995043 31:-0.997587 32:-0.998562 33:-0.99873 34:-0.998967 35:-0.998406 36:-0.998456 37:-0.99388 38:-0.993147 39:-0.988063 40:-0.997305 41:-0.998329 42:-0.99762 43:-0.923098 44:-0.763358 45:-0.796546 46:-0.814513 47:-0.800423 48:-0.714015 49:-0.90838 50:-0.998255 51:-0.99811 52:-0.998496 53:-0.998966 54:-0.999255 55:-0.999356 56:-0.99927 57:-0.99929 58:-0.999168 59:-0.999191 60:-0.999215 61:-0.999206 62:-0.999201 63:-0.999189 64:-0.999269 65:-0.999378 66:-0.999448 67:-0.999503 68:-0.999575 69:-0.99946 70:-0.998493 71:-0.997941 72:-0.998045 73:-0.998583 74:-0.997918 75:-0.998218 76:-0.999153 77:-0.997916 78:-0.974343 79:-0.709874 80:-0.551309 81:0.25174 82:0.720248 83:0.664905 84:-1 85:-1 86:-1 87:-1 88:-1 89:-1 90:-1 91:-1 92:-1 93:-1 94:-0.852997 95:-0.727154 96:-0.630738 97:-0.552522 98:-0.505165 99:-0.432471 100:-0.514803 101:-0.569238 102:-0.645222 103:-0.686824 104:-0.689207 105:-0.687005 106:-0.702024 107:-0.713524 108:-0.779849 109:-0.803299 110:-0.751114 111:-0.753842 112:-0.736186 113:-0.718747 114:-0.708856 115:-1 116:-0.556561 117:-0.505064 118:-0.580898 119:-0.643037 120:-0.605188 121:-0.467285 122:0.223519 123:-0.990492 
9.827110287675485 1:0.267171 2:0.121846 3:0.665343 4:-0.939884 5:-0.943243 6:-0.931586 7:-0.887536 8:-0.796664 9:-0.69462 10:-0.451456 11:-0.593475 12:-0.789152 13:-0.987899 14:-0.986544 15:-0.985362 16:-0.988703 17:-0.987353 18:-0.988164 19:-0.843096 20:-0.91684 21:0.0376159 22:-0.723719 23:0.402521 24:0.0559166 25:-0.435457 26:-0.478175 27:-0.625755 28:-0.991906 29:-0.992895 30:-0.996877 31:-0.998266 32:-0.998688 33:-0.998457 34:-0.997705 35:-0.99822 36:-0.996827 37:-0.993107 38:-0.993036 39:-0.990016 40:-0.997519 41:-0.99841 42:-0.991845 43:-0.849638 44:-0.767834 45:-0.813183 46:-0.80875 47:-0.760206 48:-0.773403 49:-0.989853 50:-0.997952 51:-0.99832 52:-0.998738 53:-0.998854 54:-0.9994 55:-0.999316 56:-0.999368 57:-0.999298 58:-0.999226 59:-0.999283 60:-0.99935 61:-0.999376 62:-0.99926 63:-0.999384 64:-0.999377 65:-0.999411 66:-0.999523 67:-0.999594 68:-0.999613 69:-0.999238 70:-0.998241 71:-0.99804 72:-0.998566 73:-0.998178 74:-0.997882 75:-0.998809 76:-0.99848 77:-0.997945 78:-0.76401 79:-0.680311 80:-0.377663 81:0.252509 82:-0.156769 83:-0.183897 84:-1 85:-1 86:-1 87:-1 88:-1 89:-1 90:-1 91:-1 92:-1 93:-0.906376 94:-0.813616 95:-0.721676 96:-0.630513 97:-0.553354 98:-0.519401 99:-0.421077 100:-0.497753 101:-0.598972 102:-0.635883 103:-0.679475 104:-0.699003 105:-0.69643 106:-0.71039 107:-0.733201 108:-0.796095 109:-0.781516 110:-0.753869 111:-0.768607 112:-0.748974 113:-0.759349 114:-0.750886 115:-1 116:-0.515388 117:-0.488806 118:-0.69244 119:-0.613916 120:-0.589467 121:-0.429632 122:-0.340948 123:-0.992166 
0.1564885474641105 1:0.28356 2:0.136318 3:0.655188 4:-0.875592 5:-0.848267 6:-0.787955 7:-0.746836 8:-0.681595 9:-0.858036 10:-0.978391 11:-0.986554 12:-0.987371 13:-0.991165 14:-0.991205 15:-0.989166 16:-0.98942 17:-0.988351 18:-0.987018 19:-0.983716 20:-0.928138 21:-0.4369 22:-0.182944 23:-0.662288 24:-0.691912 25:-0.608787 26:-0.982573 27:-0.980306 28:-0.973216 29:-0.976726 30:-0.986742 31:-0.99206 32:-0.990991 33:-0.990804 34:-0.989403 35:-0.987764 36:-0.98317 37:-0.978737 38:-0.981874 39:-0.979854 40:-0.989919 41:-0.992277 42:-0.988534 43:-0.830105 44:-0.728049 45:-0.750645 46:-0.815555 47:-0.790953 48:-0.776486 49:-0.940243 50:-0.98791 51:-0.988725 52:-0.988241 53:-0.989839 54:-0.989968 55:-0.990515 56:-0.990402 57:-0.991797 58:-0.991365 59:-0.992063 60:-0.992705 61:-0.992784 62:-0.992435 63:-0.992474 64:-0.991306 65:-0.991239 66:-0.991788 67:-0.991026 68:-0.991718 69:-0.991593 70:-0.990869 71:-0.988837 72:-0.988816 73:-0.990751 74:-0.991155 75:-0.990498 76:-0.992425 77:-0.991913 78:-0.984559 79:-0.723468 80:-0.550569 81:-0.400168 82:-0.594646 83:-0.607686 84:-1 85:-1 86:-1 87:-1 88:-1 89:-1 90:-1 91:-1 92:-1 93:-1 94:-1 95:-0.939648 96:-0.947029 97:-0.936658 98:-0.877301 99:-0.769665 100:-0.706427 101:-0.581838 102:-0.544168 103:-0.434943 104:-0.439976 105:-1 106:-1 107:-1 108:-1 109:-1 110:-1 111:-1 112:-0.976018 113:-0.986768 114:-0.979031 115:-0.974996 116:-0.969589 117:-0.953602 118:-0.24848 119:-0.283739 120:-0.47058 121:-0.678195 122:0.0870743 123:-0.991424 
17.92743443125776 1:0.209973 2:0.156505 3:0.64956 4:-0.87985 5:-0.801259 6:-0.839616 7:-0.772268 8:-0.793001 9:-0.969396 10:-0.9813 11:-0.989556 12:-0.989447 13:-0.990842 14:-0.990693 15:-0.987749 16:-0.989612 17:-0.98833 18:-0.986944 19:-0.98304 20:-0.868766 21:-0.26596 22:-0.650363 23:-0.680627 24:-0.671946 25:-0.986192 26:-0.986938 27:-0.978899 28:-0.975897 29:-0.983055 30:-0.988417 31:-0.99178 32:-0.991102 33:-0.990734 34:-0.988095 35:-0.984942 36:-0.980919 37:-0.978298 38:-0.980067 39:-0.976058 40:-0.988223 41:-0.990319 42:-0.987235 43:-0.814337 44:-0.729038 45:-0.778441 46:-0.799397 47:-0.782289 48:-0.781603 49:-0.94795 50:-0.985223 51:-0.986297 52:-0.986745 53:-0.988741 54:-0.988927 55:-0.989155 56:-0.988966 57:-0.990417 58:-0.98954 59:-0.990399 60:-0.991314 61:-0.991767 62:-0.991248 63:-0.990642 64:-0.990118 65:-0.989448 66:-0.991863 67:-0.990271 68:-0.990913 69:-0.990046 70:-0.989844 71:-0.988597 72:-0.98868 73:-0.990681 74:-0.990954 75:-0.990332 76:-0.991797 77:-0.991847 78:-0.992952 79:-0.730282 80:-0.638218 81:-0.405981 82:-0.579864 83:-0.922684 84:-0.927947 85:-1 86:-1 87:-1 88:-1 89:-1 90:-1 91:-1 92:-1 93:-0.79759 94:-0.786409 95:-0.925054 96:-0.965061 97:-0.945418 98:-0.88261 99:-0.880347 100:-0.798251 101:-0.659917 102:-0.583107 103:-0.512833 104:-0.517173 105:-1 106:-1 107:-1 108:-1 109:-1 110:-1 111:-1 112:-1 113:-0.97811 114:-0.986147 115:-0.971341 116:-0.977338 117:-0.965502 118:-0.963196 119:-0.142226 120:-0.339145 121:-0.496594 122:-0.211084 123:-0.777373 
10.21406254847166 1:0.209973 2:0.156505 3:0.64956 4:-0.811301 5:-0.846025 6:-0.851731 7:-0.923935 8:-0.967497 9:-0.978269 10:-0.98752 11:-0.989406 12:-0.990947 13:-0.99135 14:-0.988794 15:-0.988797 16:-0.988251 17:-0.987039 18:-0.982697 19:-0.974702 20:-0.556251 21:-0.656452 22:-0.645604 23:-0.663218 24:-0.620386 25:-0.991152 26:-0.987806 27:-0.971401 28:-0.977699 29:-0.985187 30:-0.990828 31:-0.991337 32:-0.991181 33:-0.989869 34:-0.987681 35:-0.985906 36:-0.97924 37:-0.980764 38:-0.97775 39:-0.98381 40:-0.989253 41:-0.9892 42:-0.987377 43:-0.813244 44:-0.713287 45:-0.75949 46:-0.793375 47:-0.770473 48:-0.795844 49:-0.957961 50:-0.985854 51:-0.988212 52:-0.987177 53:-0.989576 54:-0.989175 55:-0.990593 56:-0.989844 57:-0.990885 58:-0.990011 59:-0.990969 60:-0.99112 61:-0.991314 62:-0.991167 63:-0.991149 64:-0.990026 65:-0.989607 66:-0.990475 67:-0.989335 68:-0.990169 69:-0.990246 70:-0.990223 71:-0.989894 72:-0.988111 73:-0.989529 74:-0.989906 75:-0.989867 76:-0.991049 77:-0.991253 78:-0.991517 79:-0.905844 80:-0.859233 81:-0.465643 82:-0.697164 83:-0.936255 84:-0.940594 85:-1 86:-1 87:-1 88:-1 89:-1 90:-1 91:-1 92:-1 93:-1 94:-0.828439 95:-0.842076 96:-0.930862 97:-0.962247 98:-0.947108 99:-0.946089 100:-0.818218 101:-0.796217 102:-0.738031 103:-0.661866 104:-0.610881 105:-0.61144 106:-1 107:-1 108:-1 109:-1 110:-1 111:-1 112:-1 113:-1 114:-0.985133 115:-0.980541 116:-0.979539 117:-0.970343 118:-0.961573 119:-0.147984 120:-0.226652 121:-0.288852 122:-0.253449 123:-0.612295 
